-0.049409	0.007236	-0.055444	0.050255	-0.090635	0.020537	-0.026158	0.006943	0.036434	-0.075704	0.041336	-0.126359	0.075829	-0.118559	0.016369	-0.071771	-0.138758	0.093179	-0.145393	0.112792	-0.136004	0.086021	-0.118258	0.015009	0.118441	-0.205009	0.127319	-0.213870	0.123993	-0.151534	0.065550	-0.074148	-0.209241	0.178318	-0.235919	0.173964	-0.214732	0.107019	-0.160801	0.070652	0.152127	-0.225047	0.197540	-0.245888	0.167576	-0.228237	0.113648	-0.143700	-0.191170	0.152237	-0.209434	0.195182	-0.265773	0.184520	-0.160640	0.106303	0.096445	-0.166178	0.121393	-0.181651	0.144732	-0.181238	0.093711	-0.118351
-0.052633	0.025650	-0.071572	0.048012	-0.094234	0.022002	-0.051172	0.021968	0.043942	-0.073419	0.022738	-0.123364	0.081323	-0.115727	0.045883	-0.101320	-0.140759	0.099371	-0.131691	0.131158	-0.176803	0.095074	-0.126544	0.044557	0.126097	-0.215749	0.150207	-0.225810	0.137392	-0.169494	0.077981	-0.124615	-0.221515	0.206239	-0.266136	0.201348	-0.254266	0.136054	-0.164573	0.067064	0.153446	-0.243391	0.237231	-0.264291	0.201939	-0.238020	0.105165	-0.166351	-0.211720	0.214066	-0.238069	0.219842	-0.278092	0.173692	-0.171507	0.108753	0.124356	-0.191489	0.146569	-0.225140	0.166600	-0.167765	0.099681	-0.119055
-0.066900	0.014962	-0.098126	0.048437	-0.117063	0.040915	-0.068947	0.024689	0.045471	-0.105280	0.074727	-0.157701	0.092205	-0.104652	0.031331	-0.080126	-0.144766	0.117001	-0.175797	0.136423	-0.172775	0.110761	-0.138474	0.047341	0.133400	-0.229271	0.164024	-0.255457	0.174899	-0.168899	0.075847	-0.105345	-0.242725	0.220563	-0.262050	0.203033	-0.236740	0.152474	-0.159422	0.101572	0.157473	-0.259454	0.212392	-0.280758	0.205391	-0.240602	0.136529	-0.163266	-0.213350	0.204761	-0.240306	0.250005	-0.276138	0.185328	-0.202590	0.111673	0.112645	-0.172344	0.136648	-0.211711	0.154046	-0.213589	0.112169	-0.107890
-0.067787	0.006849	-0.080598	0.052233	-0.117446	0.039468	-0.060796	-0.004400	0.060472	-0.099549	0.079375	-0.136850	0.077778	-0.134609	0.058971	-0.080097	-0.147830	0.153939	-0.162081	0.167535	-0.175433	0.122973	-0.153651	0.057749	0.136489	-0.240782	0.160496	-0.254694	0.187850	-0.205028	0.105382	-0.138132	-0.242400	0.228814	-0.281650	0.207505	-0.264002	0.163997	-0.184899	0.089232	0.164419	-0.263632	0.249214	-0.271169	0.189866	-0.248418	0.130647	-0.167203	-0.226268	0.190189	-0.234225	0.232234	-0.299892	0.193584	-0.199651	0.101539	0.136263	-0.177220	0.117125	-0.202795	0.187628	-0.188727	0.101556	-0.124272
-0.056334	0.014405	-0.080923	0.061004	-0.122494	0.043105	-0.101643	0.002912	0.053815	-0.119859	0.089686	-0.168561	0.093912	-0.127643	0.074380	-0.104994	-0.139267	0.113451	-0.181291	0.165266	-0.187866	0.113527	-0.151567	0.047322	0.144183	-0.229468	0.185189	-0.271696	0.189322	-0.207165	0.097317	-0.113366	-0.231632	0.208209	-0.283239	0.214647	-0.263876	0.167358	-0.173733	0.079753	0.170944	-0.249223	0.232758	-0.270269	0.204011	-0.258204	0.148666	-0.172042	-0.214935	0.190187	-0.223864	0.215330	-0.280456	0.196589	-0.199805	0.124018	0.124017	-0.170816	0.144678	-0.211634	0.172252	-0.204342	0.124632	-0.123289
-0.064609	0.023646	-0.086391	0.067186	-0.112913	0.018593	-0.042448	0.012770	0.056752	-0.089466	0.058491	-0.148649	0.086319	-0.121486	0.055470	-0.079154	-0.150496	0.097155	-0.148977	0.136494	-0.180094	0.104904	-0.132725	0.032608	0.127739	-0.219111	0.135944	-0.252473	0.138174	-0.168491	0.084655	-0.089021	-0.213438	0.198715	-0.262665	0.190533	-0.236082	0.135758	-0.154871	0.063567	0.157368	-0.224110	0.209002	-0.255673	0.202367	-0.238251	0.125980	-0.162492	-0.205794	0.171935	-0.227584	0.215439	-0.256340	0.193888	-0.156701	0.089448	0.120747	-0.172809	0.149620	-0.213233	0.146717	-0.194161	0.084385	-0.114510
-0.068926	0.012346	-0.067006	0.056998	-0.085154	0.020941	-0.062462	0.007832	0.029600	-0.070704	0.065606	-0.137646	0.059933	-0.094680	0.040868	-0.063467	-0.153370	0.088464	-0.149060	0.137998	-0.171471	0.105436	-0.146652	0.038279	0.128787	-0.211536	0.155060	-0.246200	0.125791	-0.152627	0.089146	-0.118754	-0.201148	0.196267	-0.245682	0.197610	-0.212818	0.160540	-0.168520	0.091271	0.153369	-0.220518	0.193323	-0.247849	0.204627	-0.256172	0.118331	-0.193036	-0.204829	0.181583	-0.203182	0.203913	-0.251073	0.169986	-0.204381	0.105523	0.110705	-0.168234	0.094340	-0.197980	0.137482	-0.181175	0.116581	-0.126706
-0.071632	0.009108	-0.079821	0.060364	-0.117522	0.044747	-0.063616	-0.000330	0.053907	-0.111143	0.061043	-0.158705	0.116095	-0.120277	0.044751	-0.077924	-0.146758	0.107062	-0.155443	0.163329	-0.187566	0.108401	-0.146610	0.021192	0.124116	-0.215361	0.182069	-0.253548	0.167588	-0.175141	0.128791	-0.101568	-0.231358	0.202596	-0.292446	0.219076	-0.258802	0.140497	-0.179958	0.074935	0.179125	-0.239378	0.223122	-0.256043	0.212428	-0.258999	0.158199	-0.170019	-0.222873	0.187472	-0.243532	0.206860	-0.274573	0.222214	-0.211556	0.119452	0.109021	-0.182043	0.125261	-0.219029	0.167553	-0.209224	0.126808	-0.121125
-0.059136	0.001993	-0.072451	0.045955	-0.087036	0.018307	-0.047807	0.012336	0.027165	-0.080161	0.046075	-0.121690	0.072621	-0.125864	0.026312	-0.072871	-0.130549	0.087420	-0.138196	0.121623	-0.165201	0.088700	-0.138796	0.041455	0.123649	-0.221241	0.163129	-0.240331	0.156658	-0.176509	0.092121	-0.090282	-0.247135	0.195449	-0.255272	0.202399	-0.231882	0.138758	-0.161343	0.079651	0.167977	-0.237695	0.218137	-0.264188	0.195513	-0.242206	0.138411	-0.172297	-0.201253	0.206259	-0.216045	0.209745	-0.260258	0.188604	-0.209157	0.098293	0.092019	-0.174918	0.126230	-0.182759	0.163779	-0.194321	0.128243	-0.139948
-0.066210	0.026898	-0.096234	0.057686	-0.102067	0.029785	-0.052802	0.032017	0.054385	-0.098331	0.056740	-0.152448	0.096685	-0.127684	0.049020	-0.089010	-0.142372	0.109272	-0.148831	0.141076	-0.178835	0.094601	-0.146260	0.047760	0.147577	-0.241079	0.167277	-0.230263	0.154284	-0.150507	0.077520	-0.125970	-0.251244	0.225884	-0.265890	0.207455	-0.240370	0.131130	-0.140066	0.080188	0.157895	-0.241857	0.223922	-0.267252	0.193936	-0.238049	0.151800	-0.157950	-0.193901	0.179749	-0.246125	0.216630	-0.281820	0.205253	-0.210818	0.123312	0.110274	-0.183181	0.118682	-0.228698	0.171234	-0.197033	0.103305	-0.133150
-0.070132	0.037526	-0.079962	0.028516	-0.105940	0.036195	-0.090492	0.011314	0.050328	-0.090571	0.082412	-0.127630	0.086567	-0.131867	0.081906	-0.083953	-0.143189	0.104958	-0.154599	0.145268	-0.180743	0.104509	-0.144891	0.043524	0.130529	-0.224960	0.154327	-0.225367	0.124286	-0.161372	0.106573	-0.138227	-0.231616	0.205942	-0.284968	0.201866	-0.255976	0.168067	-0.159121	0.099084	0.167136	-0.260906	0.215283	-0.263222	0.192532	-0.234893	0.131886	-0.176296	-0.203761	0.194187	-0.238718	0.232498	-0.291645	0.200159	-0.183196	0.104965	0.119622	-0.192373	0.141898	-0.210573	0.157350	-0.183452	0.110224	-0.131895
-0.089769	0.034212	-0.102255	0.075568	-0.137291	0.064168	-0.063215	0.012856	0.055803	-0.104424	0.075587	-0.143135	0.103659	-0.129331	0.056386	-0.089841	-0.151397	0.100310	-0.187385	0.172672	-0.190927	0.122433	-0.154851	0.058357	0.144270	-0.250335	0.175872	-0.273815	0.177681	-0.207949	0.114706	-0.117314	-0.239039	0.235889	-0.272031	0.241278	-0.284518	0.151688	-0.188071	0.092975	0.176338	-0.270647	0.240212	-0.297485	0.218425	-0.274460	0.137398	-0.196517	-0.232821	0.213415	-0.261181	0.265758	-0.293522	0.211607	-0.212339	0.124029	0.117223	-0.187285	0.170907	-0.223681	0.188720	-0.216061	0.127406	-0.104547
-0.072775	0.034963	-0.067473	0.032700	-0.092932	0.039278	-0.046780	-0.016097	0.041283	-0.099554	0.055674	-0.129810	0.083357	-0.127514	0.046311	-0.070281	-0.137168	0.113121	-0.145822	0.146644	-0.172253	0.083294	-0.132333	0.040978	0.138010	-0.240419	0.141708	-0.230379	0.147668	-0.162120	0.084384	-0.109870	-0.218329	0.200790	-0.269101	0.202034	-0.248730	0.141076	-0.163699	0.073610	0.170029	-0.258965	0.216165	-0.274913	0.219365	-0.241798	0.142046	-0.186843	-0.209340	0.195342	-0.234917	0.229760	-0.289036	0.207979	-0.165404	0.100582	0.107819	-0.163023	0.146437	-0.217134	0.158329	-0.200400	0.100619	-0.127004
-0.072546	-0.002314	-0.069324	0.032084	-0.076140	0.007099	-0.037342	-0.009083	0.039687	-0.082508	0.033291	-0.125323	0.072722	-0.100916	0.035219	-0.045509	-0.143352	0.083564	-0.153295	0.124810	-0.172974	0.105080	-0.115976	0.023232	0.114372	-0.212465	0.136865	-0.227832	0.140683	-0.182544	0.093609	-0.086497	-0.225544	0.188232	-0.257855	0.198299	-0.229680	0.158607	-0.164586	0.062012	0.128276	-0.246638	0.203616	-0.240670	0.185981	-0.236265	0.123514	-0.153682	-0.176050	0.166797	-0.231741	0.216481	-0.268331	0.203926	-0.180040	0.093308	0.109335	-0.160405	0.127512	-0.200189	0.165883	-0.180960	0.122684	-0.108693
-0.065241	0.012841	-0.058101	0.027311	-0.092577	0.022278	-0.052962	0.016661	0.049674	-0.094203	0.040034	-0.125889	0.085959	-0.087509	0.038747	-0.075732	-0.139744	0.116861	-0.154996	0.144387	-0.164850	0.102828	-0.141120	0.041048	0.144246	-0.235701	0.155556	-0.249447	0.161098	-0.185080	0.078003	-0.105036	-0.205947	0.200117	-0.273517	0.226306	-0.256895	0.118609	-0.159388	0.071294	0.136739	-0.232558	0.214035	-0.270537	0.185005	-0.229621	0.135663	-0.169619	-0.182123	0.163994	-0.242874	0.203176	-0.276517	0.190793	-0.189945	0.106857	0.091139	-0.154119	0.120189	-0.191491	0.160539	-0.187655	0.118233	-0.111432
-0.064890	0.035911	-0.083485	0.058095	-0.112489	0.057060	-0.074845	0.032929	0.055493	-0.121517	0.069994	-0.157843	0.103814	-0.134439	0.052168	-0.110978	-0.155705	0.083571	-0.183876	0.161494	-0.175598	0.118859	-0.161162	0.050508	0.140309	-0.245199	0.177717	-0.240052	0.153114	-0.179449	0.097215	-0.141617	-0.234630	0.201624	-0.284741	0.207120	-0.228025	0.155053	-0.178333	0.089529	0.170996	-0.236856	0.215758	-0.275490	0.208736	-0.238075	0.140590	-0.166156	-0.198189	0.175487	-0.216365	0.214567	-0.254723	0.179918	-0.169400	0.105502	0.103056	-0.180021	0.120534	-0.200609	0.161492	-0.198840	0.111099	-0.091705
-0.033833	0.004710	-0.058010	0.024498	-0.076714	0.002585	-0.043221	-0.027452	0.036295	-0.070072	0.029275	-0.097897	0.049137	-0.109529	0.028381	-0.051230	-0.105872	0.073377	-0.118164	0.116815	-0.149345	0.087726	-0.108158	0.005365	0.132077	-0.188099	0.123392	-0.209687	0.126110	-0.141050	0.056256	-0.099189	-0.208274	0.195191	-0.236345	0.174100	-0.204975	0.087081	-0.129384	0.041378	0.134789	-0.238572	0.177036	-0.226833	0.169463	-0.212855	0.108377	-0.146937	-0.194916	0.151342	-0.200321	0.185645	-0.273227	0.165230	-0.152741	0.097522	0.097602	-0.167221	0.107895	-0.168895	0.148151	-0.174258	0.109747	-0.102360
-0.070544	0.014917	-0.080617	0.043543	-0.099313	0.037117	-0.054937	0.007567	0.051288	-0.121741	0.070811	-0.140736	0.101583	-0.155905	0.075551	-0.088360	-0.132872	0.091364	-0.153323	0.136626	-0.188600	0.133110	-0.150216	0.048704	0.143223	-0.221951	0.157621	-0.243103	0.180673	-0.179305	0.093378	-0.104457	-0.215448	0.217182	-0.264452	0.196723	-0.230996	0.135453	-0.167590	0.072996	0.151619	-0.242384	0.219538	-0.267258	0.222983	-0.242152	0.130716	-0.164074	-0.195702	0.168045	-0.227702	0.225664	-0.288887	0.210026	-0.196245	0.109117	0.107285	-0.175672	0.115739	-0.227454	0.181366	-0.210149	0.108179	-0.144156
-0.060995	-0.010322	-0.046131	0.045337	-0.102813	0.050804	-0.040474	-0.003043	0.010551	-0.057188	0.030601	-0.145591	0.088277	-0.080163	0.054775	-0.067456	-0.122852	0.097056	-0.132711	0.135394	-0.160480	0.093364	-0.137625	0.032869	0.105185	-0.212068	0.131605	-0.238657	0.138084	-0.142874	0.087941	-0.120227	-0.224459	0.202556	-0.263562	0.190211	-0.221140	0.121878	-0.153311	0.056905	0.137435	-0.227598	0.183632	-0.245401	0.187170	-0.221659	0.122726	-0.145657	-0.195603	0.165292	-0.215432	0.207027	-0.264092	0.179331	-0.184138	0.089024	0.087169	-0.145036	0.102649	-0.203821	0.142761	-0.173357	0.101917	-0.094853
-0.079939	0.026687	-0.094833	0.073976	-0.122793	0.041578	-0.054944	0.013563	0.056032	-0.109250	0.070889	-0.152439	0.103555	-0.099690	0.046283	-0.101204	-0.153748	0.141223	-0.178024	0.174383	-0.166974	0.107695	-0.142313	0.066142	0.139039	-0.238796	0.159570	-0.266696	0.154899	-0.194840	0.095479	-0.126454	-0.232299	0.196585	-0.276394	0.227352	-0.276760	0.159135	-0.161768	0.072058	0.177790	-0.247223	0.215741	-0.278073	0.218550	-0.250868	0.144263	-0.186977	-0.211667	0.172477	-0.239447	0.213442	-0.296977	0.212781	-0.185275	0.117008	0.102013	-0.182985	0.144626	-0.213066	0.192009	-0.198375	0.122382	-0.124738
-0.062666	0.013827	-0.067447	0.051638	-0.109067	0.018096	-0.076485	0.011959	0.037883	-0.119755	0.063222	-0.111184	0.085194	-0.106480	0.048510	-0.081216	-0.132712	0.099812	-0.153356	0.149202	-0.182711	0.117235	-0.142076	0.034425	0.141125	-0.236177	0.156839	-0.244215	0.165222	-0.168347	0.088657	-0.102574	-0.211862	0.212506	-0.269877	0.195528	-0.257590	0.145389	-0.174587	0.079343	0.156293	-0.240376	0.216348	-0.264025	0.206951	-0.266534	0.124190	-0.172841	-0.223370	0.191096	-0.215857	0.230305	-0.284371	0.211108	-0.189521	0.102492	0.106656	-0.179476	0.123499	-0.206391	0.164669	-0.197197	0.121510	-0.103997
-0.053033	0.000863	-0.103014	0.055153	-0.114928	0.028867	-0.063791	-0.017196	0.056424	-0.086660	0.054037	-0.165275	0.078455	-0.106183	0.026768	-0.071319	-0.142460	0.109598	-0.152218	0.132674	-0.155414	0.099330	-0.133083	0.027783	0.132901	-0.234779	0.153670	-0.219290	0.131348	-0.182174	0.098637	-0.107411	-0.233978	0.218924	-0.274229	0.225124	-0.229520	0.135812	-0.135850	0.068053	0.164080	-0.241433	0.230149	-0.245925	0.199175	-0.242629	0.130685	-0.169960	-0.184937	0.184840	-0.233897	0.216163	-0.289259	0.177105	-0.167721	0.091819	0.099772	-0.168003	0.140212	-0.197658	0.170489	-0.197466	0.093800	-0.092329
-0.066870	0.005524	-0.057786	0.040281	-0.095219	0.050951	-0.064483	0.012451	0.042517	-0.089229	0.064802	-0.128140	0.082643	-0.101100	0.036900	-0.089513	-0.150173	0.070608	-0.125981	0.119870	-0.168594	0.090945	-0.132530	0.045488	0.136594	-0.225697	0.141141	-0.228961	0.133195	-0.145931	0.083224	-0.101868	-0.215875	0.208230	-0.258219	0.178381	-0.228371	0.125509	-0.167141	0.080020	0.160633	-0.241124	0.207340	-0.238833	0.190036	-0.205150	0.128150	-0.187566	-0.198094	0.178986	-0.212353	0.210110	-0.272142	0.166354	-0.186672	0.090189	0.099046	-0.167249	0.136812	-0.197875	0.136995	-0.184898	0.120863	-0.122271
-0.078861	0.028103	-0.100146	0.061941	-0.115231	0.046404	-0.074843	0.006758	0.072027	-0.118942	0.095851	-0.161918	0.100570	-0.118944	0.040541	-0.108388	-0.178021	0.134808	-0.184172	0.191609	-0.198648	0.120918	-0.136300	0.072367	0.173524	-0.233035	0.184209	-0.257993	0.176443	-0.193491	0.089432	-0.121187	-0.244892	0.216832	-0.281437	0.235251	-0.260999	0.174901	-0.190742	0.083919	0.157761	-0.280232	0.230057	-0.285689	0.232547	-0.247704	0.128150	-0.157969	-0.205667	0.200386	-0.247421	0.217858	-0.296623	0.212604	-0.178145	0.127419	0.111800	-0.196677	0.136968	-0.236573	0.171691	-0.205727	0.115962	-0.139770
-0.045999	-0.001439	-0.069456	-0.003621	-0.082989	0.036999	-0.022483	-0.009667	0.030812	-0.071995	0.029454	-0.111437	0.074914	-0.079565	0.028961	-0.065067	-0.133515	0.075291	-0.132300	0.126476	-0.136923	0.073805	-0.099214	0.024584	0.120955	-0.210146	0.108222	-0.204124	0.133796	-0.147266	0.068609	-0.086703	-0.223242	0.180637	-0.232678	0.170077	-0.211414	0.109298	-0.137663	0.064605	0.123811	-0.211806	0.187814	-0.249434	0.182851	-0.205044	0.102999	-0.149973	-0.188747	0.176001	-0.208918	0.193642	-0.266172	0.175686	-0.179482	0.060058	0.108696	-0.151853	0.090071	-0.202398	0.155835	-0.155242	0.102317	-0.109875
-0.069137	0.029261	-0.083327	0.030002	-0.103502	0.014349	-0.050129	0.014619	0.051365	-0.099414	0.051461	-0.152829	0.086845	-0.108973	0.033138	-0.038019	-0.139747	0.089524	-0.157064	0.149020	-0.164852	0.076232	-0.118942	0.022902	0.152502	-0.211887	0.143162	-0.221437	0.138343	-0.151498	0.078589	-0.111417	-0.232600	0.210346	-0.266476	0.191353	-0.242565	0.136229	-0.132731	0.054880	0.150069	-0.226889	0.205243	-0.252167	0.176470	-0.225240	0.114839	-0.149246	-0.194259	0.204048	-0.218946	0.206847	-0.267075	0.174380	-0.173727	0.089497	0.108761	-0.158648	0.108026	-0.189013	0.164546	-0.187454	0.079744	-0.115066
-0.057443	0.021334	-0.097070	0.044676	-0.101464	0.043788	-0.066034	0.005172	0.052191	-0.117732	0.087379	-0.155434	0.107593	-0.110152	0.064085	-0.091651	-0.149760	0.112304	-0.180254	0.160389	-0.200900	0.128165	-0.155090	0.048949	0.147326	-0.241261	0.171790	-0.261787	0.171243	-0.198462	0.095671	-0.097019	-0.248943	0.208353	-0.275890	0.218245	-0.251292	0.158936	-0.168355	0.095259	0.168526	-0.259268	0.230902	-0.255742	0.206795	-0.260095	0.147572	-0.177479	-0.242784	0.200674	-0.245657	0.218781	-0.280629	0.195792	-0.185692	0.101902	0.123150	-0.186343	0.138599	-0.204837	0.150575	-0.186029	0.108930	-0.109085
-0.060212	0.035854	-0.076232	0.035792	-0.097192	0.024896	-0.042369	-0.016327	0.038066	-0.106572	0.066217	-0.115625	0.079791	-0.112052	0.043312	-0.062544	-0.150782	0.103011	-0.140984	0.144770	-0.165088	0.110944	-0.163984	0.045910	0.126598	-0.242026	0.156518	-0.220361	0.141787	-0.154307	0.099445	-0.092385	-0.205456	0.209916	-0.261769	0.182565	-0.236966	0.129465	-0.136098	0.073146	0.154556	-0.236167	0.211482	-0.240713	0.188333	-0.231968	0.118003	-0.179546	-0.214003	0.181425	-0.231944	0.203154	-0.287659	0.185186	-0.199001	0.109906	0.113175	-0.190614	0.122778	-0.212186	0.160639	-0.174718	0.090135	-0.110572
-0.068268	0.026412	-0.072573	0.035375	-0.100611	0.022441	-0.040019	0.004333	0.075831	-0.098787	0.054161	-0.152385	0.064475	-0.127817	0.047637	-0.069313	-0.161667	0.116230	-0.161042	0.147213	-0.151978	0.112360	-0.136850	0.030566	0.115271	-0.233043	0.155280	-0.249867	0.146611	-0.164919	0.082512	-0.113212	-0.222719	0.210731	-0.277467	0.221015	-0.237278	0.141990	-0.152282	0.079239	0.165659	-0.238079	0.206037	-0.254674	0.183604	-0.230890	0.125869	-0.165298	-0.206690	0.160081	-0.228672	0.209528	-0.266053	0.173194	-0.165693	0.091864	0.121990	-0.165254	0.115016	-0.178657	0.140330	-0.175195	0.120198	-0.117105
-0.049959	0.013548	-0.071824	0.043933	-0.100780	0.039013	-0.044197	-0.016416	0.065123	-0.115379	0.070538	-0.125628	0.072115	-0.117384	0.032509	-0.078943	-0.147516	0.111887	-0.141808	0.160603	-0.179313	0.102457	-0.155777	0.032247	0.147034	-0.208542	0.142220	-0.249731	0.151624	-0.168241	0.078814	-0.105406	-0.231818	0.205609	-0.263309	0.209156	-0.249235	0.146499	-0.168378	0.076711	0.152617	-0.228289	0.223105	-0.270975	0.212281	-0.247166	0.146549	-0.167921	-0.210380	0.188986	-0.248075	0.204703	-0.293249	0.195592	-0.172092	0.131609	0.119369	-0.169569	0.107371	-0.212661	0.153475	-0.202751	0.115385	-0.123166
-0.090236	0.026501	-0.089607	0.045469	-0.079386	0.023764	-0.086862	0.005438	0.065321	-0.078634	0.048034	-0.134722	0.080456	-0.119117	0.078267	-0.098995	-0.144425	0.110039	-0.147210	0.148061	-0.173489	0.103227	-0.139017	0.039876	0.145286	-0.233269	0.162555	-0.247392	0.167058	-0.175478	0.069431	-0.098051	-0.239650	0.201372	-0.279277	0.226173	-0.271541	0.182746	-0.156764	0.081623	0.156813	-0.244892	0.222691	-0.261584	0.209970	-0.242657	0.129513	-0.171611	-0.213735	0.196728	-0.223778	0.181543	-0.270821	0.192651	-0.188301	0.099796	0.125387	-0.166096	0.116014	-0.199694	0.147721	-0.208631	0.106446	-0.105459
-0.052069	0.018562	-0.064293	0.045682	-0.105798	0.036240	-0.046674	0.013973	0.060114	-0.084417	0.059015	-0.122929	0.083564	-0.122595	0.044490	-0.086367	-0.145594	0.095786	-0.157811	0.137193	-0.190090	0.105640	-0.136267	0.032185	0.136807	-0.206733	0.131321	-0.242501	0.137370	-0.176761	0.093299	-0.109334	-0.219995	0.175129	-0.251845	0.186781	-0.234495	0.143864	-0.146033	0.062465	0.114856	-0.234042	0.227549	-0.245242	0.197589	-0.240074	0.135821	-0.175479	-0.195918	0.182348	-0.213232	0.238945	-0.266616	0.179649	-0.182525	0.082324	0.100139	-0.174336	0.116910	-0.199643	0.146249	-0.175436	0.109988	-0.111576
-0.064466	0.015026	-0.062241	0.030962	-0.105668	0.029753	-0.069857	-0.001895	0.042094	-0.082552	0.060510	-0.133139	0.093771	-0.114815	0.052069	-0.080483	-0.135001	0.093532	-0.178211	0.141804	-0.155265	0.114453	-0.127691	0.057485	0.133057	-0.218057	0.146772	-0.240877	0.155195	-0.155368	0.086944	-0.115967	-0.220356	0.208242	-0.278458	0.179984	-0.244634	0.132131	-0.171182	0.080681	0.145039	-0.222563	0.215272	-0.258071	0.207349	-0.251551	0.144556	-0.171651	-0.193830	0.165862	-0.241200	0.220530	-0.270014	0.180633	-0.197227	0.119975	0.093905	-0.149946	0.112597	-0.194600	0.154439	-0.184579	0.109787	-0.118140
-0.062581	0.002574	-0.063570	0.033473	-0.099324	0.018351	-0.080140	0.000993	0.074586	-0.085095	0.055153	-0.136361	0.081045	-0.104311	0.029913	-0.063100	-0.133415	0.107355	-0.146869	0.140852	-0.161247	0.106139	-0.137480	0.031944	0.134983	-0.206103	0.138700	-0.252901	0.147680	-0.165241	0.085083	-0.104572	-0.227244	0.219896	-0.282052	0.194529	-0.238259	0.123091	-0.162939	0.094612	0.154903	-0.240861	0.199304	-0.268078	0.192900	-0.238952	0.140812	-0.159106	-0.220092	0.184905	-0.222381	0.223279	-0.255748	0.174913	-0.190705	0.085829	0.109548	-0.169327	0.135661	-0.204382	0.152973	-0.186906	0.099938	-0.087310
-0.075554	0.010448	-0.044728	0.034862	-0.096733	0.023548	-0.053613	0.018035	0.018961	-0.070740	0.035985	-0.133401	0.074783	-0.102920	0.026134	-0.072285	-0.113869	0.080881	-0.146383	0.133058	-0.164143	0.102166	-0.143884	0.047150	0.151526	-0.223765	0.161100	-0.253943	0.138895	-0.164409	0.104654	-0.107911	-0.227960	0.205498	-0.282433	0.215556	-0.233914	0.143200	-0.174428	0.086681	0.149667	-0.245879	0.240296	-0.270958	0.202108	-0.252666	0.144916	-0.176200	-0.213687	0.197458	-0.215432	0.210824	-0.302775	0.208151	-0.201164	0.118601	0.089101	-0.163375	0.112157	-0.198631	0.164504	-0.208730	0.115658	-0.112720
-0.055078	0.012716	-0.040608	0.010801	-0.068654	0.020439	-0.053453	-0.017934	0.038457	-0.074118	0.044014	-0.105228	0.054139	-0.099824	0.020261	-0.064267	-0.122241	0.086716	-0.169183	0.133243	-0.153239	0.095145	-0.112140	0.021428	0.134477	-0.201863	0.125747	-0.225783	0.132729	-0.158937	0.081204	-0.108215	-0.225515	0.198959	-0.271035	0.186814	-0.224671	0.124906	-0.150965	0.080706	0.132253	-0.247977	0.224589	-0.270762	0.191770	-0.230678	0.136249	-0.168378	-0.211988	0.196257	-0.209263	0.223542	-0.275120	0.181053	-0.194259	0.108491	0.115419	-0.158517	0.132938	-0.222462	0.173117	-0.204123	0.110130	-0.111870
-0.044361	0.047578	-0.070369	0.039186	-0.097851	0.043996	-0.065228	0.028218	0.049669	-0.091930	0.065504	-0.136047	0.095234	-0.126170	0.044197	-0.097119	-0.136994	0.107400	-0.151332	0.161751	-0.176075	0.114390	-0.155769	0.040835	0.137415	-0.212895	0.148479	-0.241925	0.132568	-0.177420	0.099139	-0.108136	-0.215447	0.197953	-0.263819	0.195733	-0.234470	0.149602	-0.164224	0.075292	0.122512	-0.225442	0.202283	-0.272211	0.206312	-0.246763	0.143892	-0.166911	-0.193850	0.159120	-0.211183	0.211355	-0.279456	0.190264	-0.210086	0.111620	0.093524	-0.183674	0.102742	-0.190113	0.148233	-0.176457	0.109012	-0.137819
-0.079030	0.033521	-0.078775	0.038832	-0.099846	0.041285	-0.045799	0.024644	0.050402	-0.113362	0.059311	-0.137330	0.078729	-0.128730	0.055901	-0.083266	-0.143642	0.098721	-0.160901	0.139597	-0.167217	0.123286	-0.164559	0.038725	0.122350	-0.234203	0.159406	-0.260980	0.146655	-0.187930	0.098873	-0.115474	-0.235754	0.212150	-0.277546	0.209199	-0.228690	0.168423	-0.187911	0.097361	0.167299	-0.259679	0.228606	-0.251670	0.195126	-0.256991	0.151508	-0.173409	-0.202452	0.190108	-0.227328	0.203962	-0.269968	0.210859	-0.197428	0.112632	0.096245	-0.169068	0.134660	-0.207857	0.176223	-0.201804	0.128363	-0.131777
-0.063446	0.009797	-0.068118	0.032586	-0.097587	0.036221	-0.057016	-0.015834	0.065706	-0.077068	0.037892	-0.123648	0.072269	-0.106523	0.044386	-0.078545	-0.148535	0.089685	-0.158796	0.127353	-0.166037	0.088659	-0.126183	0.054467	0.125963	-0.218944	0.154450	-0.229174	0.141905	-0.154800	0.085750	-0.121801	-0.214440	0.211702	-0.271892	0.199872	-0.226724	0.134226	-0.147716	0.100328	0.145121	-0.259254	0.214351	-0.251545	0.190257	-0.217156	0.108810	-0.156519	-0.215552	0.200876	-0.206442	0.200474	-0.277237	0.192316	-0.185000	0.097543	0.112844	-0.197145	0.124440	-0.210339	0.149418	-0.172269	0.093884	-0.101634
-0.061854	0.005343	-0.059400	0.036093	-0.086002	0.034410	-0.053710	-0.007191	0.028330	-0.095754	0.079437	-0.113273	0.058646	-0.118847	0.042235	-0.066551	-0.124603	0.085234	-0.143642	0.133428	-0.158601	0.067231	-0.129670	0.023738	0.122103	-0.176764	0.143174	-0.229380	0.144410	-0.152405	0.080469	-0.095956	-0.188599	0.175035	-0.244877	0.179223	-0.220667	0.122388	-0.160150	0.068516	0.151577	-0.220457	0.185241	-0.248708	0.178689	-0.243287	0.120150	-0.165239	-0.172392	0.174752	-0.231957	0.192941	-0.253012	0.202596	-0.196649	0.076622	0.124234	-0.162708	0.106523	-0.189156	0.120216	-0.185114	0.110440	-0.100235
-0.080516	0.021691	-0.091507	0.051633	-0.117648	0.036215	-0.075755	0.020378	0.063316	-0.104374	0.065843	-0.161792	0.089797	-0.124596	0.084457	-0.100647	-0.130486	0.116475	-0.157658	0.169029	-0.175377	0.116343	-0.148398	0.063277	0.148270	-0.232862	0.141855	-0.245103	0.144138	-0.175761	0.105939	-0.121162	-0.225890	0.204224	-0.256700	0.181381	-0.248652	0.148628	-0.155528	0.077428	0.132024	-0.234522	0.204692	-0.275759	0.192999	-0.241522	0.124803	-0.195484	-0.195640	0.193358	-0.220020	0.198755	-0.276585	0.187776	-0.180632	0.112698	0.100973	-0.171392	0.128262	-0.187244	0.163775	-0.182747	0.113723	-0.099695
-0.054297	0.000815	-0.052606	0.042470	-0.097357	0.018586	-0.043797	0.003766	0.045698	-0.084639	0.069107	-0.116607	0.077588	-0.092798	0.025031	-0.065237	-0.115930	0.092482	-0.154491	0.127469	-0.172940	0.083692	-0.129076	0.016624	0.131147	-0.208531	0.138203	-0.215015	0.145058	-0.146027	0.067512	-0.090171	-0.233830	0.211596	-0.259567	0.205276	-0.244400	0.124813	-0.146736	0.059567	0.158692	-0.257198	0.221449	-0.271510	0.199526	-0.223559	0.114017	-0.153692	-0.204356	0.175750	-0.237280	0.187896	-0.266240	0.166512	-0.177648	0.094988	0.119111	-0.176770	0.120792	-0.193238	0.158637	-0.183829	0.114001	-0.126692
-0.066959	0.026828	-0.098862	0.044240	-0.112628	0.035357	-0.063466	0.024419	0.067739	-0.125314	0.074744	-0.138906	0.096430	-0.118169	0.075393	-0.081510	-0.154426	0.123315	-0.172292	0.156637	-0.195490	0.132312	-0.164708	0.065598	0.146756	-0.256589	0.170247	-0.284460	0.169384	-0.178977	0.090247	-0.123394	-0.217217	0.207987	-0.297988	0.235193	-0.240239	0.155584	-0.171754	0.101623	0.149658	-0.262331	0.237234	-0.265634	0.218638	-0.267983	0.162210	-0.190398	-0.219899	0.190441	-0.226601	0.232188	-0.289714	0.205274	-0.204069	0.117957	0.083832	-0.185852	0.132334	-0.230382	0.170040	-0.209978	0.140130	-0.110521
-0.071293	0.020183	-0.077671	0.041328	-0.097679	0.026586	-0.066641	0.014794	0.063402	-0.107746	0.074958	-0.145788	0.091086	-0.105031	0.048646	-0.073075	-0.151195	0.107640	-0.160240	0.142369	-0.175693	0.091438	-0.142987	0.041663	0.140021	-0.231945	0.161501	-0.239544	0.165888	-0.178067	0.077320	-0.120696	-0.235388	0.210992	-0.281243	0.200860	-0.250905	0.153150	-0.159080	0.076503	0.158801	-0.260724	0.225242	-0.279971	0.216133	-0.262506	0.131638	-0.165118	-0.211920	0.222345	-0.232427	0.212644	-0.283125	0.178480	-0.189824	0.098465	0.129886	-0.186491	0.133754	-0.216862	0.186230	-0.200078	0.138922	-0.105816
-0.057028	0.018698	-0.068545	0.020384	-0.101361	0.040274	-0.052644	-0.011447	0.048788	-0.075754	0.073019	-0.136938	0.094869	-0.116109	0.025918	-0.085331	-0.124879	0.100924	-0.158078	0.143215	-0.151869	0.121873	-0.111622	0.038951	0.140852	-0.243074	0.175603	-0.256490	0.155157	-0.181409	0.080249	-0.117233	-0.233247	0.203488	-0.277325	0.220710	-0.255655	0.149487	-0.151068	0.073470	0.148953	-0.248715	0.232602	-0.265760	0.199276	-0.235854	0.120069	-0.160775	-0.202762	0.181797	-0.240990	0.208517	-0.273658	0.207222	-0.195421	0.111356	0.089457	-0.180521	0.128737	-0.216896	0.153073	-0.202421	0.120229	-0.118453
-0.093833	-0.001568	-0.088430	0.055172	-0.138417	0.033755	-0.066045	0.022607	0.052727	-0.099311	0.069429	-0.171115	0.101977	-0.119569	0.056469	-0.040142	-0.172256	0.129596	-0.168266	0.157961	-0.182696	0.107256	-0.150490	0.048341	0.125371	-0.224957	0.159161	-0.263871	0.153799	-0.163959	0.087230	-0.111099	-0.239204	0.219653	-0.268894	0.235347	-0.252629	0.159486	-0.171521	0.098241	0.149250	-0.240170	0.218494	-0.273276	0.210037	-0.245183	0.136251	-0.173342	-0.192568	0.195671	-0.223995	0.214703	-0.294070	0.207776	-0.185108	0.126276	0.105112	-0.177996	0.110372	-0.213738	0.175031	-0.204270	0.126904	-0.122605
-0.044370	-0.015237	-0.050283	-0.012825	-0.080943	-0.002753	-0.028387	0.004874	0.035334	-0.054705	0.022160	-0.090363	0.071913	-0.095451	0.043363	-0.079227	-0.127092	0.069414	-0.130074	0.104273	-0.131356	0.078394	-0.114656	0.023860	0.092642	-0.193165	0.107973	-0.211528	0.107721	-0.123600	0.078996	-0.095428	-0.186580	0.170372	-0.232730	0.182746	-0.211643	0.137882	-0.139846	0.071716	0.117558	-0.233362	0.192163	-0.239430	0.167299	-0.195144	0.133865	-0.150923	-0.190223	0.164653	-0.222375	0.197150	-0.255944	0.162535	-0.170624	0.094810	0.080665	-0.171341	0.109949	-0.171523	0.155288	-0.196197	0.112100	-0.126035
-0.051815	0.014757	-0.077373	0.062437	-0.116296	0.021553	-0.061500	0.019774	0.038497	-0.127755	0.059086	-0.133744	0.103468	-0.119937	0.045841	-0.065479	-0.164320	0.103964	-0.154215	0.153829	-0.178412	0.108321	-0.163610	0.036401	0.145674	-0.236722	0.159799	-0.235098	0.147712	-0.165047	0.076723	-0.108735	-0.219303	0.210275	-0.272632	0.210618	-0.229676	0.121265	-0.147320	0.074926	0.162168	-0.229631	0.202225	-0.269906	0.197566	-0.243272	0.148236	-0.173561	-0.212656	0.187471	-0.241550	0.211377	-0.269396	0.185415	-0.182614	0.097048	0.097491	-0.170143	0.148763	-0.203679	0.161996	-0.180149	0.097976	-0.090275
-0.071351	0.042254	-0.093029	0.070850	-0.099791	0.043700	-0.057034	0.005039	0.073875	-0.106478	0.049294	-0.160954	0.090722	-0.118598	0.050926	-0.070166	-0.176441	0.116907	-0.187949	0.164196	-0.183607	0.116789	-0.155539	0.060329	0.158587	-0.231987	0.165317	-0.246590	0.150919	-0.168903	0.111352	-0.104198	-0.245282	0.221017	-0.293818	0.222402	-0.244872	0.131627	-0.184554	0.080470	0.160216	-0.266797	0.228259	-0.270686	0.205347	-0.254440	0.147709	-0.156095	-0.219879	0.183139	-0.230568	0.215841	-0.283588	0.203703	-0.213816	0.122983	0.116667	-0.183688	0.128645	-0.209010	0.142493	-0.180136	0.117939	-0.113702
-0.051937	0.008258	-0.068203	0.042852	-0.089520	0.012603	-0.054019	0.002653	0.060793	-0.091193	0.057808	-0.146147	0.089940	-0.125402	0.061492	-0.083079	-0.176632	0.107267	-0.169496	0.137025	-0.190955	0.116414	-0.127755	0.052327	0.138570	-0.225824	0.161608	-0.257398	0.152204	-0.196183	0.092968	-0.111205	-0.231935	0.214326	-0.288398	0.230246	-0.267481	0.168486	-0.182889	0.080864	0.150360	-0.259069	0.243385	-0.272667	0.229650	-0.245545	0.132123	-0.177686	-0.224169	0.212782	-0.254212	0.241995	-0.280554	0.226257	-0.200471	0.122648	0.148302	-0.189056	0.123099	-0.234860	0.182967	-0.223035	0.122684	-0.114287
-0.069430	0.024351	-0.081711	0.062696	-0.119593	0.028922	-0.069814	0.015557	0.064808	-0.100756	0.078497	-0.161595	0.108755	-0.105372	0.056459	-0.064511	-0.169158	0.102856	-0.173312	0.158034	-0.192521	0.115772	-0.129334	0.050639	0.143025	-0.243377	0.149693	-0.233476	0.159912	-0.175364	0.083982	-0.137112	-0.243106	0.227331	-0.285142	0.207626	-0.232417	0.129714	-0.166018	0.089594	0.153396	-0.213398	0.192779	-0.252855	0.194965	-0.231230	0.132895	-0.179077	-0.205198	0.157659	-0.221072	0.211575	-0.267764	0.196829	-0.182707	0.103430	0.098406	-0.180974	0.134411	-0.188324	0.150794	-0.190784	0.099586	-0.101465
-0.064336	0.042905	-0.093767	0.044909	-0.105946	0.044570	-0.063432	-0.001388	0.066797	-0.098602	0.059404	-0.134754	0.106311	-0.123026	0.053397	-0.078445	-0.161628	0.112999	-0.192456	0.167295	-0.203958	0.131363	-0.151152	0.044364	0.135575	-0.239407	0.183140	-0.284300	0.176504	-0.177705	0.080578	-0.127360	-0.214663	0.202209	-0.293047	0.231521	-0.250737	0.142638	-0.169814	0.071291	0.168985	-0.238608	0.228020	-0.272313	0.228748	-0.247689	0.122184	-0.169317	-0.188607	0.174000	-0.239166	0.224923	-0.285525	0.184437	-0.180928	0.133479	0.114262	-0.186664	0.112107	-0.207875	0.174960	-0.193271	0.117208	-0.126283
-0.077476	0.027040	-0.064637	0.023966	-0.079922	0.035639	-0.036197	-0.012688	0.038772	-0.100337	0.067032	-0.117987	0.091310	-0.115188	0.033310	-0.062364	-0.156229	0.124671	-0.161696	0.164987	-0.167235	0.106060	-0.144958	0.039384	0.144911	-0.228263	0.153519	-0.248016	0.156732	-0.198315	0.097364	-0.123815	-0.241627	0.191692	-0.291545	0.198039	-0.255210	0.173098	-0.176135	0.086263	0.163097	-0.245492	0.218183	-0.281455	0.221733	-0.224784	0.117188	-0.183214	-0.213368	0.175037	-0.224516	0.208779	-0.256189	0.206315	-0.187357	0.119531	0.126356	-0.181260	0.117990	-0.205141	0.170589	-0.193356	0.099863	-0.125635
-0.068441	0.015607	-0.055824	0.026741	-0.097099	0.047574	-0.031851	-0.000700	0.058581	-0.094171	0.063009	-0.141698	0.089901	-0.144217	0.053599	-0.078508	-0.152337	0.129217	-0.167717	0.142205	-0.153745	0.096500	-0.146816	0.040081	0.151211	-0.231212	0.145130	-0.252189	0.145275	-0.174068	0.091804	-0.107624	-0.254082	0.224375	-0.273825	0.226996	-0.242206	0.158002	-0.161842	0.092432	0.166849	-0.254485	0.246306	-0.263084	0.210483	-0.255899	0.114962	-0.165195	-0.213091	0.181526	-0.235618	0.235980	-0.274221	0.177725	-0.187080	0.091762	0.110652	-0.184524	0.124617	-0.224203	0.159586	-0.199515	0.078512	-0.089745
-0.049444	0.009199	-0.069123	0.024128	-0.076252	0.049242	-0.051250	0.016132	0.049600	-0.106492	0.050518	-0.128867	0.074292	-0.111215	0.042720	-0.077934	-0.138427	0.089108	-0.157464	0.125401	-0.154688	0.076970	-0.122065	0.056415	0.131616	-0.249947	0.148778	-0.236467	0.134521	-0.170359	0.102018	-0.102669	-0.233878	0.187755	-0.267699	0.201872	-0.232266	0.137331	-0.158268	0.101447	0.164716	-0.243833	0.212474	-0.266407	0.212953	-0.244991	0.131282	-0.167705	-0.214513	0.169693	-0.224954	0.212942	-0.269515	0.184228	-0.173282	0.096208	0.133608	-0.194855	0.131973	-0.198630	0.150438	-0.187719	0.129718	-0.139649
-0.058238	-0.012365	-0.087968	0.060756	-0.111287	0.022153	-0.062117	0.029341	0.028832	-0.108832	0.076104	-0.122090	0.086670	-0.133426	0.072041	-0.066248	-0.137621	0.095150	-0.159838	0.145048	-0.174266	0.123789	-0.134269	0.032543	0.152681	-0.227653	0.166465	-0.231222	0.141399	-0.175907	0.084356	-0.131565	-0.228446	0.238566	-0.295664	0.211650	-0.241786	0.150394	-0.172389	0.068364	0.160798	-0.260188	0.198426	-0.260856	0.217925	-0.247678	0.138073	-0.163528	-0.211400	0.198053	-0.241654	0.235451	-0.283507	0.199077	-0.209858	0.112402	0.104966	-0.187212	0.122599	-0.225098	0.188658	-0.187463	0.141297	-0.135359
-0.063647	0.001640	-0.079314	0.027692	-0.081358	0.023493	-0.040540	0.010611	0.075848	-0.111750	0.070806	-0.120981	0.069484	-0.099630	0.048074	-0.081057	-0.151306	0.094532	-0.131401	0.142408	-0.161543	0.094858	-0.147064	0.055276	0.121637	-0.229208	0.154874	-0.239982	0.148897	-0.167209	0.097877	-0.104840	-0.237565	0.203914	-0.255729	0.217785	-0.258696	0.153613	-0.191271	0.085060	0.178040	-0.256910	0.207920	-0.258186	0.187974	-0.251241	0.143258	-0.180231	-0.212494	0.193696	-0.225926	0.218704	-0.283384	0.199371	-0.193383	0.114165	0.108046	-0.177156	0.115498	-0.206049	0.153209	-0.208610	0.121705	-0.116186
-0.053816	0.004299	-0.066786	0.039456	-0.091940	0.015990	-0.052308	0.004481	0.042542	-0.114535	0.051433	-0.108476	0.072596	-0.119002	0.044357	-0.075155	-0.124888	0.079527	-0.141806	0.141648	-0.170286	0.100935	-0.125281	0.046729	0.115220	-0.211179	0.145895	-0.236427	0.143134	-0.168974	0.093752	-0.110933	-0.235398	0.193953	-0.262497	0.212535	-0.232131	0.128931	-0.136881	0.078108	0.164276	-0.244903	0.214382	-0.253586	0.207788	-0.227819	0.135620	-0.172535	-0.214582	0.181500	-0.217825	0.205201	-0.264362	0.201722	-0.197274	0.092050	0.106671	-0.170874	0.114786	-0.189514	0.159289	-0.193095	0.095763	-0.130282
-0.054513	-0.013277	-0.055126	0.034912	-0.059687	0.053099	-0.052598	0.002192	0.056529	-0.069041	0.034543	-0.149322	0.074179	-0.102830	0.048780	-0.063275	-0.150566	0.073238	-0.138560	0.132214	-0.189281	0.103216	-0.125152	0.038625	0.130730	-0.223519	0.150059	-0.252305	0.140446	-0.159415	0.087930	-0.104952	-0.236165	0.206048	-0.291102	0.210307	-0.223460	0.127410	-0.168027	0.082722	0.171836	-0.251566	0.212730	-0.287334	0.203471	-0.216203	0.133930	-0.167815	-0.206779	0.188102	-0.241723	0.227897	-0.276170	0.192435	-0.196853	0.119487	0.122890	-0.183649	0.141970	-0.213065	0.154699	-0.201218	0.096767	-0.108877
-0.085447	0.012301	-0.099718	0.050295	-0.102615	0.035742	-0.065611	-0.001692	0.064676	-0.104699	0.072929	-0.149775	0.094996	-0.101227	0.059843	-0.082421	-0.142194	0.110310	-0.158348	0.150821	-0.176202	0.115116	-0.150108	0.038159	0.130305	-0.245737	0.152469	-0.242819	0.149956	-0.165990	0.095242	-0.130977	-0.221845	0.226035	-0.283517	0.222778	-0.254123	0.155030	-0.178722	0.066126	0.160920	-0.250568	0.223841	-0.282349	0.207021	-0.238340	0.136682	-0.164927	-0.219202	0.208034	-0.247529	0.230911	-0.267185	0.203437	-0.188642	0.103530	0.133301	-0.193819	0.126170	-0.211987	0.181388	-0.189060	0.109531	-0.115405
-0.069363	0.008146	-0.059953	0.024276	-0.078265	0.038550	-0.038858	-0.001457	0.050026	-0.109582	0.051648	-0.127248	0.096065	-0.121475	0.039696	-0.076095	-0.156678	0.110136	-0.159718	0.140575	-0.172318	0.092949	-0.132815	0.037599	0.133508	-0.231613	0.158655	-0.219649	0.148119	-0.153316	0.069225	-0.104373	-0.236053	0.189912	-0.272714	0.218252	-0.226683	0.144838	-0.177150	0.076292	0.159257	-0.240431	0.195109	-0.271503	0.198887	-0.229539	0.105774	-0.167677	-0.206064	0.192866	-0.219828	0.220247	-0.282497	0.169163	-0.188776	0.116428	0.128602	-0.166004	0.131424	-0.199045	0.153403	-0.192750	0.133752	-0.125111
-0.036068	-0.002293	-0.045157	0.010429	-0.081250	0.012434	-0.063877	0.001898	0.045040	-0.089139	0.024063	-0.121208	0.068216	-0.095963	0.046556	-0.073701	-0.105530	0.085021	-0.139428	0.107358	-0.159794	0.086324	-0.116811	0.038492	0.103157	-0.203555	0.143826	-0.206386	0.142164	-0.148985	0.076752	-0.098928	-0.193434	0.170027	-0.252172	0.180072	-0.222924	0.146578	-0.163583	0.047044	0.132479	-0.217760	0.203026	-0.244915	0.184619	-0.245533	0.129709	-0.173422	-0.170335	0.172755	-0.222585	0.193094	-0.266963	0.178330	-0.169819	0.102738	0.091568	-0.142825	0.114844	-0.187980	0.144416	-0.182732	0.112703	-0.135055
-0.035540	0.024001	-0.072103	0.025514	-0.093116	0.033350	-0.052453	0.010599	0.047150	-0.071136	0.059006	-0.143111	0.097968	-0.096531	0.084317	-0.094394	-0.129294	0.070472	-0.139369	0.132703	-0.147585	0.097916	-0.159883	0.042769	0.106000	-0.205713	0.125566	-0.234020	0.125936	-0.173813	0.110525	-0.110163	-0.226800	0.199202	-0.260787	0.209304	-0.255086	0.155837	-0.199287	0.079711	0.145570	-0.232340	0.213469	-0.277822	0.192499	-0.240591	0.136884	-0.181320	-0.209094	0.189376	-0.233340	0.213651	-0.253772	0.177918	-0.211943	0.120486	0.103439	-0.175404	0.117113	-0.207403	0.179124	-0.186249	0.129938	-0.135407
-0.074043	-0.017930	-0.079661	0.050166	-0.092065	0.027181	-0.052319	-0.005609	0.050208	-0.083851	0.038372	-0.131282	0.092435	-0.115588	0.050676	-0.044023	-0.141605	0.104220	-0.159843	0.144205	-0.165221	0.104080	-0.145346	0.040521	0.149237	-0.217149	0.163873	-0.241265	0.155847	-0.164456	0.074575	-0.103744	-0.232311	0.194192	-0.261006	0.206270	-0.251058	0.154708	-0.156713	0.069715	0.133808	-0.239103	0.203327	-0.256647	0.192664	-0.258275	0.125123	-0.170119	-0.196419	0.169049	-0.202369	0.184893	-0.255416	0.183882	-0.174898	0.104729	0.120843	-0.173020	0.107008	-0.182259	0.152199	-0.186332	0.125518	-0.125575
-0.052042	0.002395	-0.069417	0.035745	-0.111241	0.017016	-0.035951	0.010647	0.041138	-0.085071	0.046226	-0.115164	0.075299	-0.105236	0.052576	-0.083337	-0.118277	0.076830	-0.128815	0.131507	-0.168192	0.076883	-0.136849	0.024962	0.122987	-0.220936	0.159247	-0.233499	0.147009	-0.175752	0.070618	-0.085542	-0.230697	0.219785	-0.267407	0.202450	-0.226466	0.153878	-0.162215	0.070627	0.152266	-0.239765	0.223119	-0.263706	0.205673	-0.221175	0.132152	-0.163916	-0.224303	0.153753	-0.225992	0.212647	-0.283662	0.192249	-0.187476	0.114941	0.112840	-0.183734	0.137419	-0.209535	0.166675	-0.199272	0.106708	-0.114088
-0.060325	0.022894	-0.072106	0.023112	-0.100360	0.043290	-0.055036	0.005670	0.062431	-0.099122	0.042814	-0.133501	0.081294	-0.121542	0.047643	-0.070193	-0.138016	0.106885	-0.130242	0.141346	-0.164927	0.102097	-0.144444	0.039079	0.131006	-0.215856	0.182152	-0.244270	0.146984	-0.167491	0.095832	-0.106124	-0.206135	0.180211	-0.288572	0.203174	-0.225536	0.131713	-0.196734	0.092417	0.159882	-0.251644	0.206347	-0.270347	0.203857	-0.243418	0.141717	-0.199882	-0.214629	0.174065	-0.227813	0.209438	-0.262335	0.171133	-0.183722	0.115840	0.136771	-0.177401	0.132558	-0.220218	0.134438	-0.178205	0.116596	-0.099931
-0.085745	0.028918	-0.062592	0.056206	-0.106989	0.042489	-0.081106	0.028843	0.053631	-0.099827	0.052750	-0.161334	0.111734	-0.128912	0.072973	-0.088751	-0.173670	0.124723	-0.173210	0.164116	-0.182780	0.098698	-0.146056	0.073824	0.154261	-0.238779	0.178633	-0.249645	0.161998	-0.188710	0.095594	-0.104108	-0.247203	0.234456	-0.280650	0.208110	-0.238682	0.147184	-0.160527	0.079477	0.166207	-0.250736	0.231224	-0.296500	0.196450	-0.233442	0.132191	-0.176925	-0.233386	0.183895	-0.262113	0.223284	-0.288787	0.183901	-0.190513	0.111128	0.144322	-0.201013	0.148398	-0.200710	0.155194	-0.193249	0.111911	-0.113523
-0.042011	0.020641	-0.063616	0.036291	-0.111389	0.027412	-0.034368	-0.015402	0.036634	-0.087980	0.046103	-0.140587	0.078941	-0.122353	0.031847	-0.062853	-0.151702	0.083985	-0.155200	0.150327	-0.168375	0.096728	-0.130342	0.019948	0.142365	-0.217205	0.149252	-0.224969	0.136174	-0.152283	0.086656	-0.108877	-0.225384	0.207135	-0.251837	0.195299	-0.246029	0.156588	-0.168155	0.089976	0.178969	-0.250906	0.227238	-0.276049	0.211163	-0.235660	0.137029	-0.173771	-0.228681	0.195424	-0.254117	0.215183	-0.266099	0.193858	-0.162869	0.116410	0.110480	-0.175998	0.131372	-0.223256	0.152656	-0.196583	0.092970	-0.111030
-0.064953	-0.003502	-0.067333	0.046695	-0.092902	0.024137	-0.044352	0.010519	0.052889	-0.102703	0.060838	-0.120875	0.074618	-0.086634	0.037050	-0.075859	-0.147318	0.104391	-0.172317	0.138407	-0.182545	0.103880	-0.124321	0.047745	0.109049	-0.201784	0.159274	-0.250077	0.153297	-0.167482	0.079654	-0.106994	-0.231517	0.202746	-0.276790	0.194522	-0.241806	0.154331	-0.160947	0.090299	0.160342	-0.252766	0.229281	-0.283410	0.196629	-0.254819	0.147143	-0.160467	-0.204496	0.198322	-0.242802	0.223480	-0.283146	0.206419	-0.192722	0.103076	0.119787	-0.166994	0.122192	-0.208854	0.153615	-0.224876	0.121496	-0.110623
-0.053204	-0.013930	-0.067670	0.006546	-0.072907	0.008600	-0.032457	0.009810	0.030902	-0.097115	0.050699	-0.132939	0.072283	-0.105805	0.016635	-0.095707	-0.128699	0.084171	-0.147586	0.137399	-0.143959	0.086721	-0.128767	0.039203	0.110267	-0.210021	0.148384	-0.217871	0.112211	-0.162385	0.064916	-0.099638	-0.209401	0.209600	-0.258423	0.185675	-0.212161	0.133414	-0.138461	0.072891	0.133777	-0.248305	0.185595	-0.242662	0.198911	-0.206446	0.128162	-0.146656	-0.206970	0.161357	-0.209911	0.206493	-0.263071	0.182166	-0.172002	0.109314	0.121399	-0.162841	0.127792	-0.191540	0.145800	-0.174707	0.089350	-0.095849
-0.080324	0.023735	-0.086107	0.050517	-0.097129	0.011619	-0.045209	-0.004720	0.064517	-0.098210	0.065713	-0.146146	0.075571	-0.112261	0.050194	-0.053440	-0.152643	0.116358	-0.177398	0.129349	-0.175690	0.082990	-0.145558	0.039254	0.134238	-0.218342	0.160862	-0.231023	0.148958	-0.160021	0.064403	-0.087989	-0.228051	0.191009	-0.261344	0.188119	-0.233232	0.137379	-0.146770	0.057841	0.146376	-0.225176	0.211845	-0.229589	0.200370	-0.210989	0.101496	-0.145776	-0.203087	0.170715	-0.217731	0.212982	-0.255570	0.165897	-0.161720	0.085692	0.111697	-0.172079	0.117979	-0.186748	0.136547	-0.156571	0.080693	-0.108817
-0.066623	0.025952	-0.081023	0.042434	-0.096194	0.025855	-0.037923	0.010361	0.065655	-0.114999	0.063119	-0.144710	0.071879	-0.108626	0.035212	-0.069299	-0.163720	0.128908	-0.173288	0.150365	-0.166509	0.095609	-0.127322	0.024468	0.158655	-0.235228	0.154998	-0.251320	0.160324	-0.177538	0.076870	-0.112379	-0.246772	0.231077	-0.282011	0.219601	-0.242995	0.134618	-0.166775	0.086421	0.155497	-0.236710	0.229080	-0.259578	0.197634	-0.254016	0.124043	-0.168001	-0.204634	0.159466	-0.232390	0.216304	-0.282838	0.205502	-0.184893	0.118083	0.108522	-0.165779	0.143082	-0.192993	0.146861	-0.197754	0.109626	-0.111261
-0.055458	0.006823	-0.069777	0.016233	-0.076247	0.021338	-0.048395	-0.000614	0.064003	-0.125912	0.059102	-0.132649	0.074482	-0.088562	0.033015	-0.065623	-0.137760	0.117317	-0.160727	0.136086	-0.156730	0.106863	-0.150702	0.036110	0.139428	-0.213729	0.149073	-0.271436	0.156441	-0.181862	0.067813	-0.140265	-0.212450	0.204747	-0.267361	0.222012	-0.233238	0.164910	-0.180668	0.081706	0.134633	-0.241330	0.209430	-0.253131	0.200345	-0.231341	0.140249	-0.144300	-0.206185	0.169151	-0.219676	0.200800	-0.254884	0.186402	-0.191465	0.101251	0.118291	-0.170808	0.114475	-0.180181	0.146905	-0.189057	0.122132	-0.132629
-0.056510	-0.000749	-0.062115	0.025316	-0.088150	0.038045	-0.043710	0.004742	0.042607	-0.098667	0.068962	-0.140221	0.066439	-0.102612	0.032660	-0.087243	-0.154755	0.090779	-0.150906	0.139436	-0.156236	0.103457	-0.136636	0.035855	0.135273	-0.205576	0.148559	-0.239451	0.130882	-0.181162	0.089515	-0.102064	-0.214683	0.195601	-0.245264	0.192450	-0.224905	0.138087	-0.168628	0.081798	0.153275	-0.235164	0.207315	-0.258209	0.218084	-0.220984	0.132231	-0.164594	-0.194153	0.182032	-0.223538	0.202079	-0.270174	0.146661	-0.178629	0.093438	0.125616	-0.171558	0.106831	-0.200428	0.140282	-0.181486	0.109831	-0.100880
-0.075744	0.023754	-0.093812	0.057375	-0.098134	0.045224	-0.059511	0.017045	0.074123	-0.102968	0.069581	-0.154783	0.084357	-0.119161	0.067913	-0.086715	-0.146215	0.104318	-0.165542	0.156784	-0.194508	0.129133	-0.151991	0.058871	0.124753	-0.218110	0.168621	-0.240480	0.147883	-0.172705	0.083872	-0.116997	-0.212716	0.216411	-0.268653	0.203164	-0.238262	0.152893	-0.194162	0.095383	0.154215	-0.228108	0.207050	-0.302244	0.212262	-0.239638	0.119117	-0.181725	-0.173449	0.179633	-0.221052	0.213760	-0.303111	0.195072	-0.191503	0.105001	0.109931	-0.168191	0.127833	-0.220467	0.171597	-0.215921	0.097149	-0.106352
-0.063416	0.022653	-0.097557	0.043432	-0.110807	0.023917	-0.069898	0.019811	0.072449	-0.108037	0.078315	-0.168696	0.103691	-0.133600	0.060419	-0.089526	-0.134958	0.102464	-0.158622	0.153977	-0.186506	0.116471	-0.158648	0.051889	0.143579	-0.231831	0.167505	-0.245204	0.174154	-0.192720	0.106919	-0.130699	-0.228116	0.224687	-0.301747	0.223053	-0.260142	0.148302	-0.158693	0.079991	0.155437	-0.254706	0.238481	-0.281617	0.228216	-0.243845	0.115275	-0.181585	-0.222028	0.200155	-0.271700	0.257343	-0.283904	0.202332	-0.182558	0.137718	0.128447	-0.172343	0.138543	-0.216782	0.164603	-0.210306	0.115510	-0.135221
-0.060346	-0.007958	-0.066783	0.034904	-0.091674	0.017538	-0.015113	0.014045	0.030891	-0.087682	0.045719	-0.141604	0.062207	-0.101426	0.031132	-0.063774	-0.127275	0.111645	-0.158696	0.143558	-0.158782	0.091620	-0.140083	0.054471	0.134589	-0.214336	0.141651	-0.250013	0.137886	-0.165163	0.069785	-0.106288	-0.241539	0.189592	-0.256845	0.209537	-0.241252	0.129345	-0.171658	0.071095	0.159888	-0.232372	0.207238	-0.274915	0.200751	-0.245451	0.121122	-0.151312	-0.199065	0.183299	-0.242583	0.214332	-0.263664	0.183040	-0.169205	0.114838	0.129872	-0.172044	0.131634	-0.189450	0.162626	-0.196820	0.106264	-0.110663
-0.077412	0.011519	-0.060646	0.015184	-0.082724	0.043848	-0.062691	0.013198	0.047144	-0.080769	0.067588	-0.151706	0.090031	-0.117398	0.048743	-0.089647	-0.121136	0.109910	-0.161775	0.128613	-0.176790	0.109464	-0.137431	0.057008	0.139652	-0.211073	0.155990	-0.254906	0.146771	-0.159309	0.087619	-0.107066	-0.224936	0.189039	-0.265876	0.208012	-0.248053	0.142222	-0.176808	0.092768	0.146000	-0.223659	0.226338	-0.262906	0.188184	-0.261813	0.114732	-0.184995	-0.188057	0.177395	-0.220221	0.185045	-0.286424	0.196329	-0.182190	0.102136	0.112716	-0.151989	0.117890	-0.200630	0.157439	-0.163585	0.087617	-0.106295
-0.063605	0.017797	-0.079912	0.038572	-0.095048	0.067161	-0.050568	-0.003717	0.039114	-0.097035	0.034473	-0.140534	0.093161	-0.133022	0.060229	-0.077498	-0.143897	0.092763	-0.133437	0.148211	-0.174657	0.105023	-0.142791	0.039695	0.102452	-0.195048	0.149775	-0.235090	0.149180	-0.183125	0.090207	-0.134746	-0.193364	0.182899	-0.274184	0.198071	-0.230444	0.149160	-0.187154	0.100061	0.155036	-0.233636	0.217648	-0.238851	0.225954	-0.255476	0.156069	-0.174390	-0.199482	0.159997	-0.230019	0.203315	-0.271563	0.206107	-0.218605	0.110952	0.120695	-0.175406	0.131782	-0.203088	0.164490	-0.201408	0.107294	-0.134442
-0.056358	0.015632	-0.076399	0.036439	-0.104349	0.043572	-0.059219	-0.009385	0.057353	-0.098183	0.059733	-0.121470	0.085635	-0.113389	0.035003	-0.083064	-0.136357	0.086409	-0.155007	0.148704	-0.176854	0.119531	-0.139106	0.060802	0.126281	-0.226846	0.160327	-0.260238	0.167799	-0.151868	0.091386	-0.109150	-0.228958	0.203638	-0.295686	0.208575	-0.267450	0.172044	-0.174042	0.081008	0.169171	-0.264131	0.216439	-0.275310	0.223740	-0.245593	0.141792	-0.175665	-0.209763	0.193026	-0.250285	0.225135	-0.300933	0.201454	-0.201837	0.138555	0.116012	-0.196378	0.131800	-0.208649	0.187080	-0.208846	0.104506	-0.112254
-0.081557	0.014911	-0.079704	0.043131	-0.092281	0.025090	-0.056923	0.005295	0.056118	-0.098465	0.068703	-0.130829	0.090801	-0.109767	0.030030	-0.077677	-0.141263	0.116014	-0.167295	0.142602	-0.182640	0.114399	-0.129395	0.039945	0.150500	-0.228846	0.160294	-0.249764	0.165209	-0.172521	0.117172	-0.122559	-0.224676	0.206317	-0.283398	0.213999	-0.247221	0.184102	-0.172646	0.072057	0.162970	-0.271500	0.220497	-0.269778	0.216293	-0.234535	0.130425	-0.173731	-0.219052	0.175860	-0.229358	0.205059	-0.285202	0.184288	-0.184449	0.128127	0.101086	-0.196544	0.128043	-0.207274	0.165443	-0.200518	0.115426	-0.113275
-0.052169	-0.007825	-0.078366	0.043714	-0.113445	0.051351	-0.063058	0.002905	0.053922	-0.101582	0.036984	-0.143780	0.096455	-0.120254	0.036077	-0.068944	-0.146792	0.096586	-0.154171	0.152967	-0.148870	0.112902	-0.126723	0.034553	0.125432	-0.227485	0.157423	-0.256089	0.148320	-0.167294	0.089859	-0.105301	-0.227759	0.203910	-0.278381	0.196468	-0.226405	0.146468	-0.170512	0.070102	0.191663	-0.263791	0.216782	-0.267744	0.212400	-0.236395	0.153843	-0.168229	-0.227449	0.187401	-0.235589	0.243740	-0.301842	0.210114	-0.192882	0.117304	0.115225	-0.191087	0.140438	-0.207002	0.176580	-0.201381	0.113484	-0.137538
-0.049039	0.012389	-0.077469	0.027948	-0.100143	0.010985	-0.061249	-0.009943	0.035212	-0.094237	0.029970	-0.107114	0.091801	-0.119345	0.045902	-0.073484	-0.118767	0.080569	-0.131433	0.127488	-0.180893	0.107697	-0.122330	0.068620	0.111000	-0.205742	0.138671	-0.222697	0.126027	-0.180142	0.076541	-0.110457	-0.223686	0.201744	-0.247054	0.203256	-0.217645	0.145619	-0.178408	0.095155	0.140834	-0.228080	0.223767	-0.253813	0.179264	-0.248445	0.144726	-0.172794	-0.202175	0.185037	-0.217890	0.211859	-0.275919	0.184042	-0.177894	0.109937	0.104505	-0.159190	0.120237	-0.212364	0.149307	-0.202753	0.110192	-0.102404
-0.069967	0.020027	-0.078094	0.040272	-0.111241	0.029708	-0.052375	0.011128	0.052855	-0.103584	0.069660	-0.128765	0.085234	-0.106511	0.038446	-0.069310	-0.129856	0.080597	-0.151442	0.136269	-0.158372	0.111104	-0.135522	0.033045	0.126863	-0.222939	0.145265	-0.217616	0.128661	-0.151559	0.061533	-0.105957	-0.219871	0.216914	-0.255485	0.171362	-0.245442	0.134913	-0.143697	0.076650	0.152452	-0.219512	0.198492	-0.236803	0.170609	-0.231438	0.100659	-0.158954	-0.198679	0.176368	-0.214002	0.192374	-0.260661	0.162159	-0.155732	0.093448	0.102881	-0.146334	0.106010	-0.204261	0.138646	-0.178750	0.109839	-0.095277
-0.035231	-0.004879	-0.070543	0.043543	-0.111145	0.034848	-0.070181	0.032146	0.064506	-0.098529	0.083701	-0.160984	0.081893	-0.145319	0.050487	-0.082761	-0.145753	0.114196	-0.178636	0.166468	-0.179279	0.125942	-0.166597	0.054978	0.131903	-0.236962	0.173559	-0.250238	0.154917	-0.179016	0.082092	-0.102979	-0.234095	0.230464	-0.283447	0.215671	-0.260468	0.167701	-0.180862	0.096107	0.160691	-0.273334	0.222444	-0.287771	0.215670	-0.261531	0.152317	-0.176133	-0.215045	0.200917	-0.226811	0.226232	-0.292769	0.181443	-0.200746	0.106787	0.120189	-0.182490	0.142329	-0.217014	0.167386	-0.184387	0.126039	-0.118354
-0.075037	0.013384	-0.088831	0.041003	-0.097333	0.035667	-0.075754	0.029029	0.058908	-0.116944	0.060697	-0.142832	0.109718	-0.133614	0.063035	-0.068812	-0.153976	0.105428	-0.173084	0.149268	-0.180446	0.118976	-0.133069	0.038132	0.118704	-0.230261	0.164289	-0.245337	0.152867	-0.175405	0.109334	-0.110697	-0.234261	0.205088	-0.275541	0.230412	-0.249326	0.150044	-0.175933	0.095638	0.180224	-0.243910	0.220675	-0.269636	0.179856	-0.236345	0.136171	-0.167993	-0.219343	0.182357	-0.236838	0.228549	-0.284591	0.216766	-0.186415	0.093736	0.112631	-0.182843	0.103426	-0.189174	0.168683	-0.190571	0.119528	-0.132353
-0.075056	0.029172	-0.091581	0.017454	-0.104272	0.029768	-0.053596	0.012420	0.062292	-0.099534	0.077011	-0.158458	0.091121	-0.107721	0.030774	-0.094668	-0.157389	0.100987	-0.153666	0.142231	-0.184937	0.096579	-0.124679	0.038656	0.139818	-0.233772	0.175197	-0.255820	0.165853	-0.167886	0.081259	-0.080160	-0.244322	0.208628	-0.288991	0.221154	-0.226197	0.161758	-0.150134	0.072508	0.156077	-0.269951	0.242880	-0.263893	0.195609	-0.225405	0.117424	-0.162629	-0.214283	0.193852	-0.234651	0.199813	-0.277490	0.201235	-0.187274	0.110909	0.101874	-0.177928	0.120340	-0.198303	0.159047	-0.186372	0.124244	-0.107335
-0.055992	0.000691	-0.069928	0.033847	-0.102671	0.027874	-0.064797	-0.015855	0.037586	-0.087805	0.040646	-0.134311	0.105155	-0.103663	0.065411	-0.074196	-0.124656	0.090218	-0.157516	0.112773	-0.159313	0.122976	-0.145603	0.040488	0.124375	-0.217309	0.166075	-0.258868	0.155471	-0.174632	0.091077	-0.106685	-0.225603	0.203553	-0.269246	0.217713	-0.238370	0.150167	-0.181566	0.079019	0.165062	-0.243192	0.222069	-0.245092	0.213641	-0.240289	0.128746	-0.199780	-0.210475	0.180237	-0.224515	0.211617	-0.279382	0.171257	-0.198107	0.112952	0.132255	-0.175887	0.129191	-0.193558	0.150389	-0.188123	0.107046	-0.106531
-0.062375	0.018648	-0.082149	0.048126	-0.076201	0.019953	-0.058117	0.006962	0.058255	-0.101568	0.027253	-0.121721	0.092909	-0.133725	0.040121	-0.061219	-0.126180	0.111987	-0.156303	0.146216	-0.175750	0.119679	-0.149029	0.034005	0.145187	-0.224766	0.170649	-0.250306	0.152499	-0.182861	0.089103	-0.127133	-0.228976	0.187330	-0.259755	0.216393	-0.263032	0.161443	-0.139506	0.080747	0.145578	-0.210838	0.199836	-0.266515	0.206008	-0.227031	0.135100	-0.174744	-0.216412	0.177912	-0.240553	0.217227	-0.285590	0.175926	-0.174438	0.099728	0.097475	-0.175874	0.128978	-0.227215	0.166782	-0.206975	0.134225	-0.110388
-0.063934	0.007513	-0.070199	0.045471	-0.092018	0.023943	-0.045642	-0.004758	0.044337	-0.112240	0.065540	-0.125185	0.069905	-0.082689	0.040446	-0.080910	-0.125913	0.102841	-0.141546	0.133599	-0.156390	0.093553	-0.120267	0.015541	0.127598	-0.198252	0.141806	-0.237998	0.138744	-0.172277	0.056345	-0.103133	-0.218291	0.201776	-0.261268	0.202354	-0.221663	0.138397	-0.162023	0.072967	0.161869	-0.225242	0.207336	-0.257482	0.202206	-0.244141	0.128475	-0.177817	-0.227082	0.189703	-0.231548	0.216294	-0.272738	0.178629	-0.180884	0.088261	0.132253	-0.190117	0.127592	-0.215185	0.167609	-0.192506	0.106780	-0.099463
-0.063313	0.020959	-0.084016	0.024330	-0.095918	0.026380	-0.047177	0.004121	0.049687	-0.110996	0.075996	-0.135419	0.088339	-0.119323	0.047397	-0.092679	-0.132006	0.092444	-0.148501	0.144414	-0.177480	0.090231	-0.128262	0.063712	0.126759	-0.209098	0.144445	-0.207565	0.118183	-0.158309	0.062733	-0.133690	-0.213390	0.196188	-0.257644	0.191202	-0.193034	0.129738	-0.149668	0.066702	0.148413	-0.235668	0.197973	-0.231413	0.199591	-0.225501	0.096332	-0.165593	-0.168527	0.168872	-0.206765	0.217929	-0.262413	0.170372	-0.203710	0.105596	0.094618	-0.163563	0.104337	-0.199669	0.151056	-0.181015	0.094688	-0.096135
-0.057699	-0.008905	-0.059594	0.033836	-0.081627	0.037665	-0.042678	-0.001356	0.030516	-0.069616	0.050506	-0.122151	0.051574	-0.077429	0.021395	-0.068910	-0.121599	0.079625	-0.151257	0.108701	-0.142776	0.083648	-0.084954	0.022193	0.117783	-0.213074	0.148475	-0.225600	0.143146	-0.159969	0.061614	-0.113840	-0.233560	0.190666	-0.251880	0.188069	-0.208022	0.148610	-0.152041	0.054017	0.141610	-0.234012	0.197708	-0.252995	0.184082	-0.227939	0.117667	-0.152927	-0.188351	0.163869	-0.198987	0.194197	-0.278057	0.187951	-0.182096	0.104458	0.079784	-0.145024	0.127573	-0.208760	0.138973	-0.161386	0.101770	-0.114898
-0.086246	0.011973	-0.073626	0.048993	-0.112666	0.016888	-0.048961	0.017575	0.032902	-0.080361	0.058535	-0.121572	0.084301	-0.140172	0.046587	-0.066459	-0.148069	0.097251	-0.152977	0.112794	-0.153243	0.098074	-0.133281	0.044243	0.148021	-0.216949	0.152752	-0.249666	0.163209	-0.192798	0.099816	-0.124002	-0.208700	0.206495	-0.259099	0.211909	-0.263821	0.142900	-0.162029	0.087499	0.166331	-0.236326	0.205985	-0.275627	0.210100	-0.270276	0.156214	-0.166900	-0.191013	0.164896	-0.214037	0.241676	-0.294411	0.206103	-0.191330	0.092812	0.116744	-0.161814	0.119583	-0.191870	0.145963	-0.212131	0.121402	-0.116528
-0.071367	0.020129	-0.068557	0.048385	-0.103733	0.037424	-0.062890	0.026566	0.035481	-0.070538	0.054122	-0.152237	0.097016	-0.113761	0.053369	-0.067407	-0.136145	0.089692	-0.141615	0.139013	-0.163491	0.076848	-0.133297	0.032120	0.148166	-0.216075	0.152457	-0.234169	0.134087	-0.150815	0.104859	-0.107122	-0.207386	0.195419	-0.275661	0.203919	-0.237279	0.138022	-0.160977	0.081767	0.140734	-0.239772	0.223631	-0.265404	0.213169	-0.256820	0.136060	-0.184832	-0.222481	0.176101	-0.243437	0.208243	-0.283175	0.200011	-0.194790	0.087632	0.124569	-0.187634	0.125987	-0.203802	0.162154	-0.184949	0.120317	-0.127700
-0.041562	0.014893	-0.078773	0.049118	-0.095453	0.027273	-0.023448	-0.006066	0.043280	-0.095835	0.068052	-0.153603	0.056194	-0.115084	0.018179	-0.078723	-0.139091	0.090439	-0.172069	0.141048	-0.160045	0.076540	-0.123122	0.041479	0.144926	-0.214856	0.176961	-0.246206	0.144828	-0.170449	0.076962	-0.089125	-0.243714	0.195056	-0.256052	0.214565	-0.243892	0.146654	-0.156436	0.085250	0.155043	-0.237339	0.242860	-0.260465	0.196350	-0.228378	0.116868	-0.136874	-0.209614	0.179454	-0.243606	0.224114	-0.267501	0.177941	-0.175180	0.077254	0.113014	-0.174260	0.144816	-0.216989	0.142454	-0.200721	0.090567	-0.095386
-0.046295	0.017139	-0.060707	0.042481	-0.100693	0.027901	-0.058449	-0.012479	0.051507	-0.095562	0.065707	-0.135842	0.082991	-0.124226	0.047617	-0.070684	-0.153601	0.101814	-0.152254	0.136168	-0.179618	0.108291	-0.151626	0.046443	0.123191	-0.211540	0.179268	-0.249729	0.155671	-0.179258	0.099784	-0.125253	-0.217148	0.192204	-0.267038	0.193296	-0.231692	0.135692	-0.159683	0.075763	0.150755	-0.238600	0.202440	-0.259303	0.215083	-0.247568	0.142687	-0.151721	-0.214874	0.163602	-0.221927	0.203362	-0.252718	0.187933	-0.194252	0.090329	0.122655	-0.178659	0.123372	-0.191463	0.150545	-0.191097	0.111827	-0.106030
-0.055848	0.012944	-0.072369	0.037406	-0.114820	0.034470	-0.032878	-0.004339	0.040403	-0.103406	0.066088	-0.130305	0.082284	-0.122833	0.047072	-0.095083	-0.138803	0.111066	-0.165577	0.125485	-0.152372	0.097308	-0.125414	0.041766	0.133489	-0.217781	0.143423	-0.236385	0.144422	-0.183175	0.092375	-0.114910	-0.226183	0.192645	-0.248511	0.214925	-0.229522	0.142983	-0.185968	0.105010	0.156568	-0.254306	0.222055	-0.251900	0.201332	-0.226449	0.145612	-0.183234	-0.217278	0.198515	-0.262638	0.214981	-0.292019	0.186030	-0.191271	0.103275	0.109622	-0.190111	0.155252	-0.186004	0.147525	-0.175315	0.111144	-0.113992
-0.060707	0.003867	-0.057681	0.036752	-0.098901	0.011203	-0.058120	-0.018427	0.045420	-0.103260	0.049877	-0.115503	0.090339	-0.106466	0.037644	-0.051359	-0.131083	0.093577	-0.163656	0.141582	-0.156139	0.090177	-0.127390	0.031576	0.127631	-0.245372	0.147209	-0.224120	0.136709	-0.162906	0.073651	-0.102083	-0.220177	0.187401	-0.245930	0.210636	-0.242973	0.146317	-0.156101	0.084374	0.128110	-0.224462	0.201639	-0.263385	0.226203	-0.234517	0.125322	-0.191161	-0.185200	0.160335	-0.233812	0.205445	-0.258684	0.196426	-0.186942	0.106855	0.099489	-0.166766	0.122195	-0.191456	0.167679	-0.185606	0.108606	-0.106170
-0.068696	0.007658	-0.084980	0.047120	-0.096585	0.035249	-0.074178	0.010407	0.055331	-0.100845	0.077076	-0.136067	0.086055	-0.130614	0.043037	-0.078952	-0.134168	0.107547	-0.169698	0.172180	-0.181034	0.122445	-0.164286	0.058013	0.133465	-0.249290	0.163860	-0.264679	0.164067	-0.202010	0.110861	-0.109818	-0.257576	0.228929	-0.293848	0.233634	-0.262289	0.161940	-0.183463	0.104097	0.149757	-0.250392	0.242524	-0.277203	0.245312	-0.264026	0.155520	-0.183476	-0.203369	0.193635	-0.248945	0.244959	-0.300607	0.190030	-0.207854	0.122002	0.132660	-0.182954	0.150706	-0.233415	0.167336	-0.209517	0.124129	-0.123884
-0.057272	0.012411	-0.073592	0.043096	-0.112198	0.036273	-0.061429	0.009097	0.053320	-0.097078	0.058530	-0.125819	0.076224	-0.126887	0.084307	-0.096125	-0.160102	0.115657	-0.181316	0.147259	-0.153716	0.095484	-0.167734	0.035330	0.150206	-0.217148	0.155403	-0.239645	0.172952	-0.158079	0.095191	-0.143680	-0.238623	0.207574	-0.276746	0.213602	-0.238792	0.169558	-0.178045	0.103002	0.163290	-0.248545	0.233171	-0.272700	0.235060	-0.266977	0.138332	-0.180513	-0.205792	0.202375	-0.234941	0.206924	-0.276925	0.211012	-0.220350	0.116362	0.097209	-0.183806	0.120620	-0.199920	0.168163	-0.216126	0.136264	-0.139608
