0.404140	-0.833238	0.093000	0.487198	-0.262621	-0.134032	0.240188	-0.253801	-0.150819	0.948755	-0.514364	0.684303	-0.182100	0.016407	0.201463	-0.240709	-0.095068	-0.564015	-0.002316	-0.044543	0.157224	-0.678083	0.149960	0.008242	0.190356	0.508601	-0.150829	0.608781	-0.694490	-0.636937	0.517807	0.301861	-1.487420	0.867727	0.124695	-1.069652	0.529142	0.217195	-0.773733	0.149710	0.473874	-0.442655	0.662834	-1.293622	-0.378917	-0.337015	0.080475	0.401474	0.066615	0.013050	-0.760353	0.672236	0.740438	0.750283	-0.757557	-0.757714	-1.429823	0.972297	0.581478	-0.699338	-0.287054	0.031743	0.434547	-0.407580
-0.327837	-0.575879	0.477748	-0.085372	0.303057	-0.839372	-0.464012	0.517612	0.121482	0.039815	0.418444	0.003093	0.632111	0.735455	-0.275195	0.053754	0.168292	0.026413	0.093217	-0.592715	-1.287665	-0.148876	0.293375	0.295552	-0.706267	-0.052148	-1.737177	0.429948	0.254661	-0.992330	0.050202	-0.057814	1.338529	-0.165735	1.189989	-0.705164	-0.459680	0.484079	-0.249765	0.339085	-0.194010	-0.751512	0.444616	-0.282698	0.226387	0.293609	-0.233494	0.255487	-1.102345	0.668718	-1.308722	1.212124	0.173122	0.950977	0.488233	-0.058560	1.562557	-0.779730	0.121979	-1.272930	-0.490558	0.878776	-0.396649	0.379384
0.509175	-1.225967	0.287093	0.856099	-0.022653	-1.172900	0.554361	0.168026	0.408095	-0.491378	0.256894	-0.668213	-0.010009	0.304108	-0.149918	-0.853293	-0.051233	0.636310	0.053779	0.501454	-0.601747	-0.169094	0.310942	0.250343	-0.420103	-0.000135	0.089761	-0.063645	0.621493	-0.138221	-0.842306	0.269873	-0.652635	-0.671951	-0.231278	0.341221	0.035395	0.678658	-0.675318	0.955234	-0.545196	0.267460	0.673296	-0.666788	-0.706525	-1.559233	1.488829	-0.927591	-0.573628	1.408411	-1.115157	0.368305	-0.159099	0.396788	-0.575120	0.078678	-0.011802	-0.573033	-0.307547	0.586262	1.200731	0.087594	0.097317	-0.440354
0.142837	1.222791	-0.365029	0.243221	-0.015534	0.235878	0.879861	-1.195527	-0.205799	-0.938064	0.054142	-0.410218	-0.564859	0.316893	0.354452	0.446729	0.523164	-0.269697	-0.325209	-0.551551	0.390348	0.322834	-1.066086	0.717302	0.298991	0.912885	-1.057991	0.034767	-0.152338	0.029306	-0.537723	0.257020	-1.103321	0.917305	-0.901696	1.463051	0.131136	0.102273	-0.453166	0.751320	0.841124	-0.058549	-1.311721	-0.717761	-0.313321	0.143695	-0.452889	-0.290309	-0.134161	-0.320781	1.158647	-0.134729	-0.844175	0.786354	0.436540	-1.348173	0.892419	-0.530937	0.455537	-0.126496	0.092910	-0.209875	-0.994813	0.243072
-0.742616	0.171632	0.566195	0.325153	-0.482828	0.162968	1.064279	-0.419531	0.356678	-0.240355	0.582687	-0.318672	0.561283	0.625090	-0.437180	0.099507	-0.463999	0.151416	-0.956785	1.533646	-1.507585	1.389867	-0.300681	-0.534130	0.263749	0.472044	0.595297	-0.657437	0.102259	-1.204843	-0.130392	-0.178899	-0.848583	-0.512002	-0.164152	-0.236124	0.278284	0.498796	0.920198	-0.694788	0.422595	0.594545	-0.724521	-0.170592	0.421189	-0.795118	0.812148	-0.160035	-0.213188	0.010542	0.892306	-0.742057	-0.621393	0.396164	-1.091076	0.943490	-0.448741	0.337757	0.444140	-0.220091	-0.037047	0.862929	-0.933972	-0.382477
0.075645	1.076956	-1.471800	0.641397	-0.382519	0.284660	-0.174274	-0.116701	-0.679566	0.255717	0.765759	-1.703214	0.249879	-0.635423	-0.199359	0.931587	0.608400	-0.202964	-0.339354	1.760727	0.352462	-0.267360	-0.248997	-0.687741	0.244911	-0.534034	-0.163451	-0.605630	0.419333	-0.268143	0.036073	0.646670	0.290615	-1.338151	0.436696	-0.002216	0.377580	-0.433329	0.769158	-0.715312	-0.103067	0.559984	-0.680242	-0.396816	-0.833986	-0.206691	0.408844	-0.060004	-0.125459	0.331752	-0.198448	-0.101385	1.224608	-0.321788	-0.005972	0.343357	-0.154436	-0.362331	0.771673	-0.214035	-0.343857	0.603953	0.153920	-0.312930
-0.220908	-0.052356	-0.475587	0.265889	-0.687226	0.553027	-0.311783	-0.060031	0.639985	0.577143	0.158924	-0.417080	-0.449340	-0.510467	0.563316	-0.812118	-0.525123	0.140668	-0.086938	-0.613599	-0.764642	0.111579	0.421847	0.528262	0.570371	-0.134150	-0.176055	-0.967387	0.587052	-0.940037	0.174004	-0.761483	-0.081532	-0.386547	0.611581	-0.269318	1.114546	0.631493	-2.154014	1.225627	-0.423976	1.223166	-0.951116	0.462413	-0.477251	0.239398	0.677416	-0.192169	-0.065312	-0.556867	0.702332	-0.595660	1.114612	-1.071093	0.047964	0.354814	-0.214601	0.452240	-0.963055	1.071284	-0.574339	-1.355629	-0.700388	0.625630
-0.171796	0.360498	0.218218	0.425557	-0.516445	-0.482036	0.818220	-0.407262	0.107566	-0.145681	-0.783313	0.570452	0.318118	-0.905105	-0.441441	1.142343	0.246240	0.087072	0.093131	-0.902262	-0.672138	0.140337	0.496242	-0.873193	-0.225475	0.125413	-0.040709	-1.385796	1.023130	-1.058986	0.072239	0.734114	0.433141	-0.023413	-0.167433	0.205199	-0.435496	0.421632	-1.143236	0.748408	0.490796	-0.150238	-0.354210	0.549065	0.057352	0.077710	0.820109	-1.079072	-0.014253	-0.272855	-0.027826	0.530805	0.527510	-0.626614	-0.626932	0.221763	0.263624	-0.521425	-0.003507	-1.525398	0.127979	-0.228131	0.343448	0.619319
0.142478	0.205174	0.205430	0.215846	-0.087571	-0.993442	0.004602	-0.033879	-0.103053	0.368301	-0.892229	-0.575781	-0.837502	-0.417385	0.768293	0.117374	-0.059174	-1.789602	2.034443	0.429143	-0.536667	0.602088	-0.039579	0.000570	-0.478754	-0.316624	0.507554	-0.674528	-0.660391	1.174744	-0.675082	0.516466	-0.092036	0.518247	-0.371876	-0.737596	0.202531	0.965780	-1.258848	-0.621367	-0.545690	0.405719	0.047099	0.421162	0.004454	-0.015501	-0.306135	-1.011738	-0.014433	-0.321261	0.834940	-0.023846	-0.091238	-0.562621	-0.142370	2.269932	0.361373	0.214121	-0.463664	0.192503	-0.008455	0.599190	-0.886249	0.773076
-0.512099	0.067109	0.902309	-0.281128	-0.663850	1.371279	-0.242664	-0.106276	0.357679	0.786754	-0.315305	-0.131206	0.034273	-0.143933	0.005622	-0.187694	0.071345	0.467214	-0.919085	-0.297019	0.657708	0.054242	-0.222367	1.174417	-0.331732	-0.898327	1.095432	0.419426	0.145941	0.923641	-0.416593	0.241043	0.026155	0.647997	0.060655	-0.361275	0.226040	0.066415	0.417703	-1.309548	1.699602	-0.899447	-0.074939	-0.401494	-1.085526	-0.909915	0.141000	0.146480	-0.406177	0.318852	-0.535511	0.498994	-0.099273	1.072578	-0.287215	-0.549684	-0.840160	0.373296	-0.167867	-1.195935	1.187609	-0.426213	-0.064839	0.430662
-0.523517	1.078359	0.561545	-0.868299	-0.050931	0.976185	-0.395515	0.975225	1.092306	-0.998322	0.101168	-1.225689	0.921397	-1.249082	0.370283	-1.475106	-0.476471	-0.154355	1.101644	0.656609	-0.060145	0.015216	-0.253223	0.603292	0.365940	-0.068811	-0.522190	0.251131	-0.716372	1.094459	-0.224075	-0.013682	-0.059601	-0.826500	0.325420	0.389440	-0.107827	-0.022994	-0.490041	0.061541	0.289455	-0.140906	0.549952	-0.783409	0.075758	-0.017865	-0.778956	0.000620	0.727885	0.031988	-0.853925	0.394665	0.490740	-1.215293	0.922430	0.062961	0.207651	0.519268	0.658909	-1.053883	-1.210432	0.710826	-0.182665	-0.099218
-0.881823	0.533954	-0.822341	-0.488295	-0.534364	1.547599	-1.287653	-0.389475	0.519502	-0.109435	0.510366	-0.066886	0.394808	-0.473349	-0.253069	0.170307	-0.257516	-1.159049	0.596778	0.102896	-0.285055	0.331367	-1.094760	-0.016097	0.317416	1.142362	-0.119319	-0.914520	0.239403	-0.828568	0.126539	0.682251	-0.474349	-0.217693	-0.807104	0.364087	0.090526	0.016657	-0.128880	0.573774	0.144085	-0.484100	1.231517	-0.736406	-0.276197	0.297675	-0.140250	-0.765525	-0.173735	0.393469	0.573246	0.047861	-0.515390	1.643546	0.380981	0.008185	0.316907	-0.386235	-1.059024	0.137396	0.786441	-1.200938	0.093492	0.391669
-1.349944	0.759033	1.427410	-0.814708	-0.092375	-0.542753	0.023822	0.301600	0.335426	-0.922385	0.009676	0.438266	0.020788	-0.041824	0.139036	0.496593	0.284273	0.779951	-0.406374	-0.585254	0.551193	-0.628071	0.793999	-0.106884	0.614160	0.242779	-0.102921	0.125139	-0.053926	-0.044898	0.220990	-1.477184	-0.581418	-0.145445	-0.424872	0.684806	-0.663678	-1.026291	0.419496	1.213654	0.262725	0.507101	-0.164500	-0.810366	0.610250	-0.326966	-0.781132	-0.177846	-0.430126	-1.108816	0.013883	0.591136	-0.211350	1.028282	-0.209025	-0.156510	0.098188	-0.109311	0.511049	-0.238869	-0.149965	-0.857953	0.561870	-0.006859
-0.145925	-0.238598	0.519146	-0.673031	0.130895	-0.259637	1.281102	-0.833290	0.163645	-0.408079	-0.279721	0.273905	-0.612743	-0.417274	-1.039736	0.445749	0.035567	-0.033950	0.519206	-0.909025	0.240761	1.248617	-0.218356	0.065888	-1.488038	1.012657	0.221372	0.549409	-0.120611	-0.500870	-0.141734	0.351722	0.994643	-0.890329	0.311879	-0.215953	-0.440898	-0.650947	-0.342624	-0.668453	-0.797679	0.815589	-0.436772	0.138836	-0.881495	-0.149151	-0.082143	0.971522	0.286494	-0.784831	-0.181258	-0.652875	0.859785	-0.004715	0.369567	-0.592966	-0.333580	1.356432	-0.341491	0.052800	0.724481	0.449897	-0.344967	0.263114
0.182118	0.803194	0.061062	-2.480970	0.730281	0.563985	-0.152595	0.062345	0.066068	-0.102849	0.055365	0.983596	-1.016763	0.265921	0.174260	0.070973	-1.302731	0.155110	-0.453689	0.467451	0.492270	-0.289627	0.292947	-0.150760	-0.153470	-0.204781	0.148586	-0.608715	-0.919806	0.057312	-0.933497	0.267450	0.930546	-0.393963	-0.389810	-0.294271	0.749719	0.438349	-1.622215	-0.774858	-0.640596	0.195192	0.972357	0.697886	-0.009806	0.259530	0.630521	0.182746	0.966136	-1.519082	-0.309785	-0.351005	0.370270	0.343209	-0.522966	0.103202	-1.116468	0.247827	-0.075248	-0.195678	0.093335	-0.521871	0.410218	-0.360813
-0.151812	0.073679	0.306086	-0.128437	0.024957	-0.176809	0.396761	-0.400762	-0.005091	-0.006173	0.312691	0.702827	-0.164668	-0.505483	0.204057	0.580123	0.582724	0.052588	0.022710	-0.485918	0.103571	-0.066533	0.081696	0.821511	-0.407543	-1.267585	0.814887	-0.261978	1.142275	-0.971080	-0.164762	-0.227476	1.195329	0.625028	-1.484445	-0.737105	-0.007427	0.590131	0.161768	-0.280514	-0.331341	-0.421258	0.325707	0.489719	-0.314860	0.626703	-1.816487	-0.362566	0.079262	0.509369	-0.517847	-0.132080	-0.325789	-0.339037	0.241628	0.583096	-1.394234	-0.196300	2.231903	0.117398	-0.326859	0.710264	0.010206	-0.524982
0.561226	0.051527	1.517735	0.192434	-1.024466	-0.090727	0.067587	-0.192430	-0.622385	0.890012	-0.376095	-0.548791	0.340635	0.061358	0.253549	-0.485175	0.437583	-0.426689	0.727735	-0.307891	0.016343	-0.074191	0.852480	-0.663467	-0.320406	-1.210863	-0.978791	1.189312	-1.384518	0.828152	-0.606582	-0.125336	0.459471	0.643544	0.176386	-0.529373	0.551780	-0.681851	-0.124453	1.068179	0.168309	-0.415895	-1.007197	-0.199113	0.073165	0.032799	-0.373682	0.322556	-1.170844	-0.109212	0.986711	-0.823684	-0.405277	-0.316530	-0.092214	-0.278166	0.686596	0.071656	0.370153	-0.827219	0.915682	0.371340	-0.045567	-0.393147
-0.212913	-0.057226	0.723825	-0.045850	0.323554	0.067967	-0.839801	0.494381	0.600893	-0.504929	-1.174433	0.057408	0.200694	-0.970703	1.810592	0.232550	-0.023961	-0.408219	-0.330050	0.025052	-0.556439	0.429510	-1.239304	-1.488773	-0.026908	-0.529671	-0.001088	-0.447154	-0.508626	0.915985	0.308433	-0.141561	-0.000418	0.637639	0.601677	0.791909	0.481104	-0.147367	0.733642	0.430786	-0.593462	-0.000279	-0.962160	0.179968	0.392634	0.173862	-1.677076	0.643008	-0.609568	0.626902	0.053409	-0.265031	1.028751	1.016996	-0.114183	-0.219141	-0.418088	-0.798160	0.137538	0.181865	-0.564509	-1.076248	1.137386	-0.837508
0.693490	-1.340823	-0.297431	0.315814	-0.583400	0.035766	-0.402557	-0.773274	0.455707	-0.587810	-0.436853	-0.113029	1.301830	-1.043179	-1.079923	1.399800	0.157378	0.127496	0.132627	0.144617	-0.699150	0.641251	0.318772	-0.079784	0.180429	-0.046798	0.159149	0.646271	-0.998066	0.466840	0.328693	-0.803779	-1.116648	0.532710	0.610767	-0.445627	1.632123	-1.276494	0.347861	-0.392118	0.044385	0.447675	-0.704068	0.320259	-0.052732	1.117061	0.182207	0.348466	0.700614	0.068951	0.109515	0.580423	-0.214066	-0.452801	0.315435	-0.551949	-1.344808	0.558595	0.203556	-0.625992	-0.004327	0.655300	-0.358651	0.330764
-0.775876	-0.233854	0.558710	0.398741	-0.253057	-0.859586	0.480279	-1.190211	-0.011571	0.538624	-0.278090	0.792281	-0.580413	-0.059986	0.486653	-0.244273	-0.251362	-0.661651	0.667305	-1.061190	0.902106	-1.565815	-0.655648	0.229394	0.517830	-3.014394	1.338120	-0.714432	0.286890	-1.353347	1.002208	0.588328	0.990850	-0.142426	-0.111510	0.050645	0.232299	-0.568557	-0.354141	-0.018568	-0.522682	0.958579	-1.589517	-0.403305	0.606336	-2.364877	0.368540	0.906616	0.105692	0.328884	0.901487	-0.567052	-0.619523	0.990789	-0.032352	-0.056490	-0.219547	-1.723813	-0.177617	1.159542	0.861363	-0.001785	-1.010829	0.358916
-1.348332	0.172892	-0.479005	-1.202503	0.173360	0.361055	0.030509	-0.100911	0.660168	0.924793	0.091583	0.057612	0.541302	-0.252911	-0.984995	0.117961	0.644034	-0.483700	-0.273181	0.127148	-0.415387	0.390777	-0.725662	-0.413327	0.198693	0.469597	-0.651052	0.647238	-0.530923	-0.033741	-0.072182	0.344994	0.209190	-1.192188	0.793167	-0.871562	-0.204855	1.169324	-0.043610	-0.495637	1.159544	-0.828448	-2.576257	0.584278	0.865733	-1.544765	0.428211	0.574535	-0.502308	-0.111821	0.695945	0.681079	-0.474229	0.840697	-0.973536	-1.066432	0.053373	0.273421	-0.203650	0.805181	-0.228205	0.276841	-0.278254	1.455280
0.315222	0.231277	-0.218613	0.450192	0.511673	-1.161646	0.445830	-0.371730	0.072623	-0.992279	0.754588	-0.771178	-0.926802	0.610985	0.190652	0.585099	0.022072	-0.224315	0.105602	-0.522002	0.887719	-0.072066	-0.803484	-0.085601	-0.231089	0.006827	0.129192	-0.278934	-0.603053	-0.007317	2.192997	-0.047711	0.520101	0.020765	-0.442394	0.097140	1.077695	-0.363806	-0.414179	-1.101089	-0.095700	0.666001	0.490590	-0.595487	1.450793	-1.298942	-0.166964	0.781164	0.254687	-0.407340	-0.083410	-0.035675	-0.623554	0.745700	-0.473411	-0.360351	0.142658	0.541275	-0.434941	-0.894196	0.388109	0.361973	-0.868355	0.643574
1.208064	-0.758672	-0.301893	1.204156	-0.991282	1.242347	-0.023305	0.377100	-1.465641	-0.553748	0.175670	-0.606827	-0.969432	-0.497376	0.772348	-1.149341	-0.319824	1.087424	0.126519	-0.405669	0.752923	-0.273741	-0.565375	0.886907	0.822019	0.584998	-0.535082	-0.030450	-0.127820	-0.093382	-0.332326	-0.085428	0.750124	0.307609	-0.056834	-0.298175	0.437067	-0.164313	0.354054	-0.777877	0.601878	-0.692270	0.243352	0.290621	-0.924146	1.062852	-0.365889	-0.529133	-0.816195	-0.178974	0.019390	-0.416713	0.448228	-0.465051	-0.358443	1.220429	0.585944	-0.224831	0.478029	-0.645377	-0.149540	1.020495	-0.319146	0.052328
-0.088365	-0.001867	0.098730	-0.999586	2.290623	-1.567815	-0.290295	0.493057	0.621012	-1.238144	0.348074	0.144808	-0.823100	1.332052	0.185809	-0.768091	0.425487	0.037451	-0.460611	0.391883	-0.323378	0.573273	-0.911804	-0.026270	-0.172647	0.433358	0.566314	0.289884	0.782565	-0.341022	0.070827	0.751030	0.450635	-0.322918	0.128028	-1.213679	-0.034609	-0.021006	0.116260	-0.092793	-0.526834	-0.462430	-0.296219	0.983646	-0.851488	0.346358	-0.391387	-0.003707	-0.383859	1.247488	-0.302272	-0.695374	0.679569	0.203132	-0.998866	-0.493642	0.383190	-0.525893	-0.326145	-0.153562	0.507563	-0.650731	0.233412	0.094082
-1.138886	-0.142407	0.151594	-0.451640	0.468834	-0.054503	0.504001	0.117557	0.469072	-0.929108	-0.211276	-1.005484	0.765407	-0.349139	-0.115101	0.063247	-0.863649	0.992255	0.366407	0.506762	0.339130	-0.783008	-0.551599	-0.053906	-0.552861	0.431957	-0.762041	0.318453	-0.182899	0.245773	-0.368417	-0.035422	-0.084205	-0.233212	-1.510827	-0.954141	0.436077	0.399672	-0.502933	0.317554	0.376200	-1.070959	2.080777	0.318431	-0.388610	0.254848	0.188816	1.173668	0.796250	-0.239095	1.029883	-0.326473	-1.071038	0.102539	-0.457940	-0.551975	-1.758559	-0.071613	0.077433	-0.271353	0.231515	0.270817	-0.431899	0.975153
-1.303450	0.445493	0.168721	0.306928	-0.175377	-0.190975	-0.231179	-0.236144	0.465818	0.034685	0.458894	-0.351053	-0.883448	0.177148	-0.290186	0.248470	-0.268146	1.116138	-0.818179	-0.506659	1.097934	0.227358	0.293239	-0.722375	0.522413	-0.434761	0.360435	0.350345	-1.204276	0.366660	-1.168615	1.100043	-0.580851	-0.367823	0.676457	-0.774206	0.427605	0.660029	-0.079870	0.153626	-0.964746	0.938303	0.058832	-0.134980	0.349598	-0.623882	-0.595396	-0.000372	0.324910	-0.350494	-0.920310	0.378691	1.002971	-0.277916	-0.084892	0.179211	-0.651964	0.373198	1.163457	-0.904457	-0.588860	0.087552	-0.031574	-0.255771
0.572292	-0.097538	-0.686261	-0.205754	1.380081	-0.319104	0.549627	-0.158730	-0.105617	-0.066797	0.220768	0.032657	0.265479	-0.803276	0.170297	-0.032869	-0.682990	1.420142	-0.413884	1.056947	-0.699315	0.752958	-0.325647	-0.394511	-0.167318	-1.327722	-0.433433	-0.617968	0.297803	-0.091943	-0.168289	0.951200	0.534546	1.100832	-0.450104	0.288015	-0.262701	-0.471461	-0.429899	0.177775	0.764725	-0.114395	0.472324	-0.125878	-0.064416	-0.731726	0.539372	-0.651917	-1.544313	0.560106	-0.202526	0.775036	0.679847	-0.529921	0.973331	-0.287199	0.517257	0.310326	0.302147	0.577211	-0.860457	-0.368289	-0.266787	0.582333
-0.132361	0.033566	-0.784592	0.409692	0.233194	-0.800309	1.023988	-0.075296	0.416249	-1.209542	-0.254421	-0.146180	0.118675	-0.278094	-0.487778	0.328282	0.045051	0.518983	-0.100700	-0.267360	0.424528	0.020009	-0.066673	0.128887	1.160346	0.265843	-1.052942	0.141517	-1.320593	0.842117	-0.355607	0.149161	-0.405555	-0.659570	0.072545	-1.239595	0.516922	-0.939987	-0.274293	0.234061	-0.689854	0.805730	-0.774618	0.787164	-0.876257	0.731670	0.604537	-1.009087	0.024608	-0.064392	0.971870	-0.747312	0.597496	0.856947	-0.875178	0.270604	0.608870	-0.466662	0.273201	0.765051	-0.209600	-0.809702	0.270500	-0.087822
-0.289860	0.684218	-0.354006	-0.293023	0.237813	-0.452208	0.383065	-0.553516	0.559192	-0.041300	0.248706	0.456864	-0.332327	0.839309	-0.397979	0.294909	0.350020	-0.003491	-0.334657	0.128499	0.423436	-0.609823	-0.071360	-0.040982	-0.155003	-0.740038	-0.800209	-0.021150	-0.432088	0.267557	1.223490	-0.276165	0.221760	0.453882	-0.533065	0.651959	-0.452613	0.844452	-1.841592	0.354029	0.362512	-0.905826	-0.793648	1.005432	-1.389376	0.836935	-0.170545	-0.361427	0.282433	-0.408809	0.276807	-1.577698	0.404661	0.024237	1.100795	0.660616	-0.791575	0.344942	-0.460131	0.110889	0.101329	0.661992	-0.878396	0.125931
-0.297866	0.221977	0.160074	-0.288902	0.472788	0.305021	-0.718717	0.147095	1.528977	-0.146666	-0.737650	1.089747	-0.403187	-0.703736	0.623207	0.618539	-0.958722	-0.106243	-0.560375	-0.452387	1.131724	0.038639	-0.587341	0.094503	1.003916	-0.079678	-0.134957	0.935090	-0.280346	-0.484116	-0.419627	0.336861	0.647632	-0.576354	0.546973	-1.391918	0.478210	-0.072536	0.278333	0.195939	-0.273453	-0.104810	-0.677534	-0.074488	0.559719	-0.771298	0.898073	-0.988525	0.078872	-0.536716	0.822370	0.295419	-0.866263	-0.376020	0.391278	2.046807	0.016995	0.373555	-0.465450	-0.532195	0.473573	-0.015683	-0.278200	-1.528692
-1.217579	-0.406472	-0.857582	0.818530	0.438060	-0.034426	-0.487612	0.273737	1.891798	0.076635	-0.107650	-0.815837	-0.402282	-0.004314	0.213938	-0.388797	-1.847692	0.211618	0.696341	0.385048	-0.225426	-0.208393	0.348859	0.048547	1.148201	-0.485590	-0.412728	-0.499104	1.190344	-0.054717	0.102197	0.382022	-1.676182	0.798133	-0.235547	0.108087	-0.579677	-0.563802	0.748681	-1.033275	1.092729	-0.295238	-0.316338	-0.094947	0.144598	-0.080598	-0.242802	0.097563	-0.927877	0.445377	0.356146	-0.942085	0.578217	0.491000	0.172714	-1.014793	0.360987	-0.806954	-0.494179	0.102933	-0.445455	-0.085082	-0.284048	0.939845
0.528538	0.584557	-0.757525	0.265372	-0.892964	1.198645	-0.931834	-0.136092	-0.875386	0.605828	-0.049859	-0.103815	0.793770	-0.610257	-0.396593	-0.195133	0.352713	-0.063889	0.543905	0.199292	-0.922372	0.247500	0.597629	-0.149741	-0.027019	-0.132325	-0.493825	-0.166440	-0.614948	-0.151737	-0.305556	0.573405	0.804164	0.224562	0.321562	-0.396935	0.681936	0.411138	0.215756	-1.266488	-1.374149	-0.422816	0.798004	0.470073	0.202616	-1.368764	0.279292	0.736671	1.354965	-0.049099	-1.116975	-0.083211	0.194447	-0.668731	-0.379666	-0.484715	-0.492794	0.095404	-0.800821	0.747590	-0.640133	0.562435	-0.054726	-0.319826
-0.561144	-0.326666	-0.788372	0.208470	-0.494701	1.296867	-0.332428	0.792776	-0.046455	-0.271394	0.510949	-0.010131	-1.000693	0.547237	-1.220565	-0.707662	1.986048	0.571215	-0.880756	0.334686	0.155842	-0.617922	1.135448	0.002571	-2.047750	0.012354	-0.332477	-0.188008	-0.067380	-0.271594	-0.074235	0.966061	-0.162587	-0.220357	0.153553	1.144741	0.342344	-1.143058	0.313388	-0.060150	0.751483	0.535959	-0.491405	-0.260978	0.803050	0.136680	0.300300	-0.475486	0.142745	-1.170364	1.151890	-0.149597	0.022079	-0.430211	-0.906091	0.991683	0.056657	0.170698	0.077811	0.176064	-0.430278	-0.174977	0.007053	0.201027
-0.778324	0.494497	-1.046092	0.497645	0.579193	0.275037	0.293924	-0.498425	0.599231	0.214865	-0.608200	0.179495	-0.267212	0.243527	-0.502165	0.409649	-0.570633	-0.915979	0.206790	-0.089897	-0.672813	-0.340848	-0.076561	-0.399380	0.022594	0.093023	-1.054984	0.298688	-0.034704	0.166323	0.011985	0.490205	0.535502	-0.563683	0.527379	-0.145026	0.457890	0.802946	-0.810263	-0.720509	-0.194910	1.832427	-0.996658	-0.309007	-1.160457	0.923779	-0.755784	0.826541	0.022266	0.466316	-0.507907	0.444642	-0.188579	-0.408329	0.674388	0.261936	-0.010268	-0.894859	0.986424	0.918766	0.070066	0.137716	-0.044671	0.326476
-0.768262	1.241275	0.518292	-0.284073	0.704393	-0.505812	0.440871	0.034197	-0.632321	0.290760	-1.334197	-0.252585	-0.464767	1.251442	-0.481269	-0.609840	1.413641	-1.352316	1.092878	-0.084281	-0.700784	0.395074	0.000843	-0.386076	0.629928	0.239210	-0.405095	-0.189205	1.463656	-0.164034	-0.883412	0.595732	-0.898837	1.597047	-0.069304	-1.100144	-0.355808	-0.944224	0.493410	0.140814	-0.004776	-0.186487	0.174963	0.671088	0.991657	-0.163112	0.047977	-0.595437	0.447423	-0.698503	-0.434975	0.149558	-0.705724	0.230959	0.168839	0.618170	-0.618508	0.756537	-0.350430	0.036570	-0.052646	1.120972	-0.471161	-0.116349
0.087529	-0.205812	0.321460	-0.243901	0.428946	-1.089366	0.441386	-0.212762	1.040298	0.523264	-0.575380	0.300001	-1.107501	0.774743	0.347804	-0.501229	-0.456106	0.060957	-0.176707	-1.398491	-0.033758	-0.437344	0.059094	-0.105220	-0.074065	0.613998	-1.236234	0.712821	-0.256529	1.446787	-0.664489	0.509174	-0.179966	-0.850455	0.552378	1.160404	-0.346889	-0.310736	1.143877	-1.404460	0.352920	-0.009927	0.562297	-0.016544	-0.091475	-0.348837	0.326467	0.458110	0.192639	-0.771419	-0.352802	0.154669	-0.042877	0.611087	0.489105	0.995852	-0.229191	-0.150947	0.204702	-0.503658	0.479880	0.453851	-0.426023	-1.062556
-0.709286	0.032424	-0.116483	0.095762	0.035844	-0.275379	-1.197304	0.561648	-0.080686	0.160710	-0.264457	-0.281786	0.281077	1.157034	-0.266182	0.529593	-0.736249	0.864896	0.103540	0.421663	-1.488130	-0.330696	0.232478	-0.292770	0.913936	-0.917039	1.385751	-1.126579	0.679037	-0.136337	0.190805	0.147527	0.101412	-0.802583	0.744072	-0.321742	-0.319568	-0.122935	0.052341	-1.199784	-0.941849	0.362610	-0.251243	-0.360971	-1.230302	1.212883	-0.334233	0.335570	0.609863	-1.302464	0.848548	-0.054595	-0.105969	0.254621	-0.808015	0.777834	-0.016179	1.110465	-0.306962	0.270081	0.045358	-0.323981	0.079320	-0.770581
-0.932133	0.107702	-0.973187	0.398354	-0.255619	0.585930	-0.378695	0.359937	-0.574548	0.237986	-0.134217	0.772654	-0.338406	-0.518669	-0.502020	-0.343528	1.132865	-0.092804	0.811061	-0.376830	0.517779	0.887503	-0.874983	0.554267	-0.099180	-0.687064	0.387910	0.089711	0.184461	-0.863987	0.978128	-0.994512	-0.914140	0.511944	-0.491557	0.169081	-0.404654	-0.212446	-0.118723	0.302557	-0.378236	-0.193980	0.624826	0.474405	-0.171974	-0.072520	0.216459	0.410360	0.771614	-0.373946	0.831199	-1.073014	0.731336	0.106987	-0.072742	0.359086	0.256767	-0.430239	-0.323438	-1.632719	0.085180	0.670021	0.280262	-1.144880
-0.097892	0.473084	1.990159	-0.463660	0.268813	-0.236512	-0.101720	-0.761281	0.387571	-0.842497	-0.375346	-0.140455	-0.183077	0.469393	-0.664349	0.596183	-0.382545	0.724393	-0.635467	0.290894	-0.015054	-0.377194	-0.448226	-0.017637	-0.013009	-0.264883	0.297714	-0.357857	-0.450180	-0.350717	0.663022	0.708207	-0.193961	-0.620538	-0.133768	-0.192903	-0.110096	-1.692967	0.446088	0.469457	-0.199129	-0.053181	-0.487217	-0.762721	-0.400390	1.400008	0.200065	-0.200931	0.303173	0.335384	-0.494038	0.334076	0.692761	-2.308022	0.748285	0.379197	0.455799	-0.254576	-0.400443	-0.334669	0.194204	0.427781	-0.895148	0.588012
0.314562	-1.685744	0.995973	-0.185810	-0.039317	0.908316	-0.356766	0.403779	-0.098830	-0.326622	0.804472	-1.256560	-0.653248	1.775868	0.009397	-0.338923	-0.518578	-0.130032	-0.181713	1.023347	0.723480	-1.050184	-0.356352	-0.204722	1.003980	-0.279879	-0.474402	0.536826	-0.741221	0.272965	0.907937	0.054646	0.219762	0.050265	0.651584	-1.147630	-0.453099	0.252903	0.352079	-0.211951	-0.366055	0.342909	-0.645848	0.804903	0.353038	0.132597	0.367003	-0.691916	-0.189597	-0.308290	0.280341	-0.499741	-0.110835	-0.828817	1.297588	-1.040969	0.169837	-0.177848	-0.422000	0.862617	-1.071857	0.490479	0.538534	0.375159
-0.063672	0.424438	-0.891946	0.479159	0.247107	0.623610	-0.912414	-0.003453	0.296009	-0.511182	1.170617	-0.405649	0.151341	-0.593164	0.333559	-0.149434	-0.221893	0.134801	-1.563842	0.044981	-1.881040	0.905232	0.033890	0.297729	-0.363882	0.312250	0.284368	0.330480	1.163477	-0.295897	0.255675	0.095016	0.005498	-0.516021	-0.253075	-0.973749	0.215300	-0.621818	0.287550	0.788691	0.776259	-0.467397	0.226905	1.081146	0.396527	0.696949	-1.531245	0.099382	-0.548328	-0.408121	0.115423	0.081634	-0.315671	-0.370293	0.246649	0.359838	-0.087631	0.407623	0.000391	-0.289543	0.034634	-0.335740	-0.278827	-0.543941
-0.733374	0.542960	-0.256848	0.029040	0.522933	-0.524404	0.338310	-0.145776	-0.457237	0.687703	0.583456	-0.231486	0.591506	-0.310320	-0.172396	-0.312474	0.167598	-0.535716	-0.146622	-0.355495	0.883110	-0.151068	0.327039	-0.660662	0.170358	0.566109	0.226698	-1.302001	-0.962958	1.586171	-0.898427	1.354467	0.184179	-0.167007	0.806662	0.355718	0.635653	-0.861068	0.112619	-0.275214	0.708764	-1.515411	1.035825	0.440837	-0.609036	1.394545	-0.099568	-0.598991	-0.185969	0.698503	-0.830080	-0.216240	-0.963442	-0.589105	-0.580060	0.756314	0.429939	-0.972728	0.316862	-0.338535	0.457810	-0.016766	0.398837	-0.261247
-0.353911	-0.455880	1.012751	0.180236	-0.357993	0.112405	0.018046	0.390035	0.389539	-0.701982	-0.372976	0.299464	0.530600	-0.809618	-0.240800	-0.663933	0.135976	-0.278742	0.408045	-0.231037	-0.733944	0.599098	-0.346114	0.774416	-0.201217	-0.238254	-0.202835	-0.807293	1.601115	0.144268	-0.133650	-0.081458	1.068118	0.010795	0.377674	0.797864	-0.777819	-0.205326	0.079270	-0.798429	-1.151157	0.373826	0.019760	-0.497043	-0.031286	-0.511683	0.205072	0.745661	0.922001	-1.110556	0.186893	-0.236074	-0.601156	1.248369	-0.319227	-0.439204	-0.361559	-0.072236	0.541457	0.654452	-0.199494	-0.961702	1.348358	-0.835101
-0.867718	0.896196	-1.004445	0.519135	-0.354868	1.293785	0.271670	-0.699842	0.092420	-1.105665	0.302301	0.491298	-0.202327	0.638492	-1.178151	-0.423838	-0.290051	0.181822	-0.395401	-0.834264	-0.210619	-1.182506	1.447784	0.790915	0.527355	0.375745	-0.230868	0.433727	-0.727299	0.273283	0.337956	-1.195358	-0.664463	0.401675	0.589379	-1.157594	-0.125225	0.874647	-0.722073	0.294588	-0.269064	-1.381791	0.559207	-0.230729	0.153820	-0.412295	0.437608	0.028161	-0.162775	0.849514	-0.530017	-0.739707	0.244248	-0.436007	0.412981	0.128564	0.117144	-0.232266	0.495935	0.420491	0.754945	-0.801109	-0.467081	0.640962
0.464835	-1.402981	1.734332	-0.417200	1.832508	0.405692	-0.070196	-0.522714	-0.449865	0.641865	-0.239183	-0.659368	-0.547594	-0.538090	-0.744823	0.120886	1.111233	-1.024771	-0.174414	0.347905	-0.425054	0.320645	0.950333	0.503755	-0.305328	0.428400	0.899121	0.244978	-0.702688	0.091828	-0.422475	0.206220	0.132103	0.024944	-1.164372	-0.487107	0.253298	0.050419	0.410573	-0.915964	0.340568	-0.110117	-0.369614	-0.366175	0.046227	0.105869	-0.034240	0.693376	-0.079084	0.032460	0.939126	0.027345	0.565902	-0.054700	0.012766	0.450752	0.266276	-0.252736	-0.576790	-0.040250	-0.258341	-1.823058	1.115716	-0.111065
-0.146925	0.026126	0.323423	-0.097417	-0.292413	1.422989	-0.137877	-0.460039	0.057006	0.312243	-0.241652	-0.044460	-0.072931	-0.020468	-0.433484	0.638213	0.169471	0.610239	-0.517391	-0.409195	0.302254	0.037190	-0.668859	-0.023417	0.141684	-0.005471	1.203040	0.134387	0.513266	0.009933	1.643076	-0.459149	-0.999078	0.263075	-0.543385	0.335705	-2.203401	2.009391	-1.712952	0.266470	-0.677442	0.191820	-0.571795	0.001959	0.730575	0.276401	-0.169986	0.062806	0.177306	0.101458	0.597142	0.456356	0.018778	-0.046342	-0.538458	0.717284	0.808666	-0.514156	-0.383122	0.265610	0.056368	0.568647	0.659540	-1.355814
0.090825	-0.159930	1.386152	0.196976	-0.838651	0.347266	-0.852137	0.537575	-0.666216	0.537382	0.175860	0.068355	0.634700	0.529687	0.399276	0.597602	0.437116	-0.231727	0.748473	-0.636759	0.083565	-0.517094	0.518446	-0.407583	-0.342293	1.072256	-0.953786	1.259157	0.127183	0.800454	-0.176129	0.325208	-0.735378	-0.226650	-0.323968	-0.359969	-0.234349	-0.981791	-0.062176	-0.080990	0.408504	1.067023	0.205889	-0.191456	0.369809	0.754647	-0.067403	-1.114540	0.054911	0.114382	0.140224	-0.742794	0.176283	-0.509815	0.220435	0.334494	-0.897965	0.926666	-0.727883	0.656989	-0.282682	0.461171	0.157363	-0.283997
0.819042	-0.878469	-0.234992	1.044780	-1.033982	0.166167	0.545779	-0.543797	0.387357	0.712244	-0.615027	-0.631753	0.278036	0.170039	-0.445494	-0.032274	-1.130730	0.330798	0.407473	0.163202	0.731646	0.119988	-0.053196	-1.110000	-0.731952	-0.737105	0.545918	-0.418718	-0.218488	-0.284388	0.571684	0.272407	0.965044	0.384261	-0.118528	-0.185660	-0.527263	0.171861	0.352522	0.216141	-0.626591	0.216458	0.051793	0.258664	0.932967	0.536603	-0.323266	-0.696611	0.497071	-0.115768	-0.553310	0.432154	-1.038942	0.722106	-0.606907	0.099985	-0.197265	0.003035	0.192312	-1.103475	1.538731	-1.948569	0.503635	0.267370
-0.163300	0.243658	0.044051	-0.368116	0.006090	-0.200045	-0.717522	0.159215	-0.323457	-0.190869	0.715163	-0.157689	0.230599	-0.380143	-0.736877	0.045431	0.012917	-0.524200	-0.355715	0.889361	-0.078457	-0.885872	-0.263008	0.315459	0.462299	-1.424024	0.402265	-0.688935	-0.593910	1.229005	-0.055198	-0.314864	-1.117363	0.915769	-0.111817	-0.096177	-0.799331	0.076015	-0.734836	0.907239	0.743915	-0.736157	-0.353956	0.242196	0.572698	-0.641901	1.103484	-0.774769	-0.585625	0.260539	-0.010317	-0.323135	-0.224659	0.581478	-0.101411	0.527536	0.222414	-0.206004	0.533296	0.489156	-0.713453	-0.336227	-0.254137	-0.434042
0.312511	-0.053460	0.430367	-1.413416	0.778664	0.274804	0.457272	-0.033295	-0.017136	-0.014987	-0.597364	0.452465	-0.668287	-0.234086	-0.272839	0.209603	-0.505511	-0.790417	0.621578	0.313314	-0.324685	-0.399072	-0.528574	0.579345	-0.779622	1.092812	-0.346324	0.833417	-2.356370	-0.313589	-0.234710	0.137427	1.530462	-0.307737	-0.554302	0.800815	-0.520950	-0.049663	0.657592	0.034428	-1.047689	-0.673068	0.885025	-0.739899	0.246208	-0.484917	0.372339	-1.165262	0.238867	0.797948	-0.234608	0.740380	-1.365769	-0.147299	-0.599436	0.259629	-0.715191	-0.450588	0.713801	-0.805010	0.185348	0.863948	0.116195	0.361660
-0.556842	-0.072677	0.014944	-0.306463	-0.658722	-0.686101	0.369251	1.101038	0.524684	-0.324938	0.826129	-0.677303	-0.364523	-0.281516	0.124088	-1.007970	-0.322725	0.348560	-1.424425	1.053655	-0.117565	0.090164	1.043044	-0.155886	0.452808	-0.576801	0.925291	-0.170647	-0.251420	-0.337846	-0.723276	0.222043	-0.409464	1.281906	-0.417560	0.925606	0.500253	-0.328821	-0.618521	0.009645	-0.110505	-0.941590	0.361906	-0.334790	-0.214473	0.761340	-0.682835	-0.160889	1.026852	0.923870	-0.276090	-0.213172	-0.196419	-0.477032	0.639450	0.428993	-0.223555	-0.098006	-1.690836	1.117082	-0.098623	0.510372	-0.419279	-0.636796
-0.512563	0.511051	-0.827106	-0.204584	0.647209	-1.887528	1.959990	-1.164912	0.849700	-0.468177	1.223067	-0.280271	-0.312396	0.088816	-0.048785	0.062531	0.151446	-0.517410	0.200085	0.678494	-0.290465	-0.362369	0.127688	0.752477	-1.137744	1.533377	-0.216560	-0.651435	0.373825	-0.502834	-0.478208	-0.469881	0.763274	-0.177135	0.183267	0.177436	-0.664851	0.421773	1.066005	-0.670316	0.123167	-0.663053	-0.376024	-0.231616	-0.043637	0.697075	-0.030762	0.032763	0.416214	-0.233366	0.541308	-0.121643	1.198965	-1.488963	0.812553	-0.238700	-0.736437	0.614437	-0.315181	-0.500075	0.221861	-0.786150	1.411873	-1.228051
-0.607455	1.259589	0.023450	-0.588183	-0.263029	0.505849	0.422995	-1.465055	-0.102485	-1.354148	0.388277	0.651419	-0.019058	-0.756080	0.691863	0.564223	-0.063011	1.567970	0.334052	-0.199681	0.172589	0.173227	0.032127	-0.492438	0.025208	-0.792942	-1.340209	0.882737	0.295130	-0.254296	0.006770	0.268456	0.252332	0.553218	0.767031	-1.083497	0.181678	-0.014268	0.162620	-1.016201	-0.131707	-0.450682	0.155195	0.458058	0.084832	-0.124747	0.134147	0.512095	-0.304135	0.476644	0.068951	-0.072795	-0.106788	0.214527	-0.052732	-0.254307	0.531054	0.532452	-1.556042	0.916201	0.019832	-0.938374	0.238081	-0.113448
0.309607	-0.074466	-0.656120	-0.790939	0.422349	0.247145	0.807547	-1.151221	-0.379961	0.417156	0.377532	0.438974	-0.412465	0.074850	-0.960778	0.898874	-0.178428	0.253235	-0.745720	0.790061	-0.207621	0.454299	0.333468	-1.800570	0.083749	-0.828683	0.204998	0.152480	-0.351276	0.332456	0.515442	0.092073	-0.067460	0.578067	-0.680600	0.468551	-0.729712	-1.154499	1.023673	-0.457549	-0.054001	-0.561211	0.242604	-0.017313	-0.370051	0.075867	-0.590486	-0.288447	0.374400	-0.532016	-0.512644	0.350945	-0.253969	0.935086	0.457012	-0.762907	0.330465	-0.228495	0.891179	-1.060402	-0.238112	0.199668	-0.042224	-0.116619
-0.609228	0.033018	0.929958	-0.730926	0.105936	-0.446009	-0.137499	0.289885	-0.350712	1.262689	-1.175050	1.548429	-0.477316	-0.263002	-0.130010	-0.064839	-0.325675	-0.289304	-0.328062	0.938869	0.401022	-0.088590	0.302987	0.296888	0.063613	0.365951	0.350793	-0.424897	0.347433	0.341422	-0.066765	-0.484487	0.386342	-0.312979	-0.372703	0.471161	0.242868	-0.520508	0.300381	-0.432866	0.240325	0.265815	0.835757	0.130096	-0.657803	-0.106087	0.261989	0.199228	-1.122106	0.280214	0.509415	-1.677435	1.214701	-0.537313	-0.245881	-0.495454	2.098046	-0.191548	0.482862	0.421782	0.122131	-0.715971	-0.220930	0.351674
0.250722	-0.312971	-0.792301	-0.190712	-0.207304	-0.261413	0.948131	-0.783595	-0.938555	0.943771	-0.042345	-0.270968	0.469809	-0.730313	0.614859	0.266779	0.463456	-0.234332	0.542969	-0.057792	-0.198334	-0.362423	-0.398882	0.020583	0.701195	-0.000990	-0.466743	-0.047973	0.865011	0.320102	-0.266200	0.634865	-0.876066	-0.380439	1.111960	-0.473109	-0.960103	-0.072404	0.419148	-0.468518	0.885803	-0.167605	0.118750	-0.103957	1.256410	-0.145729	-0.800621	0.524180	-0.432591	0.399438	-0.316098	-0.476077	-1.324788	-0.520290	-0.680631	0.819466	-0.091392	-0.217640	0.509413	0.332499	0.062134	-1.058165	0.690824	-0.309087
0.195184	0.769809	-0.210987	-1.308576	1.177882	-0.722287	-0.096508	0.138256	0.144925	0.251812	-0.143476	0.295978	-0.774135	-0.162354	-0.335463	0.102033	-0.342957	-0.265045	0.520456	-1.115352	1.414581	0.577062	0.115588	0.351939	0.166827	0.039042	-0.235724	-0.020746	-0.521383	-1.903174	1.055288	-0.808639	-1.521302	0.596865	0.095135	-0.340846	0.821850	0.457935	-0.123881	0.073421	1.315957	-0.147467	-0.151217	1.414126	-0.495719	0.067407	0.193941	0.047780	-0.768842	0.523892	-0.591402	0.271896	-0.133154	-0.491223	-0.819325	0.668444	0.596879	-0.283899	0.087266	0.773257	-0.119871	0.040421	0.054864	-0.384901
0.493144	-0.365951	-0.883391	0.071773	0.540445	0.168070	-0.820622	-0.329072	0.241045	0.804209	-0.348203	0.679998	-0.600658	1.221903	-0.122152	-0.343632	-0.245333	-0.039293	0.846961	-0.850327	-0.133311	-0.539205	0.585299	-0.066838	-0.245273	-0.021876	-0.141075	0.282718	-0.207280	0.061483	-0.319975	-0.681515	1.464998	-0.998697	-1.209540	0.029007	0.497625	-0.262131	1.145948	0.115233	-0.102244	-0.723163	0.701248	-0.213558	0.056192	0.101438	-1.917179	0.768984	-0.653518	-0.375600	0.642179	-0.534423	1.088082	-0.914766	0.216990	-0.136273	-0.056770	0.306170	-0.396944	0.972768	-0.063119	0.062004	0.236154	-0.491720
0.377263	-1.521010	0.992057	-1.288948	0.162080	0.604799	0.868890	-0.706082	0.261788	-0.012797	-0.719054	1.850731	-0.353323	0.254410	0.126721	-0.702976	-0.673442	-0.720151	0.864446	0.681574	0.631174	-0.175683	-0.035217	0.170726	0.978802	-0.028997	-0.400892	-0.893774	0.332998	0.020884	-0.284247	0.817837	-0.682024	-1.234893	0.834420	-0.035253	0.765827	-0.390273	-0.347511	0.398258	0.092491	1.069254	-0.549720	-0.464811	0.344266	0.830908	-0.662151	0.119149	-0.071322	-0.468343	0.285537	0.579603	-0.485665	0.008616	0.214835	-0.947199	0.234070	0.051306	-0.064432	-0.300214	0.475750	0.447907	0.794895	-0.217128
-0.917598	0.746456	-0.418333	0.182856	0.595678	-0.865951	0.063380	-0.496398	0.299441	-0.046945	-0.693039	1.320822	-1.129516	0.241840	0.666372	0.125799	0.092781	0.387408	0.547273	-0.595521	-0.037862	0.942660	-0.638129	-0.031540	-0.098389	-1.400278	0.419352	1.613261	-0.510147	0.203649	-0.255351	-0.063779	-0.048201	-0.540532	-0.041299	0.440647	-0.848190	0.136594	-0.269109	0.195699	-0.102393	-0.287121	0.425581	-1.323561	1.004900	0.500786	0.369250	-0.343412	0.312760	0.959321	0.268592	-0.275943	-0.155686	-0.712018	-0.389358	-0.493104	-0.514219	-0.023952	0.233222	-0.181112	-0.294491	-0.162373	-0.206669	1.327288
-0.397784	-0.265716	-0.078232	-0.266147	-1.017693	0.695027	-0.028672	0.146516	1.120188	-0.928796	-0.985757	0.565493	0.374259	0.353931	-0.281986	0.649178	0.905589	0.027951	0.952544	-0.820928	-0.031421	-1.307784	0.268816	-0.647309	-1.342745	-0.479888	0.826742	-0.648008	-0.160056	1.296077	-0.299557	-0.387728	-0.194367	1.132458	-0.439280	0.121300	0.372244	-0.777651	-0.268118	-0.101696	0.236142	-0.606589	-1.333273	0.840832	0.207781	-0.192970	0.055284	-0.156899	-0.472498	0.426676	-0.800599	-1.137895	0.120565	-1.091295	-0.212903	0.503300	0.631387	-0.702829	0.756100	0.401611	0.245252	0.288536	1.228839	-0.310854
-0.024925	-0.504397	0.416394	0.050653	0.438062	-0.631785	-0.172077	1.115843	-1.199389	1.035870	-1.036921	0.402921	0.270438	-0.406547	1.197383	-0.554327	1.015488	-0.106373	-0.371206	-0.483624	0.303638	1.068692	-1.091328	-0.830567	-0.946132	0.536738	0.374533	-0.007777	-0.060447	-0.746325	-0.019254	2.192943	0.115596	-0.916354	-0.721601	0.420348	0.379190	-0.119050	0.355346	-1.070232	-0.581945	0.560066	-0.796091	0.049157	-1.371546	0.874529	0.638997	-0.303303	0.621328	0.203792	-0.069988	0.135318	-0.077640	-0.387797	-0.296721	-0.053848	-0.869795	-0.417357	-0.186230	0.644030	-0.536028	0.448117	0.076319	-0.670866
0.406314	0.224128	-0.564878	-0.025909	-0.006115	0.341292	-1.173208	0.576285	-0.493075	-0.074516	-0.282038	0.761599	-0.606153	-0.861665	1.405221	-1.163601	0.442392	-0.467328	0.294808	-0.401820	0.761551	0.337990	-0.616196	0.856770	-0.775728	0.619527	0.698690	-0.385665	-0.326204	-0.295515	0.232635	-0.338962	0.324728	-0.858537	0.537672	-0.271962	-0.993319	-0.028497	0.455166	-0.509592	0.729421	-0.133161	-0.227779	-1.400112	1.135139	0.377329	0.187347	0.161639	-0.376472	0.572147	0.032267	-0.074585	0.245652	0.418813	-0.454652	-0.055312	0.000895	-0.967762	-0.461758	1.421675	-1.196506	0.733508	-0.683179	0.099185
-0.465374	-1.360926	1.029784	1.037212	-1.385570	-0.117145	0.742993	-1.722690	-0.094290	-0.459870	-0.520437	-0.698943	0.686792	0.298446	0.270667	0.176092	-0.708356	0.370466	-0.162393	-1.303283	0.669163	0.283526	0.234487	-0.166222	-0.214299	-0.741420	1.435743	0.278188	-0.251477	-0.669269	-0.677935	0.383519	-0.579438	-0.546799	-0.164337	0.230260	-0.519656	0.508231	-0.255724	-0.357914	0.372596	-0.485834	-0.805369	0.835614	0.216059	-0.594999	-0.231203	-0.095519	-0.659786	0.055136	1.287199	0.497269	0.003604	-0.562395	1.613425	0.662232	0.407429	0.677785	-1.379338	0.162139	-2.100682	0.809463	-0.111045	-1.265237
-0.136084	-0.620863	-0.456017	-0.238410	-0.660276	0.494605	0.043598	0.606406	-0.190618	0.356064	0.270145	-0.195117	0.487215	-0.373754	-0.719756	-0.256221	-1.159180	0.252711	1.096448	-1.315139	-0.083007	0.829657	-0.299290	0.616015	2.058240	-0.119576	-1.088530	1.476583	-0.281312	-0.614652	-0.380498	0.058218	0.516573	-0.586799	-0.965944	2.380421	-1.046982	0.216353	0.404045	-0.709051	-1.090592	0.872142	-0.720281	0.671196	0.169087	-0.049766	-0.370527	-0.559801	-0.383522	-0.152564	0.621993	-0.532504	-0.368744	-0.585020	0.138226	-0.024807	-0.488204	0.834470	-1.170403	-0.147662	1.138285	-0.449827	-0.495500	0.385723
0.375030	-1.112866	0.266847	0.041206	0.524477	0.098640	0.541699	0.989953	-1.043372	0.387461	0.300481	0.612431	-0.917658	0.040124	-0.494093	-1.049934	-0.695891	0.057718	0.626881	-1.605560	0.201572	0.826664	-1.113133	0.338105	-0.342682	-0.632598	-0.272568	-0.254818	0.105588	-2.158003	-1.105873	-0.212330	-0.672441	0.193403	0.509506	0.701737	-0.325255	0.824847	-0.768192	-0.148206	1.287863	-0.257727	-0.802287	0.574651	0.012496	-0.209766	-0.263331	0.092036	-1.804094	0.851039	-1.063701	0.187286	0.481284	-0.575158	1.256388	0.539931	0.875016	-0.665415	0.039672	-1.182642	-0.967278	0.548691	-0.253928	-0.362333
0.782092	-1.065938	0.757789	-0.516194	0.063190	-0.091594	-0.601864	0.138289	-0.488978	0.381414	-0.559451	-0.461253	-0.318531	0.864999	0.138301	0.057557	-0.059398	0.700391	-0.190329	0.259870	0.346322	-0.910184	-0.406387	0.839938	0.789581	-0.868316	0.244294	-0.978076	0.722732	0.602995	-0.447195	-0.680102	-0.686645	0.343195	-0.583346	-0.125034	-0.032179	-0.948484	0.311105	-0.040251	-0.835353	-0.125884	0.159793	0.325228	0.087076	0.847918	-0.112484	1.043454	0.085928	1.189054	-0.454374	0.793499	-0.400001	-0.436293	-0.175785	-0.558536	0.176596	-0.926958	0.714692	-1.190254	1.058260	-0.592672	-0.083708	-0.068129
1.044315	0.568448	-1.297873	0.523452	0.018913	-0.052139	0.339867	0.211981	-0.783458	0.128737	-0.175164	-0.429807	1.017372	-0.790762	-0.276354	0.043118	0.065628	-1.181169	0.427258	-0.217664	-0.001510	1.153849	0.382239	0.207155	-0.441860	0.459133	-0.120898	1.579620	0.810348	-0.099233	-0.586400	-0.628982	0.300174	-0.091629	0.663334	-1.501704	0.002358	-0.602486	-0.408993	0.614126	-0.436807	0.380688	-0.840409	-0.364685	-0.832896	0.446085	-0.438741	-0.227577	-0.147978	-0.176574	0.005402	0.418122	0.070065	-0.106455	-0.226258	-0.226132	1.224521	-0.811962	-0.111289	-0.990901	0.645349	-0.416315	0.239180	0.323855
0.642599	0.481522	0.911408	-1.359420	0.354112	-0.082309	0.068798	-0.276861	-1.701241	-0.310412	0.496536	0.688837	0.020805	0.414292	-0.147746	-0.235339	1.421191	0.077988	-0.170716	-1.200596	-0.113806	-0.845530	-0.627018	-0.188610	-0.885066	-0.522038	0.179742	0.390922	-0.260105	-0.294050	0.977470	-0.278872	0.750686	-0.627763	1.397183	-0.752970	0.651874	-0.159577	-0.780055	0.921839	0.019293	0.741859	0.133834	-0.150353	-0.648048	0.766702	0.309543	-0.844805	0.587703	-0.859101	0.972287	0.319414	0.061451	-0.288057	-0.783595	-0.046701	0.034490	0.305501	0.203795	0.058762	-0.154686	-0.806751	0.705035	-0.560419
0.096184	-0.912791	-0.362202	-0.227934	0.492337	0.135681	-0.543969	0.727931	0.024316	0.879263	1.057095	0.534472	-1.321072	-0.067286	0.431208	-0.372999	0.241649	-0.886476	-0.391382	-0.304948	0.706822	-0.592773	0.180104	-0.089872	-0.446395	0.343351	-0.776402	0.540870	0.059360	0.333593	-0.204844	0.383455	0.066971	1.917029	-0.257815	0.852801	0.089046	-0.156881	-0.294437	-0.498146	-1.628117	-0.201417	-0.442848	-0.111850	0.214440	0.503253	-0.523316	0.965358	1.223554	-0.282197	-0.235667	0.628172	-1.001085	0.122383	-0.000055	-0.374765	0.099585	-0.030906	-0.241526	0.972196	-0.167888	-1.060127	-0.307683	0.533638
-0.083012	0.711907	-0.912720	0.539538	-0.245724	-0.234507	0.433124	-0.292406	0.513469	-1.016846	-0.119412	0.998537	-0.744067	0.595352	0.245646	-0.493405	-0.385819	-0.273274	-0.552627	0.727284	-0.596180	-0.860679	0.154248	1.509504	0.701175	-1.535570	1.377748	-0.599860	-0.143432	1.069584	-0.808429	-0.764254	0.174030	0.051770	-0.357184	0.028688	0.483163	-0.334097	0.935384	-0.080309	-0.280059	0.796084	-0.579306	0.459995	-1.000618	0.401902	0.225004	0.597606	0.129439	-0.179068	0.012232	0.755122	-0.096527	-0.189148	-0.668367	-0.433736	0.229353	0.090075	-0.486397	-0.518001	-0.827272	1.178376	-0.169830	-0.009263
0.685702	0.311472	-0.068795	-0.616644	1.276618	-0.229162	-0.576080	-0.155250	-0.914252	-1.019091	0.171692	0.165440	-0.302689	0.522832	-0.795333	1.126622	-0.343254	0.102968	0.665752	-0.025336	0.070867	-0.337186	1.437834	-0.706171	1.074238	-0.715170	-0.246952	-0.081180	-0.230150	-0.663660	-0.667793	0.482955	-0.750131	0.412013	0.183351	1.025628	0.062199	0.771214	0.122902	-0.053843	0.084610	-0.017726	-0.299444	-0.926494	0.099313	-0.758651	-0.181082	0.057489	0.439374	0.354263	0.548651	-0.932520	0.241685	0.380990	-0.561957	1.033145	-0.467320	-0.712504	0.300531	-0.870582	0.633526	0.070765	0.961859	-0.862396
0.482782	-0.079728	-0.299772	-0.030177	0.426719	0.492086	-0.248881	-0.739981	-0.875991	0.192426	-0.180627	-0.673371	0.031535	1.060779	0.252784	0.231484	-0.391262	-0.351740	-0.109195	-0.137610	-0.110334	-0.096102	-0.859926	0.594175	-0.432945	0.187803	0.147168	-0.148932	0.186889	0.901623	0.197766	-0.580366	0.284573	0.518141	-0.699736	0.484208	-0.380871	-0.029699	-0.942403	1.049860	0.559127	-0.162538	0.407880	-0.129929	-0.231758	-0.263726	0.617070	-0.847387	0.216905	-0.128419	0.099387	-0.533294	0.836829	0.122187	-0.498395	0.415117	-1.123163	0.789913	-1.342718	1.333873	-0.566341	-0.176804	1.610696	-1.163678
0.292985	-0.712228	0.509345	0.094326	-0.578156	0.823386	-0.443238	-0.723777	0.020762	-0.139379	0.557621	0.871701	-0.090262	0.177721	-0.490331	1.463859	0.126756	-0.836762	0.174362	-0.302669	0.051028	0.780318	-0.988787	-0.216917	0.205912	0.012951	-0.399806	-0.724128	0.359203	-0.300115	0.291397	-0.604534	0.475460	0.395665	-0.249568	0.960882	-1.160178	0.426080	0.265714	0.862378	-0.096637	0.038030	0.956801	-0.902125	-0.334126	0.007653	0.117195	0.030030	-0.259271	-0.079645	-0.365777	0.433155	1.013942	-2.147852	0.393518	-0.637443	-0.115576	-0.175246	-0.223036	0.499804	-0.214939	1.220695	-1.050470	0.605466
0.284788	0.375968	-0.285371	0.063634	0.014850	-0.568480	-0.545522	0.221531	-0.609953	-1.530498	0.931070	-0.048679	0.696476	-0.336418	1.243395	-1.651667	0.230891	-0.045662	-1.387566	1.008458	-0.407822	0.464462	-0.262822	0.467100	0.536149	0.240594	0.891181	-0.144760	-0.628127	-0.226525	0.737358	-0.159399	0.653862	-0.519169	-0.408568	0.755498	0.076458	-0.469100	-1.577286	0.288217	-0.247527	0.771856	-0.679303	0.063830	0.646390	-0.091422	-0.028526	0.608226	-0.478599	-0.855003	-0.775212	-0.407411	-0.194841	-0.126024	-0.593124	-0.338955	-0.263853	0.725138	0.150020	-0.343469	1.242857	-0.170943	0.851266	0.637494
0.107364	0.471301	-0.273317	-0.596476	-0.210644	0.859562	-0.820676	0.945688	0.315653	-0.486797	0.505223	0.300195	0.005674	-0.234936	0.250621	-0.693773	-0.351268	0.178432	-0.401826	-1.135756	-0.774421	1.294388	-0.599639	0.009644	0.663951	-0.290796	0.217247	0.011782	1.217334	-0.691565	0.600421	-0.269788	0.215135	-0.297857	-0.088685	0.153671	-0.061318	-0.542558	-0.028689	-0.051389	0.016911	-0.015822	0.021246	-1.098484	0.921895	0.089129	0.006720	-0.091603	0.227284	1.018989	-1.030676	-0.220827	-0.750787	-0.889992	1.159073	-0.593450	-0.410435	-0.849873	1.973632	-0.185001	0.418105	-0.923576	0.628482	-0.560974
-0.015841	0.444740	0.036247	0.114354	-0.178452	-0.961852	0.227012	-0.102117	-1.210158	1.114758	0.223616	-0.370167	-0.056047	1.453728	-1.023277	-0.655392	-0.248196	0.562105	-0.046131	0.208611	0.560647	0.184869	-0.150776	1.350101	0.630037	0.146601	-0.968693	0.184783	0.239726	-0.560889	0.068269	-0.647799	-0.319726	-0.855092	-0.004444	-0.454832	-0.433568	0.466136	0.272830	0.078315	-0.294514	0.137807	-0.342825	-0.403700	0.462786	0.109317	0.109414	-0.295312	1.793760	-0.789517	-0.545410	0.996144	0.262140	-0.603575	-0.131565	-0.536833	-0.925739	-1.204611	0.606576	0.196438	-0.091412	-0.439098	-1.713047	0.524131
1.621045	-0.538046	-0.488819	-0.358619	0.643928	-0.963816	0.129276	0.410371	-0.179398	-0.032540	0.403634	0.144666	0.602436	-0.101381	-0.335830	0.069614	-0.463653	0.773150	-1.246693	0.001396	0.265819	0.203251	-0.085513	0.276938	-0.171706	-0.869597	0.057447	-0.540655	0.231736	0.136930	-0.545804	0.499466	-0.202228	0.198947	0.253348	-0.154540	-1.473870	0.604906	-0.295914	-0.415932	0.080804	0.270173	0.050774	-0.498104	1.953006	-0.604482	-0.511457	0.139028	0.118000	-0.826075	0.986349	-0.997118	-0.008313	-0.389417	-0.285206	-0.472257	-0.028551	0.693165	-0.880646	0.419822	-0.502861	0.695046	0.334609	0.629408
-0.140283	0.519404	-0.599797	0.433381	-0.309922	-0.480066	-0.790149	1.087499	-0.121431	0.249437	-0.060283	-0.295618	-0.180302	0.230335	1.477621	-0.625011	0.507440	-0.966732	-0.116235	0.550564	-0.529822	-0.205857	-0.617859	0.452837	-0.728468	0.564513	-1.200701	-0.481650	0.330372	-0.213704	0.621902	-0.583641	0.117073	-0.520927	0.778652	-0.367447	0.034403	0.606763	-0.476557	0.676296	-0.162807	-0.076694	-0.510162	0.870013	0.206278	-1.202544	0.988942	-0.715857	0.604848	-0.297793	0.933038	-0.393802	-0.387160	0.071824	0.476083	-0.288522	-0.865408	0.040255	0.519551	-1.471084	1.005305	-0.960394	0.085963	0.858791
0.589457	-0.550137	-0.439489	-0.381967	-0.359711	-0.927831	0.357457	0.104402	-1.184369	0.563457	-0.406675	1.041955	-0.123783	0.523440	-0.724078	-0.057565	1.588021	-0.400873	-0.118152	0.464084	-0.010152	0.235311	0.241807	0.158885	-1.043147	0.322893	-0.232286	-0.200325	-0.056071	0.149506	0.185975	-0.394600	1.384808	-0.765333	0.084425	-0.154911	0.830908	0.253059	-0.547710	0.805250	-0.545406	-0.191755	-0.648868	-0.012292	0.597152	-2.174068	0.522624	-0.809042	0.179738	0.480666	-0.904652	-0.237481	-0.209378	0.663050	0.683763	0.892828	0.361524	0.123934	0.095989	0.579196	-0.160932	-0.854730	-0.161049	-1.157167
0.514577	0.341507	0.808698	-0.364153	-0.784516	-0.330601	0.492849	0.395157	-0.093356	-0.483467	0.288745	-0.028876	0.938796	1.228663	-1.193873	-0.184973	0.624697	-1.311843	0.161859	-0.444626	0.234581	-0.257760	0.367252	-0.406553	-0.460199	0.044352	0.782550	0.067993	-0.269931	-0.631261	0.221821	0.943792	-0.512947	-0.430095	0.277313	-0.007697	-0.806415	1.246038	0.745448	-1.370139	0.328144	0.421198	-0.425700	1.194678	-0.675752	-0.039267	-0.595924	0.318547	-0.089679	0.324387	0.025322	-0.657046	0.120074	0.175499	0.534860	-0.380292	0.191718	-0.162230	-0.091821	-0.493479	-0.233325	-0.909729	-0.656483	0.833425
-0.383370	-0.525778	-0.750598	-0.707644	0.736068	0.838336	0.015471	-0.232300	-0.826794	0.935042	1.284784	-0.458483	0.236113	-0.283334	0.894329	0.207718	0.405698	0.504227	-0.342657	-0.379079	0.421558	0.254470	-0.304898	-0.354266	0.261701	0.355584	0.990209	-0.361371	-2.320931	1.806518	0.225342	-0.921611	0.008195	-0.641275	-0.259426	-0.111941	-0.235037	0.020544	-0.081584	-0.308643	-0.956668	1.364513	-0.273907	0.836723	0.175354	-0.535200	-0.457540	-0.448675	0.407768	-0.106365	-0.971734	0.476302	-0.110071	-0.450634	0.764785	1.339238	0.648537	-0.589571	0.062680	-0.747689	0.762818	-0.802131	0.046324	-0.716961
-0.312929	-0.003875	0.431953	-0.007818	-0.696086	0.408469	0.107809	-0.691311	-0.419570	1.668358	-0.213014	-0.337887	0.442830	-0.427543	0.254078	0.324310	0.899719	-0.840471	-0.465660	1.186838	-0.277504	0.025627	-1.174853	1.322308	0.197184	0.164372	-1.370520	-0.389391	-1.099233	-0.023555	0.334433	-0.439218	-0.160325	-0.269163	0.602411	-0.168628	0.629098	-0.088891	0.613515	-0.392297	-0.286623	-0.113907	0.413391	-0.090739	-0.272479	0.286820	-1.668087	0.370340	-0.651773	0.783453	0.700853	-0.141524	0.013370	0.230690	-0.018385	-0.111735	-0.185855	0.452248	-1.377653	0.674212	0.029886	0.221091	0.551135	-0.470786
-0.563374	1.069563	-0.824668	1.521795	0.102223	0.127354	-0.237366	0.066047	0.411791	-0.107259	0.113244	-0.771240	0.721717	-0.660767	0.050461	-0.126176	-0.047908	-0.518250	-0.022578	-0.354138	1.081237	-0.694838	-0.012297	0.286594	0.357818	-0.104693	0.281584	-0.101586	0.627875	-0.763360	-0.514713	0.128954	-0.715975	0.364931	0.041551	0.081534	-0.936937	-0.082167	0.597590	-0.387727	-0.170781	0.448718	-0.520921	0.444638	0.068456	0.666629	-1.066755	0.685935	0.521141	-0.688147	-0.096855	-0.990885	0.896452	-0.681500	1.037004	-1.425036	-0.328411	0.680719	-0.272120	0.569945	0.201790	-0.067933	-0.327041	0.624754
0.278042	0.413162	-0.555041	-0.583868	-0.518610	0.572590	-0.359487	-0.389755	-0.567563	0.568147	-0.150710	0.430814	0.957580	-0.378986	1.591897	-0.474332	-0.225667	-0.214159	-0.300211	-0.324099	-1.074192	0.461455	-0.199092	-0.159098	-0.279542	0.032397	0.853262	-1.305696	0.199697	-0.066895	-0.659020	0.876251	-0.330674	0.928916	-1.208713	1.469148	-0.671354	-0.327630	0.108210	-1.121368	-0.611850	-0.333704	-0.551933	-0.572240	0.557778	-0.491863	0.844269	0.063209	-0.128278	-0.318831	0.018313	0.635064	0.185719	-0.438761	0.197882	0.330552	-0.145438	0.632388	0.241442	-1.284408	0.290754	-0.095731	-1.285805	0.346125
0.522663	-0.546025	0.138337	0.352888	0.027605	-0.290531	-0.491517	0.028220	-0.359424	0.090893	-0.258926	-0.003085	-1.378571	0.036270	0.267055	0.872346	0.414175	0.218941	0.206820	0.665095	-0.633977	1.178902	0.001911	-0.332012	0.597599	-0.846770	0.955588	0.136905	-1.112418	-0.678239	-0.589253	0.217890	-0.409755	-0.493884	0.360677	-0.291512	0.245471	0.175887	-0.592499	0.246144	1.141997	-0.570182	0.342279	0.029392	-0.301870	0.215491	-0.240684	0.428280	-0.067230	-1.035106	-0.315856	-0.291168	-1.218832	-0.004213	1.765421	-1.687914	-0.042132	0.502990	-0.189101	0.812423	0.616161	-0.889280	0.069051	0.353452
-0.588711	0.878930	-0.656473	1.550743	-0.939694	0.000184	0.659508	0.204535	0.322578	-0.137843	-0.821232	0.062015	0.278781	0.363017	-0.643990	0.246242	-0.312227	-0.167513	0.947394	-0.758186	-0.105873	0.187248	0.493624	-0.473037	0.471732	0.209520	0.469134	-0.091155	-1.675941	-0.355049	0.341074	0.366387	0.179766	-0.943583	-1.025570	1.128072	0.232958	-0.348709	-0.546901	-0.540285	0.415255	-0.462710	0.981916	-0.136399	0.257508	-0.067394	0.128860	0.632968	-0.109405	0.740231	-0.726865	0.920435	-0.246040	0.420814	-0.769636	-0.379342	0.896788	-0.506409	-0.100443	1.071413	-0.703770	-0.429300	0.988317	-1.183263
1.441284	-1.602608	0.665476	-0.825023	-0.356679	-0.130025	0.002838	-0.304300	-0.959951	-0.390889	-0.536673	0.570030	0.428128	-0.564845	0.905390	0.482804	0.388826	-0.504707	0.285857	-0.260036	-0.440695	0.146900	0.680255	-1.226549	0.677858	0.672191	-0.307317	-0.294153	1.069312	-0.092366	0.205582	0.266256	-0.553611	-0.708310	0.067151	0.352872	-0.309125	0.044030	-0.214836	-0.661321	0.537352	-0.829665	0.165665	0.801533	-0.493901	-0.043014	-0.418870	0.704678	0.277146	0.793485	-0.693959	-0.959736	1.314302	0.212094	0.617592	0.171884	-0.727999	0.208940	0.417424	0.400753	-0.407314	0.167775	-1.802271	0.342218
-0.203414	0.428071	0.198063	-0.086169	0.013416	0.913314	-1.423510	0.107740	-0.063268	-0.685531	-1.079904	0.911742	-0.515220	-0.609483	0.536056	-0.182710	-0.324936	1.620152	0.312972	0.826232	-0.265839	0.243566	0.576025	0.427684	-1.666779	1.069964	-0.475049	-0.840647	-0.252345	0.118562	-0.464219	-0.233282	0.181011	-0.869004	0.505904	0.109839	-0.607956	0.028058	1.374267	0.324123	-0.053785	0.632427	-1.231873	1.415792	-0.216307	-0.569804	-1.126237	0.146150	0.656514	0.072398	0.508050	-0.123303	-0.319777	0.365613	0.713418	-0.564624	-0.107818	-0.586381	0.119282	-0.371574	0.159447	0.542244	-0.393105	0.395064
-1.139134	0.026506	-0.754676	0.647665	-0.148823	0.253119	0.238832	-0.342286	0.506208	-0.465800	0.449080	-0.271626	-0.398946	0.542597	0.357583	0.084193	0.783422	-1.181103	-0.467455	-0.311402	0.916285	0.369598	-1.058853	0.039271	-1.275296	1.281429	0.284359	0.309700	-0.409066	0.343978	0.767616	-0.862045	0.304608	-0.704387	0.237179	-0.588197	1.089420	-0.925739	-0.211856	0.966432	-0.295680	-0.333945	0.816123	0.443114	-0.534920	0.632230	-0.591656	-0.328860	-0.331780	0.358885	-1.270683	0.101699	-0.578134	-0.165293	0.740732	-0.612328	-0.275923	0.073813	0.201333	0.340791	-1.080035	0.477715	-0.190095	0.214976
0.206048	-0.236314	-0.397474	-0.477645	0.236507	-0.361139	-0.192844	1.017278	0.028652	-0.890820	0.641048	0.537677	1.003396	-0.202150	0.298588	-0.946682	0.137946	-0.264688	0.299718	-1.360306	0.065148	0.073005	-0.711379	0.420234	0.184726	-1.098656	0.433817	0.456448	-1.083661	0.434755	-0.527414	0.098784	-0.568083	0.494971	-0.403887	-0.187913	0.469884	-0.567700	1.987835	0.240068	-0.154256	-0.051421	0.415898	-0.182509	-0.796187	0.146041	-0.400432	-0.798654	0.254340	-0.699470	-0.383281	0.371650	0.479594	0.561274	-0.606332	0.320289	-0.447601	0.633511	-0.751994	1.514990	0.176041	-0.635639	-0.267426	0.685153
0.860179	-0.109460	-1.505845	0.279156	1.223518	-0.538692	-0.089536	-0.061872	-1.450591	0.996583	-0.175957	1.130856	-0.780646	-0.396409	-0.649881	0.150141	0.689237	-0.585999	0.326085	-1.127246	0.466333	-1.980636	0.380354	0.442578	0.654599	0.587743	0.474200	0.149452	-0.816593	0.694041	-0.552189	-0.384978	-0.007691	0.066243	-0.020262	-0.253408	0.059386	0.070796	-0.264010	0.639811	0.148182	-0.143524	-0.711897	1.176153	0.206742	-0.263411	1.036983	-0.117985	0.228331	0.662027	-0.140693	-0.103862	0.391580	-0.153032	0.547353	-1.691663	-0.468852	-0.006109	0.244502	-0.769297	-0.389255	0.102283	0.038895	0.573970
-0.271832	-0.444610	0.662535	-0.351863	0.037385	0.132090	-0.113062	1.025519	0.608269	0.218173	0.196554	1.021987	-0.781358	-0.310680	-0.486158	0.163611	-1.820685	-0.088990	0.207005	-0.813701	-0.708747	0.251810	-0.207983	-0.783808	0.542672	0.417604	-0.521766	0.198406	0.659193	0.007920	1.342153	0.204682	-0.247249	0.075300	0.829837	-0.375694	-0.090489	-0.447567	-0.566494	0.722250	0.126423	-1.125913	-0.848515	0.257493	-0.941901	-0.610605	0.402135	0.148009	0.665657	0.091541	0.646695	-0.466462	0.361988	-0.409273	-1.026957	-0.140023	-0.522124	-0.203835	-0.093141	0.211427	-1.365784	0.852013	0.613101	0.208289
-0.238836	-0.638425	0.503184	0.019271	-0.467707	0.943782	-0.844239	-0.509813	0.655248	0.053465	0.503237	-0.941312	0.336534	-0.516876	1.677369	0.662366	0.202485	-0.769978	0.007235	-0.179784	-0.104593	0.011802	0.184826	-0.522627	-0.376242	0.268268	-0.189250	1.141258	0.079247	-0.804073	-0.920492	0.174191	0.399349	0.398089	-0.562800	-0.514621	-0.463872	0.663644	0.267291	-0.428500	-0.050415	0.209425	0.909040	0.690638	0.031630	-0.402083	1.353874	-0.301727	0.316899	-0.632070	-0.465686	-0.892687	0.421830	-0.142984	-1.439206	-0.767995	1.154070	-1.152778	0.962921	0.182765	-0.081728	0.659627	0.606053	0.226863
0.407547	0.700524	-0.877839	0.266887	-0.567831	0.114486	0.021481	-0.242854	-0.332832	-0.366551	0.945769	0.591795	-1.120843	0.604770	-1.151096	1.286728	-0.271660	-0.197316	-0.678867	-0.271909	0.448750	-1.405511	0.935775	-1.437634	0.132541	0.907419	0.629325	-0.438550	1.922560	1.069987	-2.113385	0.529834	0.482734	-0.636073	-0.606756	-0.038492	-0.087665	-0.353036	0.685591	0.268561	-0.382615	0.210530	0.644496	-0.908471	0.788944	-0.300905	-0.092523	0.033805	-0.385100	-0.225616	0.227494	-0.116104	-0.191394	0.929722	-0.027143	-0.007016	0.165623	-0.109641	-0.618578	0.633179	-0.778428	0.027247	-0.087012	0.676374
-0.488545	-0.175084	0.112108	-0.489652	0.842713	-0.677223	0.948794	0.281123	-0.133998	1.143430	-0.638200	-0.662751	1.192801	-0.564768	0.242819	-0.211516	-0.082682	0.601012	-0.608640	-0.847548	-0.626086	-0.147345	0.319062	-0.666217	-0.243782	-0.197127	1.526152	-0.322198	-0.038646	-0.057912	0.350159	-0.073475	0.516164	0.241790	-0.156571	-0.387261	1.289850	0.131781	-0.209354	0.512790	-0.882794	0.097876	0.416005	-0.540362	-0.228093	-0.663245	-0.294399	0.006856	0.392517	-0.709765	1.602286	-0.568625	0.345887	-0.968341	1.541368	-1.295783	0.650049	-1.301255	-0.411916	0.355312	-0.034482	1.385625	-1.143765	0.466990
0.202442	-0.747779	1.171828	-0.340651	0.417169	-0.164796	1.125787	-1.289721	0.266400	0.865118	-0.492262	-0.866748	0.026464	-0.657225	-0.456381	0.155148	-0.436970	-0.134987	-0.208432	0.139373	-0.253071	0.675379	-0.161513	0.921030	0.350764	-0.304597	0.120867	-0.247960	0.805443	-0.208080	0.116142	-1.292413	0.737525	-0.954788	0.831175	1.130928	-0.099336	-0.406592	-0.253706	1.138707	-0.700578	-0.114955	-0.002224	0.461243	0.056892	0.213261	0.382489	-0.953580	0.896922	-0.262125	-1.396403	-0.846123	-0.150719	1.207957	-0.796924	0.954865	-0.231595	0.112015	0.062711	0.946272	-0.942495	0.201963	-0.932371	0.917473
-0.544297	-0.090131	-0.141803	-0.005543	0.774580	0.955537	-0.799468	0.381914	0.393022	0.147654	0.399093	-0.353389	-0.355277	-0.381455	0.080775	0.126143	0.491647	-0.253022	0.490266	-0.411994	0.972118	-0.436174	1.692133	-1.288895	-0.330953	-0.009496	0.176179	-0.899648	0.199042	-0.141500	-0.211459	0.106871	1.602635	-0.840807	0.434209	0.206505	-0.994507	0.361758	-0.399560	0.869580	-0.466710	0.070162	-0.686353	0.223094	-0.458527	0.402255	0.747343	0.144505	-0.136798	0.811855	0.441164	-0.109271	-0.847021	0.537185	-0.467029	-0.906030	-1.014283	1.741392	-0.899101	-0.211696	0.392840	0.532629	-0.656841	-0.169170
-0.554050	0.246657	0.040116	-0.493436	0.450528	-0.156041	-0.435745	0.319245	-0.162128	-1.024765	0.184704	-0.099024	-0.027822	0.092506	-0.700494	0.384738	0.862585	-0.623536	0.099606	0.177993	0.267064	-0.535722	0.348987	0.303705	-0.621953	0.585097	-0.151153	-0.297333	-0.025815	0.573355	-0.285635	0.086401	0.226772	-0.586548	0.723603	0.422413	-1.121344	0.382280	-0.320720	-1.210893	-0.407124	0.367608	0.723228	-1.073883	1.660401	-0.124176	-0.387730	0.616150	-1.018849	0.070621	-0.711280	0.926227	-0.999575	-0.497376	0.687933	-1.001625	0.577980	-0.639253	0.318710	0.190533	1.047039	1.011539	-1.020135	-0.158137
-0.151712	-0.234738	0.063964	-0.327954	0.808723	-0.553156	0.030844	0.315875	-0.228641	0.264019	-0.648014	-0.108467	-0.522740	-0.647444	0.154904	-0.309530	0.947083	-0.391746	0.169774	0.633902	-0.186741	-0.166572	0.432369	-0.205256	0.361743	-0.213937	-0.616673	-0.392753	0.889253	-0.710542	0.750349	-0.917210	-0.722066	0.062463	-1.092047	0.966584	-0.445028	1.198355	0.045527	0.169404	0.604397	-0.053435	0.674240	-1.200393	-0.222182	0.242822	-0.461829	-0.675641	-0.141863	-0.608309	-0.634695	1.380607	-1.062207	-0.764316	0.077430	0.178798	0.180881	1.170118	-0.974403	-0.737583	0.451509	-0.041505	0.110032	0.410720
