0.350203	0.061701	-0.101357	0.356071	0.328747	0.067989	0.317127	-0.069265	0.667347	0.065110	-0.333902	0.228623	0.181176	-1.056746	-0.643822	-0.312233	0.357207	-0.027447	-0.067490	-0.204402	0.631625	0.095540	-0.447991	-0.023752	0.338789	0.108206	-0.511360	-0.600045	0.457718	1.103345	-0.119014	-0.422180	-0.589713	-0.546027	-0.298416	-0.325191	0.220186	0.552827	-0.648428	-0.444875	0.459229	0.207128	0.637885	0.146045	0.152832	0.168221	-0.926416	0.231614	0.065125	0.267752	0.466613	-0.624149	-1.372420	-0.394109	-0.504333	-0.186152	-0.143471	0.119208	0.406718	-0.141213	-0.248307	0.127244	-0.209308	-0.547422
-0.526026	0.894180	-0.126124	-0.217095	-0.159262	-0.083524	0.100304	0.882897	-1.067586	-0.326873	0.586114	-0.801281	-2.210275	-0.834453	-0.552456	-0.593961	0.396591	0.973971	0.069934	-0.957476	-2.454479	-0.407123	0.290622	-0.135060	-0.524839	-0.040986	-0.186181	-1.057862	-1.764299	-0.163976	0.633111	-0.218592	0.007522	-0.133606	0.196969	-0.575412	-0.903873	-0.298421	0.257451	-0.767703	-0.108338	-0.233727	0.329647	-0.462192	-0.833721	0.263954	-0.217534	-0.359861	0.902867	0.745695	0.391726	1.075124	-0.322571	-0.056957	0.112686	-0.311901	-0.963815	0.349268	-0.593889	-0.169249	0.560696	-1.495427	0.493563	0.113613
0.479738	0.130448	-0.348986	-0.205780	0.367787	0.229479	0.212230	0.262824	0.338692	-0.378521	-1.010892	0.260993	0.645692	0.370195	0.715694	0.971074	-0.113444	-0.092645	-0.220774	0.077233	0.404000	-0.063469	-0.349209	-0.188619	0.031154	-0.439117	0.156511	0.369075	-0.398307	-0.853820	-0.910625	-0.598705	-0.347601	-0.647093	0.684290	0.344063	0.273229	-0.211409	0.018395	-0.036278	-0.541456	-1.135252	-0.490182	-1.208880	-0.743777	-0.458283	-0.074059	0.691646	-0.028176	0.727771	0.469990	-0.026282	0.022703	0.114486	-0.113803	-0.213586	-0.368399	0.550883	0.723365	0.797808	0.654745	0.391070	-0.677331	-0.377361
0.347231	0.071351	0.306078	0.264416	-0.699853	-0.067544	-0.281496	0.223387	-0.328344	0.091430	0.373041	-0.389002	-0.094938	-0.345236	-0.068351	-0.143301	-0.110546	-0.508551	0.208657	0.528439	0.834186	-0.234846	-0.103527	0.356390	0.490066	0.248062	0.990373	2.017896	1.986569	0.564606	-0.252723	0.369387	-0.045660	0.216125	1.219940	2.962637	1.617070	0.588797	0.170514	0.099780	-0.029970	0.144375	0.576751	1.562416	0.756032	0.705759	-0.214069	0.018674	-0.268422	0.072925	0.173998	0.164924	-0.030135	0.497577	0.019300	-0.382192	0.573442	0.089938	-0.535823	0.078200	-0.166391	-0.007444	-0.596401	-0.000657
0.329833	0.577294	0.192995	-1.299122	-0.732658	0.506988	0.203846	0.799539	0.430957	0.235224	0.427825	-0.394358	-0.387660	0.816713	0.501136	0.135985	0.256821	0.227107	0.480040	0.396981	-0.139158	-0.002313	0.266441	-0.414600	-0.215054	-0.388715	0.163702	0.154586	0.321127	1.505060	-0.009270	-0.869030	-0.107459	0.238938	0.918164	0.153011	0.926396	0.653371	-0.230657	-0.236695	-0.125074	0.201753	0.380674	-0.238862	-0.257653	-0.696727	-0.830438	-0.648045	-0.443804	-0.379042	-0.043383	-0.012780	-0.085865	-0.018971	-0.660437	-0.739919	0.080398	0.439177	1.170569	-1.412048	-0.751471	0.616627	0.317804	0.093850
-0.892257	1.390260	1.111584	0.346329	0.130947	-0.256807	0.046558	-0.082952	-0.954693	0.289959	0.371471	0.389658	0.156839	-0.277096	0.155306	-1.062822	-0.760096	-0.069835	-0.010414	-0.046097	0.145650	0.551928	0.795641	-0.716729	-0.192143	0.162219	-0.399797	-0.757083	-0.450548	-0.049559	-0.050034	-0.281659	0.847432	0.316175	-0.042432	-0.432781	-0.102703	-0.854472	-0.584752	0.903751	0.404193	0.213747	0.054154	0.029139	0.182665	-0.157133	-0.743824	1.080748	-0.412138	-0.177558	-0.198340	-0.256726	0.516655	0.110440	-0.649720	-0.863263	-0.922653	-0.148991	0.049227	0.057196	0.352027	-0.108758	-0.290704	-0.536692
-0.937394	-1.276898	-0.431241	-0.103618	0.350938	0.960313	-0.080080	-1.423243	-0.205675	-1.521418	0.169890	0.501874	-0.118298	-0.586468	1.082088	-0.397498	-0.599753	0.169756	1.374956	-0.344234	-1.089755	-1.518424	0.381758	-1.743406	-0.689704	-0.688859	-0.361883	-0.207471	0.618205	0.236335	0.636176	-1.173078	-1.593739	0.447985	0.985239	0.573171	0.749616	-0.235656	0.471642	0.528531	-0.830561	0.183433	0.526530	-0.500564	0.102490	-0.081135	-1.036462	0.445293	-0.027460	0.858056	1.187514	1.333830	0.055390	0.550786	-0.594947	0.107764	-0.610724	-0.466478	-1.360985	-0.104304	-0.423247	0.498717	0.584577	-0.612225
-0.107018	0.177994	-0.419691	0.069380	-0.381722	0.388685	-0.591416	0.233689	-0.442906	-0.363845	-0.632183	-0.085290	-0.689290	0.282964	0.272903	-0.118421	-0.714203	-1.266170	0.231432	0.488226	-0.724622	0.565086	0.989824	0.352175	-0.191014	-0.265771	0.681155	0.618022	-0.765078	-0.182233	-0.020739	0.335955	-0.801724	-0.251023	-0.649448	-0.704647	0.512807	-0.034826	0.088622	-0.196406	0.898110	0.834556	0.386514	-1.888550	0.308506	-0.467548	0.133801	0.646803	-0.159912	0.581929	-0.319010	-1.831803	-0.575505	-0.191680	-0.299069	0.120136	-0.335068	0.048381	-0.781598	-0.271918	0.018932	0.028359	-0.087263	-0.106092
0.384136	0.215076	0.073329	-0.509844	-0.504367	-0.377747	-0.010507	-0.033820	0.312940	-0.430090	-0.853989	-0.141158	0.381656	-0.183127	0.411636	0.825775	0.124097	-0.712788	-1.209535	0.056473	-0.315962	-0.245555	-1.011805	-1.060897	-0.647946	-0.311686	0.095312	-0.326512	0.196224	-0.468282	-0.061438	0.400017	-0.152095	0.366133	0.297739	-1.084045	0.152958	-0.491972	0.036793	0.339340	0.724341	0.877598	2.068284	-0.593664	0.583029	-0.422937	-0.459823	-0.720204	0.647528	0.429681	1.110704	0.438076	0.008865	-0.831315	0.590428	-0.506473	-0.925318	-1.196555	-1.032521	-0.294256	-1.180569	0.574509	0.295513	-0.296330
0.255990	0.000370	-0.214767	-0.212989	-0.146352	0.079005	0.587561	0.021437	0.657223	-0.089145	-0.347799	-0.252724	0.053372	-0.248719	0.286618	-0.181695	0.429171	-0.135643	-1.268523	-1.741215	0.144056	0.415013	0.228158	-0.252623	0.128198	-0.174112	-0.419725	-0.518447	0.035318	-0.353620	0.053147	0.030002	0.155421	-0.224508	0.836873	1.575057	1.742823	0.062735	0.693101	0.376562	0.190582	-0.592311	0.256412	0.692790	-0.387658	-0.229517	0.885215	0.168241	-0.543188	-0.511926	-0.684599	-0.563564	-0.102457	0.106592	-0.395432	-1.049685	-0.392538	-0.434915	-0.642526	-0.493008	0.129783	-0.422876	-0.577562	-1.174397
-0.738923	-0.418986	0.684587	-0.625606	0.057350	1.042597	0.439199	-0.444724	-0.017393	-0.432056	0.598285	-0.010005	0.009877	-0.387451	-0.340317	-0.089958	-0.429697	-0.739269	0.464929	0.294912	-0.074803	-0.693403	-0.705551	-0.288985	0.343074	-0.348831	1.107214	0.400347	0.618402	-0.874463	-0.286932	-0.011259	0.238783	-0.741123	-0.575502	0.019363	0.356377	-0.136145	-0.269935	0.280667	-0.286929	-0.513731	-1.280274	-0.343472	-0.809742	-0.578261	0.168825	-0.252855	0.020914	-0.073540	-0.832359	-0.178600	-0.689076	-1.177314	-0.100943	-0.034145	-0.134774	0.255536	-0.339396	-0.838069	-0.273467	-0.386911	0.538430	-0.239398
-0.335488	0.721203	0.762012	0.286497	-1.059596	-0.116681	-0.858166	-0.537661	1.023006	0.832661	1.420357	0.303462	0.348581	-0.567937	-1.255941	-0.486087	0.655682	-0.526572	0.288110	0.102951	-0.530835	-0.239890	-0.784363	-1.120740	0.247044	-0.449016	0.052724	0.226175	-0.773455	1.347184	-0.018802	-0.078579	0.815182	0.003904	0.617913	0.558519	-1.345230	0.809664	-0.019109	-0.053469	-0.251355	-0.129782	0.077684	0.083106	-0.867477	-0.204081	-0.801518	-0.187698	-0.114277	-0.704533	-0.010254	-0.025609	-0.220398	0.942740	0.110104	0.452730	-0.267170	-0.658122	-0.385300	0.047998	-0.737358	0.057175	-0.178652	-0.232208
-0.026841	-1.008407	1.646087	1.449945	0.203494	0.568472	0.076549	-0.333512	-0.283390	-1.587986	1.677635	1.429402	-0.385462	-0.011359	0.087900	0.330744	0.590662	-0.595628	0.025690	0.301480	-0.453885	-0.299485	0.281645	0.270037	0.738123	-0.137907	0.217335	0.437876	-0.242016	-0.031813	-0.301328	-0.032556	-0.353354	-0.857220	-0.526492	-0.529988	-0.757142	-0.443682	0.012721	-0.756547	0.536354	-0.332509	-0.249510	0.112092	0.161215	-0.044291	0.395958	0.017096	0.211984	-0.227030	0.342976	0.664128	-0.214973	0.010308	-0.257477	-0.673618	-0.567690	-0.892739	-0.103155	-0.210486	-1.118275	0.623717	-0.462301	-0.753911
-0.126943	-0.849680	-0.753655	-0.136920	-0.023680	0.253386	-0.268896	-0.941988	-0.583037	0.024022	0.146952	0.472409	0.400949	0.319031	-0.094280	-1.092877	0.191378	0.138806	-0.508468	-0.122238	-0.325927	-0.228813	0.379640	-0.437878	0.832176	0.622714	0.115465	-0.249275	0.702779	0.349439	0.936255	0.010744	1.135919	0.283431	0.207111	-0.321541	0.930080	1.224796	-0.012177	-0.013478	-0.087174	-0.016946	-0.596064	-0.488444	0.576933	1.135372	-0.445861	-0.395507	-0.852458	-0.683209	-0.073937	0.382596	-0.232093	-0.297795	-0.078120	-0.447497	-0.237546	0.337615	0.174220	-0.068585	-0.889970	-1.063139	0.138027	-0.570093
-0.035247	0.146278	0.101559	1.401784	0.695086	0.431385	0.246836	-0.334170	-0.396065	-1.318779	0.354210	0.808322	0.223264	-0.090912	0.174146	-0.503549	0.477682	-0.533954	-0.138833	-0.604146	-0.812192	-0.009155	0.168492	0.688744	-0.133838	0.101725	-0.555496	-1.137505	-0.436845	0.703527	-0.445078	0.164804	-0.521273	-1.038769	-0.440198	-0.477956	-0.400298	-0.471233	0.123759	0.008447	-1.081907	-0.453371	-1.141119	-0.714011	-0.021940	-0.167123	0.781878	-0.274860	-0.952211	-0.515547	-1.039581	-0.614998	-0.163401	0.232487	0.867217	-0.094743	-0.755365	0.021761	-0.126410	0.279202	0.337056	0.588219	1.621816	-0.134121
0.812646	0.366881	0.178300	1.311543	1.113527	0.423588	0.086498	-0.508983	0.652433	0.188424	-1.106652	-0.859700	-1.846749	-0.194662	-0.357121	-1.210030	-0.252547	-0.648243	0.092478	1.667468	-0.822878	0.053043	-0.680932	0.146261	0.685041	-0.948087	-1.761021	-0.656835	-0.552175	-1.136940	-0.370826	-0.342765	1.198525	0.524763	0.621737	-0.561437	-0.232039	0.301016	0.102232	0.084751	0.482921	0.810755	-1.241631	-0.452645	-1.119049	-0.445972	0.409221	-0.956992	-0.507977	0.079293	-0.336464	-0.252088	-0.792118	-0.678319	-0.206060	-0.565906	-0.593036	-0.306303	-0.335714	0.770766	-0.402296	-0.997622	-0.642663	0.216048
0.237760	-0.087247	0.112608	0.294036	0.586607	0.731432	-0.343638	-0.508469	0.373140	0.138953	-0.366538	-0.260390	0.158316	-0.078483	-0.699195	0.148148	-0.331729	-0.471956	0.118409	0.699098	0.192921	0.223977	0.498351	-0.169065	-0.166212	0.823165	0.847376	-0.191692	-0.639970	-0.492431	-0.417029	0.212761	-0.559868	0.609052	0.965473	0.600589	-0.527012	-0.169332	-0.519403	-0.117178	-0.257423	-0.734671	0.168000	0.284821	0.232499	0.524435	0.242180	0.075790	-0.464851	-1.060341	-0.079116	-0.745131	-1.439029	-0.286471	0.385071	0.245541	0.306286	0.020772	0.407834	0.137912	-0.458616	0.222558	0.787871	0.942020
-0.142373	-0.723406	-0.439190	-0.256164	0.033106	0.395661	0.210373	-0.251949	0.377907	0.405992	-0.275814	-0.354847	0.028906	0.755981	0.351464	-0.665237	1.084036	1.218376	-0.164387	0.057609	-0.490249	-0.212775	-0.494392	0.062366	0.615890	0.383197	-0.093566	0.188697	0.058148	0.254897	-0.471077	0.076367	0.832090	-0.079111	-0.105874	0.675657	0.356879	-0.351206	-0.310092	0.749844	1.353706	-0.000863	-0.435424	0.353999	0.953688	-0.154650	-0.230677	0.616376	0.693785	-0.353767	0.032400	0.662502	0.429918	0.130031	-0.524123	0.666729	-0.525051	-0.916212	-0.705118	-0.334547	0.420782	0.517920	-1.110435	0.134704
0.027176	0.211548	0.874341	0.692843	-0.097527	0.318633	0.254209	0.479488	-0.213220	0.191737	0.212718	-0.333232	-0.469171	-0.760826	-0.628401	0.182367	-0.754141	-0.075164	0.669672	0.196600	0.689515	0.519272	-0.095914	-0.457715	0.061104	-0.598728	-0.457971	-0.377057	0.118564	0.178427	0.089881	-0.339450	-0.253528	-0.138909	-1.565534	0.034145	1.273916	0.704451	0.755089	-0.884464	-0.147776	0.479648	-0.798354	-0.135281	0.263346	0.505631	0.429520	-0.766407	-0.198102	0.193386	-0.474188	-0.577697	0.502706	0.842928	0.243352	-0.078986	-0.385493	-0.383497	0.562444	0.208662	-0.312870	0.632642	-0.165681	-0.347116
1.445264	1.524711	1.233160	0.697434	0.087307	0.169871	0.026547	0.480917	0.623580	1.533051	1.785746	0.339552	-0.192157	0.512163	0.154245	-0.203194	1.065004	0.441980	-0.091547	-0.642538	-0.190462	-0.180776	-0.462429	-0.264387	-0.308194	-0.982459	0.113520	0.118959	0.296645	-0.411000	-0.406456	-0.389586	-0.729115	-1.167130	-0.124378	-0.591277	0.011912	-0.031416	0.027105	-0.238902	-0.060009	-0.303348	0.196909	-0.224676	0.254303	0.158741	0.273362	0.224724	-0.264245	-0.300072	0.049382	-0.064500	0.103079	-0.074186	-0.831251	-0.559209	0.783458	0.308794	0.492487	0.737839	0.311942	0.458578	-0.223201	0.353844
0.070675	0.158311	-0.023639	-0.253417	-0.238130	0.062274	0.252964	0.341584	0.042568	-0.294764	-0.024401	-0.029346	0.130830	0.169740	-0.277833	-0.198230	0.048812	-0.061307	-0.241543	-0.292000	-0.635165	0.111594	0.280241	0.031956	-0.086544	-0.131958	-0.320119	-0.107318	-0.339953	-0.047633	0.009561	-0.215905	0.311498	-0.392339	0.118491	0.259175	0.358942	-0.099436	0.753449	0.275241	0.544840	-0.275599	0.019091	0.165609	0.250196	-0.175764	0.502851	1.298499	1.176159	0.455450	-0.408885	-0.400238	-0.158734	0.931112	1.098105	1.543389	1.006376	0.839903	0.248583	-0.157571	-0.303722	0.873676	0.863843	0.970718
-0.903047	-0.822622	0.047557	0.745239	0.350886	-0.575684	-0.295307	-0.040016	-0.308933	0.101904	0.616480	1.102999	0.227313	0.083828	-0.512346	-0.393293	-0.306983	0.361935	0.214432	0.586207	0.164863	0.194372	-0.057262	-0.473856	-0.695261	-0.388912	-0.166551	-0.364580	-0.378128	-0.990331	0.018355	-0.066129	-0.501843	-0.483149	0.176222	-0.059355	0.153356	-0.397025	-0.595063	-0.339011	0.583691	-0.330922	-0.148607	-0.534887	0.393468	1.105724	0.827702	0.578628	0.935477	-0.275233	-0.351072	-0.151965	0.742363	1.066929	1.440605	1.099294	0.006442	-0.470757	-0.446148	0.297751	0.768641	-0.074112	-0.665451	-0.348477
-0.870805	-0.068473	0.369937	-0.165441	-0.268540	0.138318	-0.086565	-0.969890	0.378405	0.263367	0.224119	0.187439	-0.310809	0.294053	0.263754	0.366260	-0.187993	-1.133229	-1.410292	-0.777509	-0.147608	-0.594443	-0.069924	-0.488854	0.236290	-0.782624	-1.229307	-1.888798	-0.654833	0.258646	-0.286491	0.150668	-0.073378	0.136954	0.138499	-0.144651	0.610050	1.109397	-0.602234	-0.064169	-0.126576	-0.263978	0.088971	0.280411	1.314178	0.570809	-0.361972	-1.390913	0.600993	-0.162217	0.420627	-0.041742	0.605506	0.943263	0.369620	0.202718	-0.011942	0.233956	0.516531	0.503356	0.885829	0.201047	-0.098080	0.535429
-0.232209	0.824322	1.282882	1.363928	0.394196	-0.651128	0.375281	0.332395	-0.125963	0.921338	1.886205	1.506015	0.379808	-0.274201	0.121617	-0.051455	0.153670	0.371951	0.467903	0.301986	0.071426	-0.371959	-0.113980	-0.066095	0.573557	0.947197	0.207250	0.327993	-0.269894	-0.467611	-0.255109	-0.026426	0.361065	0.821997	-0.138782	-0.058567	0.151360	0.219293	-0.337708	-0.155054	-0.416438	-0.748956	-0.571579	-0.501778	-0.662303	-0.445449	-0.191911	-0.057315	0.489474	-0.025293	0.189357	0.077388	-0.379090	-0.426918	0.208002	0.123200	0.211828	0.541722	0.355512	0.418768	-0.324060	-0.188651	-0.061740	-0.063185
-0.170763	-0.153890	-0.370137	-0.558135	-0.268435	-0.107297	0.001726	-0.396925	0.557968	1.120511	0.052146	0.369757	0.324510	-0.163850	0.426380	0.606485	1.401405	0.715436	0.395383	-0.354818	-0.338759	-0.644201	-0.212938	1.401259	1.248071	0.365278	0.198728	0.183655	-0.383814	-0.659955	-0.039164	1.059001	-0.015699	0.143124	0.673986	0.182128	0.162396	-0.578507	-0.840748	-0.657958	-0.845572	0.093711	0.733767	0.027325	0.185233	-0.140410	-0.315624	-0.706104	-0.724837	0.891267	0.314617	-0.179525	-0.340910	-0.376059	0.050123	-0.674691	-0.713458	-0.435505	-0.105418	-0.800940	0.083112	-0.005928	0.346474	-0.514652
-0.226607	0.982973	0.239821	-0.309379	-0.868719	-0.133019	0.166255	0.170728	-0.125253	-0.131070	-0.463675	-0.158357	-0.414647	0.055393	0.261933	-0.045370	0.120921	-0.384705	0.104655	0.178400	-0.217148	-0.089551	0.551217	0.575448	1.030830	0.040188	0.434458	0.304588	-0.195865	-0.396297	0.256441	2.417081	1.043259	0.478219	1.063035	-0.267182	0.138163	-0.259248	0.467585	1.115915	-0.277222	-0.105006	-0.102560	-0.269426	0.564363	0.295670	-0.207772	-0.493957	0.393332	-0.622991	-0.557132	-0.111799	0.662424	0.321949	-0.178026	-0.327701	0.159232	0.455090	0.300578	0.119235	-0.183744	0.385013	0.630271	-0.153341
-1.153168	0.030038	-0.093967	-0.118663	-0.038045	-0.396977	0.120962	-0.201310	-0.967618	-0.692191	-0.082661	0.106724	-0.538715	-0.187363	-0.019273	-0.815670	0.709323	0.131252	-0.054545	0.213418	-0.103442	-0.610739	-0.036355	0.100885	0.322590	-0.047496	-0.185834	0.764628	0.411665	0.984193	0.226766	0.107573	0.622267	-0.167229	-0.788554	-0.517831	0.992221	1.655697	1.051593	0.890585	0.028908	-0.071020	0.650583	0.202731	-0.020043	0.377909	1.161648	0.470877	-0.256832	-0.195945	0.312037	-0.137933	-0.242954	-0.324077	0.189060	1.196074	-0.192112	-0.493138	0.351634	0.583453	0.399844	-0.770363	-0.381497	-0.276998
-0.380795	-0.182566	-0.234947	0.449765	-0.001135	-0.097906	-0.236693	-0.538616	0.414900	0.338289	-0.349643	0.484242	-0.118426	0.377624	-0.496745	-0.400949	-0.425271	0.487559	0.124617	0.664896	0.524817	1.031601	0.555710	-0.588612	-0.318591	-0.256506	0.473710	1.221033	0.746434	0.904436	0.593914	-0.239795	-0.080362	0.039414	0.788031	0.072714	-1.023900	-1.381800	-0.275851	-0.038790	-0.365484	0.247878	-0.020244	0.425656	-0.603596	-0.321388	1.193676	-0.060013	-0.537988	0.647817	0.021273	-0.655326	-0.704738	-0.433475	0.283527	-0.421973	-0.559451	0.028177	-0.296257	-0.082623	-0.802246	-0.312994	0.072264	-0.765896
-0.634576	-1.536996	-0.198690	-1.044315	0.111416	0.430320	-1.465098	-0.424330	0.456972	-0.763699	-1.102672	0.196505	-0.040112	0.459447	-0.394542	0.309594	0.261620	0.131580	-0.763782	0.611846	-1.016374	0.623296	0.630689	-0.307799	-0.927771	-0.158600	-1.703648	0.020096	0.115150	-0.156960	0.142315	-0.678283	-1.225840	-0.129238	-1.208585	0.427300	-0.261292	0.169539	0.536467	-0.761196	1.074629	-0.371719	0.240699	-0.136814	-2.610491	-0.076999	0.624751	-0.199897	0.074720	-0.844520	-0.726152	-0.936853	0.315194	-0.303195	-0.263222	-0.317209	-0.591868	0.136715	0.050095	-0.891599	0.124740	0.607441	0.110765	0.916486
-0.668386	-0.372821	-0.804958	0.059209	-0.011351	0.137908	-0.342936	-0.989101	0.066327	-0.405631	-1.232695	-0.052020	0.203180	-0.141789	0.237517	-0.669007	0.686288	-0.902254	-0.837170	-0.223089	-0.187701	-0.487068	0.301741	-1.004888	0.302706	-1.193508	-0.693375	-0.128388	0.524284	0.034381	-0.202338	-0.456113	0.738955	-1.413719	0.546131	-0.204455	-2.272047	-0.458915	-0.337954	-0.461875	0.900985	-0.502396	1.588074	0.120547	-0.083309	-0.438495	-0.467237	2.167039	0.160695	-0.744317	-0.366679	-0.403526	-0.066764	-0.084898	0.521403	0.443629	0.829286	0.140617	0.216319	-0.554048	-0.605965	-0.583635	0.085822	0.420305
-0.731899	-0.619753	-0.768905	-0.071353	-1.759893	-1.066884	-0.437381	-0.814694	-0.575786	0.015043	0.533543	0.966478	0.185251	0.541082	0.161042	-0.862271	0.207743	0.156827	0.252936	0.458694	0.277343	0.855744	0.168090	-0.022909	-0.327538	-0.317738	0.423497	-0.236703	-1.367713	-0.969136	-0.952559	-0.774139	-0.751947	-0.516917	0.145143	0.290523	-0.909196	0.538635	-0.313409	0.179029	-0.124181	0.689111	-0.794219	0.205029	0.348869	-0.537602	0.361408	-0.511176	-0.399185	-0.339278	0.749205	-2.437876	0.132493	-0.893439	-1.073262	-0.219394	0.528944	-0.205131	-0.104738	-0.184173	0.415042	-0.607256	-1.556936	-0.330023
0.359279	0.146194	0.111407	-0.045834	-0.178428	0.451224	0.270503	-0.355776	-0.223793	-0.751689	0.640284	-0.562714	-0.539126	-0.250233	-0.227297	-1.274684	0.772674	1.991533	0.642326	0.015254	-0.057551	-0.529859	0.099668	-1.137215	1.227045	0.790787	0.005493	0.365694	0.276729	-0.651322	-0.123020	-0.660648	0.747740	0.277016	0.651845	0.484210	-0.559844	-1.433091	0.951225	-0.383866	-0.312406	-0.494349	-0.104378	-0.171361	0.504706	-0.102007	-0.140312	-0.575773	0.153495	-0.218975	-0.158191	-0.608349	-0.300757	0.108531	-0.393858	-0.287998	-0.465176	0.034793	0.862754	0.537958	0.081894	0.374088	-0.455759	0.119965
-1.298923	0.089851	0.747208	-0.774221	-0.160535	-0.634428	-0.847947	-0.848821	-1.336890	0.123063	0.328000	-0.107887	0.616125	0.095369	-0.283979	-1.132283	-0.603585	-0.054607	-0.486985	-1.043359	-0.721268	0.504193	-0.639617	1.057458	0.224530	-0.354112	-0.167281	0.040376	0.217714	1.491424	-0.170130	1.382718	-0.354679	-0.163782	-0.506344	0.589210	-0.267058	-0.122244	-0.211070	-0.563157	0.170181	-0.496466	-0.555632	-0.570865	-0.382922	0.098245	-0.576749	0.001953	2.362313	0.521774	-0.747613	-0.983938	0.042253	-0.638449	-0.127584	-0.244489	-0.974632	-0.996156	0.233653	0.112952	-0.157896	-0.531039	-0.155568	-0.734475
0.034756	-1.613025	-0.612652	0.144309	-0.792030	-0.692886	-1.148555	-0.024031	0.217374	-0.196182	-0.091613	0.348779	-0.446453	0.345893	-0.653708	0.579452	0.319846	-0.135878	0.174015	-0.292141	-0.018725	0.953865	-0.287359	0.019827	0.013894	-0.208663	0.128399	-0.074962	1.086784	0.725145	0.827697	1.039069	-0.215822	-0.990818	-0.337464	0.077109	0.163171	-0.439104	0.534797	0.358061	-0.424707	-0.941891	0.004026	-0.416796	0.330390	-0.525757	-0.421373	-0.443304	-0.111910	0.173595	0.492375	-0.642456	-0.214658	0.285294	-0.228070	-0.415772	0.309662	0.500470	0.334341	0.781137	0.349277	0.301728	-0.324310	0.246095
-0.575096	-0.038633	1.043817	-0.101876	-0.973671	-0.564383	-0.758028	-0.364514	-0.073007	-0.328946	-0.220403	-0.514067	-0.867068	-0.832454	0.513166	1.028631	-0.547450	-0.327940	-0.362627	-0.031444	-0.806036	-0.394001	0.458566	0.258353	-0.085804	0.778194	-0.347529	-0.958813	-0.057557	1.068042	0.790205	0.104230	0.207783	0.665978	0.652796	0.095286	-0.079334	-0.034700	0.155652	0.216797	-0.346633	-0.728037	-0.605733	-0.860290	-0.657793	-0.274307	-0.034221	0.185800	-0.212319	0.398690	0.661706	-0.492232	-0.880034	-0.225826	-0.835122	0.369908	0.049739	0.530793	0.854672	-0.269564	-0.446794	0.482742	-0.740038	-0.663530
0.407441	-0.700448	-0.224396	-0.108904	0.678106	-0.917095	-1.306130	-0.448845	-0.228583	-0.485913	-0.148712	0.048800	-0.180162	-1.037359	-0.886052	-0.230398	-0.105839	0.885809	0.150206	0.041516	0.088778	-0.114090	-0.014026	0.018107	-0.061635	0.312389	0.766605	0.490692	-0.159598	-0.274048	-0.448731	-0.333592	0.559969	0.475264	0.455296	0.137428	0.177882	0.134332	-0.142843	0.238298	0.549312	0.438939	-0.328903	-0.880602	-0.300687	-0.432206	-0.548459	-0.280619	0.584840	0.751096	-0.258039	-0.881096	0.674672	0.239369	-0.535236	-0.283792	1.038784	-0.040869	-0.846039	-0.761233	-0.250098	-0.231525	-0.160847	-0.004157
-0.241768	-0.319583	0.035392	0.848165	0.112787	-0.442108	-0.191592	0.673347	0.050047	0.095147	0.090493	0.587543	0.386503	-0.212423	-0.029471	1.212186	-0.121518	1.227329	0.678570	0.717790	0.140425	-0.832056	-0.784349	0.154274	-0.363978	0.463054	0.091129	0.468991	0.686174	-0.403098	-0.452650	-0.168382	0.379391	0.407953	0.723318	0.356353	0.135068	-0.245733	-0.016547	-0.364793	0.893397	0.455219	0.375933	0.052652	-0.060616	-0.523867	-0.254421	-0.108284	-0.307139	-0.996347	-1.294162	-0.397856	0.082096	-0.668671	0.323517	-0.762562	-0.355765	-0.613664	0.385221	0.820029	-0.081001	-0.141143	0.689895	-0.382738
0.187481	0.920235	-0.946406	-0.621089	-0.614873	0.595930	1.586906	-0.298319	-0.143053	1.783031	-0.419645	0.751126	-0.301812	-0.211497	-2.028616	-0.535712	0.248593	-0.492919	-1.075591	0.573070	0.191942	0.215406	-0.026080	-0.297083	-0.091838	-0.295121	-0.832536	-0.296167	-0.526787	-0.308005	-2.043768	-0.653138	-0.441153	-0.133397	-0.164016	0.493588	-0.366524	-0.076971	-0.979987	-0.097584	0.029120	-0.176610	0.148068	0.397134	-0.142355	0.795581	0.254308	-0.601113	-0.908722	-0.023077	-1.134648	0.321502	0.620175	0.268208	0.970148	-0.883750	0.535742	0.410936	-1.242457	-0.956697	-0.225824	0.432210	-0.169338	-1.044857
-0.827536	-0.386008	0.310373	0.319834	-0.384924	0.134621	-0.130478	-0.832553	-0.373213	2.024456	0.037257	0.379661	0.683390	-0.314921	0.075411	0.022177	-0.095964	0.321654	-0.476957	0.155307	-0.364475	-1.058605	0.311782	0.235356	-0.881607	-0.591203	0.303511	0.091983	-1.258224	-0.565997	-0.068136	0.253343	-0.868866	-0.852304	-1.008562	0.115278	-0.033044	-0.004476	0.716755	0.143251	-0.257133	1.097915	0.456799	0.706202	-0.109579	-0.236691	-0.116600	0.217888	0.153089	0.195983	-0.121937	0.816167	-0.198301	-0.068100	-1.385257	0.148108	-0.742553	0.116529	-0.127833	-0.266383	-1.482514	0.011233	-0.152115	-0.762915
-0.215353	-0.191598	-0.049404	-0.074200	-0.438809	-0.093232	0.174200	0.949375	0.315506	1.091012	0.550958	0.301219	-0.148470	0.361162	-0.628500	0.030827	-0.065811	-0.198562	-1.190585	-0.917135	-0.391583	-0.207219	0.205979	-0.076715	-0.989469	-0.011246	0.069985	-0.672965	0.256014	-0.742305	0.140436	-0.746219	-0.258777	0.731237	-0.412665	-0.638267	0.149211	-0.865351	-0.256456	-0.386990	-0.302615	0.387358	-0.567048	-0.217113	0.018757	-0.765094	-0.997440	-0.128397	-0.231008	-0.155323	-0.483548	-1.391167	-0.313365	0.077510	0.137557	0.277512	-0.078085	0.052874	-0.008997	-0.466031	-0.945282	-0.818701	0.078548	0.712023
0.896586	0.295970	-0.553215	-0.334887	0.017910	-0.497542	-0.196299	-0.336815	0.623559	0.577402	0.008392	-0.214291	0.929937	0.066230	-1.588536	-0.963164	-0.497183	0.428129	0.683928	1.256348	0.614098	0.212820	-0.029879	0.059107	0.359069	1.042803	0.735030	0.605751	-0.556109	-1.160271	0.531985	-0.082826	0.117090	-0.154691	-0.768673	-0.591611	-1.151689	0.418592	-0.440158	-0.168194	-0.978250	0.074767	-0.481635	0.345396	-0.369193	-0.681895	-0.655931	-1.075249	-1.111521	-0.222025	1.114914	2.016230	-0.341236	-0.128304	-0.450916	-2.312605	-0.425076	-0.685526	0.262105	1.114706	1.095981	0.614609	-0.079258	-0.660397
-0.961842	0.138330	-0.175859	-0.431465	0.023574	0.984387	0.898247	-0.509639	0.752162	-1.137987	-0.303599	0.117688	-0.007328	-0.532476	-1.125805	0.889976	-0.687743	0.079503	0.430402	0.018599	0.187454	1.939450	0.538447	-1.141192	-1.955232	0.415393	0.448264	0.417340	-0.266310	1.172288	0.637292	-0.721674	-0.620881	0.131597	0.000433	-0.332606	1.168729	0.301970	0.636261	0.034142	-1.079514	-1.095833	-1.888649	-1.072433	0.862434	-0.298653	-0.760216	0.269560	0.380783	-1.263646	-1.319355	-0.604564	-0.434744	-0.889931	-0.572508	-0.060947	0.658361	-2.359470	-0.438022	0.000664	0.353699	-0.946383	-1.407501	-0.053185
-0.328580	-0.660480	-0.441871	0.002036	0.787793	-0.153132	-0.490026	-0.139627	-1.131182	-1.158765	0.084224	-0.170925	0.810465	-0.649856	0.545396	0.654269	0.217555	0.058030	0.454889	0.361030	0.424315	0.535280	0.006884	-0.233787	-0.101565	-0.141126	0.174220	-0.414691	-0.423787	0.251015	0.127794	-0.236946	-0.578951	0.004542	0.622544	-0.527082	-0.306504	-0.695695	-0.411436	-0.013414	-0.606896	-0.015918	0.180240	1.096224	0.351054	0.342548	0.171064	-0.625941	0.368929	-0.056764	0.165297	0.697693	0.451298	0.116460	-0.215190	-0.551270	-0.045262	-0.393368	0.206057	-0.108169	0.192194	-0.589245	-2.155839	-0.913781
-0.012213	-0.326694	-0.056587	-0.447077	-0.366222	-0.344632	0.191590	0.291253	-0.757420	-0.744293	0.029505	-1.073599	0.069378	0.835567	0.306532	-0.679617	-0.212020	-1.036016	-0.156415	-0.401924	-0.168397	-0.846810	-0.182508	-0.631058	-0.448501	-0.051787	0.115471	0.016509	0.280821	-0.407806	0.496456	-0.250550	-0.402288	0.174580	-0.497258	0.074559	-1.029956	-0.080269	0.751412	-0.456084	1.031735	-1.068631	-3.024958	-0.088615	0.579461	-0.713402	-1.120521	-0.338591	-0.692142	-0.285979	-0.303716	0.416974	0.766117	-0.748988	-0.387523	0.231166	-0.122693	-0.239426	-0.198854	-0.002720	0.355460	-0.425187	-0.127316	0.027699
0.027785	0.033528	-0.264768	-0.520611	-0.922982	-0.102650	0.231406	-0.417985	-0.433286	-0.104479	0.013474	0.391226	-0.207134	-0.097472	-0.123402	-0.598594	0.941917	0.970609	0.909510	0.571475	0.925409	0.417866	0.458926	0.916656	-0.556760	-0.006848	0.328425	0.508323	0.809537	-0.080688	-0.231180	-0.225998	-0.243492	-0.237067	0.050978	0.243637	0.340995	-0.117058	0.114623	-0.076811	-0.881006	-0.802214	0.078738	-0.959037	-0.620587	-0.263380	0.119353	-0.215618	-0.445255	-0.793933	-0.433361	-0.190519	-0.470090	1.602217	0.807386	0.225667	-0.530513	-1.429809	-1.293436	-0.561554	-0.973154	1.249354	0.440144	0.363307
-0.378603	-0.723443	0.016446	0.093083	0.759226	0.892840	0.596377	0.165039	-0.060849	-0.035050	0.059452	0.021170	-0.193751	-0.386132	-0.180782	0.006367	0.180166	-0.648468	-0.421626	0.142114	0.826772	0.395301	0.544694	0.220010	-0.254005	-0.773347	-0.214228	0.414615	0.307908	-0.010891	0.093881	0.368508	0.487843	0.409109	0.370364	0.290608	-0.313553	-0.456184	0.354477	0.794081	0.544180	0.511445	0.148042	-0.404291	-1.107311	-0.954722	-0.862118	-0.614354	0.162697	0.130624	0.407315	0.969321	0.393065	0.381455	0.276502	-0.127894	-0.124637	-0.615244	0.301522	0.361131	0.189248	0.461970	0.586399	0.309927
0.416405	0.378308	-0.032485	0.554680	0.498648	0.188852	-0.314115	0.024282	0.772380	0.723940	0.426213	-0.296939	0.413496	0.437494	1.078016	0.590464	-0.563565	0.378857	-0.096903	-0.279766	0.311682	-0.357733	-0.471311	-0.313135	-0.368199	0.066452	-0.324344	0.375865	0.363224	0.245014	0.160195	-0.094084	-1.415916	-0.401261	-0.293899	-0.832614	-0.361798	0.506001	-0.346698	-0.224732	-0.781735	-0.041184	-0.246112	-1.406906	-0.818476	0.394648	-0.406272	-0.993069	-0.724031	-0.275644	-0.474942	0.016274	0.128399	0.661811	0.111179	-0.487859	-0.880547	-0.657989	-0.996172	-0.474143	-0.006187	-0.983867	-1.566374	-0.457141
-0.554196	0.422594	0.131019	0.349135	0.132689	-0.529129	-1.004747	-0.659612	0.935390	0.449269	-0.687221	-0.545698	-0.275831	-0.285995	-0.121930	0.073900	0.889193	0.084075	-0.260064	0.074620	-0.358451	-0.773376	-0.537368	0.140595	0.354736	-0.351524	-0.445021	0.870795	0.368717	-0.537364	0.266362	-0.321042	-0.258583	-0.025075	-1.014368	0.730298	0.759242	0.041057	0.317599	-0.136978	0.122082	0.015967	-1.411323	-0.078537	0.267098	0.949970	0.244448	0.083737	-0.317079	-0.273472	-0.245853	-0.131456	-0.282202	0.765556	0.440976	-0.430087	0.106106	-0.035926	0.188210	0.185472	-0.080656	0.559017	0.509122	-0.093819
0.563194	0.121454	-0.437184	-0.371610	-1.292586	-0.646317	0.572025	0.320954	-0.570978	-0.313146	-0.220895	-0.299359	0.574116	-0.510010	-0.022520	-0.064476	-0.563236	-0.109666	-0.688176	-0.870588	0.042141	-0.305211	-0.240198	-0.729749	0.198863	1.171111	-0.156678	-0.053009	0.472684	-0.336397	0.712636	-0.499549	-0.967518	-0.002927	-0.364402	-0.008511	0.527597	-0.763173	1.994703	-0.862664	-0.163441	0.413421	-0.336199	-1.350477	-0.869113	-0.242522	0.790101	-1.120500	0.488765	-1.139024	0.930604	0.478297	0.399274	0.194098	0.187381	0.441362	1.508670	0.317253	0.070645	0.044503	-0.064613	-0.915568	0.440692	0.586499
0.242190	-0.237925	0.487530	2.498288	0.706165	-1.254497	0.003228	-1.212676	-0.100874	0.439922	-0.378656	-1.005732	-0.940632	-0.692413	0.104847	0.290206	-0.885092	-1.034965	-1.414595	-0.584871	-0.477046	-0.148820	-0.010806	0.180648	0.505013	-1.130844	-0.606175	0.055404	-0.662909	-0.106434	0.280755	-0.194579	-0.630312	0.549764	0.149611	0.017467	0.467975	-0.726126	-0.244597	-1.313837	-1.047677	0.640387	0.588668	-0.302489	0.904319	-0.466003	-0.465075	0.636993	-0.140215	0.453281	-0.279546	0.109555	0.227955	-0.941418	0.123508	0.620972	1.018095	-0.473549	-0.283277	0.641016	1.041287	-0.178417	0.270125	-0.134378
0.060924	-0.302093	0.212409	0.346385	0.488868	0.460737	-0.128391	0.150903	0.781459	-0.053293	-0.034498	0.675027	1.567945	1.435404	0.495576	0.446600	0.050621	-0.754434	-0.579328	0.813240	2.269778	1.753282	0.520426	0.018621	0.594127	-0.081548	-0.294156	0.447369	1.154833	0.503994	-0.363918	-0.102762	0.242123	0.562658	-0.244087	0.102731	0.984880	0.222350	-0.276743	-0.027005	0.214019	0.327320	-0.249551	-0.549130	0.254621	0.157547	0.363082	0.288695	0.146457	-0.635983	-0.160433	-0.525770	0.035762	-0.111996	-0.193352	0.645972	0.175206	-0.179276	-0.127434	-0.263328	-0.091943	-0.019630	-0.009488	0.091647
0.345977	1.054294	-0.175011	0.217681	0.247716	0.085439	0.047270	0.439836	-1.419849	-0.468373	-0.061468	0.492129	0.730864	-0.211384	-0.245831	-0.749524	-0.845432	-0.913975	-1.041022	0.319872	0.121458	0.173784	0.097498	-0.619772	-0.058806	-0.307434	-0.164447	0.116157	0.355589	0.387732	-0.166417	0.291611	-0.520654	-0.486991	-0.675149	-0.537066	-0.751304	-0.157034	-0.493718	0.334097	-0.615672	-0.334941	-0.585269	-0.375654	-0.760815	0.417931	-0.411252	-0.379219	0.354715	1.210804	0.830492	-0.120244	-0.905888	0.703186	-0.106935	0.153488	0.867098	0.801036	0.484837	-0.051264	-0.746509	0.369398	-0.377356	1.261457
0.158200	1.314192	0.506151	0.221205	0.631650	-0.260776	-0.596493	-0.582336	-0.299199	-0.217373	0.132600	0.244669	0.766491	0.432221	-0.182548	-0.689729	0.130573	-0.162839	0.100680	1.096875	1.318191	0.499679	-0.145785	0.050422	-0.623551	-1.322789	-1.285629	-0.071402	-0.006420	0.038918	0.477712	0.165276	-0.035663	-0.457129	-0.061471	0.548535	0.241521	0.269801	0.214313	0.011159	-0.407923	-1.055136	-0.076618	0.566474	-0.088099	-0.425373	-0.328153	-0.457493	0.057094	0.299677	-0.192620	0.418677	0.047251	-0.564319	-0.440739	-0.204434	0.348387	0.917488	0.235065	0.300074	0.268430	-0.709612	-0.381029	-0.204558
-0.048342	-0.147533	-0.422365	-0.350159	0.736783	0.437416	0.434062	0.157131	-1.035427	-0.518376	-0.343943	0.286934	0.794049	1.865932	0.765662	-0.017072	0.233618	0.118500	0.134027	-0.114529	-0.067772	0.539686	-0.407381	-0.046316	0.233598	0.460303	0.251506	-0.035938	-0.623708	0.478717	-0.006200	-0.325762	0.808016	0.167773	0.579619	0.461706	-1.053941	0.608254	0.641122	0.438932	-0.148200	0.018544	1.732212	0.926325	-0.828201	-0.949828	-0.836825	-0.140620	-0.802453	0.195003	0.710641	0.145438	-0.678949	-0.766172	-0.435115	0.396786	-0.321212	0.045371	-0.807428	-0.335057	-0.835324	-0.844449	-0.631652	0.254388
0.325972	-0.453560	-0.417003	-0.369697	-0.440213	-0.695000	-0.073472	0.307198	0.450229	0.423582	1.063109	-0.309764	-0.032351	-0.524531	0.138752	1.522731	-0.722446	-0.903289	-0.946239	0.376880	0.163488	-0.119210	0.016625	0.253698	-1.031810	-1.259721	-1.146876	0.406954	-0.063077	0.935292	-0.521190	-1.029409	0.450277	-0.313692	-0.685646	-0.327752	-0.545826	0.720121	0.494697	0.411453	0.451732	-0.229997	-1.067397	-0.158987	0.117452	-0.138419	0.859058	0.006794	0.313514	0.326839	-0.392966	1.287593	-0.090036	-0.673873	0.013319	-0.197921	0.014117	0.797260	0.078329	0.357694	-0.006850	0.060011	-0.027476	-0.564700
0.151662	0.050811	-0.241589	-0.199585	0.180583	0.776324	-1.374440	-0.672759	-0.027755	0.191291	0.255661	-0.732358	-0.218790	0.259766	-0.653620	0.325822	-0.003700	-0.418901	0.446743	-0.111529	-0.433921	-0.774408	0.163255	0.983304	-0.315738	-0.225192	-0.493866	-0.740564	0.753836	-0.631827	-0.552753	-0.350672	0.408167	0.140308	0.026625	-0.663283	-0.061711	-0.538966	-0.403833	0.091136	0.116346	0.140392	0.986693	-0.266099	0.350703	0.090409	-0.479170	-0.015059	0.200856	-0.721777	-0.058490	-0.502945	1.027917	0.362496	-0.356652	-0.029711	0.169049	-0.094050	0.018959	0.275522	-0.015115	0.047841	-1.121851	-0.638916
-0.296458	-0.988475	-0.619790	-0.471568	-0.358246	-0.644835	0.074046	-0.436046	0.033105	-1.567608	-0.306899	-0.184742	-0.207342	0.729749	0.244109	0.553986	0.885268	-0.056439	1.127099	1.014201	-0.685144	-0.418470	-0.839411	0.170007	-0.051703	0.023514	-0.173751	-0.010506	-0.363098	-0.155402	0.417518	-0.537037	1.009979	-0.000914	-1.984577	-1.181029	-0.580174	-0.575486	-1.362331	-0.087291	0.500429	0.487468	-0.233001	-1.056829	-0.701162	0.306182	-0.764276	-0.110732	0.165695	-0.062596	0.423742	-0.114361	0.060415	0.558778	-0.675679	-0.166056	-0.108123	-0.180593	1.303716	0.057028	-0.091619	-0.011294	0.433217	0.456160
0.166781	-0.117281	-0.611731	-0.279746	0.233621	0.388730	1.136874	1.910469	0.322233	0.096215	-0.663380	-0.381481	-0.151050	0.194449	0.377782	0.070375	0.056410	0.062117	-0.498059	0.059525	0.102562	-0.482025	0.225535	-0.106110	-0.036680	-0.739545	-0.917899	-0.237106	0.080424	-0.553018	0.138379	0.544232	-0.532244	-0.806865	-0.694137	-0.462590	0.642929	0.205960	-0.429352	0.364011	-0.543626	-0.657834	-0.752579	-0.296913	0.706642	0.264896	-0.156862	0.347783	0.266800	0.179546	0.528425	-0.543293	0.271262	-0.365014	-0.521008	-0.465880	0.260886	-0.572435	-0.950401	-1.057691	0.213761	1.080524	0.947052	0.698807
-0.150876	-0.173705	-0.200920	0.448390	0.497920	0.891752	-0.188880	-0.443991	0.139583	-0.662247	-3.714140	-0.370273	0.379712	0.029294	0.100094	0.018069	-0.528790	-0.428642	-1.122101	-0.158316	-0.310840	-0.434427	-0.194120	-0.484964	0.013517	0.509318	-0.343659	0.139073	-1.040669	-0.349408	-0.370420	-0.022630	0.802670	-0.246804	-2.488848	-0.356787	-0.764480	-0.412763	0.719444	0.183123	-0.309875	0.845057	0.687975	1.322059	-0.062548	0.876385	-0.179289	0.259654	0.573964	0.957240	-0.198626	-0.261794	-0.034593	0.024075	0.183566	-0.514217	0.026464	0.197545	-0.347168	0.321656	0.805361	-0.276277	-1.013610	-0.280464
-1.272510	-1.156499	-0.887225	0.314347	0.948545	0.262568	0.595333	-1.118552	0.054141	0.871895	-0.282656	0.465093	0.363296	-0.906431	0.899717	0.106601	0.063534	0.252466	-1.303982	-0.177506	-0.351277	-0.908849	-0.073889	-1.246685	-0.653995	1.780812	-0.973818	-1.062767	0.338173	-0.305724	-0.965269	-0.592570	-0.512348	0.723805	-0.184528	-0.207225	-2.083189	-0.218326	0.541955	0.282769	-0.637263	-1.329128	0.811037	-1.750472	-0.260097	-0.046138	-0.490066	-0.609935	0.447808	0.635185	0.231890	-0.870699	-0.324459	-1.404593	-0.251536	-0.333519	-0.390838	-0.866734	-0.628068	-0.074067	0.864158	-0.801093	0.527811	0.055795
0.418500	1.412368	-0.167069	1.421410	-0.713422	-0.506003	-0.405779	-0.320334	-0.149446	-0.793652	-0.194173	1.538308	-0.960762	-1.641230	-2.174968	-1.050099	-1.140455	-1.607637	-0.436663	0.016451	-0.919683	-0.802099	-2.726103	-1.012655	0.260577	0.231150	-0.399728	-0.092493	-0.178130	-1.534385	-2.071688	-0.985207	0.848860	0.213313	0.776073	0.634413	0.601621	0.324051	-0.215800	0.315314	0.190392	-0.387865	-0.462333	-0.359992	1.045644	0.288275	-0.414005	-0.002141	0.400977	-0.106260	0.374225	0.151716	0.798597	0.202889	-0.319125	0.152087	-1.108199	0.522194	0.688692	0.478018	-0.070739	-0.306448	0.781420	-0.665100
-0.897051	-0.568262	-1.897720	-1.128704	-0.668049	-0.756822	-0.806987	0.122880	0.288127	-0.730090	-0.349027	-0.608442	-1.057361	0.777654	1.050691	-0.533378	1.599798	-0.711459	-1.074565	-0.376553	-0.254034	-0.395431	-0.882422	1.909879	0.680694	-0.288743	-0.819619	0.027364	0.471672	0.056777	0.247657	1.264187	-1.031588	-0.212008	1.446784	-0.452665	-0.566056	-1.370934	-0.401059	0.589760	-0.660349	0.801799	-0.146930	0.138642	-1.343696	-0.603504	1.520879	0.257119	0.001809	0.601472	-1.013343	-0.984039	-0.448578	0.381692	-0.564026	-1.128489	0.398082	-1.112172	-0.559096	-0.104603	0.274518	-1.529276	-0.054826	0.043694
-0.852784	0.060492	0.485577	-0.249767	-0.080634	0.206127	0.313321	-0.136741	-0.317416	-0.313619	0.335014	0.489674	0.037779	0.676593	0.936179	-0.531946	0.379177	0.201407	0.161197	0.537532	0.736485	0.364029	0.377743	-0.139272	0.094390	0.342109	-0.155072	0.164222	0.605495	0.329995	-0.169493	-1.165937	-0.501273	-0.241410	-0.236932	0.129634	0.091927	-0.345345	-0.900118	-1.390957	-0.120175	0.647224	-0.076055	-0.091548	0.351982	-0.427867	-0.548769	-0.840181	0.027535	0.778526	0.264073	0.019092	0.591702	-0.256786	0.071256	-0.004380	-0.066133	0.259925	-0.018246	0.424218	0.595028	0.228691	0.220178	0.598693
0.387007	-0.605888	-0.325111	-0.448822	-0.011309	0.311336	-0.007437	1.006590	0.737200	-1.105295	-0.201060	-0.109885	-1.092287	-2.243276	-0.989252	-0.885885	1.204685	-0.774726	-1.413434	0.013116	-0.893252	-0.053815	-0.484124	0.622793	-0.665972	0.478244	0.482723	0.427852	-0.011253	-0.160005	-0.205784	0.685777	0.429137	0.441815	-1.012793	-0.076440	-0.132722	-0.679199	-1.082072	-0.544455	0.197755	0.506124	0.054712	0.532384	1.227569	-0.682354	-0.576714	-0.741151	-0.307133	-0.252902	-0.039872	-0.175376	0.034843	0.558782	-1.201914	-0.823180	-1.557318	-0.617488	-0.554613	-0.019185	1.945825	1.070658	-0.492505	-1.352709
0.050475	0.398415	-0.193182	-1.065511	-1.010899	-1.901656	-0.014161	-0.023327	0.192078	-0.128785	-0.115158	-0.641444	-0.760405	-2.867569	-0.000778	-0.187767	0.139642	0.309735	0.755842	-0.132905	0.170298	-0.491651	-0.304215	-0.253890	-0.545617	-0.539972	-0.526543	-0.072843	0.110701	-0.347544	0.052159	-0.201571	-0.202240	0.224622	0.226547	0.291113	-0.238687	-0.162012	-0.127690	-0.119753	-0.206190	0.317191	0.789706	0.187449	0.072134	-0.104391	-0.123699	0.039050	-0.781717	-0.311135	0.057530	-0.073030	0.379378	-0.285522	0.229083	-0.565624	0.257013	0.504657	0.201245	-0.313469	-0.031398	-0.469658	-0.272776	0.202511
0.433790	0.542425	0.180958	-0.676132	-0.296473	-0.978368	-0.251276	-0.131851	0.095306	0.197581	0.437812	0.234726	0.293214	-0.486791	0.340502	1.358946	0.057537	-0.070120	0.040159	0.277999	0.408311	-0.181250	1.048723	1.249864	0.379831	-0.489644	-0.500258	-0.151816	-0.201126	0.320764	0.063137	0.516989	0.091800	-0.811377	-0.386428	-0.588368	-0.450643	0.128576	-0.198427	-0.239892	-0.047539	-0.986102	-0.056869	0.902153	0.089734	-0.015871	0.186729	-0.359251	-0.112499	-0.839388	-1.233072	-1.799059	-0.758459	0.022551	-0.127870	0.519286	-0.350404	-0.816489	-0.189903	-0.358896	-0.635780	-1.636625	-0.085262	0.382487
0.554844	-3.078628	-0.022241	0.098931	0.103319	-0.048362	0.330108	1.457993	0.024582	-0.165420	-0.616373	-0.030925	-0.290216	-0.671348	-0.266662	-0.252819	-0.417902	-0.065174	0.823702	-0.313810	0.011375	-0.258042	-0.240622	-0.261423	0.468940	-0.355851	0.868200	-0.461199	-0.549018	0.250276	-0.443654	0.316180	-0.106643	-0.284654	0.417514	-1.085398	-0.943140	0.286858	0.090814	-0.150104	-0.559195	-0.464089	0.310871	-0.919443	-0.668591	-0.064684	0.156464	0.236803	-0.032124	-0.672026	-0.502642	-0.347234	-0.119019	-0.554586	-0.410337	0.648098	0.189433	-1.534637	0.422754	0.399363	0.796536	-0.799256	-0.353692	-0.026879
0.195734	0.297150	0.517202	-0.375547	-0.139901	0.298982	-0.033322	0.215433	0.468085	0.549699	0.024746	-0.357468	-0.094224	0.011485	-0.307904	0.016218	1.213330	0.877131	-0.046067	0.163508	0.201767	0.364133	0.298887	0.622554	0.880925	1.020402	0.005618	-0.315108	0.029199	0.461856	0.700981	0.677074	0.261855	-0.074944	-0.509021	-0.545812	-0.553190	0.395873	1.177676	0.501733	0.133716	0.310088	-0.320298	-1.183145	-0.340149	0.000571	0.536004	-0.106448	0.151181	-0.062960	-0.230202	-0.528156	-0.599275	-0.344591	0.198779	-0.207340	0.352763	0.100791	-0.110971	-0.332699	-0.717805	-0.290946	-0.356068	0.009611
-0.508972	-0.664073	0.358355	-0.573050	-0.410479	0.101754	1.098110	-0.041566	-0.686845	-0.837871	-0.420716	-0.333830	-0.065627	0.593719	0.034491	0.059950	-0.523355	-0.267293	-0.459834	0.212425	0.326614	0.001438	-0.880198	0.173368	-0.634416	-0.121939	-0.403651	0.460435	0.053723	0.264715	-0.337402	-0.007120	-0.130861	-0.092345	0.385894	0.295207	-0.222469	0.014031	-0.440733	0.095611	-0.437984	0.022918	-0.173145	-0.275512	0.445584	0.626874	-0.279010	-0.407501	0.046745	-0.112151	0.406556	-1.124152	0.058855	1.026800	0.663285	-0.218163	-0.352598	0.323709	0.792775	-0.831666	-0.452020	-0.291173	0.191627	-0.658632
0.426044	1.503645	-0.303350	-0.445479	0.262122	-0.173576	0.305265	0.209595	-0.329123	0.217255	-0.904953	-0.051631	-0.585703	-0.505101	-0.260840	-0.589333	-0.961472	-0.719262	-0.615698	-0.087148	-0.168303	-0.646582	-0.796843	-0.702058	0.242037	-0.027371	0.145592	1.481387	0.882591	0.742374	0.101420	-0.247237	0.507855	0.167370	0.109465	0.508479	-0.232707	-1.032778	-1.389083	-0.538524	-0.021714	-0.376861	-0.253721	-0.708348	-0.544999	-0.732999	0.237374	-0.069453	-0.015371	-1.103512	-0.572040	0.244230	0.384183	0.479560	0.495666	0.871978	-0.247360	-0.422557	-0.043588	-0.439144	0.768239	0.692054	0.026031	0.869283
-1.326995	-0.607270	-0.598930	-0.341321	-0.081878	-0.344955	-0.649195	-0.071881	0.124971	0.906429	0.406073	-0.258217	-1.532072	0.186291	-0.078631	0.407607	-0.596985	0.075064	-0.329738	0.098952	-0.059484	-0.812850	-0.980174	0.409329	0.572717	-0.199171	0.952679	0.225455	0.767613	0.006154	-1.122093	-0.205281	-0.412541	-0.695635	0.019954	0.213113	-0.080498	-0.166881	-0.716310	-0.514023	-0.387362	-0.686044	1.147596	1.524808	-0.709769	0.747132	-0.405196	-0.487995	-0.108136	0.213183	1.584535	1.210718	0.217978	-0.453258	0.022967	-1.357753	-0.938120	-0.162743	0.586475	0.878678	-0.531878	-0.850120	-0.770384	0.940579
0.286277	-1.186462	-0.104694	-0.445556	-0.387388	-0.188464	0.268067	0.348488	-0.401051	-0.410078	-0.324215	-0.621930	-0.792215	0.047077	0.262117	0.607168	0.875550	0.184674	-0.357560	-0.868918	-0.995531	0.220890	0.740476	-0.032230	0.162816	-0.099495	-0.352602	0.591263	0.036760	-0.269388	-1.287682	-0.624940	-0.200944	-0.622848	-0.270945	0.527228	0.020526	-0.309224	-1.039015	-0.158163	-0.335703	0.461391	-0.630942	-0.248211	0.981019	0.754440	0.198051	-0.272176	-0.008977	-0.057799	-0.978264	0.426020	-0.032089	-0.389821	0.047526	0.347595	0.051565	-0.140496	-0.162184	0.152226	-1.199668	-1.739860	0.242552	0.188751
0.177283	-0.922121	-0.145933	0.119303	-0.222364	-0.715511	-0.404263	-0.173256	-0.273356	-0.717048	-0.594902	0.055186	-0.472837	0.495245	0.326910	-0.153244	-0.281655	-0.445611	0.013887	-0.098703	-0.359481	0.458931	-0.266944	-0.414649	0.715060	0.494201	-0.390999	-0.063329	-0.048500	-0.085849	-0.792268	-0.481583	-0.046005	0.617932	-0.601769	-0.761254	-0.388416	-0.254741	0.670932	0.211930	-1.267362	-0.624612	0.228984	0.851313	0.651307	0.030981	0.205717	-0.530158	-0.481563	-1.534179	-0.623975	0.764023	0.820247	0.610907	-0.317777	-1.107364	0.544261	-0.066554	-0.809335	0.408076	0.368914	0.252108	0.344595	0.807701
-0.270093	-0.117389	0.357240	-0.909535	0.404262	-0.236064	-0.462215	-0.999888	0.598929	-0.729824	-0.620326	-1.704372	0.999784	0.876845	-2.005864	-0.989375	-0.685083	-1.187817	-0.691131	-1.646254	0.106352	0.459045	-0.745960	0.059127	-0.097971	-0.087812	0.642373	-0.568907	0.047542	0.385516	0.352615	0.692984	-0.209994	-0.231494	0.245774	-0.422347	0.290553	0.484292	0.586789	1.490268	-0.943652	0.170008	0.602879	-0.424270	-0.026581	0.567715	0.949953	0.701487	-0.042192	0.149066	0.301534	1.020929	-0.069713	-0.421700	0.095289	0.620196	0.268839	-0.187013	-0.801882	-1.286879	0.018462	0.831089	-0.100838	0.153703
-0.462915	0.441708	0.004541	0.401609	0.216994	0.539887	-0.058861	-0.413670	-0.221904	0.043702	-1.230650	-0.672073	0.537448	0.735246	0.058515	0.297122	0.359798	0.754743	0.005550	-0.952558	0.501896	0.633802	-0.531256	-0.140859	0.297040	-0.011226	0.083355	-0.757601	-0.491364	0.899978	-0.899953	-0.374231	0.314762	0.396940	-0.270768	-0.690249	-0.323825	0.106130	-0.589620	-0.365155	0.296912	-0.472216	-1.128255	-0.603853	-0.287029	-0.392836	-0.509081	-0.488244	0.223410	-0.052478	-0.463163	-0.238903	-0.230497	-0.360785	-0.621010	-0.544576	0.272559	0.652091	0.138078	0.631260	0.454689	0.497045	0.545471	-0.429100
1.544883	0.567702	-0.195727	0.482514	-0.451061	-0.302616	0.349060	0.392378	0.383876	-0.124586	-0.266849	-0.111259	-0.249760	-0.005494	0.655342	0.209430	-0.205726	-0.324338	0.059201	0.287767	-0.136532	0.722355	0.585208	0.216887	0.003166	0.238619	0.297889	0.534252	-0.011363	-0.305888	0.406254	0.322739	-0.465659	-0.887990	-0.812948	0.421095	0.179464	-1.314722	-0.960243	0.115573	0.110792	0.028366	0.010824	0.373490	-0.420210	-1.309702	-1.448680	0.034148	0.198414	-1.073668	-0.028921	0.342556	-0.542885	-0.729963	-0.551549	-0.383194	1.165525	0.115390	-0.373597	-0.030934	-0.642090	-1.087283	-0.736687	0.052562
-2.112351	0.269424	0.369957	0.504521	-0.304891	0.422723	0.500128	-0.811121	0.173479	-0.622492	-1.006199	-1.383365	-0.880638	-0.795474	-0.524781	-0.860234	1.317037	1.098574	0.138778	-0.572045	-0.142682	-0.471661	0.040302	0.797892	0.284854	1.291666	0.210543	0.059984	0.336356	-0.570333	0.670755	1.031047	-0.229733	-0.254297	0.051945	0.503129	1.224310	0.620069	-0.572878	-0.645432	-0.377606	-0.075947	0.320579	0.272562	-0.900544	-2.294826	-0.910096	-0.809606	-0.144630	0.117927	0.390546	-0.455992	0.337274	0.612601	0.980932	0.533623	-0.295640	0.258369	0.705582	1.230743	-0.299377	-0.082393	0.273470	0.405147
-0.328748	-0.914120	-1.093778	-0.186877	-0.195288	0.097836	0.473737	-0.088691	-0.424622	-0.369471	0.272982	-0.759480	-0.264509	-0.186440	0.101533	0.539264	-0.498785	0.046220	-0.386799	-0.881405	-0.730135	0.532832	-0.152879	-0.408747	1.407128	0.409241	-0.102943	-0.512561	-0.114647	0.074693	0.166242	0.300171	1.662972	0.127216	-0.356794	-0.454322	-0.547318	0.209076	-0.245847	0.046986	0.176189	0.375361	0.003894	0.065652	-0.407086	-0.211889	-0.211492	-0.026579	-0.228593	0.445830	-0.566928	-0.920225	-0.128041	0.300030	0.564180	0.182225	-0.315342	-0.587865	-0.833844	-0.313267	-0.067536	1.873445	0.678290	-0.431314
0.030246	0.145954	-0.827267	-0.344081	0.151015	0.271126	-0.220812	-0.633708	-0.062417	0.652571	0.048732	0.219544	-0.428451	0.065707	0.066879	-1.052667	-0.745977	-0.205130	0.307634	-0.416548	-0.311394	0.517996	0.682960	-0.398103	-0.136060	-0.349140	0.216801	-0.249613	0.190111	1.522835	1.258204	0.337209	-1.047870	-0.955046	-0.182694	0.170367	0.136162	0.370980	0.538537	-0.313193	0.502950	0.163031	-0.122290	-0.291253	0.319949	0.144011	-0.196824	-0.095180	0.704165	-0.042116	-0.030287	0.422576	0.972260	0.606256	0.232456	-0.939593	0.680461	-0.196844	0.018419	0.419965	0.185933	0.371549	0.056824	-0.506954
-0.391064	0.195361	-0.364400	-0.217371	0.341295	0.011838	0.101386	0.179787	0.600939	-0.565813	-1.409566	-1.216633	-0.519012	-0.264344	0.408456	1.150253	1.109614	0.067049	-0.469882	-0.309551	1.074075	0.479523	-0.131166	0.491728	-0.039643	0.437343	0.806322	-0.040637	0.604977	0.841774	-0.207679	-0.641286	-0.695257	-0.021772	0.459739	-0.659107	-0.757001	0.659686	0.460267	-0.660337	0.709985	0.623316	0.307950	0.015036	-0.175592	0.460276	1.638556	0.762840	0.475052	-0.079313	-0.202599	0.276725	0.145608	0.817038	0.484233	1.026287	-0.591451	-0.160982	-0.603633	-0.206081	0.046739	-0.048143	-0.156968	-0.352372
-0.017577	0.280099	-0.442544	-0.548304	-0.500316	0.204990	-0.450744	0.308664	0.380152	0.148480	-0.524154	0.161834	-0.399300	-0.011927	-0.229052	-0.276263	-0.438002	0.124558	0.248649	0.349195	-0.018187	-1.294513	-1.025159	-1.190324	0.309681	0.620403	0.233159	-0.363461	-0.962359	-0.616860	0.484883	-0.543838	-0.645145	-0.671091	-0.087552	-0.236387	-0.115473	0.044742	0.348215	-0.147553	-0.224101	-0.982472	0.100371	0.469177	0.624399	-0.117511	0.354649	-0.238231	0.559265	0.474513	0.197955	-0.028845	0.020720	0.120769	0.372107	-0.124046	0.594896	0.377160	-0.318011	-0.751101	-1.075592	-0.366641	-0.707527	-0.884821
0.131131	0.575954	0.751676	0.040233	-0.101117	0.069627	-0.118116	0.286479	0.211937	1.036011	0.509702	-0.353307	-0.759213	-0.197710	-0.020678	0.004120	-0.057325	0.931670	0.317984	0.250108	0.829111	0.006680	-0.349903	-0.234639	0.464686	-0.148532	-0.743896	-0.236544	-0.632133	-1.127622	-0.328370	0.174072	0.077924	-0.457618	-1.073854	-0.502821	-1.580390	-1.072037	-0.350286	0.282726	0.318677	0.362736	0.030629	0.001772	-0.478232	-0.551352	-0.087592	0.044999	0.347742	-0.329380	-0.271554	-0.411671	0.533019	0.744447	0.582123	0.916336	0.210068	0.172502	-0.003299	-0.304222	0.372819	0.075371	1.072364	0.598742
-0.437176	-0.963725	-1.112639	0.041093	-1.596735	-0.039064	0.659275	0.216675	0.063846	-1.974743	-0.930438	0.660536	0.103687	-0.667264	-0.252674	-0.200411	0.448009	0.093095	-0.583071	1.192570	-0.008877	-1.081542	0.134221	0.437640	0.347158	0.594366	-0.428856	0.162019	-0.017954	-0.488840	-0.760331	0.890168	0.871905	2.613747	0.091886	0.051486	-0.187435	-0.389260	-0.963959	0.573497	0.173319	0.300533	-0.289711	-0.029977	-1.396303	-1.026970	-0.845514	0.635240	0.639262	0.484835	-0.557389	0.669396	-1.135527	-1.008404	-0.642726	0.039593	0.253301	0.124597	-0.800731	0.356195	-1.145024	0.072503	-0.176036	0.317778
0.073687	-0.591785	-0.352474	-0.940017	0.152606	1.019081	0.524092	-0.283765	-0.766836	0.825247	0.715288	-0.849301	0.308771	0.456387	0.126766	-0.804277	-0.367531	0.707676	0.739104	-0.261156	-0.625394	-0.144728	-0.291247	0.356585	-0.653700	0.071160	-0.251810	-0.253343	-0.341409	-0.584143	-0.454290	-0.067856	-0.448462	-0.184263	-0.326393	-0.470493	-0.288189	-0.423674	-0.571416	0.014129	-0.016651	-0.098275	0.165447	0.018764	-0.560013	-0.128795	0.250425	-0.231024	0.135335	-0.265111	-0.115992	0.247364	-0.829056	-0.193652	0.675848	-0.330642	0.380385	0.119175	0.434200	0.568449	-0.098546	0.644654	-0.248553	-0.628156
1.204808	0.122702	-0.521195	0.204429	-0.209500	0.397363	0.113832	1.114340	0.164082	-0.645522	-0.113223	0.508163	-0.712471	-0.453961	-0.160359	0.288408	0.690250	-0.292367	-0.325523	-0.353019	-0.200042	-0.540817	-1.043072	0.454673	0.055029	-0.130864	0.068371	-0.454995	0.138110	0.455822	-0.311587	-0.284891	-0.481008	0.166130	0.775597	0.612064	-0.113947	-0.035624	-0.156292	-0.622957	-0.775558	-0.101794	0.220996	0.529664	-0.282268	0.004847	-0.232401	-1.392136	1.651699	0.823606	-0.006193	-0.487304	-0.342967	-0.409937	-0.398286	0.937706	1.742756	-0.210390	-0.617436	-0.235968	-0.036576	0.150006	0.542643	1.232127
-0.065517	-0.096672	0.170707	0.753005	1.446424	1.255210	0.132314	-0.605753	-0.266844	-0.051662	0.033209	0.695751	1.038637	0.496694	-0.545633	-0.671488	0.054734	0.191467	-0.083277	0.333098	0.546756	-0.305358	-1.232144	-0.648840	0.125675	0.636145	0.602234	0.639144	0.425918	0.001435	-0.367829	0.276287	-0.350826	0.538664	0.458050	-0.084242	-0.423566	0.088901	0.172262	0.197385	-0.114778	0.312491	0.556859	0.186960	-0.011622	-0.097743	0.357123	0.113150	-0.237512	0.359471	0.242222	-0.332940	0.793490	1.099956	0.118633	-0.159614	-0.129051	0.149674	-0.286630	0.159559	1.611285	1.245711	0.613168	-0.393862
0.501630	0.073100	0.330768	0.195149	0.238842	0.673430	0.692741	0.592865	0.888759	0.184541	0.031366	0.346332	-0.182990	0.469971	1.260045	1.956902	0.318312	0.778826	-0.144337	-0.069292	-0.401463	0.261852	1.425518	1.221882	0.004355	0.592965	-0.266195	-0.201696	-0.081681	0.325494	0.939576	0.565539	-0.011614	0.219008	-0.429683	0.518720	-0.263468	0.046573	0.118570	0.147697	-0.200160	-0.310009	0.026125	0.315763	0.170762	0.436111	0.018397	0.072435	-0.414523	-0.210410	0.242671	0.485838	0.258156	0.502718	0.034794	-0.614331	0.306950	0.130068	0.721406	0.586118	0.770421	0.369504	-0.035601	-0.265281
0.517046	0.268880	-0.060552	-0.273106	-0.412972	0.169700	-0.271095	0.221759	-0.577556	0.051608	0.180488	0.124213	-0.260675	0.178909	0.349257	-0.256252	-0.957116	-0.251874	0.251049	-0.448509	0.697197	0.344146	-0.823888	-0.784864	-0.477076	-0.046895	-0.615881	-0.613368	0.657746	0.290686	-0.395943	-0.822517	1.010885	0.709405	-0.102995	-0.369329	-0.339338	0.299366	0.300085	0.064166	0.838358	0.120661	-0.314139	-0.158988	-0.222987	0.665503	0.988557	0.758091	0.159559	-0.022999	-0.262134	0.173614	-0.358264	-0.042585	-0.204615	-0.346132	0.561196	-1.031741	-0.337488	-0.274998	-0.360540	-0.297838	-0.215197	0.393332
0.112566	0.234799	-0.010711	-0.135245	-0.857296	-0.520969	-1.770017	-0.443660	-0.126388	-0.132979	-0.162116	-0.112899	-0.233790	-0.156607	-0.851937	-0.419418	0.370455	0.223411	-0.402651	-0.026869	0.634960	0.439405	-0.179057	0.017205	0.038578	0.612683	-0.108223	0.183233	0.712973	-0.027714	-0.853632	-0.334497	-0.810827	-0.635801	-0.937923	-0.772310	0.397733	-0.135090	-0.958777	-0.122033	-0.618884	-0.611565	-0.056360	-0.164118	-0.441324	-0.950657	-0.115832	0.646706	-0.280932	0.252431	0.896878	0.991016	0.597694	-0.087664	0.319506	0.842686	-0.270127	-0.225478	0.397809	-0.188719	0.461187	-0.203088	0.113373	-0.340323
-0.171334	0.720709	1.133011	0.672568	-0.593467	-0.343968	0.529052	-0.468001	-0.804934	-0.913497	-0.500712	-0.679811	-0.892387	1.061546	0.400420	-0.810974	-0.998789	-0.341602	0.170943	-0.059283	-0.736377	-0.174140	-0.402430	-1.897300	-0.901377	-0.050582	0.671146	0.495649	0.092955	-0.492255	-0.700534	-1.382788	-0.788170	-0.421020	0.705140	-0.027731	0.393137	0.634930	0.421748	0.067612	-0.115751	0.509937	1.831675	-0.032691	-0.867085	-0.155892	0.186148	0.437600	0.161709	-0.214522	-0.193300	-0.312795	-0.252316	-0.743603	-0.029759	-0.148791	-0.382760	0.162038	0.363631	0.599101	-0.212773	-0.221725	0.179487	-0.238682
-0.645031	-1.253857	-0.129298	0.001179	-0.567899	0.147545	-0.124381	-0.205285	-0.764027	-1.763391	-1.051282	-0.116691	-0.066029	-0.731543	-0.225232	-0.177585	-0.628987	-0.632953	-0.334315	-0.233975	0.373065	-0.052284	0.796321	0.563263	-0.334313	0.429771	-0.422564	-0.096588	0.069615	-0.755260	0.708667	0.102848	0.157162	-0.300820	-0.179972	0.169691	0.127331	-0.246496	0.222179	0.121840	0.379921	-0.271710	0.335479	1.209556	0.743092	0.362048	0.454750	0.113844	0.109993	0.642360	1.158249	1.486871	0.236216	0.049438	-0.190621	-0.066054	0.062055	0.031301	1.221681	0.603264	-0.558111	0.587473	0.330665	0.086879
-0.699512	-0.418715	-0.203927	0.557491	-1.120082	0.406922	0.323561	-0.064528	-0.330274	-0.668907	0.129774	-0.545454	-0.043557	0.922826	0.634288	-0.063968	-0.728484	-0.388488	-0.911049	0.024933	0.947789	1.009563	1.295756	0.383803	-0.982271	-0.888031	-0.194294	-0.272329	0.439669	1.117901	0.965079	0.334720	-1.695777	-0.552016	0.003439	0.934653	-0.369964	0.050897	-0.013813	0.029954	-0.147548	-0.200595	1.092169	2.088956	0.351908	-0.449949	-1.796400	0.525658	-0.404043	0.019333	-2.363603	-0.970672	-0.844133	0.056434	0.297988	0.450457	-0.754791	-0.762880	-0.480708	0.443917	-0.111008	1.232313	0.658136	-0.459673
-0.167587	-0.205075	-0.055129	0.176966	0.295599	0.228381	0.361236	0.816946	0.339463	0.571386	-0.298449	-0.371195	-0.114311	-0.405065	0.013863	0.094387	-0.233840	-0.395876	0.554262	0.112865	-0.858340	-0.236678	-0.005985	0.061687	-0.734415	-0.060622	1.035362	0.515544	-0.685111	-0.080402	-0.505114	-1.439670	-0.061469	-0.044422	0.033209	-0.152615	-0.258789	0.398526	-0.263764	-0.662003	-0.167306	-0.336610	-0.107399	-0.064935	0.489408	0.740103	-0.134970	-0.759407	-0.150730	0.152065	0.440190	0.495586	1.072805	0.879463	0.248328	0.016542	-0.120136	-0.565580	-0.018971	0.106995	0.346132	1.154404	1.413300	0.655994
0.137969	0.471626	0.389360	1.314847	1.679503	0.400653	-0.467152	0.430668	0.015370	-0.380726	-0.665762	0.619838	1.707347	0.326061	0.235964	-0.530222	0.054527	-0.840800	-0.415690	0.224322	-0.780443	-0.356447	0.778705	0.061307	-0.192737	-0.116145	0.850968	0.148638	0.146083	0.531912	1.236674	-0.400849	0.155829	-0.481316	0.472394	-0.280225	0.150993	0.407721	0.565578	0.148686	0.257589	0.970262	0.429367	-0.123708	-0.217860	0.167812	-0.542020	-1.475595	-0.052524	-0.673389	-0.807148	-0.783286	-0.430783	-0.101250	-0.129117	-0.306252	0.878756	0.221879	0.412031	0.362350	0.835805	0.541978	-0.370781	0.385678
0.391759	0.527989	0.404660	-0.363545	-0.337727	-0.345545	-0.417851	-0.126383	0.039500	0.378696	0.335701	-0.294822	0.091423	0.219235	0.005821	-0.097238	-0.074614	-0.114639	-0.103043	-0.126617	-0.254725	0.077610	-0.226282	-0.106904	0.249367	0.354715	0.088754	0.345259	0.061269	-0.248111	-0.272877	0.250589	0.477059	0.848293	-0.064699	0.302266	0.103080	-0.388725	-0.255867	0.141824	1.507374	1.948616	0.922393	0.197644	-0.056400	-0.211368	0.134673	0.210553	1.345351	1.938178	1.194162	0.600916	-0.233496	-0.501355	-0.139587	0.068436	0.621474	1.276434	1.017497	0.101935	-0.042926	-0.391544	-0.032391	-0.227092
-0.734701	0.540907	-0.166864	-0.002468	0.914187	0.020101	-0.679184	-0.985795	-1.375284	1.045380	0.337037	-0.829846	-0.564919	-0.258294	0.368868	0.064476	-0.420397	1.273197	-0.317994	-0.276097	-0.497002	0.509382	0.993739	-0.345490	-0.294736	0.241023	0.032205	1.402043	0.414062	-0.886476	0.302920	-0.826193	-0.300990	-0.572619	0.309603	-0.024749	1.145108	-0.320066	-0.403456	-0.394145	-0.827063	-1.346566	0.225889	0.210411	0.266023	-0.167263	-0.663513	-0.600899	0.193270	-1.103348	-0.597871	-0.872740	-0.273461	0.062540	-1.100272	0.079958	0.443732	0.330520	-0.919438	-1.170922	0.275074	1.610177	0.422104	-0.152735
-0.605363	-0.878056	-0.357505	0.367739	1.228634	0.016253	-1.217436	-0.066784	-0.599734	0.257370	0.359141	-0.292614	-0.199245	-0.514008	0.503348	-0.720561	-1.023053	-1.961754	0.217276	-1.673497	-0.410486	0.304502	0.894875	-0.553647	0.879480	-0.351388	-0.154038	0.064283	-0.622545	-0.192784	-0.835461	-0.824833	1.549136	-0.085478	-0.815982	1.107027	0.494342	-0.602974	-0.169539	0.051787	-0.565703	-0.185451	0.612918	0.114262	0.207556	-1.060025	-0.134604	-1.045938	-1.172857	-0.314246	1.260640	-0.630965	-1.197479	0.546626	0.807774	-1.183140	-0.204169	-0.460147	0.255964	-0.785360	-0.667589	-0.600926	-0.322255	-0.217063
-0.338215	-0.500329	1.107049	0.624915	0.869932	-0.050102	-0.366048	0.642153	-0.341058	-0.326710	-0.470999	-0.105734	0.590306	0.707638	-1.017521	-0.641817	-0.134094	0.736238	-0.278280	-0.494473	-0.468470	0.298255	-1.008192	-0.723860	0.224088	-0.252747	-0.546602	-0.278745	-1.142426	-0.505847	0.469829	0.420833	-0.403861	-0.325638	1.375294	1.295850	0.397553	-0.075411	-0.576854	-0.227964	-0.246829	-0.188722	0.362756	0.424838	0.253656	-0.003902	-0.235946	-0.710514	-0.483694	-0.329345	0.187914	0.360470	-0.112155	-0.092299	-0.563107	-0.269376	0.402125	-0.759149	1.216313	0.118296	-0.335090	-0.547840	-0.068761	0.928596
-0.112721	0.771829	-0.148519	-0.894660	-0.696394	-0.482681	-0.796109	-0.108775	-0.021995	-0.488452	-0.393124	-0.608560	-0.024918	0.975017	-0.092785	0.037102	-0.533055	-0.349852	-0.805894	-0.636417	1.093455	0.476456	1.050753	0.936947	-0.253067	-0.170217	-0.182526	-0.425556	-0.888711	-1.421334	-0.530745	-0.607932	0.076052	0.057008	0.809763	0.104279	-0.316580	0.049943	-0.154045	-1.917218	0.030191	0.823433	0.266670	-0.364612	-0.739741	0.596196	-0.329408	-1.400112	0.033726	-0.512053	0.096364	1.207544	-1.094438	0.358304	-0.369934	-0.259549	-0.055837	-0.642388	0.020958	0.071285	-0.494947	0.137868	-0.590765	-0.415033
-0.957119	-0.593459	-0.607206	-0.851563	0.145221	0.055162	-1.032550	0.220759	-1.085221	0.327195	0.477351	0.277780	0.115475	-0.195605	-1.570428	-0.270475	-0.700344	-0.218194	-0.011591	0.337990	0.547936	-0.194389	-1.925246	-1.068935	-0.345682	-0.158713	-0.550751	-0.052394	-0.038263	0.290617	0.164430	-0.006744	-0.393665	-0.369504	-0.085424	-0.005596	0.862320	-0.014770	-0.371521	-0.276907	-0.561807	0.498671	1.204358	0.051820	0.122784	0.087024	-0.107929	-0.111290	-0.638983	-0.375209	-0.791988	0.123374	-0.859022	-1.458869	-0.679285	-0.032710	-0.354748	-0.134028	-0.759801	0.432912	0.421969	1.229606	0.066443	0.248925
