-0.049556	0.342031	0.396870	0.822456	0.149921	0.099226	0.093229	-0.142157	-1.115625	0.286060	-0.085746	0.130065	-0.022720	-1.195037	-1.984985	-1.628014	-1.079356	0.041474	-0.301448	-0.477177	0.243982	0.136907	-1.280192	-2.637299	-0.087724	-0.178228	-0.393479	-0.404683	-0.679685	-0.692779	-1.865589	-0.862394	0.299744	-0.210743	0.022517	-1.134227	-1.530417	-1.143760	-1.693688	0.072937	0.257475	-0.037714	0.454238	-0.426778	-2.135116	-1.279042	-0.389021	0.839420	0.062714	-0.393091	-0.296459	-1.016718	-0.670219	0.012446	0.640639	0.264140	-0.837199	-0.490590	-0.046068	0.266258	0.191833	-0.247712	-0.010377	-0.540158
0.448907	0.425425	-0.370624	0.150990	0.470283	0.022968	-0.118195	0.468179	-0.342873	0.776925	-0.779528	-0.048977	-0.000500	-0.412007	-0.666173	-1.332222	-0.316008	0.299820	0.302621	-0.216946	-0.282115	-0.817229	-1.796950	-2.042801	-0.892031	0.433173	0.524909	0.116077	-0.830569	-1.138700	-3.178675	-3.866833	-0.759238	0.244552	0.278211	-0.378930	-1.335768	-0.667332	-2.668925	-2.480642	-0.067967	0.417444	0.689741	-0.108356	-0.666452	-0.761576	-1.459449	-0.431291	0.098017	0.637013	0.421399	0.207667	0.254552	0.016080	0.259883	-0.142129	-0.097068	-0.233903	-0.114293	-0.422895	0.519933	0.689517	0.260101	0.187949
0.223932	-0.921839	-2.471456	-3.135621	-3.129510	-0.648549	-0.538810	0.621062	-0.859800	-1.492018	-1.537995	-1.723877	-0.454630	0.659908	-0.272575	0.286533	-0.082102	-0.276280	-1.315162	-1.343832	0.200138	0.148705	-0.389519	-0.042595	-0.084242	0.187685	-0.227839	-0.392333	0.855678	0.294223	-0.400301	0.003513	0.108837	0.238917	0.307647	-0.468978	0.532430	0.411907	0.500775	0.947501	-0.200080	-0.607762	-0.495784	-0.414872	-0.239998	-0.053185	0.001111	0.210165	0.060963	0.345816	0.314336	1.018200	-0.476427	-1.460180	-0.875982	0.182737	0.415582	0.162445	-0.270507	-0.593070	-1.062508	-1.129355	-0.845703	0.265540
0.339567	-0.839696	-0.889484	-0.384149	0.078844	-0.431873	-0.956467	-0.715331	0.725541	1.155621	0.960095	0.225610	0.165320	-0.142230	0.163961	0.330046	0.903966	2.569128	1.312463	0.928906	0.795975	-0.157012	-0.476383	-0.174352	-1.056677	0.332699	0.300026	0.594706	0.662388	-0.810196	-1.031346	-1.222102	-1.329648	-0.075555	0.142272	-0.121218	-0.731599	-0.446046	-1.514694	-1.002423	-0.194055	-0.016235	1.453770	0.392827	-2.404940	-1.501955	-0.360501	0.392254	-0.956143	-0.091703	0.506814	0.795748	-0.436750	-0.875401	-0.775691	-0.806876	-0.052153	-0.221863	-0.619023	0.562617	1.044930	-0.059183	-1.258270	-0.729602
0.043371	-0.275359	0.151386	0.103010	-1.129109	-1.820408	-5.440756	-2.531480	-0.846357	-0.736525	0.138415	-0.593881	-0.233129	-0.244029	-1.255135	-1.368465	0.343291	0.202942	0.219034	0.101359	0.034853	-0.016475	-0.432397	-0.680632	0.526807	0.550405	0.145714	0.046589	0.630962	-0.463025	-0.149297	-0.143874	0.102412	-0.521792	-0.402923	-0.254435	-0.073747	-0.196416	0.101716	-0.264213	0.389986	-0.176746	0.334295	-0.144233	-0.734326	-0.762630	0.312117	0.750743	0.185782	-0.273394	0.665977	0.177383	0.163985	-0.535090	-0.433495	0.598507	0.426573	0.287297	0.492872	0.632794	0.279596	-0.788477	-0.838173	-0.380955
0.023858	0.431031	-0.041636	-0.080034	-2.017817	-1.009321	0.103554	0.308517	-0.104886	0.570907	-0.048434	-1.443181	-1.990009	-1.085430	0.481276	0.261378	-0.472228	0.057584	-0.430758	-1.977175	-1.543757	-0.430475	0.497800	-0.092815	0.176604	-0.696349	-2.493803	-2.967995	-2.079325	-0.681363	0.567739	0.049898	0.814321	-0.130271	-0.791050	-1.469929	-0.836332	-0.263491	0.257642	-0.372051	0.331894	0.635519	0.081909	0.105172	0.807977	0.694907	-0.008472	-0.024040	-0.109045	-0.522345	-0.378455	-0.113225	0.754290	0.606153	0.574809	-0.366478	0.128101	0.135677	0.820355	0.124276	-0.334355	-0.970452	-0.351884	-0.579923
-0.482557	0.266261	0.134669	0.563125	0.242199	-0.502324	-1.173855	-0.832777	-2.263033	0.215624	0.364045	-0.134819	-0.057823	0.247780	-0.288384	-1.198032	-1.598496	-0.673568	-0.024093	-0.494414	-0.485078	0.379640	-0.399436	-2.308811	-0.191264	-0.105332	0.378368	-0.661285	-0.358646	0.661269	0.215933	-0.874533	0.748265	0.588866	0.358826	0.160884	1.034250	0.970241	-0.172636	0.330135	0.185309	0.594550	-0.317365	-0.001119	0.412056	-1.187544	-2.251699	-0.944600	-0.353777	0.107490	0.186071	0.094969	0.004853	-2.161626	-3.507892	-1.372575	0.187776	0.110819	-0.596729	-0.123631	-0.297869	-0.340864	-0.732410	-1.131914
-2.185599	-1.955578	-0.824108	0.017620	-0.130784	0.206571	-1.072904	-2.563870	-1.844490	-1.167536	-0.633923	-0.217702	0.171107	0.316380	-1.011542	-1.478431	-0.435385	0.390113	0.610429	0.484581	-0.321142	0.374146	0.014273	-1.917275	-0.744167	0.495348	0.869131	0.278207	0.132026	0.346412	1.403509	0.061782	-0.399606	-0.805708	-0.590271	-0.285431	-0.818844	-0.856096	-0.031872	0.087945	0.713177	0.676439	0.560928	0.415837	-0.189127	-0.718333	0.219847	0.493409	-0.446072	-0.157536	-1.007825	-1.246016	0.360249	0.614217	0.018718	0.182934	-1.666937	-1.674680	-1.548535	-0.433979	0.019058	0.325203	0.030515	-1.069427
-1.312880	-1.138483	-0.604790	0.487962	0.312201	-0.277122	-1.302347	-1.257923	-2.075737	-0.051918	-0.123474	0.220904	-0.293534	-1.332751	-1.686797	-1.466290	-0.747183	0.186348	0.504279	-0.576452	-0.365160	-0.611943	-1.736158	-1.997232	-0.504285	-0.170545	0.695156	-0.362249	-0.280870	-0.060029	-0.374494	-0.689977	-1.211556	-0.615097	0.064943	-0.500436	-0.164369	-0.098362	-0.441620	-0.618783	-0.135648	0.400398	0.756384	-0.135270	-0.241155	-0.268009	-0.498067	-0.062908	0.341098	1.125433	0.662197	0.066904	0.593408	-0.270115	-0.806661	-0.978170	-1.729818	-0.772249	-0.195333	0.673004	0.646423	0.130236	-0.178743	-1.894261
0.617303	-0.233037	-2.131167	-0.738512	-0.103838	0.145865	0.095017	0.785254	0.460299	0.381530	-1.103977	-0.649663	-0.167813	-0.331127	-0.428591	-0.118866	0.282281	0.210122	0.272809	-0.281924	0.294902	-0.279269	-1.067712	-0.811483	-0.462269	-0.465725	0.874836	0.636941	0.550697	0.470467	-0.894542	-0.825200	-0.565271	0.373817	0.454690	-0.198572	-0.137451	-0.023772	1.254992	0.331860	0.520906	0.655579	0.260658	-0.357175	-0.575896	-0.029098	1.219533	0.798328	0.425459	-0.562699	-2.156960	-1.186958	0.321079	0.532636	-0.368229	0.410486	-0.053536	-1.967959	-4.686888	-2.546399	0.007265	0.341146	-0.696339	-0.577083
-0.216782	0.572571	-0.051082	-0.711752	-0.874762	-0.574503	-1.434372	-0.638074	-0.887423	0.583438	1.358176	0.224964	-0.121530	-0.329069	0.542100	-0.369092	-1.034828	0.229835	0.798898	-0.155781	-0.584534	-0.244932	0.184676	-1.848580	-1.317432	-0.386537	-0.025347	-0.501170	-1.323311	0.549663	0.950843	-2.258017	-0.616248	-1.407753	-1.322839	-1.261746	-1.115810	0.994397	1.063502	-0.356177	0.176350	-0.487124	-0.177643	-0.114028	-1.217291	0.702800	0.409802	0.321204	0.500101	0.130206	0.049482	0.355556	-0.642137	0.008190	-0.044201	-0.290462	-0.211577	-0.109677	0.382021	0.168443	-0.593215	-0.458680	-1.014011	-1.723240
-0.571208	-0.211425	-0.113315	0.442865	-0.234521	0.216718	0.136176	0.024368	-1.262184	-0.500260	-0.331943	0.304970	0.152180	0.221420	0.212990	-0.498869	-0.122721	-1.028615	-0.961345	0.308580	-0.078586	0.067787	0.168621	-0.708972	-0.283072	-0.242541	0.177278	0.082629	-0.366080	-0.704634	-0.735631	-0.617372	0.258977	1.044136	0.939467	0.737390	-1.737010	-1.955073	-2.451286	-0.724666	-0.319033	-0.458803	-0.094736	-0.014640	-1.674364	-3.187991	-2.984945	-1.368792	-0.367444	0.249810	0.543651	1.057562	0.063084	-0.660524	-0.756499	-0.030291	-0.267625	0.174216	1.142749	0.596546	0.290070	-0.209056	0.464842	1.232166
-1.545722	0.742733	1.082545	-0.491159	-0.090505	0.268281	-0.192636	-2.052065	-0.936775	0.136298	0.629527	-0.369379	-0.391189	-0.931164	-0.285560	-0.711063	0.499035	0.597167	1.012082	0.539017	-0.517769	-1.505295	-0.327320	-0.540907	0.378661	-0.920238	-1.317183	0.259539	-0.528890	-0.257114	-0.170508	-1.116958	0.474077	-1.070108	-0.754992	-0.315808	-0.559819	-0.098371	-0.278987	-0.783425	0.175789	-0.541876	-0.547279	-0.098394	0.058928	1.128696	0.441338	-0.383574	-0.046882	0.445931	0.283768	0.407558	0.338480	1.110827	1.737204	-0.571846	-1.523616	1.250387	1.272337	-0.103774	-0.639215	-0.433573	-0.245746	-2.196067
-0.676215	-0.234872	0.000071	0.748955	0.687199	-0.347283	0.099215	-0.163645	0.029322	-0.732856	-2.090055	-0.240486	-0.455447	-0.224359	-0.084784	0.291918	-0.984035	-2.145360	-1.671909	-0.312749	-0.461216	0.069382	0.979349	0.112189	-1.397185	-2.438329	-1.061524	-0.188128	-0.268271	-0.312374	1.363155	0.320609	-1.790923	-1.630778	-0.408399	0.754211	0.419435	0.003341	0.749833	-0.437009	-1.195567	-2.045024	-1.243738	0.204433	-0.114718	-0.280328	-0.371132	-0.009234	0.672994	-0.127777	-0.493841	0.249665	0.539856	0.977857	0.389519	0.216382	1.206688	0.978750	0.656177	0.619624	0.844798	1.028738	0.967735	1.040557
-0.290511	0.028271	0.507597	-0.326948	0.304502	0.194005	0.309759	-0.047964	-0.080553	-0.179971	-0.349221	-0.172665	0.324016	0.872316	-0.069445	-0.037634	0.052814	0.549875	-0.056344	0.251935	0.274077	0.215668	-0.139208	-0.010419	0.297352	-0.460990	-0.299637	0.030399	-0.210431	-1.921066	-1.755707	0.485479	1.104003	0.207477	-0.271544	-0.093097	-2.426359	-2.445755	-0.792158	0.438834	0.055326	-0.549117	-1.359970	-1.229882	-2.962364	-1.660930	0.363792	0.089145	0.211727	-0.966607	-2.612820	-2.182535	-0.800083	0.053048	0.281412	0.114160	-0.560709	0.229496	-0.037847	0.015169	0.072754	-0.141666	0.325167	0.130208
-0.251531	0.804673	0.525497	0.677679	0.256563	-0.150848	-0.633638	0.197375	-0.951079	-0.886160	-0.844252	0.032770	0.001708	-0.322677	-1.455300	-2.009165	-1.943011	-3.456207	-0.964713	0.295450	0.360996	-0.083985	-1.327853	-3.473242	-1.329020	-2.183967	0.047797	0.715868	0.676759	0.367466	-0.657839	-2.971149	-0.681760	-0.605090	-0.270692	0.044940	0.793545	0.425920	0.325431	0.055850	0.604732	0.183477	-0.328473	-0.299283	-0.115079	-0.246099	0.196019	0.278358	0.546256	0.339786	0.283342	0.639848	0.820122	0.051077	0.544893	0.478756	0.471297	0.032322	-0.574379	-0.385815	-0.155697	0.377923	0.338029	1.064215
0.605213	0.275364	0.003613	1.205726	0.122936	-1.014111	-0.984483	-0.682003	1.101589	-0.152010	-0.321411	0.140578	-0.990411	-1.524514	-0.911638	0.000953	0.735094	-0.083076	0.090766	-0.355160	-0.070736	-0.018742	-0.180432	-0.777799	1.123141	1.086327	0.049992	0.424622	0.237294	-0.645100	-1.318212	-1.379396	-0.525457	0.621050	0.247109	0.448853	-0.442748	-1.020434	-0.645586	-2.655466	-1.565931	-1.854069	-0.989501	0.089736	-1.036670	-1.015801	0.595952	-0.503359	-1.105392	-1.165192	-0.292871	-0.923156	-1.248570	0.043067	0.981268	0.087822	0.074718	-0.034099	0.009842	1.240117	0.774882	0.053057	0.736758	1.054949
-1.085603	-2.362645	-1.654661	-0.629067	0.156372	-0.159943	-0.251885	-1.361032	-0.757640	-1.943006	-1.262023	-0.223060	0.148477	-0.665495	0.761149	-0.437245	0.872867	-0.238086	-0.415022	-0.718827	-0.019613	0.208765	0.145675	0.531932	1.317489	0.536450	-0.219407	0.012010	1.051249	0.075139	-0.263526	1.104575	1.610908	1.197892	0.075430	-0.301197	0.365923	-0.835830	-0.525652	0.642875	0.814617	0.671244	-0.048614	-0.156009	1.346018	0.197999	-0.488518	0.069247	-0.454474	-1.049621	-0.248114	0.144822	0.643666	0.575123	-0.436141	-0.611336	-1.530653	-2.036211	-1.679487	-0.583309	0.469061	-0.304460	-0.908050	-2.379824
-0.658570	0.126345	0.542676	-0.279596	0.010423	0.686537	0.951872	-0.037609	-1.547170	0.231634	-0.089748	-0.731218	0.123599	1.226635	1.351384	-0.204206	-0.702152	0.174011	0.297786	-0.131285	-0.034148	0.035412	0.049699	-1.701840	-2.882181	-0.873730	-0.366681	-0.385024	0.245918	0.238000	-0.279717	-3.930977	-3.071244	-1.130151	-0.575753	-0.260381	0.341620	0.002845	-0.446798	-2.267222	-0.832741	-0.799315	-1.152102	-0.071823	-0.174246	0.179933	0.017166	0.081399	-0.319585	0.052342	-0.422017	-0.081550	-0.108857	-0.292018	-0.189914	-0.366644	-0.431041	0.576313	-0.001255	-0.383381	-0.233091	0.128286	-0.008962	-0.001682
-0.498230	-0.331521	0.087480	0.751482	0.721484	0.462548	0.276247	-0.288935	0.237537	0.217625	0.013830	-0.320701	0.180051	0.732601	-0.199602	-0.588823	0.797280	1.401590	0.347133	0.388630	0.017316	-0.052750	0.433097	0.083845	-0.845759	-0.301168	-0.472438	-0.689620	-1.026953	-1.195444	-0.730849	-1.411975	-1.286918	-2.138268	-1.061597	-0.649739	-2.049445	-0.551026	-0.093553	-1.810052	0.092016	-1.168649	-1.452571	-0.411752	-0.571578	0.145897	0.549667	-0.275504	-0.327613	-1.437892	-1.876139	-1.105214	0.247208	0.987551	0.987463	0.258011	-0.979345	-0.674054	0.572740	0.714586	0.891368	0.153420	0.025466	-0.262846
-0.859351	-0.949786	-0.044308	0.684445	-0.090210	-0.826913	-1.370205	-0.958546	-2.681042	-2.106462	-0.105479	0.678778	0.282240	-0.103751	-0.612785	-1.549502	0.005521	-0.674401	-0.156149	0.447197	0.099383	0.821039	-0.292642	-1.531947	0.626471	0.086360	-0.068398	0.298502	0.468702	0.787010	-0.542452	-0.142929	0.992326	0.343521	-0.125492	-0.561579	-1.656285	-1.043582	-1.290263	0.277197	-0.120963	0.030363	0.190937	-0.144609	-1.725836	-3.009850	-1.690201	-0.393999	-0.747074	0.319439	1.168618	0.620051	-0.269796	0.033660	-0.250547	0.016286	-0.771108	-0.546792	0.141930	0.635452	0.122153	0.216497	0.381645	0.549372
0.161033	-0.679567	-2.511338	-1.639362	-2.811843	-2.191867	-2.631511	-1.309124	0.205739	-0.251665	-1.694768	-2.364751	-1.613418	-0.936524	-1.432440	-0.025237	-0.042793	0.357097	0.055056	-0.532843	-0.155408	-0.124003	-0.247724	-0.136043	-0.234130	-0.293344	0.004417	0.584215	-0.155438	-0.528856	0.718536	-0.181255	-0.287689	0.040395	-0.174968	0.647988	0.191442	-0.662492	0.530974	-0.510701	0.287340	0.315031	0.623949	0.465202	-0.003041	-0.221228	0.434838	-0.117169	0.199238	-0.042965	0.294897	0.598341	-0.111583	-0.520717	0.197483	-0.279905	0.311140	-0.069262	-0.113398	0.501043	-0.029317	-0.487611	-0.609309	0.256518
-0.808519	-0.239847	2.149460	0.835173	1.373258	1.323562	0.578187	-0.317423	-1.977222	-0.795705	1.276979	-0.012849	1.281689	0.732067	-0.264191	-1.703419	-1.441304	-2.030081	0.391093	-0.424969	-0.779070	-0.396297	-0.088313	-0.829384	0.332204	-0.394134	0.123121	-0.742600	-0.550503	0.802664	0.637502	0.635398	1.079455	1.255999	0.209941	-0.081255	-0.366195	0.543732	0.130531	0.451007	0.402847	0.393612	-0.089844	0.624307	-0.063426	1.235850	-0.542001	-0.967288	0.032092	0.406834	1.370892	1.129927	-1.549078	-1.067522	-0.533756	-1.024990	-0.465770	1.190474	2.199100	1.043341	-1.050364	0.101517	0.441285	-1.102732
-1.302568	-0.734227	-0.749970	-0.266006	-0.137524	0.120798	-1.219946	-2.474702	-0.319125	0.230139	0.647250	0.058646	0.187708	0.426998	-1.691995	-1.535211	0.199636	0.718830	0.331854	1.173349	-0.134896	0.122092	0.203901	0.598918	0.888847	0.886588	0.676632	1.189940	0.588382	-0.203358	-0.675179	0.664257	-0.189242	-0.654372	0.143213	0.757294	0.443984	-0.192854	-1.223630	0.393324	-0.669852	-1.198517	-0.625855	-0.545614	0.374675	0.278656	-0.021755	0.823380	-0.197471	-0.776075	-1.662118	-2.528275	-0.420397	1.176238	1.475306	1.074120	-1.140454	-1.191380	-1.578047	-1.613949	-0.801962	0.387577	-0.096533	-1.164549
0.369651	-0.313489	-2.846443	-2.345985	-0.325892	1.306432	1.154610	0.167983	-0.301355	0.304022	-1.645839	-0.312545	0.429787	0.747336	0.642949	-0.028326	-0.564848	-0.843089	-0.994225	0.336698	0.498985	0.062044	0.305003	-0.423177	-0.865866	-1.477203	-0.495776	0.381161	0.654039	0.329339	0.118731	-0.155353	-2.074108	-1.209346	0.200344	-0.259303	0.523730	-0.234933	-0.676166	-0.187531	-1.010968	0.044871	-0.277402	-0.463281	0.134986	0.009710	-0.897208	-0.499006	-0.205561	0.969536	-0.235868	-0.915224	-0.346367	0.176048	-0.483233	-1.533111	0.023401	0.062018	-1.545269	-1.864136	-0.135572	1.107118	0.166825	-0.603041
0.474498	0.556857	-1.095400	-1.891529	-2.663801	-1.348028	-0.126467	0.613920	0.505675	-0.744298	-1.732454	-1.281598	-0.410052	-0.390041	0.831742	1.196403	-0.127368	-0.523661	-0.454834	0.367915	0.191251	-0.909007	-0.353568	-0.152846	0.419991	0.358127	-0.159682	0.502162	-0.052317	0.391695	0.430116	-0.235752	-0.082823	0.596193	-0.674829	-0.645008	-0.559996	0.517141	1.101261	-0.224378	1.054537	1.015054	-0.016838	-0.424203	-0.964138	0.234103	0.347338	0.419546	1.112062	2.399522	1.728067	1.052324	-0.582180	-0.775175	-0.398371	-0.050431	0.470013	1.706565	0.119328	0.441436	0.141821	-0.246257	-1.204420	-0.986034
0.612289	-1.052639	-1.465523	-0.476430	0.899747	0.847513	0.153127	-0.769250	-0.745768	-0.684956	-0.102379	0.227952	1.388098	1.549137	0.413061	-0.738706	0.177510	-0.206045	-0.627276	0.047093	-0.399274	0.314748	0.105797	-0.042673	0.197035	-0.224778	0.297483	0.088716	-0.129898	-0.566557	0.331226	1.410019	-0.784253	-1.099506	0.843357	0.578886	-0.291906	-0.616640	0.385186	1.170330	-1.851946	-1.456894	0.414741	1.221256	-0.677357	-1.119986	0.365172	-0.139465	-3.561696	-0.976944	-0.555297	-0.120080	-1.421076	-0.274237	0.169553	-1.261689	-0.242257	-0.344426	-0.127926	0.187504	-0.536417	0.174535	-0.595879	-0.134551
0.043201	0.135230	0.042710	-0.319205	-0.404956	-0.616934	-0.203466	-0.879717	-1.241872	-0.642840	0.486874	0.674125	0.573973	-0.281334	-0.512857	-0.287511	-0.982143	-0.511328	0.343404	1.039453	0.304278	0.346862	-0.153664	-0.808348	-0.683614	-0.669879	0.246982	0.567436	-0.151197	0.721335	1.077470	0.773315	0.700703	0.377580	0.288128	-0.195985	-0.675197	0.098142	0.557299	0.802734	-0.270354	0.210381	0.241952	0.262841	-1.972424	-1.482183	-0.698000	-0.391759	-0.972164	-0.162307	-0.591992	-1.345347	-3.602909	-1.908983	-1.726473	-0.316033	-0.232231	-0.313890	-0.553389	-0.561508	-1.697426	-0.858835	-1.263184	-1.062548
0.270040	1.156632	-0.013939	-0.882714	-2.111918	-0.879249	0.233921	0.509082	0.722449	0.459620	-0.661100	-1.410797	-2.373479	-1.190871	-0.319067	0.432704	-1.544506	-0.547677	-0.054595	-0.070549	0.648484	0.691574	0.391047	-1.364220	-2.403790	-1.951800	-1.159965	-0.003276	0.405299	0.090786	-0.152940	-2.542089	-0.375461	0.145041	-0.296675	0.552025	0.230532	0.094740	0.441691	-0.912486	0.761296	0.277443	-0.587926	-0.027467	-0.652630	-0.175196	0.282686	-0.131560	-0.424982	-0.871039	-1.257742	-0.541241	0.266396	-0.152924	0.446771	-0.669369	0.132009	0.229208	-0.073092	-0.066169	-0.439835	0.048977	0.689863	0.090162
0.083922	-0.218926	0.281225	0.147509	-0.565881	0.472192	-0.081961	-0.967772	0.322888	-0.091274	0.381520	0.521667	-0.411614	-0.702131	-2.379299	-0.829150	0.057946	0.134859	0.267116	0.493558	-0.052659	-0.074198	-1.364596	-1.101830	0.451256	0.615462	-0.171251	-0.272991	-0.058604	-0.020162	-1.042391	0.063378	0.108409	-0.003225	0.048438	-0.449394	-0.899080	0.152447	0.158860	0.375479	-0.003435	0.557702	0.220432	-0.685256	-1.201473	-0.159471	1.210370	0.455816	0.125918	-0.214898	-2.205342	-3.688383	-2.348441	0.197558	1.473202	0.947958	0.234165	-0.314318	-1.694529	-1.443647	-1.534056	-0.045906	0.636723	-0.143513
-0.546283	0.163464	-1.098088	0.238128	0.158713	-1.659490	-3.651107	-2.549057	0.353866	0.797636	-0.435958	0.265522	0.158126	-0.468361	-0.128783	-0.908561	0.346488	0.326819	0.240186	0.168874	0.195370	0.052833	0.072296	-0.761820	0.353417	-0.253115	0.199555	0.200689	0.195490	0.336024	-0.011686	-0.063623	-0.871512	-1.010787	-0.155793	0.346455	-0.194360	0.809174	0.212898	-0.298598	-0.464589	0.164226	0.474804	0.339688	-0.295970	-0.058785	-0.007520	-0.001290	-0.500842	0.249274	-0.042529	-1.928772	-0.886019	-0.886323	-1.086790	-0.594654	0.611494	0.472931	-0.607173	-0.273732	-0.465142	-2.233806	-2.224235	-1.106942
0.728352	0.228086	-0.000078	0.571729	0.167547	0.343813	0.301307	0.714187	0.597921	0.562178	0.330585	0.458246	-0.282697	-0.641460	-0.261961	-0.408420	0.055886	0.064955	-0.230782	-1.303676	-0.813574	-0.932912	-1.015086	-1.550738	0.141458	-0.138085	-0.211993	-0.972628	-1.428514	-0.441982	0.010765	-1.746268	-2.625818	-1.744237	0.362736	-0.382136	-0.527672	0.349163	0.294720	-2.763408	-3.110307	-0.994801	0.864831	0.816037	0.159072	0.407942	0.029633	-1.795979	-0.711836	0.309621	1.227853	1.272306	-0.070317	-0.146716	-0.248207	-1.269052	-0.276361	-0.336037	-0.397518	-0.200930	-0.132787	0.278116	0.063026	0.021738
-0.548350	0.405195	0.026979	-0.458093	-1.156884	-0.723785	-1.482538	-1.469691	-0.691400	0.455147	0.218871	0.031154	0.359453	0.250896	0.157269	-0.093028	0.111997	-0.315118	-1.397522	0.265625	0.816648	1.252733	1.240727	0.543318	-0.183277	-0.480080	-1.281718	-0.671058	0.384451	0.487342	-0.312015	-0.262704	-0.012604	-0.329120	-1.615859	-2.118315	-0.450924	-0.896230	-1.385666	-0.535900	0.768679	1.005047	-0.132877	-0.240703	-0.735999	-1.753774	-0.167413	0.559801	0.181023	-0.208484	-1.260110	-0.979278	-0.663846	-1.346157	-0.564681	0.550870	-0.698794	0.329737	-0.381097	0.111078	-0.096367	-0.861171	-0.602452	-0.867623
0.335950	-0.468914	-0.076788	-0.434791	-1.248150	-1.673764	-3.215290	-0.793485	1.405134	0.519265	-0.026695	-0.454134	0.000155	-0.119703	-1.141978	0.639380	0.456541	1.134480	0.256993	-0.084145	0.274349	0.242294	-0.274147	0.327089	0.417767	0.584399	-1.350402	-1.171374	-0.119096	-0.729421	-0.053717	0.426397	0.671341	0.515086	-1.742988	-1.482620	-0.434396	-0.845123	-0.193329	0.601157	0.440848	-0.186455	-1.027693	-0.758080	-0.722474	-1.127028	0.359973	0.661260	-0.534897	-0.450114	0.193290	0.392800	0.248415	-1.296615	-1.260274	-0.699337	0.082731	0.164350	0.533149	0.751546	0.654683	-0.991877	-0.891230	-0.103660
-1.180630	-0.020245	0.755808	0.006384	-0.979494	-0.237404	-0.262093	-0.437202	-1.335012	-0.265121	-0.492177	-0.058184	-0.084307	-0.457981	-0.982772	-0.497860	0.471579	-0.075526	-0.347005	-0.472972	-0.181901	0.281750	-0.502959	0.216004	0.996469	0.534679	0.038088	-0.772977	-0.848586	0.491513	0.872986	0.936512	-0.226273	-0.502455	-0.083038	-0.069338	-0.248353	0.250921	-0.359298	-0.166781	-1.071835	-0.219609	0.726426	-0.128595	-1.827943	-0.944615	-0.261950	-0.126799	-0.757598	0.862739	0.911362	-1.502878	-4.529125	-1.709219	-0.290594	0.503222	-1.259967	0.351200	0.332884	-0.092649	-1.454037	-1.284477	-0.080111	-0.282751
0.175858	1.058928	1.300018	0.487709	0.406706	-0.758413	-1.583221	-1.234880	-0.023440	0.282931	-0.174847	0.582804	0.315012	-0.253956	-1.026465	-0.727330	0.054285	-0.762918	-2.138023	-0.384453	0.353398	0.443411	-0.049771	-1.748315	0.539513	0.026405	-1.477206	-0.713557	-0.255316	0.279399	0.759169	-0.784329	-1.129553	-0.929806	-0.621702	-0.571450	0.516960	0.394327	0.316150	-0.246294	-1.350961	-1.052667	0.049516	-0.343890	-0.810470	-0.320766	0.119968	0.416022	-0.226475	1.121570	1.726027	0.036366	-0.975636	-1.300997	-0.630035	0.502169	0.646679	1.546102	0.619565	-0.576094	0.387061	-0.894376	-0.847613	-0.076258
1.618877	2.807088	2.833656	1.408608	1.194676	0.342138	0.119940	0.715899	1.186014	2.751777	3.021123	1.174703	1.186667	-0.195715	-0.844003	-1.032686	0.280605	1.590931	1.564991	0.969073	0.320050	-0.332314	-0.754642	-0.874987	0.369018	0.522605	0.587238	0.064669	-0.756961	-0.493203	0.279466	0.400062	-0.433083	0.139252	-0.105324	-0.300681	0.445950	0.748049	0.796423	-0.069170	-0.469104	-0.110591	-0.295272	-0.358185	-0.123932	-0.158499	0.686193	0.410483	-0.333978	-0.555898	-0.115992	-0.137147	-0.766905	-0.169331	-0.943267	-0.304897	-0.135912	0.213708	-0.510714	0.307269	0.168324	0.479199	-0.653354	-1.069642
-1.088489	0.476900	0.328952	0.125642	0.054789	0.184889	0.361239	0.175229	-1.926836	-0.826345	-0.724218	0.060382	-0.343662	-0.335556	-0.385719	-1.260221	-2.136033	-1.594115	-0.474503	-0.605460	0.093338	-0.043996	-1.577068	-3.728520	-2.164550	-1.660479	-0.777542	-0.937541	-0.563710	-0.107735	-1.139373	-2.683308	-0.894465	-0.793278	0.005599	-0.270277	0.179451	0.451812	-0.346566	-0.028922	-0.104019	-0.456771	0.369010	0.287137	-0.311152	-0.084751	-0.006690	0.390527	0.219682	0.384583	0.093966	-0.322897	0.346217	0.062431	0.033618	-0.157958	-0.763403	0.260601	0.108868	-0.270298	0.260666	0.137502	0.139633	-0.490371
-0.523466	-1.282310	-2.878629	-1.749808	-0.851191	0.683153	-0.468015	-1.173250	0.711170	-0.777724	-3.834688	-1.010710	-0.211626	0.041457	-0.181391	0.191815	0.104804	-1.064850	-2.125339	-1.068257	-0.276714	-0.381123	-0.188377	0.248062	0.354702	0.292362	-0.150109	-0.042838	0.175967	0.062817	0.004769	0.034891	0.425432	0.161066	-0.040417	-0.099731	0.157193	0.013849	0.148442	1.118159	-0.440051	-0.352022	0.225137	-0.141913	-0.010935	0.413850	-0.735440	0.147712	-0.385660	0.645165	1.051383	-0.397255	-0.818616	0.589902	-0.286377	-0.336483	-0.467732	-1.269682	-0.978246	-1.216277	-0.535042	1.084793	-0.054502	-0.164492
-0.538690	-0.111442	0.853147	0.379203	-0.697313	0.219240	-0.167534	-0.359234	-1.210412	-0.514409	1.702596	0.712732	-0.830442	-0.891116	-0.810298	-1.300424	-0.029699	-0.010006	0.373161	0.198742	-0.828239	-0.863538	-0.073880	-0.581900	0.711292	0.904988	0.285417	0.123901	0.401899	-0.184570	0.065426	0.645907	1.924869	0.587021	-0.588809	-0.430404	-0.722129	-0.570602	0.139629	0.575075	1.037852	0.089316	-1.469975	-1.139192	-2.021647	-2.326400	-0.996645	-0.377469	1.230060	-0.276712	-1.431742	-1.434333	-0.768465	0.194765	-0.561111	-0.174884	0.689827	0.251650	-0.515052	-0.173896	-1.502731	0.149324	0.785777	0.422902
-0.675233	-0.411115	-0.319676	-0.373011	-0.961942	-0.180396	0.054362	-0.171729	-0.142461	-0.436301	-0.143801	-0.645356	-1.206886	-0.200192	0.720155	0.034288	1.105817	0.696294	0.376916	0.200802	-0.380359	0.000440	0.433623	1.405606	0.887927	0.164006	-0.870273	-1.171376	-1.177672	0.040264	0.816211	0.150328	-0.279122	-0.698283	-1.413913	-2.702337	-2.064855	0.165657	0.088281	-1.249947	-1.382946	-0.203146	-1.743770	-2.165032	-1.525873	-0.469055	-0.611386	-1.634173	0.217493	0.854843	0.289249	-1.275294	-0.465029	0.646082	0.342947	0.112936	-0.485590	0.055831	0.625938	0.886576	0.740098	0.344910	0.391224	0.329203
0.270938	-0.337955	0.765561	0.856350	0.028050	0.097071	0.218831	0.038407	0.439924	0.177789	0.809198	0.487212	0.061019	-0.302288	-0.709697	0.141588	0.285986	-0.274681	-0.618232	-0.638002	-0.529007	-0.190202	-0.290066	-0.730660	0.101074	0.136504	0.002171	0.145719	0.150656	0.306014	-0.696441	-0.116526	-0.641166	-0.096423	0.296638	0.029980	-0.282122	-0.025849	-0.416686	-0.850634	-0.947795	-1.355387	-0.908570	-1.288509	-0.639530	-0.564692	0.100437	0.179174	-0.559675	-1.149549	-2.784369	-4.577530	-1.644001	-0.736586	-0.198246	0.060593	-0.082159	-0.546835	-0.715847	-0.641868	-0.104789	-0.279173	0.312154	-0.367325
0.508927	-0.546300	-0.679165	-0.859167	-0.524233	0.173453	1.905574	2.052674	1.871356	-0.501303	-0.672948	0.408496	-0.102441	0.938947	2.597202	2.423228	1.759090	0.021394	-0.864702	-0.162400	0.059079	0.055566	0.702058	3.544092	0.845899	-1.055940	-0.879011	-0.254224	0.251439	0.069597	0.111767	2.087417	1.363997	0.178767	-0.198282	0.764439	0.332768	-0.404632	0.557431	1.255512	-0.042606	-0.517636	-0.259737	0.823998	0.737719	-0.593872	0.178987	-0.363273	-1.032560	-0.214332	0.161403	0.689534	0.044284	-0.076604	-0.210207	-0.232552	-0.786737	-0.252903	0.024426	-0.544402	0.108509	0.227010	0.577802	0.942219
0.169194	-0.113638	-0.277035	0.021050	-0.016677	-0.234984	-0.596256	0.316939	-0.089284	0.004201	-0.088316	-0.020957	-0.393100	-0.221373	-0.390462	0.111488	-0.237698	-0.245630	0.124500	-0.402504	-0.116340	-0.915105	-1.793155	-1.577262	-0.743107	-0.243575	0.064629	-0.007748	0.214693	-0.721683	-2.661294	-3.745659	-1.101217	-0.396745	-0.629897	-1.099014	-0.554185	-0.199031	-1.659134	-2.384507	-0.500736	-0.469941	-0.540077	-0.950359	-0.758602	-1.174788	-0.661449	-0.328170	0.254766	0.795476	0.267404	-0.358561	0.287777	-0.823235	-0.306539	-0.144419	0.121853	-0.116913	-0.222341	-0.188976	1.000677	0.073723	0.602343	0.527464
-0.158624	0.395602	-0.150380	-1.000333	-0.590414	0.301598	-0.201863	-1.057326	0.398209	1.275343	0.991996	0.050738	0.178178	-0.095556	-1.007239	-0.649789	0.289128	0.183581	-0.114010	-0.042609	0.655204	0.953681	1.151657	-0.250941	-0.877553	-1.130856	0.386093	-0.087279	0.039935	-0.031001	-0.255673	-0.744842	-1.401264	-1.363053	0.172378	0.263760	-0.157679	-0.059126	-0.296859	-0.917734	-0.985872	-0.240745	0.353382	0.023272	-0.762629	-0.127831	0.170305	0.020094	-1.206438	-1.509060	-2.348242	-2.666804	-0.797050	0.748580	0.361958	0.191671	-1.374025	-1.123552	-1.463368	-1.943634	-1.098046	-0.320902	-0.119308	-0.658596
-1.107187	-2.317731	-3.005365	-3.339256	-3.319500	-0.661779	0.146839	0.367323	-0.487818	-1.207147	-2.203773	-2.582600	-1.501607	-0.132261	0.417449	1.327902	-0.264565	0.074850	-0.595459	-0.891835	-0.512659	-0.319976	-0.342624	0.649727	-0.705867	0.261070	-0.086239	-0.294384	-0.066419	0.128171	-0.271328	0.170737	-0.202545	0.333273	0.336033	0.014972	-0.255008	-0.080528	-0.111165	0.325473	-0.076088	0.357887	0.334285	-0.114565	-0.148061	0.320518	-0.032230	-0.229299	0.586834	0.730117	0.222902	-0.471569	-0.332225	0.424879	0.455497	0.333370	-0.362729	-0.681369	-0.991234	-1.326400	-0.710161	0.166920	0.320349	-0.075096
-0.581036	-0.630624	-0.603894	-1.107880	-0.270103	-0.539269	0.985478	0.177562	-0.368278	0.281379	-0.280103	0.745168	0.647505	-0.219861	0.866340	0.253939	-1.137082	-0.002964	-0.807255	-0.773829	0.430112	0.066521	-0.024464	-1.057512	-1.402896	-0.994746	-1.307508	-1.134107	-0.555692	0.721443	0.617205	-0.528255	-0.039700	-0.749478	0.467763	-0.419966	-0.163469	0.933697	1.018339	0.464292	-0.814084	-0.890905	-0.029327	0.146035	-0.397371	1.480181	1.100356	0.275997	-1.091504	-0.765410	-1.371423	-0.348940	-0.851466	-0.984544	0.249260	-0.661506	-1.712058	-1.220342	-0.155927	0.329707	-0.193749	-1.577822	-0.931130	-2.068570
-0.172493	-0.363476	0.268204	0.655146	-0.494418	-0.701626	-0.538754	0.387968	-2.459456	-1.913101	-0.659215	0.348588	-0.063732	-0.342462	-0.948542	-0.500011	-2.377433	-1.280937	0.266918	0.221255	0.003919	-0.075942	-2.444214	-3.680412	-0.491519	-0.306023	0.146097	0.326723	-0.095705	-0.160073	-2.036046	-2.842491	0.330180	0.478266	0.030478	-0.064461	-0.250289	-0.205070	-0.075996	-0.491589	-0.184695	-0.019164	-0.575323	-0.512992	-0.681910	-0.336539	0.585839	-0.266243	-0.181900	0.018816	-0.232890	-0.373543	0.072742	-0.272170	-0.091942	-0.236697	-0.256320	-0.076985	0.599734	0.372620	0.169009	0.108464	0.095105	0.408534
0.290286	1.024371	-0.215353	1.011843	-0.170861	0.327033	-0.184058	-0.370442	1.014881	-0.351377	-2.850006	-0.279079	-0.245373	-0.034154	-0.436084	0.459463	-0.467388	-1.447170	-2.578187	0.305262	0.085804	0.353692	0.202344	0.386118	0.938531	0.000697	-0.315276	0.580455	0.014981	0.042240	0.672023	1.329832	-0.503017	-0.564834	-0.280741	0.381246	0.490396	-1.020052	-0.713959	0.233882	-0.631747	-1.458092	-1.218104	-0.458020	-0.196712	-1.105897	-0.100522	1.071127	-0.474514	-0.327729	-0.845094	-2.982837	-2.200814	0.138481	-0.656881	0.512411	0.262184	0.241953	-0.388059	-1.091820	-0.495683	0.760128	0.136749	0.448274
0.439911	-0.238563	-1.212188	-0.451385	-0.763208	-1.104485	-0.546251	0.043868	-0.383443	0.104042	-1.060608	-1.345893	-1.724789	-1.022890	0.193203	0.445051	-0.868891	-0.592874	-1.033934	-2.573846	-1.193569	-0.260318	0.561856	-0.358476	-0.390036	-0.650630	-1.054603	-1.660271	-1.419635	-0.939666	-0.516964	-1.281126	-0.138390	-0.366709	-0.038714	-0.436021	-0.752718	-0.266603	-0.538812	-1.172733	-0.748591	0.117820	0.657533	0.345002	0.909086	0.581890	-0.326029	-0.568803	0.145217	0.034611	-0.351746	-0.172134	0.877219	0.473881	0.034066	0.188048	0.899267	-0.577831	-0.792685	-0.945260	0.237834	-0.848899	-0.065548	0.481569
0.335384	0.738093	0.786269	0.195295	-0.903228	-1.237900	-0.555929	0.691035	0.549768	0.399740	0.455529	-0.532602	-0.113441	0.844934	1.027237	1.366586	-1.531882	-1.736667	-0.699135	0.651970	0.382376	0.631434	1.720914	0.478284	-2.322260	-2.978503	-1.257659	1.056153	0.785195	-0.449234	-0.658722	-2.795644	-1.380404	0.610522	-0.908099	0.628364	0.811731	-0.763463	-0.501822	-1.603855	0.493922	1.230007	-1.555265	-0.121641	0.062257	0.073888	0.092333	-0.617334	-0.716172	-1.558745	-0.953226	0.332567	0.899646	0.329608	0.072803	-0.306128	-0.067831	-0.112490	0.840044	0.456908	-0.473694	-0.600814	-0.276342	0.452445
0.311280	0.941860	-0.983215	0.277620	0.503004	0.261805	-0.791450	-0.750202	0.554190	1.161156	-0.888674	0.419546	0.446716	0.122461	-0.578173	-0.687101	-0.492038	-1.369055	-1.826737	-0.644273	-0.016708	0.529851	-0.376131	-2.276249	-0.937945	-1.706115	-0.647156	-0.943660	0.427829	0.215886	-1.761067	-2.524896	0.123382	-0.805791	-0.568177	-0.207877	0.126365	-0.372401	-0.834649	-0.459508	1.884908	0.874343	0.392659	0.472939	0.507560	-0.428601	-0.504182	0.882106	1.413057	-0.099454	-1.067345	-0.059379	0.558069	-0.263971	0.087431	0.999215	0.211269	-0.714552	-1.714933	-0.476699	0.442962	0.541927	0.048207	0.041758
-0.496803	0.039534	0.202690	-0.213858	0.671879	0.198517	-0.085615	-0.683464	-0.840533	0.564412	0.407258	0.234506	0.093942	-0.087163	-0.770533	-0.756593	-0.499327	0.423856	0.533414	0.461936	0.063145	-0.732825	-1.086268	-2.271668	-1.502753	-0.886871	-0.602769	-0.354038	-0.371323	-0.889110	-1.144026	-3.413608	-2.342496	-2.394396	-1.419381	-1.215477	-0.286569	0.307027	-0.994961	-1.796011	-0.490240	-0.607382	-0.521564	-0.502232	0.337269	0.859131	-0.418977	-0.410934	0.102530	-0.250537	-0.257865	-0.167411	1.211763	0.701632	0.186022	0.219375	0.139943	-0.343162	-0.393829	-0.300078	0.305488	-0.012192	-0.426555	-0.343057
0.230540	0.371409	0.303280	-1.329366	-0.604910	-0.174100	0.797363	0.441123	0.198719	0.564004	0.288882	0.167109	0.624653	-0.637312	0.768384	-0.128523	0.221073	0.825752	-0.434095	-0.419629	0.557824	-0.702967	-0.454878	-0.399208	-0.006151	-0.319153	-0.922332	-0.621244	-0.336612	-0.197750	0.104339	0.347899	-0.280984	0.420312	0.491289	0.711323	0.711077	0.096270	-0.501620	0.347043	-0.027655	-0.026171	0.864821	0.820236	-0.180319	-1.408629	-1.742037	-0.206667	-0.807011	-0.649037	0.325995	0.750467	-0.966769	-2.969926	-3.130500	-1.564895	-0.529066	-0.480242	-0.256674	-1.067009	-0.761149	-2.185553	-2.470577	-0.709162
0.383012	-0.700675	-0.892712	-0.326212	0.507635	0.887779	0.298390	0.494649	0.298347	-0.863541	-1.574335	-0.444143	-0.580385	-0.426064	-0.040139	-0.007536	-0.376455	-2.224002	-2.100677	-1.071400	-0.328535	-0.491692	0.726110	0.661713	-0.718253	-3.777541	-1.876302	-0.774472	-0.377774	-0.326871	0.795269	0.987095	-0.286096	-2.364447	-0.933294	-0.505580	0.067518	-0.379166	0.509231	0.835542	0.189400	-0.601110	-0.730996	0.098575	0.822577	-0.375760	-0.543829	0.070644	0.246304	-0.484383	-0.719159	-0.194939	0.216614	0.008724	0.077602	-0.428062	0.468634	-0.910747	0.073620	-0.024161	-0.119133	0.112828	0.321109	-0.502326
-0.484169	-2.878929	-1.120350	1.123786	0.130695	-0.688819	0.565257	1.112068	-1.285179	-1.802394	-0.141872	0.743694	-0.820129	-0.579058	1.469173	1.091245	0.203288	-0.718015	0.374597	0.009857	-0.302058	-0.085048	0.236624	-0.539312	0.596668	0.056595	0.713693	0.838961	0.246938	-0.077507	-2.113385	-1.715941	0.847060	1.269442	-0.710779	0.105175	-0.147014	-0.261009	-0.535972	-0.871517	0.147250	-0.554741	-2.135417	-0.266133	0.685002	-0.400837	-0.032656	-0.005539	-0.243914	0.181577	-0.578992	0.822856	1.360429	-0.079700	-0.797438	-0.154925	-1.356006	-1.891921	-1.193062	0.258791	1.028241	0.642478	0.764984	-0.016097
0.035647	-1.129292	-1.276078	-1.084531	-0.231910	0.244314	0.764578	0.529998	0.316323	-0.589228	0.465996	0.754006	0.086807	0.358709	0.481174	0.706242	-0.214577	-0.287401	0.756697	0.838346	0.411959	-0.139209	-0.084213	0.410232	-1.382015	-0.524766	0.721294	0.462732	-0.098217	-0.140547	-0.542362	-0.255081	-1.000797	-0.263835	0.655351	0.286851	-1.852279	-0.604994	-1.908143	-0.861182	0.051830	-0.095599	0.234325	0.032529	-2.952531	-2.060877	-0.491163	-0.585045	-0.279525	0.434878	0.108425	-0.831625	-2.025776	-1.052168	0.063434	0.080392	-0.969104	-0.958538	-0.382307	-0.709412	-1.196701	-0.984822	-0.109533	0.020726
-0.011599	-1.210005	0.108452	1.061069	0.387457	-1.424533	-1.509640	-1.061467	-0.334722	-1.470116	-0.413389	0.793661	-0.088891	-0.428230	0.488449	-0.017932	0.105506	-0.400980	0.557046	0.762423	-0.167797	-0.062961	1.126408	0.216177	-0.970061	-0.348400	0.182520	0.363117	-0.105126	-0.051295	1.622594	0.119661	-1.013644	-0.464715	0.081498	0.642632	0.047180	-0.560587	1.737954	0.047519	0.105168	-0.146322	0.162615	0.275569	1.252834	0.641213	0.502671	-0.377243	-1.341887	-0.684825	0.392235	0.579487	0.987715	0.533370	-1.577544	-1.992167	-0.609717	-0.259005	-0.018151	1.115786	0.081414	-1.233287	-2.832640	-2.645360
-0.016719	-0.646157	0.344794	0.592213	1.378035	1.090981	-0.133477	-0.051165	0.337544	0.230888	-1.185384	-1.401503	-0.423183	0.458400	0.415291	0.650933	-0.651968	-1.397923	-1.087248	-1.749512	-1.421838	-0.072949	0.597093	0.014643	-0.374021	-1.249982	-1.869803	-2.805078	-1.300282	-0.215651	0.091793	-0.316488	-0.269665	-1.342591	-2.369603	-1.774550	-0.137580	0.172102	0.262685	-0.257116	0.703367	-0.400234	-1.703017	-1.255691	0.448343	1.035644	-0.174712	0.432861	0.975639	-0.137611	-0.758186	-0.548759	-0.087521	-0.415242	-0.644489	0.130502	0.355526	-0.315104	0.465915	0.259025	0.233100	-0.276044	-0.572068	-0.215289
-0.978106	-0.563902	-1.084020	-0.169521	-0.011386	-0.098768	-0.901705	-0.848917	-1.145109	-0.034862	-0.325224	-0.170340	-0.256077	0.251581	-0.204805	-0.536939	-0.575868	-0.169589	0.362487	-0.167679	0.034261	0.019680	-1.026345	-2.436737	-1.679766	-1.003856	-0.434891	-0.163695	0.030520	0.069661	-1.589594	-4.382585	-0.913120	-0.434080	-0.401772	-0.469759	-0.604040	-0.135941	-1.468341	-2.118551	0.005631	0.125605	0.046205	-0.325382	-0.268836	0.068606	-0.300336	-0.361717	0.212483	0.211739	-0.303005	0.165503	0.937880	0.278512	0.096611	-0.213363	-0.201930	-0.930562	-0.504148	0.039394	0.667177	0.205892	-0.105345	0.021202
-0.622243	-0.142352	0.555617	-0.167289	0.379964	0.452178	0.524548	-0.206105	-1.732653	-0.872904	-0.449463	0.170542	0.481892	-0.129347	-0.270281	-1.060047	-1.614937	-1.263698	-0.448426	0.127574	-0.009594	-0.295176	-0.927710	-2.164810	-1.407436	-0.874286	0.290896	0.748824	0.473014	0.449873	-1.363546	-2.720401	-1.910579	-0.916453	-0.166497	0.612159	0.984454	0.604966	-1.959724	-1.347306	-0.595243	-0.450778	-1.027015	-0.665591	-0.492405	-0.587927	-1.653832	-0.386131	0.287027	1.041620	0.456391	-0.287318	-0.887804	-1.280960	-0.396915	0.134429	0.316202	0.743181	0.544481	-0.263159	-0.387263	0.229035	0.801068	-0.034800
-0.064906	0.133465	-0.491337	-2.691969	-3.007129	-0.892461	-0.819483	-0.543116	0.545316	-0.641626	-1.424143	-1.267494	-1.119188	-0.320245	0.300534	0.403756	0.794319	0.111257	-0.437270	-0.742264	-0.021070	0.172721	0.430088	1.045498	-0.167282	0.055021	0.222439	0.620266	0.689139	0.825095	0.281432	-0.503053	-0.758029	-0.949625	-0.268233	-0.212295	0.640371	0.529794	-0.816018	-2.226046	0.266160	0.759684	-0.047097	-0.698148	-0.773971	-0.783169	-0.142115	-0.595975	0.434500	0.711675	-0.048078	-1.076745	-1.291122	-0.629515	0.186485	-0.001400	-0.342675	0.774288	0.426751	-0.678089	-1.012285	-0.460910	0.063663	-1.158072
0.965687	0.917677	-0.262890	-0.790942	0.254143	0.232558	0.588879	0.255924	0.209938	0.987897	0.176411	-0.519063	0.549322	0.784769	1.481257	-0.020484	-0.338874	-0.304782	-0.158263	-0.389437	0.512919	-0.360951	-0.892370	-1.119090	-2.109096	-1.184441	-0.457133	-0.232846	-0.515480	-0.397168	-1.015815	-2.583996	-2.816226	-0.954990	-0.162934	-0.409058	-0.499830	-0.206854	-2.680977	-3.048205	-0.651867	-0.180612	-0.316609	-0.472205	-0.301070	-0.570595	-1.052569	-0.731298	-0.447785	0.208547	-0.031747	0.051664	0.828849	-0.666273	-0.763427	-0.455602	-0.284566	0.042016	-0.287339	-0.447035	1.136581	0.001241	-0.306572	-0.648743
-0.862497	-4.073554	-2.360396	0.138350	0.752944	0.362717	-0.312883	-0.702874	0.174597	-1.038380	-2.110542	0.021028	0.296027	-0.216021	0.047968	1.251692	0.688090	0.115278	-0.379865	-0.341813	-0.005092	-0.198467	-0.776557	0.516056	0.783872	0.769510	0.885899	0.105364	0.156793	0.400386	-1.338690	0.189533	-1.084224	-0.411163	0.334623	-0.237976	-0.792800	0.159219	-0.493254	-0.672808	-1.696333	-0.551902	0.122235	-0.434948	-0.702375	-0.713961	-0.263285	-0.859856	-0.648174	0.131894	0.313794	-1.190352	0.046888	0.228462	0.358647	-0.266176	-0.823075	-2.531172	-1.014934	0.418114	0.814400	0.377562	0.250532	-0.306703
0.226601	-0.513260	-0.320112	-0.451995	-1.519617	-0.464736	0.751131	0.742011	0.027968	0.210828	0.198246	0.329585	-0.667715	-0.176934	0.324140	0.083794	0.286435	-0.286633	1.040462	0.124942	-0.394949	-1.863762	-0.803802	-0.196440	-0.227472	-0.307023	0.397169	0.293893	-0.228961	-1.089629	-1.356973	-0.346276	-0.521356	0.758136	0.683547	0.309086	0.425468	0.669261	-0.596198	-0.951726	-1.449679	-0.390477	0.356964	0.254150	1.004732	1.615685	0.413856	-0.846127	-2.605692	-3.492488	-0.716844	-0.490242	-0.017496	0.341629	-0.141845	-0.653147	-0.691548	-1.453008	0.097209	-0.450340	-0.482544	-0.667154	0.003241	0.152901
-0.028130	0.122769	-0.857423	-2.289662	-2.034600	0.193235	0.071986	0.053676	0.048003	-0.115812	-0.264977	-0.579917	-1.234193	-0.336353	-0.547258	0.111869	0.146580	0.183760	0.671546	-0.079686	0.036118	-0.150937	0.041035	0.185327	0.019145	-0.019079	0.617048	0.216641	0.478218	-0.162094	-0.026557	-0.239053	0.078484	-1.028659	-0.755827	-0.271854	0.303394	-0.513348	-1.561819	-0.523834	-0.272787	-0.539595	-1.303019	-1.244221	-0.330445	-1.101305	-0.548562	-1.039358	-0.087647	-0.852599	-1.204913	-2.399692	-0.530431	-0.254781	-0.228092	0.119666	0.591319	-0.374563	-0.813212	-2.831256	-1.350671	-0.032868	0.364653	0.555821
-0.158917	0.063086	1.219348	0.287930	-0.048713	-0.152561	-0.257441	0.262810	-0.599240	-0.161961	-0.395773	-0.416876	0.180917	0.040449	0.317218	0.419632	-1.086594	-0.096698	-0.104331	0.156755	-0.209505	-0.114808	0.962138	0.911196	-0.407184	0.274685	0.559147	0.082879	-0.270773	-0.718225	0.148757	0.654444	-0.060505	0.755899	0.281642	-0.315859	0.374179	0.289586	0.477541	-0.341526	-0.614471	-0.193330	-1.373862	-1.984486	-1.559191	-0.283134	0.126152	-0.333824	-1.060450	-1.960725	-2.966791	-3.529491	-3.042401	-1.105344	-0.269917	-0.008870	0.429088	-0.431806	0.420190	-0.153107	-1.375593	-0.938425	0.127595	0.050655
0.197995	0.894680	-0.354061	-1.762622	-3.183840	-0.660236	0.061210	-0.207857	-0.802153	-0.378443	-0.795066	-0.987993	-1.886493	-1.233552	-0.840154	-0.016645	-0.917751	-1.001258	-0.335391	-0.030201	-0.191726	-0.026751	-0.136808	-1.437226	0.017540	-0.103863	-0.192423	0.176027	-0.191495	0.495919	-0.045785	-0.692644	0.578136	0.130536	0.573527	-0.475393	-0.261541	0.395183	0.009259	0.382795	0.229198	0.329031	0.379199	-0.459117	0.024855	0.370020	0.321200	-0.138284	-0.532225	-0.196204	-1.077050	-1.528240	-0.288041	0.328405	0.904637	0.187964	-0.107030	-0.003708	-0.922000	-2.427801	-1.823865	-0.656017	-0.139046	-0.399587
-0.185254	-0.905290	0.160644	0.298647	-0.330149	0.293550	0.523653	0.277301	-0.899954	-0.768205	0.045045	0.685463	-0.106911	0.811336	0.269988	0.244333	-0.453063	0.008151	-0.713627	-0.398646	-0.805257	0.421671	0.659349	-0.140136	-0.916143	0.937762	0.312815	-1.469702	-0.832108	-0.270277	-0.032059	-0.228400	-0.274361	-0.451551	-0.576983	-2.425040	-1.549138	0.212403	0.902458	0.442929	0.130952	-0.351478	-0.635791	-1.988233	-2.246449	-0.896576	0.536505	0.817489	0.437482	0.488697	-1.067225	-2.057615	-2.508897	-1.016032	-0.009814	0.471488	-0.000115	0.089324	-0.181012	-0.359237	-1.464005	-1.404684	-0.193095	-0.042660
-0.385303	-0.990576	-0.478562	-0.727593	0.067579	-0.281925	-0.087068	0.197766	-2.086429	-1.861997	-1.050714	-0.516980	-0.200286	-0.256786	-2.313382	-1.670070	-0.518019	-0.783514	0.568956	0.406465	0.133855	-0.554022	-1.559327	-1.489462	-0.274299	0.016629	0.256370	0.284922	-0.571751	-0.406345	-0.824518	-0.902057	0.860583	0.488879	0.072484	0.037282	0.038890	0.552961	1.425263	1.299838	-0.835136	-1.390723	-0.843891	0.099164	0.838276	1.756357	1.401002	0.272593	0.148309	-0.709710	0.375946	0.939656	0.738935	1.012677	0.795142	0.989648	1.202742	0.093065	0.392288	0.179037	-0.102501	0.500120	0.402604	1.505546
-0.386232	-0.855583	-2.297576	-1.243138	-1.796713	-0.788630	-0.543880	-0.353607	0.516886	0.407776	-1.129755	-1.724818	-1.826359	-1.057916	0.202955	1.062610	0.343938	0.445446	-0.645345	-1.474160	-1.288432	-1.881045	-1.231115	0.420951	0.431189	-0.188739	-0.170522	-0.413318	-0.478153	-0.392986	-0.932649	-0.259962	-0.311792	-0.378172	-0.079797	-0.664396	-0.185609	-0.046974	-0.810008	-0.866202	-0.241202	0.656858	0.987542	0.607467	0.978539	1.037989	-0.330205	-0.171359	0.020734	0.122529	0.352267	0.887371	0.708421	0.154982	0.007099	-0.685827	-0.838837	-0.919045	-0.490166	0.096921	-0.186918	0.142275	-0.425556	-0.743219
0.233228	0.645669	0.196580	-0.348437	-1.223013	-0.420556	0.466701	0.676530	0.002660	-0.299096	-0.393841	-0.423430	-1.172997	-0.288291	-0.343376	-0.123124	-0.642673	0.101383	-0.282601	0.168737	0.378218	-0.318589	-0.539725	-1.194314	-0.106395	0.124205	-0.657327	0.267893	0.013756	-1.821294	-2.605766	-1.430880	0.216515	1.305825	0.430149	0.692576	-0.649116	-2.014864	-1.985385	-0.518948	-0.019158	0.255676	0.191874	0.382141	-1.396600	-2.270412	-1.233757	-0.395803	-0.295439	-1.427192	-0.253343	-0.245093	-0.428293	-0.058688	0.330860	0.195826	-0.105046	0.332954	1.048508	0.320062	-0.622644	-0.521605	0.441940	0.826237
0.407766	-0.564040	-0.549107	-0.285471	0.616947	0.269227	-0.181202	-0.163243	0.000059	-0.709301	-0.952348	-0.393867	0.036289	0.591654	-0.611405	0.050374	0.325162	0.667809	0.141178	-0.849089	0.371653	-0.354765	-2.567798	-1.961188	0.043731	0.611903	-0.455458	-1.024368	-0.123606	-0.892635	-4.619195	-4.330011	0.204170	0.380934	0.368900	-0.203997	-0.140918	0.497163	-1.413686	-1.011198	-0.379074	-0.480663	0.201586	-0.003004	-0.168967	0.628737	0.504554	0.349413	-0.221730	-0.491444	-0.090010	0.030592	0.395452	-0.284320	-0.232660	-0.164001	-0.110087	-0.499784	0.022776	0.279699	0.286269	-0.169539	-0.209099	-0.189707
0.327867	-0.433932	0.087549	-1.143446	-0.880553	1.061919	0.760461	0.368388	-2.115553	-0.812635	0.151564	-0.449397	-0.523643	0.741941	-0.655527	-1.270198	-1.681156	-0.660487	0.221954	-0.321580	-0.540846	0.161955	-0.479661	-1.433186	0.313290	0.656039	0.365118	-0.904099	-0.887769	-0.928442	-0.321576	0.435075	0.911701	0.647049	0.631967	-0.254667	0.258940	0.235644	0.238756	1.178653	0.194455	0.054468	0.075294	0.116404	1.102374	0.651703	0.328326	0.124787	0.604562	-0.072430	-0.506286	-1.065833	-1.763189	-2.375470	-0.540915	0.057992	1.233003	0.077366	-0.850139	-1.117803	-1.821330	-0.466154	0.484583	0.611888
-0.043221	-0.108399	-0.629812	-0.769419	-0.896325	0.254531	0.143960	0.108131	-0.174061	-0.191479	-0.122214	-0.283146	-0.365889	0.207385	0.367977	0.370552	-0.106760	-0.024528	-0.244646	-0.090073	-0.450304	0.524768	0.121143	0.328939	-0.153510	0.488586	0.345668	-0.466025	-0.496833	-0.006512	-0.859669	-0.264108	0.301404	0.391542	0.104433	-1.034225	-0.750685	-0.189396	-1.665384	-0.184006	0.305973	0.430317	-0.654939	-2.088962	-1.777163	-1.519667	-1.448932	-0.408420	0.626924	0.149384	-0.056813	-2.137325	-2.957782	-2.037985	-0.996170	-0.137614	-0.183036	-0.222003	0.030334	-1.083253	-1.298983	-1.615349	-0.507248	-0.261288
0.088312	0.087320	-1.743364	-2.726778	-3.880891	-2.489043	-1.126571	-0.070465	0.379179	-0.038546	-0.352471	-2.254570	-2.709416	-1.898396	-0.589692	0.127897	0.505906	0.109420	0.271798	-0.506365	-0.612801	-1.147039	-0.393869	0.337535	0.103093	-0.268652	-0.487205	0.439193	0.350651	-0.375825	0.232951	-0.774389	0.348781	0.135863	-0.667921	-0.132292	-0.081913	-0.394296	-0.201337	-0.755501	0.019890	0.434829	-0.009101	0.047301	0.557117	0.069615	-0.374032	-0.497466	-0.203675	-0.133698	-0.442688	0.694576	0.909899	0.301908	0.416182	0.186948	0.314850	0.260940	-0.418698	-0.750124	-0.583955	-0.750996	-0.070850	0.042215
-0.128495	-1.124380	-0.593133	-0.466626	-0.707504	0.297747	1.588590	1.186621	-0.400933	-0.024759	-0.616060	-0.803007	-1.732315	0.131070	0.173161	0.652231	1.206066	0.989459	-0.104522	-0.233835	-0.344396	-0.407031	-0.380320	1.493896	0.132149	-0.149423	-0.940452	-0.899455	-0.980434	-1.237665	-1.977698	-0.578326	-0.400162	-0.854769	-0.752617	-0.814694	-1.174993	-1.120830	-1.598397	-1.072671	0.633157	0.193098	-0.477311	-0.467218	-0.183671	-0.592808	-0.192911	0.599150	1.291585	0.367051	-0.618698	-0.191418	0.916040	0.189832	1.086908	1.345715	0.633342	0.055105	0.586030	0.602969	0.829376	0.006961	0.581672	1.111953
-0.468691	0.161436	0.045641	-1.045090	0.344029	1.191710	0.156951	-0.574579	-0.345079	0.765602	0.219093	-0.637481	0.424060	0.130641	-0.473352	-1.025454	0.655628	0.937396	-0.390442	-0.949350	-0.299834	0.474745	0.338998	0.811279	0.359039	0.754530	0.140053	-0.978133	-0.614852	0.400393	0.222963	1.147618	-0.009932	-0.379396	-0.011196	-0.267751	-1.510782	-0.852377	-1.212096	0.156136	0.001064	0.499573	0.572373	-0.548911	-3.419313	-3.536198	-1.829481	-0.782674	0.226489	0.568461	-0.033941	-2.246852	-3.373129	-0.690959	-0.207224	-0.028972	-0.006881	0.591779	0.192801	-0.489341	-0.362449	0.586832	-0.080619	-0.290049
-1.031844	-0.417001	-0.505081	-0.276978	0.990434	1.336508	-0.001964	-1.652567	-2.741084	-0.854324	-1.183364	-0.632205	0.349965	0.687124	0.276912	-1.526282	-1.362108	0.094229	1.091075	0.389520	-0.247627	-0.260396	-0.638877	-3.038366	-1.379480	0.597754	0.414703	-0.080805	-0.568373	-0.744868	-1.393205	-2.376396	0.945454	-0.034611	-0.045670	-0.375936	-0.249801	-0.454904	-0.373971	1.054288	0.883714	0.066263	0.803254	0.792408	0.890324	0.053155	0.178169	0.859722	0.139728	-1.069272	-0.314345	0.210387	0.836252	0.205121	-0.961562	-0.620235	-0.418268	-0.516622	0.045870	0.254120	0.204993	0.090212	-1.024821	-1.531585
0.259474	-0.332338	-0.032073	0.614622	0.296952	0.005621	-0.527050	-0.567209	0.488297	-0.025276	0.308302	0.502866	-0.231685	-0.270183	-1.079833	-0.317648	0.529080	-0.812235	-0.555623	0.006128	0.111142	0.592227	0.374617	0.555241	-0.079259	-1.111372	-1.126965	-1.185100	0.479004	1.233409	0.512669	0.365782	-0.679302	-2.494473	-2.781003	-1.993471	-0.346665	0.870054	0.225258	-0.426507	0.343675	-1.452326	-2.268542	-1.042670	-0.078740	0.219437	0.224130	0.513652	0.668647	-0.581559	-2.286054	-1.973236	-0.980031	-0.161296	-0.184466	1.260861	0.571638	-0.767620	-0.729975	0.218757	0.534428	-0.339313	-0.526139	0.432806
-0.784363	-1.025269	-0.188874	0.385864	0.474597	-0.179948	-0.339895	-0.469664	-0.094503	0.079866	0.233915	0.371053	-0.190691	-0.198004	-0.816891	-0.295628	0.525170	0.406898	-0.167137	-0.602639	-0.327779	0.272714	0.422659	-0.156026	0.587079	0.109549	-0.183813	-0.409817	0.339305	0.521515	0.944658	-0.256853	-0.178736	-1.156915	-0.437860	-0.186616	0.556340	0.837294	0.174292	-1.029593	-1.089968	-2.098340	-1.322031	-0.645872	0.217965	0.662236	-0.039906	-0.384593	-1.678937	-2.828885	-2.991778	-2.786995	-1.035803	-0.071632	0.280550	0.569022	-1.085080	-2.483157	-1.082171	-0.526721	-0.154078	-0.634813	0.115093	0.257087
-0.188444	-2.670031	-2.075469	-0.453382	0.272212	0.359582	-0.781157	-0.715214	0.327738	-2.513022	-4.286875	-0.957247	0.530349	-0.011091	-0.499814	0.618139	-0.254418	-1.403561	-1.235954	0.185715	0.947104	0.581059	0.231332	-0.220605	-0.672225	-0.741576	-0.647912	-0.347097	0.245687	0.294907	0.161505	-0.336420	-0.093149	-0.760367	-0.643898	-0.830582	0.035624	0.011402	0.203838	0.180026	1.327390	-0.158742	0.030739	0.107579	-0.070494	0.410664	0.640798	0.762357	-0.043189	-0.163642	0.329811	1.072644	-0.508400	0.176570	0.247631	0.137603	-0.372379	-1.060222	0.327557	0.774117	0.241966	0.139908	-0.824320	-1.103293
0.036029	0.067901	-0.988254	-1.987212	-3.514587	-2.196304	-1.008175	-0.612399	-0.612285	-0.699565	-0.594542	0.383409	-0.209878	-0.713693	0.256721	0.473842	-0.132045	-0.281152	-0.114518	0.451656	-0.154948	0.202535	0.879973	1.329398	-0.582136	0.108607	-0.061393	0.538408	-0.545589	-0.762482	-0.477483	0.509330	-0.224515	0.173301	0.476286	0.527226	0.238332	-0.447658	-0.967266	0.318364	-0.551311	0.254183	0.566106	-0.114285	-1.241721	-0.961034	0.175520	0.004443	-0.325560	0.230749	0.548831	-0.670160	-2.244166	-1.654472	-0.002716	0.215788	0.100840	0.498668	0.033759	-1.139702	-2.687463	-2.183943	-0.628881	-0.056359
-0.022379	0.279653	-0.338209	-0.513632	-1.306843	0.058765	0.118409	0.242880	-0.531196	-0.314992	0.279736	0.409628	0.047594	-0.116728	-0.327728	0.178766	-0.281708	-0.763221	-0.232916	0.436633	0.382483	0.664823	-0.172290	-0.644389	-0.313460	-0.149802	-0.033187	-0.069839	-0.213817	0.255612	-1.240053	-0.706363	0.246099	0.657779	0.059274	-1.242939	-2.238364	-0.289099	-0.717275	0.055097	0.128291	0.553284	0.071618	-0.671630	-3.647218	-2.419331	-0.851444	-0.137284	-0.205115	0.242573	-0.163701	-1.563522	-2.531880	-1.598346	0.230572	0.026496	-0.277345	0.311695	-0.368026	-0.987119	-1.686151	-0.633363	0.442281	0.287144
0.957837	-0.462530	-0.304145	-1.148220	-2.542358	-1.265517	-0.338838	0.927812	0.597943	-0.269682	0.294214	-0.463842	-2.033508	-2.584204	-1.380109	0.553765	-0.019695	-0.168322	-0.002703	0.034259	-0.105265	-0.692354	-1.527601	0.027976	-0.029910	-0.235873	-0.052132	-0.030616	-0.291512	-0.293016	-1.101216	-0.007449	0.213624	0.463680	0.001573	-0.456612	-0.499285	0.346724	-0.617807	-0.051291	-0.602683	-0.623155	-0.363347	-1.107228	-1.382786	-1.400102	-0.269897	-0.291161	-0.027501	0.471612	0.532179	-0.851455	-1.556810	-1.502426	-0.713220	-0.200150	0.231566	-0.105502	0.209505	-0.656133	-0.294080	-0.064225	0.392995	0.153629
-0.841674	-3.169772	-3.080147	-0.704883	0.549426	-0.071799	-0.231475	-0.033091	-0.491997	-2.354427	-3.001972	-0.458514	0.377076	-0.219430	0.483210	0.694930	-0.774039	-1.084841	-1.254400	-0.152236	-0.027994	0.285706	0.487141	-0.363255	-1.366088	-0.677822	0.182489	0.351590	0.010652	0.049841	0.438706	0.057423	0.025425	-0.109885	0.375513	0.238002	-0.880845	-0.509574	0.187612	0.856848	0.976872	0.561929	0.366866	0.072330	-1.183342	-0.328888	-0.032929	0.186557	-0.272357	-0.199277	-0.516750	0.535389	-0.005604	0.627007	0.456312	-0.748639	-1.162307	-2.103033	-1.400067	0.421731	0.210538	0.465889	-0.268534	-1.042768
-0.736140	0.341810	-1.888614	-3.500330	-2.214576	0.146304	-0.177920	-0.197906	-0.126871	0.752000	-0.094044	-1.937759	-1.315907	-0.412201	-1.534254	-1.509534	0.017311	-0.122406	0.499486	-0.876778	-0.613688	-0.400022	-0.016567	0.309391	0.050031	-0.404383	0.690352	-0.090144	0.965386	0.851358	1.283158	1.296818	-0.729737	-0.679511	-0.161379	0.565729	1.369097	0.573131	0.550553	0.067406	-0.585239	-0.333520	0.430315	-0.114822	0.133345	0.310497	-0.733793	-0.464281	-0.027269	0.072660	-0.574960	-1.332302	-0.359773	1.091204	0.519670	0.190961	0.112186	0.063941	-1.097018	-1.599372	-0.583180	1.399532	1.122022	0.661407
0.461078	-0.629473	-0.956135	-0.436409	-0.069449	-0.251191	-1.069025	-0.964995	-0.910969	-0.688413	-1.340946	-0.224618	1.483483	1.260164	0.931297	0.035361	0.248978	-0.424711	-1.023679	-1.501829	0.563351	1.165845	0.131825	-0.125202	0.333805	0.383688	-0.005891	-1.266450	0.111143	0.619958	-0.097684	-0.332513	-0.358489	0.203569	0.686564	0.639550	0.248039	-0.119477	-1.646869	-1.227422	-0.041435	0.133573	0.379019	0.789728	0.822550	-0.496457	-1.938574	-1.537813	-0.330137	-0.312640	0.556409	-0.043623	-1.422088	-2.438452	-2.748655	-0.775920	1.271784	0.131902	0.548574	0.510195	-0.051407	-0.943645	-1.328884	0.265551
0.052839	-1.210064	-0.967082	0.811306	1.388061	0.062442	0.062183	0.159408	1.046913	-0.301279	-2.224999	0.386029	0.158886	-0.758188	-0.649970	0.680984	0.670400	0.169216	-0.425107	-0.427474	0.148243	0.008196	-0.734997	-0.644149	0.295908	0.325930	0.585611	-0.391519	-0.295343	0.024391	-0.794448	-0.887522	-0.338190	-0.251189	0.457234	-0.320979	-0.862238	0.918666	1.192687	-0.438025	-0.804537	0.828781	-0.366273	-0.517945	-0.572692	1.016868	1.145876	-0.779569	-1.724744	-1.048801	-2.518384	-2.346949	-1.358563	-0.368364	0.688131	-0.496960	-1.198987	-2.351743	-1.978407	-1.395340	-0.342286	-0.495201	0.755084	0.038265
-0.425886	-0.496501	-0.250323	0.187831	0.267497	0.184601	-0.311503	-0.551090	-1.702244	-0.495642	-0.061993	0.087663	-0.259048	0.510627	-0.325791	-1.254734	-0.229939	0.412408	0.214214	-0.347935	-0.071014	-0.116051	-1.242731	-2.534638	-0.223326	0.762613	-0.055919	-0.302642	-0.297675	-1.263875	-3.422512	-3.084739	-0.125150	0.449600	0.184377	-0.187991	-0.415044	-0.650664	-2.265886	-1.589845	-0.300742	0.434633	0.217861	0.072775	-0.147648	-0.794736	-0.756210	-1.104638	-0.598248	-0.250667	-0.161809	-0.102665	0.288523	-0.525188	-0.425910	-0.798850	-0.164282	-0.724152	-0.185519	0.004007	0.477760	-0.195979	0.076338	0.338336
-0.026695	0.084448	-1.018815	-1.374960	-1.284429	-0.381417	-0.112739	0.240105	-0.660021	-0.162638	0.429331	-0.208281	-0.556545	-0.261959	0.294954	-0.538534	0.696768	0.115885	0.366777	0.482393	-0.543098	-1.260506	-0.456426	0.559469	-0.156941	-0.161161	0.270514	0.934078	0.043030	-0.516895	-1.911248	-2.315991	-0.314947	0.108965	-0.171088	0.837314	1.629309	-0.064558	-2.014868	-1.599098	0.270798	0.159360	-0.104330	0.543932	1.510364	-0.522358	-2.396934	-0.782379	0.968331	0.005590	0.663738	1.513415	1.140362	-1.102243	-2.337484	-0.116269	-0.117267	-0.162684	-0.409815	-0.184938	0.125568	0.190089	-0.317781	0.849844
-0.551052	-0.044302	0.147186	0.028350	-0.276677	0.511042	-0.020484	-0.184507	-0.901666	0.111935	0.073505	-0.049791	-0.549548	0.283259	-0.022112	-0.252429	-0.919344	-0.879958	-0.490565	-0.655277	-0.013472	0.242104	0.718142	-1.586359	-2.387921	-1.197111	0.048268	-0.197399	0.294760	0.194909	-0.834958	-3.672105	-3.622311	-1.794582	-0.247223	-0.176205	0.831748	0.524646	-0.886401	-2.643922	-1.043059	-0.640305	-0.271383	-0.365033	-0.157504	0.026141	-0.476447	-0.376699	-0.048987	0.206269	0.254507	-0.825274	-0.534490	0.106092	-0.003319	0.066562	-0.671541	0.169310	0.413597	-0.542444	-0.404852	0.364557	0.085030	-0.288533
-0.262104	-0.018517	0.027609	-0.488914	-3.109376	-2.412264	-0.488604	0.321028	-0.891751	-0.314545	0.344683	-0.048054	-1.465581	-2.236250	0.225555	0.272472	-0.620104	0.062154	0.031429	-1.135137	-0.415004	-0.603953	0.242376	-0.423988	0.412206	0.236953	-0.557974	-0.675008	-0.476641	-1.054236	0.071949	-0.228618	1.109928	0.518524	0.156640	-0.117891	-0.938139	-0.632996	0.556310	0.137374	0.386176	-0.126495	-0.177095	-0.106068	-0.902374	-1.069855	0.351088	0.098123	-0.098105	-0.564942	0.331231	0.336589	-1.289480	-1.348413	-0.187788	-0.432342	0.062324	0.128825	0.316229	0.487349	-1.652235	-2.353041	-0.055300	-0.020023
0.010241	0.295111	0.384799	0.246666	0.321175	0.237438	0.208368	0.475786	0.075343	0.857421	0.275119	-0.438879	0.007464	-0.169235	0.202060	0.090127	-0.104472	0.118856	0.281367	-0.479962	-0.553615	-0.832365	0.372457	0.314985	0.853538	0.063509	-0.018104	-0.133287	-0.389563	-0.005961	1.244311	0.805000	0.334099	-0.025312	-0.160944	0.248208	0.292765	0.004013	0.348258	-0.555630	-2.140526	-1.027770	-1.061813	0.169566	0.857605	-0.354146	-0.851189	-2.333434	-4.011428	-3.096917	-2.179689	-1.459907	-0.657506	0.457428	-0.874175	-2.673511	-0.403029	-0.669538	-0.200004	-0.218015	0.107708	0.350717	0.122403	-0.663718
0.641020	0.369697	-0.318005	-1.844574	-4.002200	-0.753004	0.583839	0.411251	-0.039483	-0.011598	-0.329737	-1.500816	-2.358050	-1.317723	-0.712417	-0.594398	-0.093203	-0.585708	-0.670170	-0.312341	-0.973164	-1.498346	-0.224120	0.298175	0.398624	0.064123	0.555042	0.128165	-0.602829	-0.761636	0.159827	1.472487	-0.041851	-0.129465	0.681777	0.734021	0.027825	-0.135583	0.353077	0.929110	-0.017326	0.288486	0.969641	0.536655	0.365446	0.370886	0.008835	0.355677	-0.293213	-0.399962	0.015169	0.093359	-1.156913	-0.618293	-0.116849	-0.361791	0.284350	0.379634	0.166145	-1.211836	-2.533104	-1.162862	-0.377282	0.076120
0.871028	0.424831	0.267910	0.603219	-0.205639	-0.750386	-1.404404	-0.328284	-0.118567	0.318787	0.534464	-0.349759	-0.964426	-0.510568	-0.836720	-0.254873	-1.060798	0.088078	0.863968	-0.897323	-0.402668	-0.161696	-0.657883	-2.079965	-1.216802	0.083896	0.870069	-0.121245	-0.108068	-0.917431	-0.770766	-3.566297	-0.818254	-0.727511	-0.133934	-0.460069	0.315772	-0.227581	0.032356	-1.901684	-0.585464	-0.832239	-0.515378	-0.235454	0.541165	-0.261246	0.661389	0.210989	-0.787154	-1.828131	-0.755142	-0.401554	1.021260	0.008524	-0.804238	-0.546632	0.734935	-0.551628	-0.298411	0.375266	0.496450	-0.339756	-0.267422	0.345505
-0.828700	-0.335394	0.041867	-0.295579	-1.206730	0.424200	1.105016	-0.835777	-1.904116	-0.747787	0.223646	0.103700	-0.326196	-0.141332	0.060770	-1.160961	-0.291409	0.524936	-0.386775	-0.628254	-0.026671	0.268602	0.544735	-0.439753	-0.173771	-0.141261	-0.484892	-0.180593	-0.494183	-0.331230	-0.456029	-0.336790	-0.186123	-0.800047	1.047658	0.986897	0.303545	-0.180558	-1.001014	0.193024	-1.870772	-0.950497	0.293321	1.169359	0.082320	0.668884	-0.012926	-0.814754	-2.221100	-0.908050	-1.266497	-1.048393	-1.960512	-0.383507	0.049924	-1.121927	-1.661360	-0.348560	1.153362	0.626792	-1.203989	-0.119304	0.087722	-0.816979
0.006349	-0.298491	0.325540	0.648929	-0.190948	-0.975241	-1.010282	-0.590742	0.085282	-0.446504	-0.318123	0.382230	-0.152340	-0.399192	-0.519664	0.496779	0.090421	-1.392752	-0.586507	0.321545	0.394954	-0.029481	0.189536	-0.095721	-1.150426	-3.740549	-0.587309	0.463624	0.139737	0.233411	-0.110523	-0.797817	-2.482080	-1.682986	0.431527	0.928319	0.576189	-0.022197	-0.289948	-1.400442	-2.469970	-1.047674	-0.654449	0.129249	1.153473	0.174107	-0.489032	-2.034097	-0.535309	-1.031296	-1.016777	-0.400494	1.257544	0.767088	-0.323476	-0.196771	0.211763	-0.565539	0.016706	0.143905	0.418120	-0.042439	0.087708	0.610357
0.380810	-0.576725	-0.571035	-0.058227	-0.965569	-1.969354	-2.568737	-0.441042	0.403262	0.325123	0.618251	0.986809	-0.135245	-1.194227	-1.865509	0.227893	0.424791	-0.546876	-0.142260	1.180312	0.424464	-0.178416	-0.604351	0.392449	-0.702937	-1.766177	-0.867006	-0.004803	-0.067455	-0.583513	0.489909	0.856015	-1.700637	-0.617075	-0.367818	0.529735	0.397965	-0.413647	-0.541053	-0.051649	-0.942547	-0.021545	0.524550	1.042657	1.073025	-0.230146	0.263978	0.123004	0.366060	0.108783	0.085351	0.011721	-0.707158	-1.960650	-1.308809	0.433504	1.205973	0.120439	-0.162992	-0.697983	-0.721092	-1.669712	-0.989172	0.109451
-0.591449	0.316697	-0.277688	0.077268	-0.376216	-0.170732	-0.251207	-0.817360	-1.404387	-0.179755	-0.368881	0.481058	-0.121827	-0.315817	0.005282	-1.821810	-1.295724	-0.135250	-0.466112	-0.012432	0.554904	-0.414868	-2.404937	-4.671061	-0.330594	0.188488	0.090508	0.379252	0.935094	1.053494	-0.918176	-3.190973	-0.741859	-0.189760	0.007078	-0.075248	0.664193	0.654938	-0.481107	-0.174209	-0.004265	0.212208	0.228998	-0.177930	0.395773	-0.434782	-0.624702	0.158919	0.018208	0.526642	0.103903	-0.504726	0.474028	-0.158592	-0.781792	-0.402263	-0.963845	-0.350176	-0.675084	-0.195972	0.299245	0.096842	-0.234302	-1.140899
