-0.181382	-0.095823	0.302395	-0.499017	0.381931	-0.535887	0.120366	-0.186137	-0.039150	0.012876	-0.390540	0.331071	-0.577448	0.403466	-0.416092	0.078083	0.097475	-0.298939	0.381634	-0.578426	0.518238	-0.769406	0.234713	-0.426208	-0.009594	0.222102	-0.393944	0.244001	-0.860783	0.503627	-0.734864	0.313001	-0.009827	-0.344077	0.414388	-0.799663	0.473967	-0.764259	0.423419	-0.406875	-0.298841	0.235703	-0.433529	0.287318	-0.651664	0.562399	-0.707595	0.282517	0.067490	-0.176983	0.145320	-0.197097	0.072982	-0.315994	0.409067	-0.420526	-0.092184	0.008873	-0.313992	0.226353	-0.157623	0.109578	-0.211525	0.187077
-0.145942	-0.090769	-0.174902	-0.057347	-0.244415	-0.032885	-0.312562	0.008071	-0.201757	-0.012918	-0.253117	-0.073455	-0.092469	-0.242281	0.011934	-0.363528	-0.073701	-0.233854	0.100213	-0.277929	-0.039243	-0.136989	-0.198081	-0.016715	-0.184092	-0.071528	-0.272322	0.011839	-0.262086	-0.022777	-0.178828	-0.191914	-0.181801	-0.265771	-0.126044	-0.519884	-0.062024	-0.252902	-0.021606	-0.218213	-0.044708	-0.323087	-0.183207	-0.207475	-0.333170	-0.085058	-0.282652	-0.088438	-0.360955	0.152503	-0.442979	-0.105131	-0.188876	-0.204999	-0.063867	-0.247740	0.057587	-0.472659	0.158123	-0.387445	-0.025366	-0.163597	-0.183901	-0.095014
-0.177216	-0.127090	-0.318637	-0.073794	-0.243492	-0.113662	-0.140918	-0.122216	-0.154056	-0.271784	-0.179509	-0.266031	-0.160841	-0.176062	-0.211508	-0.089383	-0.200956	-0.140802	-0.278935	-0.252137	-0.143893	-0.269246	-0.061609	-0.179304	-0.133534	-0.169288	-0.217824	-0.122835	-0.232850	-0.073369	-0.308643	-0.042278	-0.187206	0.052199	-0.206973	0.103672	-0.122564	-0.250023	0.034355	-0.209845	-0.065780	-0.246767	0.244365	-0.248621	-0.020317	-0.007973	-0.210031	0.015899	-0.191091	0.006737	-0.331955	0.179268	-0.145721	-0.164385	-0.045523	-0.182875	-0.052484	-0.236943	0.038678	-0.241886	-0.071380	-0.106614	-0.148962	-0.026937
-0.092704	-0.187557	-0.116705	-0.144179	-0.142689	-0.146911	-0.080038	-0.173705	-0.088730	-0.214048	-0.181662	-0.253202	-0.169272	-0.256587	-0.131032	-0.079858	-0.222102	-0.053027	-0.384350	-0.124977	-0.342975	-0.123393	-0.259698	-0.068331	-0.044957	-0.225904	-0.145599	-0.315555	-0.093633	-0.411537	-0.063755	-0.225380	-0.202644	0.125044	-0.290875	0.290701	-0.355503	-0.087641	-0.219588	-0.082677	-0.001472	-0.226554	0.276521	-0.257324	0.002130	-0.072830	-0.152221	-0.032955	-0.163749	-0.038197	-0.133551	0.049573	-0.133875	-0.171897	-0.004853	-0.185578	-0.039538	-0.080775	-0.174481	-0.025553	-0.136675	0.022718	-0.222187	0.005779
0.076237	-0.304286	0.223403	-0.214020	-0.161520	0.091000	-0.490122	0.237570	-0.051400	-0.164909	0.058354	-0.486428	0.025532	-0.582862	0.345581	-0.569408	-0.257308	0.129097	-0.712911	0.259883	-0.758464	0.264616	-0.713782	0.248516	0.098496	-0.379512	0.251139	-0.695614	0.248337	-0.846685	0.269656	-0.399577	-0.132283	0.211713	-0.518465	0.639334	-0.648894	0.239786	-0.548843	0.188067	0.075549	-0.303729	0.318067	-0.365730	0.121969	-0.263455	0.094153	-0.235377	-0.003382	-0.212704	0.112697	-0.148174	0.000510	-0.175945	-0.018281	-0.040913	-0.201676	0.231757	-0.555583	0.414333	-0.371485	0.195900	-0.121460	-0.091735
-0.158781	-0.124568	-0.304463	0.078301	-0.358248	0.031116	-0.283094	-0.050983	-0.124880	-0.133892	0.052613	-0.277774	0.147361	-0.260786	0.046005	-0.255176	-0.166981	-0.028079	-0.107010	0.066346	-0.176924	0.031097	-0.095787	-0.148850	-0.139008	-0.108718	-0.103945	-0.077799	-0.121753	0.019469	-0.186440	-0.031273	-0.089858	-0.107091	0.005606	-0.346717	0.066305	-0.303540	0.057279	-0.346773	-0.197799	-0.022642	-0.327251	0.013512	-0.452002	-0.058856	-0.385675	-0.111801	-0.149919	-0.187249	-0.108097	-0.372715	-0.064452	-0.435500	-0.034032	-0.348088	-0.155903	-0.187012	-0.102128	-0.247034	-0.313500	-0.158148	-0.405772	-0.113634
-0.228722	-0.112346	-0.184846	0.010430	-0.203636	-0.062848	-0.194261	-0.114148	-0.152350	-0.135357	-0.069376	-0.212818	-0.024476	-0.121597	-0.068299	-0.157348	-0.202610	-0.139040	-0.093577	-0.039534	-0.127214	0.018678	-0.178677	-0.043524	-0.239413	-0.143015	-0.159881	-0.134699	-0.116454	-0.141794	0.098082	-0.283541	-0.132511	-0.472659	-0.051600	-0.469346	-0.061321	0.049276	-0.282670	0.103564	-0.324987	-0.022161	-0.667627	0.097086	-0.301906	-0.197317	0.087972	-0.381645	-0.093031	-0.423062	0.115243	-0.540041	0.100846	-0.158885	-0.179827	0.057280	-0.313097	-0.009519	-0.473519	0.044012	-0.400235	-0.003477	-0.097062	-0.217726
-0.019845	-0.183172	-0.078836	-0.129021	-0.131402	-0.137995	-0.108743	-0.197750	-0.182038	-0.039116	-0.177664	-0.202210	-0.118032	-0.227614	-0.194040	-0.109707	0.019568	-0.206387	-0.191613	-0.110360	-0.337453	-0.197820	-0.274566	-0.225296	-0.186989	0.007141	-0.143652	-0.242270	-0.171562	-0.374793	-0.179550	-0.173403	-0.013812	-0.069105	-0.122183	0.233366	-0.331622	-0.217480	-0.325196	-0.152925	-0.119072	-0.028879	0.139796	-0.226450	0.073627	-0.255008	-0.045757	-0.166326	-0.052216	-0.146014	-0.098203	0.078165	-0.227377	-0.006200	-0.272741	-0.087933	-0.139462	-0.051353	-0.132632	-0.137624	-0.024483	-0.192373	-0.058732	-0.169740
-0.198432	-0.179427	-0.161171	-0.140041	-0.170815	-0.169473	-0.121812	-0.162051	-0.245440	-0.086435	-0.243733	-0.079952	-0.185417	-0.079787	-0.196938	-0.118776	-0.138261	-0.261902	-0.001766	-0.246541	-0.055204	-0.147186	-0.061102	-0.151846	-0.237555	-0.173295	-0.192565	-0.143218	-0.120963	-0.088942	-0.046110	-0.102150	-0.263255	-0.381112	-0.162820	-0.452413	-0.121292	-0.036156	-0.157020	-0.066916	-0.153159	-0.204687	-0.393727	-0.126079	-0.223023	-0.209222	0.027626	-0.232627	-0.225074	-0.105647	-0.156928	-0.268180	-0.153658	0.023457	-0.275924	-0.023184	-0.179476	-0.197080	-0.139176	-0.162796	-0.079801	-0.235643	0.020021	-0.260725
-0.220282	-0.107547	-0.320503	-0.067834	-0.253561	-0.113034	-0.206230	-0.088723	-0.150368	-0.241655	-0.184863	-0.228123	-0.144415	-0.222888	-0.148946	-0.213165	-0.183513	-0.137970	-0.169802	-0.218777	-0.099661	-0.244720	-0.122114	-0.135102	-0.127997	-0.165281	-0.205666	-0.020893	-0.271717	0.002935	-0.288515	-0.126518	-0.189137	0.014846	-0.131869	-0.012128	-0.025267	-0.318094	0.033472	-0.217461	-0.137284	-0.180567	0.122681	-0.166146	-0.093936	-0.027999	-0.163979	-0.067912	-0.124947	-0.101842	-0.305164	0.054089	-0.158612	-0.100441	-0.165021	-0.125732	-0.142167	-0.240370	-0.018800	-0.298518	-0.049665	-0.185605	-0.105807	-0.174793
-0.097966	-0.125296	-0.193665	-0.134833	-0.238862	-0.036025	-0.368054	-0.021171	-0.236156	-0.056167	-0.213759	-0.145201	-0.136195	-0.352701	0.002546	-0.333786	0.014149	-0.271509	-0.077002	-0.264674	-0.178558	-0.184373	-0.321280	-0.063211	-0.218301	0.039643	-0.332947	0.025811	-0.326728	-0.159605	-0.211711	-0.282131	-0.067605	-0.042532	-0.067639	0.017667	-0.117126	-0.287752	-0.115523	-0.135188	-0.071332	-0.202650	0.176096	-0.205236	-0.037093	-0.070271	-0.200511	-0.132020	-0.168584	-0.010673	-0.313605	0.176036	-0.205548	-0.127696	-0.135895	-0.181244	-0.053064	-0.277120	0.042981	-0.257819	-0.048190	-0.151416	-0.125185	-0.136047
-0.611171	0.431533	-0.735629	0.820908	-1.044115	0.740077	-0.832259	0.486900	0.197728	-0.438163	0.437391	-0.946859	0.894199	-1.033070	0.743382	-0.731360	-0.276694	0.278924	-0.448216	0.491300	-0.566502	0.503283	-0.808304	0.535877	0.287010	-0.327673	-0.119673	-0.269760	0.191743	-0.350429	0.211913	-0.539918	-0.775009	0.480534	-0.377815	0.072985	-0.331091	0.067870	-0.410126	0.405846	0.419617	-0.727590	0.589403	-0.591914	0.247108	-0.374955	0.333299	-0.713617	-0.777882	0.847122	-1.165368	0.561630	-0.754131	0.466179	-0.855007	0.454871	0.417743	-1.101650	0.643430	-0.633562	0.408224	-0.724904	0.499254	-0.569000
-0.248487	-0.062057	-0.227456	-0.100377	-0.172434	-0.149053	-0.157821	-0.234042	-0.140582	-0.175152	-0.088420	-0.102553	-0.130291	-0.128796	-0.176019	-0.155392	-0.140611	-0.080409	-0.044249	-0.107477	-0.051926	-0.138079	-0.077214	-0.173526	-0.180432	-0.148786	-0.166056	-0.059669	-0.105479	-0.051828	-0.135252	-0.135854	-0.137333	-0.287131	-0.102423	-0.383353	-0.090834	-0.129831	-0.096192	-0.176786	-0.185296	-0.174380	-0.331224	-0.136102	-0.208723	-0.170450	-0.110866	-0.191902	-0.181945	-0.165575	-0.217763	-0.226989	-0.161464	-0.107403	-0.168093	-0.182469	-0.214053	-0.216488	-0.092158	-0.301772	-0.132796	-0.242922	-0.160728	-0.222441
-0.226596	-0.081896	-0.099617	-0.205154	-0.055603	-0.346599	0.074883	-0.281921	-0.091530	-0.140037	-0.329823	-0.058415	-0.343765	0.095630	-0.371727	0.071256	-0.180661	-0.245113	-0.020671	-0.355397	-0.017668	-0.301981	0.060097	-0.291034	-0.170327	-0.210363	-0.205866	-0.171938	-0.232464	-0.073255	-0.130685	0.026703	-0.230117	-0.373314	-0.224516	-0.521862	-0.170836	0.019742	-0.135953	-0.096998	-0.104478	-0.263238	-0.290411	-0.236806	-0.171562	-0.288698	0.059117	-0.151887	-0.208818	0.012021	-0.303665	-0.054659	-0.417761	0.243598	-0.276419	0.009782	-0.023144	-0.226004	0.051292	-0.312181	0.197102	-0.346003	0.142910	-0.206201
-0.202208	-0.159380	-0.146105	-0.132858	-0.109427	-0.205394	-0.126426	-0.181304	-0.115666	-0.158747	-0.080025	-0.111915	-0.118376	-0.036882	-0.169640	-0.150071	-0.185425	-0.040216	-0.143437	0.017950	-0.135710	-0.031316	-0.105809	-0.140589	-0.176422	-0.194300	-0.035583	-0.222557	0.030136	-0.161046	-0.046828	-0.152948	-0.067922	-0.354919	-0.142783	-0.237640	-0.163642	-0.078071	-0.145874	-0.130295	-0.395581	0.008498	-0.490456	-0.065522	-0.263748	-0.145400	-0.073759	-0.186365	0.042584	-0.471016	-0.005902	-0.438485	-0.047452	-0.169887	-0.146589	-0.136778	-0.438121	0.025931	-0.372756	-0.104185	-0.260916	-0.123920	-0.191264	-0.180013
0.032626	-0.403923	-0.100366	-0.101803	-0.274024	-0.027045	-0.418342	0.141197	-0.286530	-0.214559	-0.218506	-0.581723	0.044289	-0.626150	0.272348	-0.520653	-0.201503	-0.279532	-0.724553	0.223975	-0.769735	0.356780	-0.686611	0.158505	-0.185807	-0.162595	0.011326	-0.599045	0.232776	-0.554845	0.176147	-0.213066	0.074036	-0.115644	-0.369764	0.576444	-0.373628	-0.042321	-0.077145	-0.336568	-0.319730	0.097005	0.042257	-0.230856	-0.058602	0.188528	-0.516372	0.252466	0.200899	-0.444617	0.203405	-0.168213	0.153685	-0.524830	0.539596	-0.576065	-0.416712	0.315061	-0.701226	0.327563	-0.566895	0.434369	-0.690295	0.402081
-0.151531	0.115765	-0.178704	-0.091542	-0.086373	-0.216565	0.251429	-0.512817	-0.217169	-0.012973	-0.359715	-0.035718	-0.309945	0.298841	-0.794329	0.346753	0.277091	-0.556213	0.438365	-0.639561	0.688584	-1.148710	0.807807	-0.640314	-0.811966	0.564318	-1.123679	1.132080	-1.644118	1.165583	-1.327804	0.480992	0.584228	-0.785203	1.111197	-1.413038	1.416300	-1.453607	0.949165	-0.730379	-0.294807	0.100020	-0.723197	0.996050	-1.414597	0.908160	-0.871730	0.358674	0.172301	-0.542712	0.260899	-0.733776	0.560927	-0.490408	0.474990	-0.362365	-0.440401	0.139002	-0.309755	0.131014	-0.363185	0.258617	-0.258836	-0.048093
0.032230	-0.206022	-0.099127	-0.150126	-0.199172	-0.050978	-0.289827	-0.070390	-0.324712	0.071314	-0.181880	-0.178089	-0.044751	-0.464464	-0.002421	-0.327557	0.192327	-0.377259	-0.083938	-0.129148	-0.386055	-0.037799	-0.418584	-0.121391	-0.323175	0.164265	-0.259259	-0.130738	-0.117478	-0.389600	-0.271471	-0.208932	0.136756	-0.188044	0.027079	0.214035	-0.228350	-0.339592	-0.236781	-0.248420	-0.305007	0.078428	0.132024	-0.323228	0.180229	-0.224348	-0.248430	-0.104366	0.055442	-0.258229	-0.200189	0.305806	-0.389853	-0.030109	-0.253251	-0.216981	-0.225787	-0.040855	-0.033363	-0.322081	0.123074	-0.274527	-0.121013	-0.183658
-0.141233	-0.199923	-0.055353	-0.054182	-0.273385	-0.019637	-0.198907	-0.058863	-0.232889	0.020442	-0.312022	-0.163605	-0.094475	-0.110232	-0.036536	-0.220389	-0.119147	-0.275120	0.029188	-0.250343	-0.089859	-0.184554	-0.155122	-0.052386	-0.162889	-0.200809	-0.263404	-0.180239	-0.295641	-0.031703	-0.112806	-0.171033	-0.302228	-0.345321	-0.237799	-0.572969	-0.108049	-0.213603	-0.099244	-0.100466	-0.088376	-0.243209	-0.448587	-0.191188	-0.382750	-0.125917	-0.110697	-0.163214	-0.259667	-0.049522	-0.251025	-0.236160	-0.293008	-0.056798	-0.124404	-0.094586	-0.085257	-0.211287	-0.069817	-0.268571	0.028893	-0.190892	-0.060090	-0.089835
-0.170230	-0.075039	-0.209939	-0.050521	-0.176921	-0.132010	-0.091442	-0.146872	-0.047671	-0.251584	-0.094986	-0.323986	-0.123293	-0.208179	-0.165300	-0.137765	-0.175689	-0.036736	-0.419871	-0.059227	-0.339738	-0.176335	-0.251773	-0.080434	-0.079353	-0.159753	-0.123287	-0.346244	-0.168097	-0.370359	-0.148062	-0.182913	-0.092131	-0.004907	-0.210747	0.330297	-0.356731	-0.143595	-0.198073	-0.139010	-0.117766	-0.056722	0.178093	-0.279421	0.089479	-0.129356	-0.112175	-0.091157	-0.014791	-0.162670	-0.115062	0.075518	-0.221279	-0.069619	-0.081102	-0.118847	-0.166636	-0.032829	-0.125320	-0.108649	-0.031112	-0.093063	-0.122242	-0.072451
-0.112215	-0.160016	-0.150841	-0.155777	-0.128576	-0.203289	-0.187647	-0.177181	-0.210547	-0.108497	-0.153520	-0.055475	-0.190320	-0.125338	-0.199807	-0.176930	-0.031750	-0.185841	-0.084493	-0.134229	-0.156846	-0.131977	-0.155544	-0.211751	-0.215428	-0.054777	-0.171653	-0.095576	-0.084687	-0.177738	-0.191858	-0.150702	-0.024280	-0.153953	-0.050889	-0.028703	-0.180195	-0.158424	-0.197973	-0.182654	-0.220756	-0.065989	-0.080217	-0.167634	0.033290	-0.276565	-0.118040	-0.188891	-0.100896	-0.204563	-0.145055	0.008154	-0.216831	-0.041327	-0.266993	-0.171206	-0.231350	-0.139381	-0.126313	-0.248563	-0.060971	-0.265017	-0.119783	-0.212419
-0.135060	-0.136414	-0.250722	-0.008137	-0.220507	-0.071237	-0.171244	-0.193560	-0.115052	-0.126237	0.026529	-0.188244	-0.031514	-0.089930	-0.160097	-0.127971	-0.182545	0.032413	-0.092268	-0.040898	-0.025241	-0.154568	-0.009298	-0.218306	-0.015882	-0.233815	-0.027287	-0.053229	-0.206051	0.019695	-0.213802	-0.106971	-0.234878	0.043300	-0.157773	-0.298365	0.016077	-0.280831	0.002248	-0.297518	-0.087982	-0.173044	-0.191541	-0.049488	-0.429011	-0.122763	-0.354097	-0.166836	-0.158960	-0.104928	-0.178567	-0.324528	-0.143917	-0.414465	-0.102352	-0.327569	-0.178388	-0.178243	-0.090516	-0.235446	-0.231766	-0.186702	-0.358856	-0.151320
-0.207705	-0.122332	-0.141620	-0.038541	-0.262241	0.023953	-0.306202	-0.014170	-0.128356	-0.089484	-0.141757	-0.130525	-0.055152	-0.185032	-0.009155	-0.333662	-0.184826	-0.185036	0.029567	-0.210190	-0.056274	-0.133286	-0.194166	-0.007215	-0.080126	-0.189231	-0.221702	-0.054901	-0.284275	-0.009643	-0.109076	-0.222453	-0.266619	-0.262657	-0.130567	-0.601772	-0.011910	-0.266709	-0.128395	-0.081441	-0.072995	-0.237493	-0.419406	-0.072893	-0.469519	-0.060834	-0.155555	-0.265071	-0.259693	-0.068601	-0.204022	-0.345226	-0.142054	-0.234729	-0.154493	-0.123163	-0.108242	-0.260949	-0.090748	-0.215478	-0.180515	-0.177816	-0.109174	-0.194525
-0.593286	0.396383	-0.297576	0.364232	-0.466221	0.101769	0.139573	-0.310784	0.793608	-1.024275	0.382979	-0.667507	0.421567	-0.304960	-0.105512	0.231077	-1.186530	0.947314	-0.929218	0.553234	-0.574894	0.329049	-0.140052	0.106230	0.721201	-1.188096	0.623070	-0.896574	0.543886	-0.569519	0.414715	-0.356480	-0.837099	0.684904	-1.026228	0.679072	-0.720416	0.473234	-0.481625	0.076580	0.614306	-0.806591	0.647372	-0.568662	0.325213	-0.188327	0.015814	0.033366	-0.547045	0.394337	-0.481319	0.089376	-0.102307	-0.182429	0.044480	-0.028845	0.260490	-0.171562	-0.097730	0.127461	-0.341675	0.116927	-0.161557	0.073850
-0.050660	-0.077557	0.101333	-0.223272	0.262972	-0.548543	0.452496	-0.393945	-0.103470	0.162679	-0.151969	0.129848	-0.461146	0.778218	-0.713336	0.652053	0.534733	-0.543652	0.378968	-0.257614	0.524654	-0.961886	0.868396	-0.819317	-0.526474	0.709415	-0.571303	0.375982	-0.582065	0.795040	-0.970620	0.796780	0.482183	-0.827115	0.925628	-0.650742	0.579522	-0.711717	0.819778	-0.624450	-0.859515	1.086389	-0.990455	0.764451	-0.624906	0.748107	-0.610975	0.371814	0.597438	-0.760997	0.902305	-0.559215	0.351993	-0.474422	0.529470	-0.371652	-0.332510	0.408922	-0.581773	0.321595	-0.253579	0.230700	-0.337262	0.246593
-0.360885	0.358511	-0.376326	-0.124447	-0.028557	-0.089642	0.026019	-0.217298	0.271961	-0.580192	0.414095	-0.255942	-0.176579	0.114058	-0.533386	0.249052	-0.581739	0.499808	-0.409115	-0.131196	0.169394	-0.909608	0.560672	-0.626412	0.719093	-0.845145	0.192509	0.057485	-0.730842	0.611653	-1.052086	0.092199	-0.988022	0.837256	-0.354535	-0.464831	0.320664	-0.816524	0.400951	-0.537260	0.770046	-0.990227	0.144753	0.227895	-0.554750	0.216408	-0.959712	0.144634	-1.093885	0.632917	-0.359555	-0.267150	0.046621	-0.812324	0.209464	-0.350432	0.548629	-0.703402	0.298788	-0.055687	-0.372119	0.090018	-0.411209	0.023777
-0.113510	-0.183080	-0.280624	-0.103361	-0.225410	-0.125791	-0.089656	-0.159504	-0.159712	-0.341029	-0.203125	-0.411644	-0.084035	-0.270623	-0.135462	-0.025524	-0.270433	-0.148977	-0.487212	-0.125246	-0.397859	-0.093398	-0.145959	-0.166217	-0.075434	-0.244629	-0.151164	-0.316320	-0.067314	-0.281027	-0.135892	-0.017674	-0.228123	0.158639	-0.307924	0.363549	-0.237213	-0.087882	-0.023474	-0.187962	0.010763	-0.223891	0.313158	-0.153969	0.021555	-0.000262	-0.228106	0.041992	-0.255581	0.050131	-0.173642	0.036234	-0.037178	-0.250690	0.131306	-0.247998	0.028651	-0.164210	-0.097482	-0.018124	-0.224952	0.121011	-0.291963	0.112520
-0.215786	-0.042009	-0.204825	-0.044626	-0.194702	-0.101047	-0.182789	-0.165809	-0.087112	-0.169569	-0.035904	-0.109091	-0.075068	-0.136660	-0.099984	-0.213135	-0.196910	-0.031502	-0.045120	-0.093546	-0.053130	-0.109613	-0.172382	-0.101718	-0.074984	-0.214439	-0.114720	-0.059056	-0.211653	-0.034129	-0.128910	-0.175061	-0.187195	-0.194185	-0.113194	-0.511401	-0.029243	-0.253093	-0.076072	-0.176269	-0.120257	-0.168222	-0.372623	-0.056724	-0.446918	-0.121405	-0.225763	-0.229994	-0.225479	-0.109858	-0.187317	-0.362847	-0.142731	-0.268010	-0.175558	-0.178203	-0.125237	-0.255301	-0.119382	-0.254265	-0.188071	-0.175420	-0.230603	-0.188913
0.105574	-0.365299	-0.045067	-0.257467	0.094988	-0.404809	0.251047	-0.440215	-0.232326	-0.161194	0.049500	-0.131769	-0.081536	0.030722	-0.347096	0.248923	-0.196999	0.135586	-0.575493	0.381962	-0.487181	0.053444	0.128960	-0.494885	-0.093032	-0.519507	0.344826	-0.565054	0.275237	-0.269071	-0.152638	0.067434	-0.217599	0.264157	-0.319933	0.039957	-0.016414	-0.141833	-0.030933	-0.397095	-0.002122	-0.005748	-0.485542	0.253782	-0.598011	0.038947	-0.474163	0.096560	-0.059699	-0.556399	0.522648	-0.867458	0.304640	-0.655823	0.107572	-0.406475	-0.332264	0.436179	-0.796665	0.424237	-0.805769	0.170508	-0.608835	0.098824
-0.200928	-0.119609	-0.219698	-0.141267	-0.115000	-0.228035	-0.084083	-0.289019	-0.111977	-0.208022	-0.078720	-0.101087	-0.210066	-0.070776	-0.277014	-0.108919	-0.158499	-0.089424	-0.107773	-0.068385	-0.103187	-0.138058	-0.099016	-0.227200	-0.183971	-0.088504	-0.150268	-0.112976	-0.059908	-0.124582	-0.147554	-0.137996	-0.089852	-0.209771	-0.060076	-0.117664	-0.127588	-0.094423	-0.178855	-0.152900	-0.267299	-0.049402	-0.222400	-0.101575	-0.047537	-0.219318	-0.050249	-0.210747	-0.080958	-0.268820	-0.133615	-0.195690	-0.148131	-0.073509	-0.231433	-0.097616	-0.280467	-0.110541	-0.228777	-0.223101	-0.148923	-0.248836	-0.121264	-0.268660
-0.199139	-0.199251	-0.212467	-0.216822	-0.097862	-0.217614	-0.194105	-0.153682	-0.154896	-0.192167	-0.257867	-0.171479	-0.262493	-0.182261	-0.157878	-0.167013	-0.215678	-0.181086	-0.239998	-0.196713	-0.211952	-0.194602	-0.147021	-0.166234	-0.134765	-0.178892	-0.176805	-0.215197	-0.109449	-0.230671	-0.197159	-0.110311	-0.146948	0.022858	-0.224307	0.220985	-0.257601	-0.096990	-0.106631	-0.180620	-0.131150	-0.137243	0.140123	-0.149376	-0.013408	-0.063053	-0.186855	-0.034909	-0.091441	-0.145431	-0.073554	-0.104028	-0.028704	-0.207719	-0.005265	-0.215434	-0.144990	-0.052878	-0.229827	-0.027618	-0.227062	-0.025747	-0.239141	-0.021109
-0.175798	-0.116585	-0.225578	0.062689	-0.340394	0.059378	-0.330361	0.016339	-0.098072	-0.132347	-0.019988	-0.240580	0.145775	-0.318619	0.109682	-0.371254	-0.156017	-0.106705	-0.082849	0.044911	-0.246011	0.155346	-0.285965	0.028699	-0.220938	-0.046326	-0.193716	-0.085223	-0.035486	-0.154622	0.011886	-0.183908	-0.033757	-0.482266	0.036303	-0.452633	-0.019402	-0.153822	-0.052132	-0.161921	-0.410277	0.034530	-0.536872	0.026266	-0.363413	-0.042925	-0.139965	-0.161220	-0.010413	-0.377420	-0.028414	-0.377913	0.008291	-0.291902	-0.028742	-0.181726	-0.340368	-0.091527	-0.278296	-0.140135	-0.318318	-0.034179	-0.251288	-0.094189
-0.136468	-0.201326	-0.142449	-0.122153	-0.198062	-0.097955	-0.237513	-0.142208	-0.237051	-0.071036	-0.074429	-0.176963	-0.025933	-0.199383	-0.083521	-0.216158	-0.066245	-0.186835	-0.145154	0.004175	-0.168768	0.033572	-0.173702	-0.112554	-0.295596	-0.051058	-0.130459	-0.131256	0.000697	-0.162947	-0.041173	-0.215679	-0.031057	-0.334094	-0.055525	-0.147832	-0.136511	-0.071270	-0.205874	-0.106374	-0.420693	0.036808	-0.384572	-0.022022	-0.032751	-0.183206	-0.057425	-0.233637	0.018171	-0.475488	-0.003539	-0.248607	-0.023478	-0.143170	-0.163431	-0.106728	-0.436269	0.046335	-0.362278	-0.079972	-0.270092	-0.056179	-0.197731	-0.195549
-0.177172	-0.147268	-0.144988	-0.078203	-0.177334	-0.118374	-0.225727	-0.141799	-0.082827	-0.105344	-0.072804	-0.111513	-0.084463	-0.115887	-0.120516	-0.203810	-0.170553	-0.048813	-0.049737	-0.078566	-0.066411	-0.101595	-0.123977	-0.128507	-0.071880	-0.172004	-0.119950	-0.128637	-0.142472	-0.071611	-0.120183	-0.188832	-0.225098	-0.157434	-0.162752	-0.428211	-0.068850	-0.216736	-0.123160	-0.139272	-0.117171	-0.173155	-0.383783	-0.096846	-0.418181	-0.132021	-0.194983	-0.193657	-0.223474	-0.138319	-0.147200	-0.369058	-0.069232	-0.321662	-0.129978	-0.253100	-0.160330	-0.199882	-0.163747	-0.205894	-0.257358	-0.145516	-0.276507	-0.127001
-0.149222	-0.262003	-0.059395	-0.260531	-0.115931	-0.202213	-0.024727	-0.214050	-0.360737	0.007167	-0.322587	-0.011121	-0.219097	0.046393	-0.275434	0.033172	-0.066104	-0.374857	0.042727	-0.252718	-0.036479	-0.100359	0.023035	-0.229897	-0.308401	-0.156546	-0.163979	-0.173657	-0.014148	-0.110834	0.041146	-0.068512	-0.195889	-0.422717	-0.204780	-0.236580	-0.223077	0.123622	-0.226433	-0.054170	-0.293326	-0.122281	-0.347694	-0.124992	0.040001	-0.332367	0.108883	-0.229563	-0.125794	-0.245840	-0.030132	-0.170695	-0.241892	0.168194	-0.339230	0.017716	-0.291168	-0.018499	-0.212969	-0.120870	-0.030023	-0.282614	0.030497	-0.253819
-0.763622	0.317651	-0.108766	-0.797471	0.874878	-1.353315	0.862381	-0.693970	0.405153	-0.689582	-0.408188	0.552174	-1.563986	1.354212	-1.595965	0.455879	-0.573352	0.081038	-0.191432	-1.031785	0.873568	-1.441202	0.593226	-0.626999	0.029359	-0.461049	-0.305821	0.255291	-0.825363	0.406175	-0.343669	0.042489	-0.359025	-0.237045	-0.177824	-0.714427	-0.018420	0.055591	-0.577141	0.067271	0.039003	-0.631223	0.021202	-0.317028	0.112309	-0.844190	0.744723	-0.710742	-0.631188	0.489161	-0.715524	0.215695	-0.811438	0.881272	-1.292242	0.694257	0.301779	-0.813679	0.291347	-0.465661	0.307309	-0.981501	0.831136	-0.961297
0.073525	-0.275032	0.005936	-0.216290	-0.126994	-0.041847	-0.356046	0.040607	-0.354951	0.050926	-0.016871	-0.283741	0.002056	-0.411128	0.032477	-0.405204	0.146072	-0.306046	-0.257217	0.163378	-0.470598	0.098174	-0.487623	-0.087558	-0.397655	0.139305	-0.073195	-0.329366	0.028081	-0.488485	-0.062848	-0.322235	0.249577	-0.380218	-0.065593	0.364625	-0.406072	-0.058820	-0.414068	-0.110636	-0.621839	0.231705	-0.149362	-0.233384	0.224580	-0.273371	-0.145028	-0.245280	0.258130	-0.635534	0.141645	-0.042002	-0.101876	-0.225127	-0.085153	-0.153462	-0.513935	0.265010	-0.497366	0.063855	-0.318836	0.164796	-0.289741	-0.166594
-0.038410	-0.136464	-0.043097	-0.248587	0.011667	-0.206869	-0.066439	-0.165034	-0.176552	-0.023359	-0.171560	-0.047644	-0.253952	-0.166207	-0.183871	-0.156251	0.034869	-0.224840	-0.137731	-0.165481	-0.217492	-0.177673	-0.336555	-0.162973	-0.180934	0.000026	-0.147928	-0.187686	-0.175720	-0.390089	-0.147552	-0.282568	-0.013034	-0.048202	-0.073874	0.220083	-0.246951	-0.164411	-0.452359	-0.059199	-0.150412	-0.048028	0.111279	-0.179496	0.070889	-0.310777	-0.015498	-0.281802	0.016454	-0.187025	-0.022389	0.076241	-0.224482	-0.012480	-0.352423	-0.057087	-0.207348	0.016806	-0.165823	-0.097073	-0.024382	-0.220320	-0.040671	-0.261246
-0.177592	-0.094332	-0.114347	-0.091162	-0.161991	-0.079670	-0.218737	-0.111784	-0.057834	-0.075402	-0.140920	-0.050915	-0.152236	-0.124432	-0.086796	-0.267399	-0.195532	-0.081495	-0.019440	-0.208126	-0.005059	-0.231163	-0.142236	-0.049966	-0.005273	-0.214646	-0.131546	-0.057205	-0.295420	-0.006894	-0.180868	-0.248898	-0.278714	-0.111735	-0.189815	-0.515206	-0.029692	-0.293924	-0.095087	-0.126242	0.009446	-0.331586	-0.268969	-0.128367	-0.482005	-0.082651	-0.284865	-0.181050	-0.343621	0.088681	-0.257072	-0.309959	-0.148921	-0.275395	-0.117078	-0.230576	0.006266	-0.362726	-0.025598	-0.246542	-0.167793	-0.144143	-0.233336	-0.132095
-0.248062	-0.055588	-0.131733	-0.096557	-0.185290	-0.117109	-0.126895	-0.109286	-0.122501	-0.138319	-0.220137	-0.103960	-0.240336	-0.068514	-0.152389	-0.142806	-0.154545	-0.267336	-0.011046	-0.309929	-0.038036	-0.307156	-0.068040	-0.124054	-0.169934	-0.145868	-0.285055	-0.161456	-0.317892	-0.015262	-0.137552	-0.102231	-0.223285	-0.447573	-0.178627	-0.638389	-0.104434	-0.154357	-0.132422	-0.037481	-0.066685	-0.246688	-0.415775	-0.202307	-0.340368	-0.210515	-0.000940	-0.217176	-0.278639	0.038967	-0.295221	-0.202754	-0.324078	0.123103	-0.236954	-0.020087	0.034371	-0.283598	-0.015203	-0.248466	0.053992	-0.280051	0.082835	-0.156385
-0.066228	-0.240574	-0.190944	-0.044129	-0.327273	0.009365	-0.457497	0.135315	-0.194480	-0.172243	-0.136138	-0.529405	0.041441	-0.574700	0.211524	-0.527736	-0.044129	-0.224875	-0.400534	0.084466	-0.554249	0.140121	-0.596736	0.135891	-0.191945	0.025859	-0.204162	-0.281466	-0.025404	-0.413518	0.010217	-0.246647	0.121891	-0.125977	-0.058167	0.337941	-0.215078	-0.190089	-0.096651	-0.198332	-0.385712	0.160258	0.054978	-0.111388	-0.035131	0.116017	-0.324739	-0.010074	0.209772	-0.346964	0.096852	-0.068892	0.048610	-0.345005	0.247552	-0.254901	-0.328954	0.170787	-0.400613	0.156416	-0.339923	0.238053	-0.364537	0.153998
-0.096915	0.072644	0.057010	-0.171604	0.097382	-0.363145	0.083681	-0.215157	0.100857	-0.210574	-0.090043	0.085706	-0.423918	0.133239	-0.397344	-0.034830	-0.219441	0.101368	0.004146	-0.385647	0.228223	-0.658898	0.068305	-0.269947	0.215979	-0.357655	-0.017999	0.166691	-0.551560	0.249085	-0.547516	-0.001123	-0.416725	0.200293	-0.307093	-0.469060	-0.025746	-0.356489	0.091314	-0.330480	0.346525	-0.758901	0.247885	-0.454221	-0.180162	-0.105409	-0.331539	0.064658	-0.672644	0.488240	-0.738528	0.230565	-0.327029	0.004648	-0.012069	-0.240371	0.387870	-0.646480	0.355466	-0.429825	0.175154	-0.244637	0.056575	-0.094726
-0.295157	0.112496	0.067401	-0.275619	0.043837	-0.014127	-0.216175	0.119650	0.442075	-0.572144	0.265994	-0.294023	-0.032050	-0.378565	0.350869	-0.392780	-0.702133	0.630675	-0.814167	0.465680	-0.621157	0.345107	-0.740685	0.446638	0.361887	-0.783834	0.491209	-0.757430	0.233644	-0.710886	0.410725	-0.652761	-0.208623	0.338049	-0.609287	0.562745	-0.483764	0.144338	-0.910071	0.628963	-0.015540	-0.308128	0.266164	-0.445313	0.080308	-0.432253	0.541367	-0.706120	0.133376	-0.255411	0.042524	-0.048713	-0.234293	0.179433	-0.599082	0.471121	-0.314246	0.220566	-0.386528	0.143454	-0.076540	-0.308562	0.441527	-0.562186
-0.218440	-0.074411	-0.254535	-0.113581	-0.132246	-0.189451	-0.083353	-0.174308	-0.072929	-0.274135	-0.145004	-0.134038	-0.212752	-0.070851	-0.233499	-0.052670	-0.222337	-0.091553	-0.168315	-0.253980	-0.037315	-0.314185	-0.016835	-0.204521	-0.112230	-0.183228	-0.192136	-0.026832	-0.214487	-0.038603	-0.304450	-0.053530	-0.192955	0.002456	-0.219966	-0.010759	-0.147189	-0.199341	0.029849	-0.237836	-0.039417	-0.327824	0.211321	-0.276204	0.007857	-0.107439	-0.178087	0.012482	-0.274379	0.055951	-0.401428	0.116714	-0.179744	-0.137839	-0.079820	-0.202682	-0.004672	-0.356139	0.067104	-0.328996	-0.013688	-0.161581	-0.095781	-0.076025
-0.178615	-0.161508	-0.201155	-0.154049	-0.145059	-0.193797	-0.130498	-0.258020	-0.174564	-0.124793	-0.067706	-0.115450	-0.138888	-0.089624	-0.246358	-0.137677	-0.125437	-0.091617	-0.123178	-0.056558	-0.071350	-0.079747	-0.030401	-0.204057	-0.177399	-0.170697	-0.046252	-0.150219	-0.027031	-0.118423	-0.140516	-0.135950	-0.125579	-0.207855	-0.138974	-0.166303	-0.128766	-0.094865	-0.095691	-0.194945	-0.263977	-0.102864	-0.267022	-0.097372	-0.164568	-0.151198	-0.140570	-0.149311	-0.075760	-0.288965	-0.139857	-0.287837	-0.088796	-0.130482	-0.196930	-0.171483	-0.339477	-0.132947	-0.214655	-0.230813	-0.196217	-0.216437	-0.167192	-0.226922
-0.147643	-0.167972	-0.176658	-0.110238	-0.204999	-0.150262	-0.126949	-0.162297	-0.106220	-0.193644	-0.159656	-0.335563	-0.154185	-0.246061	-0.193358	-0.057540	-0.167975	-0.108212	-0.366214	-0.111171	-0.355347	-0.213590	-0.242692	-0.170703	-0.126324	-0.111410	-0.152626	-0.319951	-0.200401	-0.306492	-0.201233	-0.154707	-0.057724	0.003427	-0.174488	0.325680	-0.287625	-0.182066	-0.219610	-0.137016	-0.203555	-0.008738	0.161325	-0.219182	0.042375	-0.106999	-0.131982	-0.089048	0.050318	-0.198775	-0.025353	0.041490	-0.159040	-0.099347	-0.081392	-0.110160	-0.202112	0.026438	-0.226799	-0.053797	-0.090857	-0.071130	-0.124050	-0.086253
1.105631	-1.681677	1.535661	-1.270914	0.484587	-0.548079	-0.058815	-0.045843	-1.477742	1.662033	-1.903315	1.262393	-0.868672	0.190252	0.103512	-0.221462	0.868683	-1.587139	1.409569	-1.227785	0.318188	-0.209466	-0.377966	0.303653	-0.676804	0.790938	-0.976263	0.429669	-0.181295	-0.250242	0.182238	-0.566809	0.225478	-0.356984	0.100456	0.041530	-0.169609	-0.266143	-0.135835	0.015819	-0.292106	0.127736	-0.163754	-0.040502	-0.303679	0.230547	-0.529176	0.067948	0.061244	-0.307960	0.143466	-0.557846	0.377015	-1.166212	0.416305	-0.607073	-0.074323	-0.059708	-0.504565	0.370848	-0.655356	0.436486	-0.845050	0.347712
-0.149179	-0.249753	-0.323097	-0.091087	-0.312063	-0.090550	-0.217148	-0.119069	-0.258212	-0.281946	-0.154349	-0.265094	-0.026907	-0.244525	-0.105986	-0.112257	-0.276742	-0.137840	-0.233726	-0.049857	-0.171206	-0.070196	-0.069561	-0.198701	-0.145151	-0.212577	-0.120200	-0.075325	-0.122000	0.012253	-0.222273	-0.025412	-0.170153	0.141642	-0.139855	0.079575	0.034095	-0.259532	0.111673	-0.300545	-0.139135	-0.127614	0.030555	-0.051536	-0.189008	0.017809	-0.324393	-0.018967	-0.184326	-0.085861	-0.192141	-0.140974	-0.037427	-0.343364	0.032237	-0.333097	-0.138774	-0.190958	-0.041109	-0.187086	-0.243236	-0.036039	-0.357149	-0.004882
-0.242995	-0.096627	-0.346077	-0.093046	-0.143296	-0.204800	0.076752	-0.262268	-0.023295	-0.483860	-0.207544	-0.350528	-0.200122	-0.113557	-0.290331	0.142119	-0.484686	-0.041940	-0.551564	-0.149347	-0.244636	-0.231327	0.020984	-0.220582	0.017427	-0.383799	-0.082081	-0.288094	-0.114533	-0.122336	-0.159674	0.011626	-0.304900	0.257643	-0.426670	0.409419	-0.180229	-0.125584	-0.041788	-0.203563	-0.008229	-0.274568	0.356153	-0.186295	0.036054	0.027040	-0.208206	0.067756	-0.201378	-0.003486	-0.169634	0.057821	-0.036433	-0.233321	0.067740	-0.168409	-0.006676	-0.133384	-0.085451	-0.039247	-0.234888	0.110962	-0.240552	0.056610
0.301938	-0.474632	0.367248	-0.603166	0.200714	-0.277749	-0.014929	-0.202970	-0.376163	0.345695	-0.548733	0.367542	-0.162245	-0.008060	-0.069859	0.043371	0.239323	-0.478624	0.268797	-0.438590	-0.038435	0.041028	-0.176441	-0.374440	-0.368906	0.184963	-0.143554	-0.080413	0.163615	-0.182087	-0.186996	0.144611	-0.053722	0.064087	-0.268772	0.161604	-0.575642	0.159131	-0.080134	-0.277628	0.189163	-0.468421	0.365762	-0.877193	0.573777	-0.838717	0.240324	-0.198958	-0.295903	0.266216	-0.711372	0.618027	-1.072465	0.623748	-0.847427	0.045003	0.173109	-0.619367	0.443331	-0.765109	0.522601	-0.903994	0.251363	-0.475713
-0.121667	-0.243314	-0.337069	-0.018103	-0.339477	-0.050888	-0.118742	-0.133311	-0.130350	-0.435056	-0.121780	-0.522029	0.116039	-0.334905	-0.013691	0.003895	-0.434952	-0.067965	-0.702425	0.209007	-0.580754	0.178593	-0.132505	-0.205814	-0.082256	-0.370378	0.052617	-0.442548	0.161477	-0.246011	-0.025146	-0.005138	-0.148746	0.200588	-0.310278	0.386783	-0.045922	-0.156896	0.049322	-0.351472	-0.135325	0.080139	-0.066313	0.090660	-0.180868	0.223425	-0.433672	0.210430	-0.002817	-0.331832	0.264744	-0.266214	0.205765	-0.384234	0.321479	-0.393967	-0.197194	0.208108	-0.464537	0.267609	-0.469493	0.263834	-0.490755	0.289261
-0.133099	-0.153423	-0.174928	-0.182957	-0.085205	-0.210637	-0.052357	-0.206006	-0.082706	-0.269107	-0.177688	-0.309847	-0.195141	-0.233195	-0.201374	-0.038591	-0.235308	-0.114507	-0.552332	-0.039737	-0.490334	-0.082567	-0.219184	-0.148381	-0.139871	-0.192918	-0.040293	-0.518417	-0.008184	-0.393719	-0.115222	-0.112057	0.010237	-0.011239	-0.340032	0.512279	-0.380565	-0.074171	-0.166348	-0.198051	-0.237793	0.011094	0.212698	-0.280147	0.123339	-0.075609	-0.225806	0.046886	0.128460	-0.283611	0.011375	0.017743	-0.101162	-0.215388	0.092218	-0.197048	-0.246863	0.110769	-0.312061	0.038614	-0.175705	0.067849	-0.271488	0.021933
-0.178317	-0.130038	-0.118306	-0.288136	0.080005	-0.363689	0.074498	-0.344253	-0.085764	-0.207095	-0.144094	-0.011557	-0.357279	0.043816	-0.397423	0.019288	-0.232386	-0.042166	-0.237130	-0.144828	-0.106168	-0.246136	-0.095133	-0.225557	-0.090114	-0.199628	-0.090237	-0.210702	-0.077626	-0.291564	-0.095315	-0.219328	-0.125999	-0.069863	-0.210876	0.074210	-0.269634	-0.037479	-0.312875	-0.069957	-0.160579	-0.092391	-0.024002	-0.179146	0.013811	-0.196640	-0.053551	-0.199430	-0.031552	-0.269854	-0.010191	-0.129073	-0.051862	-0.116761	-0.190093	-0.088715	-0.215546	-0.011030	-0.279293	-0.071153	-0.181216	-0.121688	-0.181241	-0.193842
-0.199389	-0.197615	-0.218431	-0.210452	-0.128982	-0.171701	-0.031571	-0.214645	-0.157408	-0.270236	-0.180145	-0.123226	-0.206928	-0.137123	-0.219188	-0.011137	-0.335334	-0.066063	-0.222485	-0.196137	-0.012709	-0.235010	0.040435	-0.214272	-0.057426	-0.299428	-0.123307	-0.072424	-0.136724	-0.017220	-0.218221	-0.024329	-0.337627	0.208516	-0.286766	0.135113	-0.099336	-0.118963	0.064256	-0.253693	-0.002432	-0.360175	0.234141	-0.172194	-0.072884	-0.020640	-0.339115	0.054897	-0.291602	0.013990	-0.327335	0.011388	-0.047244	-0.346709	0.083687	-0.361062	-0.047789	-0.296931	0.015263	-0.240377	-0.207426	-0.007773	-0.386926	0.047308
-0.200026	-0.132058	-0.163042	-0.144552	-0.143693	-0.116153	-0.197908	-0.121687	-0.142742	-0.154123	-0.148767	-0.077007	-0.170778	-0.107439	-0.128556	-0.225355	-0.171507	-0.135734	-0.049395	-0.187860	-0.018707	-0.167585	-0.112316	-0.077248	-0.140179	-0.213089	-0.169265	-0.092578	-0.185191	-0.066696	-0.059986	-0.197946	-0.233670	-0.307124	-0.144739	-0.465285	-0.073613	-0.138244	-0.146633	-0.063041	-0.126337	-0.205401	-0.389627	-0.116771	-0.297393	-0.161249	-0.090970	-0.218874	-0.253682	-0.142189	-0.181471	-0.316191	-0.108273	-0.146250	-0.173655	-0.124820	-0.101288	-0.270158	-0.131622	-0.202640	-0.179379	-0.191850	-0.088833	-0.235942
0.003467	-0.193412	-0.127387	-0.122726	-0.159681	-0.115591	-0.203426	-0.074264	-0.277451	-0.000472	-0.212127	-0.038389	-0.169876	-0.214856	-0.097247	-0.192635	0.067966	-0.255789	-0.035805	-0.247277	-0.115500	-0.190436	-0.196234	-0.177429	-0.182516	0.015512	-0.221733	-0.010906	-0.253319	-0.145805	-0.279201	-0.182378	-0.053089	-0.031769	-0.095713	0.004005	-0.139032	-0.265018	-0.164821	-0.206383	-0.092560	-0.178095	0.105936	-0.265905	0.056331	-0.243808	-0.103525	-0.172704	-0.137589	-0.053226	-0.320283	0.207182	-0.325079	-0.012868	-0.369991	-0.104734	-0.113651	-0.250271	0.045817	-0.357839	0.077335	-0.331827	0.007448	-0.289914
-0.240218	-0.134001	-0.199173	-0.216917	-0.026617	-0.276913	-0.053601	-0.247762	-0.092481	-0.204164	-0.088863	-0.030752	-0.261464	0.006756	-0.251694	-0.106035	-0.185542	-0.121837	-0.065021	-0.122089	-0.035839	-0.124463	-0.089934	-0.160235	-0.224889	-0.141238	-0.127591	-0.100479	-0.020149	-0.137011	-0.013962	-0.177123	-0.154937	-0.271943	-0.072078	-0.200393	-0.151373	0.021245	-0.266971	-0.062920	-0.225703	-0.121431	-0.363509	-0.040935	-0.101279	-0.257759	0.027109	-0.275502	-0.125699	-0.276661	-0.052072	-0.268903	-0.094736	-0.028426	-0.293563	-0.070124	-0.292057	-0.109380	-0.273808	-0.155108	-0.186404	-0.246325	-0.088155	-0.278356
-0.195284	-0.145083	-0.158291	-0.105925	-0.188745	-0.137552	-0.186057	-0.129035	-0.174955	-0.132935	-0.184983	-0.081409	-0.144430	-0.127531	-0.112011	-0.204924	-0.130562	-0.219343	-0.014667	-0.173208	-0.081372	-0.115068	-0.113618	-0.093255	-0.207027	-0.151583	-0.204201	-0.131268	-0.164512	-0.085435	-0.073198	-0.170290	-0.240149	-0.351682	-0.165496	-0.460734	-0.102707	-0.141808	-0.101492	-0.097980	-0.135434	-0.207248	-0.412139	-0.124321	-0.296795	-0.153262	-0.074534	-0.209877	-0.242949	-0.138734	-0.170542	-0.315093	-0.153934	-0.071045	-0.190483	-0.116331	-0.147738	-0.210475	-0.159145	-0.196698	-0.112247	-0.204007	-0.109221	-0.191307
-0.140492	-0.191539	-0.106995	-0.152833	-0.135670	-0.130784	-0.178942	-0.145490	-0.188545	-0.045023	-0.255875	-0.090994	-0.193831	-0.106470	-0.145523	-0.181127	-0.139187	-0.237741	0.017193	-0.241378	-0.065419	-0.173435	-0.098167	-0.137361	-0.150327	-0.160144	-0.191429	-0.119264	-0.212245	-0.032311	-0.148337	-0.128561	-0.245053	-0.257448	-0.221350	-0.451221	-0.075730	-0.180866	-0.093711	-0.147572	-0.046160	-0.296620	-0.258003	-0.233261	-0.274969	-0.117545	-0.117948	-0.153564	-0.294693	0.017233	-0.334596	-0.143834	-0.198244	-0.069518	-0.182902	-0.121170	-0.034320	-0.336976	0.027141	-0.297665	-0.052227	-0.231398	-0.097578	-0.158378
-0.211340	-0.103431	-0.311572	-0.064814	-0.206488	-0.125413	-0.087303	-0.167893	-0.097449	-0.287810	-0.192504	-0.242206	-0.157792	-0.156652	-0.184609	-0.033096	-0.227111	-0.141218	-0.247073	-0.265784	-0.129772	-0.269599	-0.056543	-0.188841	-0.119636	-0.208806	-0.233585	-0.095931	-0.254852	-0.068220	-0.278776	-0.049376	-0.182839	0.077014	-0.291196	0.168861	-0.186371	-0.210282	0.042440	-0.261872	-0.015441	-0.305252	0.321161	-0.292568	0.008005	0.001785	-0.241476	0.071076	-0.268086	0.083175	-0.403913	0.191263	-0.146438	-0.169631	0.032504	-0.230971	0.041887	-0.323052	0.078568	-0.262313	-0.031542	-0.036153	-0.190659	0.022052
-0.223370	-0.115772	-0.163660	-0.110076	-0.141263	-0.132220	-0.156799	-0.182473	-0.087938	-0.182044	-0.071644	-0.099604	-0.093800	-0.118374	-0.150850	-0.195193	-0.217215	-0.014018	-0.093184	-0.075537	-0.066773	-0.127232	-0.099735	-0.139642	-0.083352	-0.209558	-0.079908	-0.088997	-0.140082	-0.043233	-0.142637	-0.174062	-0.208589	-0.242591	-0.136082	-0.388494	-0.048355	-0.171976	-0.142505	-0.150212	-0.164034	-0.137794	-0.415750	-0.090028	-0.365587	-0.123458	-0.186533	-0.218350	-0.175275	-0.186482	-0.119630	-0.364937	-0.095981	-0.255290	-0.185758	-0.135011	-0.182224	-0.171443	-0.193966	-0.194173	-0.237609	-0.198770	-0.139496	-0.246755
0.378989	-0.900336	0.744274	-0.799854	0.094448	-0.137678	-0.084041	-0.074869	-0.737090	0.568962	-1.078091	0.616050	-0.491262	0.338966	-0.233428	0.139095	0.287139	-0.945650	0.723880	-1.078755	0.374184	-0.344267	0.124847	-0.152070	-0.265017	0.097896	-0.618686	0.162897	-0.224161	-0.020480	0.270007	-0.370852	-0.165346	-0.416724	-0.146223	-0.271386	-0.271539	0.346349	-0.578341	0.403718	0.037273	-0.063745	-0.127133	0.063886	0.094219	-0.384650	0.407548	-0.555159	-0.230074	0.092094	0.100941	-0.294804	-0.097379	0.254676	-0.643034	0.554042	-0.041390	0.082281	-0.252707	0.361803	-0.035733	-0.334484	0.514619	-0.526083
-0.258580	-0.104323	-0.092058	-0.271272	-0.270561	0.429551	-1.148748	0.967594	-0.169760	-0.135528	-0.460927	-0.187865	0.195817	-1.224532	1.368643	-1.716474	0.263833	-0.878548	0.351557	-0.685071	-0.340975	0.835231	-1.631863	1.454295	-0.868702	0.693027	-1.082181	0.772825	-0.395600	-0.740425	1.067456	-1.194539	0.362119	-0.961772	0.994162	-1.410577	0.247601	0.217240	-0.999556	0.746969	-0.426349	0.337395	-1.097895	0.543482	-0.633817	-0.223146	0.264397	-0.708089	-0.019037	-0.221419	0.090269	-0.468171	0.151464	-0.390883	-0.323203	0.182316	-0.049562	-0.224099	-0.054268	-0.103363	-0.275083	-0.187848	-0.023238	-0.172377
-0.174665	-0.186061	-0.179795	-0.026240	-0.168923	-0.137161	-0.143033	-0.193146	-0.101477	-0.144631	-0.041266	-0.191270	-0.002490	-0.135830	-0.098365	-0.128642	-0.195010	-0.016498	-0.175362	0.090662	-0.191249	0.037357	-0.163972	-0.105118	-0.124042	-0.169703	-0.015374	-0.204338	0.030918	-0.175999	-0.004822	-0.187611	-0.097281	-0.326354	-0.074616	-0.312943	-0.116637	-0.031948	-0.184574	-0.088592	-0.342413	0.023872	-0.577896	0.055417	-0.356318	-0.149420	-0.065191	-0.232739	0.011207	-0.465720	0.133269	-0.617332	0.082164	-0.260264	-0.093220	-0.095091	-0.365439	0.027330	-0.482939	0.013056	-0.405020	-0.057664	-0.194358	-0.194066
-0.160687	-0.121183	-0.143899	-0.149027	-0.196312	-0.188277	-0.118814	-0.130432	-0.206902	-0.086668	-0.286610	-0.062924	-0.233328	-0.066318	-0.177263	-0.152865	-0.083395	-0.290431	0.040996	-0.314173	-0.022715	-0.263909	-0.066016	-0.186410	-0.201139	-0.155775	-0.218051	-0.110037	-0.242074	-0.029305	-0.192285	-0.034951	-0.235210	-0.285558	-0.208281	-0.503976	-0.101147	-0.109134	-0.069149	-0.156579	-0.065268	-0.290900	-0.233685	-0.253657	-0.197396	-0.176932	-0.056708	-0.138877	-0.314788	0.012381	-0.348471	-0.076940	-0.331183	0.083312	-0.221535	-0.058988	-0.002885	-0.336554	0.084862	-0.338270	0.103026	-0.308256	0.029618	-0.179669
-0.196965	-0.154273	-0.195635	-0.142768	-0.178471	-0.130617	-0.206080	-0.170749	-0.160253	-0.153630	-0.123591	-0.132774	-0.105289	-0.174312	-0.122808	-0.203485	-0.138253	-0.122136	-0.066318	-0.068021	-0.110850	-0.027503	-0.170895	-0.124821	-0.221994	-0.091715	-0.108453	-0.093914	-0.051023	-0.140888	-0.035414	-0.218060	-0.083843	-0.277020	-0.085161	-0.212440	-0.058208	-0.100517	-0.224798	-0.067531	-0.247584	-0.099778	-0.352879	-0.030253	-0.170993	-0.139671	-0.063730	-0.278361	-0.142020	-0.281988	-0.081684	-0.323351	0.002129	-0.212559	-0.153895	-0.121624	-0.228889	-0.156366	-0.242667	-0.166233	-0.295942	-0.098201	-0.193122	-0.185388
0.107934	-0.315626	-0.442273	0.244709	-0.946900	0.518319	-0.818687	0.249266	-0.690868	0.299269	-0.421636	-0.482682	0.465951	-1.157495	0.400140	-0.411942	0.197721	-0.768704	0.249115	-0.462249	-0.281572	-0.064819	-0.099042	-0.389778	-0.453882	0.200501	-0.604874	0.160353	-0.286515	0.122547	-1.011417	0.511468	-0.194278	-0.018113	-0.298817	0.005724	-0.179301	-0.656700	1.010699	-1.199095	0.312259	-0.906340	0.814177	-0.826866	0.177627	0.197285	-1.384056	0.907313	-1.178120	1.096903	-1.739154	0.916051	-0.495311	-0.555167	0.648310	-1.188496	0.841787	-1.604202	1.260545	-0.942834	0.179066	0.006884	-0.639749	0.596956
-0.142205	-0.100358	-0.153932	-0.091412	-0.192516	-0.165748	-0.121358	-0.225295	-0.170136	-0.096031	-0.157087	-0.111222	-0.156163	-0.118723	-0.207549	-0.140276	-0.149924	-0.156075	-0.019303	-0.178220	-0.035308	-0.200130	-0.083175	-0.199025	-0.100152	-0.157249	-0.182993	-0.064334	-0.226827	-0.040560	-0.169353	-0.148722	-0.232924	-0.222492	-0.150166	-0.496748	-0.098432	-0.146155	-0.126266	-0.140784	-0.010652	-0.297295	-0.248183	-0.187388	-0.309331	-0.155501	-0.132166	-0.188204	-0.336522	0.039988	-0.331307	-0.213015	-0.154570	-0.141648	-0.130167	-0.153659	-0.036432	-0.324871	-0.007615	-0.300113	-0.106954	-0.202200	-0.155763	-0.156786
-0.231530	-0.138765	-0.216323	-0.135906	-0.118782	-0.234983	-0.092810	-0.233137	-0.156679	-0.174022	-0.104616	-0.072185	-0.200385	-0.014423	-0.247713	-0.105358	-0.145304	-0.135907	-0.097496	-0.119137	-0.081431	-0.116391	-0.022251	-0.199303	-0.286352	-0.098045	-0.129335	-0.133324	-0.033449	-0.085033	-0.104458	-0.096967	-0.126790	-0.348350	-0.125293	-0.348644	-0.122477	-0.027977	-0.124320	-0.130140	-0.260040	-0.137891	-0.338247	-0.140382	-0.151085	-0.239421	-0.013354	-0.171628	-0.137902	-0.222519	-0.174006	-0.221707	-0.158301	-0.001692	-0.256857	-0.129051	-0.246422	-0.165335	-0.164553	-0.249571	-0.110618	-0.297794	-0.075125	-0.231360
-0.173477	-0.012404	0.175193	-0.386871	0.192981	-0.451428	0.070180	-0.144880	0.105699	-0.193256	-0.264550	0.150704	-0.574091	0.209159	-0.316080	-0.200096	-0.278091	0.009556	0.054164	-0.510139	0.291581	-0.705494	-0.070045	-0.053336	0.213926	-0.384290	-0.146299	0.053525	-0.740582	0.222005	-0.353475	-0.157550	-0.446324	0.047234	-0.239497	-0.697796	0.007234	-0.298274	-0.052336	-0.061743	0.317651	-0.688431	0.049745	-0.400533	-0.269395	-0.085239	-0.138853	-0.084674	-0.686781	0.428820	-0.628020	0.210739	-0.416516	0.192379	-0.077524	-0.082941	0.393680	-0.633753	0.247466	-0.399559	0.222384	-0.300536	0.100165	-0.084800
-1.090895	0.903650	-0.996411	0.708519	-0.697364	0.497632	-0.656479	0.183578	1.162559	-1.280431	0.846321	-0.829854	0.352128	-0.576075	0.257517	-0.287048	-1.327745	0.913309	-1.000176	0.186768	-0.326206	0.055920	-0.589343	-0.093665	0.813676	-0.758544	0.344936	-0.244567	-0.146988	-0.200144	-0.013414	0.003967	-0.523266	-0.257993	-0.017750	-0.787564	0.359095	-0.548147	0.387939	-0.670110	-0.160642	0.281364	-0.957339	0.756444	-1.308065	1.012694	-0.991422	0.584687	0.247096	-0.721230	0.960900	-1.322265	1.302791	-1.169323	0.796578	-0.708567	-0.356853	0.306555	-0.788416	0.919476	-1.215859	0.757735	-0.939451	0.370783
-0.109159	-0.283528	-0.057715	-0.643311	0.713238	-1.173876	0.717761	-0.697116	-0.057313	-0.439771	-0.067333	0.292691	-1.036175	0.772151	-1.196070	0.474690	-0.521768	0.210550	-0.634687	-0.190329	-0.225736	-0.582209	0.362386	-0.446973	-0.052818	-0.741633	0.336256	-0.658302	0.437694	-0.652792	0.014940	-0.238966	-0.337193	0.301184	-0.856751	0.594926	-0.784749	0.447409	-0.675807	0.049101	-0.275315	-0.207312	-0.110500	-0.310624	0.180281	-0.506237	-0.034844	-0.019898	0.153884	-0.648567	0.270328	-0.628976	0.206866	-0.616939	0.183987	-0.431350	-0.401705	0.326983	-0.671453	0.292996	-0.720917	0.417845	-0.901020	0.226781
-0.251640	-0.077137	-0.182859	-0.223218	0.141130	-0.432700	0.073472	-0.352242	-0.001900	-0.309126	0.018727	-0.062224	-0.330754	0.146724	-0.382035	0.025953	-0.227916	0.047594	-0.278100	0.032781	-0.103818	-0.101707	-0.066410	-0.183470	-0.203726	-0.188568	0.020026	-0.303265	0.106685	-0.289034	0.059079	-0.278240	-0.000088	-0.325593	-0.137881	-0.141147	-0.214451	0.154919	-0.358267	0.024473	-0.432333	0.069199	-0.553719	0.029003	-0.171194	-0.269948	0.073590	-0.219946	0.109245	-0.563581	0.192651	-0.590987	0.089063	-0.153817	-0.194992	-0.074222	-0.439961	0.124216	-0.530238	0.068816	-0.394985	-0.079141	-0.161297	-0.234354
-0.179263	-0.152588	-0.139978	-0.079560	-0.178654	-0.083339	-0.202629	-0.103632	-0.120360	-0.120055	-0.072802	-0.138794	-0.091897	-0.127051	-0.076074	-0.263303	-0.203984	-0.103381	-0.057129	-0.086791	-0.078147	-0.063616	-0.172566	-0.060983	-0.096700	-0.171834	-0.141467	-0.130924	-0.165344	-0.126127	-0.044684	-0.219793	-0.211147	-0.290295	-0.113829	-0.482153	-0.069608	-0.155449	-0.172521	-0.084209	-0.159947	-0.145696	-0.467628	-0.074172	-0.385463	-0.110922	-0.141957	-0.229228	-0.181516	-0.193126	-0.112074	-0.437362	-0.080845	-0.324279	-0.105778	-0.175016	-0.162442	-0.173565	-0.252896	-0.162876	-0.270026	-0.116165	-0.225557	-0.134338
-0.062555	-0.161724	-0.141684	-0.146482	-0.117499	-0.126839	-0.237214	-0.095981	-0.178204	-0.056564	-0.118683	-0.274493	-0.158924	-0.350680	-0.080330	-0.289214	0.044353	-0.257971	-0.278458	-0.053231	-0.435025	-0.096897	-0.434167	-0.083284	-0.263303	0.075574	-0.171865	-0.250531	-0.154547	-0.443735	-0.185988	-0.262875	0.125119	-0.136776	-0.066156	0.335567	-0.313872	-0.212514	-0.332291	-0.143548	-0.337032	0.122650	0.119327	-0.320714	0.137338	-0.146242	-0.221007	-0.094185	0.167606	-0.319832	-0.031730	0.158567	-0.255226	-0.116553	-0.070612	-0.237973	-0.287437	0.088247	-0.212603	-0.122409	-0.027208	-0.098084	-0.226600	-0.013029
-0.054280	-0.073047	-0.216663	0.073357	-0.342082	0.067724	-0.301637	0.033168	-0.146194	-0.083596	-0.082594	-0.361059	0.102665	-0.452097	0.097693	-0.295610	0.025452	-0.137278	-0.196283	-0.077703	-0.371632	-0.028448	-0.370187	0.023432	-0.147550	-0.043008	-0.212167	-0.182899	-0.141557	-0.345669	-0.169715	-0.220874	-0.154783	0.071672	-0.272595	0.201126	-0.350802	-0.182036	-0.051456	-0.115632	0.073716	-0.296300	0.330375	-0.436423	0.130222	-0.145521	-0.169867	-0.099281	-0.300821	0.153397	-0.483948	0.288499	-0.372263	-0.008653	-0.139018	-0.094924	0.061666	-0.328715	0.159846	-0.320259	0.074848	-0.205868	-0.050363	-0.103082
-0.170941	-0.130976	-0.124764	-0.129333	-0.126120	-0.228536	-0.068815	-0.174921	-0.149232	-0.110133	-0.183968	-0.093237	-0.240385	-0.038821	-0.233669	-0.146197	-0.154508	-0.114926	-0.055643	-0.197532	-0.023952	-0.248433	-0.086619	-0.136918	-0.084020	-0.205349	-0.158041	-0.161847	-0.241434	-0.050931	-0.185295	-0.136165	-0.272388	-0.274442	-0.199619	-0.468657	-0.120505	-0.179172	-0.131295	-0.148008	-0.057569	-0.248691	-0.315064	-0.217600	-0.314516	-0.177320	-0.127668	-0.157694	-0.269346	-0.011242	-0.288158	-0.214266	-0.207786	-0.093321	-0.150675	-0.112981	-0.026811	-0.279755	-0.031423	-0.247914	-0.039829	-0.227761	-0.088680	-0.164410
-0.125396	-0.222823	-0.114903	-0.161757	-0.130740	-0.112674	-0.268892	-0.076493	-0.215674	-0.080264	-0.054007	-0.219114	-0.047952	-0.230108	-0.041777	-0.304556	-0.048235	-0.159401	-0.180950	0.037045	-0.262629	0.073647	-0.275082	-0.049382	-0.265106	-0.022648	-0.097967	-0.207422	0.038099	-0.241689	-0.004434	-0.250457	0.020547	-0.313065	-0.056794	0.009779	-0.192844	-0.053341	-0.232592	-0.085585	-0.411132	0.062027	-0.328069	-0.037629	-0.066704	-0.141526	-0.144425	-0.191662	0.085361	-0.472489	0.065344	-0.355955	0.018670	-0.228144	-0.000038	-0.198148	-0.425929	0.084678	-0.420644	-0.010873	-0.351016	0.081135	-0.342651	-0.068894
-0.103854	0.090508	-0.460073	0.314782	-0.753515	0.614711	-0.224890	-0.361008	-0.506249	-0.120316	0.225570	-0.848491	0.662964	-0.707984	-0.301950	0.434523	0.400808	-0.489022	-0.135493	0.006083	-0.396466	-0.013632	0.143100	-0.676385	-1.012793	0.702864	-0.488044	0.001920	-0.106083	-0.332455	-0.035238	-0.122828	0.849365	-1.086283	0.607200	-0.540945	-0.303241	0.389836	-0.848536	0.456964	-1.066446	0.876980	-0.909335	0.476429	0.110305	-0.998856	0.860942	-1.237983	0.412025	-0.996320	0.684569	-0.698909	-0.087809	0.469364	-1.207368	1.150968	-0.511300	0.598729	-0.763001	0.452660	-0.347694	-0.327614	0.934909	-1.238810
0.149778	-0.249995	-0.000921	-0.382673	0.074707	-0.271724	0.026709	-0.281680	-0.407008	0.202809	-0.312733	0.182163	-0.297493	0.020251	-0.331948	0.064925	0.293923	-0.504029	0.130089	-0.299663	-0.120032	-0.074776	-0.088335	-0.374785	-0.451836	0.211636	-0.109728	-0.228566	0.175162	-0.210722	-0.276982	0.116171	0.151839	-0.221723	-0.164854	0.225213	-0.436980	-0.018257	-0.133316	-0.350785	-0.175995	-0.086836	0.138063	-0.532420	0.380063	-0.600818	0.009105	-0.124236	0.072012	-0.128976	-0.378388	0.383405	-0.730670	0.275958	-0.678448	-0.115047	-0.206541	-0.209648	0.196669	-0.526863	0.339595	-0.701189	0.067620	-0.376421
-0.157936	-0.146007	-0.156139	-0.215546	-0.013808	-0.290163	-0.011520	-0.248798	-0.095694	-0.196121	-0.181296	-0.091721	-0.301344	-0.038107	-0.329897	-0.040744	-0.181726	-0.105299	-0.251239	-0.222701	-0.167312	-0.270732	-0.102524	-0.210881	-0.087371	-0.171855	-0.144090	-0.206976	-0.159702	-0.244139	-0.149569	-0.180484	-0.118068	-0.011253	-0.221725	0.130752	-0.263130	-0.104500	-0.234984	-0.138319	-0.101501	-0.178811	0.125557	-0.217232	0.008428	-0.140635	-0.096721	-0.113250	-0.079349	-0.167212	-0.119693	-0.010977	-0.118482	-0.151610	-0.124091	-0.106412	-0.168511	-0.094935	-0.165338	-0.104102	-0.135499	-0.101093	-0.160531	-0.116204
-0.179134	-0.158329	-0.233386	-0.090901	-0.233287	-0.103677	-0.204785	-0.194165	-0.194449	-0.129561	-0.158673	-0.116455	-0.098852	-0.159028	-0.172342	-0.166705	-0.093733	-0.155063	-0.024423	-0.117251	-0.020957	-0.087615	-0.071404	-0.198275	-0.247717	-0.073489	-0.175211	-0.036149	-0.103919	-0.035869	-0.166417	-0.096017	-0.124289	-0.248556	-0.064931	-0.304770	-0.018991	-0.140513	-0.075185	-0.208899	-0.144914	-0.199626	-0.233518	-0.124603	-0.112896	-0.178654	-0.072036	-0.178899	-0.242692	-0.130445	-0.284073	-0.096690	-0.210842	-0.029905	-0.276246	-0.133652	-0.182095	-0.319074	-0.028128	-0.355759	-0.054061	-0.317626	-0.079945	-0.301719
-0.160310	-0.228062	-0.102830	-0.157576	-0.276288	-0.010954	-0.209518	-0.070234	-0.360617	0.005845	-0.406924	-0.036849	-0.045917	-0.174063	-0.017035	-0.170058	-0.045885	-0.483313	0.156107	-0.360675	-0.077304	-0.002359	-0.110593	-0.021355	-0.409232	-0.075960	-0.395475	-0.023346	-0.185538	-0.118881	0.036010	-0.204860	-0.242682	-0.495705	-0.114881	-0.461077	-0.091391	0.022923	-0.228274	0.044933	-0.198486	-0.202421	-0.390851	-0.107147	-0.111689	-0.242351	0.061760	-0.256814	-0.296699	-0.069416	-0.202339	-0.092871	-0.238051	0.065888	-0.219549	0.009004	-0.073333	-0.206882	-0.049311	-0.210253	-0.019352	-0.198283	-0.004082	-0.159010
-0.343045	0.126454	-0.468766	0.274593	-0.708342	0.550876	-0.703088	0.358200	0.207714	-0.419449	0.376053	-0.520403	0.437141	-0.373443	0.370762	-0.453280	-0.524188	0.340336	-0.441046	0.189779	-0.144398	0.021141	-0.079031	-0.102596	0.255038	-0.507850	0.068625	0.134270	-0.526317	0.332533	-0.342406	0.039748	-0.461830	0.175470	0.165734	-0.846936	0.488832	-0.790987	0.204675	-0.322741	0.131991	-0.032669	-0.688270	0.392470	-1.016597	0.152160	-0.644812	-0.112775	-0.305192	-0.096940	0.315552	-0.778233	0.082732	-0.672103	-0.085498	-0.164854	-0.022713	0.018404	-0.348866	0.139667	-0.520260	-0.076786	-0.311057	-0.110133
0.069467	-0.268395	-0.016985	-0.156540	-0.152662	-0.085130	-0.217548	-0.041066	-0.203020	-0.008821	-0.177258	-0.226298	-0.120297	-0.336314	-0.050044	-0.225831	-0.025871	-0.172085	-0.265405	-0.111988	-0.349752	-0.125436	-0.363533	-0.073341	-0.118209	-0.084784	-0.156152	-0.238683	-0.187259	-0.386550	-0.178938	-0.210497	-0.111856	0.062388	-0.185304	0.240192	-0.353657	-0.168105	-0.269926	-0.088734	-0.035708	-0.191610	0.204345	-0.315017	0.060951	-0.180374	-0.092778	-0.132106	-0.135268	-0.038466	-0.159467	0.104313	-0.213864	-0.129839	-0.141302	-0.145071	-0.067619	-0.132252	-0.079583	-0.121854	-0.077023	-0.069380	-0.123496	-0.077877
-0.119871	-0.196890	-0.187080	-0.164788	-0.177525	-0.131633	-0.214507	-0.099119	-0.159630	-0.207656	-0.238217	-0.265330	-0.152978	-0.309878	-0.126220	-0.162572	-0.140121	-0.199820	-0.313493	-0.184773	-0.312228	-0.174515	-0.240477	-0.143875	-0.161286	-0.099676	-0.205990	-0.217940	-0.214666	-0.284457	-0.167739	-0.165848	-0.092622	0.021060	-0.177741	0.266474	-0.215147	-0.219728	-0.158059	-0.146408	-0.092323	-0.097162	0.203625	-0.181523	-0.050587	-0.030984	-0.185466	-0.051242	-0.078751	-0.130510	-0.097921	0.058392	-0.092423	-0.137317	-0.028044	-0.192352	-0.128477	-0.054600	-0.199880	-0.024775	-0.139822	-0.023418	-0.167450	-0.054964
-0.224252	-0.104557	-0.367187	-0.223279	-0.030513	-0.249101	0.130075	-0.310872	-0.092452	-0.425323	-0.007730	-0.171490	-0.194343	0.036742	-0.419772	0.192385	-0.409276	0.045713	-0.369605	-0.056789	-0.133141	-0.342244	0.303492	-0.437226	0.028901	-0.462184	0.141179	-0.248612	0.001680	0.038941	-0.407160	0.169446	-0.417491	0.424677	-0.442747	0.277641	-0.090588	-0.100112	0.136725	-0.406341	0.089839	-0.454551	0.309235	-0.104426	-0.095515	0.042993	-0.450608	0.114144	-0.324670	0.073504	-0.233978	-0.105924	0.040054	-0.441729	0.116566	-0.334675	-0.024268	-0.208274	0.014819	-0.082903	-0.307602	0.065714	-0.381093	0.021256
-0.107539	-0.255101	-0.138738	-0.137959	-0.205197	-0.104436	-0.229978	-0.171198	-0.292438	-0.032004	-0.172339	-0.123212	-0.031054	-0.181902	-0.058437	-0.201653	-0.050152	-0.237749	-0.040993	-0.115734	-0.139259	0.057576	-0.189857	-0.121433	-0.293439	-0.062159	-0.149816	-0.123964	0.015132	-0.187718	-0.015234	-0.202338	-0.120806	-0.304447	-0.079340	-0.180724	-0.132811	-0.032375	-0.205688	-0.099455	-0.259255	-0.103756	-0.360567	-0.019679	-0.088534	-0.161285	-0.087957	-0.260196	-0.161256	-0.301789	-0.078846	-0.284433	-0.034204	-0.195885	-0.152986	-0.146497	-0.241003	-0.140992	-0.251602	-0.131343	-0.259738	-0.086704	-0.225968	-0.163151
-0.155002	-0.153935	-0.196719	-0.149317	-0.099975	-0.217937	-0.157329	-0.221843	-0.180768	-0.117342	-0.163953	-0.102279	-0.148127	-0.170472	-0.211152	-0.138653	-0.055186	-0.158044	-0.112039	-0.064052	-0.172905	-0.051389	-0.164027	-0.206883	-0.246512	-0.050075	-0.120791	-0.146564	-0.028561	-0.209856	-0.142252	-0.181332	-0.021220	-0.279434	-0.031845	-0.016006	-0.185203	-0.105433	-0.133236	-0.195904	-0.338443	0.046274	-0.245667	-0.134716	0.012442	-0.181510	-0.143506	-0.164286	-0.033149	-0.323426	-0.124619	-0.083052	-0.182546	-0.115137	-0.183890	-0.204299	-0.332397	-0.090893	-0.165312	-0.280951	-0.076990	-0.247144	-0.146573	-0.201477
-0.206347	0.019582	-0.160229	-0.074866	-0.119486	-0.211333	-0.091157	-0.180089	-0.051506	-0.194085	-0.128049	-0.066896	-0.261773	-0.018990	-0.250796	-0.147422	-0.135132	-0.090017	0.001138	-0.279465	0.040139	-0.353934	-0.037894	-0.222861	-0.076129	-0.152876	-0.194931	-0.053217	-0.355935	0.003322	-0.316415	-0.086400	-0.221318	-0.211230	-0.173726	-0.561252	-0.050349	-0.235669	-0.058003	-0.187926	0.050895	-0.339352	-0.174510	-0.251289	-0.295133	-0.182886	-0.147617	-0.133908	-0.420031	0.191085	-0.428493	-0.043480	-0.299264	-0.023959	-0.156151	-0.172752	0.148641	-0.448602	0.152557	-0.384167	0.094547	-0.273706	-0.023274	-0.122942
-0.269746	0.012042	-0.297247	0.108031	-0.375893	0.120119	-0.376960	0.091437	0.041602	-0.264630	0.104989	-0.288514	0.170615	-0.291391	0.175585	-0.475706	-0.252176	0.044927	-0.137298	0.044245	-0.132189	0.042479	-0.281687	0.161234	-0.063974	-0.173038	-0.135594	0.055617	-0.290412	0.004147	-0.062780	-0.251905	-0.142270	-0.303642	0.035787	-0.622780	0.199554	-0.369768	-0.038049	-0.139039	-0.256013	0.014768	-0.604233	0.072533	-0.598019	-0.005230	-0.250108	-0.226043	0.007184	-0.334803	0.015751	-0.497331	-0.046923	-0.352473	-0.143130	-0.090336	-0.312530	-0.067798	-0.298975	-0.146030	-0.304007	-0.158648	-0.192049	-0.168930
-0.119526	-0.235896	0.349998	-0.526784	0.210561	-0.661942	0.277124	-0.476965	-0.005180	-0.046407	-0.492577	0.255883	-0.694871	0.507076	-0.641918	0.128194	-0.219842	-0.062683	0.216119	-0.606397	0.409704	-0.727280	0.250031	-0.462903	0.238865	-0.345295	-0.003209	-0.142081	-0.531724	0.239037	-0.458017	0.116420	-0.415630	0.152373	-0.301543	-0.384327	-0.138143	-0.024266	-0.050016	-0.221915	0.163204	-0.439195	0.197610	-0.355017	0.036044	-0.202696	-0.014456	-0.058766	-0.361729	0.208397	-0.398619	0.269298	-0.395639	0.363202	-0.229321	0.013589	0.058370	-0.280222	-0.011776	-0.262317	0.149946	-0.298593	0.167810	-0.212200
0.022444	-0.277566	-0.119063	-0.308621	-0.012704	-0.339139	0.048782	-0.366205	-0.407557	0.109616	-0.123744	-0.025962	-0.261016	-0.064392	-0.389505	0.127443	0.100942	-0.404136	-0.129891	-0.039137	-0.314155	-0.032465	-0.063322	-0.412965	-0.474907	0.042667	-0.018961	-0.403035	0.279652	-0.475616	-0.105757	-0.039957	0.187970	-0.465447	-0.140709	0.331622	-0.591779	0.115290	-0.361450	-0.272787	-0.607798	0.232515	-0.315875	-0.367154	0.414756	-0.676627	-0.058715	-0.146334	0.279436	-0.662021	0.145201	0.069648	-0.524211	0.148153	-0.454395	-0.295321	-0.568318	0.303765	-0.347745	-0.242754	0.119827	-0.472073	-0.119831	-0.272278
-0.223500	-0.129931	-0.229755	-0.039961	-0.283056	-0.034528	-0.277662	-0.081066	-0.227758	-0.081847	-0.132956	-0.180202	-0.020604	-0.200199	-0.050525	-0.227489	-0.098429	-0.214966	0.001150	-0.128093	-0.078255	-0.076400	-0.126147	-0.126156	-0.252539	-0.075495	-0.218932	-0.056079	-0.124463	-0.034108	-0.073252	-0.139199	-0.110115	-0.391063	-0.079918	-0.414728	-0.062283	-0.128989	-0.084956	-0.140631	-0.282686	-0.125759	-0.384465	-0.098346	-0.203049	-0.174714	-0.086846	-0.200852	-0.205950	-0.215415	-0.212789	-0.255057	-0.141328	-0.084651	-0.195029	-0.159042	-0.183526	-0.249142	-0.118501	-0.258808	-0.125360	-0.202409	-0.108477	-0.210318
-0.086614	-0.019876	-0.157780	-0.070122	0.000516	-0.206305	0.059260	-0.233396	-0.026911	-0.190151	0.100484	-0.057307	-0.206655	0.058238	-0.329620	-0.006991	-0.225922	0.129949	-0.148096	-0.096492	0.070233	-0.430266	0.147782	-0.286523	0.174809	-0.342504	0.133143	-0.102615	-0.272151	0.119502	-0.448152	-0.036108	-0.362260	0.202355	-0.260191	-0.280986	-0.033570	-0.327655	0.023585	-0.354660	0.123146	-0.395765	0.051448	-0.168570	-0.387481	-0.086718	-0.481823	-0.020117	-0.381635	0.185367	-0.379345	-0.106252	-0.133558	-0.435664	-0.010769	-0.412597	0.091323	-0.361759	0.188946	-0.287041	-0.156594	-0.122420	-0.354609	-0.065425
-0.134795	-0.201973	-0.171737	-0.122423	-0.168190	-0.172827	-0.200458	-0.201775	-0.181803	-0.144201	-0.084016	-0.178184	-0.092512	-0.195382	-0.124842	-0.203774	-0.146589	-0.129043	-0.158455	-0.007729	-0.207437	0.010424	-0.214843	-0.112290	-0.229256	-0.079015	-0.080586	-0.156301	0.004431	-0.218369	-0.030092	-0.236193	-0.041511	-0.224235	-0.057121	-0.101189	-0.105112	-0.102467	-0.165336	-0.138781	-0.300723	-0.006458	-0.333977	-0.017668	-0.113427	-0.121726	-0.122503	-0.137270	-0.045993	-0.368987	0.001330	-0.344306	0.027716	-0.213780	-0.090325	-0.216316	-0.307351	-0.055025	-0.326725	-0.077057	-0.305266	-0.069751	-0.249324	-0.118740
-0.205010	-0.132845	-0.232380	-0.090774	-0.223409	-0.115878	-0.190582	-0.170471	-0.189690	-0.157530	-0.082608	-0.123161	-0.093918	-0.177723	-0.108811	-0.246719	-0.127913	-0.120899	-0.063354	-0.131771	-0.045275	-0.056504	-0.134905	-0.106166	-0.212294	-0.082878	-0.203436	-0.026873	-0.093857	-0.110878	-0.056961	-0.215282	-0.140051	-0.286797	-0.029251	-0.329648	-0.028242	-0.109740	-0.174518	-0.067860	-0.202545	-0.171910	-0.323708	-0.039569	-0.229091	-0.118450	-0.075593	-0.242873	-0.215374	-0.150608	-0.240060	-0.274506	-0.082725	-0.179241	-0.186631	-0.155114	-0.198733	-0.275636	-0.105913	-0.214483	-0.225727	-0.155556	-0.176192	-0.206293
-0.233901	-0.117146	-0.160967	-0.109804	-0.167367	-0.218185	-0.073292	-0.255991	-0.125868	-0.167981	-0.165932	-0.114152	-0.165127	-0.013542	-0.255995	-0.032965	-0.184309	-0.158996	-0.096593	-0.151581	-0.066320	-0.190548	-0.009155	-0.222127	-0.197163	-0.247167	-0.150901	-0.175826	-0.150491	-0.076270	-0.106712	-0.096220	-0.182456	-0.428162	-0.156754	-0.438492	-0.169100	-0.045987	-0.153133	-0.068012	-0.307213	-0.080695	-0.498595	-0.138206	-0.192987	-0.233737	0.001865	-0.256536	-0.088841	-0.292714	-0.110218	-0.307504	-0.207987	0.028187	-0.237020	-0.031178	-0.259137	-0.084387	-0.199337	-0.191612	-0.037237	-0.237518	-0.034206	-0.200351
0.199241	-0.206699	0.056207	-0.373821	0.030777	0.053493	-0.167237	-0.059239	-0.260251	0.161987	0.143887	0.046965	0.066815	-0.384087	0.549409	-0.273545	0.069875	-0.104840	-0.152915	0.341733	-0.433490	0.596905	-0.861846	0.422238	-0.023878	-0.240933	0.158208	-0.460753	0.463651	-0.710358	0.441951	-0.557876	-0.098103	0.228040	-0.268183	0.427363	-0.638549	0.380331	-0.852979	0.481745	0.001181	-0.166141	0.199251	-0.812673	0.611435	-0.928511	0.632913	-0.712446	0.048739	-0.052143	-0.404102	0.652646	-1.177418	0.705157	-0.955692	0.349356	-0.146759	-0.127450	0.303279	-0.634585	0.682721	-0.911581	0.479252	-0.584857
0.261908	-0.385225	0.155604	-0.522981	0.171046	-0.209677	-0.019890	-0.154391	-0.412660	0.271689	-0.209791	0.209169	-0.332213	-0.066747	-0.048263	-0.076385	0.166284	-0.350744	-0.107654	-0.118914	-0.199458	-0.008686	-0.390371	-0.110219	-0.199702	0.040077	0.027745	-0.312955	0.170864	-0.438233	0.021993	-0.262608	0.059418	-0.072227	-0.159906	0.487136	-0.504611	0.047426	-0.614619	0.018317	-0.250923	0.060589	0.042141	-0.453037	0.415235	-0.677878	0.146420	-0.399779	0.203353	-0.299416	0.076022	0.229771	-0.615415	0.262125	-0.741637	0.030203	-0.329533	0.182179	-0.136547	-0.214031	0.275167	-0.569915	0.172208	-0.470903
