-0.025428	-0.081263	-2.352653	0.463344	0.053725	0.026226	0.037056	-0.030551	0.598347	-0.210774	-0.598931	0.282068	0.109704	-0.057288	0.037377	-13.524897	-0.792354	-0.027438	0.021598	0.034952	-0.011706	-0.044022	-11.848149	-776.913395	0.369083	-0.081817	0.055024	0.032170	0.005230	0.009207	0.388331	-18.159105	0.076083	0.211900	0.067372	0.082783	-0.148540	-0.044718	0.499979	0.781502	0.120945	-0.160915	-0.040609	0.035485	0.030991	0.029320	0.017139	-0.024938	-0.000704	-0.037696	0.162963	-0.094797	0.440185	-0.073469	0.015746	-0.126341	0.124143	0.035136	-0.079344	-0.034210	0.125379	0.175441	0.129301	-2.178519
0.029025	0.042730	-1.379271	0.303613	0.229023	-0.040550	-0.078354	0.060066	0.046195	-0.132788	-0.301184	0.030435	-0.025963	0.070849	0.093065	0.571143	0.126183	0.005629	0.049395	0.001718	0.009665	0.065897	0.243976	-23.647523	-1.338842	0.090035	-0.109344	0.078118	0.091519	0.077512	-30.901508	-799.763553	0.060367	0.043067	-0.154388	-0.111246	0.070368	0.054270	0.074337	-27.847068	0.208307	-0.130822	-0.142317	-0.074431	-0.086039	0.212880	0.026594	-0.002179	-0.052739	0.014690	0.122412	0.223417	0.457330	-0.048011	0.047233	0.053559	-0.099794	0.024808	0.030233	0.066010	-0.068336	0.085035	-0.019409	-1.615581
-0.008473	0.696943	-68.404006	-735.056619	-91.633265	1.245748	0.236945	0.150842	-0.020335	3.142525	2.201110	-10.030998	1.623859	0.397761	0.451816	-0.277163	0.211499	1.264525	1.636914	0.015503	0.397505	-0.331842	-0.396556	1.136876	-0.609430	-0.077189	-0.183322	0.004903	0.357709	0.201145	0.906306	0.801707	0.837694	0.667769	0.006995	0.129539	0.344857	0.094198	-0.070436	0.884702	0.691100	0.038055	0.551131	-0.236574	-0.138556	0.287488	0.603649	-0.516410	0.522352	0.066270	0.562427	1.462438	0.643553	-0.244107	0.350426	0.022431	-0.353903	0.757460	1.270686	-3.829761	0.991854	0.351850	-0.245926	-5.761096
-0.112984	-0.088107	-2.267916	0.091807	0.357235	0.054667	-0.035996	0.038638	0.239952	0.449382	-0.233522	0.100979	0.238700	0.010816	-0.094452	0.021606	0.219332	0.295100	-0.020450	0.261224	0.222686	0.125603	0.043291	-0.042646	-0.124059	-0.004805	-0.110981	0.255331	0.055253	-0.038329	-0.420149	-0.145513	0.099429	0.186576	0.209085	0.045326	-1.841560	0.097241	0.336881	0.146709	-0.104863	-0.053709	0.052061	-0.984468	-738.697966	-34.404283	0.217756	-0.177754	0.179390	0.369381	0.015258	1.220911	-10.098833	0.079691	0.430568	0.056717	-0.210461	0.090431	0.147560	0.387219	0.433532	0.054879	-0.092835	-2.295896
0.260763	-0.042222	-4.060826	1.344477	0.061283	-2.436829	-805.516653	-6.832267	0.417932	0.732818	-0.908918	-0.111268	0.376679	-0.338585	-3.749296	-0.166018	0.194809	-0.172839	0.392298	0.178038	0.015773	0.101466	0.187099	0.308465	0.475010	0.085828	-0.141909	0.042441	0.491582	-0.190141	0.035061	0.354115	0.031708	0.099289	-0.139870	-0.083612	0.229570	-0.172962	0.153094	-0.713345	0.184321	0.039343	0.196824	-0.117949	-0.100125	-0.374363	0.215263	-0.063560	0.154351	-0.380365	0.478301	0.197234	1.000014	0.274153	-0.143550	0.409630	2.457202	0.309873	0.242031	0.386906	0.296013	0.173339	-0.996206	-5.279752
-0.365131	-0.410126	-3.014669	0.382806	0.371722	0.229195	-0.055964	0.477201	0.067376	0.413925	-0.013977	0.247843	0.068359	0.023807	-0.012605	0.333097	-0.013134	0.269637	-0.168362	-72.868904	-0.160153	0.034699	0.173242	-0.193459	0.241264	0.110745	-69.708102	-665.054759	-1.690666	-0.094457	0.457133	0.388709	0.009042	0.261354	0.187429	-2.074131	-0.680896	0.248228	0.338845	-0.752008	0.193057	-0.315072	-0.024842	0.616028	0.293086	0.503810	-0.289525	-0.117250	0.396542	-0.171035	-0.134030	-0.310657	-0.390515	-0.016773	-0.203882	0.030266	0.266170	0.168521	0.402168	0.134034	0.569073	0.229875	0.142119	-3.350040
-1.138564	0.370129	-3.100183	0.036822	0.212785	0.366602	0.365359	-1.733816	-360.910342	-1.178470	0.826353	0.109849	0.074777	0.077714	-2.212372	-402.293129	1.031849	-0.157683	0.276883	-0.199295	-0.032164	0.125448	0.202920	-397.436504	0.326654	0.301678	0.116515	0.003020	-0.166622	0.118194	0.522267	-1.881318	0.272944	-0.727451	0.049860	0.294419	-0.014263	0.097768	-0.091434	0.765367	-0.151237	0.094776	-0.000875	0.221206	0.000706	-0.452704	-0.613608	-0.176715	0.361004	-0.053468	-0.484493	0.173176	0.305360	0.179589	-0.047108	-0.002962	0.837017	0.045605	0.049468	0.352108	-0.207928	0.321836	-0.022041	-2.139328
-386.686223	-2.784929	-4.031558	0.716110	0.531725	-0.155255	-1.928746	-354.397007	-295.318164	-0.202968	-1.285230	0.187167	-0.320114	0.615045	-0.079863	-1.952735	-0.162915	0.152091	-0.192834	0.604324	-0.383265	-0.356981	0.656437	-1.004506	0.320237	0.140211	-0.447966	-0.201753	-0.293886	-0.162362	0.877878	0.969675	0.939820	-0.097263	-0.598525	0.366277	0.430859	0.266738	-0.693693	-0.172587	-0.501708	-0.245137	0.385917	0.168910	-0.668437	0.381169	-0.627032	-0.245207	0.530614	0.151988	-0.472660	0.402391	1.146154	-0.062657	0.423895	2.604187	-15.892729	0.464986	0.009551	1.057744	-0.501081	0.183204	2.184056	-8.269289
0.734959	0.319490	-2.602485	0.354975	0.020040	0.308792	0.311893	0.463879	-59.262039	0.143463	-1.256742	0.025598	0.120549	0.102619	-53.932298	-147.116260	-0.873443	0.185419	-0.140663	-0.096136	0.203132	-0.055441	-103.625748	-633.825493	0.318727	-0.067884	0.126731	0.220504	-0.032710	0.112145	0.433017	-71.404085	-0.096473	0.224765	0.254612	0.090099	0.028151	0.009202	0.487856	0.739925	0.159590	-0.239391	-0.057273	0.011286	0.262958	0.274977	0.117375	0.057346	-0.098268	0.086446	0.253436	-0.066156	0.389214	-0.154135	0.027873	-0.339983	0.067495	0.213288	-0.250571	-0.121568	0.367976	-0.004314	-0.049875	-2.709886
0.535761	3.687105	-17.540160	3.523407	1.827292	0.036650	0.240134	-0.477552	-0.023383	4.289144	2.674509	0.955134	0.144152	-0.463806	0.297976	-0.540985	1.012084	-0.750411	-0.197885	-0.026404	0.358529	0.103836	-0.130006	-0.991080	1.133063	0.228123	1.033907	0.687822	0.356495	-0.068981	0.363954	1.143290	-0.455950	0.802173	0.032523	-0.659578	0.388892	0.358361	0.827787	0.626318	-0.190424	0.734408	0.488762	1.151911	0.374447	-0.471875	0.782083	0.279368	0.705608	1.564595	-5.424388	1.544403	2.443244	0.123882	-0.020934	0.748663	-1.057268	-7.446112	-792.592377	-4.676766	0.016548	0.643137	-0.179975	-5.600916
0.029217	0.041807	-1.380736	0.304302	0.228748	-0.040584	-0.078608	0.059854	0.046712	-0.132947	-0.300060	0.030877	-0.026120	0.070482	0.092563	0.569889	0.127175	0.005414	0.048642	0.001698	0.009294	0.065696	0.244054	-47.842636	-1.355101	0.094198	-0.109184	0.077644	0.091054	0.077213	-15.081115	-768.711007	0.059581	0.044000	-0.154375	-0.110980	0.070156	0.054100	0.074311	-27.335660	0.208021	-0.130904	-0.141873	-0.074227	-0.085485	0.212190	0.026232	-0.002163	-0.052309	0.014113	0.121897	0.222699	0.457404	-0.047978	0.047104	0.053434	-0.099795	0.025298	0.029545	0.066213	-0.067855	0.084846	-0.019393	-1.616756
0.331302	-0.205545	-3.183193	0.768557	-0.408872	0.015307	-0.225989	0.522777	0.512207	-0.408576	-0.016356	0.603072	-0.234544	-0.141488	0.191916	-0.541631	0.793342	0.311703	0.075152	-0.241019	0.182111	0.100147	0.487252	-0.260236	-0.036054	0.222686	0.284365	0.626715	0.075450	-0.183828	0.331771	1.054480	0.148765	0.090217	0.220252	-0.049038	0.368337	-2.228309	-0.266087	0.047669	0.759693	-0.188089	0.080438	-0.219949	-35.189802	-769.578430	-6.389669	0.010498	-0.307570	0.081481	0.201625	0.342422	2.207797	-2.393177	-0.363807	0.335870	0.012169	0.116213	-0.266437	-0.051840	1.035520	0.425202	0.681353	-3.647521
0.028984	0.042966	-1.379079	0.303563	0.229016	-0.040535	-0.078355	0.060040	0.046101	-0.132775	-0.301567	0.030407	-0.025981	0.070870	0.093092	0.571314	0.126103	0.005675	0.049464	0.001707	0.009674	0.065908	0.243942	-19.537436	-1.338107	0.089844	-0.109371	0.078142	0.091534	0.077534	-19.545285	-793.393812	0.060433	0.043002	-0.154398	-0.111258	0.070368	0.054268	0.074332	-27.040543	0.208309	-0.130814	-0.142342	-0.074414	-0.086070	0.212919	0.026586	-0.002184	-0.052750	0.014726	0.122427	0.223512	0.457310	-0.048014	0.047244	0.053554	-0.099772	0.024686	0.030218	0.065992	-0.068387	0.085034	-0.019395	-1.615530
-0.009962	-0.326791	-3.587774	0.669111	0.339503	-0.154587	0.186091	0.328859	0.686344	1.003515	0.090579	0.119839	-0.058068	-0.232630	-0.127399	0.438507	-0.081641	-26.544920	-0.392178	0.190279	0.313716	-0.056752	0.227813	0.629120	-13.835109	-747.645139	-2.858043	0.046611	-0.085248	0.098443	-0.283924	0.665201	0.364546	-26.531596	0.090518	0.244150	0.273127	0.100048	-0.141852	1.233683	0.354386	0.184208	-0.204878	0.351434	-0.092883	0.049842	-0.200738	-0.094021	-0.068424	0.508917	-1.140110	0.165845	1.304849	-0.014451	-0.344129	-0.309375	0.064562	-0.208175	0.159282	0.177584	0.093765	0.018987	0.405647	-3.325073
-0.173759	-0.328158	-1.777707	0.199494	0.137440	0.430608	-0.085175	0.112605	0.275371	-0.060003	0.347296	0.085335	-0.017063	-0.082020	-0.103048	0.271223	-0.324450	0.238666	0.097902	0.071266	0.137816	0.104779	0.184493	0.196953	-0.316329	-0.332227	0.214842	-0.251291	0.191991	0.066190	-0.771779	-0.172015	0.434921	-0.014376	-0.160019	-0.134384	0.083240	0.030432	0.136945	-0.293562	0.216391	-0.121962	-0.857433	-1.475349	-264.410952	-0.144592	0.024998	0.153651	0.218432	-1.446237	-385.397800	-436.005056	-5.762320	0.747773	0.337675	0.049999	-0.020128	0.053435	-1.337595	-0.131052	1.286178	-0.122361	0.009203	-2.215931
-0.005396	-0.017604	-2.385220	0.523546	0.041595	0.021279	0.057983	-0.024528	0.585604	-0.202382	-0.624808	0.288878	0.085270	-0.090265	-0.106718	-5.184091	-0.825625	-0.011021	0.021990	0.012444	-0.002837	-0.089924	-1.187434	-781.645365	0.398995	-0.052594	0.061250	0.024303	-0.013822	-0.062779	0.381315	-40.960373	0.103872	0.213468	0.083763	0.078925	-0.158740	-0.040959	0.495522	0.816048	0.118379	-0.162121	-0.031553	0.033669	0.035654	0.031160	0.035196	-0.012846	0.015661	0.004174	0.209802	-0.088096	0.451884	-0.098960	0.019958	-0.137568	0.100863	0.032243	-0.084550	-0.040890	0.147530	0.197531	0.134606	-2.179798
-0.094593	-0.305306	-1.854571	0.803002	-0.130789	-0.043716	-0.306463	0.240804	0.283120	0.473280	-0.631745	0.109402	-0.171887	-0.299738	0.186584	0.228292	0.774217	0.023608	0.419643	-0.317918	0.071389	-0.136696	0.307420	0.658666	1.751098	0.792206	0.185886	-0.222441	-0.154300	0.094970	2.339592	-24.390059	-6.692669	-0.027047	0.013439	0.080575	0.042580	0.091491	-1.507346	-765.209907	0.254458	0.074397	-0.199881	-0.210256	-0.001202	0.068057	-0.103174	-1.825945	-0.079982	0.280364	-0.180865	0.124227	0.213033	0.093462	0.098984	-0.205551	0.007829	-0.265014	0.278381	0.649950	0.305934	0.091690	0.280253	-2.930130
0.147982	-0.950722	-6.999801	0.156585	0.493271	0.782174	1.539537	-4.077127	0.516553	1.389975	-2.402468	0.669682	0.777162	-0.431831	0.690848	0.553967	-0.140305	0.599571	0.460836	-0.072158	0.080993	0.008216	0.080047	0.869083	-0.047547	0.218596	0.403166	0.105531	-0.066568	0.169383	-0.091734	2.138425	-0.174064	0.246925	-0.003259	-0.275385	0.348914	0.152240	0.272619	1.146939	1.267276	0.642195	-0.080895	-0.015260	0.671079	0.498246	0.336670	0.171779	0.058433	1.094071	0.011286	0.217145	0.942333	0.451093	0.662287	-2.070489	-5.147870	0.840163	0.449189	0.253957	0.489868	0.988217	-4.406712	-778.325552
0.029003	0.042061	-1.378750	0.302802	0.229763	-0.040786	-0.078591	0.059871	0.046680	-0.132795	-0.301707	0.030629	-0.026186	0.070474	0.092564	0.569598	0.127184	0.005583	0.048845	0.001625	0.009345	0.065682	0.244068	-20.829721	-1.353026	0.093499	-0.109298	0.077758	0.091020	0.077181	-17.841622	-801.297105	0.059708	0.043824	-0.154479	-0.111037	0.070221	0.054033	0.074200	-25.705316	0.207916	-0.130862	-0.141981	-0.074278	-0.085635	0.212263	0.026249	-0.002236	-0.052280	0.014068	0.122035	0.222772	0.457382	-0.048116	0.046931	0.053468	-0.099720	0.024631	0.029701	0.065930	-0.068022	0.084781	-0.019288	-1.616594
0.040506	-0.147542	-4.090970	1.283989	-0.104132	0.716781	0.009643	-0.200271	-0.056829	-0.211611	-0.311210	0.265781	-0.445696	0.189134	0.138006	-0.655329	0.627996	0.494255	-0.266045	-0.312228	-0.286256	0.303780	0.597272	0.442403	1.600310	-3.756684	-0.330417	0.405942	-0.002232	-0.007442	0.808998	0.092051	-71.837972	-718.996107	-2.635954	-0.363084	0.019514	0.238672	0.031936	-0.005008	-0.190945	-3.104432	-0.298857	0.493238	0.201684	-0.097267	0.106680	0.566280	0.070423	0.173345	-0.370550	0.265530	0.149381	0.293369	0.459107	0.335123	-0.396894	0.258418	0.434142	-0.119292	-0.202673	0.198628	-0.660392	-3.675785
-1.600733	-0.758245	-3.333830	0.278968	0.156668	-0.266674	0.460378	0.086483	-802.248901	-2.536312	1.192919	0.004076	0.199536	0.182389	0.462084	-3.845279	-1.747353	-0.195544	0.455172	-0.065164	-0.118469	0.303481	0.791660	-0.041990	-0.614219	0.370272	-0.062551	0.012797	-0.225908	0.015287	-0.123252	0.266208	0.156855	0.291099	0.195293	-0.318122	-0.047600	-0.308336	-0.204773	0.518255	-0.405274	0.062091	-0.015234	0.045679	-0.046351	0.168625	-0.183053	-0.245244	-0.019347	0.103554	-0.190983	0.205235	0.555561	0.212132	-0.075996	0.261163	0.580992	0.373343	-0.030261	0.409808	-0.035080	0.106466	-0.039803	-2.837191
-0.036418	0.186472	-1.984951	-11.008993	-804.990367	-1.345550	-0.013202	0.291494	0.025895	0.047974	-0.372741	-0.135947	-1.841276	-0.221769	-0.057015	0.057631	-0.002144	-0.003558	0.009541	-0.175422	-0.071419	-0.177408	-0.110729	0.161811	0.094257	0.017482	-0.114620	0.123844	0.071613	-0.068404	0.044081	0.039473	-0.020251	0.015731	-0.129364	0.040513	0.200184	0.004738	-0.032169	-0.231429	-0.025939	-0.014610	-0.086530	0.048269	0.197770	-0.080755	0.022176	0.041103	0.008071	-0.049703	-0.044783	0.210265	0.489241	0.236765	0.002979	0.017073	0.232234	0.221644	0.037319	0.098692	-1.025155	0.049653	0.232756	-2.595753
-1.595727	-0.755462	-3.305261	0.275394	0.149646	-0.265009	0.458591	0.078910	-804.485973	-2.516345	1.180294	0.003711	0.202799	0.184012	0.439086	-3.606570	-1.748543	-0.191056	0.451740	-0.063619	-0.118305	0.302517	0.753212	-0.085535	-0.605213	0.368691	-0.062552	0.014277	-0.224803	0.013729	-0.109939	0.272380	0.157340	0.287229	0.193815	-0.316874	-0.044717	-0.309816	-0.206395	0.499726	-0.404366	0.057411	-0.014953	0.048777	-0.046314	0.166373	-0.184901	-0.244643	-0.016349	0.105221	-0.193594	0.206454	0.553770	0.210324	-0.070005	0.260439	0.576599	0.375275	-0.031433	0.405734	-0.034771	0.102607	-0.040395	-2.807805
-0.094395	-0.116954	-1.861227	0.607597	0.166377	0.001741	-0.058350	0.118455	0.113588	0.014361	-0.711566	0.190886	-0.032842	-0.047574	-0.179289	0.010077	-0.008871	0.088625	-0.028245	0.096629	-0.077754	0.093465	0.048636	-0.194214	0.066936	0.074876	0.023855	-0.131016	0.002375	0.034860	-0.050215	0.114196	-0.118903	-0.058902	0.032493	0.018910	0.165595	-0.085432	-0.246741	-0.190048	0.036268	-0.096312	0.056056	-0.800489	0.630973	0.213602	-0.076224	0.103776	-0.034791	0.112805	-19.267696	-800.822444	-3.189965	0.469463	-0.152314	0.275763	0.172846	0.170805	0.146664	-0.986290	0.445875	0.004877	0.252003	-2.557688
0.855748	-7.808127	-775.456752	-13.510222	5.902421	0.203500	-0.070813	0.115529	0.555188	4.830224	-20.079217	1.036942	1.315633	0.002858	0.346820	-0.299728	-0.030308	0.127750	-0.215275	-0.002192	-0.278601	-0.023507	0.341557	0.491447	0.611312	0.002161	0.178765	0.175745	0.603091	0.332626	0.330229	0.209793	0.096248	-0.125436	0.130848	-0.160345	-0.322319	-0.136384	-0.438964	0.976797	0.556683	-0.010879	0.398235	0.885115	0.723176	0.370596	0.010359	0.147230	0.161695	0.597443	0.302077	0.905683	0.056588	0.734020	0.722761	-0.463121	0.648571	1.027836	-3.668567	1.113561	1.296252	0.774786	-0.038845	-9.305136
-0.036744	0.189664	-1.996128	-12.168122	-814.819119	-1.384363	-0.006832	0.293366	0.024936	0.043043	-0.365913	-0.135332	-1.761959	-0.223631	-0.055617	0.059694	-0.002339	-0.005055	0.009543	-0.175791	-0.073142	-0.179362	-0.112545	0.159522	0.097306	0.017899	-0.113998	0.123616	0.071480	-0.068212	0.044023	0.043610	-0.020307	0.015438	-0.130926	0.040866	0.201620	0.005159	-0.031911	-0.234677	-0.025413	-0.014964	-0.089516	0.045590	0.197994	-0.080509	0.022222	0.042846	0.009134	-0.050495	-0.048199	0.212469	0.489314	0.238976	0.004707	0.017631	0.232386	0.223691	0.038737	0.101629	-1.026992	0.053916	0.236572	-2.598095
0.114422	-0.439993	-3.033492	0.811670	0.152070	-0.278112	0.205351	0.424958	0.088365	0.751843	-0.621853	0.234728	0.126477	0.081589	-0.012701	0.006064	0.291100	0.022426	0.184442	0.195783	0.222945	0.124989	0.462420	-0.077235	0.302450	0.050021	-0.206213	0.304372	0.057785	-0.074225	0.502429	-0.322925	0.104096	0.245037	0.124897	0.137451	0.130536	0.244702	-0.099806	-0.485147	-2.283798	-0.226375	0.135736	0.429403	0.137085	-0.200843	-0.002444	-0.391577	-790.412811	-1.702280	0.062302	0.063826	-0.021567	-0.009479	0.092935	-1.881591	-1.867455	-0.121962	0.223878	0.165187	0.281452	0.165401	0.486981	-3.499830
0.180287	0.017266	-2.354506	0.753151	0.387733	0.584762	0.207679	0.008346	0.078742	0.120193	-0.399644	0.061746	0.423566	-0.071228	-0.198193	0.210908	-0.116543	-0.107415	-0.099641	0.150001	0.011733	0.164124	-0.159532	0.138157	0.301558	0.381801	-0.004710	-0.140567	-0.039614	0.252212	0.113298	0.155441	-0.235216	-0.185324	0.080704	0.210081	-0.031698	0.174030	-0.183266	-0.364903	-0.145107	-0.187961	0.176918	0.426580	-2.012818	0.522504	0.125863	0.125391	-0.264043	0.170149	0.372120	-2.472694	-825.102780	-2.706944	-0.026111	0.047276	0.237035	-0.018459	0.270571	0.265533	-3.559697	0.163982	0.228202	-2.612068
0.022827	0.014659	-1.494387	0.333900	0.252000	-0.055422	-0.097757	0.026708	0.058862	-0.128940	-0.370129	0.058118	-0.046857	0.039751	0.052725	0.505041	0.211557	0.027957	0.015359	-0.011985	-0.032238	0.052397	0.234363	-31.140516	-31.494915	0.578495	-0.075770	0.038704	0.039901	0.066739	-19.823679	-735.613556	0.088025	0.177920	-0.126724	-0.092046	0.059953	0.045342	0.046724	-30.983477	0.190195	-0.117125	-0.079994	-0.057237	-0.076318	0.168699	-0.008051	0.001012	-0.022062	-0.027764	0.077781	0.153975	0.454762	-0.045443	0.041744	0.042232	-0.099551	0.002878	-0.042185	0.060730	-0.058817	0.058442	-0.023320	-1.789215
-0.094775	-0.117071	-1.860756	0.607502	0.166905	0.001613	-0.058111	0.118076	0.113646	0.014758	-0.711792	0.191010	-0.032943	-0.047671	-0.179418	0.010066	-0.008774	0.088564	-0.027987	0.096502	-0.077991	0.093541	0.048842	-0.194066	0.066762	0.074451	0.023840	-0.130863	0.002495	0.034850	-0.050352	0.114633	-0.119467	-0.059029	0.032645	0.018851	0.165788	-0.085488	-0.246823	-0.189872	0.036226	-0.096574	0.055001	-0.801214	0.631495	0.213731	-0.076054	0.103656	-0.035061	0.111088	-7.338474	-824.075704	-3.191607	0.469477	-0.152296	0.275875	0.172406	0.169877	0.146060	-0.986697	0.446032	0.004982	0.252341	-2.557396
-0.156407	-0.547985	-2.358235	1.187821	1.115723	-3.422143	1.367740	0.566466	-0.260665	-0.165298	-0.749800	0.133883	0.032581	0.334861	0.507601	0.070431	0.607883	0.125884	-0.075533	-0.670341	0.397148	-0.218802	0.038984	0.098509	0.073536	-0.618089	-0.393102	-0.142949	0.159174	-0.759840	0.729680	-0.176496	0.243980	-0.033324	0.324736	0.029757	-1.349502	-0.187934	-0.203809	-0.175046	-0.021925	0.285562	-0.036448	0.204466	0.794523	0.773385	0.181856	-0.350036	-0.038296	-0.840690	-0.466372	0.157421	0.644226	-32.020146	1.609984	1.173519	0.365757	-0.012553	0.146064	-0.034647	-2.570931	-731.977745	-9.421129	-4.652374
0.028847	0.039777	-1.376868	0.301969	0.230139	-0.041064	-0.078176	0.060001	0.046101	-0.132223	-0.299890	0.029958	-0.025788	0.070643	0.092654	0.572648	0.125680	0.005403	0.048750	0.001759	0.009516	0.065761	0.240590	-69.186198	-1.344773	0.092018	-0.109568	0.077979	0.091337	0.077423	-21.161849	-741.737144	0.058489	0.043258	-0.154629	-0.111136	0.070163	0.053999	0.074490	-77.639172	0.207952	-0.131022	-0.142205	-0.074407	-0.085808	0.212086	0.025970	-0.002255	-0.052337	0.013689	0.122316	0.222743	0.457442	-0.048022	0.046822	0.053429	-0.099291	0.025052	0.030064	0.065598	-0.068081	0.084609	-0.019563	-1.615396
0.006714	-0.615254	-2.648410	0.075275	0.346786	0.088297	0.400564	0.196160	0.072207	0.440634	-0.397646	0.132590	0.301449	0.159028	0.154316	0.308238	-0.312494	0.024731	0.132606	0.114215	-0.050216	-0.151726	-0.343029	-0.177409	0.272406	0.179905	-0.219164	-0.141557	0.108526	-0.187930	-0.040872	0.174580	-0.049852	0.185891	-0.119959	-0.155741	1.096686	0.231842	-0.497854	-0.095589	0.424203	-0.030671	0.025387	0.488379	0.904260	-9.449691	0.569108	0.197181	-0.148613	0.611893	-0.387923	1.428403	-37.571638	-739.616261	-5.364368	-0.184592	0.040934	0.145910	-0.188197	0.614247	0.731362	-2.287849	0.543997	-3.439200
0.268373	-0.039110	-4.075032	1.349208	0.061821	-2.444481	-796.563087	-6.933678	0.420514	0.735781	-0.917668	-0.110709	0.376758	-0.338641	-3.762803	-0.167969	0.197787	-0.173901	0.393934	0.178175	0.015241	0.101263	0.189896	0.313105	0.477260	0.085671	-0.143482	0.042983	0.492301	-0.191485	0.035262	0.353901	0.032861	0.100467	-0.140912	-0.083808	0.228940	-0.173461	0.154530	-0.714790	0.183350	0.038966	0.197523	-0.118787	-0.102115	-0.376651	0.216387	-0.064743	0.154785	-0.383338	0.479772	0.199292	1.003547	0.274640	-0.145439	0.418109	2.497979	0.312052	0.243775	0.386492	0.296355	0.173848	-1.000139	-5.322008
0.180130	0.017114	-2.352825	0.751810	0.385797	0.584466	0.208128	0.008341	0.078653	0.120823	-0.399482	0.061825	0.423011	-0.071274	-0.198089	0.210938	-0.116532	-0.107296	-0.099536	0.149843	0.011644	0.164203	-0.159580	0.137910	0.301143	0.381996	-0.004442	-0.140589	-0.039544	0.252145	0.113277	0.155216	-0.235173	-0.185170	0.080788	0.210039	-0.031708	0.174333	-0.183232	-0.364861	-0.144997	-0.187811	0.177045	0.427362	-2.015588	0.522814	0.125640	0.125339	-0.264030	0.170436	0.372463	-2.474452	-828.671230	-2.698427	-0.027249	0.047352	0.237186	-0.018393	0.270989	0.265010	-3.541640	0.162891	0.227603	-2.610563
-0.005561	-0.020660	-2.380103	0.515816	0.045202	0.020037	0.057064	-0.025396	0.588425	-0.203290	-0.625702	0.287148	0.086271	-0.089592	-0.095808	-6.128458	-0.803963	-0.011010	0.021917	0.013397	-0.002691	-0.087207	-1.262649	-773.456595	0.390484	-0.054872	0.061501	0.024863	-0.013261	-0.060352	0.383385	-17.796200	0.102322	0.215209	0.082936	0.078475	-0.157002	-0.040101	0.493259	0.815534	0.118530	-0.159716	-0.030988	0.032630	0.034961	0.031311	0.035844	-0.012575	0.014231	0.000839	0.207030	-0.089875	0.450144	-0.096951	0.019670	-0.137678	0.102247	0.031993	-0.083514	-0.039996	0.145924	0.196390	0.135681	-2.178411
0.396573	108.073427	310.694038	10.320802	2.476129	0.456656	1.899757	3.701087	1.421730	32.368507	166.995025	1.734419	1.015838	0.136809	0.095202	0.396610	0.564996	0.597592	2.128644	1.370452	0.162523	0.069039	0.984852	2.594304	1.205963	0.555067	0.346944	0.593500	0.179553	-0.069645	1.890408	0.944646	1.754710	1.329487	0.189163	0.694373	0.592771	0.340072	1.426999	-0.855620	0.576287	0.379635	0.024288	0.462114	0.901602	-0.045983	0.688285	-0.080675	0.765161	0.872387	1.435282	1.174118	1.393671	0.964985	0.845003	1.740778	1.988473	3.646161	3.937171	1.058050	0.883509	1.482339	3.626972	-107.419846
-0.032566	-0.005089	-2.381411	0.536278	0.034828	0.023074	0.055496	-0.045503	0.386771	-0.175954	-0.618472	0.299465	0.098842	-0.078215	-0.142802	-2.461341	-0.931958	-0.024069	0.024937	0.019177	-0.011986	-0.090638	-1.404578	-801.157607	0.420154	-0.044402	0.054553	0.017075	-0.013882	-0.046600	0.401634	-24.345512	0.110305	0.195417	0.082098	0.079525	-0.157446	-0.060315	0.500020	0.819853	0.113449	-0.198746	-0.038252	0.049574	0.037784	0.030594	0.007916	-0.020992	0.023476	0.017802	0.217774	-0.083259	0.454813	-0.096459	0.025626	-0.130545	0.121831	0.040739	-0.096207	-0.046932	0.158441	0.188923	0.135557	-2.143121
0.308782	4.586316	-12.869553	2.085551	0.676245	0.546713	0.341622	-0.347621	1.945016	-9.436583	-818.086327	-3.016357	0.143102	0.051006	0.555597	0.801720	-0.220990	-1.018281	-3.003192	0.238055	0.676657	0.283302	0.201342	-0.403242	0.621393	0.596220	-0.000462	0.597591	-0.400084	-0.127983	0.480793	0.188836	-0.239490	0.270585	0.264018	0.100313	0.504808	0.102752	0.635188	0.418734	0.471913	0.262891	-0.116048	-0.272930	0.501463	0.656598	0.045197	0.442302	-0.151270	0.024032	0.881179	-0.399520	0.494876	0.511084	0.039686	0.027177	0.013813	1.068409	0.447270	0.264583	1.815345	0.609213	0.716215	-7.716204
-0.114094	-0.077273	-2.247640	0.084929	0.364855	0.054778	-0.036051	0.038474	0.236709	0.451362	-0.255940	0.100316	0.238494	0.010601	-0.092857	0.025249	0.217890	0.297130	-0.018780	0.260870	0.221958	0.125041	0.042722	-0.043155	-0.122238	-0.005580	-0.111376	0.256772	0.054170	-0.038514	-0.418442	-0.143812	0.099616	0.185227	0.209283	0.045773	-1.840228	0.096986	0.334867	0.143995	-0.104552	-0.053287	0.051698	-0.981938	-794.808742	-30.194574	0.217201	-0.178108	0.177655	0.367234	0.013020	1.211030	-7.171363	0.075562	0.429593	0.055104	-0.208225	0.085631	0.143592	0.382482	0.426592	0.050533	-0.092632	-2.289229
0.520470	0.143191	-4.142462	0.287043	0.420207	0.315052	-0.237681	0.817136	-0.544966	0.511349	-0.884554	-0.243792	-0.253958	0.038871	-0.007079	0.580420	0.002074	-0.369956	0.314252	1.364390	0.038179	-0.362931	0.059946	0.189362	0.461171	0.382587	0.091678	-3.515764	-0.406379	0.054700	0.242866	-0.211087	0.758289	-0.643011	-5.779054	-706.420518	-21.156598	0.157720	-0.186713	0.199100	-0.638150	0.855383	-0.407300	-15.825245	0.134714	0.295651	0.288957	0.535890	0.223720	-0.091038	1.256587	-0.298612	2.472314	-0.166904	0.171528	0.300030	-0.574914	-0.389836	-0.270269	0.881131	0.749382	-0.276426	0.324078	-5.011857
-0.095417	-0.117643	-1.859904	0.607555	0.167766	0.001411	-0.057739	0.117434	0.113855	0.015417	-0.711577	0.191348	-0.033283	-0.047857	-0.179621	0.010124	-0.008589	0.088480	-0.027572	0.096364	-0.078434	0.093699	0.049285	-0.193854	0.066598	0.073805	0.023870	-0.130751	0.002692	0.034905	-0.050538	0.115195	-0.120426	-0.059269	0.033094	0.018729	0.166523	-0.085557	-0.246939	-0.189633	0.036116	-0.096969	0.053341	-0.802798	0.631271	0.213375	-0.075792	0.103471	-0.035530	0.108229	-6.339157	-830.015056	-3.187240	0.469108	-0.152107	0.275986	0.171726	0.168613	0.145175	-0.987701	0.445871	0.004875	0.252783	-2.556284
0.780997	-6.530783	-788.698254	-6.541312	2.198730	0.316110	-0.132791	0.096081	0.520109	3.861010	-17.362211	0.408479	0.459794	0.009735	0.298658	-0.173468	-0.012561	0.170829	-0.194982	-0.028797	-0.309828	-0.065148	0.449964	0.350729	0.452335	-0.051528	0.163321	0.065465	0.520640	0.271540	0.259347	0.125555	0.031050	-0.063399	0.114963	-0.178934	-0.326139	-0.112560	-0.288064	0.888879	0.557771	0.026387	0.431722	0.799869	0.545107	0.380499	0.022559	0.148267	0.116710	0.620944	0.161159	0.839276	0.222936	0.551131	0.511163	-0.491699	0.513886	0.702440	-3.144631	0.769834	0.891929	0.577837	-0.141282	-7.563725
0.029014	0.042693	-1.379249	0.303603	0.229023	-0.040563	-0.078338	0.060051	0.046109	-0.132756	-0.301122	0.030422	-0.025945	0.070861	0.093076	0.571435	0.126075	0.005631	0.049397	0.001726	0.009672	0.065907	0.243730	-18.608995	-1.338522	0.089984	-0.109347	0.078127	0.091533	0.077537	-37.367717	-790.967316	0.060356	0.043025	-0.154389	-0.111253	0.070371	0.054274	0.074367	-35.771843	0.208308	-0.130839	-0.142322	-0.074428	-0.086055	0.212874	0.026567	-0.002193	-0.052752	0.014701	0.122412	0.223412	0.457344	-0.047999	0.047246	0.053554	-0.099757	0.024828	0.030242	0.065997	-0.068331	0.085017	-0.019414	-1.615534
-0.094411	-0.116828	-1.861126	0.607424	0.166487	0.001715	-0.058339	0.118453	0.113554	0.014379	-0.711835	0.190841	-0.032796	-0.047572	-0.179298	0.010051	-0.008870	0.088629	-0.028230	0.096601	-0.077744	0.093456	0.048609	-0.194195	0.066896	0.074854	0.023836	-0.130969	0.002368	0.034837	-0.050232	0.114233	-0.118908	-0.058904	0.032436	0.018914	0.165496	-0.085444	-0.246752	-0.190027	0.036269	-0.096320	0.056021	-0.800406	0.631241	0.213757	-0.076220	0.103765	-0.034780	0.112779	-15.359672	-813.254429	-3.191805	0.469546	-0.152369	0.275787	0.172837	0.170674	0.146630	-0.986234	0.445993	0.004944	0.252046	-2.557835
0.370783	-0.739850	-351.568524	-448.212550	-363.644823	-0.446261	0.032665	-0.429788	0.216283	-0.029577	-1.307874	-2.156061	-1.491132	-0.042853	0.575183	0.198245	0.080678	0.011445	0.053812	-0.333167	-0.310806	-0.226066	0.343544	0.785020	-0.453549	0.382870	-0.039615	0.323009	0.296929	-0.063496	-0.193755	-0.201543	0.001701	-0.366699	-0.155773	-0.699159	0.217651	-0.304764	-0.317733	1.392768	0.643680	0.014989	0.097832	0.273838	-0.064844	0.211877	-0.126551	-0.166653	0.107735	0.109429	0.309755	0.865120	0.428336	0.319677	-0.032483	-0.678612	-0.244829	-0.163959	-1.134363	-0.890300	-1.256369	0.720602	-0.298684	-4.101415
-0.118316	-0.900816	-6.589813	0.147970	0.464019	0.811117	0.979172	-2.922538	0.462146	1.265188	-2.153131	0.597674	0.732073	-0.420821	0.515666	0.636506	-0.126702	0.580240	0.413053	-0.039080	0.069402	0.012614	0.093573	0.499266	0.039369	0.218980	0.398376	0.135977	-0.048113	0.143542	0.026662	2.054781	-0.133108	0.258020	-0.015697	-0.268833	0.373318	0.147224	0.210264	0.996734	1.168667	0.624533	-0.078699	-0.002484	0.662764	0.501900	0.326169	0.190733	-0.001722	1.071607	-0.003669	0.222060	0.857244	0.374569	0.664823	-1.889232	-4.392889	0.719674	0.418436	0.283071	0.473450	0.961151	-3.969529	-786.296489
-0.051985	-0.049061	-2.357438	0.491451	0.045267	0.026654	0.035280	-0.047414	0.365764	-0.175797	-0.599690	0.295591	0.119873	-0.051258	-0.043459	-2.143105	-0.955143	-0.044095	0.022823	0.039769	-0.020410	-0.051356	-4.312377	-791.711241	0.412522	-0.071288	0.044241	0.017597	0.001518	0.021030	0.405313	-27.323082	0.088710	0.186108	0.065792	0.080552	-0.149327	-0.065615	0.515609	0.787708	0.114983	-0.206470	-0.049545	0.053979	0.031851	0.025216	-0.016379	-0.032836	0.011237	-0.014322	0.180121	-0.086275	0.447525	-0.074548	0.021367	-0.120171	0.146115	0.046257	-0.095902	-0.044805	0.142999	0.167516	0.129295	-2.141037
-0.094988	-0.116437	-1.864310	0.609204	0.165816	0.001659	-0.057284	0.117491	0.113338	0.015382	-0.711745	0.190749	-0.031968	-0.047572	-0.179520	0.009360	-0.008824	0.087866	-0.027719	0.095940	-0.078031	0.093574	0.048670	-0.193754	0.065630	0.073251	0.023571	-0.129797	0.003108	0.034501	-0.050975	0.116970	-0.120542	-0.058721	0.031937	0.018894	0.163379	-0.085577	-0.246995	-0.189031	0.036765	-0.097593	0.051947	-0.800485	0.641058	0.217918	-0.075397	0.103525	-0.035490	0.107291	-6.262345	-817.163489	-3.246457	0.472792	-0.153038	0.276726	0.170920	0.167877	0.144198	-0.984943	0.449110	0.007435	0.253633	-2.561695
0.093395	-0.515741	-2.738462	0.294250	-0.006562	0.289088	0.215484	0.532539	0.049818	1.051562	-0.879438	-1.931569	-0.294007	-0.307736	0.321209	-0.285494	-0.012613	0.011821	-2.452721	-777.313894	-1.884007	0.116758	0.085348	-0.065275	1.055379	-0.197948	0.438573	-3.493196	0.147338	0.154705	-0.116457	-0.327602	0.743281	-0.336797	0.259854	1.076336	0.689103	-0.139896	1.031648	-1.076739	-0.294469	-0.058516	0.156240	-0.003276	0.173358	-0.229808	0.044617	-0.035706	0.213647	0.169444	0.091806	0.600014	0.399206	0.333414	0.195043	-0.160526	0.432944	-0.596673	0.164986	-0.066234	1.050627	-0.330062	0.659820	-4.032731
-0.236722	-1.189748	-2.750070	-1.279328	1.111046	-0.087825	0.339395	0.361732	-1.290057	0.204986	-1.139568	-0.005509	0.473610	0.056978	-0.088170	2.662221	-3.438523	-0.253816	-0.147920	0.712852	-0.212195	0.510457	2.709029	2.632653	-604.294673	-160.754201	-0.155113	-0.145222	-0.277696	-0.738140	5.531689	-175.921294	-104.070766	2.092086	0.002765	0.035372	0.014251	-0.109091	0.819300	-0.157193	1.035210	0.587497	0.781166	-0.081680	-0.869443	-0.215385	-0.265467	0.984581	0.116848	-0.462752	-0.776692	0.069250	1.260139	-0.052413	-0.236852	0.390336	-0.159543	-0.225599	0.558393	0.205360	0.173567	0.384299	0.338432	-5.193968
-0.030318	-0.003433	-2.384812	0.538550	0.034387	0.023307	0.056281	-0.043465	0.403709	-0.179293	-0.619729	0.299281	0.096807	-0.079809	-0.143617	-2.567842	-0.920957	-0.022912	0.025098	0.017910	-0.011409	-0.091922	-1.342680	-795.095221	0.417988	-0.044237	0.055227	0.017269	-0.014410	-0.049928	0.399709	-29.040645	0.110794	0.197219	0.082816	0.079692	-0.158150	-0.058806	0.499582	0.822553	0.114073	-0.195769	-0.037650	0.048355	0.038375	0.031159	0.010958	-0.020018	0.023310	0.017930	0.218909	-0.083530	0.454844	-0.097652	0.025427	-0.131274	0.118984	0.039853	-0.095544	-0.046162	0.158241	0.190610	0.135827	-2.147495
0.029020	0.042555	-1.379145	0.303433	0.229177	-0.040602	-0.078367	0.060052	0.046251	-0.132767	-0.301159	0.030443	-0.025973	0.070806	0.093009	0.570995	0.126281	0.005617	0.049324	0.001711	0.009637	0.065873	0.243910	-24.741207	-1.340306	0.090395	-0.109337	0.078084	0.091465	0.077475	-21.089929	-794.949335	0.060274	0.043143	-0.154400	-0.111227	0.070359	0.054244	0.074331	-27.699423	0.208260	-0.130832	-0.142281	-0.074426	-0.086000	0.212804	0.026556	-0.002192	-0.052690	0.014612	0.122380	0.223309	0.457345	-0.048027	0.047188	0.053553	-0.099775	0.024803	0.030205	0.065984	-0.068288	0.084999	-0.019396	-1.615673
0.025471	-0.505796	-2.455961	0.196462	0.503848	0.305524	0.740258	0.220800	0.105481	0.550807	-0.387724	0.133410	0.155227	0.082796	-0.003013	0.280300	-0.285277	-0.045589	0.199787	0.099147	-0.050687	-0.120768	-0.372725	-0.264124	0.238593	-0.049202	-0.064468	-0.034468	0.157321	-0.230893	-0.086915	0.255218	-0.119038	0.246069	-0.228932	-0.168647	0.649927	0.032687	-0.492836	-0.157096	0.286742	-0.167703	-0.053406	0.066417	0.255463	-1.751501	0.113191	0.087301	-0.134088	0.665882	-0.338725	1.492801	-23.205553	-766.440684	-22.367665	-0.251625	0.099451	0.267638	-0.240720	0.685913	0.998117	-13.363585	0.922102	-3.310471
-0.062651	-0.240523	-3.024229	0.598314	0.255010	-0.029265	0.161577	0.318997	0.444263	0.553440	0.115473	0.134529	0.007481	-0.190208	-0.055255	0.399906	-0.344557	-2.817180	-0.461196	0.284770	0.323688	-0.043249	0.192999	0.048644	-1.509887	-792.816011	-2.620985	0.078218	-0.023810	0.100596	-0.138247	0.410433	0.229702	-1.447264	-0.013515	0.244054	0.313278	0.074320	-0.051109	0.277304	0.104753	0.114541	-0.189954	0.255667	-0.156093	0.049951	-0.117360	-0.080230	-0.038333	0.553070	-0.959233	0.194987	1.163621	0.042701	-0.254806	-0.216241	0.096796	-0.232017	0.167307	0.170578	0.035897	0.027927	0.320409	-2.746393
-1.087494	-798.350707	-15.499734	1.535667	1.108478	0.714315	0.291876	0.327282	-0.336685	-5.514936	6.659749	0.859661	0.157651	-0.050550	-0.278500	1.500624	0.123088	0.264148	0.313373	-0.113273	-0.229864	0.047237	-0.286575	0.661490	-0.182451	0.093075	0.558395	0.023443	0.136996	-0.102886	-0.330212	1.499573	-0.110248	0.129191	-0.115007	0.249158	-0.345873	0.015284	0.339952	0.526414	0.315654	0.088404	0.123600	0.039821	0.596579	0.244927	0.302874	-0.182712	-0.144673	0.270927	0.502868	0.330264	1.015230	0.154907	0.137810	0.220295	0.023698	-3.214653	0.520390	0.632885	0.285329	0.413864	0.322010	-7.710366
-0.114593	-0.076225	-2.252505	0.085012	0.360505	0.054741	-0.036210	0.037331	0.236944	0.451226	-0.259168	0.099831	0.238321	0.010558	-0.094353	0.024608	0.217554	0.296609	-0.018491	0.261002	0.222137	0.125494	0.042737	-0.043979	-0.122247	-0.006480	-0.111903	0.256555	0.054804	-0.038943	-0.417413	-0.140620	0.098875	0.184757	0.208938	0.046978	-1.848883	0.096721	0.334429	0.142519	-0.105229	-0.053073	0.052298	-0.982494	-780.662291	-36.258332	0.216979	-0.178256	0.180037	0.368752	0.016081	1.223940	-29.377125	0.078836	0.430244	0.055851	-0.209857	0.083777	0.145721	0.385574	0.434068	0.053736	-0.091636	-2.295964
1.482696	-1.321867	-10.785637	-0.490632	1.946674	0.643724	-6.012688	3.582268	0.008956	-0.425855	-0.287098	0.845970	1.708132	0.957056	1.446481	0.441239	1.504559	1.181416	-0.361909	1.059046	0.994160	0.434046	1.112501	0.789958	1.350407	1.176097	-0.436655	0.038558	0.076933	1.239433	1.697906	-1.247501	0.067671	-1.276110	1.079946	0.571272	0.548895	0.128758	0.154873	1.594869	0.744667	-0.682635	1.237506	0.693504	-0.450237	1.562580	0.615382	0.810844	0.348576	-0.504769	2.101924	2.391866	2.595961	3.680258	-5.578249	0.135682	4.156308	0.039535	-0.825540	1.051350	2.100649	-10.852005	-713.124697	-57.332806
-0.371298	-0.389779	-2.780570	0.212196	0.469718	0.128543	-0.053273	0.469823	0.063442	0.437867	-0.001775	0.211657	0.086313	0.006377	-0.005210	0.319516	0.004149	0.088640	-0.187681	-4.722063	-0.142946	0.031113	0.158136	-0.147620	0.139000	-0.004385	-2.546723	-759.639370	-1.682294	-0.108049	0.427418	0.369652	0.025294	0.183833	0.175247	-2.039366	-0.653708	0.254518	0.291011	-0.694362	0.188707	-0.351270	-0.046603	0.604624	0.285838	0.518733	-0.267854	-0.133292	0.388109	-0.209056	-0.097562	-0.326453	-0.366963	-0.002277	-0.199714	0.046734	0.255762	0.194607	0.444020	0.112499	0.576980	0.181799	0.168137	-3.121000
0.029028	0.042768	-1.379338	0.303671	0.228978	-0.040538	-0.078352	0.060063	0.046181	-0.132793	-0.301169	0.030442	-0.025961	0.070855	0.093077	0.571169	0.126172	0.005628	0.049403	0.001720	0.009668	0.065901	0.243993	-19.844381	-1.338689	0.090000	-0.109343	0.078121	0.091527	0.077518	-21.070066	-805.891279	0.060379	0.043062	-0.154383	-0.111248	0.070368	0.054275	0.074341	-22.090873	0.208316	-0.130821	-0.142319	-0.074430	-0.086041	0.212889	0.026600	-0.002175	-0.052745	0.014703	0.122418	0.223428	0.457329	-0.048007	0.047245	0.053558	-0.099798	0.024817	0.030233	0.066019	-0.068337	0.085040	-0.019410	-1.615572
0.028989	0.042365	-1.378760	0.303025	0.229510	-0.040698	-0.078450	0.059987	0.046398	-0.132752	-0.301528	0.030482	-0.026059	0.070679	0.092832	0.570489	0.126604	0.005623	0.049156	0.001672	0.009531	0.065799	0.243913	-31.231607	-1.344962	0.091520	-0.109334	0.077972	0.091291	0.077362	-27.084865	-785.923882	0.060063	0.043375	-0.154444	-0.111160	0.070312	0.054155	0.074272	-28.739511	0.208115	-0.130843	-0.142178	-0.074372	-0.085877	0.212602	0.026431	-0.002219	-0.052530	0.014397	0.122253	0.223116	0.457353	-0.048073	0.047068	0.053523	-0.099736	0.024672	0.030024	0.065931	-0.068203	0.084908	-0.019347	-1.616002
-0.035449	0.197340	-2.006140	-38.053869	-768.819486	-1.370400	-0.007265	0.291469	0.028812	0.036135	-0.379460	-0.141016	-1.755423	-0.221406	-0.058627	0.053261	-0.005007	-0.003926	0.004788	-0.176179	-0.071928	-0.178226	-0.119353	0.170288	0.102027	0.008456	-0.117696	0.115003	0.069117	-0.066199	0.047680	0.045361	-0.019341	0.017794	-0.130661	0.043301	0.203218	0.000264	-0.037900	-0.238556	-0.029493	-0.017948	-0.091164	0.037665	0.197332	-0.082763	0.015939	0.040696	0.010768	-0.054383	-0.051959	0.249983	0.505791	0.263966	-0.000709	0.013524	0.227026	0.221946	0.031805	0.116491	-1.148337	0.063548	0.231884	-2.613235
-0.084101	-0.227681	-2.040970	0.969305	-0.082237	-0.106050	-0.297153	0.326736	0.301741	0.381162	-0.728580	0.111206	-0.188883	-0.350170	0.165421	0.162558	0.760723	0.001825	0.413478	-0.383249	0.030242	-0.119221	0.209149	0.837020	1.595414	0.789759	0.211679	-0.263586	-0.161523	0.421325	3.293646	-75.191543	-52.131200	-0.031016	0.020433	0.099077	0.027732	0.333715	-49.731207	-738.674954	0.261049	0.032916	-0.284767	-0.177723	0.064235	0.019278	0.251719	-1.941571	-0.073107	0.235601	-0.141540	0.216636	0.237966	0.164113	0.138182	-0.220293	0.135236	-0.340868	0.242632	0.667037	0.367996	0.058846	0.279342	-3.270365
-1.107961	-802.836934	-14.686648	1.561145	1.109961	0.725884	0.267819	0.314773	-0.384395	-5.132609	5.917409	0.851991	0.167234	-0.047435	-0.261825	1.512537	0.120002	0.235014	0.269732	-0.116017	-0.229315	0.054293	-0.298086	0.659215	-0.184160	0.098998	0.567534	0.030434	0.133251	-0.103450	-0.332029	1.518117	-0.114583	0.127144	-0.111665	0.249881	-0.347609	0.012023	0.343827	0.521017	0.325457	0.096476	0.132612	0.042795	0.594094	0.259491	0.309048	-0.183941	-0.150517	0.270060	0.474826	0.322147	1.014819	0.152000	0.136695	0.212598	0.021686	-2.963533	0.501383	0.640971	0.277543	0.398947	0.310231	-7.592364
0.402855	-0.040456	-2.522771	-0.138552	-0.175553	0.260967	-0.087580	0.226877	0.554473	0.841149	-0.956869	-0.157049	0.082452	0.162979	0.038999	-0.380581	-0.137166	-0.009959	0.346956	0.224396	0.106907	0.076181	0.461130	-0.012554	-0.194591	0.706183	0.188721	-0.078210	-0.028108	-0.592375	-0.137013	-0.057945	0.335234	0.194675	0.284854	0.059625	0.182034	-0.188147	0.281727	-0.089243	0.098359	-2.426777	0.033001	0.109734	0.572887	0.366223	-0.238636	-0.387444	-2.291339	-790.237535	-12.260258	0.942622	1.159928	0.746913	-0.057412	0.262899	0.337993	-2.742454	1.314366	0.906081	-0.108534	-0.477799	-0.027804	-2.995537
-0.094753	0.140110	-1.852157	-49.964176	-3.972766	1.002377	0.434557	1.081778	0.398964	0.785392	-2.090039	0.406018	1.362066	-0.096416	-0.422998	0.547789	0.531670	-0.244243	-0.380251	-0.543366	0.234297	-0.047242	-0.085225	-0.699696	-0.023841	-0.162140	-0.257810	-0.001505	0.230003	-0.150751	-0.054509	-0.657967	-0.049829	0.007022	0.170512	0.287202	0.543298	0.123641	-0.677695	0.664732	-0.406709	-0.040009	0.223189	-0.309443	0.972609	-0.424359	-0.003819	-0.145309	-0.272156	0.485689	2.658509	-74.675053	2.114278	1.122130	-0.455007	0.933887	0.369839	-0.037488	-4.734714	-698.591783	-2.927490	0.286783	0.442344	-4.320703
-0.092513	-0.112570	-1.878355	0.612849	0.159378	0.002582	-0.056581	0.119065	0.111526	0.014027	-0.712590	0.188261	-0.027418	-0.046425	-0.178933	0.006839	-0.009753	0.086363	-0.029050	0.095026	-0.075963	0.092908	0.045961	-0.193857	0.063243	0.073055	0.022627	-0.127363	0.003841	0.033242	-0.051917	0.120752	-0.118946	-0.056701	0.027764	0.019576	0.153173	-0.085526	-0.246943	-0.187805	0.038597	-0.098674	0.051416	-0.791360	0.669308	0.232116	-0.074817	0.104036	-0.034524	0.110730	-14.346836	-817.021147	-3.432751	0.484184	-0.156114	0.278632	0.170249	0.168368	0.143605	-0.975756	0.458880	0.014634	0.255251	-2.579858
-0.036737	0.189634	-1.996120	-6.774947	-817.899850	-1.383033	-0.006927	0.293369	0.024888	0.043367	-0.365888	-0.135685	-1.764680	-0.223503	-0.055584	0.059804	-0.002423	-0.004903	0.009364	-0.175820	-0.073085	-0.179283	-0.112365	0.159689	0.097237	0.017897	-0.114047	0.123647	0.071514	-0.068119	0.044126	0.043595	-0.020283	0.015493	-0.130870	0.040913	0.201570	0.005152	-0.032035	-0.234537	-0.025315	-0.014892	-0.089348	0.045784	0.198019	-0.080498	0.022099	0.042958	0.009132	-0.050336	-0.047895	0.212903	0.489543	0.239199	0.004788	0.017408	0.232374	0.223849	0.038240	0.101104	-1.027960	0.053762	0.236404	-2.597974
0.156025	-0.069000	-2.677897	0.829531	0.505640	0.555863	0.218443	-0.029042	0.042319	0.131435	-0.380639	0.031431	0.309879	-0.054641	-0.158290	0.206787	-0.110482	-0.099261	-0.098416	0.147407	-0.023988	0.132043	-0.174812	0.114545	0.275610	0.334977	-0.040816	-0.141528	-0.043228	0.200036	0.104169	0.216430	-0.184351	-0.110070	0.080749	0.206464	0.201085	0.197952	-0.227002	-0.345032	-0.118050	-0.125411	0.204189	0.546009	-8.899863	0.821107	0.102342	0.080244	-0.225159	0.196371	0.822872	-12.693187	-797.374888	-2.567577	-0.118590	0.014047	0.190432	-0.049389	0.463841	0.205035	-4.230157	0.040944	0.185240	-2.962144
1.467389	-12.307273	-1.670624	0.648612	-0.053733	0.131857	0.521183	0.763908	-11.741148	-748.820295	-48.116367	-0.768497	-0.703569	0.172197	0.903777	1.577513	0.899265	-4.576306	0.237504	0.295985	0.357402	0.246533	0.714251	0.123954	0.146434	0.456617	-0.028629	0.278337	0.601007	0.645782	0.203844	-0.407145	1.286710	0.135448	0.557743	0.035637	0.111909	-0.306942	1.113975	0.092023	-0.184924	-0.976682	-0.943208	0.353894	0.302542	-0.619543	0.349489	-0.231484	0.793378	0.349082	0.838443	0.052879	0.166755	1.076736	-0.035318	0.965914	0.319074	1.279921	1.612567	0.663713	0.406243	0.419376	0.342166	-7.894551
-0.148599	12.728128	-37.285467	-116.219994	-666.220813	-1.315106	0.027370	-0.304924	0.420034	0.704469	16.110660	1.557847	-128.860569	-0.220357	0.388302	0.351440	-0.014735	-0.179273	-0.099665	0.250123	-0.085514	-0.043212	0.140767	-0.058964	0.897628	0.102154	0.058839	0.265201	-0.034037	-0.043845	0.600321	1.380065	0.164434	0.606762	-0.031627	0.338108	0.653468	0.283743	0.415691	0.199473	0.243553	0.397919	-0.327445	0.029332	0.866859	-0.192731	0.080577	0.420119	0.021500	0.297015	-0.141587	0.114362	0.627748	0.655765	0.304537	0.004875	-0.534549	2.593752	1.567019	1.428113	-2.167226	0.100948	0.100011	-4.953501
0.143561	-0.086467	-1.915071	0.363895	0.116846	0.165887	-0.015247	-0.197903	-0.518542	0.551593	-0.213056	0.243810	0.126070	0.029373	-0.336437	1.029869	0.353653	-0.144619	-0.157051	0.143679	0.043862	0.019525	-2.299897	-0.596229	-0.292429	-0.125794	-0.344874	-0.035204	0.043693	-1.079272	-459.483734	-358.366137	0.053571	0.114964	0.099916	-0.065253	0.021396	-0.661605	-343.305594	-0.478051	-0.070401	0.174257	-0.039270	0.041769	-0.670786	-0.077112	-0.967365	0.178638	-0.196880	-0.142917	-0.034164	-0.078693	0.541241	-0.102394	-0.065128	0.213056	-0.503210	-0.181213	0.437638	-0.028978	0.319675	0.092864	0.002486	-1.863728
0.493246	-1.177356	-3.279590	0.998214	-0.020570	0.324534	-0.070460	0.389951	0.023130	0.366554	-0.574755	0.251453	-0.128168	0.011685	0.016250	2.048404	0.984277	-0.272052	-0.134532	-0.214332	0.044058	-0.191541	-4.045773	3.189731	0.691326	-0.428357	0.037081	0.526850	-0.305273	-2.190147	-819.581070	-15.298691	1.204459	0.793335	0.290344	-0.140713	0.033289	0.180833	-4.961363	5.507412	-0.363978	0.107074	0.138723	-0.088220	-1.081180	0.297050	1.480157	0.641505	0.684595	-0.122269	-0.886587	0.212498	1.478513	-0.134561	-0.293025	0.242021	-0.350534	-0.045940	0.210316	0.213191	0.360214	0.655843	0.400654	-5.267978
0.183166	-1.165655	-3.060906	-90.332881	-182.617881	1.679916	-0.140909	-0.147742	-0.125019	-0.193651	0.584383	1.455714	2.108272	0.029542	-0.901031	-0.330169	-0.028259	-0.649436	-0.118366	0.827609	-0.360266	-0.259730	1.259513	0.575863	0.343224	-0.001369	0.308429	0.205471	-0.295901	-0.358950	0.131003	-1.523777	0.145396	-0.440928	0.117794	0.045664	-0.032093	-0.051114	1.102385	0.051334	0.225301	0.898947	-0.383740	0.893544	0.405025	0.900282	-0.234915	-0.404211	0.298027	-0.192616	0.614218	2.162934	-218.243212	1.074923	1.095309	-0.274155	0.219296	-0.285792	0.920435	-20.179432	-573.675356	-3.567349	0.759326	-4.710219
0.182226	0.000778	-2.413745	0.749491	0.361570	0.591287	0.195650	0.006018	0.073991	0.119785	-0.395164	0.059933	0.421742	-0.068178	-0.202115	0.206616	-0.111085	-0.112012	-0.086255	0.160499	0.010864	0.159572	-0.145791	0.132061	0.304006	0.386403	-0.014365	-0.127845	-0.036774	0.248046	0.105342	0.168810	-0.235215	-0.186154	0.084820	0.205219	-0.037323	0.173713	-0.167785	-0.374173	-0.139681	-0.194400	0.185833	0.414820	-1.914657	0.517674	0.168638	0.128188	-0.266332	0.160681	0.431462	-2.712232	-814.434011	-3.328069	0.054214	0.051060	0.233777	-0.028072	0.289455	0.259753	-3.568184	0.232080	0.265234	-2.678856
-0.034948	0.179292	-1.967367	-17.913298	-808.336147	-1.271469	-0.023456	0.286886	0.028209	0.056059	-0.382957	-0.136338	-2.033100	-0.215180	-0.059996	0.054150	-0.002243	-0.000511	0.008904	-0.173825	-0.067159	-0.172788	-0.107533	0.165613	0.088944	0.016184	-0.115388	0.123191	0.071597	-0.068323	0.044568	0.032490	-0.020189	0.016043	-0.125284	0.039888	0.196818	0.003990	-0.032471	-0.225792	-0.026630	-0.014688	-0.079962	0.053849	0.196408	-0.081381	0.022063	0.037273	0.005922	-0.048131	-0.037253	0.206158	0.488972	0.233217	-0.001195	0.015308	0.231355	0.217817	0.033274	0.092466	-1.024012	0.041302	0.225416	-2.594709
0.615327	1.018078	-19.209149	6.677020	-0.631059	-0.852610	2.559014	37.011324	-0.166830	5.703362	-10.910148	1.976492	0.160058	0.562415	-1.044807	-1.380573	0.202004	0.065663	0.780376	1.104672	0.097643	0.151740	1.412847	0.970494	1.244372	-0.032269	-0.257258	0.013501	-0.023517	-0.098765	2.408607	-4.313514	1.358516	0.625263	0.411809	0.891584	0.314416	0.296988	0.793080	-1.235850	-0.090249	-0.235547	0.000656	0.326054	-0.203817	0.181685	0.330486	-0.021873	0.785517	-0.598525	0.645127	0.645919	0.981610	0.614860	0.017789	3.625899	8.071321	2.000052	1.440240	0.946405	0.333980	-0.883505	4.915917	413.828098
0.081888	0.476556	-2.125445	0.356935	0.642755	0.070712	-0.227949	-0.126189	0.172131	0.064011	-0.008787	0.049609	0.217227	-0.111636	-0.108070	0.176354	-0.156431	0.030152	-0.129678	-0.268279	0.169895	-0.152791	0.152430	-0.011906	-0.230671	0.183596	0.309433	0.227666	-0.054892	-0.168028	-0.046070	0.309782	0.006557	0.075521	0.236059	-0.202800	-1.599675	-0.719122	0.027448	-0.037175	-0.089419	-0.294420	-0.019138	-0.203774	-457.823187	-366.968904	-0.930262	-0.208156	-0.400055	0.228676	0.395498	-0.648950	-357.513254	-0.312291	-0.381035	-0.011269	0.035478	0.083937	-0.020139	0.160386	-1.035021	0.122315	0.097266	-1.615892
0.474508	0.572431	-2.692944	0.627625	0.060122	-0.005721	-0.085590	-0.143850	-93.987554	0.230271	-1.073441	0.245147	0.083705	-0.182671	0.480349	-108.757222	-0.719339	0.089070	-0.008020	-0.031723	0.135067	-0.091237	-1.318046	-664.722529	0.485774	-0.038116	0.060373	0.103652	0.043093	-0.043158	0.504091	-135.667015	0.009535	0.173470	0.118272	0.110318	-0.005291	-0.006854	0.532886	0.802208	0.181471	-0.154560	0.004340	-0.068549	0.018390	0.043052	0.072161	0.069465	-0.069997	0.012334	0.269789	-0.219508	0.353417	-0.097121	0.062868	-0.191864	0.113533	-0.016790	-0.145460	-0.109882	0.215111	0.198331	0.194064	-2.165366
-0.079935	-0.629309	-3.599164	0.658385	-0.310914	0.469993	0.379513	0.470592	-0.182771	0.457148	-0.049150	-0.210624	0.103270	0.241776	-0.064968	0.012947	0.026589	0.638653	-0.192237	0.060997	-0.237137	0.012541	0.353256	0.642884	-0.133792	-1.007985	-0.158447	0.183021	0.011206	0.120326	-0.605723	0.433918	0.832026	-0.183149	-0.119807	0.366625	0.213715	-0.193911	0.568807	-0.991548	0.511594	0.184735	-99.257786	0.927278	0.174616	0.188343	0.907870	0.149450	0.837465	-8.923676	-654.105339	-151.621924	1.813057	-0.550671	0.468388	0.184957	0.163219	0.115423	-3.604764	1.304116	0.157428	-0.360545	0.798705	-4.758141
0.234703	-0.016327	-1.549004	0.281505	0.230926	0.467069	-0.305603	-0.194380	-0.077573	0.202416	-0.834039	-0.251406	-0.520174	0.005222	-0.025262	0.127041	-0.470393	0.201483	0.321043	0.256095	0.115617	0.182822	0.174192	0.323943	-0.049729	-0.625255	-0.283154	-0.264678	0.071227	0.000269	-0.517910	0.560659	0.050726	-0.075035	0.220140	-0.028384	0.210554	0.117460	-0.043742	-0.364964	0.440029	-0.897323	-0.357418	-0.357378	0.386461	0.006653	-0.005353	-0.277823	-0.826180	-345.382259	-465.235439	-364.397350	0.375431	0.308100	0.185606	0.175065	0.022042	-1.321655	-1.256418	-0.341971	-0.254538	-0.716298	0.380047	-2.433452
0.326514	4.029011	-10.721118	1.661567	0.642996	0.477602	0.345252	-0.300709	1.805425	-9.103314	-825.706627	-2.792199	0.117674	0.053176	0.469570	0.731047	-0.218949	-0.960478	-2.762473	0.202234	0.631470	0.254362	0.170696	-0.341246	0.548216	0.531320	-0.025676	0.550774	-0.380748	-0.129876	0.375836	0.224623	-0.237326	0.226567	0.221487	0.078037	0.422601	0.071360	0.539620	0.297535	0.396081	0.231266	-0.093314	-0.246983	0.436350	0.566229	0.019882	0.363498	-0.136270	-0.022820	0.797415	-0.380720	0.451675	0.437559	0.004676	0.033060	0.055862	0.781354	0.312310	0.196873	1.663807	0.557405	0.695913	-7.219700
-0.036743	0.189651	-1.996193	-9.202226	-813.519045	-1.384467	-0.006799	0.293377	0.024934	0.043042	-0.365846	-0.135362	-1.761792	-0.223627	-0.055609	0.059709	-0.002345	-0.005053	0.009520	-0.175793	-0.073144	-0.179365	-0.112543	0.159528	0.097315	0.017900	-0.113998	0.123613	0.071482	-0.068202	0.044028	0.043630	-0.020308	0.015443	-0.130929	0.040873	0.201624	0.005160	-0.031919	-0.234680	-0.025403	-0.014963	-0.089518	0.045589	0.197994	-0.080508	0.022211	0.042863	0.009139	-0.050488	-0.048192	0.212524	0.489337	0.239015	0.004717	0.017614	0.232387	0.223721	0.038701	0.101602	-1.027111	0.053929	0.236577	-2.598104
0.155703	-0.092986	-2.829496	0.948933	0.499531	0.588064	0.198311	-0.047934	0.032483	0.086749	-0.417864	0.029485	0.327576	-0.034430	-0.166601	0.206131	-0.108315	-0.116310	-0.084067	0.165359	-0.019542	0.119792	-0.163349	0.128450	0.301286	0.330623	-0.069317	-0.133190	-0.047275	0.195307	0.092649	0.240638	-0.198933	-0.133248	0.075182	0.204204	0.229943	0.193298	-0.220888	-0.358463	-0.128903	-0.142233	0.211360	0.517615	-30.361672	0.833226	0.164621	0.090735	-0.238795	0.163144	0.790836	-7.227836	-784.128048	-4.165928	0.048873	0.013562	0.179162	-0.079634	0.451007	0.232534	-23.735457	0.202823	0.245989	-3.144925
-0.036314	0.186004	-1.983125	-7.793836	-803.613732	-1.337085	-0.014532	0.291114	0.026103	0.048949	-0.374005	-0.136114	-1.859221	-0.221262	-0.057295	0.057242	-0.002154	-0.003212	0.009451	-0.175334	-0.071019	-0.176947	-0.110320	0.162363	0.093676	0.017334	-0.114755	0.123825	0.071645	-0.068379	0.044186	0.038668	-0.020191	0.015828	-0.128977	0.040475	0.199876	0.004637	-0.032275	-0.230782	-0.026022	-0.014534	-0.085847	0.048848	0.197769	-0.080851	0.022102	0.040787	0.007868	-0.049484	-0.044035	0.210152	0.489392	0.236522	0.002662	0.016863	0.232110	0.221344	0.036806	0.098070	-1.025806	0.048787	0.231896	-2.595440
-1.312830	-754.720659	-49.062505	3.511829	2.102680	1.158030	0.371489	0.220618	0.243378	-30.571994	-2.550024	2.001329	0.512952	0.043411	-0.172341	2.110330	0.279782	1.421855	1.852430	0.253971	-0.217054	0.055741	0.141289	1.180271	0.043743	0.169595	0.696491	0.038266	0.027841	-0.127258	-0.076000	2.571532	0.425136	0.287146	-0.120529	0.598653	-0.240564	0.177346	0.535726	1.298333	0.587944	0.436737	0.203826	0.173088	0.902624	0.486272	0.467158	-0.080887	0.022158	0.579585	1.213362	0.985053	1.664518	0.582878	0.170479	0.292818	-0.291815	-9.551193	1.942176	1.427617	0.123897	0.443205	0.457034	-13.204173
-0.059134	0.703061	-12.455894	-797.571153	-29.696091	1.082109	0.152664	-0.072395	-0.093273	0.813494	2.385367	-2.234640	1.310112	0.318891	0.450327	-0.100641	0.131699	0.849672	0.368327	-0.328614	0.240829	-0.328671	-0.331453	1.009527	-0.590919	-0.025727	-0.220054	-0.044630	0.253009	0.183627	0.740212	0.778625	0.798608	0.582622	-0.003429	0.009588	0.352047	0.049455	-0.082499	0.685038	0.647598	-0.001670	0.487883	-0.257388	-0.139140	0.292662	0.625084	-0.431225	0.467302	0.027206	0.627041	1.290308	0.682721	-0.208209	0.431095	-0.051707	-0.311336	0.677210	1.164726	-3.523970	1.084251	0.389066	-0.179552	-5.007912
0.588889	-0.199798	-3.050545	0.910979	-0.132355	0.096139	-0.137673	0.534013	-0.272250	-0.053113	-1.174390	0.397296	-0.010493	0.333944	0.207190	0.475819	0.392024	0.002748	0.038307	0.143354	-0.182559	-0.062465	0.245415	-0.298369	0.121624	-0.987288	0.593109	-0.327320	-0.428462	0.096107	-0.277196	0.705811	0.352002	0.735727	-0.261102	0.415478	0.408173	0.754032	0.239222	0.115730	-0.107702	-0.252912	-0.452103	-0.296152	1.721840	-0.457477	-2.960736	-0.526648	0.642568	-0.303698	0.549938	-0.295066	0.087457	-18.146543	-776.894730	-2.416193	0.924656	0.031981	-0.100719	0.040407	1.252987	1.547156	-2.026927	-4.409376
-0.094172	-0.116070	-1.863284	0.608139	0.165508	0.001841	-0.058132	0.118518	0.113266	0.014329	-0.712179	0.190475	-0.032091	-0.047412	-0.179240	0.009615	-0.008984	0.088336	-0.028319	0.096369	-0.077506	0.093374	0.048261	-0.194106	0.066357	0.074610	0.023667	-0.130463	0.002559	0.034613	-0.050475	0.115076	-0.118916	-0.058611	0.031772	0.019005	0.163789	-0.085458	-0.246783	-0.189674	0.036599	-0.096611	0.055403	-0.799054	0.636382	0.216177	-0.076041	0.103796	-0.034722	0.112480	-27.184166	-800.505752	-3.223172	0.471487	-0.152896	0.276171	0.172471	0.170269	0.146156	-0.984716	0.447707	0.006290	0.252476	-2.560731
0.119405	-0.142550	-1.371093	0.602474	0.010341	0.559744	-0.275729	-0.313862	0.019465	-0.299231	-0.136088	0.223585	-0.134302	-0.001376	-0.147091	-0.175686	-0.388434	-0.245462	-0.077563	0.052989	0.046087	-0.216684	-0.425465	-348.538625	0.047758	-0.253033	0.168034	-0.099154	-0.136489	-0.912972	-369.675768	-457.313318	-0.167087	0.483768	0.272558	-0.364711	-0.304595	-0.152733	-0.725774	-1.231499	-0.080363	-0.018643	-0.146134	-0.053861	-0.265986	-0.026118	-0.001432	0.250587	0.195272	-0.091771	0.109575	-0.041417	0.953521	0.332134	-0.168670	-0.139201	-0.066659	0.202692	-0.317538	0.031779	-0.318220	-0.040155	0.011329	-1.561603
-0.380282	-0.258845	-3.928328	0.089831	-0.005644	0.266597	0.566505	-0.576197	0.138675	0.899576	0.130542	0.632028	0.564046	0.039888	-0.204365	-0.102534	0.267409	0.134952	-0.387558	0.998596	0.106557	0.217746	0.349302	7.762220	1.654765	-0.209151	-0.353452	0.313326	-0.044238	-0.173171	-59.708359	-6.712181	1.374127	0.058247	-0.146970	-0.119093	-0.459508	-1.948236	-668.522939	-70.583942	-0.194194	0.209349	0.038034	0.649536	1.173073	-0.594534	-70.325223	-0.063635	-0.152783	0.387736	1.123080	-1.090291	0.415191	-0.510182	0.166192	0.104869	-0.752809	0.043512	0.608651	-0.409425	1.578107	0.115840	0.025977	-4.687749
0.022509	0.003394	-1.484619	0.318297	0.265812	-0.059732	-0.096843	0.028198	0.059907	-0.126731	-0.361522	0.056488	-0.045032	0.038852	0.052226	0.500772	0.213023	0.026711	0.013930	-0.011733	-0.031761	0.051850	0.229591	-33.836982	-17.915785	0.578862	-0.075856	0.039108	0.039640	0.065687	-20.056961	-763.527332	0.082801	0.177230	-0.127061	-0.092294	0.061116	0.044680	0.047109	-50.524850	0.189161	-0.117719	-0.080678	-0.059488	-0.076396	0.167203	-0.007592	0.000133	-0.021233	-0.030471	0.079876	0.148509	0.456085	-0.046782	0.039451	0.043056	-0.099987	0.003604	-0.038143	0.057592	-0.057529	0.057591	-0.023198	-1.787564
-0.036870	0.186255	-2.007673	-5.574552	-779.170385	-1.490795	0.018837	0.292762	0.024666	0.030999	-0.355293	-0.139257	-1.644516	-0.219695	-0.053587	0.063362	-0.002573	-0.005621	0.007517	-0.175139	-0.076056	-0.183268	-0.117642	0.157412	0.100567	0.019526	-0.112889	0.120828	0.069585	-0.067564	0.040956	0.050750	-0.022930	0.012793	-0.134679	0.041224	0.203293	0.005746	-0.032170	-0.236657	-0.023316	-0.018386	-0.095441	0.041649	0.191876	-0.076984	0.021352	0.044610	0.010495	-0.052695	-0.049405	0.217346	0.485366	0.245943	0.003487	0.015816	0.235661	0.223128	0.036143	0.099004	-1.028465	0.063311	0.247157	-2.608607
0.056797	-0.480173	-3.196810	0.809704	0.162936	-0.264261	0.240168	0.398032	0.074109	0.796860	-0.701915	0.260698	0.121715	0.035835	0.011861	-0.013031	0.312998	-0.036823	0.144563	0.172605	0.207638	0.114106	0.423406	-0.094189	0.282259	0.036123	-0.186424	0.337976	0.061124	-0.031807	0.497834	-0.222301	0.040371	0.217676	0.117526	0.135967	0.141469	0.236551	-0.161249	-0.518433	-2.324634	-0.070085	0.327681	0.425881	0.122861	-0.274706	-0.018205	-0.396170	-771.013117	-5.179991	0.477645	0.077957	-0.063169	0.000276	0.050903	-1.962382	-2.006881	-0.076579	0.264452	0.220114	0.311596	0.194472	0.479687	-3.718328
-0.036709	0.189681	-1.997384	-5.441088	-824.104070	-1.382518	-0.006582	0.293515	0.024673	0.043795	-0.364808	-0.136536	-1.766397	-0.223237	-0.055384	0.060377	-0.002716	-0.004655	0.008824	-0.175880	-0.073042	-0.179207	-0.112031	0.159818	0.097397	0.017881	-0.114107	0.123690	0.071607	-0.067841	0.044484	0.044050	-0.020198	0.015638	-0.130796	0.041078	0.201521	0.005178	-0.032339	-0.234576	-0.024955	-0.014746	-0.089101	0.046110	0.198092	-0.080474	0.021780	0.043397	0.009211	-0.049967	-0.047281	0.214219	0.490223	0.240040	0.005141	0.016824	0.232325	0.224570	0.036954	0.099868	-1.030749	0.053654	0.236233	-2.597905
0.029033	0.042723	-1.379348	0.303659	0.228994	-0.040544	-0.078350	0.060067	0.046197	-0.132791	-0.301112	0.030443	-0.025957	0.070852	0.093073	0.571141	0.126184	0.005622	0.049393	0.001721	0.009668	0.065899	0.243994	-20.040705	-1.338774	0.090022	-0.109339	0.078119	0.091524	0.077514	-19.279373	-808.045682	0.060369	0.043069	-0.154382	-0.111247	0.070369	0.054275	0.074343	-21.965795	0.208315	-0.130822	-0.142317	-0.074434	-0.086038	0.212883	0.026602	-0.002175	-0.052744	0.014698	0.122418	0.223409	0.457335	-0.048009	0.047242	0.053560	-0.099800	0.024833	0.030241	0.066018	-0.068328	0.085038	-0.019412	-1.615577
0.141370	-0.420259	-3.271127	0.841549	0.148830	-0.270855	0.179770	0.441890	0.101826	0.766034	-0.635666	0.202414	0.122788	0.064266	-0.031580	0.037891	0.309115	0.069540	0.191916	0.183172	0.240791	0.142518	0.515485	-0.028113	0.252041	0.130075	-0.234549	0.322684	0.078395	-0.057598	0.516466	-0.327082	0.138102	0.395739	0.156207	0.151117	0.126389	0.242841	-0.064700	-0.369781	-36.942912	-0.172032	0.094288	0.494645	0.166443	-0.167713	-0.012213	-0.335475	-716.582573	-1.714319	-0.015297	0.154673	-0.134965	0.022094	0.040696	-1.947620	-2.028782	-0.140766	0.205645	0.194919	0.295977	0.186734	0.453799	-3.748340
0.188092	-0.456063	-3.813163	1.687917	-0.517324	0.371330	-0.261960	0.083662	0.296667	1.130418	-1.630117	0.483211	0.138346	0.448732	0.361071	0.488913	0.370606	0.847250	-0.431177	0.459065	0.569054	-0.153884	-0.107132	0.844290	-5.745204	-71.829694	1.033878	-0.212553	0.269121	0.184796	2.157065	0.928742	-652.688285	-111.898315	0.251053	0.115601	0.833798	-0.095144	0.689695	-41.164040	-116.444562	-0.199032	0.167344	-0.060560	0.393862	0.459631	0.273423	-0.314093	0.935394	0.962513	1.802579	-0.378389	-0.032646	0.318556	0.179333	0.226193	0.307883	-0.114752	-0.630829	0.380584	0.649898	0.410737	-0.140611	-4.853010
0.149847	-0.022660	-2.726848	2.814833	-4.553268	-297.948152	-1.788609	0.447421	-0.382058	-0.358956	0.171302	0.331576	1.399349	-1.734901	0.768738	0.668606	-0.123687	0.387272	-0.222417	0.101356	-0.165619	-0.003374	-0.040663	0.160493	-0.038385	-0.766599	-0.151971	0.116682	-0.494391	-0.551647	0.052370	-0.493602	0.547711	0.090159	0.187190	-0.220433	-0.112693	-0.447693	0.029918	0.089598	0.039437	0.082294	-0.292158	-0.015995	0.129288	-0.173931	0.131584	-0.049155	-0.375399	0.153106	0.457772	0.112610	-2.414490	-359.934881	-1.874941	0.010977	-0.316615	-0.024726	-0.240784	0.522278	-0.927625	-412.220035	-1.246755	-2.648635
-0.031986	-0.003243	-2.383483	0.538247	0.034018	0.023290	0.055867	-0.045244	0.389074	-0.176627	-0.619506	0.299726	0.098127	-0.078677	-0.144370	-2.479504	-0.930589	-0.023543	0.025122	0.018671	-0.011812	-0.091335	-1.377971	-813.579027	0.420065	-0.043883	0.054809	0.017119	-0.014086	-0.047838	0.401748	-16.047316	0.110917	0.195665	0.082518	0.079631	-0.157751	-0.060002	0.499774	0.821065	0.113594	-0.198325	-0.038075	0.049414	0.038081	0.030885	0.008753	-0.020665	0.023598	0.018410	0.218590	-0.083127	0.454956	-0.097007	0.025793	-0.130816	0.120988	0.040449	-0.096384	-0.046798	0.158639	0.189490	0.135673	-2.144309
