1.133341	-0.172854	0.548474	-0.078973	-0.626971	0.188323	-0.396439	-0.001703	-0.788556	-0.375887	-0.110104	-0.450445	0.360802	0.388520	-0.492461	-0.630826	0.401848	-0.352732	0.539161	-0.326106	-0.428665	-0.008323	0.723196	-0.257948	0.787925	-0.532641	-0.506860	0.763084	-0.787241	-0.465960	-0.383646	0.740347	-0.270137	0.062742	0.722520	-0.206868	-0.066279	0.319629	-0.059276	-0.655998	-0.390550	0.250879	-0.256398	-0.266527	0.168669	0.096900	-1.095176	0.473655	-0.871314	-0.700325	0.300250	-0.585357	-0.173215	-0.075061	0.850565	-0.315651	0.482686	0.158583	-0.977778	-0.137918	0.349827	-0.017494	-0.648369	0.422923
0.023095	-0.116252	-0.360947	0.032389	0.390474	-0.971676	0.317239	0.251207	0.780560	-0.439201	-0.457440	0.067505	-0.461125	-0.404028	0.848076	-0.478984	-0.771209	0.574125	-0.648425	0.793028	-0.812153	0.435388	-0.247576	0.200737	-0.134894	0.041646	-0.115240	-0.971794	1.014001	-1.880416	0.519910	-0.509165	0.854411	-0.589232	0.122172	-0.002196	-0.123982	0.836462	-0.036071	-0.243905	0.701373	-1.149345	-0.435829	-0.176146	-0.389816	-0.035896	0.306260	0.100368	-0.192718	0.025078	-0.193043	0.269724	-0.827257	0.018984	0.205377	-0.641039	-0.449190	0.150809	0.886396	-1.070672	0.313618	0.075392	-0.346394	0.255334
0.073789	-0.062883	0.428827	-0.019253	-0.073191	0.034212	-0.466512	0.006273	-0.489842	-0.218399	-0.762910	0.690420	-0.933982	0.412897	0.438634	-1.383433	-0.198983	0.220529	0.899575	-0.528615	0.483424	1.144821	-1.966940	1.650407	0.213652	0.108599	-0.799580	-0.036192	0.567663	-1.252989	-0.016797	-0.563056	-0.099162	-1.148760	-0.385833	0.484382	-0.384161	-0.079842	0.379872	-0.179341	-0.758173	0.839507	-0.167428	-0.587085	0.682435	0.213877	-1.037339	0.953926	-0.563890	0.293436	0.305249	-0.165414	-0.499434	-0.453948	0.926773	-1.360320	0.726424	-0.784322	-0.078868	0.580854	0.256344	-0.308132	-0.643716	0.130040
-0.125464	0.506255	0.098588	-0.356475	-0.517255	0.474862	0.127075	-0.944228	-0.186729	0.039322	-1.283114	0.308876	0.051126	-0.316428	0.124031	1.133303	0.105723	0.612387	-0.201104	0.787388	0.006487	0.207820	-0.367616	-0.278833	0.089255	-1.264582	0.572861	-0.698135	0.262655	0.190729	0.060677	0.447789	-0.354540	0.686507	-0.523223	0.378622	-0.055351	-0.976132	0.452148	-0.107340	0.708086	0.259391	-1.735143	0.352807	0.173732	-0.327942	-1.222841	0.499550	-0.483398	-0.435491	1.845558	-0.763087	-0.203641	-0.028209	1.306885	-0.107400	1.306656	-0.387372	0.289914	-0.945281	-0.211361	-0.076278	-0.257334	-0.438129
-0.777981	0.391100	-0.489806	0.219378	-0.478635	-0.639245	0.588434	-0.408950	0.489732	0.472074	0.098552	-0.314297	0.234726	0.771738	-0.963896	0.505220	0.397861	-0.865374	-0.420006	1.387466	-1.092323	0.680029	-0.032711	-0.920352	-0.072306	0.436895	0.404211	-1.014770	0.642793	-0.899268	0.148970	0.341810	-1.285389	0.323446	-0.757135	0.375057	-0.510183	-0.281998	0.528157	-0.022856	0.321093	-0.272772	-0.386255	0.582335	-0.537534	0.263115	0.337256	-0.776925	0.532982	-0.033824	0.162016	-0.189987	0.039944	0.301537	-0.525128	0.871660	-0.526851	0.278288	-0.273029	-0.250504	-0.309574	0.391393	-0.778645	-0.445974
-0.912733	1.049667	-0.695992	1.776523	-0.268905	-0.607326	-0.377686	-0.000507	0.351822	0.073240	0.247350	-0.560609	-0.235271	0.273966	0.360662	-0.250399	0.618993	-0.778391	-0.405571	-0.483119	-0.483074	-0.239329	-0.016604	0.466689	-0.609918	-0.181420	0.710186	0.099843	0.678070	0.079252	-1.248343	0.460387	-0.191586	0.864313	-0.502225	-0.969274	0.130014	-0.242256	1.076261	-0.613451	0.147357	-0.368449	-0.466473	0.208509	-0.069186	0.375128	-0.817386	0.186062	0.122238	0.033499	-0.236067	0.424422	-0.555861	-0.257071	0.022072	-0.298099	-0.450584	-0.015024	0.299544	0.002616	0.345780	0.078819	-0.652477	-0.344378
-0.407355	-1.013259	0.030793	0.281108	-0.735746	0.904590	-0.825184	0.044344	0.493880	0.309923	0.434151	0.151731	-0.248486	-0.057086	-0.042845	0.677324	-0.687936	0.491176	-0.273332	-0.911294	0.243221	-0.253106	0.325131	0.064520	0.388657	0.423003	-0.425246	-0.302252	0.901279	-1.139817	0.364722	0.088893	-0.309388	-0.555886	0.177670	1.276715	-1.290501	0.364060	0.228977	-0.612676	0.055209	-0.302077	-0.143456	0.513112	-0.453131	0.620510	-0.249842	0.161755	-0.069799	-0.350764	0.522282	-0.824624	0.402090	-0.700151	0.239454	0.834752	-1.212411	1.164155	-0.541985	-0.115334	0.170050	-0.664356	-0.000339	-0.393581
0.487018	-0.288026	0.694545	-0.914242	0.636590	-1.056560	0.591903	-0.411317	-0.235524	0.381764	-1.127415	1.141991	-0.535548	-0.021949	-0.545467	0.622841	-0.361782	0.240397	-0.134123	-0.154746	-0.341821	0.444282	0.421265	-0.582044	0.021904	0.110434	-0.420812	0.030060	0.203216	-0.306572	0.386708	0.311627	0.334643	-0.311915	0.601241	-0.658388	0.056369	0.057509	-1.437290	0.827749	-0.469416	0.049072	-0.332762	0.508113	-0.612012	0.359574	1.012500	-0.343007	0.572692	-0.616199	0.294580	0.115077	-0.130210	-0.057713	-0.852367	-0.045720	-0.122236	0.440999	-0.803946	0.346963	-0.667043	-0.393497	0.451677	-0.558395
-0.248541	0.708872	-0.905613	-0.249070	0.134207	-0.291732	0.808108	-1.055133	-0.244392	0.683209	0.342785	-0.611515	1.138405	-1.085186	-0.349501	0.617247	0.261947	-1.696003	0.425952	0.063253	-0.394717	-0.027054	-0.233552	0.606077	-0.172583	0.561383	-0.772762	-0.137922	0.797075	-0.444425	0.113424	-1.001804	0.023091	-0.109705	1.229525	-0.704526	-0.247667	0.360896	-0.009912	0.051301	-0.180850	-0.490397	-0.874127	0.519129	-0.160012	-1.256128	-0.019553	0.698677	-0.532528	0.621052	0.235326	-0.527710	1.144086	0.278537	-0.335450	-0.779393	0.054853	0.143655	-0.519582	-0.277459	-0.371975	0.228527	0.148135	0.344648
0.296503	0.134361	-0.568658	0.437885	0.141491	-0.121054	0.634717	-0.790242	-0.259930	0.738932	-0.114386	-0.506928	-0.006910	-0.369363	-0.019624	0.211253	0.166525	-0.768485	0.455406	-0.694457	0.815762	0.200556	-0.434111	0.684902	-0.180551	1.019598	-0.526385	0.977419	-0.359840	0.069733	-0.178888	0.185700	-0.065222	0.252945	0.361220	-1.120684	0.193436	-0.474139	-0.083315	0.231034	0.054146	-0.389567	0.351960	-0.547352	0.376363	1.360893	-0.624502	-0.363259	-0.019007	-0.298153	0.143920	0.870307	-0.823999	-0.309923	-1.288393	0.726238	0.211918	-0.448347	0.158574	-1.419381	0.624561	-0.474413	0.714362	-0.518947
-0.711070	0.909397	-0.322548	-0.516297	-0.473748	0.575785	-0.620743	0.397158	-0.458356	-0.949134	0.627377	-0.665075	0.040928	-0.218071	0.731849	-1.649045	0.845607	-0.108537	-0.189405	-0.096549	0.122173	0.105256	-1.537274	1.599992	0.256042	-0.637481	-0.023300	-0.465133	-0.361828	-0.271767	0.928838	-0.571020	-1.426042	1.373910	-0.802338	0.452497	-0.622845	0.558321	-0.442753	-0.491735	0.591123	-0.922748	0.483339	0.284684	-0.246712	-0.274598	0.157803	0.329569	0.159277	-0.515282	-0.324408	0.163583	-0.331271	-0.104206	0.468494	0.301396	0.451958	0.186952	-0.632576	-0.982457	0.346212	0.363368	-1.120195	-0.306128
0.072769	-1.116538	0.653411	0.305417	0.200901	-0.375763	-0.257622	0.288793	1.290191	-0.301954	-0.634913	-0.324375	-0.523199	-0.017615	-0.080934	-0.183289	-0.285628	-0.281851	0.214132	0.413012	-0.049250	0.000185	0.253314	-0.217415	-0.371143	0.157121	0.377149	-0.650666	-0.166874	-0.527143	-0.276313	0.723438	-0.348339	0.043666	-0.188600	-0.005739	-0.238221	0.268159	-0.054146	-0.206015	0.081922	-0.008786	-0.710220	0.734670	-0.142021	-0.125834	0.322970	-0.255103	-0.645867	0.115662	0.498786	-0.465248	-0.222725	-0.151618	0.305465	-0.101659	0.376031	0.030603	-0.957173	-0.142215	-0.233620	0.143844	0.237004	0.079552
0.604798	-0.717434	0.385673	-1.282692	0.847438	0.436917	-0.668316	0.462725	-0.131404	0.032757	0.226427	0.083223	-0.698408	-0.367205	0.365792	-0.045764	-0.405723	0.377463	0.434995	0.018285	1.050393	-0.409222	0.366627	-0.897323	0.093290	-0.420339	-0.005477	0.505731	-1.343451	-0.304273	0.596677	-0.118041	0.588887	-1.018294	-0.288638	0.635596	0.759080	-0.108725	-0.731939	1.089658	0.250738	0.503745	0.402087	-0.432771	-0.019703	-0.243346	-0.604274	0.261208	-0.541112	-0.009154	-0.422917	0.102435	0.248830	-0.003973	0.250785	-0.225205	-0.073870	0.195456	0.540253	-0.624661	0.183009	-0.121931	0.745528	-1.247892
0.864775	-0.425835	0.781981	-0.193282	0.184060	-0.573507	1.562708	-0.958913	0.085743	0.362421	-0.619770	0.273900	0.027578	0.388889	-0.964525	0.579355	-0.167027	-0.435178	1.058274	-0.691273	0.214352	-0.239518	0.123969	-0.738824	-0.566498	-0.427257	0.307526	0.650002	0.188009	0.334680	-0.466905	0.933994	0.575578	-0.682213	0.815966	-1.379368	-0.464391	0.082994	0.226037	-0.669464	-0.074484	0.564198	-0.533226	0.472183	-0.095479	-0.639581	0.087667	0.341952	0.022950	-0.444971	-0.349585	-0.193804	0.683056	-0.374581	0.096385	-0.278385	-0.442300	0.475930	0.723148	0.094880	-0.082718	0.665904	-0.484906	0.383832
0.129541	0.099619	0.058918	-1.551214	0.120209	0.288170	-0.459936	-0.375550	0.375645	0.473614	-0.136049	0.269259	-0.117201	-0.366147	0.359867	-0.041282	-0.519659	-0.132233	-0.539752	-0.381311	0.458343	-0.220686	-0.135947	0.376900	-0.684420	0.966105	0.372438	0.000992	-0.666836	0.623684	-0.868104	0.327070	0.733937	-0.385093	-0.886838	0.399991	0.029578	0.870271	-0.370199	-1.234989	-2.074550	-0.037992	1.346280	-0.088872	0.125173	-0.914549	1.005097	0.029323	1.547476	0.408569	-1.384766	-0.320843	0.567050	0.067443	-0.594264	-0.647277	-0.420872	-0.526487	-0.589717	0.620500	0.007516	-0.630891	0.442339	-0.509111
-1.015722	-0.113088	-0.074532	-0.673930	0.219324	-0.592554	1.189704	-0.504003	0.658958	-0.455341	0.405131	0.453024	-0.755500	-0.518427	0.445136	-0.520605	0.561091	-0.409744	-0.292870	0.040780	-0.321776	-0.370096	0.185705	-0.208157	-1.013542	0.123638	-0.265400	-0.446567	-0.171261	0.162933	-0.778948	0.633515	1.336098	-0.273605	0.517326	0.577405	-0.423275	-0.343175	-0.366473	-0.065393	-1.131056	0.500336	-0.440502	-0.076946	0.008045	0.461305	-0.240869	-0.042482	0.935367	-0.313960	-1.116326	0.190121	-0.202855	0.280510	0.528304	0.341917	0.085538	0.054821	1.036984	-0.712478	-0.050238	-0.569812	0.369749	-0.250862
0.121542	-0.654399	-0.117051	0.936485	0.326259	-1.373606	-0.248073	0.817442	-0.085320	0.062822	-0.280455	-0.475472	-0.139342	0.210219	0.780936	-0.354419	0.045894	-0.134792	0.334382	-0.579373	0.243231	-0.147433	0.180990	-0.463937	-0.292002	-0.283895	-0.744648	1.320310	-1.364165	1.003303	-0.363250	0.346004	0.329117	0.866116	-0.051012	-0.857714	1.422336	-1.121502	0.532717	0.383985	-0.088147	-0.438438	0.516872	0.110398	-0.392406	-0.151279	-0.135252	-0.114316	-0.654092	-0.267240	-0.236705	0.159589	-0.390373	0.671944	-0.016611	-1.126424	0.461826	0.375291	-0.593140	-0.348860	0.081170	0.034327	-0.220294	0.994369
-0.178617	-0.158140	0.163511	-0.089523	-0.505749	-0.635171	0.392275	-0.442511	0.432772	0.061083	0.017953	-0.520045	0.635374	-0.246252	-0.338327	0.263510	-0.591316	0.721417	-0.319189	-0.196594	-0.142780	-0.569444	0.568028	-0.682295	0.049147	-0.801153	-0.305096	0.051799	-0.030320	-0.267210	0.175930	0.394769	-0.609622	0.493631	0.006749	-0.598677	-0.215639	0.606123	-0.964210	0.568257	0.427548	-1.223028	0.515756	-0.306039	0.357626	-0.762689	0.325972	-0.415817	-0.397022	0.960961	-0.672094	0.525560	-0.736716	0.434860	-1.144279	0.873766	-0.379840	-0.181594	-0.031574	-0.037991	0.251723	-0.667379	1.055907	-0.547841
-0.809198	0.351805	0.060224	0.471772	-0.108512	-0.624476	-0.289297	0.968207	0.634991	-1.134999	0.576448	-1.053258	0.750958	0.078572	-0.824911	0.034214	0.164341	-0.977880	0.028610	-0.115774	0.508475	-0.478155	0.392619	-0.591865	-0.122807	0.398682	-0.257017	-0.397525	0.960235	-1.090426	0.658183	0.225663	0.040037	0.152639	0.150512	0.260504	-1.484883	-0.204291	0.206824	-1.008214	-0.264162	0.671422	0.242249	-1.258515	0.852294	-0.386707	-1.141428	1.115933	-0.767777	-0.842725	0.220328	0.332937	-0.682499	0.649312	0.226633	-1.285401	0.530807	0.212034	-0.275443	-0.352917	0.364502	-0.038482	-0.355395	0.523035
-0.612671	-0.246938	0.495948	0.010726	0.268671	-0.341079	0.161730	-0.740806	-0.025011	0.193852	-0.090379	-0.581180	-0.299280	0.120016	0.372707	-0.558768	-0.109603	-1.339185	-0.390409	-0.313830	0.566838	-1.089515	-0.011623	0.194679	0.153615	-1.322238	1.020532	-0.210881	-0.692159	-0.782739	0.949878	0.218537	-0.125206	0.545972	-0.600469	0.086961	1.520723	0.443686	-1.217415	-0.280650	0.037328	0.549563	-0.901941	0.317719	0.558586	-0.891122	0.549731	-0.414050	0.476352	-1.044926	1.220971	-0.569585	-0.377981	-0.368886	0.747901	0.659477	-0.352402	-0.508506	-1.006624	1.595522	-0.198619	-0.315556	-1.251360	0.285337
-1.144979	0.197746	0.026921	-0.450694	-0.369438	0.893054	0.256461	0.064744	0.695924	-0.321776	-0.464683	0.176220	0.453244	0.513534	-0.994268	-0.756744	-0.018617	0.577751	-0.128630	0.202596	-0.054767	-0.685845	0.889349	0.399615	-0.130499	-0.272924	0.552798	-0.591433	-0.103803	-0.200771	-0.229832	-0.048044	-0.458409	-1.176775	0.375264	-0.742659	-0.502462	1.013053	-0.610778	0.252646	0.159278	1.076513	-1.190567	-0.493906	0.296425	0.516940	-0.457297	0.272621	-0.507427	-0.210243	0.593925	1.081456	-1.037760	0.105154	0.406703	-0.009514	-0.038079	0.580202	-1.051859	0.836234	-0.496292	0.487932	-0.588940	-0.092282
-0.109333	0.783190	-1.106841	0.579354	0.219323	-0.626709	1.351779	-1.130461	0.569437	-0.857561	0.428788	-0.552081	-0.606640	-0.185677	-0.523292	0.363772	-0.303252	0.087928	-0.178230	0.187575	0.615441	-0.230798	-0.593159	0.899559	-0.337097	0.529906	-0.351742	-0.452255	-0.777754	0.737646	0.133103	-0.480636	-0.162761	-0.570859	-0.739551	0.833105	0.320548	-0.232786	-0.199272	-0.255048	0.877628	-0.395691	-0.254636	0.440767	-0.921938	0.674241	-0.377088	0.455226	-0.079933	-0.077355	0.271945	-0.195039	-0.358512	0.253760	0.457388	-0.929718	-0.629279	0.234622	-0.796695	0.654951	-0.437208	0.231831	-0.451782	0.563270
-0.167017	-0.576097	1.259189	-0.996776	-0.299249	0.678054	-0.671666	0.005881	-0.058401	0.310818	-1.430908	1.691273	-0.254497	-1.934995	0.365629	-0.467230	0.036416	0.173765	-0.669599	0.091348	-0.038321	-0.048735	-0.058702	-0.263854	-0.293865	-0.017851	-0.041182	-0.143623	-0.745448	0.560855	0.693436	-0.543212	0.029391	-0.265516	1.195557	-0.066487	0.185909	-0.442639	-0.543153	0.332073	-0.171481	-0.053208	-1.190472	-0.588971	0.475547	-1.119485	-0.425775	0.746337	-0.373352	-0.082354	0.480658	-0.137315	-0.146576	1.461056	-0.937845	-0.492035	0.664301	-0.321625	0.184434	0.432335	-0.705317	0.500715	-0.302200	0.333167
0.164299	-0.376859	-0.792284	-0.494173	1.079342	-0.366816	0.422794	-0.655261	-0.075171	-0.480668	0.495580	0.336425	-0.875705	0.038702	-0.465409	0.006358	-0.973364	-0.198958	-0.539947	0.927066	-0.074137	0.489670	-0.156207	0.225901	1.173735	-0.564570	0.586807	-0.337086	-1.346817	-0.202759	0.126624	-0.631668	0.038201	0.087658	-0.013714	-1.069021	0.952941	0.305234	-0.437199	-0.298201	-0.646861	-0.406292	0.198102	1.148912	-0.703626	0.011391	0.421238	0.937400	0.735403	-0.108268	-0.108263	0.140441	-0.620220	0.264034	-1.133503	0.238610	0.068256	-0.374380	-0.134107	-0.029500	0.231645	-0.130749	0.378727	-0.774061
0.709199	-0.352900	0.091288	0.026672	0.471895	-1.097474	0.089965	0.486582	-1.175039	0.682245	-0.181487	-0.639183	-0.301530	0.414443	-0.332196	-0.059911	0.624573	-0.492337	-0.416153	0.547609	0.287507	-0.646560	0.335012	0.025420	0.362327	-0.300345	-0.019848	-1.041463	0.979076	0.058362	0.108971	-0.411582	-0.211771	-0.420686	-0.130230	1.271260	-1.185705	0.547054	-0.286807	0.168097	-0.147069	1.022068	0.124589	-0.353483	0.939979	-0.057528	-0.319114	-0.348814	0.097991	-0.682527	-0.364890	-0.481984	-0.071279	0.227387	-0.426685	0.753787	0.639303	-0.701172	0.336152	0.616764	-0.568988	0.641187	-0.596802	-0.184712
0.162656	-0.409145	0.139769	0.396430	-0.326032	-0.390689	-0.023670	0.252531	-0.130970	0.710308	-0.794905	0.353374	-0.013691	-0.384086	0.118609	-0.587663	0.466998	-0.189403	0.233946	-0.083011	-0.153961	0.144392	-0.652610	0.416597	-0.554413	-0.042147	-0.178757	-0.434511	0.044953	-0.766595	0.901974	-0.643793	-0.537620	0.077729	0.008878	0.178106	0.526525	-0.118604	-0.707661	0.550767	-0.140972	0.843493	0.231394	-0.873589	-0.119057	-0.751729	1.115950	-0.397049	0.758328	-0.825696	0.167162	0.136543	0.529740	-0.270265	-0.001353	-0.525347	-0.925935	0.618241	0.013147	-0.980718	0.750063	-0.005379	-0.299235	0.059699
-0.311400	-0.344055	1.292489	-1.217587	0.527144	0.068680	-0.530011	0.780620	0.117514	0.048081	0.450255	-0.568207	0.238203	0.510965	0.107916	0.350177	-0.753371	-0.229163	0.053330	0.059528	-0.830405	-0.123707	-0.377185	-0.840150	1.079855	0.183731	-0.455404	0.359732	0.003470	-0.301015	1.038639	0.536743	-0.228317	-0.080781	0.710419	-0.404214	-0.315056	0.452300	-0.679907	0.024581	0.200385	-0.362998	-0.400711	-0.010215	-0.531055	-0.371930	0.840810	0.282362	0.581232	0.077033	0.435361	-0.751542	0.273891	-0.340288	-0.024924	-0.502481	-0.249486	-0.079883	-0.172552	0.885269	-1.396040	0.815602	0.199612	-0.312850
0.928989	-1.084129	-0.136373	-0.283298	0.273057	-0.103775	-0.104333	0.306807	-0.549201	0.776924	-0.153468	0.598946	-0.821821	-0.206323	0.054002	-0.657707	-0.717164	0.710059	-0.383052	-0.938309	0.509391	0.339220	0.034664	0.737215	-0.620056	-0.375492	0.371452	-0.234053	0.448771	-1.353255	-0.192763	-0.643187	-0.159450	0.060144	0.316983	-0.370391	-0.147539	0.854390	-0.390990	0.300185	0.876052	-0.818326	-0.601606	0.644595	-0.459609	-0.304408	0.187291	0.154560	-0.377862	-0.113821	-0.298004	-0.618657	1.689962	-0.792041	0.283416	0.287486	0.001396	-0.428890	0.817170	-0.314850	-0.802645	0.378168	-0.516399	-0.257083
0.195872	-1.240062	1.102753	0.548011	-1.205071	0.233492	0.394611	-1.098591	0.215410	-0.740256	-0.076235	-0.209307	0.790462	0.102866	-0.084973	0.457884	-1.088292	1.154299	-0.511415	-0.665644	0.520316	0.444685	-0.612274	0.035537	-0.302343	-0.373276	-0.337606	0.789284	-0.389794	0.159531	-0.761900	0.044655	0.431307	0.156477	-0.214642	0.271516	-1.680703	0.920900	-0.052546	0.155507	0.446448	-0.410033	-0.054756	0.304403	0.360955	-0.477289	0.322192	-1.175964	-0.241930	-0.009706	0.192755	0.402496	0.543582	-0.957270	0.736504	-0.082716	-0.315589	0.028295	-0.802231	-0.037303	-1.333579	0.899570	0.192079	-1.183481
0.169325	0.384131	-0.951339	-0.314570	-0.168907	0.698921	-0.742423	-0.140038	-0.114042	-0.406222	0.606734	0.918240	-0.391843	0.257359	0.106900	-0.166561	0.196203	0.839498	-0.732249	-1.478001	0.671522	-0.617896	0.018237	-0.243625	-0.167496	0.643052	-0.610860	0.519897	-0.433020	-0.225564	-0.028852	0.534522	-0.757521	0.314020	0.053847	-1.047488	0.560688	0.706427	-0.940417	-0.326711	0.317869	-1.008367	0.902274	-0.481808	-0.250760	-1.049079	0.442782	0.446718	-0.298040	-0.439972	-0.211917	0.569741	-0.736721	0.707885	0.371886	-0.017435	-0.281397	0.059726	0.182679	-0.120397	0.361525	0.284469	-1.512774	-0.426903
-0.167648	-0.158398	-0.841971	0.579690	-0.280826	0.409554	-0.331707	0.525653	0.876548	-0.272268	0.350550	-0.225470	-0.044921	-0.489424	0.150761	-0.767641	-1.359312	0.882980	0.077072	0.303085	-0.554236	-0.464632	0.534563	0.185027	0.735937	-1.120362	-0.078446	0.075834	-0.035935	-0.206926	0.080665	-0.468578	-0.870433	0.464533	0.205675	0.015853	-0.415092	0.079960	0.219370	-0.354900	0.583015	-0.728814	-0.196772	-0.028824	-0.433516	-0.370060	0.365816	-0.232705	-1.074219	1.052907	0.600508	-1.288267	0.633329	0.405543	-0.235067	-0.108769	0.593640	-0.325197	-1.200633	0.882242	-0.711552	0.617804	-0.934930	0.301170
0.516593	-0.036589	-0.534471	0.860739	-0.633055	1.204715	-1.142068	0.677969	0.314143	-0.170337	0.746549	-1.174665	0.355389	-0.465245	0.410221	-0.259249	-0.430731	0.322002	-1.416120	0.993633	-0.460300	0.094071	-0.139398	-0.263968	-0.471172	0.081085	0.379416	-0.330776	-0.201926	1.009779	-0.170496	-0.170935	0.722582	-0.175046	-0.416934	0.230879	-0.081428	-0.329934	0.449127	-0.238155	-0.546935	0.172232	-0.452469	-0.005166	0.474082	-1.309549	0.134260	0.069344	-0.475195	0.374884	-0.319415	0.990330	-0.635715	1.080423	-0.418980	0.932999	0.278602	-0.501845	-0.055157	-0.672481	0.321843	0.299055	-0.233794	-0.667140
0.566715	-1.281236	0.232319	-0.472655	0.461641	-0.552695	0.579632	-0.788925	-0.181764	1.272951	-0.005478	0.998106	-0.489101	-0.091338	-0.340735	0.499916	0.190434	-0.523405	-0.209624	-0.869825	0.423819	0.180805	0.148789	0.054251	-0.487374	-0.289685	0.367327	0.034870	-0.222500	-0.137987	-0.168947	0.164550	0.867960	-0.642403	-0.243614	0.075377	0.144264	0.564563	0.986498	-0.985413	-0.334834	0.369718	-0.126645	-0.328151	0.120587	-0.598787	-1.031265	0.514564	0.226887	-0.836380	1.585706	-0.430725	0.102622	0.065908	0.280540	-0.350536	0.030331	0.744107	-1.036806	0.669251	0.404508	-0.228146	0.026187	-0.338155
0.390879	-0.486435	-0.626676	0.563082	-0.693761	0.093712	-0.643194	0.423220	0.556402	-0.803764	0.159686	-0.107530	0.205918	-0.382026	-0.134122	-0.324092	-1.043481	0.088256	0.374242	-0.812011	-0.659910	0.124474	-0.082000	0.646094	0.845945	0.154826	0.183814	-0.162410	-0.071055	0.083991	-0.151366	-0.728329	1.120711	-1.115814	0.385687	0.491022	0.144093	-1.215114	-0.457304	0.491925	-1.900787	1.013913	-1.132080	0.436390	-0.147891	0.032649	0.099542	-0.107889	1.001900	-1.259834	0.761250	-1.349951	0.721782	-0.024382	-0.526134	0.226276	0.100481	0.228735	-0.514101	1.045947	-0.075915	-0.581013	-0.486113	-0.108532
-0.393864	-0.077404	0.972506	-1.070080	0.289878	0.365910	-0.153107	0.093169	0.151860	0.764259	-1.279952	-0.379514	0.189550	-0.878337	0.113515	-0.046426	-0.307135	-0.279122	0.398571	-0.227872	0.085729	0.250605	-0.083723	0.514326	0.445593	-0.120952	0.191385	0.380033	-1.046520	1.543837	-1.116881	-0.745342	-0.804440	0.321454	-0.542601	0.012114	0.540860	0.399892	0.018610	0.017039	-0.509017	0.487376	-0.248215	0.151150	-1.078266	0.373452	-0.467866	-0.688839	0.740886	-0.545325	0.990109	0.305004	0.051429	0.006683	-0.142696	0.841402	-0.069426	0.063784	-0.635355	0.098440	0.449323	-0.716866	0.042097	-0.567351
0.595262	-0.635377	-0.463857	-0.137969	0.518974	0.846821	-0.229794	0.654109	-0.174824	0.263952	-0.367639	0.843904	-0.884773	-0.336835	-0.689595	-0.712506	-1.111610	-0.455299	0.927258	-0.611632	-0.463730	-0.105052	0.445952	0.094323	0.607304	0.665121	-1.591154	0.604507	0.396299	-0.964877	-0.925766	0.565616	-0.307438	0.938637	-0.223128	0.437423	-0.561426	0.365767	0.388423	-0.186326	-0.207263	-0.186266	-0.248690	-0.626537	-0.324242	-0.247612	0.092583	-0.979476	0.203728	-0.004539	-0.502321	1.680756	-0.372179	-0.491667	-0.015119	1.165442	-0.044199	-0.240886	-0.277685	-0.434763	-0.575535	0.629397	0.136389	-0.490211
-0.101613	0.165833	-0.208502	-0.046294	-0.076995	0.433579	-0.416403	0.529666	-0.419859	-0.662261	0.869853	0.171802	-0.680869	0.839681	-0.891650	0.043073	0.045352	-0.300971	-0.821272	-0.121263	0.009596	-0.552085	1.224190	-0.856365	0.090500	-0.166786	0.915973	-0.352171	-0.322410	0.229311	-0.715815	0.315804	-0.610874	0.106658	-0.646026	0.222756	0.372492	-0.967256	-0.619546	0.455845	0.342786	0.390010	-0.322341	-1.649734	-0.152002	0.296084	0.940796	-0.502776	0.162721	-0.872312	0.834271	0.463088	-0.562940	0.293296	-0.222528	-0.468828	-0.477464	1.219890	-0.569696	-0.431035	0.130721	-0.381069	1.081208	-0.499375
0.865640	-0.624010	0.554165	-0.327263	-0.121303	-0.233572	0.124627	-0.577420	-0.465516	-0.266826	-0.201789	-0.215156	-0.159781	0.810972	-0.196978	-0.545631	0.800746	-0.707132	-0.035514	1.445607	-0.968693	0.529968	-0.514666	0.976233	-0.664457	0.957666	-0.938300	0.080824	0.090008	0.262530	-0.719353	-0.112160	-0.513306	-0.379601	0.312039	-0.365376	-0.039350	-0.112245	0.085219	0.106583	0.746800	-0.301984	0.456268	-0.893093	0.703941	-0.724943	-0.281745	0.056327	0.083974	-0.846755	-0.388304	-0.079203	-0.165089	1.398095	-0.449679	0.386246	-0.637462	0.795906	-0.107698	1.038115	-0.499909	-0.814057	1.362262	-0.466023
0.011719	-0.018054	0.301888	-0.907510	0.541627	-0.598446	0.334555	-0.365401	0.309066	0.097918	-0.183749	0.105704	0.702989	-0.863482	0.555462	-0.310729	-0.293743	-0.081589	-0.235239	0.022905	-0.583560	0.593472	0.046885	-0.044887	0.529533	-0.817168	0.526625	-0.116133	0.374253	0.680993	-0.874016	0.011866	-0.081403	0.194767	-0.729590	0.570326	-1.096339	-0.216973	-0.056699	0.021643	-0.504699	-0.140808	0.194050	-0.743375	0.401933	-0.293845	-0.027648	0.069656	0.220284	-0.808038	0.029418	0.145252	0.002906	-0.589243	0.081884	0.274399	-0.841629	1.317656	-0.204745	-0.247221	-0.024049	0.328398	-0.550024	0.139935
0.700665	-0.110126	-0.134184	-0.520349	0.795080	0.469075	-0.567445	-0.396816	-1.148891	1.047883	0.621810	0.100604	-0.677678	0.594708	0.062232	0.316784	0.808323	-0.827484	-0.404178	0.137151	0.881230	-1.884211	0.031872	0.392351	0.152975	0.041673	-0.002944	-0.138602	-0.385024	0.087047	-0.706228	-0.056449	0.230300	0.595772	0.015985	-0.204456	-0.128981	-0.593541	1.008822	0.040187	-0.560208	-0.089488	-0.157910	-0.367951	0.911800	0.152948	0.076295	-0.059658	-0.144987	0.120369	0.124262	0.578428	0.092814	-1.119124	0.185356	-0.476167	0.300432	-0.730321	0.369042	0.401683	-0.583652	0.217308	0.413427	-0.194647
0.784656	-0.458378	-0.560205	0.083248	-0.177270	0.726130	-0.378952	-0.308521	-0.393588	-0.505620	0.898825	0.180046	0.655969	-0.655135	-0.520751	0.871601	0.103776	-0.144764	-0.541906	0.054304	-0.956474	1.055589	-0.472461	0.275059	-0.440191	-0.449822	0.854126	-0.010399	0.416782	-0.952812	0.574243	-0.806598	0.451221	0.485761	-1.010097	-0.133549	0.019542	-0.190329	-0.219440	1.051965	-0.449874	0.206540	0.065215	-0.079639	-0.020237	0.219472	-1.166956	-0.475020	0.140865	0.168335	-0.198092	0.005141	-0.298374	-0.273194	0.331800	-0.409484	-0.648457	-0.174994	0.343079	0.356047	-0.671678	0.657528	-0.339692	0.332729
-0.600916	-1.366873	0.750734	0.684057	-0.628938	0.573599	0.585730	-0.538740	0.141898	1.368951	-0.109404	-1.364376	-0.011035	-0.041214	-0.138378	-0.342619	-0.161548	-0.033140	-0.771841	1.304275	-0.230671	-0.031433	-0.247382	0.987593	-0.194644	0.478047	-0.198790	-0.021168	-0.178526	-0.058474	0.497547	-0.575229	0.466250	-0.598252	0.197726	-0.268657	0.622177	-0.275674	-0.088714	-0.068868	-0.334780	0.140057	0.414849	-0.258981	-1.240551	0.421576	-0.149272	0.309507	-0.748234	0.045608	-0.101118	-0.346945	0.514567	-0.248763	0.457728	-0.108650	0.152752	-0.102473	-0.276329	0.294613	0.080665	-0.067527	0.382851	-0.649948
0.689504	-0.842134	0.236429	0.346597	-0.411351	-0.440033	0.856534	-0.057199	-1.222933	0.314515	-0.479760	-0.985499	-1.274894	0.396785	1.327677	-0.240833	0.670552	0.212027	0.076373	-0.303072	1.060475	0.310047	-0.372638	-0.408115	-0.783470	-0.001551	0.453135	0.450935	-0.285133	0.180037	-0.588823	-0.032887	0.394259	-0.380341	-0.050406	-1.189411	0.425941	-0.394282	-0.461237	-0.532544	-0.125059	0.109230	-0.301527	0.480600	0.413701	-0.481681	0.590457	-0.866485	-0.475724	0.146591	0.182364	-1.608385	-0.374058	-0.043491	-0.324450	0.991526	0.836864	-0.635543	0.276046	0.600486	-0.732421	0.145623	-0.275397	-0.622236
-0.581176	0.818094	-0.173671	-0.159935	0.336642	0.033509	-0.275807	-0.363041	0.569593	-0.142005	0.192217	0.311443	-0.361877	0.414124	-0.785830	0.845327	-0.211300	-0.451910	0.019771	-0.281010	0.667026	-0.249053	-0.255684	-0.132409	0.158532	0.303842	-0.257074	0.318738	-0.362592	-0.315183	0.234077	0.314667	-0.193366	-0.376228	0.403840	-0.812460	0.008333	0.406908	0.056451	-0.474533	0.307637	0.289313	-1.202552	0.141992	-1.001824	0.871363	-0.085059	-0.074870	-0.644290	0.622563	0.492366	-0.463644	1.120122	0.152451	-0.433892	0.169602	1.556850	-1.470934	0.264058	-0.027593	0.620630	-0.822306	0.267679	0.487537
-0.538295	0.050725	-0.174025	-0.061839	0.347599	-0.759816	0.214746	0.164639	0.053136	-0.281700	-0.115349	-0.003161	-0.105425	0.155725	0.244593	-0.806354	-0.422372	-0.121760	-0.365278	-1.445570	0.833409	0.295464	-0.960568	1.212030	0.356803	0.327463	-0.132109	1.209432	-0.648241	-0.055239	0.354855	-0.973213	0.475663	-0.896062	0.307440	0.132866	-0.505741	-0.799514	0.249845	0.703299	-0.301769	-0.243032	0.101968	-0.309876	-0.143630	-0.234167	0.630886	-1.000635	0.776709	0.623045	-1.407086	0.665390	-0.758018	0.701381	-0.355078	0.018267	-1.125476	0.190617	-0.037861	0.689157	-0.204595	0.154490	-0.577797	-0.156364
-0.337793	0.430533	-0.165656	-0.774110	0.429283	-0.120428	-0.174682	-0.184394	0.100215	0.119015	-0.364819	0.746530	-1.107620	0.001885	-0.460342	0.000436	0.076529	-0.028194	0.307236	-0.077448	-0.012738	0.519544	0.821290	-0.755762	-0.049901	-0.311935	0.066773	-0.144677	0.028978	0.276655	-0.235983	0.667799	-0.781879	-0.099139	-0.225894	0.603599	-0.870989	0.469427	0.249858	-0.937309	0.251542	0.021396	0.321455	-0.133853	-0.125283	0.229933	-1.147745	0.379203	-1.736330	0.627079	-1.062695	0.888468	-1.156020	-0.094398	0.173064	-0.439332	1.201605	-0.075283	-0.211819	-0.596093	0.667704	-0.443739	0.316907	-0.513558
-0.533651	0.105181	-0.147778	0.026486	0.133757	0.059748	-0.435403	0.313152	-0.263119	-0.349077	0.092356	0.181498	0.249758	-0.511885	0.166283	-1.008351	-0.646528	0.636278	-0.502598	0.035023	-0.208471	1.319255	-1.531770	0.761764	0.159214	-0.530869	0.948733	-0.115769	0.185133	-0.921792	1.522017	-0.604729	-0.238502	-0.213216	-1.170772	0.235058	-0.530372	0.177393	-0.875207	0.205582	-0.203000	0.381000	0.332736	-1.162006	0.363712	-0.105729	0.519483	-0.765085	-0.306417	-0.227994	0.384503	0.016563	-0.011877	0.064355	-1.886970	0.687089	0.489390	0.110631	-0.323315	-0.162158	0.210690	-0.777730	1.522032	-0.834201
0.238723	0.153608	-0.213701	-0.311841	0.499323	-0.965397	0.636270	-0.430220	0.366199	-0.113715	0.646829	-0.967626	-0.064866	0.704592	-1.563932	0.161252	-0.717882	0.835813	-1.115789	0.370421	0.410099	-0.211039	0.504291	-0.563119	0.718266	-1.190994	0.683132	0.060118	-0.472281	-0.592128	0.054634	0.201894	-0.775921	0.284684	0.038466	0.305822	-0.205927	0.252111	0.481111	-0.661284	-0.216226	-0.914411	0.625220	-0.721753	-0.017264	-0.399081	-0.785397	0.134952	1.054408	-0.471901	-0.958822	0.292788	0.373976	-0.056637	0.579932	-0.557013	-0.484228	0.350824	-0.278076	-0.652681	0.268044	-0.040702	-0.646254	0.592397
0.216251	-0.848244	1.344722	-1.063591	-0.018350	-0.957948	0.919186	-0.108289	-0.825308	0.976058	-0.470699	0.649316	-0.012310	-0.251587	-0.521511	0.113337	0.899525	-0.595943	0.349645	-0.427704	0.229405	0.161309	-0.352349	0.074847	-0.435191	-0.524104	0.052425	-0.210739	-0.648236	-0.191140	-0.199393	-0.349276	-1.102649	0.849394	-0.561039	0.220484	-0.045409	-0.181262	-0.035604	0.008153	1.531796	-1.900990	1.145036	0.196412	-0.318159	0.109579	-0.223096	0.011194	-0.964423	0.513688	-0.261482	0.650404	0.528752	0.019327	0.643749	-0.335997	0.160649	0.190486	-0.938774	-0.061057	-0.785949	0.221180	-0.576950	-0.100659
-0.392830	0.703526	0.752364	-0.998653	0.170980	0.130501	-0.315708	-0.122070	-0.249288	-0.590012	0.460549	-0.387275	-0.320907	0.778080	-0.201563	0.334348	0.064635	0.582493	0.187201	-0.282020	0.344610	-0.099249	0.426436	0.271462	-0.508729	0.049139	-0.687194	0.542564	-0.255352	-0.486439	-0.024292	-0.152450	0.360924	-0.533485	0.313875	-0.101837	-0.350239	0.531804	0.686704	-0.679264	0.005996	-0.099718	-0.376993	0.336451	0.556319	-1.322180	-0.327643	-0.096928	0.638286	-0.275784	-0.009104	-0.008130	-1.107138	0.663284	-0.743438	0.784322	-1.336124	0.865795	-0.311472	-1.477732	0.950456	0.356751	-0.327016	-0.420780
0.403323	-0.293783	-0.174747	-0.287038	-0.408601	0.056756	-0.051148	-0.103014	-0.919759	0.088405	0.078941	-0.402971	0.939324	-0.790712	-0.183521	-0.011675	0.360332	-0.159669	0.491490	0.126166	-0.113044	0.964998	-0.211693	-0.572059	0.366932	-0.308565	-0.572011	0.191153	0.146794	-0.460698	-0.059760	0.114381	0.175762	-0.843913	1.327326	-0.932940	-0.096941	0.249014	0.110666	0.031166	-0.457556	0.083952	-0.276142	0.736035	0.366560	-0.313469	0.221543	-0.266362	0.476133	0.339414	-0.480285	-0.134290	-0.654215	0.050689	0.305059	0.040560	0.656515	-1.136761	0.309433	0.006261	0.300959	-0.787141	0.209654	-0.320409
-0.104508	0.161351	-0.317285	-0.438582	1.202143	-1.357779	0.394699	0.135528	-0.342345	-0.396543	0.172779	-0.245752	0.178469	0.210210	-0.322874	0.066009	0.512401	-0.208847	-0.237804	-0.074187	-0.185608	0.826376	-0.266362	-0.603055	-0.310516	0.133178	0.347609	-0.235445	-0.361356	-0.789109	0.768720	1.817107	-0.350435	-0.519673	-0.384077	-0.089372	1.359439	-1.216083	0.607943	-1.810704	-0.265716	0.892802	0.103795	-0.032311	-0.451644	0.366348	-0.607382	0.506174	0.109215	0.847263	-0.550570	0.402369	0.862449	-0.217349	-0.600132	0.738630	-0.276427	0.065626	-0.431226	0.599441	-0.147582	-0.662189	0.271043	-0.846761
-0.600098	-0.782081	0.525738	0.180309	-0.336481	-0.010403	-0.261791	0.179461	1.038109	0.299583	-0.435380	0.097623	-0.189675	0.299797	-0.252291	0.213735	-0.738496	-0.251787	0.463172	-0.803139	0.158560	-0.395407	0.212822	-0.640976	0.141392	0.938136	-0.261674	-0.286490	0.095621	0.307790	-0.404075	0.073375	-0.496181	-0.752772	0.255799	0.251149	-0.094500	-0.345105	0.035830	-0.219465	-0.018366	-0.544375	0.106413	0.133539	-0.286524	1.286040	-0.889202	0.276139	0.002905	0.296315	-0.279264	0.188317	0.146260	-1.107213	0.936741	0.358542	0.703076	-0.868515	-0.283326	0.961511	-0.839601	1.115975	-0.205404	-1.329118
-0.306416	0.262423	0.833300	-0.362180	0.050649	-0.663193	0.899539	-0.325797	0.004183	-0.616222	0.042547	-0.076890	-0.039315	1.022649	-0.786726	-0.200890	-0.612176	1.262031	-0.951468	0.637857	0.290641	-1.462687	0.151944	0.694702	0.784470	-0.855739	0.030478	-0.134985	-0.224982	0.934809	0.221307	-0.692583	0.082820	-0.816960	0.417003	-1.129342	0.039760	-0.580052	0.496225	0.384011	-0.713387	0.433739	-0.434964	0.405315	-0.612445	0.032713	0.096765	-0.460306	-0.175672	-0.350521	0.286782	-0.263666	1.325180	-0.955194	-0.183865	0.342010	0.002451	0.220243	-0.136459	-0.808270	-0.667678	1.085376	-0.927440	0.281866
0.513466	0.468303	-1.007192	0.540747	0.049202	-0.876155	-0.496530	-0.043765	-0.329370	0.038966	0.317425	0.911219	-1.081436	0.445914	0.889476	0.164333	-0.950871	-0.390324	0.674010	-0.820137	0.191096	-0.269730	-0.205105	-0.217071	1.301304	-0.608325	0.124827	0.246703	0.184368	-0.240493	-0.544025	0.123863	-0.379534	0.326452	-0.482604	-0.306593	-0.680274	0.912747	-0.552765	-0.137589	0.246643	0.239547	-0.045439	0.304278	0.078566	-0.091730	-0.650281	0.376492	-0.734435	0.144207	-0.125788	-0.767528	0.377783	-0.208965	0.323917	0.089330	-0.777722	0.772682	-0.388544	0.664715	-0.264976	-0.134801	-0.156770	-0.131020
-0.740703	-0.213696	-0.474151	-0.118945	-0.305956	1.522693	-0.890261	-0.102673	0.663442	0.566966	-0.324422	-0.003043	0.122803	-0.927755	0.246134	0.103751	-0.501025	-0.142941	0.727703	-0.108839	-0.007606	0.454548	-1.009585	-0.895283	0.872464	-0.734890	-0.358388	0.105080	-0.288365	0.135077	0.419411	0.604532	-0.182016	-0.162623	0.566664	-0.176943	-0.117897	-0.413483	1.332476	-0.663753	0.034952	-0.201869	-0.113525	-0.239414	0.156761	0.248571	-1.110782	0.564245	0.535242	-0.276906	-0.233762	0.559445	-1.111945	1.461925	-0.163317	-0.792933	-1.124841	0.511463	-0.771073	0.485476	0.157498	-1.564893	0.715014	0.084883
-0.129330	0.740923	-0.564517	0.691525	0.123966	0.704812	-0.755076	-0.135457	-0.887022	0.332901	-0.559491	0.312541	-0.203204	-0.324347	0.662747	-0.339422	0.480740	-0.294809	-0.295232	-0.442618	-0.094443	-0.082956	-0.765644	-0.014998	-0.315464	0.432778	0.231426	-0.725718	0.044903	0.303972	0.471725	0.580809	0.112238	-0.961936	0.820400	-0.062076	0.180694	-0.647744	0.177812	-0.116844	0.638673	-0.325584	0.030765	-0.233546	-0.315390	1.116148	-0.348247	-0.305605	-0.100326	-0.060936	-0.021515	0.524295	-0.063173	0.562675	-0.675734	0.744591	-0.691431	0.164966	-0.916479	0.845810	-1.458603	0.306804	0.798428	-1.194899
0.611230	-0.643492	0.100808	0.572975	-1.177405	0.584968	-0.411090	0.051548	-1.177804	0.321088	-0.314619	-0.885713	0.759441	-0.868279	0.395471	0.003291	0.079838	-0.018882	-0.281511	0.715955	-0.116112	0.062070	0.146363	0.181214	1.417525	-0.567131	0.451652	-0.131853	-0.675940	-0.491450	-0.121838	-0.063689	-1.661613	0.931850	-0.765003	-0.262371	1.092757	-0.410003	-0.558758	0.164316	0.813836	-0.663327	0.270255	0.019600	-0.305523	0.875636	-0.843277	0.307543	0.284214	0.075668	0.030763	-0.014286	0.027695	-1.110167	0.314030	-0.870992	-0.496276	0.547671	-0.600538	0.623708	0.150150	-0.050552	-0.214486	0.613979
0.906339	-0.306589	-0.528351	-0.876883	0.425869	-0.124975	-0.287263	-0.380551	-0.834614	0.212420	-0.631681	1.664284	-0.970444	0.208591	-0.507931	0.240513	0.393045	-0.530711	0.435930	0.053385	1.111159	-0.953947	0.714026	-0.112630	0.327164	0.969794	-0.815741	0.165709	0.030876	0.235427	-0.618565	0.051715	-0.253581	-0.956102	0.874686	-0.355937	0.322008	-0.491162	0.500826	-0.187371	0.799265	0.140429	-1.058241	0.594631	-0.422158	0.823984	-0.173924	0.620949	-0.243253	0.115707	-0.204397	-0.122332	0.247883	0.618344	-0.011826	-0.802665	-0.767497	0.916257	-0.038924	-0.402285	0.491492	-0.894747	-0.028104	0.343348
-0.636456	1.109810	-0.303311	-0.026005	0.244445	-0.353885	-0.133022	0.063425	-0.013489	-0.125995	-0.213595	-0.097487	-0.253264	-0.626306	0.107867	-0.438261	-0.094667	0.323036	0.613961	0.005644	-0.344398	0.691434	0.063267	0.194930	0.307364	-0.825810	-0.429757	0.183735	0.525256	-0.911526	-0.774976	-0.143907	0.579830	-0.030637	0.634388	-0.887078	1.154108	-0.643920	-0.004231	0.299339	-0.515217	-0.506615	1.018964	-0.390201	-0.704164	0.606087	0.130591	-0.651360	0.071912	-0.092675	-0.394032	0.360124	0.258633	-0.605539	-0.128723	0.834856	0.315204	-0.226342	0.024374	-0.126906	-1.065635	1.489629	-1.033394	0.073701
0.818584	-0.226825	0.438299	-0.385244	0.272457	-0.650182	-0.505574	0.336702	-0.138724	-0.280808	-0.346896	-0.151146	1.385164	-1.399403	1.513919	-0.922821	-0.010322	0.374401	0.013209	0.064038	-0.193724	0.290125	-0.608182	0.565911	0.052228	-0.107581	-0.222232	-0.094729	-0.924340	0.528458	-0.582720	0.339032	-0.108705	-0.587409	1.117117	-0.604422	-0.023434	-0.268399	0.693824	-0.194762	0.467501	0.449193	-1.033833	0.693584	-1.119527	0.673631	-0.579076	-0.422196	-1.215698	0.952178	-0.428931	-0.283464	0.464289	-0.859001	0.032864	0.584707	0.176691	-0.497140	0.552625	-0.500795	0.468798	0.057039	0.262480	0.006338
0.358725	-0.441416	-0.242374	0.270113	-0.912551	-0.297166	0.186753	0.468428	0.618453	-0.407306	-0.361067	0.509600	0.178260	0.526855	0.542113	-1.556017	-1.123162	-0.647523	0.334160	0.358179	-0.286647	-0.913804	-0.716120	0.979275	1.114812	-0.876797	0.077101	-0.727589	0.251176	0.884201	-0.502758	0.284660	-0.423909	-0.489584	0.016420	0.644829	0.669516	-1.025628	0.767647	-0.721462	0.066254	0.755168	-0.342753	-0.648595	-0.469691	0.013613	0.065209	0.532100	-0.046368	-0.160636	-0.438331	0.726726	-0.011668	0.154923	-0.650794	-0.469330	-0.055377	0.115821	0.018486	0.054029	-0.388783	0.341773	0.191405	0.076297
0.377687	-0.378872	-0.255748	0.112803	-0.521221	0.810154	-0.893581	0.489373	-0.325873	-0.434568	0.785653	-0.728763	0.082349	-0.429658	-0.095600	-0.753362	0.328002	0.392285	0.090398	0.222441	0.112958	-0.147808	0.108005	-0.043769	-1.310365	0.599792	-0.117431	0.028307	-0.140443	-0.241964	-0.123260	0.561918	0.274269	-0.509216	-0.313249	0.315789	-0.392065	-0.110431	1.379910	-0.956633	0.497159	0.182709	0.243468	-0.624430	0.288267	-0.393094	-0.142991	0.482732	0.615432	-0.387336	-0.036941	0.230995	1.130876	-0.880140	-0.645612	-0.715212	-0.252413	-0.709745	0.609534	0.038096	-1.421284	0.622709	-0.540155	0.906132
-0.379318	0.379681	-0.297076	0.249214	-0.750830	0.977641	-1.329255	0.909078	0.365627	0.310644	-0.372266	-0.324007	0.262937	-0.728436	0.537455	-0.867253	0.395332	-0.840362	0.493954	0.384444	-0.005070	-0.430525	0.886612	0.172005	-0.812603	0.231008	-0.055050	-0.042470	0.201293	-0.136110	-0.550665	-0.546532	0.449123	0.069136	0.105594	-0.380493	-0.371968	0.460815	-0.361703	0.340968	0.160498	-0.514325	0.154514	-0.074926	0.639957	-0.563531	0.522540	-0.050016	0.114595	0.403584	-0.155637	-0.321810	-0.055293	-0.623230	-0.303349	-0.168685	-0.224509	0.698194	-0.783506	0.395092	0.206311	-0.179714	0.077599	0.437828
0.128014	0.636631	-1.108139	-0.142598	0.821478	-0.844815	0.535255	-0.215678	-0.921679	-0.441497	0.590030	-0.334270	-0.569794	-0.201388	-0.857445	0.639257	1.165825	-0.357061	-0.261333	0.409876	-0.073456	-0.350625	0.583085	-0.230216	-0.927703	0.141874	-0.120067	-0.432135	0.022847	0.301717	0.688616	-1.206953	1.074248	0.067767	-0.202884	0.061641	-0.374079	0.401860	-1.071455	0.934630	0.100134	-0.637473	-0.096678	-0.250616	0.557769	-0.754201	-0.303871	-0.728879	-0.828692	0.427619	-0.399749	-0.027635	-0.037483	-1.110712	1.084042	0.578436	0.654098	0.219087	-0.753429	0.226527	0.147024	0.052923	-0.057006	-0.457786
0.023826	-0.067725	-0.643481	0.348150	-0.709580	0.520144	-0.556046	0.217685	-0.966510	0.058626	-0.564440	0.790413	-0.158077	-0.205472	-0.093900	0.194941	-0.440538	-0.538825	-0.236111	-0.382809	-0.504027	-0.660387	-0.164709	-0.353922	-0.253057	1.345228	-0.668995	-0.511136	0.724674	0.447883	0.223887	-0.079328	0.054975	0.172795	-1.028510	0.234591	0.339438	0.369876	-0.826355	1.394055	-0.621503	-0.098429	0.750186	0.400673	-2.334258	-0.886914	0.226064	-0.658998	-0.516771	0.955194	-0.236262	-0.804272	1.472517	0.172499	-0.537423	0.073915	0.932485	-1.414902	-0.422028	0.571249	-1.604538	0.807791	-0.509800	0.724802
0.456952	-1.642354	1.231838	-0.453785	0.187529	0.214214	-0.915651	-0.270341	-0.088574	0.528210	-0.707238	-0.030457	-0.414558	0.926471	-0.148039	0.366464	-0.388678	0.499497	-0.265097	0.567275	-0.390059	-0.780163	0.104914	0.197920	0.298607	-1.031792	-0.040230	-0.162327	0.850682	0.768934	-0.069185	-0.236872	-0.181527	1.126668	0.071675	-0.739052	0.368244	-0.660876	-0.116298	-0.392033	-0.603093	-0.280630	-0.173497	0.469654	0.065197	0.508568	-0.324544	0.795255	0.438563	0.287624	-0.480480	-0.138833	-0.715364	0.597799	-0.167456	-0.241054	-0.685270	-0.590963	0.890163	-0.595175	0.855821	-0.089462	-0.060429	0.232544
0.192122	-0.108504	0.410250	-0.298002	-0.433996	0.419042	-0.684556	-0.444594	-0.376413	-0.005498	-0.746183	0.573758	0.340243	-0.307853	-0.259322	0.409065	0.346098	-0.003668	0.514770	-0.889193	-0.612592	-0.229438	0.105111	0.149270	-0.359138	-0.813827	0.379155	0.056221	0.656517	-0.381898	0.066239	-0.977101	-0.226176	0.176927	-0.203844	-0.149649	-0.599485	-0.454364	0.025826	1.488571	0.208360	-0.026898	-0.359537	0.411763	-0.912618	-0.173312	0.860454	-0.746248	-0.419208	-0.687129	-0.139340	0.251794	-0.234546	0.754429	-0.171750	-0.478298	0.636994	-0.712987	0.646142	-0.685101	0.772589	-0.858675	0.170129	0.227209
-0.876395	0.571349	0.291510	0.314896	-0.637780	-0.960928	0.749797	-0.341975	0.286444	-0.510216	-0.336298	0.886789	-0.784435	0.064915	-0.304565	0.476071	-0.182602	0.801846	0.057982	-1.162546	0.455374	-0.709227	0.433951	0.052390	0.134089	-0.582570	-0.256645	0.238164	-0.057845	-0.383495	-0.480657	-1.172645	0.474672	-0.364198	0.040443	0.368510	-0.425659	-0.740043	1.092752	-0.300412	-0.584107	0.626264	0.203379	-0.748387	0.702188	-0.027342	-0.659574	0.549186	-0.226313	-0.276412	0.118676	0.585684	-0.524702	0.206189	-0.410074	1.018730	-0.079719	-0.496183	0.098764	0.090794	-0.138248	-0.473105	0.530744	-0.943545
-0.487391	0.732833	-0.057441	-0.206720	0.631381	-1.004053	0.905379	-0.674621	0.499493	-0.308441	-1.405045	0.457117	-0.497119	0.684969	-1.084097	0.379728	0.080450	-0.295431	0.913510	-1.209073	0.126680	-0.097699	-0.090623	-0.060707	-0.080960	0.017860	-0.669052	0.483780	0.079925	-0.320841	0.915905	-0.827825	-1.106966	0.442026	0.022267	0.299509	0.339020	-0.224203	-0.311626	0.635369	-0.297421	-0.529512	-0.355437	-0.516519	0.127526	0.485033	-0.620071	0.285497	1.310455	0.190417	-0.200053	-0.552020	-0.436300	-0.282580	0.620634	-0.572318	-0.888103	-0.323601	0.608590	-0.122899	-0.313940	0.041941	-0.542361	0.710615
-0.728135	0.438630	-0.608496	0.514979	-0.131580	-0.172472	0.799772	-1.978420	-0.122442	-0.149152	0.309785	0.219748	-0.335556	0.020050	-0.011227	0.846830	-0.033835	0.459885	-0.483940	0.012881	-0.132778	-0.457702	-0.035025	-0.362418	-0.220934	-0.160405	0.030843	-0.246573	-0.204205	-0.451498	-0.476256	0.648740	0.076266	0.277214	-0.365592	0.994654	-0.365055	0.616441	-0.490457	-0.257607	0.217927	-0.207795	-0.119564	-0.969385	0.750016	-1.564317	1.331228	0.402662	-0.472560	0.136704	0.426293	-0.210422	-0.029051	0.717683	-0.468654	-1.546326	0.477430	-0.532664	-0.534074	0.503705	-0.046935	-0.296766	-0.232705	0.651106
0.616413	0.369059	-0.239142	-0.115816	-0.652775	0.692806	0.550743	-0.558620	-0.316080	-0.341048	-0.114590	-0.050075	0.594451	0.057687	-0.712141	0.062995	0.145820	0.350371	0.446355	-0.805280	0.643975	-0.723873	0.397453	0.074599	-0.112076	-0.439314	-0.107044	0.351738	-0.813685	1.216929	0.293763	-0.245864	-0.807699	1.355216	-0.406551	0.440487	0.573244	-0.980497	-0.418877	-0.421557	0.842436	-0.676051	-0.761274	1.179923	-0.227401	-0.360479	0.828518	-0.606480	-0.101089	-0.333605	-0.424412	-0.893388	-0.015354	-0.479620	-0.909141	1.015199	-0.036810	0.105975	0.604194	0.835305	-0.130984	-0.216026	1.288717	-0.758519
-0.340363	0.364460	-0.225733	-0.298639	0.245785	0.226852	-0.349361	-0.307901	0.557899	-0.639714	0.739764	-0.043051	-0.627013	0.897704	-0.135307	-0.556629	0.309461	-0.321267	-0.012424	-0.394196	0.567897	-0.676940	-0.173735	0.104808	-0.473972	0.179396	-0.414777	-0.261035	-0.403881	0.056784	0.104452	-0.648571	0.451938	-0.076598	-0.190531	-0.206626	0.433354	0.261287	-0.449146	1.308820	-0.407480	-0.270471	-0.270052	0.931387	-1.094694	0.554529	0.187499	-1.089108	-0.391937	0.356801	-0.012487	-0.770143	0.767343	0.151632	0.015679	0.717597	-0.399104	0.677863	-0.724048	0.458092	0.227959	-0.227494	-0.010334	-0.517064
0.320980	-0.410596	-0.431681	0.063844	-0.410420	0.297479	-0.478056	-0.574084	0.294187	-0.302877	0.293295	0.534671	-0.328016	-0.123644	0.212902	0.832248	-0.775450	0.323161	-0.668506	0.187505	-0.020490	0.157486	-0.701376	-0.906547	-0.088765	-0.312793	-0.003890	-0.151639	-0.106983	0.514359	0.198219	0.285758	0.594821	-0.590521	-0.001428	0.352401	-0.838935	-0.264123	-0.846218	-0.086795	-0.908652	0.271762	0.073410	-0.953356	0.299518	0.877225	0.109888	0.393190	0.128477	0.619478	-0.697143	0.723695	-0.390926	-1.486346	0.632933	-1.257393	0.441772	-0.505873	-0.433693	-0.090491	0.436010	1.006429	-1.803181	1.583209
-0.533739	0.379438	-0.022258	-0.985622	0.430820	0.095074	-1.084991	0.599493	0.447419	-0.420270	0.031694	1.054553	-0.937032	-0.438778	0.134389	0.413064	-0.004266	0.400279	-0.633999	0.459223	0.888409	-0.408248	-0.071040	-0.392058	-0.047927	-0.602363	0.701434	-0.455887	-0.465638	1.398214	-0.804863	0.411568	-0.007002	0.002245	-0.363948	0.296038	-0.239531	-0.828069	0.708887	0.055961	0.128384	-0.758086	0.880855	-0.392897	0.497004	-0.170806	0.443851	-0.535002	0.483880	-0.314231	0.491335	-1.086729	-0.101644	0.111689	-0.326130	0.526966	-0.740779	-0.092969	-0.129492	0.281594	-0.470486	0.401088	0.169097	-0.184994
-0.483916	0.351062	0.156044	-0.937422	0.756732	-0.355688	-0.312987	0.175193	1.170991	-0.337181	-0.054244	0.135713	0.155955	-0.372040	0.230522	0.289606	-0.940954	0.000532	-0.774819	-0.570328	-0.511191	0.490821	-0.508940	0.178070	0.588676	-0.158797	0.038459	-0.247385	0.525306	-0.289640	-0.254153	-0.229060	-0.669286	0.631469	-0.328832	-0.005932	0.445298	-0.532474	0.608499	-0.107502	0.333596	0.154037	0.305477	-0.446013	0.542003	-0.446884	-0.205708	-0.221484	-0.926811	-0.246316	-0.575282	0.169117	0.713071	-0.724511	0.572202	0.236534	0.709633	-0.870678	0.342335	0.379884	-0.417657	-0.504378	0.136226	0.104730
-1.538444	1.005567	-0.501889	0.521713	-0.373355	0.628777	-0.750790	0.466075	0.717899	-0.365604	0.321532	-0.695155	-0.044939	-0.257806	-0.086218	-0.950188	-0.600432	0.188330	-0.225049	0.350268	0.039599	-0.151013	-0.067623	0.145896	0.436165	0.016386	-0.132012	-0.069952	0.034652	0.892611	-0.193560	-0.134270	-0.684236	-0.454728	0.689744	-0.010383	-0.417094	-0.071877	-1.117271	1.200710	-0.090723	-0.517390	0.025051	-0.326912	0.295780	0.252253	-0.464403	-0.509255	0.286847	0.486219	-0.641699	-0.052637	0.291511	-0.240035	0.916361	-0.550553	-0.188012	-0.957873	1.518869	-0.266907	-0.387234	-0.270123	0.297793	-0.349504
0.699330	-0.279434	-0.093841	0.163045	-0.088398	0.447355	-0.947851	0.238101	-1.075867	-0.278820	0.663396	-0.392498	0.408668	0.297644	-0.764328	0.250273	0.219688	0.444935	-1.035072	0.372054	-0.188579	-0.481795	0.395920	-0.321895	-0.255183	-0.828093	0.683077	-1.029509	0.850267	-0.277531	-1.203210	1.021473	0.974790	-0.216907	-0.261486	-0.487401	-0.764430	0.177993	0.106281	-0.303515	0.158435	-0.659655	0.608041	0.224122	-1.359112	0.411149	0.262600	-0.502809	-0.956388	-0.287879	0.006625	-0.022162	0.577462	-0.025219	-0.179112	-0.236556	0.689785	0.198508	-0.266645	0.204413	-0.034274	-0.883357	0.410980	-0.304915
-0.043405	-0.188146	0.179384	-1.258608	1.803244	-1.097604	-0.507449	1.069276	-0.139280	-0.467757	0.727487	0.501315	-0.563575	-0.160445	0.519306	-1.612338	0.603828	0.531233	-1.737098	0.375339	-0.671697	0.339062	0.219266	0.511013	-0.778013	0.693729	0.318773	-0.015536	0.931433	-0.253137	-0.523894	0.217067	-0.710480	0.081955	0.321787	-0.356536	0.080853	-0.649824	0.299931	0.096879	0.243795	-0.113034	-1.073760	0.712960	-0.207193	-0.163528	-0.559129	0.544542	0.243135	-0.112318	0.516561	-0.431021	0.273494	-0.129941	0.407271	-1.333135	-0.242114	-0.286252	-0.407083	0.299759	0.050822	-0.433886	-0.259551	0.655765
0.719062	-0.390179	-0.805679	-0.261285	-0.044230	-0.022535	-0.314974	0.508304	-0.994795	0.424091	1.112834	-0.199386	0.157207	0.170534	0.163361	-1.139199	0.570626	0.026397	-0.418602	-0.133419	-0.050509	-0.994967	-0.869709	0.513513	-0.282373	-0.308406	-0.603267	-0.266720	-0.154434	0.793736	1.104746	-0.268072	-0.307736	0.416755	1.228841	-0.695720	-0.085822	-0.125072	-0.088705	0.560845	0.065859	0.130376	-1.040247	0.102551	0.857337	0.430593	-0.387990	-0.806383	0.391569	-0.136356	0.994445	-0.230273	-0.643895	-0.902304	0.417678	0.330859	-0.532738	0.210236	-0.440261	-0.434012	-0.147198	-0.390373	-0.190008	-0.150317
0.889816	-0.595447	-0.102543	0.301761	0.534145	-1.463445	0.151182	-0.496438	-1.346842	0.180684	-1.246885	0.012319	0.249493	0.518386	-0.736582	0.501833	0.606613	0.113068	0.304390	0.049393	-1.638914	0.367890	0.771594	-0.360239	-0.421322	0.618182	0.635251	-0.533573	-0.489304	0.658568	-0.248756	-0.566790	0.188944	-0.637630	-0.632350	0.527715	0.344418	-0.372900	0.286558	0.562970	-0.346197	-0.060008	-0.709545	-0.758743	-0.067711	-0.001475	0.388479	-0.226807	-0.280239	0.647576	0.764878	-0.098983	0.735499	-1.287846	1.269594	-0.002732	-0.480962	-0.158705	0.146392	-0.667096	0.616906	0.606482	-0.037324	-1.454726
-0.273933	0.782356	-0.250658	0.026126	-0.182420	0.164763	0.247020	-0.047973	0.225914	-0.481129	0.227036	-1.272300	0.301365	-0.766479	0.246717	-0.079474	-0.686327	-0.417802	0.005287	-0.025396	-0.227321	0.894535	-0.582769	-0.424530	-0.048380	0.951769	-1.216026	0.722400	0.301264	-0.848695	-0.018132	-0.130399	-0.587040	-0.816535	-0.392391	-0.548626	-0.329598	0.020703	-0.460948	0.411540	1.131503	-0.009056	0.282658	0.822487	-0.032626	0.086211	0.308025	-0.608169	-0.235468	-0.980830	0.975056	-1.227192	-1.077798	0.642164	-0.419739	-0.334752	-0.187655	-0.183285	-0.153020	0.247207	0.586246	-0.345825	-0.629975	1.350626
-0.724791	0.992476	-0.106150	-0.059166	-0.057225	0.814159	-0.536816	0.272453	-0.285011	0.064105	0.169216	0.584332	-0.158077	0.021747	-0.175029	0.155832	0.562574	-0.457196	-0.418764	-0.539408	0.663729	0.017137	0.111641	-0.614442	-0.704170	0.359839	-0.156064	0.301054	-1.264129	-0.167983	0.269684	-0.365127	0.874141	0.254307	0.002343	-0.297339	0.055722	-0.332130	0.021345	-0.531781	-0.513580	0.327969	-0.224212	1.099672	-0.839572	1.378011	-1.189450	0.860387	0.678335	-1.153808	-0.224276	-0.922501	0.522485	-1.377142	1.118058	-1.044061	-0.454369	0.465402	0.061467	-0.045326	-0.434778	0.536752	-0.101258	0.989117
0.240152	0.589926	-1.167932	0.472490	0.406968	-0.589059	0.254206	0.070570	-0.156513	-0.442937	0.323577	-0.696594	0.071448	-0.004026	0.023671	-0.346699	-0.473501	0.636727	0.090268	0.997090	-0.122760	-1.044371	0.244857	0.197678	-0.057832	-0.428336	0.039406	-0.776807	0.568785	0.440150	-0.454512	0.308277	0.439781	0.441719	-0.089212	0.204708	-0.565714	0.730733	-0.205322	-0.628842	-1.112969	0.313355	0.084906	-0.203295	-0.328633	0.544788	-0.479665	0.500886	0.832311	-0.742035	0.672638	-0.355464	0.178223	-0.420045	0.096044	-0.111259	-0.366975	-0.031063	-0.637672	0.157950	0.181890	-0.314107	1.327277	-0.695069
-0.385473	0.438349	0.297680	-0.545850	0.555749	-0.485662	-0.447566	0.648120	0.154813	0.489859	-0.657749	0.511755	-0.096600	0.671035	-0.052756	-0.255228	0.203869	-0.983936	0.481612	-0.657120	0.046793	-0.396979	-0.122783	-0.455323	-0.966640	0.673578	-0.157870	-0.801742	-0.290040	0.248781	-0.014686	1.038955	1.369605	-0.861723	-0.011848	0.347422	-0.219018	0.515706	-0.603031	0.237425	-0.419645	0.159724	-0.547616	0.282569	0.698294	-1.259033	1.118717	-0.699820	-0.629063	0.009738	0.426575	0.311577	-1.025453	0.259575	-0.738110	0.516665	0.680289	-0.696611	0.291263	-1.032692	0.993090	0.217432	-0.166528	0.456682
0.934277	-0.515425	-0.489337	-0.040173	-0.435461	0.301774	-0.172952	0.336019	-1.536817	1.179046	-0.102771	-0.264692	0.836097	-1.039069	1.277763	-0.686005	0.420776	-0.616324	0.004245	-0.514932	-0.825590	1.246698	-0.148157	-0.630769	-0.032770	0.058472	0.356182	-0.418745	-0.022277	-0.123645	-0.651386	1.510306	0.162642	0.389579	-0.613483	0.953659	-1.139503	-0.410126	-0.146205	-1.361252	-0.246124	-0.999322	0.142864	-0.628609	0.683144	-0.212990	0.176835	-0.116959	-0.384796	0.449115	-0.303746	-0.658923	-0.190017	-0.028702	0.262731	0.381060	-0.054956	-0.484306	0.298498	-0.028627	0.099500	-0.346834	-0.035213	-0.315762
0.042999	0.081335	-0.268253	0.118626	0.059439	0.111352	0.659664	-0.305999	-0.596492	-0.103641	-0.526267	0.163608	-0.375662	0.096732	-0.484519	-0.076226	-0.104144	-0.302958	0.464296	0.611756	0.380681	-0.580242	0.512353	0.107626	0.693931	0.141335	0.264430	-0.665035	-0.546923	0.500621	-0.820642	0.386986	-1.225585	0.019273	-0.324290	0.136816	0.143021	-0.035022	0.149924	-0.586201	1.364984	-0.653847	0.491275	-0.180442	-0.483389	0.113275	0.027181	0.204074	-0.918167	1.294217	-0.910115	0.046850	0.085770	-0.398729	-0.444788	0.078859	0.116105	-1.197955	1.724762	-1.469035	0.504084	-0.026750	-0.059661	0.104678
-0.005009	0.180186	0.382701	-0.903726	-0.190880	0.027606	0.749628	-0.620313	0.156410	-0.113239	0.148790	-0.018881	0.796724	-0.370039	-0.155432	-0.216347	-0.459444	-0.086757	0.130013	0.698211	-0.832171	-0.337681	0.125415	-0.398921	-0.506430	1.095161	-0.314315	-0.712521	0.358844	0.417966	-0.462587	0.231280	1.370595	-0.854796	-0.082435	0.189234	0.836320	-1.226683	0.959012	0.125939	0.169289	-0.938338	1.266638	-0.407053	-0.403405	0.583463	-0.463572	-0.189061	-0.197086	-0.083689	-0.295007	-0.089003	-0.641526	-0.175362	0.577910	-0.026585	-0.035040	0.085170	-0.079474	-0.167533	0.588031	-0.705256	-0.369212	-0.110499
0.141243	0.282060	-0.438029	0.841653	-0.705951	0.183890	-0.262346	-0.277506	-0.109636	-0.316380	0.274881	-0.742634	0.347624	-1.118729	-0.075325	1.231253	0.299560	0.272874	-1.102693	0.781959	-0.088421	0.411482	0.256134	-1.105391	0.078508	-0.161255	-0.137423	0.155748	-0.639287	-0.171181	-0.570488	0.708139	-0.399950	-0.883450	1.208825	-0.751617	1.342670	-0.134469	-0.288590	-0.383616	-0.249156	1.432983	-1.103964	0.236157	-0.611958	-0.214422	0.795202	0.003518	0.044613	-0.437064	-0.482612	0.384308	0.054413	-0.218036	0.103022	0.336994	-0.591905	0.696554	0.759782	-0.566986	-0.205774	0.402139	-0.001005	-0.782376
-0.215976	-0.221712	0.653896	-0.096237	0.388480	-0.264580	0.038512	-0.337317	-0.231368	0.365347	-0.829058	0.540957	-0.693264	-0.192283	-0.592965	-0.087403	-0.390086	-0.428802	0.107157	0.364612	0.499738	-0.533184	0.100243	0.444797	1.262314	-0.373051	-0.002977	-0.544219	0.016638	-0.291699	-0.284867	-0.374304	-0.572400	0.248338	0.051180	-0.150277	-0.167125	0.208922	-0.368234	0.936883	0.342897	-0.469881	-0.077392	-0.334777	0.587005	-1.000701	0.208460	-0.820090	-0.425420	0.661256	-0.220950	-0.341337	-0.918136	0.331006	0.053522	0.526493	0.040543	0.064487	-0.978605	0.628754	0.299789	-0.226335	-0.498836	-0.156030
0.035251	-0.509663	0.089603	-0.020206	0.231847	-0.694753	-0.026521	0.674960	-0.032769	0.455941	-0.391518	0.319593	-0.039532	0.197999	-0.143390	-0.716529	0.689682	-0.550873	0.069944	-0.123048	-0.158743	-0.234334	-0.419566	0.670377	-0.658656	-0.942186	0.968245	-0.043828	-0.348049	-0.180584	0.474691	-0.358964	1.218682	-0.019837	-0.388903	0.152724	0.473668	0.529272	-0.453475	-0.132080	-0.453943	-0.795866	0.354060	-0.002506	-0.945636	-0.278336	-0.039981	0.612626	-0.095705	1.355679	-0.789683	0.385007	-0.315182	0.441860	-0.067154	-0.247164	-0.263993	-0.566827	0.210819	0.692079	-0.206741	-0.229163	0.110589	-0.175023
0.432125	-0.549302	-0.486749	0.883397	-0.493391	-0.476141	-0.150441	0.549849	-0.955877	0.491547	0.279305	-0.207691	0.139192	0.783293	-0.764347	-0.363792	0.386696	-0.106893	-0.158559	-0.448494	-0.236669	-0.743144	0.865414	0.019663	0.379771	0.465313	0.091337	0.156433	-0.679298	0.550063	0.296282	-1.298197	-0.627538	-0.853543	0.009083	-0.088693	0.309356	0.104273	-0.020994	0.337090	-0.494374	1.041729	-0.177885	0.258650	0.053264	-0.637860	-0.062919	-0.279975	0.993226	-0.569183	-0.976766	0.605361	-0.184050	0.662318	0.602028	-0.566388	0.225529	-1.342791	0.926648	-0.887319	-0.286586	-0.644645	-0.249135	0.498454
-0.178319	0.655075	-0.001683	0.367540	-0.885764	1.196091	-0.423225	-0.273842	0.015089	-0.743981	-0.434338	0.582034	0.557013	-0.582006	-0.234511	-0.487058	0.446992	-0.004596	-0.267310	-0.889263	-0.304143	0.010066	0.835568	0.129769	-0.473382	-0.068036	0.124335	0.304048	-0.053683	-0.132743	0.179913	-1.255489	0.779480	-0.171227	-0.621864	-0.184992	0.084101	-0.519580	0.509652	-0.849412	-0.240356	-0.543200	0.022192	0.477872	-0.295987	0.896205	-0.893715	1.489524	0.056064	-0.243156	-0.117738	-0.569808	0.600942	-0.114706	-0.931034	-0.202612	0.599308	-0.189427	0.083529	-0.524790	0.147412	0.466189	0.783118	-1.559101
-0.311441	0.173208	-0.073408	0.014042	-0.207934	-0.288741	-0.062975	0.997860	-0.417224	0.063207	-0.482798	0.988774	0.207922	0.414309	0.112029	-0.603865	1.105406	-0.676888	0.603570	-0.502792	-0.129287	-0.054851	-0.067495	-0.154020	-0.591374	-0.043778	-0.045021	0.665389	0.286962	-0.653929	-0.165985	0.222010	-0.486700	0.334011	0.178705	-0.734585	0.426509	-0.302041	0.532373	0.192900	-0.194225	-0.014557	-0.363917	-0.005436	-0.732634	-0.196625	0.109381	-0.097464	0.231392	-0.188626	0.820667	-0.972909	0.692257	0.306069	-0.692181	0.482844	0.038371	-0.718923	0.236743	0.103202	0.062936	-0.243951	1.279046	-1.610674
-0.697887	-0.129537	-0.817692	0.341087	0.010563	0.208955	0.055397	0.157351	-0.156200	0.528545	-0.240671	-0.243027	0.406818	0.382086	-1.491451	0.276774	0.280416	-0.170423	0.573165	-0.267986	-0.786940	-1.007680	1.651736	-0.929629	-0.226837	0.509144	-0.548250	0.313318	0.234581	0.990751	-2.091283	0.907582	0.111301	-0.243760	0.064133	-0.231471	0.296950	-0.411943	0.694371	-0.406171	-0.272887	0.130185	0.391519	0.186610	-0.054556	-0.801690	-0.170722	0.428657	0.054532	0.633182	0.140086	-0.824415	-0.029681	0.353334	0.052249	0.065044	-0.027441	-0.263071	-0.122041	0.646086	-0.727091	0.310318	-0.424532	0.033614
-0.860600	0.710274	-0.309604	0.710770	-0.500032	0.372799	-0.306932	-0.475604	-0.237100	0.072036	-0.934802	-0.092760	-0.034351	0.171085	0.118657	-0.330524	-0.614088	1.282500	-0.016984	0.321404	-1.038625	1.120862	-0.143107	-0.175597	0.013370	-0.772926	0.709313	-0.889157	0.327073	-0.774047	-0.558216	0.587606	0.454565	-0.539105	0.034576	-0.093832	0.243184	0.497918	0.338868	-0.467785	-0.633826	0.755969	-0.577016	0.960819	0.053178	-2.116031	0.326191	-0.145768	0.684403	-0.762794	0.255066	-0.768945	0.469943	0.057569	-0.208892	-0.145624	-0.730083	-0.079855	-0.095953	0.124664	-0.010542	0.065205	-0.505012	0.161461
0.602772	-0.927640	0.910593	-0.841796	0.187362	0.642250	-0.219271	-0.509396	-0.483959	-0.138070	-0.739664	0.037872	-0.020346	-0.658814	0.507932	-0.092238	0.578060	-0.965063	0.689764	0.331361	-0.209341	0.350687	-0.073180	-0.060864	-0.534864	0.177895	-0.361721	-0.186374	0.837883	-0.367257	0.029083	-0.067346	0.491139	-0.147235	-0.213986	0.041070	-0.071326	-0.153554	0.034316	-0.116970	-0.126515	0.504704	-0.259712	-0.082825	-1.308084	1.241962	0.063562	-0.601306	0.035354	-0.388304	-0.003534	-0.010578	0.293774	-0.634814	-0.112429	0.243675	-0.177336	0.067626	-0.186526	0.040784	-0.067251	0.559543	-0.937636	1.247924
-0.498596	0.380353	0.068594	-0.052726	-0.624569	-0.217822	-0.144856	1.027573	-0.747924	0.712362	-0.620529	-0.340519	0.388443	0.014872	-0.378276	-0.811076	0.042703	-0.912608	0.536550	-0.145279	0.468054	0.064241	-0.679321	0.292450	0.064945	0.943450	-0.058786	-0.438202	-0.624070	0.201301	-0.266411	1.132581	-0.267583	-0.318999	-0.687755	0.481716	0.064875	0.407946	0.116562	-0.835614	-1.251499	0.007846	-0.743402	0.382912	-1.131642	0.043137	-0.157082	-0.239567	1.776225	-0.444024	0.124534	0.040358	-0.474166	0.306958	0.302851	0.106434	-1.399489	0.240766	0.361070	-0.571634	0.290298	0.676727	-1.188804	-0.177899
-1.017586	0.542672	-0.054771	-0.440267	0.100406	0.134059	-1.005512	-0.155003	0.222571	-0.146845	-0.656797	0.296880	-0.137000	0.221464	0.293302	0.543758	0.587330	-0.971209	0.829332	0.793801	-0.795712	0.319416	-0.819747	0.917616	-0.605639	0.579411	-0.643462	0.677486	-0.697566	0.042927	0.660987	-0.551739	0.145478	-0.996385	0.744786	-0.646090	-0.217526	0.468340	0.049249	-0.745131	0.389599	0.056001	0.179389	-0.157843	0.326729	-0.797327	-0.305167	0.167145	-0.466157	-0.180092	0.114215	0.375473	0.044758	-1.016830	0.866184	0.005042	0.051587	-0.031682	0.269432	0.050921	-0.408758	0.725195	0.208138	-0.371201
-0.182355	-0.536975	0.358978	0.438689	0.026802	0.809006	-0.486331	-0.576757	0.093908	-0.062859	-0.572745	-0.163330	-0.107906	-0.644932	0.420435	1.069059	0.558896	-0.856881	1.432650	-0.830447	0.356200	-0.724073	-0.000200	-0.904905	-0.053246	0.450894	0.007904	-0.450756	0.538097	-0.456890	0.875518	-0.170359	-0.428330	0.437635	-0.572774	0.067312	-0.733345	0.570339	-0.390626	0.023947	-0.425797	-0.236983	0.437625	0.068372	0.255574	-0.147519	-0.243217	0.619245	0.637802	0.122359	-0.319925	-0.045160	0.171524	0.284756	-0.211899	-0.655021	-0.759373	0.202767	-0.097452	-0.382711	-0.301795	-0.157673	0.593191	-0.967547
