1.137601	-0.468162	0.067349	0.349397	-1.121031	-0.223608	-0.809027	0.196037	-0.838097	-0.552898	0.102316	-1.260038	0.765446	-0.124295	0.851876	0.047504	0.134093	0.196689	0.092209	1.208886	-0.737471	-0.610323	-0.142725	-0.206878	0.524924	-0.904781	-1.576209	0.503609	-0.577460	-0.240930	0.785943	-0.525648	-0.143532	0.462665	1.047870	-1.094181	0.745892	-0.002598	-0.172819	-0.188812	0.076190	0.274620	-0.274735	-0.534060	0.374638	-0.247722	0.003568	0.145817	-0.609508	-0.184764	-0.218657	0.501187	-0.473409	-0.812251	0.563312	-0.381174	0.142742	0.454481	-0.222824	-0.677676	1.095640	-0.004077	0.344403	0.423561
-0.117983	0.069808	-0.480973	-0.218468	0.246668	-0.374970	0.281274	0.279541	0.808030	-0.584728	0.309466	-0.537827	-0.314047	-0.563885	0.419358	-0.263318	-0.782347	0.568954	-0.434144	0.702959	-0.954477	0.618040	-0.464223	-0.107305	0.071373	-0.126538	-0.193918	-0.873777	1.179057	-1.297011	0.009373	-0.025555	0.652531	-0.250390	-0.228402	-0.124175	-0.328111	0.111804	0.337310	-0.048076	0.628341	-1.693325	0.163327	-0.294489	-0.257616	0.374460	0.056250	-0.479771	0.147291	0.490933	-0.492735	0.228946	-1.168240	0.101897	0.170406	-0.210982	-0.630107	-0.207366	1.066440	-0.477339	0.177183	-0.142792	-0.256663	0.059910
0.476316	-0.146925	-0.340074	0.134626	0.295494	-0.476057	-0.148640	0.398833	-1.019835	0.036178	-1.072052	0.855568	-0.999219	0.341235	0.225059	-1.427278	0.165339	0.609861	0.178665	-0.222439	0.356904	0.978304	-0.989657	1.318182	-0.640952	-0.533554	0.509661	-0.537178	1.043064	-0.936600	-0.298765	-0.984955	0.265394	-0.796975	-0.108963	-0.511504	-0.318440	0.872801	-0.275879	-0.324178	-0.487374	0.728875	-0.298325	-0.029467	0.470503	-0.126419	-0.523077	0.775822	-0.478261	-0.000898	0.035714	0.555385	-0.637530	-0.232780	0.971276	-1.298829	1.150255	-0.502726	-0.560466	0.122739	0.569952	-0.316457	-0.605837	0.051523
0.614756	0.231206	0.237374	-0.035760	-0.684095	0.408519	-0.137106	-1.215927	-0.843255	-0.128719	-0.741462	-0.076667	0.388239	-0.197865	-0.427900	1.253382	0.368186	0.720215	-0.325469	0.705354	-0.247001	0.387806	0.053476	-0.357108	0.049148	-1.108558	0.770432	-0.643592	-0.081625	0.109123	-0.328398	0.708562	-0.306034	0.420215	-0.453902	0.289305	0.207144	-0.986336	0.168237	0.047188	0.432004	-0.121769	-1.286469	-0.009862	0.176692	-0.294332	-0.933980	0.284882	-0.610943	-0.181245	1.552726	-0.419886	-0.515453	-0.155013	1.731177	-0.163799	1.065314	0.114308	-0.235925	-0.910601	-0.012537	0.106566	-0.680462	-0.701436
0.212928	0.018871	-0.637733	-0.249432	-0.532755	-0.062793	0.683839	-0.499320	0.379040	-0.293129	0.119996	0.536873	0.047472	0.136686	0.418876	-0.520869	0.484633	-0.460475	-0.993794	0.358400	-0.832751	0.525665	-0.730775	0.393710	-0.597970	0.427274	0.303874	-0.853873	0.228489	-0.444340	-0.054048	0.064490	-0.785676	0.112534	-1.375736	1.564176	0.011437	0.015255	0.364495	-0.370420	0.643345	0.247587	-0.462044	0.115705	-0.628118	0.396974	0.003181	-0.389546	0.013892	-0.812027	0.054360	-0.059847	0.496696	-0.264322	0.363565	-0.145455	-0.338357	0.552427	-0.102438	-0.032396	-0.432237	0.148267	-1.002410	0.804672
-0.999113	0.891536	-0.545098	1.814676	-0.205335	-0.044672	-0.550275	-0.279674	0.251022	0.272413	-0.254988	-0.392747	-0.354252	0.205077	0.716979	-0.334232	0.437990	-0.670420	-0.893515	-0.267780	-0.516236	-0.555612	0.087385	0.207859	-0.211680	0.046852	0.802337	0.060476	0.578890	-0.424754	-0.281033	0.071190	0.293897	0.894159	-0.822224	-0.927725	0.486623	-0.097123	0.530751	-0.263259	-0.123133	-0.591213	-0.131909	0.433895	-0.775535	0.528476	-0.901959	0.805438	-0.310355	0.389573	-0.272312	0.445710	-0.361861	0.337700	-0.464918	-0.294145	-0.134571	-0.359345	0.152301	-0.095369	0.345482	0.352782	-0.207755	-1.181197
-0.453762	-0.887255	0.348590	0.677301	-0.429473	1.316773	-0.916681	-0.535142	0.959518	-0.567721	0.396538	-0.400076	-0.125864	0.394296	-0.151469	0.937548	-0.939163	0.121086	0.392715	-0.936365	-0.409008	-1.037960	0.196003	0.621251	0.442659	0.230739	-0.364853	-0.132817	0.115607	-0.704426	-0.408260	-0.245490	-0.014302	-0.758329	-0.162818	0.164957	-0.805403	1.114573	-0.105228	-0.193104	-0.209056	0.140722	-0.056802	0.109434	-0.924046	1.531920	-0.201080	0.047085	-0.542185	-0.621851	1.106552	0.364806	-0.197280	-0.372046	-0.015726	0.862358	-0.491270	0.982846	-1.294213	-0.130948	-0.494439	-0.278158	0.384296	-0.657467
-0.365137	0.258459	0.212686	-0.317554	0.120353	-0.560516	0.535502	-0.419061	0.457291	-0.574855	-0.533673	0.636408	0.137253	0.110076	-0.562477	1.178727	-0.592101	0.140846	-0.147250	0.261144	-0.344962	0.250062	0.738799	-1.351331	-0.184127	0.989469	0.156401	-1.005559	0.385072	-0.793283	0.390997	0.361994	-0.066170	-0.064978	0.182074	-0.150287	-0.825947	0.337279	-0.666281	-0.054765	0.086488	-0.682178	-0.384941	1.020558	-0.377435	0.168366	0.278338	-0.271130	0.017134	-0.166216	0.339823	-0.244362	-0.343778	0.751906	-0.219128	0.194668	0.610587	0.478301	-1.443101	-0.183861	-0.129695	-0.039679	0.200869	-0.342399
-1.274806	1.333594	-1.088716	-0.112107	-0.266435	-0.177480	0.583755	-0.889756	0.484437	0.624441	-0.149141	-0.569506	1.123529	-1.199690	0.084459	-0.005106	0.315057	-1.188781	0.183764	0.679072	-0.670123	0.392378	0.011073	0.708597	-0.115742	0.483405	-0.653357	-0.356220	0.253300	-0.561405	-0.529094	-0.852878	-0.071341	-0.199780	1.092636	-0.952663	0.623673	0.423916	-0.037193	0.059011	0.038430	0.023456	-0.817117	-0.150333	-0.243358	-0.658833	0.091922	-0.049311	-0.614938	0.275314	0.260686	0.103977	0.274953	0.137723	0.153064	-0.194183	0.186322	0.543969	-0.824181	0.118057	0.097186	0.483942	-0.306725	0.204236
-0.358468	-0.228073	0.393301	-0.341485	0.166288	0.093767	-0.004969	-0.421454	0.391905	1.078446	-0.167394	-0.443664	-0.371457	-0.165889	0.109681	0.271731	0.413484	-0.503955	0.796366	-1.016930	0.714910	-0.121036	-0.224988	0.169426	-0.804526	0.288072	-0.420712	0.841401	0.030179	0.594620	-0.706673	0.040477	-0.033594	0.585149	0.379346	-0.771769	0.234427	-0.311344	0.112983	0.023434	-0.407350	-0.119172	0.144182	-0.321913	-0.042201	0.885745	-0.589074	-0.254250	0.137958	-0.030256	0.420722	0.539157	-1.139325	-0.311777	-1.248711	1.144832	0.289593	-0.662294	0.268601	-1.347039	0.865041	-0.410279	0.892452	-1.183749
-0.590259	1.001796	0.028239	-0.743581	-0.130220	0.328332	-0.533938	0.140290	-0.291365	-0.578623	0.045575	-0.592095	0.535490	-0.625415	0.951714	-0.959909	0.930893	-0.097772	0.240296	-0.115582	0.101561	0.410384	-0.864066	1.013972	0.372435	-1.176786	0.279863	-0.278974	-0.332115	-0.016885	0.048486	-0.325145	-1.081857	1.272096	-0.833750	0.398831	-0.766835	0.395552	-0.536644	-0.211651	0.384127	-0.887341	0.495678	0.407043	-0.204738	-0.232854	0.287322	0.113965	0.501992	-0.038369	-0.350787	0.167146	-0.571676	-0.772566	0.222790	0.576887	-0.019349	0.612136	-0.758163	-1.011426	0.428990	0.407109	-1.126152	-0.105343
-0.019400	-0.675733	-0.149395	0.678077	-0.123291	-0.636759	0.936487	-0.486766	1.286030	-1.381157	0.131727	-0.621573	-0.004342	-0.145669	-0.317399	-0.664656	-0.573539	0.391500	0.292534	-0.066978	-0.024521	0.347706	-0.429177	-0.172099	-0.241443	-0.408421	0.576608	-0.678363	0.499870	-0.621931	-0.173857	1.260619	-0.215147	-0.079347	0.059706	0.032989	-0.315242	0.630500	-0.389159	0.523524	-0.266570	0.137671	-0.225201	-0.036979	0.138328	-1.492582	1.420668	-0.444646	-0.238853	0.782142	-0.225632	0.129736	-0.684417	0.762737	-0.651602	-0.247438	0.318000	-0.658047	-0.031105	-0.403447	0.620305	-0.176390	0.068377	0.033737
0.773532	-0.634673	0.246331	-1.116928	0.781735	0.134934	-0.338690	0.315645	-0.894615	-0.114749	0.256503	0.282011	-0.692827	-0.549866	-0.454865	0.477912	-0.360595	0.553357	0.686658	-0.208603	1.100921	-0.407851	1.309993	-1.434754	0.556478	-0.675447	0.094641	-0.159472	-0.682232	-0.801487	0.400682	0.012726	0.476675	-0.562520	-0.073513	-0.027708	0.924298	-0.104164	-0.520324	0.864707	-0.095838	0.107284	0.527329	-0.195344	-0.278381	-0.048758	-0.559267	-0.085089	-0.136669	-0.340568	-0.163943	0.076442	0.029379	0.473569	-0.016301	-0.062604	0.340243	-0.259684	0.690403	-0.827839	0.194212	-0.763163	1.087138	-1.167817
0.108258	0.050695	0.568267	0.125270	0.392889	-0.301027	1.170910	-0.426631	0.062934	0.067476	-0.948060	-0.023740	-0.111502	0.825779	-0.560652	0.493054	-0.237062	-0.208167	1.157464	-0.980626	0.061101	-0.062696	0.249456	-1.133813	-1.093222	-0.710923	0.141263	0.656111	0.083665	0.143505	-0.333633	0.838166	1.111172	-0.495033	0.561762	-1.033586	-0.762884	-0.158457	0.058517	-0.502428	-0.631746	0.539497	-0.535351	0.119447	-0.022631	-0.505462	-0.368834	0.686241	-0.388147	-0.617719	0.115522	-0.575744	0.277513	-0.298908	0.506581	-0.538130	-0.021181	0.726502	0.446000	0.182279	-0.059248	0.784668	-1.000550	0.680465
-0.457473	0.723313	-0.075565	-1.362024	0.352742	0.545395	-0.516730	0.052787	0.664295	0.288624	-0.427368	0.546198	-0.458468	-0.167062	0.410769	0.317905	-0.627572	-0.841636	0.097864	-0.983892	0.308940	-0.460450	-0.036586	-0.342567	-0.249641	0.428851	0.527067	-0.117494	-0.348104	0.493240	-0.657976	0.621720	0.833540	-0.154260	-0.983596	0.465236	0.095823	0.468917	-0.607948	-0.776733	-1.219047	-0.094276	1.481350	0.327438	-0.485723	-0.378801	0.922261	0.135065	1.345993	-0.079845	-1.176650	-0.399149	0.893310	0.195358	-1.333915	-0.323990	-0.475629	-0.016040	0.144827	0.667809	-0.723525	-0.258034	0.562276	-0.298539
-0.117060	-0.068960	0.095975	-0.763610	-0.031787	-0.433061	0.816102	-0.523622	-0.136158	-0.589888	0.692487	0.549369	-0.695763	-0.350447	0.177289	0.079520	0.886805	-0.193368	-0.733492	-0.383837	0.311849	-0.170932	0.233481	-0.171630	-1.162656	-0.308469	0.446762	-0.399020	0.015774	0.315263	-0.219036	0.496460	1.433511	0.141310	0.392273	0.347334	-0.843095	-0.202645	-0.276745	-0.668061	-0.702679	0.535619	-0.402964	-0.332092	0.380886	0.728070	-0.661952	0.201957	0.223131	-0.528736	-0.983793	0.672495	-0.602302	-0.010046	0.313779	-0.058974	-0.208808	0.404549	0.559571	-0.501594	0.282251	-0.499765	0.984220	-0.579296
0.288649	-0.835440	-0.593846	1.437053	-0.668824	-0.794801	-0.093680	0.565399	0.271207	-0.142145	-0.073987	-0.451202	-0.018006	0.143741	0.573738	-0.939639	-0.272613	0.068227	0.105730	-0.657450	0.011938	-0.213210	-0.455502	0.728503	-0.033792	-0.444517	-0.038013	0.081361	-0.581369	1.077221	-0.661973	0.077629	-0.122435	0.609729	-0.056755	-0.662365	1.227884	-1.086266	0.848755	-0.112528	0.199232	-0.366761	0.440236	-0.139159	-0.118660	0.267736	-0.716544	-0.635625	-0.394771	-0.811241	0.031491	0.369710	-0.401844	0.608011	-0.486412	-0.397579	-0.173001	0.734793	-0.842711	-0.119136	0.011531	-0.660358	-0.488301	1.305396
-0.880472	0.121607	0.079269	-0.723633	-0.845273	0.421397	-0.138564	-0.860102	0.674099	-0.445996	-0.052794	-0.024971	0.838053	-0.305487	0.198935	1.228256	-0.024180	0.630596	0.110764	-0.225653	0.341890	-1.055285	-0.094188	-1.042458	-0.305591	-0.744675	-0.502694	-0.167543	0.421831	0.717076	0.207241	0.363762	-0.939701	1.384585	-0.142509	-0.406871	-0.583376	-0.357335	0.444303	-0.269908	0.207353	-0.357683	-0.618829	0.573837	0.326312	-0.165428	-0.098870	-0.225145	-0.011104	0.506427	0.258287	-0.839379	0.635203	-0.430528	-0.898466	0.536524	-0.794750	-0.534848	1.155678	-0.397535	-0.245236	-0.143257	0.947195	-0.590382
-0.457439	-0.089747	-0.089259	0.655165	-0.362230	-0.444301	0.351027	0.082775	0.655139	-0.141985	0.182730	-1.507308	0.716943	0.034623	-0.125655	0.216786	-0.786653	-0.240386	-0.481790	0.560695	-0.286719	0.053017	0.162177	-0.840612	0.342517	-0.028158	0.288975	-0.375395	0.253312	-0.806524	0.699746	-0.043098	-0.651677	0.952425	-0.598846	0.844641	-0.792735	0.471764	-0.373768	-1.113725	0.054816	0.158823	0.538258	-1.144761	0.724758	-1.267109	0.267460	0.904432	0.006555	-1.243848	-0.004614	0.396734	-0.253210	0.800491	-0.539139	-0.604857	-0.043188	0.438762	-0.221941	-0.812547	0.020278	0.361271	-0.389217	0.376018
-0.711851	-0.352207	1.262345	-0.188287	-0.473310	0.398175	-0.438747	0.129359	0.049696	0.607647	-0.684873	-0.591254	-0.026408	-0.277050	0.343428	-0.227510	0.134516	-0.433466	-0.062610	0.275609	0.098365	-0.212148	0.080547	-0.392695	0.250929	-1.056785	0.796098	-0.015945	-1.200858	-0.429068	0.574936	0.672691	-0.392972	0.588977	-0.135573	-0.375982	1.182249	0.820859	-0.881004	-0.551202	0.370635	-0.208737	-0.184107	0.017861	0.123856	-0.914587	0.015889	-0.108167	0.508362	-0.267813	0.827785	-0.436342	-0.449652	-0.010841	0.592429	0.635998	-0.042696	-0.122917	-1.464391	1.279684	-0.353716	-0.279880	-0.887877	-0.070276
-0.533774	-0.276351	0.625389	-1.378616	0.125179	1.080545	-0.213149	0.331585	0.515748	-0.273009	0.153125	0.287841	0.374958	0.130588	-0.650667	-1.099415	0.178908	0.450122	-0.807251	-0.335017	0.081287	-0.175121	0.921702	-0.120326	-0.263516	0.359617	-0.128223	-0.311779	0.085830	-0.981539	0.235284	0.476543	-0.926269	-0.288755	0.405044	-0.506417	-0.889841	0.369807	-0.690824	0.322040	0.566618	0.807713	-1.197209	-0.200275	0.803027	0.321616	0.086643	-0.063741	0.185686	-0.830658	0.848927	0.601504	-0.733401	-0.090423	-0.250283	-0.833857	-0.022549	0.362689	-0.893668	1.093674	-0.967918	0.014867	0.001403	0.394007
-0.028066	0.054119	-1.370850	0.560653	0.605975	-0.094871	-0.283312	-0.401909	0.575552	-0.274970	0.126746	0.310402	-0.478367	-1.112879	0.059687	0.581308	-0.315149	-0.020375	-0.067436	-0.146390	0.279008	-0.005068	-0.105393	0.096583	-0.046838	0.202935	0.010184	0.128138	-0.479341	0.235575	-0.121555	0.715035	0.231390	-0.785324	-0.176564	0.097058	0.368603	-0.067650	-0.412266	-0.954153	0.540588	0.118689	-0.356526	0.403972	-0.217689	-0.207643	-0.318945	1.663995	-0.060627	0.405572	-0.135857	-0.303422	-0.507333	0.354314	0.710768	-1.677957	-0.642720	0.284174	-0.220281	0.686490	-0.599627	-0.167851	-0.427974	1.147259
-0.643330	-0.194096	0.903911	-0.907430	0.505134	0.075654	-0.409490	-0.286524	-0.123398	-0.059717	-0.930898	0.987705	-0.216541	-1.033946	0.872230	-0.460861	-0.066053	0.365890	-0.194235	-0.003571	-0.256892	0.170120	-0.582777	0.055455	-0.111136	-0.225734	0.209954	-0.419450	-0.522749	0.520309	0.619969	-0.319885	-0.248485	-0.527315	0.281800	0.752213	-0.141049	-0.421916	-0.344677	0.538805	0.070689	0.328463	-0.911989	-0.464302	0.196964	-0.882306	-0.347035	0.515048	-0.574667	0.117416	0.454734	-0.606396	0.138398	0.708919	-0.127217	-0.971638	1.194712	-1.122473	0.964414	-0.011157	-0.464478	0.114325	-0.210032	0.615191
0.217305	-0.404266	-0.336667	-0.796350	0.984061	-0.454240	0.313741	-0.393188	0.328735	-0.508965	0.450981	0.215753	-0.522931	0.426370	-0.413403	-0.872674	-0.559584	-0.370359	-1.094502	0.602124	-0.216997	0.456160	-0.561729	0.740387	0.415076	-0.578566	1.270264	-0.874907	-0.762216	-0.460179	0.618741	-0.815271	0.226360	0.224094	-0.095340	-0.810536	0.772716	0.251131	-0.330348	-0.429400	-0.438919	0.085491	-0.266443	1.201283	-0.935964	-0.283750	-0.069931	0.776494	0.079596	-0.038280	-0.036878	-0.590030	0.147545	0.085373	-0.971594	0.528280	0.388386	-0.518939	0.549896	-0.655966	0.650272	-0.321546	0.154432	-0.856580
0.460835	0.025652	-0.363847	0.568217	0.550604	-1.606464	0.939457	0.092259	-0.655257	0.660509	0.048302	-0.861028	-0.155209	0.407183	-0.647842	-0.545329	0.350063	-0.095966	-0.302207	0.625968	-0.027073	-0.203791	0.148639	0.362786	0.094715	-0.662519	-0.465846	-0.392328	0.005370	-0.081769	0.473061	-0.625242	-0.000050	0.087034	-0.414740	1.092130	-0.521805	0.425593	-0.222313	0.463264	-0.301473	0.431765	-0.413530	-0.105522	0.456464	-0.144069	-0.347696	-0.659018	0.690595	-1.067883	0.031270	0.136510	-0.305982	-0.143082	0.095385	0.386677	0.514206	-0.622031	0.388540	-0.263247	-0.470661	0.757598	-0.800072	0.062288
0.061028	-0.059508	0.534460	0.444301	-0.621886	0.169759	0.135654	-0.396129	-0.319341	0.505785	-0.638379	0.098169	0.304525	0.054805	-0.333177	-0.019123	0.281078	-0.548611	0.680440	-0.612079	0.631148	0.183789	-0.833007	0.197133	-0.076857	0.780801	0.138961	0.293779	-0.606342	-0.435438	1.531317	-0.526421	-0.721648	-0.713972	0.533846	-0.714446	0.537192	0.094214	-0.863238	0.264322	0.362940	0.267598	0.348409	-0.498913	-0.158067	0.134665	0.311141	0.425704	0.317435	-0.247798	-0.351859	0.176122	0.162871	0.693270	-0.464313	-1.123410	-1.195100	0.706428	0.023979	-1.063857	0.703646	-0.189232	-0.109941	0.322315
0.420486	-0.886928	1.688821	-1.648476	1.441840	-1.224845	-0.471821	0.794306	0.014807	-0.327235	0.386729	-0.336428	-0.082541	0.542171	0.391238	-1.201580	-0.100835	0.273541	-0.654816	0.453748	-0.867088	-0.114218	0.399721	0.488411	0.085133	0.492670	0.142703	-0.154066	0.568989	-0.591577	-0.015484	0.921514	-0.350737	-0.355034	0.432768	-0.447021	0.685020	-0.913518	0.555038	-0.564973	-0.490973	0.066081	-0.402961	-0.174578	-0.221973	-0.363063	0.160817	0.923127	0.155664	0.081093	0.095866	-0.391710	0.513624	-0.835277	-0.001842	-0.676843	-0.153282	0.036461	-0.105364	0.183459	-0.128369	0.176004	-0.287252	0.161809
0.576348	-1.420296	0.464043	0.226092	-0.873273	-0.399629	-0.530516	0.337063	0.324414	0.646482	-0.055074	0.004896	0.355334	-0.834773	0.276286	-0.159240	-0.214574	-0.591370	0.263929	-0.247577	0.338850	-0.052748	0.034184	0.450124	-0.973530	-0.266630	0.361265	-0.103940	-0.175807	-0.988104	-0.093980	-0.328622	-0.212386	0.514806	0.147565	-0.487972	-0.992834	0.883343	-0.474117	0.282358	0.916414	-0.694463	-0.055736	0.581124	0.187977	-1.207243	0.815189	-0.353266	-0.858262	0.213328	-0.644130	-0.885602	0.808849	-0.617322	0.348740	0.314707	-0.413136	0.184437	0.346975	0.228592	-0.118489	-0.319301	0.130136	-0.466068
0.543975	-0.265541	0.707169	-0.838573	0.509507	-0.933331	0.518584	-0.737282	0.027069	-0.490558	-0.085936	0.584765	0.350528	0.410436	-0.010923	0.407055	-1.079093	1.739860	-0.793858	-0.272124	0.234901	0.220889	-0.317430	0.236702	0.207350	-0.499525	-0.213776	0.341948	-0.130189	0.927313	-0.157608	-0.402302	0.285688	-0.689256	-0.028268	-0.061507	-0.489591	0.186718	0.144869	0.092690	0.208095	0.086845	0.293015	-0.267776	0.148280	-0.662629	0.328515	-0.613010	-0.064417	-0.600668	0.191986	0.067289	1.111048	-1.058050	0.602312	0.168881	-1.232971	1.164133	-1.238136	-0.235249	-0.741189	0.651769	-0.018977	-1.328293
-0.341903	0.422140	-1.031518	-0.598877	-0.033687	0.700676	-0.884785	0.205222	-0.056151	-0.494374	1.045937	0.933918	-0.674493	-0.027845	0.156869	-0.138538	0.636980	0.543841	-0.616268	-1.258824	0.361614	0.151392	0.388422	-0.660315	-0.177437	0.393709	-0.730473	0.720580	-0.497429	-0.234771	-0.512564	0.485207	-0.788859	0.441591	0.358830	-1.154409	0.588072	0.302526	-0.397223	0.005570	0.528055	-1.043878	1.022701	-0.536091	-0.093632	-0.700033	0.624656	-0.139429	0.150409	-0.763109	-0.237126	0.054055	-0.502440	0.608945	0.108847	0.182815	-0.783124	0.321745	0.493487	-0.172290	-0.132459	0.854318	-1.413986	-0.367658
-0.381030	0.160374	-0.642574	0.130334	-0.005511	0.627260	-0.950701	0.790876	0.713303	-0.211136	0.217950	-0.330721	-0.082116	-0.336749	0.052946	-0.723820	-1.564624	0.579814	0.210497	-0.029273	-0.502202	-0.229549	0.453632	0.401058	1.187229	-0.719022	-0.347042	0.048304	0.297779	-0.335306	-0.242149	-0.252477	-1.347243	0.177895	-0.090648	-0.027104	-0.416281	-0.251245	0.657821	-0.193263	1.266064	-0.475654	-0.145882	0.169413	-0.475364	-0.452364	0.331562	-0.784932	-1.184448	0.901920	0.618883	-1.660037	0.797654	0.145121	-0.050114	-0.019361	0.866028	-0.631171	-0.912097	0.585654	-0.492035	0.589091	-1.190161	0.750657
0.809196	-0.058180	-0.009211	0.253927	-0.620158	1.096877	-0.521443	-0.069633	-0.529031	0.193177	0.507233	-0.959084	0.287789	-1.000585	0.384892	-0.104103	-0.430333	0.721202	-1.621569	0.896713	-0.441100	0.499591	-0.136170	0.493577	-0.254999	0.600973	0.682583	-0.273674	-0.299224	1.367665	-0.388561	0.002801	0.446626	-1.019828	0.207521	-0.043373	0.110082	-0.320957	0.631714	-0.950780	-0.172484	0.453638	-0.115341	-0.145359	0.190196	-0.674726	-0.003837	-0.064047	-0.069975	-0.320737	0.033791	-0.236032	-0.001480	0.132751	-0.521615	1.229964	0.100081	-0.336746	0.417362	-0.184977	-0.319627	0.440515	-0.253332	-1.181780
0.495653	-0.561405	-0.142193	0.138345	0.925689	-0.003526	0.173560	-1.385253	0.092268	1.253530	-0.077536	0.004600	-0.886700	-0.097822	0.391849	0.131632	-0.950815	0.165374	-0.941083	0.492715	0.061724	-0.438230	0.184769	-0.669323	-0.232831	0.513633	-0.459791	0.280909	0.001246	0.443372	-1.020747	0.587344	-0.364080	0.720669	-0.353433	-0.140059	-0.318393	-0.087029	0.458662	-0.808157	0.237942	-0.778732	0.918247	-0.497554	0.306427	-0.137643	0.030786	0.856276	-0.165177	-1.166788	0.671641	-0.309696	-0.499981	0.619706	-0.599946	-0.466453	-0.020255	0.583838	-0.654267	-0.661479	0.352820	-0.477149	0.659359	0.144823
1.005310	-0.397091	-0.510516	0.109406	-0.561154	0.069770	-0.416962	0.276859	0.281205	-0.439110	0.223819	-0.070897	0.274971	-0.107975	0.147832	-0.685418	-1.292581	0.003862	0.838926	-1.093959	-0.546881	0.507521	-0.208685	0.454017	1.089106	-0.473636	-0.167882	0.163650	0.019654	-0.136905	0.504351	-0.932360	0.940696	-0.929861	0.368116	0.766461	-0.087123	-0.394152	-1.043857	0.503858	-1.231237	0.807452	-0.578040	0.274258	0.030242	0.114272	-0.423212	-0.082418	0.352775	-0.625902	0.177332	-1.474548	0.258417	-0.030682	-0.255360	-0.254049	0.186746	0.546642	-0.931539	1.277479	0.403660	-0.611984	-0.483542	0.497684
0.428100	-1.488279	0.771456	-0.809125	0.107345	-0.789059	0.774996	-0.276251	-0.653551	1.346710	-0.167184	0.456043	-0.670751	-0.115745	-0.697908	0.244579	0.479172	-1.122432	0.224674	-0.723206	0.486765	0.027469	0.115137	0.136687	-0.275540	0.351052	0.188555	0.341896	-0.648415	-0.287281	-0.412590	0.147335	0.368654	-0.671400	-0.199040	-0.136635	0.460194	0.512875	0.004850	-0.115519	-0.713818	0.729158	-0.699848	-0.543628	-0.289608	-0.389467	0.292550	0.222798	0.361053	-0.944592	1.797375	-0.338520	0.972122	-0.262623	-0.259635	-0.070172	0.641282	0.243929	-1.069009	1.618854	-0.328510	-0.208472	0.535263	-0.810117
0.469968	-0.076666	0.105217	-0.388332	0.478334	0.307524	0.520615	-0.050551	-0.250000	0.271194	-1.036864	1.327874	-0.497978	-0.556636	-0.372589	-0.626108	-1.957237	-0.087127	0.611636	-0.865533	0.195059	-0.466366	0.162526	0.775308	1.478585	0.275224	-1.175268	0.095948	0.062467	-0.756179	-0.776805	0.291245	-0.878631	0.508960	-0.091890	0.077402	-0.284912	0.020179	0.152329	0.082703	0.333751	0.281361	-0.347363	-0.424395	-0.144666	-0.106696	0.183253	-0.673263	-0.709405	0.061653	-0.517838	1.626191	-0.783848	-0.314600	-0.615701	1.067697	0.352283	-0.365245	-0.103361	-0.428184	0.001348	0.273378	-0.170286	-0.521552
-0.086350	-0.000498	-0.078015	0.588131	-0.485028	0.023175	-0.006161	0.688397	-0.333146	-0.917021	0.152475	0.031876	-0.120333	0.882399	-1.076236	0.275388	0.445683	-0.652499	-0.673277	0.237222	-0.275215	-0.772965	0.666571	-0.557299	-0.069384	0.070017	0.457031	0.020720	-0.461059	0.735501	-1.026003	0.702733	-0.669582	-0.016415	-0.562547	0.498773	0.403112	-1.077636	-0.024350	0.602997	0.790414	0.461782	-0.831162	-0.978881	-0.382322	-0.305251	1.430056	-0.619188	-0.240657	-0.172896	1.136853	-0.168301	-0.428745	0.360906	-0.955696	-0.170376	-0.646728	0.572803	0.116671	0.040033	-0.401491	0.502381	0.764773	-0.422405
0.524190	-0.088443	0.064602	-0.193287	0.088449	-0.157290	0.149566	-0.736084	-0.545251	0.391750	-0.151875	-0.214859	0.016795	0.087855	0.091033	-0.324483	0.418395	-0.321378	-0.163706	1.099920	-0.712162	0.723935	-0.381864	0.419770	-0.509283	0.162895	-0.848861	-0.137287	-0.003255	0.552815	-0.612815	0.049928	-0.400474	0.035123	0.331357	-0.399629	-0.173214	-0.099652	-0.426924	0.970132	0.579250	-0.721297	0.093595	-0.243659	0.362612	-0.229213	-0.254808	-0.474468	0.334170	-0.447837	-0.357359	0.205223	-1.124333	1.534980	-0.660345	0.636885	-0.756621	0.817708	-0.702694	1.433976	-0.421706	-1.586870	1.458700	-0.529811
-0.090774	-0.012401	1.259513	-0.167718	-0.387685	-0.078093	0.735487	-0.260036	0.159555	-0.240784	-0.641823	-0.575022	0.724210	-1.634325	-0.121660	0.337764	0.150779	-0.001348	0.146930	-0.246131	0.127970	0.979253	0.081175	-0.364481	0.155063	0.270944	-0.619427	0.939649	-0.235508	0.095941	-0.500798	0.243165	-1.051145	0.952381	0.284637	-0.676865	0.446703	-0.865226	-0.012303	-0.057247	0.197910	0.029045	-0.297522	0.487970	-0.763522	0.951437	-0.401935	-0.530418	0.497541	-0.712503	0.074863	-0.511632	0.518085	-0.521611	0.124707	-0.161948	0.251865	-0.270399	0.189161	0.063692	-0.533235	0.928037	0.009176	0.699571
0.894288	-0.884981	-0.108143	-0.249654	0.180707	0.174020	-0.766030	0.457358	-0.906684	0.777029	0.331542	-0.038275	-0.028331	-0.035950	0.478059	-0.299046	0.203757	-0.493296	-0.568145	-0.033232	0.657202	-1.250833	-0.385593	-0.027968	-0.378166	0.274979	0.451519	-0.304564	-0.696928	0.620149	0.265721	-0.037402	0.240188	0.412679	-0.454178	0.387754	0.157209	-0.413863	0.127231	0.212575	-0.540317	0.071230	0.271128	-0.734592	0.764834	-0.433398	0.632290	-0.473782	0.532423	0.141334	-0.104592	0.503254	-0.629923	0.341673	-0.239058	-0.033016	-0.588859	-0.478732	-0.211797	0.853376	-0.301652	0.266209	-0.334872	0.124482
0.532228	-0.554598	-0.409370	0.166910	0.155666	0.715401	-0.663845	-0.085071	-0.575690	-0.380330	0.691881	-0.208732	0.543158	-0.478330	-0.409155	0.788720	0.183227	0.148017	-0.652740	0.242718	-0.780952	0.967945	-0.347358	0.123777	-0.584139	-0.228993	1.265929	0.031205	0.388829	-1.289972	0.570596	-0.977088	0.292023	0.214489	-0.845052	-0.619758	0.166748	-0.225917	-0.460950	1.373059	-0.291303	0.301881	0.011330	0.084518	-0.014723	0.401818	-0.873567	-0.351445	0.149178	0.376654	-0.120281	0.132860	-0.216651	-0.602229	0.200613	-0.439003	-0.929745	0.205345	-0.075432	0.275782	-0.263059	0.622831	-0.406517	0.592051
-0.054502	-1.171602	1.100848	-0.256811	-0.784685	0.504872	1.155597	-0.539289	-0.001881	0.805156	-0.575269	-0.940526	0.776393	0.213651	-0.456069	-0.102063	-0.449576	-0.543586	-0.194406	1.525473	-0.654927	-0.395602	-0.535292	1.213508	0.115793	-0.191977	0.016484	-0.499365	0.630978	0.015763	0.025983	-0.642094	0.194158	0.051656	-0.180852	-0.307785	0.338048	-0.604565	-0.038404	-0.283391	0.067159	-0.192772	0.449928	0.062412	-1.105874	0.811646	0.300185	0.014897	-0.456572	0.130754	-0.022725	-0.187559	0.304215	-0.219922	-0.107143	-0.346439	0.591535	-0.793442	0.111092	0.486358	-0.153941	-0.304247	0.431597	-0.246284
0.257485	-0.472228	0.949531	0.720145	-0.328117	-0.712004	0.646871	-0.766858	-0.976888	0.354379	-0.976407	-0.135851	-0.910294	0.275116	0.712398	0.148916	0.670781	0.353739	0.104249	-0.641934	0.571396	-0.331627	-0.059978	-0.135453	0.213812	-0.985301	0.156435	0.885880	-0.033191	0.245346	-0.033147	-0.215756	0.092897	-0.449807	0.615731	-0.636043	-0.048922	-1.250899	-0.262914	-0.588184	0.474381	-0.040686	-0.127267	0.476779	0.869280	-0.920038	0.915077	-0.079327	-0.885819	0.214321	-0.676251	-1.482959	-0.612656	0.933037	-0.901493	0.385996	0.486961	-0.078936	0.503316	0.246569	-0.548091	0.258228	0.115491	-0.912998
-0.702700	1.292499	-0.531437	0.000519	1.022164	-0.765391	-0.118647	-0.619060	-0.187331	-0.613868	0.305646	0.224060	-1.154250	0.797903	-0.602822	0.450588	0.395847	-0.359435	0.087513	-0.225719	0.833157	-0.546151	0.111579	0.793025	0.604818	-0.207381	-0.254156	0.304753	-0.348322	-0.383834	-0.258312	0.073305	-1.282999	0.554033	-0.102763	-0.054943	-1.071273	1.224124	0.522435	-1.167038	-0.036130	0.146315	-0.210039	-1.089751	0.091027	-0.053875	-0.626012	0.350721	-0.806079	0.510979	0.277216	-0.331888	-0.035120	0.520526	-0.094455	-1.013198	0.611606	-0.855501	-0.306851	0.417459	1.097156	-1.503244	0.089833	0.349442
-0.772743	-0.226733	-0.382171	-0.412474	0.941136	-0.543880	0.293022	0.362519	0.168407	-0.365654	0.275002	-0.475709	-0.035070	-0.202228	0.016140	-0.666269	-0.362545	-0.474762	-0.427182	-0.833229	0.797093	0.387444	-0.448893	1.013429	-0.158142	0.947656	-0.082389	1.322610	-1.042619	0.013714	-0.103373	-1.465283	0.880275	-0.833548	0.302457	-0.068810	-0.389168	-0.784879	0.626954	0.676298	-0.831343	-0.219729	0.421274	-0.291617	0.225679	-0.553641	0.091379	-1.156232	1.043129	0.424497	-1.508460	0.798585	-0.911031	0.134457	0.398249	0.195833	-0.510465	-0.078273	-0.004286	0.204217	0.048333	-0.433098	-0.235669	-0.299959
-0.090415	-0.052347	0.187313	-0.604459	0.756076	-0.759135	-0.419232	0.598949	0.398030	0.506258	-0.633745	0.241001	-0.550277	0.280612	0.444573	0.187830	0.237524	-0.526912	-0.197210	0.401066	0.099463	0.323996	-0.843372	-0.183203	-1.139955	0.165574	-0.484335	0.359872	-1.016548	-0.586000	0.757333	0.492159	1.031826	-0.886909	0.355136	-0.317734	-0.172344	1.165633	-0.616094	0.030752	0.237846	-0.013678	-0.435034	-0.118226	0.429905	-1.126768	0.898750	-0.623767	-0.854301	0.164690	0.160757	0.540707	-0.296792	-0.029369	-0.850522	0.297909	0.693316	-0.516910	-0.032922	-0.421413	0.261281	0.463741	-0.187301	0.783709
-0.467337	-0.238682	-0.187534	0.004460	0.131328	0.573740	-0.891338	0.350021	-0.544233	0.040412	0.118499	-0.273018	0.458859	-0.763680	0.184686	-0.355247	-0.241987	0.008259	-0.233615	0.115871	0.038308	0.780632	-1.018750	0.540825	0.455736	0.139363	0.391332	-0.124198	-0.084506	-0.170937	1.158498	-0.804482	-0.276898	0.077161	-1.308097	0.463780	-0.495827	0.042923	-1.237665	0.425368	-0.279599	-0.073987	0.718050	-0.870138	0.392030	0.113140	0.573877	-0.660145	-0.304846	0.113600	0.384533	-0.085702	-0.184608	0.054762	-1.680100	0.866330	0.455109	0.489781	-1.106724	-0.040964	0.231533	-0.260186	1.114969	-0.998410
-0.116475	-0.065305	0.158867	-0.114551	-0.193280	0.120953	0.071369	-1.443761	-0.031581	0.759820	-0.069181	-0.182226	-0.644739	0.370867	-0.663944	0.685388	-0.750835	0.297986	-0.769476	0.169842	-0.452268	0.951647	0.169711	-0.797336	1.305323	-0.856063	0.804304	0.743994	-0.824289	-0.361153	-0.478893	0.362251	-1.786436	-0.130761	-0.441446	-0.094511	-0.009455	0.534773	-0.471319	0.411778	0.179758	-0.649200	0.198402	-0.956381	0.057738	-0.490954	-0.027063	-0.815082	0.526861	0.223744	-1.009224	0.440129	-0.069494	-0.617334	0.043183	0.021266	-0.837776	0.510527	0.459751	-0.640540	0.715254	-0.373821	-0.163218	0.009169
0.111932	-1.216822	1.023521	-0.988392	0.298898	-0.934068	0.663557	0.009365	-0.619726	1.001726	-0.405265	0.726609	-0.319374	-0.200816	-0.688304	0.051559	1.054214	-0.437838	0.184043	-1.246797	0.121813	-0.159655	0.230729	0.051470	-0.452187	-0.926491	0.508608	-0.357911	0.027122	-0.255025	-0.257801	-0.781812	-1.060183	1.144355	-0.676956	0.651979	-0.272247	-0.232945	0.083764	0.193018	1.457134	-2.010817	0.882023	0.191157	-0.380158	-0.665387	-0.133623	0.428724	-1.035690	0.591972	-0.356612	0.383104	0.777838	0.185673	0.259923	-0.510772	0.249355	-0.008015	-0.664337	-0.012937	-0.563507	0.354392	-0.906066	-0.143550
-0.269336	0.850073	0.393691	-1.002359	-0.223978	0.692914	-0.583600	0.056629	0.236132	-0.383310	0.225821	-0.071953	-0.110348	0.225714	-0.384994	0.117101	-0.538962	0.582977	-0.283311	0.174068	0.407157	-0.331694	0.654592	0.441218	-0.838627	-0.034814	-0.060368	0.178350	-0.823776	-0.266418	-0.189876	-0.278071	0.550817	-0.406041	-0.430271	0.003046	-0.208534	0.713951	0.423000	-0.527384	-0.219828	0.149844	-0.513343	0.440136	0.645543	-1.339584	-0.735436	0.084732	-0.227925	-0.207189	0.439463	0.044521	-1.223543	0.482909	-0.022379	0.460965	-1.153131	0.978042	-0.466423	-1.407573	1.460236	0.567771	-0.420917	0.022749
-0.050686	-0.137614	0.173954	-0.301632	0.155359	-0.689821	0.378948	-0.397750	-0.587081	0.693253	-0.277107	0.223366	0.669593	-0.046225	-0.722833	0.554355	0.478535	-0.372082	-0.190520	0.306802	-0.542100	0.345754	0.198713	-0.230544	0.505098	-0.842528	0.624636	-1.237713	1.371895	-0.399043	-0.181299	0.208680	-0.209960	-0.594869	0.286830	0.004520	-0.715954	0.422355	0.287949	-0.443525	-0.445331	0.510121	-0.002707	-0.329094	0.628499	-0.507608	-0.089081	-0.179880	0.276961	0.187017	-0.406139	-0.575217	0.097380	0.358524	-0.975893	0.957671	-0.726938	-0.158140	0.409783	0.743096	-0.606029	-0.143843	-0.508579	0.193610
0.374017	0.315460	-1.476379	0.337478	0.883048	-0.951364	0.513838	-0.387704	-0.570499	-0.306700	0.175663	-0.005252	0.074193	0.037532	-0.204362	0.384538	0.146499	0.052286	0.148790	-0.071909	-0.326661	0.991160	-0.456984	-0.431019	-0.007614	-0.213886	0.068706	0.235728	-0.433219	-0.710277	0.482730	1.531671	-0.585438	-0.068372	-0.048617	-0.513363	1.510534	-1.073560	0.682362	-1.813713	0.175311	0.592493	0.129632	-0.028719	-0.381005	0.310217	-0.389141	0.588803	0.245945	0.482274	-0.297840	0.575789	0.390185	-0.051841	-1.047114	0.841365	-0.189821	-0.028421	-0.964256	0.615492	0.159385	-0.631944	1.024525	-1.130537
-0.106443	-0.775001	0.439015	0.668062	-0.194634	-0.068120	-0.388780	-0.163251	0.675212	0.566695	-0.528102	-0.333740	-0.205549	0.534980	-0.336199	0.616248	-0.459160	-0.233990	0.307968	-0.701919	0.160897	-0.120032	-0.024223	-0.667001	-0.200291	0.787347	0.261451	-0.730808	-0.165185	-0.112996	-0.023533	0.528303	-1.084286	-1.134800	0.702394	0.447549	-0.199642	0.482190	0.343455	-0.590818	0.958074	-0.375756	-0.258713	0.292923	-0.410658	0.963032	-0.466087	-0.127296	-0.299489	0.694708	0.018534	-0.190898	0.100836	-0.973006	0.973464	0.543060	0.341660	-0.819909	-0.496665	0.672685	-0.440080	0.617168	-0.081977	-1.318853
-0.490426	0.364770	0.191224	-0.140735	0.217384	-0.604452	0.998003	-0.973362	0.653581	-0.356348	-0.038040	0.277945	-0.540915	1.174518	-1.173495	0.198573	-0.702291	0.346642	-1.058057	-0.181083	0.171815	-1.021008	0.161117	-0.136870	0.716258	-0.636214	0.411034	-0.172260	-0.199405	0.189472	0.251823	-0.225397	0.194936	-0.376565	-0.070507	-1.030945	0.407979	-0.670346	0.750645	-0.408534	-0.339259	-0.134873	0.065974	0.275220	-1.019289	0.551386	-0.300887	-0.075289	0.246818	-0.032753	-0.228612	0.021975	0.993627	-0.767776	0.140535	-0.252708	0.511919	-0.539823	0.137838	-0.859286	-0.323742	0.457966	-0.796803	1.053995
0.312384	0.110402	-0.435479	-0.085035	0.357383	-0.445209	-0.199507	0.346200	-0.601700	0.263329	0.224197	0.248556	-0.755403	0.479473	0.400954	0.573150	-0.809742	-0.773603	0.258978	-0.310752	0.193604	-0.815947	-0.526035	-0.666090	1.571962	-0.762116	-0.097966	0.010713	0.204562	-0.034680	0.036562	0.185055	-0.777727	1.266518	-0.010293	-0.159340	-0.594852	1.036969	-1.013005	0.372398	0.016182	0.160428	-0.341136	0.677696	0.397112	-0.103749	-0.520256	0.210706	-0.351130	-0.226254	0.451999	-0.957968	0.265473	-0.774405	0.584363	-0.081898	-0.313203	0.081159	-0.060658	0.784636	-0.830609	0.863039	-0.198891	0.188378
-0.621443	-0.403894	0.419250	-0.520881	-0.040148	1.029473	-0.677130	0.226990	0.621176	0.441777	-0.247858	0.117263	0.557939	-1.489349	0.501174	-0.051003	-0.224851	-0.351721	0.347542	-0.391088	0.448373	0.613916	-1.235094	-0.664685	0.697945	-0.493112	-0.354290	0.138362	-0.675841	0.450604	0.788832	0.244770	0.212393	-0.451905	0.508083	0.486209	-0.504986	-0.071663	1.096446	-0.877236	-0.019846	-0.131862	-0.493205	-0.074436	-0.347557	0.153523	-0.933198	0.837468	-0.019127	0.167682	0.204275	-0.024937	-0.529439	0.676030	0.098971	-0.706829	-0.685204	0.449213	-0.706461	0.291758	0.342649	-1.284340	0.840255	-0.721133
-0.172687	-0.145224	-0.572003	0.505961	-0.897457	0.465811	0.173663	0.256554	-0.610503	0.377292	0.580443	0.244798	-0.472313	0.017620	-0.452185	-0.817334	0.018360	0.880678	-1.013645	-0.525242	0.181063	-0.080779	-0.491575	0.813036	-0.164315	0.363409	-0.487415	-0.063427	0.293259	-1.143633	1.496656	-0.201282	0.156919	-0.026838	0.678344	0.192577	-0.063830	0.823170	-1.024112	-0.098908	0.351302	-0.887134	-0.450812	-0.155098	-0.117662	-0.017821	-0.388795	0.278299	-0.270210	0.348015	0.013744	0.028086	0.800342	-0.366951	0.745404	0.434302	0.020954	-0.361056	0.379047	-0.009388	-0.543310	-0.494536	0.046258	-0.761355
0.187857	-0.533398	0.270832	0.719103	-1.055764	0.808792	-0.177259	-0.151046	-0.887770	-0.373678	-0.429237	0.197586	-0.568571	0.420096	0.018835	-0.865262	0.120458	0.562243	0.228828	0.044818	0.979236	-0.528223	-0.007955	0.765084	-0.055664	-0.004583	0.103273	0.046634	-1.232284	-0.125303	0.265506	-0.481816	0.135491	-0.179849	-0.695824	0.144075	-0.143839	-0.631107	0.398159	-0.213168	0.358598	0.179016	-0.340253	-0.420270	-0.706724	1.208890	-0.283848	0.847310	-1.295928	0.271956	0.066423	0.005340	0.701821	-1.212999	-0.426383	-0.545568	0.060823	0.317551	0.264804	-0.284995	-0.261166	0.848132	-0.209583	0.169210
0.856420	-0.327114	0.120588	-1.521856	0.011307	-0.098583	-0.103275	-0.411379	-0.730133	0.230641	-0.579320	1.335759	-0.713452	-0.030075	-0.510042	-0.004906	0.514029	-0.902582	0.238875	0.649811	0.510304	-0.348982	0.398893	0.093285	0.504764	0.146671	-0.737559	0.701274	-0.419899	0.468040	-0.947704	0.336361	-0.236612	-0.703938	0.960090	-0.617414	0.505644	-0.326142	0.407099	-0.196537	0.714262	0.332544	-1.201305	0.629020	-0.584045	0.554779	-0.406348	0.420095	-0.326357	-0.036988	0.026439	-0.306639	-0.047961	0.361338	-0.166831	-0.634293	-0.183229	0.810276	-0.375542	-0.536097	1.058339	-0.897686	0.153758	0.630753
-0.559680	0.810529	-0.066911	0.011696	0.010014	-0.529989	-0.329007	0.112642	0.168797	0.126065	-0.298766	0.519229	-0.341038	-0.072274	0.153580	-0.231832	-0.389355	-0.203506	0.690715	-0.248998	0.299732	0.768748	-0.963727	1.216946	0.128671	-0.420122	-0.236436	0.527778	0.036108	-1.400045	0.055813	-0.477791	0.514545	-0.858073	0.192007	-0.161863	0.276013	-0.481494	0.427100	-0.289898	-0.044073	-0.349183	0.874822	-0.566346	-0.519842	0.735815	-0.225450	-0.249647	-0.364581	0.187060	-0.595928	-0.075081	0.331556	-1.132627	0.164308	0.225696	0.116294	-0.300701	0.803780	0.358667	-1.033920	1.163350	0.002005	-0.356157
0.395088	-0.261072	0.494481	-0.075690	0.291118	-0.667526	-0.292359	0.606680	-0.304838	-0.177392	-0.677695	-0.071756	1.011580	-0.796972	1.480597	-0.877731	0.463087	0.081651	0.235227	-0.443236	0.051804	0.373408	-0.559669	-0.111924	-0.291852	-0.255849	0.295759	0.030383	-1.113521	0.182119	-0.777694	0.266939	-0.235998	-0.767263	0.274855	-0.567088	0.230446	-0.189429	-0.028196	0.615287	-0.260099	1.112905	-0.892668	0.644420	-1.179807	0.763563	-0.414111	-0.760403	-0.624622	0.476095	-0.515845	-0.020036	0.645895	-0.653026	0.839581	0.569274	0.553045	-0.899830	0.470617	-0.050708	0.247513	-0.415790	-0.305664	-0.411056
0.090868	0.046830	-0.643771	0.088106	-1.169975	0.659379	0.244161	-0.079587	-0.076389	-0.318178	1.070669	0.092504	0.147237	0.571802	-0.706131	-0.225415	-0.060031	-0.622709	0.512392	-0.655569	0.412347	-0.218832	-0.495981	-0.226658	0.863318	-0.220328	-0.202683	0.357740	0.966274	-0.755768	-0.175401	0.431643	-0.674143	0.236559	0.099874	0.486325	-1.203093	-0.801226	1.632525	-1.233786	0.035842	0.297036	-0.399984	-0.216224	0.872187	-0.121912	-1.133057	0.125582	-0.040114	-0.911091	-0.260214	0.624030	-0.202794	0.614110	0.326766	-0.188255	-0.269872	1.046725	-0.692378	0.376148	-0.569831	-0.505331	-0.450795	0.067989
-0.277620	1.025371	-0.959017	0.454466	0.256648	0.387669	-0.800112	0.508139	-0.190350	-0.504216	0.163187	-0.561847	-0.088978	-0.552837	0.110051	-0.297206	0.889118	-0.433634	1.105545	-0.473544	0.053104	-0.325976	0.012524	0.298868	-1.686475	0.452603	0.037553	-0.045450	0.310178	-0.456513	-0.320477	0.195019	0.439084	-0.271047	-0.227826	-0.188172	-0.888400	0.476735	0.691591	-1.272997	0.718479	0.083425	-0.328206	-0.395537	0.751426	-0.378984	0.143697	0.687045	0.162756	-0.621113	0.909460	0.387608	0.486483	-1.022430	-1.256417	0.324204	0.606770	-0.469645	0.243308	-0.246474	-0.931381	0.276665	0.391869	0.369445
-0.097864	-0.195325	-0.281681	1.025138	-0.730419	0.718818	-0.282993	0.367420	-0.310586	0.846092	-0.528724	0.285050	0.242137	0.052789	-0.713421	-0.331908	0.437044	-0.419585	0.881875	-0.015234	-0.402712	-0.429820	1.597766	-0.505318	-0.308188	0.330207	-0.307347	0.910498	-0.095151	0.405010	-1.143037	0.694210	0.529240	0.185669	0.008639	-0.593558	-0.298194	0.073315	0.406532	-0.190338	-0.589324	-0.864630	0.482132	0.016933	0.439496	-0.515481	0.165914	-0.099991	0.418675	0.847258	-0.220407	-0.244733	-0.171935	-0.982233	0.361473	-0.233432	-0.035996	-0.030096	-0.540107	0.099152	-0.038360	-0.023695	0.561971	-0.394728
-0.200867	0.725897	-0.245808	-0.139873	-0.025674	0.262107	-0.612488	-0.311052	-0.762993	-0.118161	0.285104	-0.470510	-0.763829	0.701195	-0.743265	0.333825	1.166306	-0.393927	-0.295505	-0.264407	0.308142	-2.111448	0.766321	-0.237130	-0.362676	0.283722	0.093611	-1.119610	0.905423	0.645492	0.055719	-0.390129	0.304246	-0.165610	-0.313335	0.488070	-0.999238	0.226359	-0.876195	0.723927	0.272544	-0.074949	-0.021294	-0.500363	0.596942	-1.099074	0.537856	-0.692406	-1.130916	0.295226	-0.703077	-0.214757	-0.619510	-0.163485	0.073419	0.437745	0.708923	0.201189	-0.355197	0.070276	1.070068	-0.143462	-0.337794	-0.016246
-0.465020	0.117738	-0.196682	0.170176	0.014747	-0.152580	-0.428394	0.711594	-0.486864	0.166196	-0.528181	0.599981	-0.812137	0.279371	-0.413174	-0.186608	-0.608961	-0.490862	-0.032797	0.014581	-0.659416	0.097575	-0.497728	-0.434698	-0.091506	1.509200	-0.650810	-0.122877	1.487643	0.357030	0.176733	0.250318	-0.440601	-0.246451	-0.297879	-0.271411	0.375070	0.182190	-1.009744	1.013264	-0.088486	-0.352274	0.130688	0.236087	-2.269732	-0.577275	0.828920	-1.449741	-0.470829	1.015654	-0.632073	-0.649389	1.302886	0.640265	-1.006938	0.349667	0.377012	-1.100952	-0.225687	0.450924	-1.762700	0.724180	-0.304859	0.572323
0.327269	-1.753296	0.993960	-0.739492	0.079235	0.318150	-1.322672	0.330375	0.122851	0.574397	-0.811640	0.399772	-0.422399	0.859176	-0.402334	0.214469	-0.362501	0.326970	0.175529	0.524324	-0.254741	-0.545522	0.146773	0.156396	0.432708	-0.883954	-0.066062	-0.247622	0.238452	0.695292	-0.184836	-0.233894	-0.638756	0.866414	-0.258993	-0.112506	0.202053	-0.316368	0.304246	-0.613702	-0.538091	-0.024769	-0.133584	0.540544	-0.072790	0.136247	-0.328055	0.739076	0.420146	0.161763	-0.471375	0.227820	-0.714261	0.845517	0.225232	-0.407131	-0.376075	-0.677201	0.818077	-0.427225	0.657281	-0.210332	-0.084264	0.280719
-0.026305	0.755042	-0.239446	0.065803	-1.199128	0.734858	-0.714673	-0.325890	-0.496700	-0.458497	-0.240218	0.297713	1.062660	-0.312165	-0.463010	0.640703	0.113929	-0.236303	0.161041	-0.748328	-0.547577	0.356419	0.050112	-0.128821	-0.185913	-0.384382	-0.101529	0.701838	0.197248	-0.747652	0.542880	-0.482569	-0.030652	-0.668863	-0.068736	-0.717981	-0.401757	-0.074765	-0.147538	0.447194	0.302650	-0.030732	-0.284810	0.759394	-0.279698	-0.239920	0.446880	-0.270016	-0.049823	-0.654131	-0.188394	0.283300	-0.706061	1.002803	-0.595021	-0.376082	1.092442	-1.548414	0.833890	-0.346982	0.854534	-1.411782	0.184625	0.573781
-0.731808	-0.042559	0.480620	-0.121439	-0.401910	-1.232542	0.161349	0.153210	0.404697	-0.506184	-0.516802	0.720344	0.064101	0.424889	0.301716	-0.789601	-0.481318	0.947739	0.082733	-0.675506	-0.433238	-1.322993	0.309522	0.842129	0.028596	-0.458710	-0.613279	0.641716	0.735834	-0.728151	0.197511	-0.634493	0.389048	-0.407575	0.122472	-0.200410	-0.312947	0.413297	-0.818923	0.267802	-0.227396	-0.100220	0.479922	-0.552699	-0.157963	-0.016377	-0.273539	0.524284	1.021166	-0.263509	0.223842	-0.443047	-0.205997	0.163783	-0.637334	0.334476	-1.815280	0.105789	0.425026	0.295384	0.870161	-0.964847	0.097172	0.130223
-0.265756	0.592702	0.089275	-0.224608	0.893575	-0.963314	0.741757	-0.945452	0.291137	-0.260863	-1.093938	0.486943	-1.084645	0.564735	-1.274401	0.980930	0.503336	-0.235990	0.672469	-0.783789	0.115714	-0.027935	-0.180618	-0.047156	-0.260607	-0.347412	-0.620408	0.510591	-0.628590	-0.370576	0.842537	-1.162656	-0.635926	0.459270	0.043338	0.330431	0.399193	-0.604563	0.016502	1.033568	-0.164077	-0.785409	-0.425988	-0.547967	0.284413	0.555017	0.132375	0.092615	1.218385	0.429577	-0.250590	0.366934	-0.873774	-0.185768	0.461403	-0.701099	-0.823076	-0.343307	0.284035	-0.322263	-0.462433	-0.096548	-0.551669	0.568119
-0.073563	0.111816	-0.434443	0.381641	-0.818775	0.297732	0.848076	-1.529893	-0.352110	-0.818445	0.635299	0.260593	-0.096182	-0.130521	-0.032969	0.343518	-0.563054	1.260433	-0.435158	0.300304	0.042159	-0.521744	-0.356246	0.147323	-0.434418	-0.583376	-0.086213	-0.223617	-0.445051	-0.022209	-0.583424	-0.175719	0.477780	0.588019	-0.544187	0.867374	-0.384037	0.617647	-0.146091	-0.353521	-0.163145	-0.492547	0.578473	-0.572351	0.418571	-0.831200	0.739370	0.251579	-0.012585	0.856175	0.118511	-0.286944	0.277995	0.541493	-0.391432	-0.742957	0.040129	-1.205462	-0.542920	0.866309	-0.923437	0.575671	0.143152	-0.020420
0.383002	0.506949	-0.541893	-0.024985	-0.188758	0.458037	0.470696	-0.532653	0.031089	-0.955675	0.031793	-0.111859	0.685056	-0.050344	-0.215080	-0.139379	-0.319246	0.396773	0.281620	-1.169329	0.535034	-0.673052	-0.077253	0.393696	0.259343	0.066467	-0.268441	1.020852	-1.551099	0.755527	0.391622	-0.600579	-0.408042	0.678878	-0.539842	-0.294672	0.733975	-0.010414	-0.668568	-0.008498	0.182836	-0.520487	-0.435651	0.993341	-0.524923	-0.175689	0.559281	-0.177957	-0.157262	-0.080701	-0.124287	-0.722629	0.408029	-0.285933	-0.740259	0.663648	0.362081	-0.061969	0.424017	1.062242	-0.103375	-0.476194	0.753981	-0.375663
-0.081477	0.475210	-0.355866	-0.351296	1.092520	0.196590	-0.449556	-0.433344	0.083826	-0.153854	0.162164	0.497951	-1.294412	0.722034	0.130598	-0.212078	0.802602	-0.762925	0.260754	-0.324584	1.049858	-0.784581	-0.033543	0.198857	-1.460994	0.525121	-0.035737	-0.834055	-0.334148	0.030855	-0.111980	-0.362785	0.940583	0.202345	-1.051019	0.031819	0.498397	-0.469971	0.234887	0.600877	0.136271	-0.407323	-0.432170	0.970845	-0.619804	1.070732	-0.441987	-1.298767	-0.849259	0.346521	0.362776	-1.097778	0.888484	-0.497910	0.652386	0.424165	-0.060413	0.041776	-0.571982	0.664556	0.298671	-0.482945	0.300468	0.058507
0.167739	-0.198698	-0.160371	-0.200242	-0.402618	0.274444	-0.490429	-0.058639	0.014922	-0.285408	0.477262	0.410568	-0.202168	-0.237024	-0.129516	0.525641	-0.592593	-0.151377	-0.520421	-0.054985	0.220959	-0.019331	-0.325037	-0.750789	0.108302	-0.087653	-0.164371	-0.106143	0.082249	0.558253	-0.202238	0.618326	0.255108	-0.107439	-0.037144	0.485094	-0.697697	-0.591382	-0.367124	-0.488319	-0.912634	0.200165	0.393946	-1.253719	0.636488	1.232759	-0.116933	0.403188	0.213341	0.217183	-0.593488	0.741859	-0.101604	-1.735569	0.402384	-0.891796	0.751070	-0.824500	-0.233604	-0.143944	0.320000	1.067415	-1.955714	1.181219
-0.779672	0.736401	-0.630912	-0.465199	0.118750	0.293948	-0.507130	0.177669	0.199642	-0.226679	-0.423201	1.108854	-1.399225	-0.250988	0.116237	-0.013228	-0.371744	0.539942	-0.088443	0.651396	0.527866	-0.263904	-0.378821	0.288742	0.796637	-1.102263	1.314717	-1.216628	0.071130	0.806752	-0.553741	-0.198531	-0.290493	-0.330936	-0.004412	-0.042630	-0.134929	-1.010656	0.578579	0.003883	-0.326002	0.404584	-0.074571	-0.277563	0.340289	0.320848	0.382362	-0.653608	1.066482	-1.502280	1.242781	-0.639094	-0.170927	-0.347145	-0.329483	0.699947	-0.364405	0.103151	-0.487757	0.143823	0.022737	-0.127583	0.145567	-0.159587
-0.636381	0.680400	0.044107	-0.398769	0.425456	-0.039685	-0.573236	0.490409	0.733895	-0.143397	-0.261298	0.642546	0.214504	-0.629521	0.475626	0.078249	-0.205649	-0.031660	-0.947636	-0.725934	-0.741810	0.629271	-0.348408	-0.421403	0.108934	-0.106563	0.379708	-0.106226	0.613092	-0.318782	0.062727	-0.289506	-0.705469	0.443263	-0.524087	0.456735	0.022800	-0.850122	0.129903	0.454326	0.442147	0.191340	0.513404	-1.253083	0.933901	-0.091287	-0.642935	-0.150445	-1.419791	-0.393765	0.041132	0.335751	-0.070576	-0.767305	0.984520	-0.252558	0.959800	-0.465594	0.433652	0.050669	0.250661	-1.172589	0.843700	-0.264010
-0.692558	0.619606	-0.591996	0.514942	-0.719248	0.946796	-1.317198	0.688424	1.066192	-0.173671	-0.135536	-0.227184	0.328174	-0.527553	0.719689	-1.458630	-0.935051	-0.230774	0.322409	0.659878	-0.318359	-0.484998	-0.202046	0.354671	0.166680	-0.016487	-0.065121	-0.749497	0.156097	1.048413	-0.352422	0.280307	-0.215154	-0.659950	0.558505	0.051413	-0.324672	-0.292224	-0.459642	0.477995	-0.570850	0.284692	-0.257559	-0.590930	0.375455	-0.084970	-0.355013	-0.187993	0.374661	0.471660	-0.754486	0.803823	0.155570	0.328513	0.191198	-0.178024	-0.490457	-0.189142	0.576669	-0.287777	-0.347744	0.383728	-0.029351	-0.270635
0.694492	-0.195730	-0.441302	0.044519	0.456179	-0.239302	-1.490381	0.868579	-0.300663	-0.388337	0.952180	-0.629946	0.333113	0.127635	-0.242099	-0.094703	0.103438	0.426720	-1.537495	1.120120	-0.024207	-0.909509	0.625446	-0.480470	-0.473921	-0.626195	0.559125	-0.313485	0.327667	-0.037015	-0.824701	0.763991	0.817766	-0.435641	-0.299169	-0.214125	-1.420391	0.330505	0.341752	-0.214525	-0.218135	-0.575202	0.398286	0.057687	-0.936686	0.086247	0.156669	-0.186570	-0.766386	-0.024227	0.313864	-0.161532	1.010325	0.123130	-0.450984	-0.482828	0.703246	0.278820	-1.109247	0.275563	-0.357359	-0.659637	0.297069	0.242379
-0.643616	0.255538	-0.490470	0.001257	0.358628	0.086297	-0.382241	0.628763	-0.133459	-0.644201	0.934605	-0.738652	0.577521	-0.305009	-0.144082	-0.455320	0.352759	-0.023872	-0.840450	0.438039	-0.112637	0.015280	-0.234850	0.186297	-0.696969	0.145259	0.192616	0.110002	-0.101770	0.125162	-0.167453	0.021450	0.169473	0.464563	-0.109510	-0.521015	-0.183191	-0.025013	0.627293	0.111579	-0.389941	-0.246083	0.413503	0.533138	-0.305101	-0.176832	-0.965539	0.413269	1.292055	-0.825324	0.166220	-0.875223	0.736964	-0.931157	1.162862	-1.213183	-0.548946	-0.535663	0.178701	-0.074017	-0.257693	0.133958	-0.026936	0.590025
0.301328	0.511551	-0.427778	-1.084105	0.825851	-0.124842	-0.486640	0.666033	-1.055427	0.038785	0.549360	0.148670	0.197254	0.304901	0.403310	-0.879871	0.605126	-0.463536	0.040712	-0.376160	-0.112449	-1.179737	-1.058406	0.415840	0.094144	0.493203	-0.884811	-0.087613	0.179860	0.683111	0.629399	0.283391	-0.012549	-0.266219	2.328765	-1.297659	-0.107945	-0.357606	-0.055364	0.397097	0.132429	-0.402836	-1.328097	0.801837	0.047626	0.617930	0.277354	-0.441033	0.179630	0.336066	0.968205	-0.511989	0.093788	-0.142840	-0.391019	0.258573	-0.311129	0.004309	-0.198296	-0.658674	-0.753098	0.207885	0.169309	-0.083972
0.862036	-0.226557	-1.318369	0.051691	0.830729	-1.400868	1.217102	-1.099644	-0.364896	-0.097698	-0.003439	-0.006145	0.281943	-0.272119	-1.116694	1.108919	0.112430	-1.201120	1.128412	0.215391	-1.839365	0.118337	0.307261	0.174994	-0.060337	0.655366	-0.130822	-0.012526	0.129149	0.780770	0.239813	-1.150412	-0.003518	0.266044	-0.153598	-0.703494	-0.253731	0.435560	-0.412699	0.270283	-0.643986	-0.124948	-0.272720	-0.191965	-0.136709	-0.674963	-0.125662	0.154118	-0.044660	0.111471	0.283999	0.095744	0.589582	-0.734408	0.613603	-0.026589	-0.148318	-0.565691	0.509942	-0.640488	0.263489	0.256721	0.328362	-1.264608
-0.257131	0.609848	0.091900	-0.268715	0.334779	-0.422663	-0.073949	0.484693	-0.394231	-0.433313	0.631249	-0.816684	-0.576306	0.270982	0.002651	-0.509953	0.027349	-0.572771	-0.175372	0.425323	-0.142621	1.293596	-0.706780	-0.040223	-0.613321	1.421658	-1.238428	0.681791	0.665790	-0.479906	0.204550	-0.075018	-0.903408	-0.210036	-0.143618	-0.417136	-0.787131	0.130445	-0.220951	-0.372112	0.912878	0.051280	-0.042224	0.926313	0.500769	0.188282	-0.503353	-0.272721	-0.258233	-0.325540	0.371147	-1.462251	-0.645676	0.086921	0.151308	0.002776	-0.429512	-0.066012	-0.056388	0.124872	0.664243	-0.868983	-0.231801	0.455857
0.212405	0.354089	0.161277	-0.034822	-1.126115	0.991720	-1.053028	-0.597907	-0.836488	-0.290769	1.149894	-1.192419	0.380675	0.100811	-0.177062	0.450797	0.402209	-0.790766	0.574613	-0.247327	0.453941	-0.179801	-0.419591	-0.579355	-0.146508	1.282178	-1.918800	-0.561593	0.475574	-0.714367	0.164919	-0.885673	0.189698	-0.586958	0.273482	0.221366	-0.185448	-0.098235	0.191145	0.860686	-0.762763	-0.099209	1.767944	-0.207546	-0.153644	-0.265874	-0.182497	0.557131	0.296013	0.271654	-0.045691	-0.881132	0.254682	-0.195791	0.053673	-0.977412	0.898961	-0.829576	-1.102396	0.660603	-0.559563	0.123552	-0.412984	0.188284
-0.009484	0.590462	-0.660190	0.284158	0.114801	-0.505788	0.398112	0.263336	-0.546293	0.363107	0.109672	-0.882466	0.537961	-0.015812	-0.662491	-0.379532	0.245942	0.070848	0.212490	0.526497	0.021916	-1.303657	0.828758	-0.076943	-0.217735	-0.231000	0.547603	-0.894634	-0.052246	0.447950	0.008318	-0.077362	-0.395015	0.152024	-0.372934	1.029128	-0.097756	0.013085	-0.412964	-0.511074	-0.335046	-0.208590	0.337792	-0.516310	-0.630350	0.986714	-0.939859	0.560311	0.884480	-0.352361	-0.043063	-0.372538	-0.066540	-0.354390	0.343571	-0.309575	-1.273740	1.231910	-0.649212	0.414121	0.354727	-0.100864	0.260818	-0.440441
-0.220847	-0.064456	0.174160	-0.204630	-0.197095	-0.863847	0.602131	0.124635	-0.429122	0.539666	-0.212340	0.362326	0.651771	-0.128098	0.344612	-0.804221	0.073469	-0.070580	0.074025	-0.322606	-0.917066	0.207589	-0.083248	-0.395416	-0.555190	0.626169	-0.198083	-0.817966	-0.148451	0.097959	-1.011565	0.351048	0.921415	-0.779663	-0.152559	1.277405	0.310518	-0.438260	0.032911	-0.349957	-1.039098	-0.068964	0.101757	-0.315837	0.045753	-0.941207	1.137139	-0.540133	0.333487	-0.282738	0.238328	-0.499841	-0.329452	0.096939	0.221024	-0.061807	0.026902	-0.122475	0.185971	-0.948555	1.591343	-0.877328	-0.251912	0.228461
1.501227	-0.820942	-0.633433	-0.019064	-0.595161	0.197707	-0.318835	0.756959	-2.029910	0.556320	-0.214217	-0.357878	0.579762	-0.534794	0.881412	-0.966534	0.647875	-0.456417	0.298678	-0.628851	-0.644125	1.548132	0.201112	-0.329637	0.274729	-0.243974	0.419071	-0.237397	-0.083932	-0.449333	-0.996112	1.098035	0.043878	0.496739	-0.497475	0.526730	-0.634969	0.122356	-0.297002	-1.095867	-0.341633	-0.770466	0.125670	-0.374531	-0.181802	0.439093	-0.320914	0.036213	-0.379039	0.657956	-0.539208	-0.273156	0.084753	0.038280	-0.297148	0.533463	0.213370	-0.578736	0.185265	-0.155299	0.006615	-0.135901	0.328035	-0.139111
-0.069373	0.577592	-0.830300	-0.163316	0.070434	-0.250724	0.758637	0.050599	-0.578451	0.077819	-0.063536	-0.221473	0.303380	-0.105360	-0.531986	-0.060359	-0.108229	-0.372227	0.046190	0.698321	0.678099	-0.875680	0.525904	-0.261010	0.254524	0.416795	0.177445	-1.091503	-0.770171	1.083472	-0.865493	0.703951	-0.917273	-0.280724	0.000628	0.296533	0.641829	-0.517439	0.161495	-0.391493	1.709717	-1.083013	0.479175	0.015699	-0.531580	0.427218	-0.149532	0.227121	-0.813978	0.921965	-0.925535	0.240876	-0.049613	-0.428859	-0.092873	0.077822	0.153173	-0.896637	1.479526	-1.275161	0.546571	-0.460786	0.077745	-0.050260
-0.185631	0.137986	0.352744	-0.937630	0.183282	-0.152174	0.351622	-0.582907	-0.806784	0.308736	-0.229583	0.115461	0.581788	-0.021794	-0.108783	0.025400	0.637213	-0.447058	0.619908	0.541698	-0.915828	0.234365	-0.384219	-0.615307	-0.491729	0.558325	-0.477431	-0.056684	-0.509627	0.179505	0.197767	1.204339	1.105903	-0.506630	-0.262898	-0.321776	0.537764	-0.526996	0.504768	-0.357624	0.354049	-0.784002	1.773661	-0.169428	-0.224086	0.051286	-0.329728	-0.527403	-1.102069	0.367693	-0.151443	0.525540	-0.631433	0.175062	0.528741	0.212625	-0.017107	0.127912	-0.312572	0.427413	-0.244356	0.476798	-0.982239	0.049782
-0.587302	0.323220	-0.421449	1.025638	-0.476729	0.473203	-0.170768	-0.126435	0.102614	-0.337799	0.535700	-0.987190	0.139535	-0.224593	-0.653644	0.917592	0.121165	0.485959	-0.809215	0.807983	-0.015980	0.243516	0.264950	-1.044740	0.206412	-0.210846	-0.615679	0.022894	-0.664556	-0.291304	-0.648637	0.797025	0.198535	-1.038124	1.259097	-0.770027	0.886618	-0.125878	-0.078612	-0.186301	-0.842473	1.438168	-0.753622	0.429414	-0.662435	0.212822	0.583142	-0.425394	0.312697	-0.577740	-0.527351	0.331925	0.292942	0.060927	0.220588	0.616880	-0.187719	0.290057	0.734839	-0.424998	-0.319520	0.031857	-0.379298	-0.252153
-0.921210	0.165645	-0.461023	0.409547	0.251465	-0.456675	1.412600	-1.031781	0.660901	-0.467238	0.839989	-0.713277	-0.812090	-0.187705	0.063903	-0.207616	-0.236174	0.039765	-1.184939	0.866984	0.564082	-0.853891	0.098157	0.245685	0.282406	0.049730	-0.269385	-0.323045	-0.385451	-0.206780	0.607159	-0.649848	-0.400497	-0.566153	0.098012	-0.349529	0.523226	-0.174509	-1.171265	1.307547	-0.498817	-0.013442	-0.580116	0.386202	-0.435546	0.208657	0.675781	-0.291087	-0.331868	0.019121	0.700452	-0.220221	-0.233221	-0.077737	0.080514	0.066132	-0.313884	0.198031	-1.374689	0.958338	0.053045	-0.256605	-0.887905	0.335951
-0.514119	0.355811	0.494673	-0.473282	0.392092	-0.615252	-0.285141	1.052348	0.572843	-0.900179	0.092222	-0.389873	-0.559976	0.216139	-0.581476	-0.738039	-0.346206	0.441888	-0.324184	0.638493	-0.096764	0.046541	0.199802	-0.013469	0.335335	-0.940666	0.118663	0.116828	-0.504489	0.618490	-0.251321	-0.342323	-0.184678	0.330747	0.343685	-0.231350	0.332929	0.167561	-0.478450	0.031389	0.092388	-0.901708	0.387057	-0.086871	-0.225136	0.248974	0.110494	-0.091633	-0.428260	0.640189	-1.348365	0.885689	-0.157865	0.283010	-0.237581	0.366513	-0.080769	0.067189	-0.423223	0.644987	-1.093413	0.176930	0.428236	-0.330617
0.697191	-0.539941	-0.840790	0.675042	0.227199	-0.609178	-0.129613	0.184597	-1.531890	1.124838	0.052584	0.318114	0.161800	0.500665	-0.820020	0.248345	0.886125	-0.191833	-0.340964	-0.886878	0.601741	-1.175138	1.153833	-0.322555	-0.226233	1.051683	-0.075436	0.306457	-0.001011	0.247252	-0.578095	-0.487681	-0.449603	-0.364625	0.216327	-0.578707	0.447370	0.224247	0.644847	-0.284854	-0.380148	1.030154	-0.499048	0.652906	0.190959	-0.702682	-0.307559	0.135208	0.172465	-0.227948	-0.697137	0.191835	0.438960	0.384330	-0.070490	-0.527246	0.257023	-1.232793	0.979925	-0.493889	-0.423118	-0.550892	-0.352174	0.429431
-0.207900	0.286242	0.081638	-0.090491	-0.584040	0.624480	-1.225335	0.666599	-0.011632	-0.624916	-0.925103	1.755152	0.200166	-0.866844	0.161632	-0.389958	0.362693	0.071595	-0.233560	-0.482619	-0.445716	0.078375	0.485573	-0.292075	-0.991562	0.133255	0.019062	-0.171847	0.053256	-0.408529	0.002913	-0.792131	0.588689	0.096931	0.278247	-0.152216	0.406896	-0.952968	1.012673	-0.216549	-0.261379	-0.542346	-0.587288	0.163468	-0.257031	0.066714	-1.237456	1.067656	-0.081151	-0.242719	0.082022	-0.793349	0.597359	0.798027	-1.508023	0.068716	0.151210	-0.177739	-0.699545	0.813737	-0.445631	0.606926	0.130553	-1.121590
-0.147515	0.027085	0.067715	0.132484	0.093006	-0.063233	-0.564000	0.963179	-0.146353	-0.375362	-0.593081	0.620951	-0.265480	0.141153	-0.251886	-0.577755	1.151970	-0.617911	0.337051	0.055631	-0.696007	-0.106591	-0.051397	0.068346	-0.826534	-0.221264	-0.083760	-0.217115	0.788074	-0.540648	0.574205	-0.528235	-0.475235	0.475341	-0.180441	0.148819	0.174488	-0.357001	-0.301190	0.595628	-0.205811	0.492387	-0.324949	0.014607	-0.571159	-0.633128	0.946829	-0.578826	0.678883	-0.681372	0.477641	-0.455577	0.380095	0.588775	-0.103936	0.243636	-0.552175	0.376078	-0.123333	-0.564885	-0.048209	0.050162	0.731596	-1.396054
-1.207825	0.583317	-0.086490	-0.545803	0.046970	-0.859949	0.428203	0.236300	1.369322	-0.875825	-0.078048	0.021263	-0.098308	0.698093	-0.734506	-0.235982	-0.309852	-0.020532	0.583830	-0.327426	-0.254465	-0.557253	0.333551	-0.284909	-0.283518	1.005605	-0.904291	0.070752	0.032138	0.854099	-0.747594	0.060047	0.510262	-0.996524	-0.027616	0.661645	0.318342	-0.846329	0.580277	-0.029045	-0.502394	0.563241	0.142548	-0.632716	0.220384	0.158576	-1.199462	0.766337	-0.281304	-0.220802	0.208615	-0.116114	-0.194543	0.712963	0.359141	0.686287	0.590551	-0.468653	-0.010272	0.474492	-0.220507	0.323071	-0.408842	-0.687557
-0.467987	0.308913	-0.745233	0.905048	-0.897972	0.259342	-0.892462	0.335264	-0.268185	0.373824	-0.724028	-0.571525	0.230573	-0.230807	0.496844	-0.407483	-0.608718	0.846265	-0.142082	0.454861	-1.389675	1.138802	-0.193616	-1.003187	-0.083297	-0.083171	0.081770	-0.609222	0.433581	-1.239669	-0.434339	0.879709	0.372449	-0.425457	-0.086587	0.424597	-0.190692	0.343802	-0.115315	-0.337397	-0.561467	0.454532	-0.826382	0.725359	0.135975	-0.463383	1.023190	-0.092818	0.340731	-0.673255	0.694422	-0.776842	0.228862	-0.749290	-0.462252	-0.552486	-0.903402	0.277227	-0.395674	0.466196	0.057492	-0.305740	0.547028	-0.248520
0.704750	-1.241191	0.326647	-0.321528	0.417808	0.979256	-0.650147	-0.519717	-0.187533	0.260928	-0.696842	0.264931	-0.310440	-1.435158	0.539756	0.067261	-0.036966	-0.397517	0.488733	-0.067649	-0.331817	0.406129	0.229963	-0.282215	-0.592827	0.392184	-0.636101	-0.367110	1.320874	-0.593583	0.125333	-0.322954	1.046911	-0.178801	0.200490	0.605144	-0.448043	0.139461	-0.131247	0.212200	-0.036272	-0.024031	-0.500662	-0.014390	-0.988769	0.254210	0.425127	-0.291134	0.273957	-0.416984	-0.025012	-0.096730	0.391038	-0.459507	-0.011511	0.233038	-0.894374	0.622787	0.163572	-0.349212	-0.014330	0.375209	-1.184075	0.906248
-0.442689	0.546124	0.032731	0.270642	-0.853528	-0.274879	-0.192433	0.307039	-0.592841	0.308966	-0.652764	-0.261472	-0.027182	0.639790	-0.132014	-0.487353	0.070537	-0.889894	0.715967	-0.717014	0.418776	0.593588	-0.696794	0.222857	0.012872	0.789229	-0.123211	-0.307799	-0.508564	-0.052295	0.249514	0.823475	-0.378319	-0.304512	-0.902671	0.458789	0.183837	-0.000888	0.009963	-0.623092	-1.278833	0.583979	-0.860516	0.753146	-0.814929	-0.048063	0.083561	-0.620664	2.064308	-0.766855	0.162743	0.187193	-0.875525	0.083622	0.270441	0.576144	-1.149460	-0.000401	0.104442	-0.348206	0.094396	0.628919	-1.171566	-0.520822
-0.522182	-0.320688	-0.195279	0.337046	-0.589214	0.633131	-0.553850	-0.217184	0.168113	0.000303	-0.272485	0.224939	-0.197613	0.412783	0.134873	0.355867	0.461117	-0.185548	-0.375391	0.412120	-0.602485	-0.272407	0.165015	0.238647	-0.520340	0.112200	-0.088247	-0.032387	-0.643489	0.759677	0.621192	-1.311593	0.572822	-0.654134	0.807431	-0.061855	0.293983	-0.091134	-0.565467	0.189948	-0.287169	0.348497	-0.166495	0.299952	-0.318426	-0.147188	-0.154955	0.379164	-0.296901	-0.353224	-0.050799	0.030486	-0.124878	-0.867573	0.627943	-0.468046	0.655304	0.001281	-0.180431	0.424760	-0.524314	0.502604	0.621146	-0.385620
0.190854	-0.597146	0.637646	-0.223343	-0.226196	0.592947	-0.265912	-0.266519	-0.429961	-0.620614	-0.775977	0.171008	-0.536835	0.253810	0.476732	-0.118250	0.990792	-1.037698	0.799587	0.698126	-0.259947	-0.384132	-0.585016	0.564674	0.150245	1.251241	-0.971002	-0.353930	0.120898	-0.772377	-0.040118	0.168862	-0.655095	-0.855370	-0.140811	0.450387	-0.692007	0.432955	0.574113	-0.639762	0.334353	0.200959	0.747831	-0.749475	0.914626	-0.332673	-0.748226	0.291016	0.275060	-0.227335	-0.787820	0.324057	0.122505	-0.156797	0.152671	-0.130657	-0.395304	-0.020626	0.323666	-0.021865	-0.727967	0.578169	0.737619	-0.414296
