-0.161851	-0.115171	0.248988	-0.234408	0.084891	-0.398182	0.239948	-0.354434	-0.061961	0.196823	-0.385256	0.348449	-0.451899	0.542879	-0.514518	0.181499	-0.008590	-0.292116	0.566520	-0.690219	0.717125	-0.812183	0.546539	-0.507694	-0.080271	0.020387	-0.503747	0.255208	-1.000102	0.767317	-0.819252	0.391185	-0.127333	-0.508023	0.101442	-1.202723	0.417440	-0.792200	0.541113	-0.536332	0.011631	-0.133776	-0.560110	0.106230	-0.957349	0.438608	-0.570320	0.329793	-0.195088	-0.024328	-0.110157	-0.392491	0.019899	-0.301758	0.425315	-0.383424	0.000404	-0.233810	-0.101924	-0.060858	-0.125995	0.143318	-0.356231	0.182028
-0.124041	-0.095854	-0.115145	-0.080406	-0.177859	-0.097389	-0.213538	-0.051050	-0.177690	-0.021388	-0.218550	-0.038112	-0.114247	-0.140144	-0.069281	-0.262515	-0.102205	-0.182237	0.076749	-0.230223	-0.010636	-0.160561	-0.097069	-0.092366	-0.158536	-0.126925	-0.198891	-0.014712	-0.235640	0.009531	-0.204259	-0.126966	-0.200085	-0.286227	-0.176629	-0.550899	-0.079642	-0.240720	-0.011069	-0.245602	-0.049795	-0.317375	-0.278023	-0.231541	-0.391637	-0.105108	-0.296019	-0.069727	-0.319343	0.087216	-0.388073	-0.218345	-0.199522	-0.237900	-0.065670	-0.251233	0.010640	-0.390491	0.077946	-0.334117	-0.083905	-0.145250	-0.200804	-0.097982
-0.218788	-0.085193	-0.371904	-0.087989	-0.246117	-0.134784	-0.133426	-0.125146	-0.077383	-0.388598	-0.123859	-0.355102	-0.164979	-0.202897	-0.219438	-0.070829	-0.317322	-0.039806	-0.450138	-0.168990	-0.250819	-0.245491	-0.120416	-0.173935	-0.029054	-0.303159	-0.115174	-0.247622	-0.152064	-0.167782	-0.279523	-0.056618	-0.271091	0.204083	-0.278633	0.241379	-0.183305	-0.207614	-0.026525	-0.175064	0.037481	-0.297328	0.358022	-0.272584	0.041459	-0.042307	-0.171720	0.020332	-0.224072	0.067861	-0.316935	0.224989	-0.150328	-0.128277	-0.070665	-0.155598	0.010718	-0.234659	0.056167	-0.201359	-0.066279	-0.125464	-0.114432	-0.023043
-0.138137	-0.115003	-0.251218	-0.108280	-0.206656	-0.119502	-0.133393	-0.134918	-0.018052	-0.360182	-0.101760	-0.410319	-0.143960	-0.375138	-0.105025	-0.112049	-0.287102	0.039421	-0.571923	-0.024541	-0.493067	-0.107551	-0.376159	-0.060027	0.032481	-0.295374	-0.051102	-0.429978	0.000391	-0.525449	-0.072523	-0.248117	-0.229048	0.318314	-0.327954	0.582139	-0.425610	-0.049638	-0.292291	-0.058817	0.053214	-0.225756	0.515705	-0.288124	0.194940	-0.130950	-0.081371	-0.070913	-0.174041	0.039208	-0.153000	0.249372	-0.189618	-0.055761	-0.092845	-0.100239	0.048376	-0.119355	-0.072585	-0.057181	-0.019955	-0.046385	-0.101817	-0.041510
-0.098639	-0.115899	-0.219406	-0.034618	-0.289067	0.003892	-0.351286	-0.010922	-0.070254	-0.311831	-0.006008	-0.567226	0.029835	-0.557197	0.077300	-0.308963	-0.141800	-0.051605	-0.613913	0.164801	-0.692859	0.055295	-0.560859	0.014575	-0.050094	-0.147631	0.019560	-0.490539	0.123894	-0.678248	0.006911	-0.279388	-0.093686	0.230449	-0.202024	0.762210	-0.450412	0.002212	-0.380917	-0.030019	-0.115712	-0.025567	0.419486	-0.197615	0.297533	-0.184676	-0.028431	-0.180487	-0.050830	-0.103882	0.010533	0.190512	-0.130811	-0.051077	-0.131808	-0.035820	-0.088133	-0.011650	-0.202866	0.016938	-0.105816	-0.047350	-0.063099	-0.094455
-0.226122	-0.088634	-0.322608	0.083776	-0.324904	-0.009484	-0.262505	-0.092695	-0.073699	-0.205022	0.122276	-0.275769	0.116093	-0.220043	-0.012851	-0.218647	-0.237092	0.051555	-0.148698	0.109415	-0.132147	-0.006028	-0.035261	-0.186974	-0.074185	-0.178640	-0.031821	-0.083543	-0.110076	0.066869	-0.219286	-0.015843	-0.131106	-0.016224	-0.044523	-0.312702	0.106050	-0.309199	0.111309	-0.393203	-0.198531	-0.048580	-0.325051	0.043273	-0.523846	-0.003954	-0.485441	-0.054934	-0.140358	-0.262074	-0.071488	-0.485046	0.025483	-0.549308	0.058402	-0.453881	-0.241312	-0.135946	-0.219848	-0.171018	-0.464043	-0.067497	-0.522692	-0.079711
-0.202204	-0.200111	-0.113974	-0.057095	-0.225202	-0.019266	-0.267547	-0.059583	-0.254721	-0.021921	-0.115402	-0.146831	-0.005464	-0.166104	0.019310	-0.234438	-0.128124	-0.248879	0.000718	-0.056728	-0.150417	0.117616	-0.222320	-0.011881	-0.338811	-0.085950	-0.178710	-0.125712	-0.033222	-0.161898	0.155057	-0.291254	-0.082514	-0.561653	-0.030382	-0.477325	-0.101649	0.091863	-0.285540	0.069463	-0.424187	0.014709	-0.741316	0.060613	-0.250890	-0.222038	0.014140	-0.351596	-0.068237	-0.496858	0.118825	-0.547551	0.055370	-0.185399	-0.186900	-0.021793	-0.396991	0.025542	-0.522626	0.035171	-0.411416	-0.023242	-0.156148	-0.210272
-0.013911	-0.156677	-0.091547	-0.142919	-0.136993	-0.128531	-0.148655	-0.158203	-0.134230	-0.122700	-0.172181	-0.265619	-0.110060	-0.309226	-0.165935	-0.165960	-0.020096	-0.158491	-0.301149	-0.071200	-0.451238	-0.165560	-0.412517	-0.166708	-0.140669	-0.036654	-0.090339	-0.322044	-0.078142	-0.520371	-0.090309	-0.279733	-0.045099	0.035143	-0.164448	0.432801	-0.451510	-0.109215	-0.468917	-0.043069	-0.038321	-0.076119	0.300863	-0.281430	0.296392	-0.353870	0.093468	-0.258746	-0.091438	-0.061966	-0.140270	0.255144	-0.278547	0.133712	-0.372127	0.044563	-0.070517	-0.088781	-0.066800	-0.144879	0.060150	-0.253855	0.081966	-0.231028
-0.137014	-0.214281	-0.066116	-0.191459	-0.110880	-0.180466	-0.098031	-0.138932	-0.287176	-0.010265	-0.273668	0.000019	-0.193702	-0.046652	-0.176484	-0.110249	-0.078069	-0.303038	0.062344	-0.264259	-0.020882	-0.122502	-0.063327	-0.125990	-0.285205	-0.135492	-0.199167	-0.118704	-0.095731	-0.082063	-0.002985	-0.093534	-0.225308	-0.462264	-0.168201	-0.511091	-0.151585	0.008830	-0.172959	-0.032023	-0.184051	-0.213501	-0.469011	-0.184053	-0.216388	-0.248243	0.053690	-0.231651	-0.205596	-0.131383	-0.179831	-0.293433	-0.203136	0.053863	-0.289793	0.001536	-0.194209	-0.187708	-0.146265	-0.152228	-0.063026	-0.248712	0.053922	-0.262494
-0.228888	-0.085586	-0.337037	-0.077616	-0.236254	-0.136391	-0.172532	-0.101241	-0.100933	-0.309952	-0.142857	-0.281277	-0.135943	-0.225652	-0.168481	-0.169123	-0.258768	-0.069658	-0.287555	-0.147233	-0.179132	-0.224049	-0.140062	-0.148250	-0.060079	-0.261369	-0.119307	-0.111999	-0.187814	-0.072397	-0.264357	-0.122499	-0.247537	0.112484	-0.194667	0.089805	-0.095616	-0.261489	-0.004601	-0.202023	-0.050483	-0.228104	0.190657	-0.190509	-0.044000	-0.056344	-0.147285	-0.041109	-0.160985	-0.062436	-0.294997	0.065206	-0.148174	-0.097468	-0.152104	-0.126141	-0.094076	-0.238434	-0.025342	-0.252604	-0.072812	-0.162218	-0.114127	-0.146010
-0.094885	-0.113286	-0.186740	-0.156023	-0.214576	-0.071000	-0.325208	-0.056031	-0.181312	-0.130503	-0.173559	-0.202270	-0.129429	-0.349787	-0.036365	-0.287702	-0.054662	-0.199754	-0.204197	-0.177263	-0.279336	-0.161603	-0.353133	-0.082073	-0.165168	-0.045496	-0.228733	-0.090437	-0.226331	-0.285461	-0.156594	-0.312242	-0.086797	0.011775	-0.113134	0.152391	-0.233598	-0.179525	-0.231213	-0.080445	-0.038830	-0.192014	0.215788	-0.221767	0.076526	-0.160506	-0.106982	-0.181011	-0.150498	-0.017807	-0.255808	0.209610	-0.214763	-0.054154	-0.199672	-0.104149	-0.047791	-0.230712	0.006005	-0.199910	-0.045140	-0.167738	-0.061531	-0.178102
-0.170651	-0.002711	-0.285995	0.000322	-0.276117	-0.013325	-0.203285	-0.044536	0.006520	-0.313633	-0.015803	-0.444101	-0.014795	-0.458371	-0.019954	-0.216327	-0.210151	-0.007529	-0.594272	0.065034	-0.613231	-0.039641	-0.520585	0.011630	0.059848	-0.248154	0.005806	-0.500685	0.076074	-0.647346	-0.015558	-0.296589	-0.259826	0.370209	-0.323042	0.796906	-0.596338	0.011745	-0.426188	0.028945	0.119573	-0.300609	0.641045	-0.483436	0.469424	-0.319182	0.068001	-0.239243	-0.263123	0.219293	-0.356949	0.529535	-0.400733	0.163255	-0.298269	0.046597	0.114025	-0.287710	0.166888	-0.256059	0.179557	-0.253219	0.094534	-0.140063
-0.213322	-0.074003	-0.176643	-0.120064	-0.136538	-0.146763	-0.140856	-0.223995	-0.146607	-0.148346	-0.073953	-0.065557	-0.117876	-0.102659	-0.164794	-0.137400	-0.133620	-0.067410	-0.034172	-0.079869	-0.032814	-0.117273	-0.057915	-0.170017	-0.168650	-0.164275	-0.122795	-0.051902	-0.069434	-0.028873	-0.123968	-0.107390	-0.137875	-0.291720	-0.126116	-0.402949	-0.093363	-0.114438	-0.082467	-0.188264	-0.172449	-0.199091	-0.376278	-0.154801	-0.240251	-0.168465	-0.136410	-0.166970	-0.181046	-0.184314	-0.213780	-0.288748	-0.149496	-0.144156	-0.148106	-0.205927	-0.231232	-0.199465	-0.126388	-0.261099	-0.188016	-0.220568	-0.191200	-0.209112
-0.139552	-0.161958	0.034838	-0.289463	0.049753	-0.383809	0.141665	-0.290916	-0.186322	-0.011647	-0.394666	0.076682	-0.390392	0.182699	-0.382304	0.117857	-0.114453	-0.323236	0.067615	-0.408582	0.058171	-0.327405	0.107811	-0.286556	-0.223384	-0.191184	-0.254598	-0.156190	-0.259422	-0.033765	-0.128653	0.030448	-0.248479	-0.467182	-0.292193	-0.591241	-0.214119	0.023972	-0.151357	-0.070948	-0.103807	-0.337857	-0.375139	-0.330366	-0.203590	-0.323333	0.075474	-0.165277	-0.242970	0.040124	-0.373820	-0.085029	-0.485390	0.279154	-0.300058	0.047356	0.017050	-0.263300	0.086773	-0.324906	0.255228	-0.373439	0.198820	-0.212527
-0.198169	-0.171881	-0.137561	-0.129534	-0.152642	-0.134186	-0.195371	-0.128528	-0.148252	-0.131037	-0.068796	-0.105505	-0.058745	-0.091171	-0.099349	-0.204313	-0.163076	-0.062681	-0.101548	0.020447	-0.129613	0.031093	-0.139331	-0.104991	-0.194088	-0.172084	-0.039262	-0.179578	0.058334	-0.153190	-0.016655	-0.163728	-0.066462	-0.373592	-0.119691	-0.282129	-0.145276	-0.075721	-0.148804	-0.134828	-0.400381	-0.002907	-0.539651	-0.054176	-0.302565	-0.133346	-0.117437	-0.188809	0.025391	-0.487665	-0.007899	-0.493483	-0.020160	-0.227573	-0.140685	-0.173170	-0.457313	0.022098	-0.407491	-0.065269	-0.326977	-0.104138	-0.233734	-0.179653
-0.224808	-0.135440	-0.433443	-0.027101	-0.408955	0.030865	-0.376062	0.042907	-0.110840	-0.512848	-0.087205	-0.687041	0.034552	-0.580419	0.051882	-0.300612	-0.340587	-0.124233	-0.718542	0.123755	-0.571732	0.070913	-0.404361	-0.030770	-0.087295	-0.253839	-0.039417	-0.323104	0.008788	-0.348937	-0.066410	-0.161726	-0.098002	0.307753	-0.185297	0.647582	-0.083950	-0.162025	-0.070284	-0.192983	-0.214480	0.060601	0.333542	-0.012179	0.019990	0.122624	-0.310248	0.027550	0.024404	-0.240869	0.122710	-0.014822	0.130706	-0.324819	0.193210	-0.274128	-0.199763	0.050354	-0.356265	0.149660	-0.338640	0.162427	-0.324758	0.141187
0.144960	-0.448066	0.515673	-0.564614	0.319357	-0.564050	0.289517	-0.487108	-0.455415	0.573398	-0.853490	0.742442	-0.757599	0.748356	-0.682224	0.326968	0.377080	-0.767546	1.069611	-1.171868	1.050080	-1.098096	0.811372	-0.678456	-0.529907	0.515849	-1.023189	0.832240	-1.441885	1.103671	-1.055097	0.450506	0.334330	-1.046193	0.641129	-1.845031	0.907629	-1.172778	0.831664	-0.751201	-0.362898	0.219595	-1.199309	0.656306	-1.461058	0.770017	-0.823592	0.486131	0.107979	-0.475918	0.343099	-1.024577	0.519187	-0.777767	0.685311	-0.576231	-0.268328	0.074520	-0.464236	0.306365	-0.513154	0.451723	-0.592389	0.322423
0.040051	-0.191071	-0.034310	-0.180778	-0.142884	-0.066324	-0.283009	-0.062502	-0.242135	0.007550	-0.191645	-0.175690	-0.070703	-0.461207	-0.007807	-0.344725	0.156064	-0.310874	-0.119466	-0.119483	-0.434987	-0.029531	-0.514850	-0.068980	-0.253006	0.131836	-0.217312	-0.159400	-0.056134	-0.523932	-0.127675	-0.346402	0.114478	-0.104988	0.040873	0.313996	-0.331354	-0.172128	-0.451012	-0.070544	-0.219213	0.044295	0.163928	-0.239308	0.322567	-0.338204	-0.022612	-0.289058	0.028601	-0.207824	-0.092889	0.299943	-0.316687	0.076745	-0.380302	-0.013391	-0.176122	-0.032490	-0.113210	-0.185278	0.074701	-0.284921	0.020258	-0.289459
-0.100123	-0.203407	0.019788	-0.081165	-0.213405	-0.032238	-0.142133	-0.053998	-0.241608	0.065359	-0.310886	-0.104495	-0.097458	-0.052644	-0.035583	-0.169186	-0.084192	-0.288551	0.068199	-0.250085	-0.054165	-0.169911	-0.119528	-0.054943	-0.202763	-0.180699	-0.255739	-0.157900	-0.275340	-0.010052	-0.091438	-0.138522	-0.266608	-0.427329	-0.239821	-0.636602	-0.119046	-0.183535	-0.092335	-0.092339	-0.122979	-0.239891	-0.547648	-0.215275	-0.418359	-0.149834	-0.105969	-0.140955	-0.229236	-0.094584	-0.242911	-0.312088	-0.307629	-0.061829	-0.118939	-0.081199	-0.100908	-0.171845	-0.102694	-0.231331	0.009091	-0.175651	-0.043867	-0.071742
-0.170952	-0.045979	-0.281039	-0.048880	-0.215766	-0.109111	-0.141264	-0.107326	-0.006157	-0.360454	-0.065167	-0.443580	-0.098242	-0.328817	-0.130987	-0.175555	-0.235582	0.027931	-0.580330	0.023918	-0.493107	-0.142757	-0.389206	-0.052170	-0.000282	-0.228109	-0.042570	-0.450457	-0.054539	-0.519421	-0.112554	-0.241866	-0.147740	0.195400	-0.257197	0.619447	-0.454152	-0.075818	-0.297794	-0.084825	-0.012146	-0.112519	0.416912	-0.303910	0.290618	-0.183029	-0.027763	-0.144109	-0.083156	-0.047499	-0.130290	0.256280	-0.239909	0.030603	-0.147379	-0.037460	-0.057262	-0.089471	-0.044557	-0.100646	0.041613	-0.120485	-0.016392	-0.101264
-0.061172	-0.182682	-0.088564	-0.185913	-0.102095	-0.198488	-0.197348	-0.159077	-0.224479	-0.082752	-0.168774	-0.029288	-0.178792	-0.143896	-0.174063	-0.198962	-0.001509	-0.191316	-0.081819	-0.120800	-0.187168	-0.092890	-0.220960	-0.171627	-0.221134	-0.044226	-0.152291	-0.104501	-0.027056	-0.247496	-0.123875	-0.210704	-0.008137	-0.152488	-0.056221	0.008342	-0.241908	-0.082483	-0.296006	-0.106504	-0.193348	-0.091227	-0.063800	-0.196150	0.118337	-0.352780	-0.039830	-0.261715	-0.121005	-0.186867	-0.155325	0.043558	-0.244512	0.019055	-0.339293	-0.099720	-0.218699	-0.152849	-0.129283	-0.232169	-0.052956	-0.303297	-0.054249	-0.267354
-0.198834	-0.065704	-0.296348	0.038956	-0.218095	-0.080468	-0.153031	-0.215515	-0.012637	-0.209034	0.130705	-0.213430	-0.018462	-0.050731	-0.189422	-0.083689	-0.268937	0.149946	-0.152918	0.030842	0.008818	-0.171735	0.075851	-0.265074	0.068539	-0.312628	0.065597	-0.053527	-0.201614	0.106997	-0.270257	-0.012804	-0.276422	0.110529	-0.195678	-0.316200	0.086576	-0.332964	0.129236	-0.400432	-0.060451	-0.200865	-0.217420	-0.025264	-0.545593	-0.035585	-0.482196	-0.050873	-0.163207	-0.142137	-0.159823	-0.441109	-0.073578	-0.544782	0.015654	-0.449853	-0.206656	-0.159940	-0.150725	-0.181184	-0.364314	-0.106344	-0.483234	-0.069445
-0.187953	-0.114383	-0.113795	-0.032285	-0.235371	0.024215	-0.272607	-0.016072	-0.124794	-0.078933	-0.095944	-0.118231	-0.026451	-0.155534	-0.010029	-0.290912	-0.169221	-0.174668	0.026585	-0.155942	-0.060924	-0.098855	-0.156876	-0.028841	-0.109024	-0.182281	-0.175566	-0.061928	-0.226392	0.000244	-0.102543	-0.172279	-0.220053	-0.318620	-0.131476	-0.623574	-0.023066	-0.235837	-0.100851	-0.118545	-0.128810	-0.205365	-0.510330	-0.075187	-0.501016	-0.060985	-0.198005	-0.216271	-0.203453	-0.158265	-0.158790	-0.437696	-0.122428	-0.283755	-0.110546	-0.171607	-0.171463	-0.189069	-0.164409	-0.162581	-0.246480	-0.129842	-0.157784	-0.152815
-0.312705	0.026305	-0.478713	0.018477	-0.287742	-0.077266	-0.157253	-0.095708	0.136227	-0.631077	0.063326	-0.646634	-0.046228	-0.397149	-0.101251	-0.104473	-0.518692	0.178232	-0.846689	0.159651	-0.594892	-0.052161	-0.268552	-0.062658	0.191199	-0.418352	0.106885	-0.511740	0.088802	-0.411199	-0.110229	-0.100184	-0.307580	0.510872	-0.400238	0.850084	-0.333847	-0.030293	-0.163208	-0.134893	0.018036	-0.236578	0.617439	-0.257178	0.261890	-0.033670	-0.173836	0.006636	-0.167398	0.084987	-0.173241	0.232548	-0.146252	-0.099191	0.029666	-0.125240	0.034370	-0.183528	-0.044843	-0.094096	-0.090748	-0.015925	-0.149333	-0.011677
0.105207	-0.428593	0.496425	-0.583641	0.278654	-0.485519	0.268813	-0.410087	-0.428050	0.540155	-0.806672	0.692491	-0.684031	0.737332	-0.612603	0.240618	0.320409	-0.726514	1.012091	-1.107868	1.005805	-1.034964	0.721856	-0.569642	-0.514914	0.455572	-0.999451	0.759086	-1.336762	0.995296	-0.935461	0.386618	0.285235	-1.015014	0.575983	-1.719794	0.778415	-1.034977	0.719304	-0.637412	-0.370158	0.235346	-1.078084	0.504694	-1.292874	0.678064	-0.744362	0.414322	0.103561	-0.389108	0.257841	-0.867404	0.403990	-0.651371	0.568701	-0.566324	-0.227245	0.057161	-0.436861	0.183895	-0.401798	0.401333	-0.529915	0.270349
-0.365580	0.208821	-0.370023	0.082939	-0.153952	-0.129464	-0.008678	-0.225174	0.257777	-0.406780	0.321537	-0.238687	-0.073386	0.146087	-0.327928	0.138594	-0.496002	0.376901	-0.276049	0.065609	0.146247	-0.510381	0.397821	-0.476561	0.445140	-0.542479	0.181545	-0.058914	-0.463312	0.472291	-0.631622	0.221257	-0.536440	0.414136	-0.271382	-0.499573	0.273588	-0.629676	0.425456	-0.636633	0.185924	-0.364541	-0.150028	0.018538	-0.870729	0.149165	-0.805652	0.151236	-0.376049	0.116564	-0.170526	-0.492244	-0.069022	-0.742368	0.178067	-0.572439	0.046664	-0.241603	-0.075208	-0.145545	-0.368368	-0.016364	-0.607951	0.019891
-0.210416	-0.089581	-0.430838	-0.062217	-0.286365	-0.094338	-0.165262	-0.104538	-0.028687	-0.535355	-0.068199	-0.577067	-0.058172	-0.380176	-0.082746	-0.084876	-0.410874	0.004080	-0.709195	0.008097	-0.533786	-0.072052	-0.255406	-0.127445	0.053792	-0.372433	-0.025872	-0.421036	-0.002876	-0.363493	-0.143075	-0.042977	-0.277946	0.405720	-0.336713	0.632143	-0.245077	-0.112200	-0.071559	-0.156408	0.046610	-0.215112	0.526255	-0.149494	0.104563	-0.001806	-0.195381	0.026129	-0.234402	0.066109	-0.155448	0.142246	-0.045810	-0.192613	0.087170	-0.203821	0.057025	-0.159423	-0.062338	-0.010762	-0.188500	0.075369	-0.219224	0.090724
-0.210231	-0.016143	-0.192989	-0.024787	-0.178832	-0.092063	-0.165325	-0.166532	-0.056351	-0.179332	0.025654	-0.103298	-0.047148	-0.109838	-0.102437	-0.177151	-0.213298	0.014186	-0.060853	-0.036212	-0.040263	-0.098697	-0.125546	-0.127938	-0.050946	-0.243780	-0.049204	-0.061799	-0.179186	0.011220	-0.152311	-0.111123	-0.184862	-0.193014	-0.136421	-0.535130	-0.010883	-0.263609	-0.014727	-0.237386	-0.125921	-0.172487	-0.430093	-0.054542	-0.515048	-0.090383	-0.306528	-0.162840	-0.202865	-0.160841	-0.161608	-0.458083	-0.107761	-0.351445	-0.112153	-0.251289	-0.164834	-0.211730	-0.180733	-0.200497	-0.275946	-0.117251	-0.308392	-0.138129
-0.331908	-0.074727	-0.390453	-0.055357	-0.196373	-0.150186	-0.095741	-0.231042	0.063495	-0.460009	0.207072	-0.325989	-0.066588	-0.090115	-0.209604	-0.010222	-0.501008	0.279513	-0.450660	0.212133	-0.098396	-0.112872	0.129000	-0.311234	0.098485	-0.459669	0.203027	-0.209772	-0.080840	0.134694	-0.258065	0.040964	-0.295438	0.405860	-0.208760	0.029471	0.170165	-0.310984	0.207171	-0.422812	-0.113593	-0.084054	-0.156926	0.166067	-0.600172	0.179428	-0.599649	0.086817	-0.089512	-0.348196	0.136927	-0.599836	0.224628	-0.730713	0.220844	-0.510234	-0.285154	0.065203	-0.446212	0.131881	-0.683767	0.143451	-0.603739	-0.005526
-0.148621	-0.153487	-0.164626	-0.168977	-0.104399	-0.200414	-0.109702	-0.252940	-0.139152	-0.170597	-0.091202	-0.071649	-0.185598	-0.096761	-0.229097	-0.141575	-0.130812	-0.102470	-0.090829	-0.054601	-0.116590	-0.091915	-0.146431	-0.190411	-0.186935	-0.080322	-0.129315	-0.108429	-0.014137	-0.151917	-0.109112	-0.160234	-0.088453	-0.200171	-0.070255	-0.099052	-0.155171	-0.057525	-0.215098	-0.125420	-0.240012	-0.084029	-0.213555	-0.133711	-0.012135	-0.248618	-0.035260	-0.227355	-0.108808	-0.251421	-0.164642	-0.188720	-0.163825	-0.065921	-0.250587	-0.082591	-0.269873	-0.133493	-0.231580	-0.212142	-0.166039	-0.260946	-0.112058	-0.285087
-0.239720	-0.137954	-0.290858	-0.162439	-0.160746	-0.170613	-0.226025	-0.130804	-0.090150	-0.294122	-0.183570	-0.288197	-0.192814	-0.257577	-0.123960	-0.171819	-0.284125	-0.098536	-0.369717	-0.112770	-0.300492	-0.162131	-0.199767	-0.151984	-0.075419	-0.253115	-0.107147	-0.268987	-0.066944	-0.278153	-0.193229	-0.113762	-0.182189	0.113007	-0.244728	0.310453	-0.271911	-0.088681	-0.120254	-0.168429	-0.079600	-0.154725	0.222747	-0.149929	0.034521	-0.066288	-0.175501	-0.029614	-0.110538	-0.111391	-0.082638	-0.050838	-0.033486	-0.180227	-0.020633	-0.187345	-0.100548	-0.063886	-0.193119	-0.016076	-0.213428	-0.039246	-0.195670	-0.017628
-0.185175	-0.164219	-0.186266	-0.005044	-0.312763	0.044931	-0.338288	-0.015990	-0.168527	-0.082319	-0.036968	-0.186605	0.104445	-0.295373	0.080990	-0.348815	-0.121729	-0.160214	-0.044739	0.025842	-0.213297	0.147599	-0.243993	-0.022572	-0.272262	-0.038413	-0.180943	-0.085334	-0.008707	-0.151702	0.021544	-0.215120	-0.040195	-0.482243	0.014506	-0.444058	-0.045224	-0.103735	-0.098300	-0.158884	-0.448371	0.022228	-0.578672	0.029739	-0.367391	-0.096070	-0.188339	-0.191047	-0.022240	-0.443589	0.006802	-0.460508	0.020408	-0.332187	-0.061040	-0.257016	-0.413243	-0.049792	-0.390772	-0.091832	-0.392095	-0.035183	-0.307591	-0.123228
-0.122162	-0.239780	-0.099427	-0.161309	-0.223229	-0.054900	-0.313925	-0.099866	-0.296592	-0.004118	-0.112223	-0.132443	0.003034	-0.256552	-0.009862	-0.295275	-0.004642	-0.252651	-0.066205	-0.017983	-0.178456	0.125414	-0.244503	-0.050207	-0.361386	0.015453	-0.163491	-0.078803	0.063690	-0.210727	0.047991	-0.276677	0.018618	-0.396766	0.008476	-0.184981	-0.142330	-0.009736	-0.279905	-0.061299	-0.463806	0.073408	-0.466833	0.009310	-0.000817	-0.232290	-0.036298	-0.289845	0.026710	-0.522465	0.026180	-0.289983	-0.017568	-0.137659	-0.232886	-0.099272	-0.481869	0.060226	-0.421175	-0.043624	-0.311693	-0.094940	-0.194664	-0.248014
-0.188179	-0.111962	-0.149032	-0.050145	-0.173940	-0.101541	-0.220941	-0.136501	-0.039215	-0.126078	-0.004545	-0.117980	-0.047974	-0.100135	-0.116310	-0.177782	-0.187483	0.002096	-0.067755	-0.022901	-0.052402	-0.085610	-0.083514	-0.148951	-0.053123	-0.190277	-0.062855	-0.124139	-0.117520	-0.025610	-0.143605	-0.132071	-0.213051	-0.166161	-0.172998	-0.459763	-0.039706	-0.232970	-0.064428	-0.196029	-0.136920	-0.166502	-0.446197	-0.088987	-0.487207	-0.100715	-0.270492	-0.131160	-0.194905	-0.193939	-0.119331	-0.458104	-0.032028	-0.396595	-0.078292	-0.316627	-0.205756	-0.156597	-0.218942	-0.156772	-0.338391	-0.100078	-0.339374	-0.085596
-0.071771	-0.332105	0.093964	-0.340291	-0.053889	-0.204590	-0.061699	-0.163803	-0.456186	0.149183	-0.405562	0.115287	-0.233464	0.030714	-0.195357	-0.053540	0.065138	-0.469725	0.184515	-0.320741	0.009496	-0.038297	-0.067718	-0.129961	-0.418555	-0.037273	-0.259862	-0.102505	-0.016221	-0.129289	0.145719	-0.153813	-0.121791	-0.569184	-0.169586	-0.365630	-0.251084	0.201527	-0.305790	0.067175	-0.350877	-0.146061	-0.443089	-0.203706	0.091383	-0.396770	0.217550	-0.308054	-0.147113	-0.264513	-0.115230	-0.146285	-0.318872	0.257568	-0.403629	0.116141	-0.295166	-0.081436	-0.205025	-0.155808	0.002602	-0.326170	0.117700	-0.302544
-0.035062	-0.227730	0.361838	-0.607324	0.364392	-0.652962	0.404277	-0.452000	-0.230061	0.150752	-0.658613	0.444820	-0.822367	0.572065	-0.652621	0.268760	-0.016775	-0.441305	0.257556	-0.797602	0.419098	-0.705802	0.340201	-0.371187	-0.133175	-0.188322	-0.427621	-0.100741	-0.540044	0.234437	-0.295420	0.082241	-0.346416	-0.437735	-0.445224	-0.712930	-0.238922	-0.034610	-0.112230	-0.014552	0.168239	-0.600678	-0.074401	-0.619150	-0.060166	-0.397740	0.220397	-0.219467	-0.557354	0.491227	-0.678000	0.267917	-0.795124	0.566819	-0.479342	0.222824	0.367550	-0.595219	0.416553	-0.573780	0.600715	-0.630512	0.449407	-0.332605
0.043113	-0.229832	0.005435	-0.202699	-0.185671	-0.005278	-0.418188	0.013334	-0.328642	0.093873	-0.156335	-0.188457	0.000553	-0.461718	0.032186	-0.457377	0.177860	-0.337940	-0.052746	0.016640	-0.415984	0.123445	-0.544621	-0.044857	-0.390103	0.212646	-0.208570	-0.117791	0.008743	-0.527545	0.031342	-0.436993	0.230631	-0.312589	0.148169	0.253102	-0.269348	-0.030825	-0.531874	-0.019007	-0.516263	0.256668	-0.209205	-0.029766	0.289179	-0.352650	-0.011177	-0.409788	0.181197	-0.518884	0.197925	-0.016294	-0.097289	-0.069564	-0.362590	-0.030836	-0.440732	0.173160	-0.447264	0.073894	-0.261373	-0.068725	-0.121857	-0.328033
0.014652	-0.151668	0.001764	-0.262333	-0.005955	-0.182871	-0.124318	-0.128612	-0.188999	-0.019548	-0.212670	-0.080779	-0.231122	-0.261330	-0.151021	-0.229465	0.076871	-0.237635	-0.160061	-0.157274	-0.323932	-0.136877	-0.472834	-0.114999	-0.205409	0.028546	-0.157377	-0.229617	-0.103233	-0.536022	-0.070863	-0.394422	0.013651	-0.037767	-0.062733	0.338896	-0.364871	-0.047225	-0.594702	0.054989	-0.120484	-0.064906	0.202059	-0.230381	0.290124	-0.437072	0.134849	-0.396413	-0.015745	-0.133100	-0.077268	0.234649	-0.294902	0.138048	-0.472913	0.082287	-0.164262	-0.033752	-0.108866	-0.128748	0.057693	-0.307929	0.107304	-0.351666
-0.179997	-0.054793	-0.111714	-0.062944	-0.140489	-0.093896	-0.161193	-0.145155	-0.008025	-0.097196	-0.074034	-0.052693	-0.129901	-0.064539	-0.125673	-0.188777	-0.219008	-0.024305	-0.044667	-0.151216	0.014155	-0.236110	-0.051759	-0.113709	0.019018	-0.250916	-0.063956	-0.068018	-0.270198	0.053068	-0.230297	-0.147813	-0.276386	-0.123084	-0.224738	-0.549007	-0.010230	-0.311748	-0.013011	-0.207013	0.002083	-0.332119	-0.337700	-0.146853	-0.550348	-0.062452	-0.358464	-0.101035	-0.309673	0.041340	-0.236971	-0.400976	-0.149405	-0.336752	-0.067170	-0.292176	-0.024989	-0.314704	-0.065398	-0.223422	-0.225443	-0.112071	-0.291147	-0.085907
-0.164702	-0.108647	-0.006463	-0.157655	-0.096971	-0.151906	-0.049953	-0.119356	-0.170655	-0.040719	-0.257870	-0.003662	-0.263370	0.013515	-0.164995	-0.074122	-0.099970	-0.313229	0.058484	-0.336176	0.018544	-0.304967	-0.017323	-0.133633	-0.207434	-0.128063	-0.286458	-0.144825	-0.303768	0.014233	-0.121977	-0.061853	-0.208773	-0.526751	-0.217654	-0.698479	-0.138822	-0.123801	-0.126139	-0.026212	-0.079240	-0.274158	-0.506237	-0.264771	-0.360934	-0.246869	0.009152	-0.198606	-0.262491	0.020356	-0.322163	-0.253049	-0.370482	0.141210	-0.236586	-0.000074	0.044598	-0.265584	-0.015499	-0.235148	0.071280	-0.281758	0.112794	-0.140510
-0.180608	-0.179263	-0.319477	-0.064395	-0.396986	0.013506	-0.455603	0.036514	-0.167836	-0.306780	-0.141279	-0.578358	0.010130	-0.590488	0.096578	-0.414298	-0.124389	-0.189065	-0.466814	0.061471	-0.544326	0.035120	-0.511501	0.011704	-0.182968	-0.064425	-0.197970	-0.243055	-0.082403	-0.430934	-0.064913	-0.264324	0.026219	0.090714	-0.004856	0.431565	-0.159765	-0.198756	-0.173696	-0.159143	-0.318089	0.126604	0.176624	-0.013168	0.037859	0.022585	-0.257289	-0.122201	0.086806	-0.268789	0.126523	-0.013150	0.047455	-0.247230	0.054918	-0.193053	-0.252751	0.090426	-0.347242	0.137631	-0.285388	0.109952	-0.244396	0.033344
-0.124252	0.008875	0.005553	-0.149497	0.038329	-0.344997	0.116596	-0.270876	0.025670	-0.110291	-0.123917	0.082717	-0.379809	0.205722	-0.444490	0.064358	-0.204667	-0.003272	-0.001920	-0.364916	0.169035	-0.602349	0.173997	-0.378726	0.176065	-0.357101	-0.079939	-0.064838	-0.503509	0.217913	-0.541391	0.102068	-0.457183	-0.016899	-0.392431	-0.622193	-0.088317	-0.437610	0.102794	-0.373944	0.305552	-0.600128	-0.082458	-0.420152	-0.489181	-0.104043	-0.358948	0.011006	-0.509387	0.383037	-0.569730	-0.129571	-0.407671	-0.156670	-0.093534	-0.240611	0.284378	-0.492460	0.279446	-0.382648	0.133652	-0.268084	-0.060457	-0.115792
-0.100952	-0.063487	-0.178966	-0.123022	-0.150160	-0.095634	-0.203211	-0.041840	-0.003458	-0.281413	-0.025673	-0.372085	-0.072093	-0.419654	-0.007927	-0.247996	-0.154821	-0.004521	-0.537681	0.082255	-0.628052	-0.014326	-0.583295	0.030662	-0.007390	-0.193265	0.018116	-0.517498	0.058715	-0.663207	-0.004047	-0.370658	-0.089617	0.196202	-0.263886	0.754174	-0.508768	0.004868	-0.510890	0.084057	-0.088869	-0.104135	0.442089	-0.321918	0.408330	-0.320522	0.127476	-0.291267	-0.054966	-0.052857	-0.076239	0.325113	-0.278249	0.113111	-0.298984	0.071332	-0.118847	-0.063887	-0.111267	-0.103227	0.040727	-0.186159	0.093989	-0.181655
-0.240209	-0.067106	-0.287194	-0.145855	-0.122729	-0.223382	-0.061646	-0.196804	-0.044240	-0.343142	-0.125062	-0.189178	-0.228737	-0.070233	-0.259405	-0.018319	-0.309920	-0.035169	-0.300111	-0.196488	-0.111545	-0.305940	-0.040224	-0.220305	-0.035527	-0.303200	-0.110053	-0.142360	-0.156588	-0.098958	-0.290715	-0.056218	-0.284470	0.111664	-0.305207	0.077416	-0.198237	-0.173553	-0.020104	-0.217123	0.056052	-0.383840	0.283606	-0.311083	0.040750	-0.148957	-0.148978	-0.000252	-0.310130	0.116462	-0.403323	0.135390	-0.210406	-0.106301	-0.124848	-0.179089	0.046104	-0.363433	0.093273	-0.313809	0.006061	-0.203559	-0.063787	-0.091740
-0.169521	-0.154907	-0.180116	-0.159360	-0.141153	-0.164953	-0.147442	-0.230196	-0.164427	-0.122281	-0.044332	-0.101243	-0.108480	-0.099831	-0.211657	-0.153134	-0.129813	-0.074915	-0.118379	-0.034522	-0.059002	-0.043756	-0.039389	-0.181434	-0.164488	-0.179565	-0.018587	-0.130537	0.001443	-0.106457	-0.121954	-0.129670	-0.131969	-0.202552	-0.142463	-0.184865	-0.120279	-0.084171	-0.089719	-0.195132	-0.243970	-0.131184	-0.291696	-0.103380	-0.190321	-0.145382	-0.166009	-0.133757	-0.096701	-0.288779	-0.150086	-0.331162	-0.071981	-0.164981	-0.183016	-0.192317	-0.342323	-0.145325	-0.235705	-0.201098	-0.249379	-0.197684	-0.194084	-0.215176
-0.171434	-0.120216	-0.247498	-0.081843	-0.260773	-0.102678	-0.185537	-0.103703	-0.046094	-0.302834	-0.104569	-0.450001	-0.094004	-0.360321	-0.127949	-0.098257	-0.235155	-0.030892	-0.506675	-0.022009	-0.488121	-0.154073	-0.373311	-0.114255	-0.056933	-0.180962	-0.075019	-0.403373	-0.099308	-0.437403	-0.148463	-0.218621	-0.115109	0.162577	-0.206606	0.531620	-0.368676	-0.117765	-0.304041	-0.072739	-0.103571	-0.058572	0.332685	-0.239903	0.196455	-0.152792	-0.062738	-0.130921	-0.008244	-0.096967	-0.047257	0.178370	-0.175614	-0.023354	-0.134922	-0.038677	-0.111653	-0.021804	-0.160859	-0.044999	-0.044107	-0.097204	-0.036286	-0.104094
0.491378	-0.912699	1.043689	-0.968312	0.431395	-0.561331	0.184206	-0.299251	-0.928150	1.117391	-1.376012	1.154914	-0.810890	0.656200	-0.389345	0.038157	0.852399	-1.288370	1.569198	-1.494715	1.030421	-0.806625	0.370325	-0.261048	-1.043212	0.978925	-1.368192	0.939744	-1.245223	0.718338	-0.501108	-0.013341	0.747899	-1.457095	0.785605	-1.729860	0.625487	-0.672568	0.277983	-0.194207	-0.705682	0.487993	-1.226528	0.481258	-1.033471	0.292318	-0.246285	-0.016681	0.319318	-0.572729	0.304406	-0.798407	0.216238	-0.414297	0.143374	-0.142165	-0.363855	0.146325	-0.446384	0.170823	-0.210728	0.085261	-0.157208	-0.061578
-0.264227	-0.167879	-0.419741	-0.045945	-0.339722	-0.110353	-0.213839	-0.132830	-0.151339	-0.446159	-0.038988	-0.353645	-0.021421	-0.241374	-0.141434	-0.075399	-0.419926	-0.004632	-0.374329	0.039730	-0.186372	-0.089209	-0.026197	-0.220188	-0.046512	-0.340458	-0.026155	-0.109573	-0.101637	0.052053	-0.256278	0.034187	-0.245976	0.284150	-0.184011	0.139140	0.089304	-0.293265	0.199337	-0.349160	-0.104624	-0.158624	0.072633	-0.013454	-0.261711	0.108126	-0.400857	0.082997	-0.197283	-0.121845	-0.160065	-0.226084	0.049496	-0.430232	0.136206	-0.403763	-0.165412	-0.167060	-0.106869	-0.119771	-0.356456	0.047549	-0.432199	0.068140
-0.324176	-0.027067	-0.490033	-0.043757	-0.249046	-0.158103	-0.054929	-0.179772	0.070985	-0.632241	-0.104339	-0.547807	-0.163691	-0.267876	-0.201639	0.047981	-0.594027	0.087134	-0.756911	-0.023012	-0.388291	-0.185105	-0.110493	-0.176680	0.138169	-0.488194	0.011218	-0.371614	-0.087405	-0.180945	-0.178567	0.011704	-0.357105	0.496144	-0.431514	0.594327	-0.146607	-0.192868	-0.015593	-0.209653	0.054818	-0.275496	0.531643	-0.152651	0.028457	0.064274	-0.224637	0.103451	-0.206514	0.031678	-0.145298	0.103107	-0.023475	-0.203498	0.068236	-0.182051	0.035555	-0.150636	-0.069941	-0.021234	-0.218118	0.085697	-0.212383	0.080169
0.117621	-0.199495	0.078088	-0.328584	0.154582	-0.355680	0.082481	-0.255820	-0.164761	0.038872	-0.299158	0.079638	-0.358319	-0.025275	-0.291282	-0.035586	-0.009959	-0.185921	-0.116087	-0.306481	-0.198754	-0.297314	-0.228937	-0.195334	-0.115761	-0.062143	-0.150760	-0.227689	-0.100381	-0.422901	-0.187157	-0.243306	-0.110626	0.007467	-0.257637	0.303705	-0.546460	0.007040	-0.493466	-0.015348	0.063650	-0.333689	0.430832	-0.580193	0.459256	-0.584050	0.203179	-0.358595	-0.283568	0.183215	-0.494821	0.554210	-0.608037	0.356641	-0.635778	0.134934	0.126491	-0.374858	0.220590	-0.492263	0.362785	-0.598145	0.240518	-0.409066
-0.355600	-0.129181	-0.571606	-0.010836	-0.414210	-0.081989	-0.229316	-0.108257	-0.041449	-0.653499	0.001404	-0.673956	0.001519	-0.352282	-0.108778	-0.056308	-0.588332	0.024772	-0.765514	0.150922	-0.453047	-0.031402	-0.074756	-0.191883	0.008074	-0.462078	0.026447	-0.295404	-0.000300	-0.113971	-0.192756	-0.016256	-0.255447	0.499041	-0.265746	0.526658	0.058564	-0.261216	0.132397	-0.296182	-0.180276	0.020019	0.230681	0.104582	-0.187053	0.260665	-0.425170	0.150435	-0.022570	-0.284847	0.121574	-0.184121	0.213140	-0.417115	0.294500	-0.357577	-0.207006	0.048852	-0.328056	0.175200	-0.446176	0.230955	-0.439647	0.195453
-0.185858	-0.060963	-0.330463	-0.099604	-0.223117	-0.107251	-0.162320	-0.126383	0.001159	-0.424765	-0.087542	-0.486971	-0.083824	-0.393836	-0.105972	-0.105824	-0.328633	-0.002020	-0.692246	0.056872	-0.593536	-0.052596	-0.342316	-0.102832	-0.016617	-0.285442	0.030061	-0.530730	0.031964	-0.454518	-0.122882	-0.161023	-0.102626	0.245080	-0.324777	0.703730	-0.356107	-0.098165	-0.200004	-0.147931	-0.097361	-0.046613	0.432065	-0.218792	0.214493	-0.067847	-0.162376	-0.026272	0.007944	-0.133749	-0.031958	0.155550	-0.094127	-0.145374	0.005692	-0.101709	-0.099558	-0.007737	-0.193731	0.017853	-0.114614	0.015229	-0.144138	-0.019624
-0.151670	-0.130549	-0.117103	-0.271137	0.024034	-0.290573	0.010969	-0.293981	-0.108201	-0.212740	-0.152029	-0.067123	-0.283392	-0.054808	-0.324315	-0.033922	-0.215208	-0.046480	-0.265734	-0.115177	-0.171262	-0.213839	-0.171754	-0.202694	-0.080045	-0.204056	-0.082042	-0.229037	-0.062249	-0.326723	-0.108486	-0.235644	-0.149787	-0.030204	-0.226307	0.125239	-0.303077	-0.029661	-0.329285	-0.068794	-0.090293	-0.155721	0.077319	-0.242188	0.104379	-0.233363	-0.035394	-0.222716	-0.101171	-0.178427	-0.117961	0.004448	-0.131810	-0.035065	-0.246446	-0.048468	-0.148343	-0.103002	-0.174997	-0.134555	-0.096032	-0.198687	-0.096499	-0.235933
-0.298825	-0.124549	-0.332495	-0.164754	-0.178999	-0.176811	-0.026513	-0.230094	-0.060093	-0.415710	-0.087006	-0.249151	-0.190527	-0.142248	-0.241051	0.029496	-0.463169	0.055797	-0.389391	-0.103276	-0.055770	-0.238273	0.072475	-0.242102	0.034579	-0.425192	-0.048745	-0.152127	-0.136953	0.026910	-0.252734	0.054323	-0.416328	0.326292	-0.335259	0.169569	-0.046903	-0.182366	0.144253	-0.291428	0.056421	-0.387658	0.289319	-0.157056	-0.146630	0.035873	-0.374181	0.134277	-0.312871	0.012194	-0.312287	-0.037993	-0.032996	-0.358388	0.110384	-0.378273	-0.028020	-0.295488	-0.008744	-0.219733	-0.248736	-0.016065	-0.392343	0.078408
-0.162428	-0.135336	-0.118057	-0.152017	-0.114167	-0.107815	-0.172358	-0.111802	-0.147945	-0.121877	-0.131050	-0.047632	-0.147494	-0.081323	-0.119418	-0.195834	-0.146509	-0.138169	-0.030009	-0.160429	-0.005777	-0.143009	-0.084552	-0.083353	-0.156013	-0.208097	-0.136601	-0.085591	-0.148457	-0.047207	-0.052656	-0.151643	-0.207236	-0.352315	-0.155737	-0.502781	-0.081826	-0.119632	-0.123241	-0.080965	-0.147897	-0.203943	-0.457519	-0.142825	-0.325125	-0.170047	-0.117486	-0.183254	-0.223054	-0.185296	-0.174030	-0.374683	-0.118094	-0.169340	-0.152877	-0.147396	-0.130373	-0.235710	-0.163121	-0.171597	-0.209678	-0.175205	-0.105820	-0.215760
0.042144	-0.214176	-0.069648	-0.179831	-0.084176	-0.182677	-0.144209	-0.115078	-0.246313	-0.023200	-0.220557	-0.030350	-0.210593	-0.198369	-0.146257	-0.162783	0.041820	-0.222164	-0.104614	-0.219231	-0.187140	-0.189804	-0.256272	-0.170643	-0.146712	-0.032839	-0.168326	-0.096821	-0.173201	-0.291119	-0.205794	-0.269001	-0.071990	-0.000911	-0.151586	0.127055	-0.285319	-0.140972	-0.332242	-0.104491	-0.040387	-0.213961	0.170197	-0.321333	0.216081	-0.369279	0.030141	-0.268621	-0.167899	-0.006737	-0.323894	0.303958	-0.373596	0.097294	-0.460002	0.000314	-0.074573	-0.253154	0.052665	-0.342580	0.140985	-0.377601	0.108187	-0.351913
-0.168599	-0.195224	-0.125296	-0.248314	-0.028841	-0.235673	-0.092847	-0.200936	-0.161647	-0.122068	-0.120331	0.012438	-0.218095	-0.029092	-0.182791	-0.151684	-0.115282	-0.173933	-0.002442	-0.117560	-0.044085	-0.057124	-0.136281	-0.118789	-0.271705	-0.095810	-0.130588	-0.081807	0.029698	-0.150003	0.032750	-0.187538	-0.121162	-0.320689	-0.065176	-0.218326	-0.179478	0.064253	-0.292648	-0.036308	-0.244032	-0.141199	-0.395823	-0.088071	-0.064839	-0.290417	0.045719	-0.296352	-0.137828	-0.286911	-0.094147	-0.259351	-0.133633	-0.010051	-0.320232	-0.054467	-0.310788	-0.133979	-0.276323	-0.166210	-0.189471	-0.273698	-0.073097	-0.303425
-0.154512	-0.157284	-0.101864	-0.123158	-0.157084	-0.128616	-0.170685	-0.108577	-0.190931	-0.094193	-0.175245	-0.038787	-0.124436	-0.107387	-0.089405	-0.187993	-0.097103	-0.229580	0.014893	-0.153192	-0.065710	-0.077530	-0.101687	-0.081141	-0.237074	-0.131940	-0.182207	-0.113103	-0.124900	-0.075425	-0.041829	-0.147553	-0.203521	-0.413220	-0.161177	-0.502505	-0.112661	-0.108577	-0.097285	-0.092701	-0.173236	-0.196105	-0.494442	-0.141187	-0.316586	-0.167993	-0.080233	-0.191545	-0.206217	-0.193878	-0.154887	-0.379481	-0.156810	-0.085169	-0.183262	-0.120583	-0.186388	-0.170253	-0.200898	-0.156059	-0.146303	-0.187359	-0.117372	-0.180985
-0.104150	-0.198575	-0.038235	-0.185200	-0.061465	-0.165109	-0.107227	-0.170297	-0.185320	-0.010953	-0.255852	-0.027929	-0.215478	-0.025009	-0.183318	-0.111015	-0.127379	-0.235425	0.045991	-0.241874	-0.015902	-0.193040	-0.032690	-0.170082	-0.152687	-0.173487	-0.167828	-0.108656	-0.206116	0.010011	-0.163826	-0.073164	-0.244345	-0.301267	-0.256608	-0.505493	-0.086649	-0.175548	-0.074085	-0.163284	-0.037033	-0.321486	-0.327799	-0.282289	-0.313791	-0.138139	-0.131070	-0.125468	-0.285467	0.009593	-0.346511	-0.195929	-0.239477	-0.071425	-0.186129	-0.123213	-0.029478	-0.318600	0.025262	-0.285073	-0.049212	-0.240917	-0.093402	-0.148993
-0.267386	-0.069266	-0.385685	-0.091080	-0.211249	-0.156678	-0.088995	-0.176581	-0.022198	-0.423068	-0.136259	-0.344485	-0.179782	-0.182818	-0.192802	-0.026344	-0.358161	-0.033046	-0.446959	-0.171400	-0.245327	-0.250153	-0.119087	-0.186703	-0.006906	-0.364540	-0.126565	-0.240161	-0.183297	-0.157699	-0.250679	-0.070545	-0.279554	0.254139	-0.363188	0.309635	-0.226844	-0.186344	-0.027836	-0.226377	0.088740	-0.343324	0.443323	-0.302364	0.051987	-0.031309	-0.189903	0.058766	-0.287981	0.138049	-0.373824	0.227411	-0.149711	-0.117702	-0.018191	-0.187858	0.101856	-0.311679	0.089158	-0.219198	-0.016504	-0.080295	-0.136362	0.000256
-0.215562	-0.098242	-0.150483	-0.093783	-0.130056	-0.111256	-0.150851	-0.169542	-0.068019	-0.181826	-0.023668	-0.093030	-0.058509	-0.106454	-0.136341	-0.178317	-0.221193	0.013854	-0.096385	-0.031774	-0.056430	-0.106455	-0.071764	-0.150274	-0.070931	-0.224091	-0.029759	-0.082433	-0.108885	-0.008257	-0.155015	-0.126049	-0.205071	-0.252920	-0.152864	-0.418778	-0.033707	-0.175959	-0.098788	-0.197933	-0.167648	-0.146467	-0.470646	-0.095703	-0.423361	-0.099616	-0.257551	-0.160901	-0.161608	-0.218307	-0.106886	-0.439916	-0.071009	-0.327606	-0.131342	-0.199790	-0.207534	-0.143120	-0.234269	-0.149769	-0.307244	-0.152449	-0.205312	-0.201346
0.448470	-0.828132	0.943992	-0.724741	0.204092	-0.325515	-0.050033	-0.131829	-0.781717	0.933955	-1.116695	0.796830	-0.450741	0.260863	-0.054405	-0.191786	0.691882	-1.101748	1.164843	-1.062213	0.423566	-0.227196	-0.096440	0.058620	-0.811720	0.564018	-0.901232	0.309360	-0.454001	0.022601	0.084131	-0.382915	0.345236	-1.122205	0.180295	-0.969751	-0.104602	0.071311	-0.375295	0.283594	-0.448511	0.187140	-0.732534	-0.086189	-0.158192	-0.411766	0.337693	-0.503632	0.057379	-0.223301	-0.070954	-0.140679	-0.411214	0.244970	-0.414902	0.328010	-0.160054	-0.033298	-0.207797	-0.151907	0.184840	-0.335512	0.315145	-0.365673
0.164180	-0.511463	0.223813	-0.321624	-0.297692	0.212067	-0.581696	0.165562	-0.765907	0.528602	-0.521188	0.059847	0.165685	-0.511411	0.404838	-0.566858	0.530743	-0.919234	0.570193	-0.366437	-0.220773	0.466943	-0.632633	0.267548	-1.006284	0.582874	-0.676794	0.197032	0.091539	-0.513089	0.549027	-0.607925	0.348892	-1.030080	0.359371	-0.399179	-0.328060	0.426523	-0.724730	0.383045	-0.779904	0.324959	-0.815027	0.099112	0.295830	-0.525482	0.379843	-0.646811	0.135392	-0.673066	0.207365	-0.203907	-0.072845	0.092923	-0.526284	0.277712	-0.550368	0.168156	-0.506461	0.046231	-0.243318	-0.192333	0.136074	-0.471339
-0.208437	-0.215574	-0.184949	-0.043284	-0.209237	-0.076737	-0.230064	-0.154313	-0.137993	-0.121029	-0.034804	-0.175395	0.026300	-0.180548	-0.044961	-0.186686	-0.179966	-0.057523	-0.126912	0.075677	-0.169429	0.070655	-0.176742	-0.095397	-0.158397	-0.150452	-0.022906	-0.165102	0.048114	-0.147374	-0.010835	-0.195779	-0.109736	-0.336910	-0.065940	-0.332670	-0.105411	-0.045045	-0.162485	-0.136394	-0.379680	0.017410	-0.605497	0.049287	-0.382273	-0.144779	-0.166415	-0.217180	-0.006037	-0.492827	0.125273	-0.647391	0.087526	-0.336488	-0.082215	-0.192353	-0.406380	0.024315	-0.511139	0.023840	-0.454023	-0.047376	-0.278430	-0.188602
-0.097552	-0.165985	-0.033740	-0.217494	-0.095878	-0.249804	-0.023456	-0.166859	-0.236149	-0.014516	-0.320155	0.041293	-0.280275	0.037098	-0.225439	-0.075350	-0.054852	-0.315763	0.095246	-0.340416	0.044386	-0.294342	0.000886	-0.214670	-0.215975	-0.165095	-0.216002	-0.097405	-0.244601	0.005831	-0.196189	0.003247	-0.245017	-0.349152	-0.257109	-0.564231	-0.132541	-0.090574	-0.075452	-0.145735	-0.054123	-0.335583	-0.310946	-0.317440	-0.232677	-0.211825	-0.044725	-0.132110	-0.326080	0.016532	-0.377378	-0.124263	-0.386242	0.099645	-0.237393	-0.036656	0.017719	-0.335395	0.098200	-0.332016	0.133921	-0.325281	0.057607	-0.182021
-0.178793	-0.171434	-0.173332	-0.152815	-0.193172	-0.093224	-0.243053	-0.136617	-0.182392	-0.127697	-0.110692	-0.125502	-0.065507	-0.202248	-0.074193	-0.234429	-0.112043	-0.136208	-0.047272	-0.037481	-0.123258	0.028462	-0.195367	-0.099380	-0.251680	-0.071790	-0.086453	-0.080628	0.002813	-0.149150	-0.001761	-0.217613	-0.048396	-0.315538	-0.069018	-0.235518	-0.060447	-0.072922	-0.235302	-0.071287	-0.286599	-0.079293	-0.420153	-0.027702	-0.180944	-0.155128	-0.085826	-0.275761	-0.115683	-0.342578	-0.056152	-0.382155	0.010952	-0.235576	-0.162181	-0.142926	-0.282904	-0.122950	-0.300461	-0.134106	-0.345771	-0.097511	-0.212475	-0.189489
-0.333825	-0.070474	-0.502704	-0.005403	-0.384502	-0.041436	-0.211520	-0.048249	-0.008277	-0.617812	-0.119843	-0.603873	-0.037496	-0.381445	-0.069950	-0.045993	-0.609534	0.060757	-0.712100	-0.029271	-0.359496	-0.179535	-0.068317	-0.149643	0.137491	-0.508809	-0.017209	-0.278911	-0.118779	-0.082669	-0.285722	0.076791	-0.431875	0.590726	-0.396427	0.528626	-0.040272	-0.286364	0.201880	-0.311222	0.151979	-0.355621	0.604842	-0.181430	-0.061613	0.215922	-0.391516	0.186829	-0.377014	0.175575	-0.332225	0.158842	-0.012406	-0.325575	0.212365	-0.306142	0.192079	-0.348705	0.100391	-0.102759	-0.200402	0.103972	-0.290601	0.171498
-0.116751	-0.090512	-0.100637	-0.113281	-0.135735	-0.190702	-0.064965	-0.238054	-0.148554	-0.081525	-0.142065	-0.058801	-0.170737	-0.047869	-0.235569	-0.082241	-0.157912	-0.131282	-0.009989	-0.164318	0.011213	-0.219556	-0.017588	-0.233768	-0.076690	-0.188614	-0.137324	-0.059486	-0.221611	0.017754	-0.200713	-0.080475	-0.243041	-0.241145	-0.190379	-0.540532	-0.097516	-0.161648	-0.077726	-0.184199	0.008490	-0.322354	-0.305099	-0.232472	-0.361969	-0.154761	-0.178205	-0.136137	-0.325388	0.030844	-0.341998	-0.271937	-0.184355	-0.167258	-0.111496	-0.181910	-0.038209	-0.302365	-0.012648	-0.285236	-0.122516	-0.201719	-0.175473	-0.135152
-0.175947	-0.180171	-0.134510	-0.174224	-0.084273	-0.221163	-0.092862	-0.202097	-0.193272	-0.112225	-0.126553	-0.009038	-0.188640	-0.001015	-0.209603	-0.113892	-0.111109	-0.158094	-0.048101	-0.125117	-0.054866	-0.079713	-0.034120	-0.165589	-0.296216	-0.084704	-0.119755	-0.112437	-0.006890	-0.074930	-0.065237	-0.098760	-0.124578	-0.379820	-0.144014	-0.392846	-0.139010	0.005836	-0.139156	-0.101203	-0.251394	-0.173112	-0.387606	-0.182447	-0.165419	-0.255012	-0.005253	-0.174293	-0.151313	-0.225133	-0.197075	-0.258838	-0.172567	-0.007925	-0.260665	-0.117847	-0.247134	-0.172010	-0.182119	-0.226425	-0.137680	-0.297366	-0.070340	-0.233513
-0.118217	-0.096219	0.177384	-0.303163	0.149994	-0.406980	0.188610	-0.223011	-0.013808	-0.007345	-0.291905	0.166543	-0.476955	0.289638	-0.385419	-0.001434	-0.169937	-0.145240	0.129752	-0.484525	0.245627	-0.620455	0.145958	-0.216614	0.089632	-0.326102	-0.202814	-0.137635	-0.643866	0.199078	-0.434399	0.046602	-0.418689	-0.227696	-0.383531	-0.781472	-0.091472	-0.355114	0.055260	-0.181000	0.221164	-0.532081	-0.271309	-0.398520	-0.496242	-0.085388	-0.178327	-0.042007	-0.503549	0.345997	-0.509904	-0.078312	-0.489660	0.049476	-0.096815	-0.074935	0.299422	-0.477815	0.251456	-0.374800	0.248807	-0.281895	0.030744	-0.060921
-0.734617	0.397404	-0.865035	0.506653	-0.516549	0.128059	-0.319988	-0.125533	0.610139	-0.848673	0.777221	-0.703443	0.246161	-0.186638	-0.065056	-0.079464	-0.927935	0.760259	-0.768948	0.401490	-0.087415	-0.264435	0.213271	-0.420967	0.614875	-0.778305	0.422052	-0.161863	-0.337681	0.466837	-0.648013	0.346904	-0.581892	0.508599	-0.169053	-0.380458	0.580982	-0.904138	0.842983	-1.035032	-0.048837	-0.041919	-0.374535	0.503724	-1.339727	0.889607	-1.432284	0.702356	-0.137149	-0.431309	0.360404	-1.009843	0.737412	-1.483093	0.945494	-1.127127	-0.352842	0.100655	-0.663663	0.371848	-1.133083	0.692354	-1.303007	0.499143
-0.381911	-0.050632	-0.433704	-0.164539	-0.078076	-0.326106	0.114709	-0.318673	0.051543	-0.590960	0.001618	-0.265438	-0.307126	0.050793	-0.417551	0.172209	-0.594983	0.187583	-0.540182	-0.030319	-0.077368	-0.320489	0.210780	-0.350409	0.124380	-0.555834	0.100550	-0.261324	-0.084016	0.032761	-0.283479	0.079854	-0.426830	0.427770	-0.401073	0.238494	-0.041099	-0.192255	0.081509	-0.274454	-0.015420	-0.279818	0.233581	-0.090803	-0.174926	0.027785	-0.312590	0.099038	-0.183067	-0.142000	-0.151341	-0.160847	0.006845	-0.306310	0.069251	-0.271146	-0.120874	-0.114643	-0.111885	-0.065976	-0.324938	-0.017390	-0.322666	-0.020143
-0.209858	-0.164364	-0.167266	-0.193682	-0.058126	-0.219546	-0.127218	-0.221714	-0.099317	-0.225834	-0.020493	-0.097691	-0.151628	-0.040554	-0.189381	-0.142702	-0.192541	-0.026395	-0.162944	0.012401	-0.109656	-0.001541	-0.141976	-0.136451	-0.180063	-0.155177	-0.028456	-0.217734	0.073874	-0.195031	0.001099	-0.251306	-0.070610	-0.291342	-0.105338	-0.197821	-0.129464	0.037113	-0.256515	-0.073981	-0.376106	-0.013922	-0.502843	0.008574	-0.228148	-0.161612	-0.067879	-0.193052	-0.011755	-0.470314	0.073933	-0.520837	0.058580	-0.229780	-0.167835	-0.154145	-0.403397	0.015525	-0.465575	0.012266	-0.396429	-0.093912	-0.220141	-0.240092
-0.177007	-0.139040	-0.131278	-0.063161	-0.183477	-0.047590	-0.211339	-0.082875	-0.112338	-0.116326	-0.022006	-0.140659	-0.048136	-0.131392	-0.048756	-0.258166	-0.194896	-0.089675	-0.056737	-0.037636	-0.079696	-0.025308	-0.154874	-0.066684	-0.116350	-0.161803	-0.101479	-0.124138	-0.124307	-0.106313	-0.043440	-0.182948	-0.174287	-0.334112	-0.102565	-0.514090	-0.056850	-0.148502	-0.140114	-0.122508	-0.211503	-0.118290	-0.547394	-0.062905	-0.432939	-0.098304	-0.198416	-0.187783	-0.133971	-0.270924	-0.073704	-0.526256	-0.050618	-0.384669	-0.071676	-0.223606	-0.223831	-0.116927	-0.322470	-0.110114	-0.343293	-0.077971	-0.272837	-0.106987
-0.070338	-0.128883	-0.162021	-0.116460	-0.178579	-0.061275	-0.288241	-0.052293	-0.122552	-0.136460	-0.122813	-0.344611	-0.092771	-0.439844	-0.029962	-0.325484	-0.002290	-0.200700	-0.339229	-0.017606	-0.522799	-0.047022	-0.531410	-0.033720	-0.206160	0.030661	-0.138665	-0.265865	-0.096028	-0.545901	-0.107423	-0.351659	0.079073	-0.011374	-0.037853	0.443288	-0.350906	-0.140227	-0.451996	-0.038733	-0.233992	0.089086	0.195334	-0.248715	0.253990	-0.207737	-0.086347	-0.219095	0.109607	-0.232220	0.010026	0.207363	-0.210388	-0.035350	-0.195907	-0.081793	-0.203800	0.050931	-0.197006	-0.058644	-0.042260	-0.136372	-0.092038	-0.104092
-0.097099	-0.065171	-0.255909	-0.077914	-0.220323	-0.081907	-0.206115	-0.043867	-0.037496	-0.274079	-0.097899	-0.413470	-0.059471	-0.411452	-0.047502	-0.206365	-0.144974	-0.086701	-0.453881	-0.070856	-0.496485	-0.121522	-0.440772	-0.039313	-0.009066	-0.173369	-0.093660	-0.353686	-0.063507	-0.500198	-0.124835	-0.263086	-0.176106	0.239116	-0.307657	0.553646	-0.447465	-0.121261	-0.265418	-0.077335	0.057730	-0.243525	0.535156	-0.401607	0.313788	-0.183601	-0.076179	-0.134862	-0.208720	0.131363	-0.345040	0.424625	-0.296067	0.042649	-0.176539	-0.006228	0.080444	-0.218643	0.096419	-0.205054	0.082548	-0.188687	0.014796	-0.131125
-0.139175	-0.130459	-0.066753	-0.151008	-0.069205	-0.247130	-0.007321	-0.185550	-0.144712	-0.078518	-0.179201	-0.036768	-0.249435	0.028052	-0.255672	-0.081987	-0.142433	-0.109164	-0.027528	-0.195142	0.025328	-0.259194	-0.025429	-0.166612	-0.079717	-0.218064	-0.133330	-0.149193	-0.235716	-0.000156	-0.209160	-0.071177	-0.278977	-0.309173	-0.233381	-0.523075	-0.122494	-0.186465	-0.092534	-0.179717	-0.040833	-0.281002	-0.375659	-0.263312	-0.362716	-0.186625	-0.161212	-0.112620	-0.265059	-0.009519	-0.310058	-0.267738	-0.241084	-0.110158	-0.137190	-0.129983	-0.014249	-0.268282	-0.024913	-0.234182	-0.042755	-0.230039	-0.094807	-0.143208
-0.150458	-0.240681	-0.122463	-0.184237	-0.194953	-0.059696	-0.341516	-0.073814	-0.257470	-0.050442	-0.082740	-0.209529	-0.017487	-0.296296	-0.019387	-0.352468	-0.018432	-0.202176	-0.120340	-0.003728	-0.258297	0.104319	-0.303544	-0.045759	-0.308549	0.015813	-0.133741	-0.132080	0.048094	-0.259861	0.014996	-0.289004	0.032551	-0.314275	0.020445	-0.021930	-0.151614	-0.048279	-0.286996	-0.075225	-0.423044	0.090162	-0.361943	0.012739	-0.052858	-0.193030	-0.149379	-0.261613	0.065875	-0.482417	0.087912	-0.366251	0.010267	-0.201572	-0.119812	-0.192375	-0.442669	0.078385	-0.444515	-0.003582	-0.355653	0.001241	-0.305932	-0.156079
0.117205	-0.444742	0.186218	-0.321431	-0.233313	0.215214	-0.535385	0.085437	-0.676486	0.423514	-0.459934	-0.006223	0.113442	-0.588946	0.276105	-0.485344	0.533818	-0.784805	0.425526	-0.237082	-0.398692	0.452068	-0.636708	0.145445	-0.923153	0.615501	-0.549023	0.085814	0.220903	-0.675057	0.460601	-0.657169	0.502598	-0.912031	0.364268	-0.113508	-0.395569	0.446693	-0.844664	0.385318	-0.773105	0.393524	-0.647974	0.115233	0.580660	-0.736897	0.469584	-0.768444	0.196755	-0.722793	0.250487	-0.120003	-0.196501	0.285039	-0.746010	0.336351	-0.520656	0.218268	-0.476422	0.043832	-0.184386	-0.335926	0.187342	-0.629300
0.127223	-0.220416	0.099179	-0.350046	0.122013	-0.283012	0.017642	-0.259455	-0.261346	0.138866	-0.311367	0.181030	-0.334011	-0.012643	-0.296928	-0.077956	0.170304	-0.317008	0.057050	-0.280674	-0.125454	-0.204291	-0.228785	-0.182543	-0.272522	0.065925	-0.189360	-0.138686	-0.019077	-0.317111	-0.135232	-0.251855	0.002466	-0.176052	-0.139645	0.147764	-0.445685	0.044348	-0.478294	-0.025052	-0.065477	-0.217682	0.169253	-0.444287	0.428998	-0.606432	0.187261	-0.423914	-0.169297	-0.000075	-0.379250	0.413169	-0.583620	0.276106	-0.675064	0.121832	-0.060771	-0.290374	0.125178	-0.423907	0.285563	-0.593023	0.160299	-0.467550
-0.156388	-0.120982	-0.185664	-0.202542	-0.049012	-0.253449	-0.044672	-0.219009	-0.071087	-0.252801	-0.159809	-0.169024	-0.256557	-0.116504	-0.293018	-0.062459	-0.212398	-0.062190	-0.347679	-0.168395	-0.260639	-0.239458	-0.180170	-0.190965	-0.040813	-0.226418	-0.091339	-0.275037	-0.105187	-0.317426	-0.136069	-0.208194	-0.155472	0.073629	-0.264910	0.244438	-0.325809	-0.063448	-0.282673	-0.113148	-0.017251	-0.234410	0.245761	-0.274321	0.129404	-0.198584	-0.047062	-0.140513	-0.132536	-0.082761	-0.180301	0.116304	-0.187198	-0.058130	-0.188111	-0.045410	-0.097390	-0.151750	-0.075626	-0.137851	-0.051037	-0.169743	-0.062239	-0.149831
-0.129160	-0.193031	-0.161319	-0.143474	-0.166842	-0.133187	-0.168646	-0.197891	-0.207685	-0.095285	-0.167137	-0.058597	-0.115645	-0.112206	-0.180766	-0.140400	-0.081427	-0.155571	-0.012532	-0.104632	-0.000294	-0.070532	-0.064409	-0.188453	-0.244750	-0.085723	-0.139086	-0.040171	-0.053831	-0.046921	-0.126967	-0.098194	-0.125500	-0.250023	-0.099487	-0.293128	-0.058710	-0.086997	-0.111636	-0.179309	-0.124817	-0.233899	-0.257790	-0.164918	-0.090552	-0.215747	-0.049631	-0.186387	-0.252207	-0.142321	-0.289574	-0.122555	-0.226331	-0.025773	-0.290633	-0.124660	-0.192033	-0.314501	-0.056993	-0.327057	-0.076290	-0.319248	-0.083019	-0.311077
-0.042100	-0.316892	0.073951	-0.267056	-0.185789	-0.054333	-0.199059	-0.054488	-0.457155	0.172259	-0.485682	0.105478	-0.076624	-0.139391	0.017107	-0.188881	0.104039	-0.583622	0.297995	-0.402976	-0.045335	0.061000	-0.152897	0.044406	-0.543161	0.050775	-0.445818	0.024659	-0.136961	-0.161167	0.153578	-0.254024	-0.114297	-0.676609	-0.060175	-0.546755	-0.160878	0.152325	-0.318486	0.163323	-0.333383	-0.137811	-0.543605	-0.142326	-0.039074	-0.342346	0.194079	-0.327523	-0.204126	-0.199868	-0.171086	-0.132178	-0.295296	0.169235	-0.296307	0.123255	-0.167390	-0.140025	-0.129351	-0.184935	-0.000808	-0.251877	0.105771	-0.213282
-0.312985	0.067849	-0.346345	0.154750	-0.341579	0.099145	-0.277177	-0.026994	0.151375	-0.321787	0.330801	-0.299714	0.149055	-0.102269	-0.005183	-0.189990	-0.384781	0.230689	-0.223879	0.146703	-0.013101	-0.157526	0.080603	-0.215478	0.198933	-0.388590	0.083006	-0.014045	-0.354461	0.315904	-0.396212	0.030793	-0.341543	0.229362	-0.061615	-0.556150	0.287927	-0.551831	0.266610	-0.451135	-0.061338	-0.100540	-0.416603	0.185171	-0.912387	0.115805	-0.727276	-0.026881	-0.175020	-0.222570	0.075033	-0.697900	0.048618	-0.800961	0.164729	-0.492858	-0.224189	-0.021892	-0.360567	-0.042825	-0.555625	0.033746	-0.592843	-0.005217
0.025438	-0.186440	-0.114019	-0.145471	-0.171826	-0.098930	-0.210059	-0.039590	-0.107842	-0.167491	-0.128455	-0.341355	-0.120129	-0.405475	-0.075310	-0.217846	-0.105768	-0.103552	-0.436836	-0.044845	-0.484090	-0.109926	-0.472060	-0.053432	-0.056726	-0.152274	-0.078160	-0.357655	-0.083048	-0.527375	-0.128203	-0.271052	-0.133811	0.191162	-0.232682	0.505837	-0.465011	-0.071074	-0.396693	-0.018954	0.012984	-0.201989	0.402263	-0.358527	0.286917	-0.263974	0.027809	-0.189751	-0.137174	0.030514	-0.169390	0.298779	-0.259092	0.005549	-0.236717	-0.025108	-0.000573	-0.141598	-0.011829	-0.130982	0.024200	-0.131383	0.016052	-0.133691
-0.157842	-0.133285	-0.268253	-0.124565	-0.227979	-0.091214	-0.248677	-0.062172	-0.085439	-0.330054	-0.161727	-0.385688	-0.090687	-0.394525	-0.088545	-0.175199	-0.220298	-0.111831	-0.466916	-0.085171	-0.434560	-0.125293	-0.326895	-0.114683	-0.097110	-0.184105	-0.118238	-0.308134	-0.127102	-0.390806	-0.128356	-0.201196	-0.129081	0.143388	-0.209655	0.433975	-0.282901	-0.167197	-0.226834	-0.104703	-0.029895	-0.111773	0.323257	-0.196923	0.063823	-0.073424	-0.132309	-0.072567	-0.095886	-0.086796	-0.095703	0.150705	-0.106079	-0.078987	-0.069691	-0.139990	-0.077263	-0.064899	-0.166373	-0.002150	-0.111515	-0.040446	-0.102409	-0.070088
-0.393523	-0.037429	-0.516536	-0.124073	-0.195904	-0.204704	-0.005963	-0.248716	0.019960	-0.568644	0.081237	-0.364461	-0.162435	-0.036193	-0.350557	0.101673	-0.577802	0.161510	-0.514388	0.023925	-0.112834	-0.288515	0.264421	-0.364271	0.124920	-0.542053	0.148705	-0.224504	-0.110391	0.165592	-0.379936	0.223521	-0.463265	0.536435	-0.397773	0.227371	0.087649	-0.261105	0.297850	-0.436680	0.068457	-0.395290	0.310747	-0.044884	-0.317367	0.189182	-0.514923	0.220374	-0.301892	0.007411	-0.198406	-0.233935	0.073361	-0.467731	0.189160	-0.416998	-0.060122	-0.209354	-0.088762	-0.075672	-0.386526	0.061860	-0.425607	0.062281
-0.089013	-0.272329	-0.097830	-0.168743	-0.203121	-0.078817	-0.271674	-0.136060	-0.320261	0.007493	-0.178024	-0.090136	-0.007950	-0.207260	-0.003628	-0.249508	0.003398	-0.268225	0.001145	-0.110429	-0.141916	0.122896	-0.233674	-0.075740	-0.349985	-0.005287	-0.153393	-0.092304	0.068712	-0.214825	0.051513	-0.233770	-0.050729	-0.373372	-0.030913	-0.201779	-0.142158	0.028120	-0.260229	-0.061355	-0.324736	-0.058666	-0.433161	-0.012924	-0.054973	-0.212235	-0.055550	-0.303147	-0.113398	-0.374545	-0.046037	-0.321031	-0.046341	-0.169683	-0.219668	-0.119493	-0.309159	-0.102641	-0.312526	-0.097904	-0.286463	-0.126429	-0.197969	-0.213014
-0.108159	-0.180629	-0.140222	-0.169884	-0.092645	-0.183208	-0.196727	-0.176381	-0.203801	-0.076969	-0.180031	-0.072976	-0.118831	-0.205605	-0.158280	-0.184127	-0.016365	-0.171007	-0.083635	-0.062216	-0.185451	-0.001372	-0.228504	-0.153648	-0.254830	-0.023954	-0.113673	-0.120107	0.014996	-0.254405	-0.073669	-0.240983	-0.005463	-0.275297	-0.012608	-0.010117	-0.210344	-0.042681	-0.211705	-0.124223	-0.312843	0.026794	-0.252208	-0.131728	0.054671	-0.231514	-0.079532	-0.235066	-0.053743	-0.315111	-0.121476	-0.097562	-0.174556	-0.091514	-0.244048	-0.148025	-0.330953	-0.097715	-0.196048	-0.237137	-0.115300	-0.263251	-0.104714	-0.249931
-0.166521	-0.011886	-0.081225	-0.127530	-0.032380	-0.279027	0.017293	-0.238817	-0.056289	-0.146398	-0.150883	0.017776	-0.312045	0.107144	-0.328612	-0.037522	-0.149591	-0.089590	0.023735	-0.302205	0.111464	-0.408228	0.079961	-0.303869	-0.032644	-0.214282	-0.162704	-0.081598	-0.373701	0.076615	-0.380267	0.008786	-0.288370	-0.228165	-0.271233	-0.616888	-0.066815	-0.274273	-0.006947	-0.250424	0.113741	-0.398997	-0.247030	-0.321271	-0.389474	-0.187228	-0.206510	-0.088922	-0.432676	0.227650	-0.457590	-0.125531	-0.362254	-0.071472	-0.151881	-0.203254	0.183608	-0.440763	0.180380	-0.383613	0.105987	-0.287077	-0.051882	-0.105203
-0.240162	-0.061483	-0.237709	0.042067	-0.301509	0.067694	-0.324717	0.005278	-0.047061	-0.182966	0.100598	-0.229440	0.130323	-0.239552	0.101458	-0.376943	-0.187696	-0.027094	-0.082007	0.063495	-0.133283	0.019246	-0.191053	0.045518	-0.119457	-0.152261	-0.096079	-0.027282	-0.196409	0.000133	-0.105492	-0.239164	-0.137568	-0.290129	-0.035876	-0.552520	0.117816	-0.289641	-0.039582	-0.196850	-0.297087	-0.026370	-0.608169	0.060043	-0.590956	-0.041741	-0.362815	-0.199514	-0.015212	-0.394769	0.019905	-0.576464	-0.018503	-0.462058	-0.077004	-0.252663	-0.373520	-0.029677	-0.401354	-0.107452	-0.402533	-0.075190	-0.361719	-0.119724
-0.038230	-0.309919	0.493499	-0.467434	0.294458	-0.552293	0.329476	-0.408213	-0.196456	0.353417	-0.538025	0.541227	-0.658811	0.712915	-0.560914	0.190155	0.093742	-0.378180	0.610288	-0.751577	0.657132	-0.736448	0.488411	-0.413951	-0.093434	-0.048021	-0.409682	0.032138	-0.707637	0.479494	-0.534229	0.150677	-0.211737	-0.476118	-0.150905	-0.899456	0.041365	-0.301308	0.176427	-0.265021	-0.013710	-0.212245	-0.394136	-0.212192	-0.481840	-0.002882	-0.129138	0.011599	-0.227202	0.067379	-0.236266	-0.134262	-0.354647	0.123433	-0.021025	-0.059174	0.018570	-0.260308	-0.017110	-0.260314	0.156755	-0.154389	0.009686	-0.085509
0.012704	-0.276072	0.079108	-0.289603	-0.021562	-0.181320	-0.147682	-0.142845	-0.367446	0.202873	-0.252212	0.111031	-0.179037	-0.188119	-0.128255	-0.164925	0.174230	-0.373123	0.126295	-0.208863	-0.157881	0.024059	-0.274095	-0.133530	-0.396960	0.159026	-0.207883	-0.086121	0.132964	-0.423880	0.087500	-0.336309	0.126468	-0.412068	0.053047	0.084776	-0.388262	0.153287	-0.500262	0.027262	-0.388731	0.060393	-0.272089	-0.196143	0.406517	-0.582651	0.167319	-0.431098	0.019673	-0.408748	-0.010195	0.105741	-0.338789	0.180673	-0.542295	0.001832	-0.338645	0.022500	-0.243236	-0.154315	-0.047079	-0.395419	0.028130	-0.425162
-0.183212	-0.158228	-0.164349	-0.077787	-0.243403	-0.035047	-0.270543	-0.057454	-0.256271	-0.035534	-0.133915	-0.133526	-0.011755	-0.183954	-0.022904	-0.227085	-0.066366	-0.229036	0.028183	-0.107395	-0.072892	-0.027144	-0.138106	-0.098682	-0.276781	-0.058147	-0.193058	-0.043466	-0.069912	-0.049019	-0.011909	-0.149099	-0.074034	-0.437901	-0.077863	-0.439825	-0.081940	-0.073651	-0.114681	-0.111375	-0.317747	-0.113005	-0.466084	-0.102882	-0.213571	-0.197330	-0.081176	-0.205112	-0.172502	-0.285507	-0.176050	-0.335064	-0.124085	-0.106972	-0.196018	-0.163974	-0.239568	-0.200180	-0.198079	-0.197361	-0.188232	-0.177363	-0.124799	-0.210876
-0.188245	0.047205	-0.235638	-0.013026	-0.049834	-0.218362	0.069939	-0.286257	0.069703	-0.259308	0.175011	-0.115023	-0.204219	0.122066	-0.372938	0.048630	-0.332200	0.224428	-0.202710	-0.036869	0.123134	-0.438864	0.263882	-0.371109	0.259905	-0.419913	0.176214	-0.133917	-0.320286	0.247549	-0.497644	0.120290	-0.428958	0.214286	-0.303922	-0.401372	0.065299	-0.431185	0.194753	-0.485811	0.148684	-0.388839	-0.052203	-0.161151	-0.616061	-0.001329	-0.606303	0.089963	-0.361930	0.113361	-0.338686	-0.317391	-0.136820	-0.558866	0.052393	-0.531252	0.047762	-0.318709	0.079429	-0.275727	-0.297462	-0.117296	-0.485435	-0.020621
-0.142562	-0.204945	-0.175004	-0.129617	-0.209990	-0.125144	-0.266075	-0.171644	-0.199153	-0.143886	-0.074321	-0.189994	-0.060500	-0.250984	-0.087791	-0.249635	-0.137683	-0.143348	-0.150339	-0.005098	-0.220197	0.039192	-0.247847	-0.097662	-0.253539	-0.061473	-0.076729	-0.125626	0.025885	-0.230990	-0.020788	-0.256795	-0.021174	-0.218725	-0.024922	-0.092646	-0.091368	-0.098933	-0.189369	-0.137486	-0.317779	0.007231	-0.345802	0.001557	-0.103645	-0.138095	-0.141854	-0.155725	-0.040009	-0.397610	0.020557	-0.363436	0.044216	-0.228941	-0.123882	-0.227589	-0.338390	-0.039237	-0.362053	-0.039646	-0.343259	-0.077020	-0.254272	-0.145730
-0.172270	-0.153144	-0.189167	-0.112173	-0.206102	-0.106629	-0.190230	-0.154152	-0.204593	-0.131069	-0.069924	-0.097497	-0.074979	-0.171741	-0.087346	-0.247044	-0.107789	-0.121599	-0.057368	-0.097655	-0.046012	-0.020014	-0.131803	-0.099300	-0.227910	-0.078167	-0.164592	-0.026376	-0.039550	-0.111324	-0.035869	-0.196564	-0.112896	-0.310309	-0.032702	-0.329487	-0.043332	-0.078784	-0.176092	-0.073588	-0.230302	-0.162180	-0.377449	-0.052630	-0.230540	-0.134226	-0.091714	-0.226401	-0.186982	-0.209771	-0.216912	-0.331576	-0.082033	-0.197074	-0.187334	-0.174254	-0.252219	-0.235508	-0.163389	-0.171531	-0.271332	-0.146341	-0.193998	-0.205646
-0.175084	-0.153317	-0.073008	-0.151867	-0.127428	-0.199945	-0.079599	-0.211258	-0.169395	-0.095167	-0.191043	-0.039626	-0.151861	-0.005800	-0.200221	-0.048912	-0.131525	-0.199361	-0.033560	-0.165692	-0.037069	-0.143743	-0.028506	-0.179056	-0.226186	-0.217848	-0.156136	-0.146034	-0.124478	-0.070187	-0.061994	-0.095635	-0.168367	-0.481773	-0.163655	-0.490833	-0.185336	-0.011300	-0.160297	-0.042973	-0.308778	-0.115162	-0.555628	-0.182030	-0.207132	-0.244269	0.000552	-0.247583	-0.099258	-0.294739	-0.141190	-0.345296	-0.222689	0.019650	-0.225107	-0.022850	-0.251265	-0.094531	-0.206545	-0.162475	-0.056868	-0.222499	-0.029605	-0.186656
0.070453	-0.189020	0.020890	-0.274578	0.042499	-0.217793	-0.088898	-0.146064	-0.155255	-0.014975	-0.159520	-0.084894	-0.238221	-0.248292	-0.165667	-0.171304	0.048341	-0.169697	-0.277429	-0.088119	-0.443825	-0.128354	-0.530708	-0.049392	-0.105920	-0.079137	-0.084166	-0.390854	0.033383	-0.697285	0.002513	-0.404744	-0.110069	0.117384	-0.244784	0.633719	-0.661422	0.080257	-0.682941	0.150036	-0.021975	-0.181673	0.456485	-0.523728	0.610224	-0.573095	0.288787	-0.419137	-0.112667	0.048156	-0.292457	0.529394	-0.544252	0.300022	-0.570836	0.196917	0.018591	-0.195220	0.102064	-0.316420	0.267401	-0.422166	0.240965	-0.360592
0.171222	-0.274496	0.167886	-0.382913	0.091986	-0.219740	-0.103744	-0.133893	-0.282379	0.161049	-0.296604	0.101827	-0.302142	-0.194683	-0.098274	-0.242035	0.173854	-0.313796	-0.048910	-0.226682	-0.259977	-0.162038	-0.508858	-0.085904	-0.228588	0.126606	-0.213227	-0.168747	0.000699	-0.547075	-0.003308	-0.507337	0.054680	-0.117254	-0.042192	0.396452	-0.489835	0.076749	-0.741621	0.181511	-0.144292	-0.053073	0.215559	-0.364356	0.580058	-0.678365	0.303280	-0.574565	-0.045960	-0.088534	-0.151274	0.376826	-0.495861	0.348649	-0.762919	0.248363	-0.140558	-0.090274	-0.049245	-0.211946	0.209309	-0.516564	0.307976	-0.535452
