0.052787	-0.040478	-0.018010	-0.113335	-0.381047	-0.104142	-0.493876	0.013973	-0.252152	0.003287	0.036919	-0.012273	-0.089985	-0.485729	-0.541488	0.013027	-0.160912	-0.060880	-0.246060	-0.146722	0.003322	-0.272914	0.002023	0.004224	-0.001060	-0.002656	0.015335	0.030772	-0.000916	-0.295728	0.008526	-0.174926	0.002116	-0.090652	-0.110810	0.018009	-0.023595	-0.375779	0.015897	-0.059967	0.007613	-0.133059	-0.106670	-0.110531	-0.175936	-0.192554	-0.123895	-0.101564	-0.179025	-0.038800	-0.009980	-0.133243	-3583.481994	-0.063756	-0.008001	-0.081890	-0.028572	-0.095567	-0.015378	-0.548024	-80253.067558	-0.402624	-0.048706	0.014220
0.052787	-0.040478	-0.018010	-0.113335	-0.381047	-0.104142	-0.493876	0.013973	-0.252152	0.003287	0.036919	-0.012273	-0.089985	-0.485729	-0.541488	0.013027	-0.160912	-0.060880	-0.246060	-0.146722	0.003322	-0.272914	0.002023	0.004224	-0.001060	-0.002656	0.015335	0.030772	-0.000916	-0.295728	0.008526	-0.174926	0.002116	-0.090652	-0.110810	0.018009	-0.023595	-0.375779	0.015897	-0.059967	0.007613	-0.133059	-0.106670	-0.110531	-0.175936	-0.192554	-0.123895	-0.101564	-0.179025	-0.038800	-0.009980	-0.133243	-3583.620379	-0.063756	-0.008001	-0.081890	-0.028572	-0.095567	-0.015378	-0.548024	-80253.600532	-0.402624	-0.048706	0.014220
0.052787	-0.040478	-0.018010	-0.113335	-0.381047	-0.104142	-0.493876	0.013973	-0.252152	0.003287	0.036919	-0.012273	-0.089985	-0.485729	-0.541488	0.013027	-0.160912	-0.060880	-0.246060	-0.146722	0.003322	-0.272914	0.002023	0.004224	-0.001060	-0.002656	0.015335	0.030772	-0.000916	-0.295728	0.008526	-0.174926	0.002116	-0.090652	-0.110810	0.018009	-0.023595	-0.375779	0.015897	-0.059967	0.007613	-0.133059	-0.106670	-0.110531	-0.175936	-0.192554	-0.123895	-0.101564	-0.179025	-0.038800	-0.009980	-0.133243	-3578.649940	-0.063756	-0.008001	-0.081890	-0.028572	-0.095567	-0.015378	-0.548024	-80265.164753	-0.402624	-0.048706	0.014220
0.052787	-0.040478	-0.018010	-0.113335	-0.381047	-0.104142	-0.493876	0.013973	-0.252152	0.003287	0.036919	-0.012273	-0.089985	-0.485729	-0.541488	0.013027	-0.160912	-0.060880	-0.246060	-0.146722	0.003322	-0.272914	0.002023	0.004224	-0.001060	-0.002656	0.015335	0.030772	-0.000916	-0.295728	0.008526	-0.174926	0.002116	-0.090652	-0.110810	0.018009	-0.023595	-0.375779	0.015897	-0.059967	0.007613	-0.133059	-0.106670	-0.110531	-0.175936	-0.192554	-0.123895	-0.101564	-0.179025	-0.038800	-0.009980	-0.133243	-3581.290982	-0.063756	-0.008001	-0.081890	-0.028572	-0.095567	-0.015378	-0.548024	-80260.148392	-0.402624	-0.048706	0.014220
0.052787	-0.040478	-0.018010	-0.113335	-0.381047	-0.104142	-0.493876	0.013973	-0.252152	0.003287	0.036919	-0.012273	-0.089985	-0.485729	-0.541488	0.013027	-0.160912	-0.060880	-0.246060	-0.146722	0.003322	-0.272914	0.002023	0.004224	-0.001060	-0.002656	0.015335	0.030772	-0.000916	-0.295728	0.008526	-0.174926	0.002116	-0.090652	-0.110810	0.018009	-0.023595	-0.375779	0.015897	-0.059967	0.007613	-0.133059	-0.106670	-0.110531	-0.175936	-0.192554	-0.123895	-0.101564	-0.179025	-0.038800	-0.009980	-0.133243	-3582.494513	-0.063756	-0.008001	-0.081890	-0.028572	-0.095567	-0.015378	-0.548024	-80256.573629	-0.402624	-0.048706	0.014220
0.052787	-0.040478	-0.018010	-0.113335	-0.381047	-0.104142	-0.493876	0.013973	-0.252152	0.003287	0.036919	-0.012273	-0.089985	-0.485729	-0.541488	0.013027	-0.160912	-0.060880	-0.246060	-0.146722	0.003322	-0.272914	0.002023	0.004224	-0.001060	-0.002656	0.015335	0.030772	-0.000916	-0.295728	0.008526	-0.174926	0.002116	-0.090652	-0.110810	0.018009	-0.023595	-0.375779	0.015897	-0.059967	0.007613	-0.133059	-0.106670	-0.110531	-0.175936	-0.192554	-0.123895	-0.101564	-0.179025	-0.038800	-0.009980	-0.133243	-3579.836823	-0.063756	-0.008001	-0.081890	-0.028572	-0.095567	-0.015378	-0.548024	-80255.513114	-0.402624	-0.048706	0.014220
0.052787	-0.040478	-0.018010	-0.113335	-0.381047	-0.104142	-0.493876	0.013973	-0.252152	0.003287	0.036919	-0.012273	-0.089985	-0.485729	-0.541488	0.013027	-0.160912	-0.060880	-0.246060	-0.146722	0.003322	-0.272914	0.002023	0.004224	-0.001060	-0.002656	0.015335	0.030772	-0.000916	-0.295728	0.008526	-0.174926	0.002116	-0.090652	-0.110810	0.018009	-0.023595	-0.375779	0.015897	-0.059967	0.007613	-0.133059	-0.106670	-0.110531	-0.175936	-0.192554	-0.123895	-0.101564	-0.179025	-0.038800	-0.009980	-0.133243	-3581.024363	-0.063756	-0.008001	-0.081890	-0.028572	-0.095567	-0.015378	-0.548024	-80259.251733	-0.402624	-0.048706	0.014220
0.052787	-0.040478	-0.018010	-0.113335	-0.381047	-0.104142	-0.493876	0.013973	-0.252152	0.003287	0.036919	-0.012273	-0.089985	-0.485729	-0.541488	0.013027	-0.160912	-0.060880	-0.246060	-0.146722	0.003322	-0.272914	0.002023	0.004224	-0.001060	-0.002656	0.015335	0.030772	-0.000916	-0.295728	0.008526	-0.174926	0.002116	-0.090652	-0.110810	0.018009	-0.023595	-0.375779	0.015897	-0.059967	0.007613	-0.133059	-0.106670	-0.110531	-0.175936	-0.192554	-0.123895	-0.101564	-0.179025	-0.038800	-0.009980	-0.133243	-3581.034387	-0.063756	-0.008001	-0.081890	-0.028572	-0.095567	-0.015378	-0.548024	-80257.959151	-0.402624	-0.048706	0.014220
0.052787	-0.040478	-0.018010	-0.113335	-0.381047	-0.104142	-0.493876	0.013973	-0.252152	0.003287	0.036919	-0.012273	-0.089985	-0.485729	-0.541488	0.013027	-0.160912	-0.060880	-0.246060	-0.146722	0.003322	-0.272914	0.002023	0.004224	-0.001060	-0.002656	0.015335	0.030772	-0.000916	-0.295728	0.008526	-0.174926	0.002116	-0.090652	-0.110810	0.018009	-0.023595	-0.375779	0.015897	-0.059967	0.007613	-0.133059	-0.106670	-0.110531	-0.175936	-0.192554	-0.123895	-0.101564	-0.179025	-0.038800	-0.009980	-0.133243	-3583.085552	-0.063756	-0.008001	-0.081890	-0.028572	-0.095567	-0.015378	-0.548024	-80252.958300	-0.402624	-0.048706	0.014220
0.052787	-0.040478	-0.018010	-0.113335	-0.381047	-0.104142	-0.493876	0.013973	-0.252152	0.003287	0.036919	-0.012273	-0.089985	-0.485729	-0.541488	0.013027	-0.160912	-0.060880	-0.246060	-0.146722	0.003322	-0.272914	0.002023	0.004224	-0.001060	-0.002656	0.015335	0.030772	-0.000916	-0.295728	0.008526	-0.174926	0.002116	-0.090652	-0.110810	0.018009	-0.023595	-0.375779	0.015897	-0.059967	0.007613	-0.133059	-0.106670	-0.110531	-0.175936	-0.192554	-0.123895	-0.101564	-0.179025	-0.038800	-0.009980	-0.133243	-3579.434537	-0.063756	-0.008001	-0.081890	-0.028572	-0.095567	-0.015378	-0.548024	-80263.582453	-0.402624	-0.048706	0.014220
0.052787	-0.040478	-0.018010	-0.113335	-0.381047	-0.104142	-0.493876	0.013973	-0.252152	0.003287	0.036919	-0.012273	-0.089985	-0.485729	-0.541488	0.013027	-0.160912	-0.060880	-0.246060	-0.146722	0.003322	-0.272914	0.002023	0.004224	-0.001060	-0.002656	0.015335	0.030772	-0.000916	-0.295728	0.008526	-0.174926	0.002116	-0.090652	-0.110810	0.018009	-0.023595	-0.375779	0.015897	-0.059967	0.007613	-0.133059	-0.106670	-0.110531	-0.175936	-0.192554	-0.123895	-0.101564	-0.179025	-0.038800	-0.009980	-0.133243	-3578.968224	-0.063756	-0.008001	-0.081890	-0.028572	-0.095567	-0.015378	-0.548024	-80263.231166	-0.402624	-0.048706	0.014220
0.052787	-0.040478	-0.018010	-0.113335	-0.381047	-0.104142	-0.493876	0.013973	-0.252152	0.003287	0.036919	-0.012273	-0.089985	-0.485729	-0.541488	0.013027	-0.160912	-0.060880	-0.246060	-0.146722	0.003322	-0.272914	0.002023	0.004224	-0.001060	-0.002656	0.015335	0.030772	-0.000916	-0.295728	0.008526	-0.174926	0.002116	-0.090652	-0.110810	0.018009	-0.023595	-0.375779	0.015897	-0.059967	0.007613	-0.133059	-0.106670	-0.110531	-0.175936	-0.192554	-0.123895	-0.101564	-0.179025	-0.038800	-0.009980	-0.133243	-3581.733920	-0.063756	-0.008001	-0.081890	-0.028572	-0.095567	-0.015378	-0.548024	-80257.492457	-0.402624	-0.048706	0.014220
0.052787	-0.040478	-0.018010	-0.113335	-0.381047	-0.104142	-0.493876	0.013973	-0.252152	0.003287	0.036919	-0.012273	-0.089985	-0.485729	-0.541488	0.013027	-0.160912	-0.060880	-0.246060	-0.146722	0.003322	-0.272914	0.002023	0.004224	-0.001060	-0.002656	0.015335	0.030772	-0.000916	-0.295728	0.008526	-0.174926	0.002116	-0.090652	-0.110810	0.018009	-0.023595	-0.375779	0.015897	-0.059967	0.007613	-0.133059	-0.106670	-0.110531	-0.175936	-0.192554	-0.123895	-0.101564	-0.179025	-0.038800	-0.009980	-0.133243	-3577.990152	-0.063756	-0.008001	-0.081890	-0.028572	-0.095567	-0.015378	-0.548024	-80265.776824	-0.402624	-0.048706	0.014220
0.052787	-0.040478	-0.018010	-0.113335	-0.381047	-0.104142	-0.493876	0.013973	-0.252152	0.003287	0.036919	-0.012273	-0.089985	-0.485729	-0.541488	0.013027	-0.160912	-0.060880	-0.246060	-0.146722	0.003322	-0.272914	0.002023	0.004224	-0.001060	-0.002656	0.015335	0.030772	-0.000916	-0.295728	0.008526	-0.174926	0.002116	-0.090652	-0.110810	0.018009	-0.023595	-0.375779	0.015897	-0.059967	0.007613	-0.133059	-0.106670	-0.110531	-0.175936	-0.192554	-0.123895	-0.101564	-0.179025	-0.038800	-0.009980	-0.133243	-3583.966760	-0.063756	-0.008001	-0.081890	-0.028572	-0.095567	-0.015378	-0.548024	-80248.790976	-0.402624	-0.048706	0.014220
0.052787	-0.040478	-0.018010	-0.113335	-0.381047	-0.104142	-0.493876	0.013973	-0.252152	0.003287	0.036919	-0.012273	-0.089985	-0.485729	-0.541488	0.013027	-0.160912	-0.060880	-0.246060	-0.146722	0.003322	-0.272914	0.002023	0.004224	-0.001060	-0.002656	0.015335	0.030772	-0.000916	-0.295728	0.008526	-0.174926	0.002116	-0.090652	-0.110810	0.018009	-0.023595	-0.375779	0.015897	-0.059967	0.007613	-0.133059	-0.106670	-0.110531	-0.175936	-0.192554	-0.123895	-0.101564	-0.179025	-0.038800	-0.009980	-0.133243	-3582.456014	-0.063756	-0.008001	-0.081890	-0.028572	-0.095567	-0.015378	-0.548024	-80258.623866	-0.402624	-0.048706	0.014220
0.052787	-0.040478	-0.018010	-0.113335	-0.381047	-0.104142	-0.493876	0.013973	-0.252152	0.003287	0.036919	-0.012273	-0.089985	-0.485729	-0.541488	0.013027	-0.160912	-0.060880	-0.246060	-0.146722	0.003322	-0.272914	0.002023	0.004224	-0.001060	-0.002656	0.015335	0.030772	-0.000916	-0.295728	0.008526	-0.174926	0.002116	-0.090652	-0.110810	0.018009	-0.023595	-0.375779	0.015897	-0.059967	0.007613	-0.133059	-0.106670	-0.110531	-0.175936	-0.192554	-0.123895	-0.101564	-0.179025	-0.038800	-0.009980	-0.133243	-3580.422842	-0.063756	-0.008001	-0.081890	-0.028572	-0.095567	-0.015378	-0.548024	-80254.981361	-0.402624	-0.048706	0.014220
0.052787	-0.040478	-0.018010	-0.113335	-0.381047	-0.104142	-0.493876	0.013973	-0.252152	0.003287	0.036919	-0.012273	-0.089985	-0.485729	-0.541488	0.013027	-0.160912	-0.060880	-0.246060	-0.146722	0.003322	-0.272914	0.002023	0.004224	-0.001060	-0.002656	0.015335	0.030772	-0.000916	-0.295728	0.008526	-0.174926	0.002116	-0.090652	-0.110810	0.018009	-0.023595	-0.375779	0.015897	-0.059967	0.007613	-0.133059	-0.106670	-0.110531	-0.175936	-0.192554	-0.123895	-0.101564	-0.179025	-0.038800	-0.009980	-0.133243	-3583.511340	-0.063756	-0.008001	-0.081890	-0.028572	-0.095567	-0.015378	-0.548024	-80254.034369	-0.402624	-0.048706	0.014220
0.052787	-0.040478	-0.018010	-0.113335	-0.381047	-0.104142	-0.493876	0.013973	-0.252152	0.003287	0.036919	-0.012273	-0.089985	-0.485729	-0.541488	0.013027	-0.160912	-0.060880	-0.246060	-0.146722	0.003322	-0.272914	0.002023	0.004224	-0.001060	-0.002656	0.015335	0.030772	-0.000916	-0.295728	0.008526	-0.174926	0.002116	-0.090652	-0.110810	0.018009	-0.023595	-0.375779	0.015897	-0.059967	0.007613	-0.133059	-0.106670	-0.110531	-0.175936	-0.192554	-0.123895	-0.101564	-0.179025	-0.038800	-0.009980	-0.133243	-3580.026325	-0.063756	-0.008001	-0.081890	-0.028572	-0.095567	-0.015378	-0.548024	-80260.604661	-0.402624	-0.048706	0.014220
0.052787	-0.040478	-0.018010	-0.113335	-0.381047	-0.104142	-0.493876	0.013973	-0.252152	0.003287	0.036919	-0.012273	-0.089985	-0.485729	-0.541488	0.013027	-0.160912	-0.060880	-0.246060	-0.146722	0.003322	-0.272914	0.002023	0.004224	-0.001060	-0.002656	0.015335	0.030772	-0.000916	-0.295728	0.008526	-0.174926	0.002116	-0.090652	-0.110810	0.018009	-0.023595	-0.375779	0.015897	-0.059967	0.007613	-0.133059	-0.106670	-0.110531	-0.175936	-0.192554	-0.123895	-0.101564	-0.179025	-0.038800	-0.009980	-0.133243	-3579.464501	-0.063756	-0.008001	-0.081890	-0.028572	-0.095567	-0.015378	-0.548024	-80266.353888	-0.402624	-0.048706	0.014220
0.052787	-0.040478	-0.018010	-0.113335	-0.381047	-0.104142	-0.493876	0.013973	-0.252152	0.003287	0.036919	-0.012273	-0.089985	-0.485729	-0.541488	0.013027	-0.160912	-0.060880	-0.246060	-0.146722	0.003322	-0.272914	0.002023	0.004224	-0.001060	-0.002656	0.015335	0.030772	-0.000916	-0.295728	0.008526	-0.174926	0.002116	-0.090652	-0.110810	0.018009	-0.023595	-0.375779	0.015897	-0.059967	0.007613	-0.133059	-0.106670	-0.110531	-0.175936	-0.192554	-0.123895	-0.101564	-0.179025	-0.038800	-0.009980	-0.133243	-3584.403453	-0.063756	-0.008001	-0.081890	-0.028572	-0.095567	-0.015378	-0.548024	-80254.608758	-0.402624	-0.048706	0.014220
0.052787	-0.040478	-0.018010	-0.113335	-0.381047	-0.104142	-0.493876	0.013973	-0.252152	0.003287	0.036919	-0.012273	-0.089985	-0.485729	-0.541488	0.013027	-0.160912	-0.060880	-0.246060	-0.146722	0.003322	-0.272914	0.002023	0.004224	-0.001060	-0.002656	0.015335	0.030772	-0.000916	-0.295728	0.008526	-0.174926	0.002116	-0.090652	-0.110810	0.018009	-0.023595	-0.375779	0.015897	-0.059967	0.007613	-0.133059	-0.106670	-0.110531	-0.175936	-0.192554	-0.123895	-0.101564	-0.179025	-0.038800	-0.009980	-0.133243	-3581.953627	-0.063756	-0.008001	-0.081890	-0.028572	-0.095567	-0.015378	-0.548024	-80257.114318	-0.402624	-0.048706	0.014220
0.052787	-0.040478	-0.018010	-0.113335	-0.381047	-0.104142	-0.493876	0.013973	-0.252152	0.003287	0.036919	-0.012273	-0.089985	-0.485729	-0.541488	0.013027	-0.160912	-0.060880	-0.246060	-0.146722	0.003322	-0.272914	0.002023	0.004224	-0.001060	-0.002656	0.015335	0.030772	-0.000916	-0.295728	0.008526	-0.174926	0.002116	-0.090652	-0.110810	0.018009	-0.023595	-0.375779	0.015897	-0.059967	0.007613	-0.133059	-0.106670	-0.110531	-0.175936	-0.192554	-0.123895	-0.101564	-0.179025	-0.038800	-0.009980	-0.133243	-3579.084474	-0.063756	-0.008001	-0.081890	-0.028572	-0.095567	-0.015378	-0.548024	-80263.068151	-0.402624	-0.048706	0.014220
0.052787	-0.040478	-0.018010	-0.113335	-0.381047	-0.104142	-0.493876	0.013973	-0.252152	0.003287	0.036919	-0.012273	-0.089985	-0.485729	-0.541488	0.013027	-0.160912	-0.060880	-0.246060	-0.146722	0.003322	-0.272914	0.002023	0.004224	-0.001060	-0.002656	0.015335	0.030772	-0.000916	-0.295728	0.008526	-0.174926	0.002116	-0.090652	-0.110810	0.018009	-0.023595	-0.375779	0.015897	-0.059967	0.007613	-0.133059	-0.106670	-0.110531	-0.175936	-0.192554	-0.123895	-0.101564	-0.179025	-0.038800	-0.009980	-0.133243	-3579.617264	-0.063756	-0.008001	-0.081890	-0.028572	-0.095567	-0.015378	-0.548024	-80264.639672	-0.402624	-0.048706	0.014220
0.052787	-0.040478	-0.018010	-0.113335	-0.381047	-0.104142	-0.493876	0.013973	-0.252152	0.003287	0.036919	-0.012273	-0.089985	-0.485729	-0.541488	0.013027	-0.160912	-0.060880	-0.246060	-0.146722	0.003322	-0.272914	0.002023	0.004224	-0.001060	-0.002656	0.015335	0.030772	-0.000916	-0.295728	0.008526	-0.174926	0.002116	-0.090652	-0.110810	0.018009	-0.023595	-0.375779	0.015897	-0.059967	0.007613	-0.133059	-0.106670	-0.110531	-0.175936	-0.192554	-0.123895	-0.101564	-0.179025	-0.038800	-0.009980	-0.133243	-3578.314369	-0.063756	-0.008001	-0.081890	-0.028572	-0.095567	-0.015378	-0.548024	-80266.534837	-0.402624	-0.048706	0.014220
0.052787	-0.040478	-0.018010	-0.113335	-0.381047	-0.104142	-0.493876	0.013973	-0.252152	0.003287	0.036919	-0.012273	-0.089985	-0.485729	-0.541488	0.013027	-0.160912	-0.060880	-0.246060	-0.146722	0.003322	-0.272914	0.002023	0.004224	-0.001060	-0.002656	0.015335	0.030772	-0.000916	-0.295728	0.008526	-0.174926	0.002116	-0.090652	-0.110810	0.018009	-0.023595	-0.375779	0.015897	-0.059967	0.007613	-0.133059	-0.106670	-0.110531	-0.175936	-0.192554	-0.123895	-0.101564	-0.179025	-0.038800	-0.009980	-0.133243	-3579.412655	-0.063756	-0.008001	-0.081890	-0.028572	-0.095567	-0.015378	-0.548024	-80264.694133	-0.402624	-0.048706	0.014220
0.052787	-0.040478	-0.018010	-0.113335	-0.381047	-0.104142	-0.493876	0.013973	-0.252152	0.003287	0.036919	-0.012273	-0.089985	-0.485729	-0.541488	0.013027	-0.160912	-0.060880	-0.246060	-0.146722	0.003322	-0.272914	0.002023	0.004224	-0.001060	-0.002656	0.015335	0.030772	-0.000916	-0.295728	0.008526	-0.174926	0.002116	-0.090652	-0.110810	0.018009	-0.023595	-0.375779	0.015897	-0.059967	0.007613	-0.133059	-0.106670	-0.110531	-0.175936	-0.192554	-0.123895	-0.101564	-0.179025	-0.038800	-0.009980	-0.133243	-3579.202124	-0.063756	-0.008001	-0.081890	-0.028572	-0.095567	-0.015378	-0.548024	-80263.923317	-0.402624	-0.048706	0.014220
0.052787	-0.040478	-0.018010	-0.113335	-0.381047	-0.104142	-0.493876	0.013973	-0.252152	0.003287	0.036919	-0.012273	-0.089985	-0.485729	-0.541488	0.013027	-0.160912	-0.060880	-0.246060	-0.146722	0.003322	-0.272914	0.002023	0.004224	-0.001060	-0.002656	0.015335	0.030772	-0.000916	-0.295728	0.008526	-0.174926	0.002116	-0.090652	-0.110810	0.018009	-0.023595	-0.375779	0.015897	-0.059967	0.007613	-0.133059	-0.106670	-0.110531	-0.175936	-0.192554	-0.123895	-0.101564	-0.179025	-0.038800	-0.009980	-0.133243	-3579.973132	-0.063756	-0.008001	-0.081890	-0.028572	-0.095567	-0.015378	-0.548024	-80261.815878	-0.402624	-0.048706	0.014220
0.052787	-0.040478	-0.018010	-0.113335	-0.381047	-0.104142	-0.493876	0.013973	-0.252152	0.003287	0.036919	-0.012273	-0.089985	-0.485729	-0.541488	0.013027	-0.160912	-0.060880	-0.246060	-0.146722	0.003322	-0.272914	0.002023	0.004224	-0.001060	-0.002656	0.015335	0.030772	-0.000916	-0.295728	0.008526	-0.174926	0.002116	-0.090652	-0.110810	0.018009	-0.023595	-0.375779	0.015897	-0.059967	0.007613	-0.133059	-0.106670	-0.110531	-0.175936	-0.192554	-0.123895	-0.101564	-0.179025	-0.038800	-0.009980	-0.133243	-3580.569930	-0.063756	-0.008001	-0.081890	-0.028572	-0.095567	-0.015378	-0.548024	-80263.339019	-0.402624	-0.048706	0.014220
0.052787	-0.040478	-0.018010	-0.113335	-0.381047	-0.104142	-0.493876	0.013973	-0.252152	0.003287	0.036919	-0.012273	-0.089985	-0.485729	-0.541488	0.013027	-0.160912	-0.060880	-0.246060	-0.146722	0.003322	-0.272914	0.002023	0.004224	-0.001060	-0.002656	0.015335	0.030772	-0.000916	-0.295728	0.008526	-0.174926	0.002116	-0.090652	-0.110810	0.018009	-0.023595	-0.375779	0.015897	-0.059967	0.007613	-0.133059	-0.106670	-0.110531	-0.175936	-0.192554	-0.123895	-0.101564	-0.179025	-0.038800	-0.009980	-0.133243	-3578.052039	-0.063756	-0.008001	-0.081890	-0.028572	-0.095567	-0.015378	-0.548024	-80263.218003	-0.402624	-0.048706	0.014220
0.052787	-0.040478	-0.018010	-0.113335	-0.381047	-0.104142	-0.493876	0.013973	-0.252152	0.003287	0.036919	-0.012273	-0.089985	-0.485729	-0.541488	0.013027	-0.160912	-0.060880	-0.246060	-0.146722	0.003322	-0.272914	0.002023	0.004224	-0.001060	-0.002656	0.015335	0.030772	-0.000916	-0.295728	0.008526	-0.174926	0.002116	-0.090652	-0.110810	0.018009	-0.023595	-0.375779	0.015897	-0.059967	0.007613	-0.133059	-0.106670	-0.110531	-0.175936	-0.192554	-0.123895	-0.101564	-0.179025	-0.038800	-0.009980	-0.133243	-3580.639800	-0.063756	-0.008001	-0.081890	-0.028572	-0.095567	-0.015378	-0.548024	-80258.542252	-0.402624	-0.048706	0.014220
0.052787	-0.040478	-0.018010	-0.113335	-0.381047	-0.104142	-0.493876	0.013973	-0.252152	0.003287	0.036919	-0.012273	-0.089985	-0.485729	-0.541488	0.013027	-0.160912	-0.060880	-0.246060	-0.146722	0.003322	-0.272914	0.002023	0.004224	-0.001060	-0.002656	0.015335	0.030772	-0.000916	-0.295728	0.008526	-0.174926	0.002116	-0.090652	-0.110810	0.018009	-0.023595	-0.375779	0.015897	-0.059967	0.007613	-0.133059	-0.106670	-0.110531	-0.175936	-0.192554	-0.123895	-0.101564	-0.179025	-0.038800	-0.009980	-0.133243	-3577.505345	-0.063756	-0.008001	-0.081890	-0.028572	-0.095567	-0.015378	-0.548024	-80268.746988	-0.402624	-0.048706	0.014220
0.052787	-0.040478	-0.018010	-0.113335	-0.381047	-0.104142	-0.493876	0.013973	-0.252152	0.003287	0.036919	-0.012273	-0.089985	-0.485729	-0.541488	0.013027	-0.160912	-0.060880	-0.246060	-0.146722	0.003322	-0.272914	0.002023	0.004224	-0.001060	-0.002656	0.015335	0.030772	-0.000916	-0.295728	0.008526	-0.174926	0.002116	-0.090652	-0.110810	0.018009	-0.023595	-0.375779	0.015897	-0.059967	0.007613	-0.133059	-0.106670	-0.110531	-0.175936	-0.192554	-0.123895	-0.101564	-0.179025	-0.038800	-0.009980	-0.133243	-3578.617150	-0.063756	-0.008001	-0.081890	-0.028572	-0.095567	-0.015378	-0.548024	-80258.169357	-0.402624	-0.048706	0.014220
0.052787	-0.040478	-0.018010	-0.113335	-0.381047	-0.104142	-0.493876	0.013973	-0.252152	0.003287	0.036919	-0.012273	-0.089985	-0.485729	-0.541488	0.013027	-0.160912	-0.060880	-0.246060	-0.146722	0.003322	-0.272914	0.002023	0.004224	-0.001060	-0.002656	0.015335	0.030772	-0.000916	-0.295728	0.008526	-0.174926	0.002116	-0.090652	-0.110810	0.018009	-0.023595	-0.375779	0.015897	-0.059967	0.007613	-0.133059	-0.106670	-0.110531	-0.175936	-0.192554	-0.123895	-0.101564	-0.179025	-0.038800	-0.009980	-0.133243	-3580.570591	-0.063756	-0.008001	-0.081890	-0.028572	-0.095567	-0.015378	-0.548024	-80260.487048	-0.402624	-0.048706	0.014220
0.052787	-0.040478	-0.018010	-0.113335	-0.381047	-0.104142	-0.493876	0.013973	-0.252152	0.003287	0.036919	-0.012273	-0.089985	-0.485729	-0.541488	0.013027	-0.160912	-0.060880	-0.246060	-0.146722	0.003322	-0.272914	0.002023	0.004224	-0.001060	-0.002656	0.015335	0.030772	-0.000916	-0.295728	0.008526	-0.174926	0.002116	-0.090652	-0.110810	0.018009	-0.023595	-0.375779	0.015897	-0.059967	0.007613	-0.133059	-0.106670	-0.110531	-0.175936	-0.192554	-0.123895	-0.101564	-0.179025	-0.038800	-0.009980	-0.133243	-3580.497313	-0.063756	-0.008001	-0.081890	-0.028572	-0.095567	-0.015378	-0.548024	-80258.809867	-0.402624	-0.048706	0.014220
0.052787	-0.040478	-0.018010	-0.113335	-0.381047	-0.104142	-0.493876	0.013973	-0.252152	0.003287	0.036919	-0.012273	-0.089985	-0.485729	-0.541488	0.013027	-0.160912	-0.060880	-0.246060	-0.146722	0.003322	-0.272914	0.002023	0.004224	-0.001060	-0.002656	0.015335	0.030772	-0.000916	-0.295728	0.008526	-0.174926	0.002116	-0.090652	-0.110810	0.018009	-0.023595	-0.375779	0.015897	-0.059967	0.007613	-0.133059	-0.106670	-0.110531	-0.175936	-0.192554	-0.123895	-0.101564	-0.179025	-0.038800	-0.009980	-0.133243	-3580.282434	-0.063756	-0.008001	-0.081890	-0.028572	-0.095567	-0.015378	-0.548024	-80264.114074	-0.402624	-0.048706	0.014220
0.052787	-0.040478	-0.018010	-0.113335	-0.381047	-0.104142	-0.493876	0.013973	-0.252152	0.003287	0.036919	-0.012273	-0.089985	-0.485729	-0.541488	0.013027	-0.160912	-0.060880	-0.246060	-0.146722	0.003322	-0.272914	0.002023	0.004224	-0.001060	-0.002656	0.015335	0.030772	-0.000916	-0.295728	0.008526	-0.174926	0.002116	-0.090652	-0.110810	0.018009	-0.023595	-0.375779	0.015897	-0.059967	0.007613	-0.133059	-0.106670	-0.110531	-0.175936	-0.192554	-0.123895	-0.101564	-0.179025	-0.038800	-0.009980	-0.133243	-3579.830370	-0.063756	-0.008001	-0.081890	-0.028572	-0.095567	-0.015378	-0.548024	-80261.640031	-0.402624	-0.048706	0.014220
0.052787	-0.040478	-0.018010	-0.113335	-0.381047	-0.104142	-0.493876	0.013973	-0.252152	0.003287	0.036919	-0.012273	-0.089985	-0.485729	-0.541488	0.013027	-0.160912	-0.060880	-0.246060	-0.146722	0.003322	-0.272914	0.002023	0.004224	-0.001060	-0.002656	0.015335	0.030772	-0.000916	-0.295728	0.008526	-0.174926	0.002116	-0.090652	-0.110810	0.018009	-0.023595	-0.375779	0.015897	-0.059967	0.007613	-0.133059	-0.106670	-0.110531	-0.175936	-0.192554	-0.123895	-0.101564	-0.179025	-0.038800	-0.009980	-0.133243	-3579.472965	-0.063756	-0.008001	-0.081890	-0.028572	-0.095567	-0.015378	-0.548024	-80262.809081	-0.402624	-0.048706	0.014220
0.052787	-0.040478	-0.018010	-0.113335	-0.381047	-0.104142	-0.493876	0.013973	-0.252152	0.003287	0.036919	-0.012273	-0.089985	-0.485729	-0.541488	0.013027	-0.160912	-0.060880	-0.246060	-0.146722	0.003322	-0.272914	0.002023	0.004224	-0.001060	-0.002656	0.015335	0.030772	-0.000916	-0.295728	0.008526	-0.174926	0.002116	-0.090652	-0.110810	0.018009	-0.023595	-0.375779	0.015897	-0.059967	0.007613	-0.133059	-0.106670	-0.110531	-0.175936	-0.192554	-0.123895	-0.101564	-0.179025	-0.038800	-0.009980	-0.133243	-3581.844171	-0.063756	-0.008001	-0.081890	-0.028572	-0.095567	-0.015378	-0.548024	-80254.484629	-0.402624	-0.048706	0.014220
0.052787	-0.040478	-0.018010	-0.113335	-0.381047	-0.104142	-0.493876	0.013973	-0.252152	0.003287	0.036919	-0.012273	-0.089985	-0.485729	-0.541488	0.013027	-0.160912	-0.060880	-0.246060	-0.146722	0.003322	-0.272914	0.002023	0.004224	-0.001060	-0.002656	0.015335	0.030772	-0.000916	-0.295728	0.008526	-0.174926	0.002116	-0.090652	-0.110810	0.018009	-0.023595	-0.375779	0.015897	-0.059967	0.007613	-0.133059	-0.106670	-0.110531	-0.175936	-0.192554	-0.123895	-0.101564	-0.179025	-0.038800	-0.009980	-0.133243	-3579.103682	-0.063756	-0.008001	-0.081890	-0.028572	-0.095567	-0.015378	-0.548024	-80262.721717	-0.402624	-0.048706	0.014220
0.052787	-0.040478	-0.018010	-0.113335	-0.381047	-0.104142	-0.493876	0.013973	-0.252152	0.003287	0.036919	-0.012273	-0.089985	-0.485729	-0.541488	0.013027	-0.160912	-0.060880	-0.246060	-0.146722	0.003322	-0.272914	0.002023	0.004224	-0.001060	-0.002656	0.015335	0.030772	-0.000916	-0.295728	0.008526	-0.174926	0.002116	-0.090652	-0.110810	0.018009	-0.023595	-0.375779	0.015897	-0.059967	0.007613	-0.133059	-0.106670	-0.110531	-0.175936	-0.192554	-0.123895	-0.101564	-0.179025	-0.038800	-0.009980	-0.133243	-3583.442451	-0.063756	-0.008001	-0.081890	-0.028572	-0.095567	-0.015378	-0.548024	-80256.878758	-0.402624	-0.048706	0.014220
0.052787	-0.040478	-0.018010	-0.113335	-0.381047	-0.104142	-0.493876	0.013973	-0.252152	0.003287	0.036919	-0.012273	-0.089985	-0.485729	-0.541488	0.013027	-0.160912	-0.060880	-0.246060	-0.146722	0.003322	-0.272914	0.002023	0.004224	-0.001060	-0.002656	0.015335	0.030772	-0.000916	-0.295728	0.008526	-0.174926	0.002116	-0.090652	-0.110810	0.018009	-0.023595	-0.375779	0.015897	-0.059967	0.007613	-0.133059	-0.106670	-0.110531	-0.175936	-0.192554	-0.123895	-0.101564	-0.179025	-0.038800	-0.009980	-0.133243	-3582.954202	-0.063756	-0.008001	-0.081890	-0.028572	-0.095567	-0.015378	-0.548024	-80257.887874	-0.402624	-0.048706	0.014220
0.052787	-0.040478	-0.018010	-0.113335	-0.381047	-0.104142	-0.493876	0.013973	-0.252152	0.003287	0.036919	-0.012273	-0.089985	-0.485729	-0.541488	0.013027	-0.160912	-0.060880	-0.246060	-0.146722	0.003322	-0.272914	0.002023	0.004224	-0.001060	-0.002656	0.015335	0.030772	-0.000916	-0.295728	0.008526	-0.174926	0.002116	-0.090652	-0.110810	0.018009	-0.023595	-0.375779	0.015897	-0.059967	0.007613	-0.133059	-0.106670	-0.110531	-0.175936	-0.192554	-0.123895	-0.101564	-0.179025	-0.038800	-0.009980	-0.133243	-3581.909163	-0.063756	-0.008001	-0.081890	-0.028572	-0.095567	-0.015378	-0.548024	-80259.207190	-0.402624	-0.048706	0.014220
0.052787	-0.040478	-0.018010	-0.113335	-0.381047	-0.104142	-0.493876	0.013973	-0.252152	0.003287	0.036919	-0.012273	-0.089985	-0.485729	-0.541488	0.013027	-0.160912	-0.060880	-0.246060	-0.146722	0.003322	-0.272914	0.002023	0.004224	-0.001060	-0.002656	0.015335	0.030772	-0.000916	-0.295728	0.008526	-0.174926	0.002116	-0.090652	-0.110810	0.018009	-0.023595	-0.375779	0.015897	-0.059967	0.007613	-0.133059	-0.106670	-0.110531	-0.175936	-0.192554	-0.123895	-0.101564	-0.179025	-0.038800	-0.009980	-0.133243	-3582.138061	-0.063756	-0.008001	-0.081890	-0.028572	-0.095567	-0.015378	-0.548024	-80257.157546	-0.402624	-0.048706	0.014220
0.052787	-0.040478	-0.018010	-0.113335	-0.381047	-0.104142	-0.493876	0.013973	-0.252152	0.003287	0.036919	-0.012273	-0.089985	-0.485729	-0.541488	0.013027	-0.160912	-0.060880	-0.246060	-0.146722	0.003322	-0.272914	0.002023	0.004224	-0.001060	-0.002656	0.015335	0.030772	-0.000916	-0.295728	0.008526	-0.174926	0.002116	-0.090652	-0.110810	0.018009	-0.023595	-0.375779	0.015897	-0.059967	0.007613	-0.133059	-0.106670	-0.110531	-0.175936	-0.192554	-0.123895	-0.101564	-0.179025	-0.038800	-0.009980	-0.133243	-3583.673911	-0.063756	-0.008001	-0.081890	-0.028572	-0.095567	-0.015378	-0.548024	-80253.814811	-0.402624	-0.048706	0.014220
0.052787	-0.040478	-0.018010	-0.113335	-0.381047	-0.104142	-0.493876	0.013973	-0.252152	0.003287	0.036919	-0.012273	-0.089985	-0.485729	-0.541488	0.013027	-0.160912	-0.060880	-0.246060	-0.146722	0.003322	-0.272914	0.002023	0.004224	-0.001060	-0.002656	0.015335	0.030772	-0.000916	-0.295728	0.008526	-0.174926	0.002116	-0.090652	-0.110810	0.018009	-0.023595	-0.375779	0.015897	-0.059967	0.007613	-0.133059	-0.106670	-0.110531	-0.175936	-0.192554	-0.123895	-0.101564	-0.179025	-0.038800	-0.009980	-0.133243	-3576.613640	-0.063756	-0.008001	-0.081890	-0.028572	-0.095567	-0.015378	-0.548024	-80269.585245	-0.402624	-0.048706	0.014220
0.052787	-0.040478	-0.018010	-0.113335	-0.381047	-0.104142	-0.493876	0.013973	-0.252152	0.003287	0.036919	-0.012273	-0.089985	-0.485729	-0.541488	0.013027	-0.160912	-0.060880	-0.246060	-0.146722	0.003322	-0.272914	0.002023	0.004224	-0.001060	-0.002656	0.015335	0.030772	-0.000916	-0.295728	0.008526	-0.174926	0.002116	-0.090652	-0.110810	0.018009	-0.023595	-0.375779	0.015897	-0.059967	0.007613	-0.133059	-0.106670	-0.110531	-0.175936	-0.192554	-0.123895	-0.101564	-0.179025	-0.038800	-0.009980	-0.133243	-3583.223734	-0.063756	-0.008001	-0.081890	-0.028572	-0.095567	-0.015378	-0.548024	-80256.684279	-0.402624	-0.048706	0.014220
0.052787	-0.040478	-0.018010	-0.113335	-0.381047	-0.104142	-0.493876	0.013973	-0.252152	0.003287	0.036919	-0.012273	-0.089985	-0.485729	-0.541488	0.013027	-0.160912	-0.060880	-0.246060	-0.146722	0.003322	-0.272914	0.002023	0.004224	-0.001060	-0.002656	0.015335	0.030772	-0.000916	-0.295728	0.008526	-0.174926	0.002116	-0.090652	-0.110810	0.018009	-0.023595	-0.375779	0.015897	-0.059967	0.007613	-0.133059	-0.106670	-0.110531	-0.175936	-0.192554	-0.123895	-0.101564	-0.179025	-0.038800	-0.009980	-0.133243	-3581.864692	-0.063756	-0.008001	-0.081890	-0.028572	-0.095567	-0.015378	-0.548024	-80255.421246	-0.402624	-0.048706	0.014220
0.052787	-0.040478	-0.018010	-0.113335	-0.381047	-0.104142	-0.493876	0.013973	-0.252152	0.003287	0.036919	-0.012273	-0.089985	-0.485729	-0.541488	0.013027	-0.160912	-0.060880	-0.246060	-0.146722	0.003322	-0.272914	0.002023	0.004224	-0.001060	-0.002656	0.015335	0.030772	-0.000916	-0.295728	0.008526	-0.174926	0.002116	-0.090652	-0.110810	0.018009	-0.023595	-0.375779	0.015897	-0.059967	0.007613	-0.133059	-0.106670	-0.110531	-0.175936	-0.192554	-0.123895	-0.101564	-0.179025	-0.038800	-0.009980	-0.133243	-3583.705242	-0.063756	-0.008001	-0.081890	-0.028572	-0.095567	-0.015378	-0.548024	-80252.291137	-0.402624	-0.048706	0.014220
0.052787	-0.040478	-0.018010	-0.113335	-0.381047	-0.104142	-0.493876	0.013973	-0.252152	0.003287	0.036919	-0.012273	-0.089985	-0.485729	-0.541488	0.013027	-0.160912	-0.060880	-0.246060	-0.146722	0.003322	-0.272914	0.002023	0.004224	-0.001060	-0.002656	0.015335	0.030772	-0.000916	-0.295728	0.008526	-0.174926	0.002116	-0.090652	-0.110810	0.018009	-0.023595	-0.375779	0.015897	-0.059967	0.007613	-0.133059	-0.106670	-0.110531	-0.175936	-0.192554	-0.123895	-0.101564	-0.179025	-0.038800	-0.009980	-0.133243	-3580.540597	-0.063756	-0.008001	-0.081890	-0.028572	-0.095567	-0.015378	-0.548024	-80260.754227	-0.402624	-0.048706	0.014220
0.052787	-0.040478	-0.018010	-0.113335	-0.381047	-0.104142	-0.493876	0.013973	-0.252152	0.003287	0.036919	-0.012273	-0.089985	-0.485729	-0.541488	0.013027	-0.160912	-0.060880	-0.246060	-0.146722	0.003322	-0.272914	0.002023	0.004224	-0.001060	-0.002656	0.015335	0.030772	-0.000916	-0.295728	0.008526	-0.174926	0.002116	-0.090652	-0.110810	0.018009	-0.023595	-0.375779	0.015897	-0.059967	0.007613	-0.133059	-0.106670	-0.110531	-0.175936	-0.192554	-0.123895	-0.101564	-0.179025	-0.038800	-0.009980	-0.133243	-3583.339295	-0.063756	-0.008001	-0.081890	-0.028572	-0.095567	-0.015378	-0.548024	-80247.425516	-0.402624	-0.048706	0.014220
0.052787	-0.040478	-0.018010	-0.113335	-0.381047	-0.104142	-0.493876	0.013973	-0.252152	0.003287	0.036919	-0.012273	-0.089985	-0.485729	-0.541488	0.013027	-0.160912	-0.060880	-0.246060	-0.146722	0.003322	-0.272914	0.002023	0.004224	-0.001060	-0.002656	0.015335	0.030772	-0.000916	-0.295728	0.008526	-0.174926	0.002116	-0.090652	-0.110810	0.018009	-0.023595	-0.375779	0.015897	-0.059967	0.007613	-0.133059	-0.106670	-0.110531	-0.175936	-0.192554	-0.123895	-0.101564	-0.179025	-0.038800	-0.009980	-0.133243	-3577.692974	-0.063756	-0.008001	-0.081890	-0.028572	-0.095567	-0.015378	-0.548024	-80264.965730	-0.402624	-0.048706	0.014220
0.052787	-0.040478	-0.018010	-0.113335	-0.381047	-0.104142	-0.493876	0.013973	-0.252152	0.003287	0.036919	-0.012273	-0.089985	-0.485729	-0.541488	0.013027	-0.160912	-0.060880	-0.246060	-0.146722	0.003322	-0.272914	0.002023	0.004224	-0.001060	-0.002656	0.015335	0.030772	-0.000916	-0.295728	0.008526	-0.174926	0.002116	-0.090652	-0.110810	0.018009	-0.023595	-0.375779	0.015897	-0.059967	0.007613	-0.133059	-0.106670	-0.110531	-0.175936	-0.192554	-0.123895	-0.101564	-0.179025	-0.038800	-0.009980	-0.133243	-3584.997302	-0.063756	-0.008001	-0.081890	-0.028572	-0.095567	-0.015378	-0.548024	-80243.673740	-0.402624	-0.048706	0.014220
0.052787	-0.040478	-0.018010	-0.113335	-0.381047	-0.104142	-0.493876	0.013973	-0.252152	0.003287	0.036919	-0.012273	-0.089985	-0.485729	-0.541488	0.013027	-0.160912	-0.060880	-0.246060	-0.146722	0.003322	-0.272914	0.002023	0.004224	-0.001060	-0.002656	0.015335	0.030772	-0.000916	-0.295728	0.008526	-0.174926	0.002116	-0.090652	-0.110810	0.018009	-0.023595	-0.375779	0.015897	-0.059967	0.007613	-0.133059	-0.106670	-0.110531	-0.175936	-0.192554	-0.123895	-0.101564	-0.179025	-0.038800	-0.009980	-0.133243	-3580.781578	-0.063756	-0.008001	-0.081890	-0.028572	-0.095567	-0.015378	-0.548024	-80251.568703	-0.402624	-0.048706	0.014220
0.052787	-0.040478	-0.018010	-0.113335	-0.381047	-0.104142	-0.493876	0.013973	-0.252152	0.003287	0.036919	-0.012273	-0.089985	-0.485729	-0.541488	0.013027	-0.160912	-0.060880	-0.246060	-0.146722	0.003322	-0.272914	0.002023	0.004224	-0.001060	-0.002656	0.015335	0.030772	-0.000916	-0.295728	0.008526	-0.174926	0.002116	-0.090652	-0.110810	0.018009	-0.023595	-0.375779	0.015897	-0.059967	0.007613	-0.133059	-0.106670	-0.110531	-0.175936	-0.192554	-0.123895	-0.101564	-0.179025	-0.038800	-0.009980	-0.133243	-3576.383103	-0.063756	-0.008001	-0.081890	-0.028572	-0.095567	-0.015378	-0.548024	-80269.121869	-0.402624	-0.048706	0.014220
0.052787	-0.040478	-0.018010	-0.113335	-0.381047	-0.104142	-0.493876	0.013973	-0.252152	0.003287	0.036919	-0.012273	-0.089985	-0.485729	-0.541488	0.013027	-0.160912	-0.060880	-0.246060	-0.146722	0.003322	-0.272914	0.002023	0.004224	-0.001060	-0.002656	0.015335	0.030772	-0.000916	-0.295728	0.008526	-0.174926	0.002116	-0.090652	-0.110810	0.018009	-0.023595	-0.375779	0.015897	-0.059967	0.007613	-0.133059	-0.106670	-0.110531	-0.175936	-0.192554	-0.123895	-0.101564	-0.179025	-0.038800	-0.009980	-0.133243	-3580.198254	-0.063756	-0.008001	-0.081890	-0.028572	-0.095567	-0.015378	-0.548024	-80245.344164	-0.402624	-0.048706	0.014220
0.052787	-0.040478	-0.018010	-0.113335	-0.381047	-0.104142	-0.493876	0.013973	-0.252152	0.003287	0.036919	-0.012273	-0.089985	-0.485729	-0.541488	0.013027	-0.160912	-0.060880	-0.246060	-0.146722	0.003322	-0.272914	0.002023	0.004224	-0.001060	-0.002656	0.015335	0.030772	-0.000916	-0.295728	0.008526	-0.174926	0.002116	-0.090652	-0.110810	0.018009	-0.023595	-0.375779	0.015897	-0.059967	0.007613	-0.133059	-0.106670	-0.110531	-0.175936	-0.192554	-0.123895	-0.101564	-0.179025	-0.038800	-0.009980	-0.133243	-3584.638741	-0.063756	-0.008001	-0.081890	-0.028572	-0.095567	-0.015378	-0.548024	-80248.851204	-0.402624	-0.048706	0.014220
0.052787	-0.040478	-0.018010	-0.113335	-0.381047	-0.104142	-0.493876	0.013973	-0.252152	0.003287	0.036919	-0.012273	-0.089985	-0.485729	-0.541488	0.013027	-0.160912	-0.060880	-0.246060	-0.146722	0.003322	-0.272914	0.002023	0.004224	-0.001060	-0.002656	0.015335	0.030772	-0.000916	-0.295728	0.008526	-0.174926	0.002116	-0.090652	-0.110810	0.018009	-0.023595	-0.375779	0.015897	-0.059967	0.007613	-0.133059	-0.106670	-0.110531	-0.175936	-0.192554	-0.123895	-0.101564	-0.179025	-0.038800	-0.009980	-0.133243	-3578.792222	-0.063756	-0.008001	-0.081890	-0.028572	-0.095567	-0.015378	-0.548024	-80265.379590	-0.402624	-0.048706	0.014220
0.052787	-0.040478	-0.018010	-0.113335	-0.381047	-0.104142	-0.493876	0.013973	-0.252152	0.003287	0.036919	-0.012273	-0.089985	-0.485729	-0.541488	0.013027	-0.160912	-0.060880	-0.246060	-0.146722	0.003322	-0.272914	0.002023	0.004224	-0.001060	-0.002656	0.015335	0.030772	-0.000916	-0.295728	0.008526	-0.174926	0.002116	-0.090652	-0.110810	0.018009	-0.023595	-0.375779	0.015897	-0.059967	0.007613	-0.133059	-0.106670	-0.110531	-0.175936	-0.192554	-0.123895	-0.101564	-0.179025	-0.038800	-0.009980	-0.133243	-3579.346004	-0.063756	-0.008001	-0.081890	-0.028572	-0.095567	-0.015378	-0.548024	-80259.747371	-0.402624	-0.048706	0.014220
0.052787	-0.040478	-0.018010	-0.113335	-0.381047	-0.104142	-0.493876	0.013973	-0.252152	0.003287	0.036919	-0.012273	-0.089985	-0.485729	-0.541488	0.013027	-0.160912	-0.060880	-0.246060	-0.146722	0.003322	-0.272914	0.002023	0.004224	-0.001060	-0.002656	0.015335	0.030772	-0.000916	-0.295728	0.008526	-0.174926	0.002116	-0.090652	-0.110810	0.018009	-0.023595	-0.375779	0.015897	-0.059967	0.007613	-0.133059	-0.106670	-0.110531	-0.175936	-0.192554	-0.123895	-0.101564	-0.179025	-0.038800	-0.009980	-0.133243	-3582.253364	-0.063756	-0.008001	-0.081890	-0.028572	-0.095567	-0.015378	-0.548024	-80251.944843	-0.402624	-0.048706	0.014220
0.052787	-0.040478	-0.018010	-0.113335	-0.381047	-0.104142	-0.493876	0.013973	-0.252152	0.003287	0.036919	-0.012273	-0.089985	-0.485729	-0.541488	0.013027	-0.160912	-0.060880	-0.246060	-0.146722	0.003322	-0.272914	0.002023	0.004224	-0.001060	-0.002656	0.015335	0.030772	-0.000916	-0.295728	0.008526	-0.174926	0.002116	-0.090652	-0.110810	0.018009	-0.023595	-0.375779	0.015897	-0.059967	0.007613	-0.133059	-0.106670	-0.110531	-0.175936	-0.192554	-0.123895	-0.101564	-0.179025	-0.038800	-0.009980	-0.133243	-3583.945570	-0.063756	-0.008001	-0.081890	-0.028572	-0.095567	-0.015378	-0.548024	-80247.100098	-0.402624	-0.048706	0.014220
0.052787	-0.040478	-0.018010	-0.113335	-0.381047	-0.104142	-0.493876	0.013973	-0.252152	0.003287	0.036919	-0.012273	-0.089985	-0.485729	-0.541488	0.013027	-0.160912	-0.060880	-0.246060	-0.146722	0.003322	-0.272914	0.002023	0.004224	-0.001060	-0.002656	0.015335	0.030772	-0.000916	-0.295728	0.008526	-0.174926	0.002116	-0.090652	-0.110810	0.018009	-0.023595	-0.375779	0.015897	-0.059967	0.007613	-0.133059	-0.106670	-0.110531	-0.175936	-0.192554	-0.123895	-0.101564	-0.179025	-0.038800	-0.009980	-0.133243	-3582.916998	-0.063756	-0.008001	-0.081890	-0.028572	-0.095567	-0.015378	-0.548024	-80258.615082	-0.402624	-0.048706	0.014220
0.052787	-0.040478	-0.018010	-0.113335	-0.381047	-0.104142	-0.493876	0.013973	-0.252152	0.003287	0.036919	-0.012273	-0.089985	-0.485729	-0.541488	0.013027	-0.160912	-0.060880	-0.246060	-0.146722	0.003322	-0.272914	0.002023	0.004224	-0.001060	-0.002656	0.015335	0.030772	-0.000916	-0.295728	0.008526	-0.174926	0.002116	-0.090652	-0.110810	0.018009	-0.023595	-0.375779	0.015897	-0.059967	0.007613	-0.133059	-0.106670	-0.110531	-0.175936	-0.192554	-0.123895	-0.101564	-0.179025	-0.038800	-0.009980	-0.133243	-3580.258460	-0.063756	-0.008001	-0.081890	-0.028572	-0.095567	-0.015378	-0.548024	-80261.674001	-0.402624	-0.048706	0.014220
0.052787	-0.040478	-0.018010	-0.113335	-0.381047	-0.104142	-0.493876	0.013973	-0.252152	0.003287	0.036919	-0.012273	-0.089985	-0.485729	-0.541488	0.013027	-0.160912	-0.060880	-0.246060	-0.146722	0.003322	-0.272914	0.002023	0.004224	-0.001060	-0.002656	0.015335	0.030772	-0.000916	-0.295728	0.008526	-0.174926	0.002116	-0.090652	-0.110810	0.018009	-0.023595	-0.375779	0.015897	-0.059967	0.007613	-0.133059	-0.106670	-0.110531	-0.175936	-0.192554	-0.123895	-0.101564	-0.179025	-0.038800	-0.009980	-0.133243	-3582.863346	-0.063756	-0.008001	-0.081890	-0.028572	-0.095567	-0.015378	-0.548024	-80256.260636	-0.402624	-0.048706	0.014220
0.052787	-0.040478	-0.018010	-0.113335	-0.381047	-0.104142	-0.493876	0.013973	-0.252152	0.003287	0.036919	-0.012273	-0.089985	-0.485729	-0.541488	0.013027	-0.160912	-0.060880	-0.246060	-0.146722	0.003322	-0.272914	0.002023	0.004224	-0.001060	-0.002656	0.015335	0.030772	-0.000916	-0.295728	0.008526	-0.174926	0.002116	-0.090652	-0.110810	0.018009	-0.023595	-0.375779	0.015897	-0.059967	0.007613	-0.133059	-0.106670	-0.110531	-0.175936	-0.192554	-0.123895	-0.101564	-0.179025	-0.038800	-0.009980	-0.133243	-3584.402234	-0.063756	-0.008001	-0.081890	-0.028572	-0.095567	-0.015378	-0.548024	-80250.385159	-0.402624	-0.048706	0.014220
0.052787	-0.040478	-0.018010	-0.113335	-0.381047	-0.104142	-0.493876	0.013973	-0.252152	0.003287	0.036919	-0.012273	-0.089985	-0.485729	-0.541488	0.013027	-0.160912	-0.060880	-0.246060	-0.146722	0.003322	-0.272914	0.002023	0.004224	-0.001060	-0.002656	0.015335	0.030772	-0.000916	-0.295728	0.008526	-0.174926	0.002116	-0.090652	-0.110810	0.018009	-0.023595	-0.375779	0.015897	-0.059967	0.007613	-0.133059	-0.106670	-0.110531	-0.175936	-0.192554	-0.123895	-0.101564	-0.179025	-0.038800	-0.009980	-0.133243	-3579.420059	-0.063756	-0.008001	-0.081890	-0.028572	-0.095567	-0.015378	-0.548024	-80261.995172	-0.402624	-0.048706	0.014220
0.052787	-0.040478	-0.018010	-0.113335	-0.381047	-0.104142	-0.493876	0.013973	-0.252152	0.003287	0.036919	-0.012273	-0.089985	-0.485729	-0.541488	0.013027	-0.160912	-0.060880	-0.246060	-0.146722	0.003322	-0.272914	0.002023	0.004224	-0.001060	-0.002656	0.015335	0.030772	-0.000916	-0.295728	0.008526	-0.174926	0.002116	-0.090652	-0.110810	0.018009	-0.023595	-0.375779	0.015897	-0.059967	0.007613	-0.133059	-0.106670	-0.110531	-0.175936	-0.192554	-0.123895	-0.101564	-0.179025	-0.038800	-0.009980	-0.133243	-3578.049995	-0.063756	-0.008001	-0.081890	-0.028572	-0.095567	-0.015378	-0.548024	-80263.014176	-0.402624	-0.048706	0.014220
0.052787	-0.040478	-0.018010	-0.113335	-0.381047	-0.104142	-0.493876	0.013973	-0.252152	0.003287	0.036919	-0.012273	-0.089985	-0.485729	-0.541488	0.013027	-0.160912	-0.060880	-0.246060	-0.146722	0.003322	-0.272914	0.002023	0.004224	-0.001060	-0.002656	0.015335	0.030772	-0.000916	-0.295728	0.008526	-0.174926	0.002116	-0.090652	-0.110810	0.018009	-0.023595	-0.375779	0.015897	-0.059967	0.007613	-0.133059	-0.106670	-0.110531	-0.175936	-0.192554	-0.123895	-0.101564	-0.179025	-0.038800	-0.009980	-0.133243	-3580.412984	-0.063756	-0.008001	-0.081890	-0.028572	-0.095567	-0.015378	-0.548024	-80264.578729	-0.402624	-0.048706	0.014220
0.052787	-0.040478	-0.018010	-0.113335	-0.381047	-0.104142	-0.493876	0.013973	-0.252152	0.003287	0.036919	-0.012273	-0.089985	-0.485729	-0.541488	0.013027	-0.160912	-0.060880	-0.246060	-0.146722	0.003322	-0.272914	0.002023	0.004224	-0.001060	-0.002656	0.015335	0.030772	-0.000916	-0.295728	0.008526	-0.174926	0.002116	-0.090652	-0.110810	0.018009	-0.023595	-0.375779	0.015897	-0.059967	0.007613	-0.133059	-0.106670	-0.110531	-0.175936	-0.192554	-0.123895	-0.101564	-0.179025	-0.038800	-0.009980	-0.133243	-3578.682098	-0.063756	-0.008001	-0.081890	-0.028572	-0.095567	-0.015378	-0.548024	-80262.083093	-0.402624	-0.048706	0.014220
0.052787	-0.040478	-0.018010	-0.113335	-0.381047	-0.104142	-0.493876	0.013973	-0.252152	0.003287	0.036919	-0.012273	-0.089985	-0.485729	-0.541488	0.013027	-0.160912	-0.060880	-0.246060	-0.146722	0.003322	-0.272914	0.002023	0.004224	-0.001060	-0.002656	0.015335	0.030772	-0.000916	-0.295728	0.008526	-0.174926	0.002116	-0.090652	-0.110810	0.018009	-0.023595	-0.375779	0.015897	-0.059967	0.007613	-0.133059	-0.106670	-0.110531	-0.175936	-0.192554	-0.123895	-0.101564	-0.179025	-0.038800	-0.009980	-0.133243	-3581.523238	-0.063756	-0.008001	-0.081890	-0.028572	-0.095567	-0.015378	-0.548024	-80259.677736	-0.402624	-0.048706	0.014220
0.052787	-0.040478	-0.018010	-0.113335	-0.381047	-0.104142	-0.493876	0.013973	-0.252152	0.003287	0.036919	-0.012273	-0.089985	-0.485729	-0.541488	0.013027	-0.160912	-0.060880	-0.246060	-0.146722	0.003322	-0.272914	0.002023	0.004224	-0.001060	-0.002656	0.015335	0.030772	-0.000916	-0.295728	0.008526	-0.174926	0.002116	-0.090652	-0.110810	0.018009	-0.023595	-0.375779	0.015897	-0.059967	0.007613	-0.133059	-0.106670	-0.110531	-0.175936	-0.192554	-0.123895	-0.101564	-0.179025	-0.038800	-0.009980	-0.133243	-3582.089470	-0.063756	-0.008001	-0.081890	-0.028572	-0.095567	-0.015378	-0.548024	-80254.362654	-0.402624	-0.048706	0.014220
0.052787	-0.040478	-0.018010	-0.113335	-0.381047	-0.104142	-0.493876	0.013973	-0.252152	0.003287	0.036919	-0.012273	-0.089985	-0.485729	-0.541488	0.013027	-0.160912	-0.060880	-0.246060	-0.146722	0.003322	-0.272914	0.002023	0.004224	-0.001060	-0.002656	0.015335	0.030772	-0.000916	-0.295728	0.008526	-0.174926	0.002116	-0.090652	-0.110810	0.018009	-0.023595	-0.375779	0.015897	-0.059967	0.007613	-0.133059	-0.106670	-0.110531	-0.175936	-0.192554	-0.123895	-0.101564	-0.179025	-0.038800	-0.009980	-0.133243	-3578.796803	-0.063756	-0.008001	-0.081890	-0.028572	-0.095567	-0.015378	-0.548024	-80258.550007	-0.402624	-0.048706	0.014220
0.052787	-0.040478	-0.018010	-0.113335	-0.381047	-0.104142	-0.493876	0.013973	-0.252152	0.003287	0.036919	-0.012273	-0.089985	-0.485729	-0.541488	0.013027	-0.160912	-0.060880	-0.246060	-0.146722	0.003322	-0.272914	0.002023	0.004224	-0.001060	-0.002656	0.015335	0.030772	-0.000916	-0.295728	0.008526	-0.174926	0.002116	-0.090652	-0.110810	0.018009	-0.023595	-0.375779	0.015897	-0.059967	0.007613	-0.133059	-0.106670	-0.110531	-0.175936	-0.192554	-0.123895	-0.101564	-0.179025	-0.038800	-0.009980	-0.133243	-3579.363252	-0.063756	-0.008001	-0.081890	-0.028572	-0.095567	-0.015378	-0.548024	-80262.175491	-0.402624	-0.048706	0.014220
0.052787	-0.040478	-0.018010	-0.113335	-0.381047	-0.104142	-0.493876	0.013973	-0.252152	0.003287	0.036919	-0.012273	-0.089985	-0.485729	-0.541488	0.013027	-0.160912	-0.060880	-0.246060	-0.146722	0.003322	-0.272914	0.002023	0.004224	-0.001060	-0.002656	0.015335	0.030772	-0.000916	-0.295728	0.008526	-0.174926	0.002116	-0.090652	-0.110810	0.018009	-0.023595	-0.375779	0.015897	-0.059967	0.007613	-0.133059	-0.106670	-0.110531	-0.175936	-0.192554	-0.123895	-0.101564	-0.179025	-0.038800	-0.009980	-0.133243	-3583.239711	-0.063756	-0.008001	-0.081890	-0.028572	-0.095567	-0.015378	-0.548024	-80245.795248	-0.402624	-0.048706	0.014220
0.052787	-0.040478	-0.018010	-0.113335	-0.381047	-0.104142	-0.493876	0.013973	-0.252152	0.003287	0.036919	-0.012273	-0.089985	-0.485729	-0.541488	0.013027	-0.160912	-0.060880	-0.246060	-0.146722	0.003322	-0.272914	0.002023	0.004224	-0.001060	-0.002656	0.015335	0.030772	-0.000916	-0.295728	0.008526	-0.174926	0.002116	-0.090652	-0.110810	0.018009	-0.023595	-0.375779	0.015897	-0.059967	0.007613	-0.133059	-0.106670	-0.110531	-0.175936	-0.192554	-0.123895	-0.101564	-0.179025	-0.038800	-0.009980	-0.133243	-3580.401890	-0.063756	-0.008001	-0.081890	-0.028572	-0.095567	-0.015378	-0.548024	-80259.518824	-0.402624	-0.048706	0.014220
0.052787	-0.040478	-0.018010	-0.113335	-0.381047	-0.104142	-0.493876	0.013973	-0.252152	0.003287	0.036919	-0.012273	-0.089985	-0.485729	-0.541488	0.013027	-0.160912	-0.060880	-0.246060	-0.146722	0.003322	-0.272914	0.002023	0.004224	-0.001060	-0.002656	0.015335	0.030772	-0.000916	-0.295728	0.008526	-0.174926	0.002116	-0.090652	-0.110810	0.018009	-0.023595	-0.375779	0.015897	-0.059967	0.007613	-0.133059	-0.106670	-0.110531	-0.175936	-0.192554	-0.123895	-0.101564	-0.179025	-0.038800	-0.009980	-0.133243	-3580.162094	-0.063756	-0.008001	-0.081890	-0.028572	-0.095567	-0.015378	-0.548024	-80265.862991	-0.402624	-0.048706	0.014220
0.052787	-0.040478	-0.018010	-0.113335	-0.381047	-0.104142	-0.493876	0.013973	-0.252152	0.003287	0.036919	-0.012273	-0.089985	-0.485729	-0.541488	0.013027	-0.160912	-0.060880	-0.246060	-0.146722	0.003322	-0.272914	0.002023	0.004224	-0.001060	-0.002656	0.015335	0.030772	-0.000916	-0.295728	0.008526	-0.174926	0.002116	-0.090652	-0.110810	0.018009	-0.023595	-0.375779	0.015897	-0.059967	0.007613	-0.133059	-0.106670	-0.110531	-0.175936	-0.192554	-0.123895	-0.101564	-0.179025	-0.038800	-0.009980	-0.133243	-3579.039766	-0.063756	-0.008001	-0.081890	-0.028572	-0.095567	-0.015378	-0.548024	-80260.327644	-0.402624	-0.048706	0.014220
0.052787	-0.040478	-0.018010	-0.113335	-0.381047	-0.104142	-0.493876	0.013973	-0.252152	0.003287	0.036919	-0.012273	-0.089985	-0.485729	-0.541488	0.013027	-0.160912	-0.060880	-0.246060	-0.146722	0.003322	-0.272914	0.002023	0.004224	-0.001060	-0.002656	0.015335	0.030772	-0.000916	-0.295728	0.008526	-0.174926	0.002116	-0.090652	-0.110810	0.018009	-0.023595	-0.375779	0.015897	-0.059967	0.007613	-0.133059	-0.106670	-0.110531	-0.175936	-0.192554	-0.123895	-0.101564	-0.179025	-0.038800	-0.009980	-0.133243	-3584.413728	-0.063756	-0.008001	-0.081890	-0.028572	-0.095567	-0.015378	-0.548024	-80246.996320	-0.402624	-0.048706	0.014220
0.052787	-0.040478	-0.018010	-0.113335	-0.381047	-0.104142	-0.493876	0.013973	-0.252152	0.003287	0.036919	-0.012273	-0.089985	-0.485729	-0.541488	0.013027	-0.160912	-0.060880	-0.246060	-0.146722	0.003322	-0.272914	0.002023	0.004224	-0.001060	-0.002656	0.015335	0.030772	-0.000916	-0.295728	0.008526	-0.174926	0.002116	-0.090652	-0.110810	0.018009	-0.023595	-0.375779	0.015897	-0.059967	0.007613	-0.133059	-0.106670	-0.110531	-0.175936	-0.192554	-0.123895	-0.101564	-0.179025	-0.038800	-0.009980	-0.133243	-3582.833929	-0.063756	-0.008001	-0.081890	-0.028572	-0.095567	-0.015378	-0.548024	-80261.892423	-0.402624	-0.048706	0.014220
0.052787	-0.040478	-0.018010	-0.113335	-0.381047	-0.104142	-0.493876	0.013973	-0.252152	0.003287	0.036919	-0.012273	-0.089985	-0.485729	-0.541488	0.013027	-0.160912	-0.060880	-0.246060	-0.146722	0.003322	-0.272914	0.002023	0.004224	-0.001060	-0.002656	0.015335	0.030772	-0.000916	-0.295728	0.008526	-0.174926	0.002116	-0.090652	-0.110810	0.018009	-0.023595	-0.375779	0.015897	-0.059967	0.007613	-0.133059	-0.106670	-0.110531	-0.175936	-0.192554	-0.123895	-0.101564	-0.179025	-0.038800	-0.009980	-0.133243	-3581.904500	-0.063756	-0.008001	-0.081890	-0.028572	-0.095567	-0.015378	-0.548024	-80250.052888	-0.402624	-0.048706	0.014220
0.052787	-0.040478	-0.018010	-0.113335	-0.381047	-0.104142	-0.493876	0.013973	-0.252152	0.003287	0.036919	-0.012273	-0.089985	-0.485729	-0.541488	0.013027	-0.160912	-0.060880	-0.246060	-0.146722	0.003322	-0.272914	0.002023	0.004224	-0.001060	-0.002656	0.015335	0.030772	-0.000916	-0.295728	0.008526	-0.174926	0.002116	-0.090652	-0.110810	0.018009	-0.023595	-0.375779	0.015897	-0.059967	0.007613	-0.133059	-0.106670	-0.110531	-0.175936	-0.192554	-0.123895	-0.101564	-0.179025	-0.038800	-0.009980	-0.133243	-3584.421707	-0.063756	-0.008001	-0.081890	-0.028572	-0.095567	-0.015378	-0.548024	-80250.769830	-0.402624	-0.048706	0.014220
0.052787	-0.040478	-0.018010	-0.113335	-0.381047	-0.104142	-0.493876	0.013973	-0.252152	0.003287	0.036919	-0.012273	-0.089985	-0.485729	-0.541488	0.013027	-0.160912	-0.060880	-0.246060	-0.146722	0.003322	-0.272914	0.002023	0.004224	-0.001060	-0.002656	0.015335	0.030772	-0.000916	-0.295728	0.008526	-0.174926	0.002116	-0.090652	-0.110810	0.018009	-0.023595	-0.375779	0.015897	-0.059967	0.007613	-0.133059	-0.106670	-0.110531	-0.175936	-0.192554	-0.123895	-0.101564	-0.179025	-0.038800	-0.009980	-0.133243	-3581.258113	-0.063756	-0.008001	-0.081890	-0.028572	-0.095567	-0.015378	-0.548024	-80258.082762	-0.402624	-0.048706	0.014220
0.052787	-0.040478	-0.018010	-0.113335	-0.381047	-0.104142	-0.493876	0.013973	-0.252152	0.003287	0.036919	-0.012273	-0.089985	-0.485729	-0.541488	0.013027	-0.160912	-0.060880	-0.246060	-0.146722	0.003322	-0.272914	0.002023	0.004224	-0.001060	-0.002656	0.015335	0.030772	-0.000916	-0.295728	0.008526	-0.174926	0.002116	-0.090652	-0.110810	0.018009	-0.023595	-0.375779	0.015897	-0.059967	0.007613	-0.133059	-0.106670	-0.110531	-0.175936	-0.192554	-0.123895	-0.101564	-0.179025	-0.038800	-0.009980	-0.133243	-3582.298419	-0.063756	-0.008001	-0.081890	-0.028572	-0.095567	-0.015378	-0.548024	-80252.714305	-0.402624	-0.048706	0.014220
0.052787	-0.040478	-0.018010	-0.113335	-0.381047	-0.104142	-0.493876	0.013973	-0.252152	0.003287	0.036919	-0.012273	-0.089985	-0.485729	-0.541488	0.013027	-0.160912	-0.060880	-0.246060	-0.146722	0.003322	-0.272914	0.002023	0.004224	-0.001060	-0.002656	0.015335	0.030772	-0.000916	-0.295728	0.008526	-0.174926	0.002116	-0.090652	-0.110810	0.018009	-0.023595	-0.375779	0.015897	-0.059967	0.007613	-0.133059	-0.106670	-0.110531	-0.175936	-0.192554	-0.123895	-0.101564	-0.179025	-0.038800	-0.009980	-0.133243	-3579.224798	-0.063756	-0.008001	-0.081890	-0.028572	-0.095567	-0.015378	-0.548024	-80263.108624	-0.402624	-0.048706	0.014220
0.052787	-0.040478	-0.018010	-0.113335	-0.381047	-0.104142	-0.493876	0.013973	-0.252152	0.003287	0.036919	-0.012273	-0.089985	-0.485729	-0.541488	0.013027	-0.160912	-0.060880	-0.246060	-0.146722	0.003322	-0.272914	0.002023	0.004224	-0.001060	-0.002656	0.015335	0.030772	-0.000916	-0.295728	0.008526	-0.174926	0.002116	-0.090652	-0.110810	0.018009	-0.023595	-0.375779	0.015897	-0.059967	0.007613	-0.133059	-0.106670	-0.110531	-0.175936	-0.192554	-0.123895	-0.101564	-0.179025	-0.038800	-0.009980	-0.133243	-3579.499026	-0.063756	-0.008001	-0.081890	-0.028572	-0.095567	-0.015378	-0.548024	-80265.242231	-0.402624	-0.048706	0.014220
0.052787	-0.040478	-0.018010	-0.113335	-0.381047	-0.104142	-0.493876	0.013973	-0.252152	0.003287	0.036919	-0.012273	-0.089985	-0.485729	-0.541488	0.013027	-0.160912	-0.060880	-0.246060	-0.146722	0.003322	-0.272914	0.002023	0.004224	-0.001060	-0.002656	0.015335	0.030772	-0.000916	-0.295728	0.008526	-0.174926	0.002116	-0.090652	-0.110810	0.018009	-0.023595	-0.375779	0.015897	-0.059967	0.007613	-0.133059	-0.106670	-0.110531	-0.175936	-0.192554	-0.123895	-0.101564	-0.179025	-0.038800	-0.009980	-0.133243	-3582.436364	-0.063756	-0.008001	-0.081890	-0.028572	-0.095567	-0.015378	-0.548024	-80257.599977	-0.402624	-0.048706	0.014220
0.052787	-0.040478	-0.018010	-0.113335	-0.381047	-0.104142	-0.493876	0.013973	-0.252152	0.003287	0.036919	-0.012273	-0.089985	-0.485729	-0.541488	0.013027	-0.160912	-0.060880	-0.246060	-0.146722	0.003322	-0.272914	0.002023	0.004224	-0.001060	-0.002656	0.015335	0.030772	-0.000916	-0.295728	0.008526	-0.174926	0.002116	-0.090652	-0.110810	0.018009	-0.023595	-0.375779	0.015897	-0.059967	0.007613	-0.133059	-0.106670	-0.110531	-0.175936	-0.192554	-0.123895	-0.101564	-0.179025	-0.038800	-0.009980	-0.133243	-3584.536020	-0.063756	-0.008001	-0.081890	-0.028572	-0.095567	-0.015378	-0.548024	-80251.367481	-0.402624	-0.048706	0.014220
0.052787	-0.040478	-0.018010	-0.113335	-0.381047	-0.104142	-0.493876	0.013973	-0.252152	0.003287	0.036919	-0.012273	-0.089985	-0.485729	-0.541488	0.013027	-0.160912	-0.060880	-0.246060	-0.146722	0.003322	-0.272914	0.002023	0.004224	-0.001060	-0.002656	0.015335	0.030772	-0.000916	-0.295728	0.008526	-0.174926	0.002116	-0.090652	-0.110810	0.018009	-0.023595	-0.375779	0.015897	-0.059967	0.007613	-0.133059	-0.106670	-0.110531	-0.175936	-0.192554	-0.123895	-0.101564	-0.179025	-0.038800	-0.009980	-0.133243	-3579.352376	-0.063756	-0.008001	-0.081890	-0.028572	-0.095567	-0.015378	-0.548024	-80264.525748	-0.402624	-0.048706	0.014220
0.052787	-0.040478	-0.018010	-0.113335	-0.381047	-0.104142	-0.493876	0.013973	-0.252152	0.003287	0.036919	-0.012273	-0.089985	-0.485729	-0.541488	0.013027	-0.160912	-0.060880	-0.246060	-0.146722	0.003322	-0.272914	0.002023	0.004224	-0.001060	-0.002656	0.015335	0.030772	-0.000916	-0.295728	0.008526	-0.174926	0.002116	-0.090652	-0.110810	0.018009	-0.023595	-0.375779	0.015897	-0.059967	0.007613	-0.133059	-0.106670	-0.110531	-0.175936	-0.192554	-0.123895	-0.101564	-0.179025	-0.038800	-0.009980	-0.133243	-3580.689555	-0.063756	-0.008001	-0.081890	-0.028572	-0.095567	-0.015378	-0.548024	-80260.075255	-0.402624	-0.048706	0.014220
0.052787	-0.040478	-0.018010	-0.113335	-0.381047	-0.104142	-0.493876	0.013973	-0.252152	0.003287	0.036919	-0.012273	-0.089985	-0.485729	-0.541488	0.013027	-0.160912	-0.060880	-0.246060	-0.146722	0.003322	-0.272914	0.002023	0.004224	-0.001060	-0.002656	0.015335	0.030772	-0.000916	-0.295728	0.008526	-0.174926	0.002116	-0.090652	-0.110810	0.018009	-0.023595	-0.375779	0.015897	-0.059967	0.007613	-0.133059	-0.106670	-0.110531	-0.175936	-0.192554	-0.123895	-0.101564	-0.179025	-0.038800	-0.009980	-0.133243	-3581.232672	-0.063756	-0.008001	-0.081890	-0.028572	-0.095567	-0.015378	-0.548024	-80257.011309	-0.402624	-0.048706	0.014220
0.052787	-0.040478	-0.018010	-0.113335	-0.381047	-0.104142	-0.493876	0.013973	-0.252152	0.003287	0.036919	-0.012273	-0.089985	-0.485729	-0.541488	0.013027	-0.160912	-0.060880	-0.246060	-0.146722	0.003322	-0.272914	0.002023	0.004224	-0.001060	-0.002656	0.015335	0.030772	-0.000916	-0.295728	0.008526	-0.174926	0.002116	-0.090652	-0.110810	0.018009	-0.023595	-0.375779	0.015897	-0.059967	0.007613	-0.133059	-0.106670	-0.110531	-0.175936	-0.192554	-0.123895	-0.101564	-0.179025	-0.038800	-0.009980	-0.133243	-3582.734977	-0.063756	-0.008001	-0.081890	-0.028572	-0.095567	-0.015378	-0.548024	-80256.129952	-0.402624	-0.048706	0.014220
0.052787	-0.040478	-0.018010	-0.113335	-0.381047	-0.104142	-0.493876	0.013973	-0.252152	0.003287	0.036919	-0.012273	-0.089985	-0.485729	-0.541488	0.013027	-0.160912	-0.060880	-0.246060	-0.146722	0.003322	-0.272914	0.002023	0.004224	-0.001060	-0.002656	0.015335	0.030772	-0.000916	-0.295728	0.008526	-0.174926	0.002116	-0.090652	-0.110810	0.018009	-0.023595	-0.375779	0.015897	-0.059967	0.007613	-0.133059	-0.106670	-0.110531	-0.175936	-0.192554	-0.123895	-0.101564	-0.179025	-0.038800	-0.009980	-0.133243	-3577.226909	-0.063756	-0.008001	-0.081890	-0.028572	-0.095567	-0.015378	-0.548024	-80267.474881	-0.402624	-0.048706	0.014220
0.052787	-0.040478	-0.018010	-0.113335	-0.381047	-0.104142	-0.493876	0.013973	-0.252152	0.003287	0.036919	-0.012273	-0.089985	-0.485729	-0.541488	0.013027	-0.160912	-0.060880	-0.246060	-0.146722	0.003322	-0.272914	0.002023	0.004224	-0.001060	-0.002656	0.015335	0.030772	-0.000916	-0.295728	0.008526	-0.174926	0.002116	-0.090652	-0.110810	0.018009	-0.023595	-0.375779	0.015897	-0.059967	0.007613	-0.133059	-0.106670	-0.110531	-0.175936	-0.192554	-0.123895	-0.101564	-0.179025	-0.038800	-0.009980	-0.133243	-3579.478993	-0.063756	-0.008001	-0.081890	-0.028572	-0.095567	-0.015378	-0.548024	-80266.329396	-0.402624	-0.048706	0.014220
0.052787	-0.040478	-0.018010	-0.113335	-0.381047	-0.104142	-0.493876	0.013973	-0.252152	0.003287	0.036919	-0.012273	-0.089985	-0.485729	-0.541488	0.013027	-0.160912	-0.060880	-0.246060	-0.146722	0.003322	-0.272914	0.002023	0.004224	-0.001060	-0.002656	0.015335	0.030772	-0.000916	-0.295728	0.008526	-0.174926	0.002116	-0.090652	-0.110810	0.018009	-0.023595	-0.375779	0.015897	-0.059967	0.007613	-0.133059	-0.106670	-0.110531	-0.175936	-0.192554	-0.123895	-0.101564	-0.179025	-0.038800	-0.009980	-0.133243	-3580.358982	-0.063756	-0.008001	-0.081890	-0.028572	-0.095567	-0.015378	-0.548024	-80259.623193	-0.402624	-0.048706	0.014220
0.052787	-0.040478	-0.018010	-0.113335	-0.381047	-0.104142	-0.493876	0.013973	-0.252152	0.003287	0.036919	-0.012273	-0.089985	-0.485729	-0.541488	0.013027	-0.160912	-0.060880	-0.246060	-0.146722	0.003322	-0.272914	0.002023	0.004224	-0.001060	-0.002656	0.015335	0.030772	-0.000916	-0.295728	0.008526	-0.174926	0.002116	-0.090652	-0.110810	0.018009	-0.023595	-0.375779	0.015897	-0.059967	0.007613	-0.133059	-0.106670	-0.110531	-0.175936	-0.192554	-0.123895	-0.101564	-0.179025	-0.038800	-0.009980	-0.133243	-3580.046991	-0.063756	-0.008001	-0.081890	-0.028572	-0.095567	-0.015378	-0.548024	-80262.444974	-0.402624	-0.048706	0.014220
0.052787	-0.040478	-0.018010	-0.113335	-0.381047	-0.104142	-0.493876	0.013973	-0.252152	0.003287	0.036919	-0.012273	-0.089985	-0.485729	-0.541488	0.013027	-0.160912	-0.060880	-0.246060	-0.146722	0.003322	-0.272914	0.002023	0.004224	-0.001060	-0.002656	0.015335	0.030772	-0.000916	-0.295728	0.008526	-0.174926	0.002116	-0.090652	-0.110810	0.018009	-0.023595	-0.375779	0.015897	-0.059967	0.007613	-0.133059	-0.106670	-0.110531	-0.175936	-0.192554	-0.123895	-0.101564	-0.179025	-0.038800	-0.009980	-0.133243	-3577.954499	-0.063756	-0.008001	-0.081890	-0.028572	-0.095567	-0.015378	-0.548024	-80265.180898	-0.402624	-0.048706	0.014220
0.052787	-0.040478	-0.018010	-0.113335	-0.381047	-0.104142	-0.493876	0.013973	-0.252152	0.003287	0.036919	-0.012273	-0.089985	-0.485729	-0.541488	0.013027	-0.160912	-0.060880	-0.246060	-0.146722	0.003322	-0.272914	0.002023	0.004224	-0.001060	-0.002656	0.015335	0.030772	-0.000916	-0.295728	0.008526	-0.174926	0.002116	-0.090652	-0.110810	0.018009	-0.023595	-0.375779	0.015897	-0.059967	0.007613	-0.133059	-0.106670	-0.110531	-0.175936	-0.192554	-0.123895	-0.101564	-0.179025	-0.038800	-0.009980	-0.133243	-3582.097722	-0.063756	-0.008001	-0.081890	-0.028572	-0.095567	-0.015378	-0.548024	-80251.147929	-0.402624	-0.048706	0.014220
0.052787	-0.040478	-0.018010	-0.113335	-0.381047	-0.104142	-0.493876	0.013973	-0.252152	0.003287	0.036919	-0.012273	-0.089985	-0.485729	-0.541488	0.013027	-0.160912	-0.060880	-0.246060	-0.146722	0.003322	-0.272914	0.002023	0.004224	-0.001060	-0.002656	0.015335	0.030772	-0.000916	-0.295728	0.008526	-0.174926	0.002116	-0.090652	-0.110810	0.018009	-0.023595	-0.375779	0.015897	-0.059967	0.007613	-0.133059	-0.106670	-0.110531	-0.175936	-0.192554	-0.123895	-0.101564	-0.179025	-0.038800	-0.009980	-0.133243	-3581.197849	-0.063756	-0.008001	-0.081890	-0.028572	-0.095567	-0.015378	-0.548024	-80258.693727	-0.402624	-0.048706	0.014220
0.052787	-0.040478	-0.018010	-0.113335	-0.381047	-0.104142	-0.493876	0.013973	-0.252152	0.003287	0.036919	-0.012273	-0.089985	-0.485729	-0.541488	0.013027	-0.160912	-0.060880	-0.246060	-0.146722	0.003322	-0.272914	0.002023	0.004224	-0.001060	-0.002656	0.015335	0.030772	-0.000916	-0.295728	0.008526	-0.174926	0.002116	-0.090652	-0.110810	0.018009	-0.023595	-0.375779	0.015897	-0.059967	0.007613	-0.133059	-0.106670	-0.110531	-0.175936	-0.192554	-0.123895	-0.101564	-0.179025	-0.038800	-0.009980	-0.133243	-3581.375468	-0.063756	-0.008001	-0.081890	-0.028572	-0.095567	-0.015378	-0.548024	-80252.385496	-0.402624	-0.048706	0.014220
0.052787	-0.040478	-0.018010	-0.113335	-0.381047	-0.104142	-0.493876	0.013973	-0.252152	0.003287	0.036919	-0.012273	-0.089985	-0.485729	-0.541488	0.013027	-0.160912	-0.060880	-0.246060	-0.146722	0.003322	-0.272914	0.002023	0.004224	-0.001060	-0.002656	0.015335	0.030772	-0.000916	-0.295728	0.008526	-0.174926	0.002116	-0.090652	-0.110810	0.018009	-0.023595	-0.375779	0.015897	-0.059967	0.007613	-0.133059	-0.106670	-0.110531	-0.175936	-0.192554	-0.123895	-0.101564	-0.179025	-0.038800	-0.009980	-0.133243	-3578.777175	-0.063756	-0.008001	-0.081890	-0.028572	-0.095567	-0.015378	-0.548024	-80260.298286	-0.402624	-0.048706	0.014220
0.052787	-0.040478	-0.018010	-0.113335	-0.381047	-0.104142	-0.493876	0.013973	-0.252152	0.003287	0.036919	-0.012273	-0.089985	-0.485729	-0.541488	0.013027	-0.160912	-0.060880	-0.246060	-0.146722	0.003322	-0.272914	0.002023	0.004224	-0.001060	-0.002656	0.015335	0.030772	-0.000916	-0.295728	0.008526	-0.174926	0.002116	-0.090652	-0.110810	0.018009	-0.023595	-0.375779	0.015897	-0.059967	0.007613	-0.133059	-0.106670	-0.110531	-0.175936	-0.192554	-0.123895	-0.101564	-0.179025	-0.038800	-0.009980	-0.133243	-3578.323247	-0.063756	-0.008001	-0.081890	-0.028572	-0.095567	-0.015378	-0.548024	-80263.376460	-0.402624	-0.048706	0.014220
