-1.006194	0.848414	-2.694728	-0.905584	-0.066758	-1.929368	1.835901	0.732065	-0.881221	-1.698064	0.452159	-1.744109	-0.188960	-3.495185	0.560965	-0.191220	2.250929	-3.758136	1.017518	2.015974	1.655133	1.443439	-1.199589	-2.182296	-1.004846	-0.966469	-0.729101	-0.228607	-0.375658	-0.940343	-0.263848	-2.041669	-1.750622	1.033699	-3.802168	0.215913	1.536973	1.279156	-0.473367	1.544602	2.646720	-2.916257	0.084070	0.149723	-1.405762	0.565079	-2.087443	-3.127094	1.165592	-0.884136	2.055138	-0.934884	-5.094676	-0.772457	1.630229	-1.738171	-1.109443	0.712128	0.656261	-2.792519	-0.407249	2.145317	-2.234822	0.793886
0.017327	-1.012080	1.005319	-0.236499	-0.398352	-0.448385	0.570933	-0.224807	-0.714497	0.756373	-0.378695	0.372284	-0.118700	-0.483116	0.166819	0.331276	0.720000	0.221988	0.270105	-0.728439	0.011482	0.491503	-0.390332	-0.278874	-0.233141	-1.208283	0.458527	0.150201	-1.211938	-0.322315	-0.302092	0.053796	-0.229332	0.696572	-0.845509	0.598350	0.093403	0.168154	-0.315470	-0.047178	1.185907	-2.393838	0.864226	0.154034	-0.072099	-0.392542	-0.543469	0.761061	-0.273670	0.584529	-0.406402	0.237662	-0.050454	0.235950	0.717607	-0.053218	-0.276129	0.332539	-0.546197	0.808435	-1.176374	0.317409	-0.788680	-0.746104
0.533349	0.205468	-0.773312	0.658616	-1.154841	0.794420	-0.012726	0.044111	-1.200083	0.376549	0.494300	-0.059777	0.437738	-1.209401	0.466269	-1.041736	0.739116	-0.260520	-0.404942	0.086496	0.029610	0.818799	-1.066254	1.954109	-0.426433	0.319215	-0.000518	-0.122783	-0.301094	-0.804901	0.581921	-0.614138	0.502869	-0.161972	-0.171673	-0.048956	-0.153194	0.453583	0.042445	-1.113181	0.072504	-0.166071	0.743342	-0.648012	-0.191301	0.261084	-0.334733	-0.117242	-0.230332	0.181699	-0.443941	0.055354	0.356147	-0.465972	-0.266384	1.074919	0.425659	-0.948389	0.068806	0.190896	-0.618218	0.703828	-0.356977	-0.535668
-0.097712	-0.028320	-0.360661	0.344364	-1.023332	1.074031	-0.704660	-0.104512	-0.239259	-0.662873	0.561819	0.397691	-0.190339	-0.187677	-0.178042	0.438582	0.233498	0.074137	-0.377100	0.032640	0.666711	0.262188	-0.458166	-0.361684	-0.350017	0.040839	0.782075	-0.195932	-0.700557	0.879586	-0.140182	-0.148109	0.148370	-0.329438	-0.461451	0.169380	-0.478891	-0.756615	-0.266955	0.335661	-0.189828	0.078187	0.757192	-1.748975	0.321217	0.844973	0.069380	0.146859	-0.095985	0.508911	-0.430342	1.303070	-0.365440	-1.343459	0.661815	-1.356406	0.097750	-0.261914	0.227169	-0.971702	0.021925	1.016529	-2.057194	1.504714
0.003708	0.190794	-0.057973	-0.007918	0.359546	-0.437486	0.686605	-0.535466	-0.087807	0.135353	-0.103873	-0.231907	0.128999	-0.225786	-0.424419	-0.105570	-0.072822	-0.355089	0.145874	-0.229809	-0.778254	0.293230	0.272462	0.390683	0.239639	-0.141272	-0.190927	-0.997464	1.589174	-0.854049	-0.372304	-0.365128	0.620076	-0.748745	0.454658	0.148966	-0.503952	0.635601	-0.465212	1.074557	-1.101634	0.742586	-0.973523	0.297226	-0.379694	0.132560	0.291423	-0.954820	0.699871	0.132325	-0.318826	0.738239	0.085614	-0.432727	-0.038414	1.427459	-0.619965	0.040345	-0.070953	0.031354	-0.890590	0.780235	-1.632910	-0.025715
-0.347842	-0.067023	-0.399190	-0.303140	0.705505	-0.138725	0.214168	-1.016446	-0.303626	1.046585	-0.010242	-0.526342	-0.146770	0.388044	-0.709268	0.581462	-0.050964	-0.487157	-0.249601	1.285667	-0.026469	0.915659	-0.785392	0.518712	0.652156	0.381601	-0.339174	0.108939	-1.085880	0.266613	0.316538	0.053180	-0.874752	-0.245011	0.468467	-0.612600	-0.064995	1.110756	0.420631	-1.503479	-0.629385	0.605655	0.050855	0.471390	1.256811	-1.010026	0.049067	0.265202	0.822939	-0.282302	-0.633314	0.150144	-0.673257	0.046030	-0.869605	1.138797	-0.169806	-0.305742	0.055261	0.254136	0.798003	-0.108402	-0.625033	0.042511
-0.883473	1.009858	-1.045585	0.351315	-0.494618	0.309944	-0.629470	0.412177	1.403388	-0.910571	0.045921	0.358154	-0.180896	-0.458041	1.017772	-1.094189	-0.900029	-0.115286	0.315337	0.720140	-0.686452	-0.572163	-0.667641	0.317377	0.171172	-0.788436	0.917631	-1.653231	0.616868	1.038814	-0.537165	0.603714	0.030730	-0.363123	-0.286242	1.180009	-0.304912	-0.744783	1.176628	-1.597152	-0.268806	0.405750	0.125751	-0.362477	0.227916	0.192990	-0.159579	0.801140	0.439697	-0.356194	-0.031687	-0.154538	0.783850	0.358495	-0.967908	-0.104768	0.199298	-0.253383	-0.032850	1.005054	-1.423424	0.106280	0.352545	-0.234670
-0.470025	0.008719	-0.108037	-0.288077	0.156854	0.726428	-0.616304	0.309897	0.244380	0.538643	-0.388236	-0.340898	0.348632	0.143484	-0.681413	0.032269	-0.715325	0.838037	0.451821	0.692905	-0.376794	0.029130	0.362893	0.166565	-0.435893	0.399417	-0.132668	-0.234932	0.111698	-0.266620	-0.741267	0.838530	0.140160	-0.698847	-0.145058	0.022352	-1.167461	0.884099	1.093442	-1.168965	0.623134	-0.249415	-0.810321	0.576326	-0.532410	-0.473294	-0.069359	0.269572	-0.711340	0.307891	2.018540	-0.637570	-0.728582	1.137811	0.539978	-0.350559	-0.045660	0.640228	-2.029066	-0.341611	0.506378	-0.240898	-0.633189	0.531925
-0.481672	0.678369	0.289216	-0.651936	-0.047942	0.089534	0.419892	0.125140	0.100755	-0.670660	0.111202	0.178832	-0.491203	0.092088	-0.329236	-0.552812	0.880978	-0.666310	-0.256177	-0.722625	0.687006	-0.090138	0.519047	-0.223984	-0.506746	0.449951	-0.259784	-0.148774	-0.753007	-0.339595	0.575602	0.050815	-0.731857	0.225099	0.166926	0.563581	0.482881	0.108831	-0.607384	0.197186	0.878650	-0.070965	-0.707785	0.501008	-0.127197	-0.566125	0.872109	-0.338454	0.563892	-0.718204	0.746726	-0.515910	-0.216777	1.526514	-0.713334	-0.044391	-0.659212	1.110520	-0.715623	0.533261	-0.244920	0.101768	-0.944142	0.782211
-0.163988	0.269619	0.316273	-0.599153	0.654740	-0.600630	-0.211630	0.031578	-0.418412	-0.247450	-0.708299	1.617789	-0.655926	-0.099494	0.795900	-0.426957	0.894523	0.595708	-0.632798	-0.142966	0.244378	0.306478	-0.519891	1.250286	-1.044494	-0.690326	0.973470	-0.135493	-0.007638	-0.847254	-0.589630	-0.220704	0.801466	-0.887242	0.133284	-0.351908	-0.269107	0.621742	0.845969	-0.397164	-0.045393	0.442344	-0.527138	0.175163	-0.216389	0.180638	-0.538138	0.259078	-0.371676	0.181493	0.045251	0.820270	0.034642	-0.353801	0.595600	-0.735255	0.460215	-0.423840	0.460600	-0.452250	0.266140	-0.294304	0.140302	-0.030734
-0.207127	0.221060	0.159108	-0.945712	0.850161	-0.734806	-0.089779	-0.138404	-0.113845	0.513309	-0.949558	1.129681	-0.308478	-0.116879	0.445814	0.692435	0.179005	-0.692226	0.890873	-1.092538	-0.281071	0.439945	-0.870906	0.216006	0.219225	0.132127	-0.730706	0.551974	0.333468	-0.171180	0.098262	0.247104	0.654161	-0.525223	0.521523	-0.347948	0.534483	0.032598	0.014399	-0.890562	-0.936372	-0.210299	-0.175509	0.462426	-1.244108	-0.249854	-0.060110	0.105304	0.491972	-0.445456	0.685502	-0.637818	0.608722	1.325352	-1.200409	0.708088	-0.162771	0.917614	-0.787779	0.413056	0.383146	-0.855773	0.877344	-1.510937
-1.175407	0.844011	-0.270169	0.323700	-1.561910	1.106409	0.905887	-1.522750	-0.383796	-1.693129	0.114893	0.589575	0.238294	0.159853	-0.611210	-0.580718	1.089167	0.625675	-1.134714	0.233547	-0.624837	-1.663473	1.400759	-0.059276	-1.081208	1.035352	-0.919898	0.470873	-0.461130	0.441077	1.167940	-2.036243	1.690866	0.337613	-0.902223	0.105799	0.332069	-0.060019	-0.633064	0.110939	-0.740379	-2.085670	-0.248574	0.924391	-1.336154	0.936278	0.187376	1.629227	-1.666459	1.192404	-0.333185	-0.362781	0.187473	-1.290028	-0.659997	-0.360728	0.505084	0.364273	0.157873	0.464176	0.462373	0.519333	0.478059	-0.795256
1.181203	-1.358578	0.298520	-0.257398	0.411643	-0.478731	-0.160489	0.284865	-1.356507	0.625965	-0.636098	0.534501	-0.470133	0.376613	-0.587231	-0.496494	0.388504	-0.208940	0.256382	0.596360	-0.236695	-0.270717	0.125855	0.024352	-0.030926	-0.244335	0.065614	-0.872956	0.416593	-0.385770	0.379662	-0.508387	0.051117	-0.100676	0.155676	0.040080	-0.120081	0.392056	-0.926590	1.115163	0.120672	-0.058484	0.027841	-0.058382	0.242196	-0.417903	-0.147218	0.104646	0.256486	-0.233109	-0.255505	-0.432743	-0.313814	1.285981	-0.308565	0.272147	-0.144225	-0.213541	0.118826	0.996970	-0.638314	-0.681856	1.351066	-1.428543
0.378661	-0.470841	-0.552582	0.853058	0.123967	-1.026691	-0.356486	0.658949	-1.030209	0.194049	0.183220	-0.122252	-0.214450	1.167248	-0.450773	-0.409626	0.557998	-0.274089	-0.235058	-0.718794	-0.167391	-0.329358	-0.382080	0.822146	-0.035529	-0.225426	-0.141419	0.491725	-0.175982	0.477906	0.632815	-1.309453	-0.299994	-0.185404	0.319516	-0.288984	0.317282	-1.005152	0.056685	1.120503	-0.486637	0.650600	-0.256862	-0.130207	0.196526	0.197365	0.256847	-0.518022	0.955709	-0.827491	0.171673	-0.207361	-0.739729	0.788702	0.262813	-0.697262	-0.151062	-0.862238	0.622016	-0.026891	-0.545969	-0.383964	0.145928	0.026135
1.239438	0.716722	-0.181625	-1.145500	0.530467	1.641680	-1.502065	0.069389	-0.290981	1.772418	-0.338572	-0.709783	-0.214530	-2.632684	0.946227	-0.118452	-0.780706	1.136212	-0.915023	0.337078	1.547144	-0.119223	0.170085	-0.960260	-1.200961	1.687720	1.016401	-1.749372	-0.695506	2.405416	-0.330075	1.152854	0.735696	-1.631510	-0.067994	1.383659	-0.468668	-0.010119	-0.919516	-1.299323	-2.091618	-1.367890	2.924668	-0.069927	0.159786	-0.774126	0.641251	0.720592	1.738145	1.493015	-0.922569	-0.421586	0.639735	1.177087	0.322545	-0.111565	-0.334857	-1.088945	-1.646619	1.594995	-1.031998	-1.425856	0.004197	-1.604058
-0.379307	1.077979	-0.936054	0.740288	-0.638324	-0.019436	-0.265605	0.011732	0.066699	0.022585	0.393276	-0.877869	0.355081	0.076062	0.129405	0.294366	0.491467	-0.316417	-0.670721	0.821366	-0.456886	0.287148	-0.230661	-0.384697	-0.327968	0.571799	-0.198790	-0.257810	1.379825	-1.734548	0.507403	-0.048756	-0.580083	0.030771	-0.565203	-0.204367	-1.474639	0.619440	-0.311365	0.827906	0.879747	-0.107649	-0.273753	0.468129	-0.158270	-0.673198	0.415271	-0.701660	-0.286284	-0.490514	0.835077	-0.378593	-0.473262	0.250010	-0.610977	0.551464	0.449529	-0.300044	0.165659	-0.833659	0.977245	-0.574960	0.176176	-0.485880
-0.880017	-0.204583	1.129830	0.519819	0.027235	-0.719474	-0.199538	1.369790	1.280364	-0.795164	0.540473	-2.702633	0.579152	0.543069	-1.242604	-0.017898	0.438859	-0.709225	-0.339584	0.983583	0.859539	-1.698229	0.774095	-0.220911	-0.777886	0.079378	-0.227985	-1.025908	0.489486	-1.293076	0.585420	0.318448	0.486871	-0.180831	0.633718	0.673583	-1.855777	0.872549	-0.118896	-1.383908	-0.384022	0.864837	0.155990	-1.585235	1.067860	0.526620	-0.896766	1.222010	-0.512184	-1.044056	0.576110	1.155388	-1.272137	-0.034842	0.354209	-0.376104	0.395985	-0.074581	-0.075347	0.026938	0.896924	0.533206	-0.555189	0.851903
-0.386554	0.381495	-0.033273	-0.606384	0.094788	-0.756200	0.534334	-0.395655	0.456535	-1.074411	0.076116	0.978929	-1.171800	1.290642	0.388517	0.037101	-0.597554	2.831670	-0.788696	1.003554	-0.326579	1.014647	-0.828040	-0.573863	-0.747828	0.100352	-0.624034	-1.034218	0.762192	-0.266214	-1.121684	1.174178	-0.593443	0.300303	-0.030794	-0.978097	-0.756459	0.129570	-0.552358	-0.573751	-0.272637	-0.168612	0.060826	0.188928	1.523809	-0.221008	0.514996	-1.042121	1.188442	-0.847281	0.527276	-0.214612	-0.526680	-0.474140	0.324124	0.886359	-2.210161	1.018301	-0.281450	-0.521767	0.051185	-0.298633	1.434136	-1.495578
0.398239	0.283112	-1.249825	0.236824	0.572883	-0.935208	2.208179	-1.854410	0.121857	-0.958661	0.833768	-0.206146	0.422678	-0.568590	-0.485189	1.106532	-0.542358	0.589779	-0.951989	0.910992	-0.698988	0.509154	-0.219039	-0.376511	-0.713147	-0.278907	0.935770	-0.558311	-0.504228	-0.598674	0.559392	0.269702	0.541973	-0.292908	-0.194785	0.543193	0.009759	0.976133	-0.584136	-0.470584	0.273729	0.012064	-0.379687	-0.601432	0.054743	-0.828885	0.016875	0.692789	0.213025	-0.086319	0.025730	0.064648	0.009991	0.359807	-0.048540	-1.147192	-0.192270	0.178025	0.050404	-0.356550	-0.306095	0.063346	0.422969	0.059638
-0.628404	-0.306955	0.210345	0.711432	-0.349249	-0.513825	0.180101	-0.542892	0.276278	0.631807	-0.563742	0.752244	-0.763410	-0.103569	0.604350	-0.426436	-0.045966	-1.035856	0.706365	-0.431004	1.450917	-0.463919	-0.835166	-0.041902	0.775040	-2.884560	1.555291	-0.144338	0.478856	-0.957838	0.327480	0.906457	0.226902	-0.126530	-0.225016	-0.237599	0.306571	-0.575774	0.108758	-0.477753	-0.333184	1.078247	-1.188707	-0.636044	1.580339	-1.895739	0.126274	0.337199	-0.420215	0.142511	1.390714	-1.350096	-0.551424	0.736207	0.185696	0.167522	0.241248	-1.037763	-0.442089	0.890200	0.150996	-0.010249	-0.509199	-0.002779
-1.782228	0.222111	-0.294115	1.670375	-0.847235	0.737777	0.446762	0.057917	1.548051	0.979232	-0.743402	-0.842583	0.615922	-0.558682	0.014153	-0.440643	0.342654	-0.552428	-0.066141	0.836257	0.005390	-0.487552	0.493136	0.280914	-0.599200	0.841410	0.889270	-0.292681	-0.668011	0.082118	-0.092730	-0.066518	0.102289	-0.963975	0.365888	-0.471369	1.053821	0.294707	-0.560822	0.593908	0.067167	-0.189913	0.338080	0.055471	-0.371615	0.386943	-0.634499	0.585560	0.192161	0.668565	-0.432481	0.539545	-0.346008	-0.459055	0.760673	-0.418232	-0.987556	1.056629	-0.347590	-0.066669	-0.195273	0.361291	0.685878	-1.116887
-0.151527	1.306274	-0.679642	0.091157	1.201381	-0.688212	-0.124453	-0.768862	-0.239899	-0.835658	0.324861	0.755618	-1.782183	0.666218	-0.450094	0.655292	0.312101	0.295041	0.304825	-0.424456	0.739667	-0.899744	0.438351	-0.114165	0.663887	-0.046492	-0.557721	-0.430018	0.436722	-0.211016	-0.012529	-0.015283	-0.633977	0.405157	-0.132056	0.356773	-1.218875	1.582065	-0.155890	-0.606099	0.063586	-0.192724	0.198746	-0.409366	0.302449	-0.598769	-0.393490	0.487531	-1.401068	0.933939	-0.313164	0.436131	-0.601489	1.027265	-0.215748	-0.659193	1.112984	-0.332725	-0.852177	0.857417	0.863668	-0.818429	-0.468866	0.209594
-0.565006	0.748174	0.173398	-3.709345	0.338785	-0.539133	0.502210	0.457685	0.066505	0.909761	0.003073	-0.242621	1.165187	-1.562694	-0.041310	0.220885	0.542771	-0.822571	-0.527328	1.050928	-0.979380	-0.208345	0.421264	0.874630	0.391230	0.633302	-1.342488	-0.032642	1.311574	0.880798	-0.305370	-1.183293	-0.804560	-0.649357	1.404077	-0.690211	-0.793229	1.240782	-0.560495	0.348853	0.939380	-0.440606	-0.777905	-0.544746	0.364014	-3.826003	0.172399	0.381797	-0.203528	0.277584	0.957364	-0.973934	0.491952	0.058847	-0.406260	-0.367896	0.653990	-0.124727	0.523516	0.564733	-1.052723	0.222526	-0.135205	0.670412
0.088273	-0.694564	0.955341	-0.596790	-0.438892	1.134860	-1.212887	1.246646	-0.604560	0.710514	-1.412999	0.864936	0.229852	-1.088744	0.537728	-1.094946	-0.279733	-0.657295	0.657400	0.267410	0.249778	-0.281064	0.383330	0.502522	0.521256	0.236422	-0.075319	0.209785	-0.713622	-0.045322	-0.753581	-0.109559	-0.184132	0.321845	-0.028623	-0.298345	1.357975	-0.880425	0.572975	0.887277	-0.343111	0.066244	0.189367	0.116119	-2.049414	0.509800	-0.076219	-0.708685	-0.520163	0.718193	-0.589465	0.103764	0.701245	0.634412	-0.587243	0.060895	0.640307	-1.071557	-0.108090	0.591310	-0.288962	0.292094	-0.652992	1.195666
-0.550832	0.719830	-0.117086	-0.036802	-0.631151	1.299518	-1.087290	0.047085	0.068702	-0.422939	-0.155473	0.152496	1.132544	-1.042793	0.597218	-0.221185	0.756517	-0.938625	0.599544	-0.512055	-1.082941	1.355591	-0.708349	-0.977077	-0.259328	0.417296	-1.361983	0.431764	0.590442	-0.751760	0.369832	0.375928	0.182552	-0.359977	0.975467	-0.565530	0.122614	0.265307	0.471900	-0.165288	0.375107	0.028389	-0.559503	0.006605	0.720027	-0.680773	-0.580873	0.746607	-0.520964	-0.133120	-0.460004	0.598920	-0.717370	0.950163	0.570923	-1.401945	-0.032043	-0.078348	0.309127	0.580865	-0.525652	-0.404096	-0.377500	0.547495
0.272655	-0.754940	-0.898017	0.318149	-0.431492	0.040159	1.505151	0.255549	0.236205	-0.292898	0.182911	0.350930	-0.758469	0.128576	-0.504711	-0.575220	-0.670804	-0.559057	0.477207	-0.283134	-0.105447	1.150488	-0.198368	-0.020938	0.350869	0.577807	-0.261201	0.695831	-0.467182	-0.426829	-0.716279	0.279421	-0.426129	-0.101015	-0.152335	0.849408	0.490732	-1.592283	1.838966	-0.640494	0.118643	0.336813	0.094349	-0.726003	-0.675422	0.900487	-0.540537	-0.077296	1.067775	-0.567837	-0.246588	1.651385	-1.877588	1.303618	-0.193308	0.502480	-0.696081	0.313048	-0.917783	0.990285	0.089014	-1.824954	0.872242	-0.471235
-0.012029	-0.994149	0.688163	0.203305	-0.115022	-1.030159	-0.585390	-0.117524	0.350346	1.130809	-2.682779	1.579983	-1.048086	-0.506959	-0.025160	-0.770958	-1.656441	2.394089	-0.562122	-1.120155	0.045828	-0.221390	-0.510453	-0.178777	0.000225	-0.901914	-0.084774	-0.338264	-0.653606	-2.022662	1.291837	0.298301	1.157566	-1.967641	1.211216	0.784771	0.407851	-0.797534	-1.519141	1.140740	-0.884567	0.283143	-0.897381	-0.432198	-0.684451	-0.851346	0.508224	1.848613	0.110527	1.357646	0.383901	0.488195	-0.052226	1.030291	-1.590778	-1.106538	-0.215253	-2.623532	1.750843	-0.246604	1.994704	0.438713	-0.577091	0.392872
0.053073	0.822215	-0.529768	-0.401230	0.367173	-0.575350	0.182566	-1.076479	-0.677982	-0.051827	-0.288920	0.845599	0.413453	-0.617218	0.016087	1.102642	-0.003080	-0.292663	-0.601785	0.368516	-0.185658	1.857847	-0.467522	-1.010134	0.044562	0.869716	-0.212058	1.500215	-1.280604	-0.648353	0.217553	0.973926	-2.052509	0.130248	-0.289068	-0.548235	1.610305	-0.022021	-0.231489	-0.500436	1.348333	-0.015934	-0.665188	-0.586321	-0.359038	-0.076759	-0.276661	0.171785	-1.181190	0.140138	2.102584	-0.059580	0.752938	0.356370	-0.041110	0.720733	0.434409	-0.979874	-0.029333	-0.565300	0.828781	-0.966587	-0.060276	-0.882351
-0.379168	0.698861	-1.035318	1.599496	-0.862735	0.405914	0.289716	-1.626733	0.371025	0.673419	0.159924	-0.646472	0.769666	-0.680003	-0.143524	1.243407	-0.240560	-1.228786	0.681305	0.450933	-0.261576	0.882337	-0.744730	0.553144	0.079237	0.657248	-0.883661	-0.427850	-0.254805	0.066826	0.079916	-0.860938	0.557017	-1.325800	0.736075	-0.768933	1.384120	-0.768019	-0.440035	1.317463	0.247822	0.044845	0.388029	0.290480	-0.550656	0.440355	0.425916	-0.886233	-1.112112	0.612635	0.243304	-0.483364	0.051440	0.817373	-0.928886	0.190603	0.511367	-0.007391	-0.755010	0.446262	0.257991	-0.361952	0.458996	0.625914
-0.515924	-0.323069	1.031184	-0.257710	-0.574972	0.313416	0.609800	-0.268916	-0.237401	0.598732	-0.504160	0.530362	-0.103628	-0.072222	-0.261134	0.493031	0.597349	-0.984646	1.071776	-0.428328	-0.228788	-0.471297	0.627671	-0.238975	-0.626662	0.674748	-0.172313	0.368178	0.878369	-0.052054	-0.615773	0.179802	0.453838	-0.145590	-1.013750	0.941036	-0.931256	0.108311	0.608556	-0.133842	-0.900167	0.129370	0.997665	-0.722711	-0.133660	-0.847085	0.162516	-0.317857	0.480448	0.275044	-0.732674	-0.063708	-0.586794	1.254558	-1.369444	0.059922	-0.435901	-0.422654	1.131401	-1.112218	0.556543	-0.568154	0.831281	-0.459420
-0.277522	-0.313571	-0.054305	-0.211193	0.379582	-0.131484	-0.426147	0.709142	0.498924	-0.032523	-0.041969	-0.266536	-0.158587	-0.639210	-0.125204	-0.812540	-0.551540	0.358392	-0.567399	0.137544	-0.423975	1.259626	-0.217502	0.166954	0.398025	-1.029263	0.814985	-0.665954	0.727306	-1.023320	0.500242	-0.509236	0.272981	0.432352	-0.371374	0.564287	-0.413800	0.144830	-0.057499	0.309912	0.096653	-1.510202	0.544651	-0.638031	0.266601	-0.552022	0.091044	-0.212838	-0.425114	1.058722	-0.834109	-0.242851	-0.089385	0.081119	0.217344	-0.421225	-0.472735	-0.659767	0.922525	0.047465	0.136740	-1.334553	0.595529	0.520129
0.642046	-0.830548	0.084983	-0.861396	0.213918	0.577789	-0.745675	1.486926	-0.306856	0.103270	0.880839	-0.144062	1.085673	-0.296042	-0.069851	-1.173285	-1.011803	-0.404180	0.993182	-1.327736	0.759646	0.730649	-1.556020	0.826160	1.450845	0.594009	-0.802700	0.477978	-0.841035	-0.105375	1.427097	-0.883522	1.620228	-0.968120	-0.518407	1.794099	-1.695136	-0.053133	-0.360781	0.093037	-1.887909	0.679568	-0.302978	0.425720	0.459650	0.752691	-0.785615	-0.337403	0.702802	0.760572	-0.391352	-0.339679	-0.747642	-0.386090	0.383082	-0.988748	-0.634562	1.102848	-1.447640	-0.004846	1.041027	-0.096798	-0.373162	0.568987
-0.220514	0.329186	0.004726	0.471658	-0.468202	-0.589219	0.624693	-0.207869	-0.787797	0.583869	-0.296110	-0.018782	0.545518	0.638495	0.416764	-0.801578	0.586952	0.487225	-0.334214	-0.439895	-0.675326	-0.001920	0.154910	-0.541906	-0.418063	0.764394	0.307171	-0.947379	1.021067	0.237835	-0.809987	1.078929	0.879380	-1.204237	0.491643	0.792737	-0.303844	-0.273006	-0.363554	-0.962848	-0.338190	0.169420	0.240072	-0.350515	1.310768	-1.461465	1.476225	0.096573	0.459767	-0.776432	-0.108898	-0.382872	-0.667357	1.014979	-0.162856	-0.806155	0.144763	0.030334	0.250562	-0.568449	1.456187	-0.630833	-0.178091	1.053183
-0.647654	1.193200	0.218893	-0.060926	-0.286906	-0.527917	0.453781	-0.653292	0.620290	-0.804045	0.332105	-1.216920	0.682579	-0.308750	0.218007	0.068528	0.129010	0.461265	-1.088742	1.114784	-1.032765	0.311637	-0.366412	0.633400	0.408088	-0.504343	0.698093	-0.851853	0.713393	-0.436547	-1.149827	0.374206	-0.941447	0.813371	-0.579527	-0.526555	1.019068	-1.562470	1.726515	-0.040648	0.317318	-0.208409	-0.611139	0.229486	-0.844174	0.030679	-0.098479	-0.377470	0.488242	-0.924850	0.041928	1.318779	-0.589751	-0.479346	0.883509	-0.386752	-0.285307	0.773843	0.189442	-1.122530	0.746564	0.352033	-1.659111	0.094542
-0.030302	-0.595488	0.859731	0.622891	-0.529712	0.034918	1.193846	-0.677397	0.063323	-0.037872	-0.859205	-0.903734	0.524238	-0.158529	-0.998695	1.492328	-0.441662	0.147170	0.454500	0.061970	-0.124813	0.149583	1.043656	-0.897156	0.583728	0.087779	0.647541	-0.284440	0.323683	0.103969	-0.568833	0.541335	-1.461637	0.678142	-0.534688	0.356091	-0.393015	0.015350	-0.025909	-0.591044	0.174491	0.187415	-0.275558	0.823385	0.269724	-0.745793	0.760714	-0.695100	-0.089254	-0.378333	1.001817	-0.841374	0.136055	-0.264963	0.057347	0.920144	0.425335	-0.123434	-0.430640	0.997028	-1.193142	0.879949	0.470504	-1.092462
-0.263823	0.233674	-0.329801	-0.615224	1.213076	0.309101	-0.810219	0.803825	0.407233	-0.841802	1.263102	0.194832	-0.679882	0.009519	-0.820028	-0.539142	0.499201	-0.560270	-0.916576	0.871702	0.094482	0.540688	0.713925	-0.394035	0.394826	0.091858	0.527891	-0.510785	-0.178932	-0.258388	-0.175770	-0.045178	0.352721	-0.792107	0.372463	-0.616068	0.383691	-0.061397	-0.332192	0.162428	-0.892009	0.872390	-0.603252	0.566257	-1.481544	1.047298	-0.127305	-0.123388	-0.494044	-0.015581	-0.283452	-0.273362	1.082139	0.377676	-0.456475	-0.074693	0.541014	-0.143235	0.481338	-0.172688	0.520641	-1.835741	0.915758	-0.597971
-0.003991	0.631895	0.227834	-0.964698	0.437217	-1.168159	0.413848	0.409602	-0.054427	-0.303430	0.680235	-0.150755	-0.344977	-0.015770	-0.409702	0.006610	-0.050867	1.114380	-1.539789	0.125251	0.392257	0.221852	0.863239	-0.809282	0.144614	-1.071534	0.600111	-0.279512	0.143437	0.400452	0.128616	-0.167398	0.397727	0.500040	-0.173757	0.598134	-0.321096	-0.917065	0.471440	-0.580196	-0.947320	-0.282779	0.406175	-0.726762	1.433475	-0.698227	-0.981245	0.571020	-0.424860	-0.269410	-0.508453	0.299512	-0.668725	0.567875	0.252266	1.138536	0.005429	0.647758	-0.051127	-1.435989	-0.043043	0.778706	-0.314027	-1.317795
1.019735	-0.924391	0.794715	-0.203364	-0.432122	-0.763713	0.159596	0.554548	-0.504050	0.577437	-1.042875	0.488357	0.130832	-0.151131	0.309213	-1.433023	-0.190743	0.161094	-0.135462	1.003572	-0.572410	-0.426563	0.533558	0.532538	0.837204	-1.536303	0.195653	-0.013394	0.102765	2.481744	-0.634210	0.069797	-0.368895	0.409690	0.608452	-0.380494	0.072005	-1.245865	0.155362	-0.295633	0.278692	-0.190131	0.293781	-1.056062	0.761566	0.254542	-0.998027	0.746246	-0.555430	-0.654808	0.957035	0.514730	-0.722502	0.230822	-0.346319	-0.470675	0.147502	1.514051	-1.328757	-0.177639	0.411230	-0.490879	-0.024924	0.872047
-0.107643	0.297219	0.232399	-1.840027	0.691045	-0.199761	0.123297	0.343423	0.027648	-0.221909	0.345525	0.021873	-0.760368	1.217582	0.273514	-0.640573	0.683698	-0.215481	1.224827	0.290894	-0.446604	-0.211450	-0.838779	-1.263344	-0.716628	-0.235164	-0.894604	0.678376	0.832688	0.264522	0.122512	0.581615	0.092338	0.176511	0.478040	-2.185294	-0.067003	0.036747	0.202255	0.869698	-0.120273	-0.508446	-1.390873	1.876707	-0.354019	-0.349101	0.643552	-1.223096	-0.339538	0.987732	0.887015	-1.636916	0.208096	-0.697249	-0.296253	-0.042431	-0.045335	-1.808985	-0.238493	0.491064	0.243178	-0.025927	0.748716	0.058759
1.100015	-0.109247	-0.179957	-0.334658	-0.255717	0.795017	-0.287991	-0.308031	-1.210585	-0.368970	1.017177	-0.481279	-0.190616	-0.056460	0.271822	-0.378408	0.899025	-0.843775	-0.020344	0.486234	0.394931	-1.000987	-0.542091	0.411362	-0.665257	0.990010	-0.640884	-0.289483	0.429701	-0.171333	-0.065743	-0.072753	-0.274218	0.907891	0.068548	-0.228896	-0.280417	-0.520546	1.348420	-0.302144	1.184650	-0.799680	0.092060	0.291518	1.053298	-0.021779	-1.264779	0.237399	0.080663	-0.252150	0.073009	-0.557122	0.047346	-0.353448	0.220391	-0.172209	-1.308964	1.364959	-1.039877	0.048732	-0.216338	-0.453962	0.546425	0.541646
0.696058	-1.496950	0.840883	-1.516485	1.504552	-0.358987	-0.813131	0.784628	-0.004363	0.119740	0.728697	0.711282	-0.464165	0.223958	0.408650	-0.757023	-0.403069	0.272794	-1.041535	-0.459283	0.396509	-0.848866	0.346453	-0.125853	0.679003	-0.101965	0.151045	0.090644	0.495919	0.110174	-0.854531	0.863698	-0.785733	0.599971	0.102888	-0.090938	-0.401331	0.539299	0.023211	-0.405519	-0.374195	-0.115641	-0.337862	-0.131926	0.657944	-0.002347	-0.109446	0.683658	1.336756	-0.339531	0.228313	0.007559	0.032189	-0.340980	-0.261379	-0.467450	-0.310004	-0.964686	0.550271	0.270452	-0.770337	0.361571	-0.409361	0.795999
0.229378	0.120376	-0.079255	-0.777279	0.037099	-0.322086	0.990504	-0.169135	-0.790253	-0.096127	0.979658	-0.469508	0.448588	0.088166	0.243536	-0.747252	-0.008092	1.367858	-0.017345	-1.434354	1.084261	-0.070018	-0.028283	0.105684	-0.399288	-0.301561	-0.075072	0.522187	-1.037273	-0.000669	-0.019520	0.101211	0.665361	-0.997006	0.160630	0.060791	0.314420	0.055317	-0.381882	0.595430	0.571096	0.369507	0.112756	0.266430	0.229455	-0.431897	-0.720842	-1.015546	-0.218205	-0.370862	-0.428170	-0.340649	0.378151	-1.045866	-0.092044	2.360766	0.372440	-0.147538	0.743181	0.023188	0.494544	-1.735555	0.391084	-1.203858
0.337539	-0.553229	0.228560	0.680740	0.448795	-3.592159	1.786903	0.971505	-1.891444	-0.614106	-1.849313	-1.437741	-2.652850	-0.513177	1.383637	-0.252556	-0.233053	0.343223	0.584648	-2.635565	1.377224	1.147954	0.464005	-2.771227	-0.009363	-1.048652	0.478375	1.498692	2.150263	-0.254097	-1.984235	1.277717	0.216435	-1.708834	2.757085	-2.750010	-0.167443	0.289657	-1.603642	0.165326	0.339767	0.374213	0.925992	-0.430733	0.431993	0.749507	1.695323	-1.515137	-2.416755	-0.402387	-2.849547	-1.851485	-1.049792	1.911457	-0.667209	0.799430	1.546675	-0.554778	-0.052032	0.547585	-1.207563	1.372829	-3.319064	-0.479911
-0.571064	0.035630	0.828471	-1.080444	0.771588	-0.185548	-0.135402	0.225064	0.365602	-0.215254	0.182070	0.471369	1.184334	-1.104894	-0.513812	-0.564271	0.548498	0.404955	-1.612593	-0.090269	-0.451820	1.058188	-0.415204	-0.889993	-0.480677	0.448027	0.911327	-0.273680	-0.272808	0.418032	0.176563	0.730085	-0.825540	-1.034428	0.942411	-0.417646	0.061337	-1.839715	1.344657	-0.173245	0.672114	1.119995	-1.055620	-0.092229	-0.118093	0.124380	-0.228981	-0.329992	0.575342	0.403619	-1.121515	-0.045656	0.194853	0.200026	0.503042	0.182610	-0.684806	0.074787	-0.338857	1.263873	-0.956692	-0.361234	0.091468	-0.954251
0.066486	0.257359	0.216062	0.016144	0.024312	-0.243622	-0.007400	-0.203962	-0.637122	-0.245468	0.113166	0.105814	-0.140880	0.856208	-1.414413	0.948522	0.531077	0.012638	-0.598868	0.506751	-0.059289	-1.075348	0.797864	-0.247986	-0.441148	-0.128482	0.264766	-1.084610	1.094605	0.914977	-1.082417	0.251408	0.203071	-0.115776	0.054873	0.126043	-0.269321	-0.704853	0.030645	0.813089	0.765087	-0.559345	0.055813	-0.826582	0.108919	0.339414	0.657110	-1.330394	-0.681165	-0.142226	0.501865	-0.067003	0.058077	-0.200025	-0.779520	0.885101	0.430060	0.555150	-1.043600	1.065546	-0.262882	-0.453467	1.132147	-0.241265
0.118797	0.143111	-0.057063	-0.066489	-0.094564	0.679089	0.414251	-0.210778	0.404861	0.310403	0.592671	0.334234	-0.374329	-0.695871	-0.134515	-0.156549	-2.357062	0.597255	-0.524404	-0.168332	-0.037584	0.505790	0.514643	-0.570749	1.327122	0.315847	-0.142829	-0.618799	1.161597	-0.691014	-0.752289	1.301835	0.789748	-0.709616	0.387698	-0.036416	0.123006	0.126609	0.373479	-0.862649	0.576372	-0.609543	0.951786	-0.128728	-0.507213	0.723576	-0.773827	-0.082052	-1.225385	0.740932	-1.110787	0.975707	-0.391163	-0.295395	0.365740	0.755416	1.391882	-0.488810	-0.171409	-0.779828	0.334560	-0.072111	0.005017	-0.700609
-0.467533	-0.179360	0.803996	-0.156042	-0.297149	1.282150	-0.787511	-0.178575	0.190946	0.801099	-0.652829	-0.248400	-0.360154	-0.425203	0.265895	0.156950	1.094915	-0.597200	0.694917	-1.389802	1.441731	-0.427707	0.078605	0.105132	-0.444869	0.557322	-0.087692	0.444789	-0.305915	0.372843	0.118453	-0.604443	-0.305523	-0.124023	0.498596	-0.509669	-0.386018	-0.185870	0.809788	-0.878509	0.219166	-0.206578	-0.495691	0.535021	0.462792	1.387868	-0.801789	0.603962	0.139215	-0.179603	0.437748	0.085699	-0.663541	-0.187064	-1.030430	0.627714	0.406657	-0.747081	0.065356	-0.560485	0.451072	-0.380003	0.781154	-0.997581
-0.454432	0.900395	-0.256011	-0.355980	0.232355	0.106699	-0.462012	0.593145	-1.387363	0.902838	-0.237098	-0.389996	0.152072	0.138141	-0.018073	-0.813231	1.328439	-0.891923	0.136572	0.680504	-0.407362	-0.540420	-0.418618	0.113642	-0.473920	-0.146862	0.042156	-0.409192	-0.688922	0.583737	0.474959	0.556634	-0.883883	1.078406	0.129842	-0.418908	0.846156	-0.402780	-0.856197	0.025900	-0.537228	0.159016	-0.336453	-0.216918	-0.588426	0.766483	0.005453	-0.411023	1.369180	-0.673160	0.518908	0.280544	0.361431	-0.989209	0.197333	0.291397	-1.067555	0.626643	-0.134750	-0.192599	-0.187338	0.491085	0.183371	-0.289726
0.146142	0.084611	0.187090	-0.124274	0.645969	-0.382115	0.330171	-0.368538	0.035132	-0.116169	-0.350645	0.259636	-0.800261	0.134655	1.171076	-0.799839	-0.110470	-0.121323	-0.572612	0.619126	0.595008	-0.104182	-0.912293	0.931041	-0.340568	0.780796	-0.613005	0.270325	-0.095844	0.831055	-0.631296	0.319672	0.338292	-0.494252	0.619808	-0.586452	-0.321363	-0.557193	0.429423	0.186181	0.742501	-0.150887	-0.356817	-0.466256	0.597682	-0.303069	0.268043	-0.002701	-1.471763	-0.038923	0.399564	-0.323229	0.073809	0.949849	-1.555200	0.360430	0.265162	-0.020055	0.203420	0.585450	-0.658865	0.214552	0.787381	0.140408
0.264804	1.204416	-0.250455	-2.366961	-0.601494	0.240952	0.216143	-1.435961	0.790785	-1.427834	-0.279262	0.573134	-0.609911	0.878836	0.394901	-1.300040	-0.857235	-0.715843	1.797012	2.041102	0.819385	-0.270524	-1.290694	1.859012	-3.330198	2.192586	-2.624659	-0.013630	-0.334361	-1.100558	-0.057455	-0.280123	1.812218	-1.036619	-0.807272	0.505412	0.680751	-0.518730	-0.176660	0.669586	-0.902333	0.027845	0.655127	0.106815	0.313841	1.037111	-0.764263	-0.358760	0.263817	-0.247785	-0.184225	-0.194742	0.044575	-0.480742	-0.902378	-0.392993	-0.577738	0.446009	-0.011160	-0.538433	0.653892	-0.230394	-0.188109	0.963093
0.745555	-1.455715	1.968192	-0.225481	-0.845825	0.126894	0.018085	-0.094725	-0.283457	0.632208	-0.982624	-0.201163	0.322287	-0.009507	0.552506	-0.063415	0.016492	-0.760942	0.504021	0.290868	0.201600	0.335625	-0.301806	-0.225803	-0.079802	0.325496	-0.013298	0.256287	-0.634070	-0.025032	0.140856	0.689992	-0.017936	-0.915151	0.403085	-0.435250	0.253733	0.891297	-0.958015	-0.439738	0.197105	0.757845	-0.413588	0.242194	-0.577870	0.242100	0.238403	0.276277	0.076709	0.131916	0.277451	-0.552207	0.321007	-0.637778	0.310784	-0.538073	-0.015815	0.470470	-0.674380	0.912389	-0.150770	-0.178606	0.601946	0.074491
-0.423762	0.051122	-0.016446	-0.213778	-0.228176	0.088903	-1.051526	0.734095	0.098787	0.380863	-0.508408	0.975356	-0.250430	0.918031	0.247882	-0.614166	-0.318468	-0.270519	0.788751	-1.090102	-0.347664	-0.696104	0.774219	-0.923408	-0.073757	0.864605	-0.629925	-0.004751	-0.640039	1.327001	-0.630161	0.460839	0.578951	-0.372687	-0.048974	0.092328	0.540336	-0.195976	0.416180	0.148345	-0.429431	-0.517531	0.244207	-0.014071	0.580667	-0.074874	-0.438682	-0.512733	-0.267921	0.558908	0.143972	-0.162673	-0.722806	-0.651768	1.205854	0.782162	0.359500	-0.211985	-0.199616	0.473217	-0.080671	0.749438	-0.645055	-0.968019
0.205468	0.062812	0.301163	0.408458	0.302164	-0.642920	0.175969	0.397197	-1.221107	0.488979	0.263644	-0.674094	0.057480	0.207163	-0.393257	0.149737	0.630336	0.319370	0.177125	0.139050	0.629743	0.221682	0.602266	-0.216007	0.197738	-0.096024	-0.238028	1.141168	-0.928233	0.380893	-0.427994	-0.151350	0.255269	-0.268703	0.799212	-1.515975	0.384137	-0.513376	0.889072	-0.646935	-0.080829	0.211567	0.203408	1.167113	-0.175506	-0.425528	0.298443	0.076867	-0.003637	-0.060134	-0.531530	-0.612957	0.381320	-0.179368	-0.049161	-0.358127	0.291871	0.320573	0.329077	-0.322920	-0.454321	0.572337	-0.843811	1.150531
1.524935	-0.666142	0.284002	0.144939	0.606749	-0.155983	0.815592	-1.233790	-1.233757	0.945665	-0.848506	0.515634	-0.192054	0.323223	-0.912501	0.684858	0.187056	-0.195101	0.517320	-0.931988	0.195625	-0.511365	0.603529	0.371807	0.260552	0.326891	-0.942508	1.459882	0.114964	-0.615211	0.319923	-0.549268	-0.383299	0.527192	0.648194	-1.713250	0.505439	0.206281	-0.298344	1.161153	0.494656	-0.864031	-0.281202	-0.055779	0.012137	0.205827	0.137210	-0.222546	-0.407871	0.253228	0.020999	0.807074	-0.104182	0.323486	0.207070	-0.232950	-0.565851	0.168675	0.069433	-1.187972	0.391087	-0.436008	-0.363715	0.094465
0.533196	0.592680	0.813075	-0.394714	-0.101890	-0.292166	0.134315	-0.264689	0.434155	-1.276012	0.641636	-0.664755	1.225345	-1.683580	0.349807	-1.539507	-0.004126	-2.055049	1.787099	-1.974026	-0.864924	3.036921	0.677319	0.628262	0.467529	0.141499	-0.833996	1.803525	-0.365061	-0.307557	-2.998728	-0.073616	-0.612898	1.535320	-0.337979	0.600254	-1.052193	0.264151	-1.170517	-0.226719	0.416448	-0.287036	0.653916	-0.408139	0.278803	0.501747	-0.846398	-0.444524	-1.853632	-0.658144	-0.634906	-0.820235	0.197055	-1.271105	0.739646	0.266055	2.584557	0.739811	-2.099295	0.175733	0.758024	-0.837310	0.278553	0.852240
0.085948	-0.371318	0.208442	-0.476403	0.737975	-0.635428	0.040851	-0.059210	0.123287	0.205718	-0.730800	0.309611	-0.383228	-0.036509	0.116680	0.242446	-0.082420	-0.482376	0.176030	0.626636	-0.285981	0.366459	-0.043140	-0.403027	0.197088	0.343455	-0.197838	-1.001390	1.058492	-1.140461	0.492981	-0.056605	-0.482518	-0.511872	-0.696602	0.829062	-0.482776	0.404622	0.047033	-0.205134	0.485954	-0.082302	0.361547	-0.493178	0.015869	0.526403	-0.345199	-0.254023	0.509859	-0.590677	-0.530042	-0.216987	-0.008365	-0.605333	0.322442	0.088469	-1.016380	0.622184	0.245502	-0.575479	0.144341	0.559023	-0.875418	0.681103
0.808188	0.409342	-1.475737	0.626700	-0.015946	-0.129476	-0.058819	0.122381	-0.253264	-0.315803	-0.516721	1.250780	-0.122557	-0.569163	0.235199	-1.008504	-0.413032	0.325222	0.531887	-1.529439	0.519422	-0.113625	0.047757	1.005851	0.540315	-0.228018	0.034080	0.273925	-0.258560	0.361259	-0.199588	-0.234456	-0.836032	0.657922	-0.192910	-0.813235	1.315957	-0.300483	-0.051686	-0.179202	1.060434	-0.632669	0.097953	0.968074	-1.067463	-0.193321	0.591303	-0.137245	0.039196	0.111064	-0.312357	-0.325268	0.187336	-0.284058	-1.103859	0.535924	-0.329381	0.293904	0.500086	0.146330	0.124613	0.341800	0.385585	-0.378309
-0.045773	-0.801891	-0.102106	0.131515	-0.491790	-0.159439	-0.113855	0.074708	0.668954	-0.360974	-0.063779	0.062860	0.100845	-0.587967	0.419423	-1.124668	-0.731344	0.764492	-0.288192	-0.134297	-0.910921	0.724486	-0.227185	0.845964	-0.115264	0.323707	0.411523	0.042151	0.213257	-0.625965	0.416871	-1.059028	0.660012	-0.931209	0.179572	0.427817	0.110105	-0.348993	-0.685517	0.972103	-1.291377	0.687781	-0.633968	0.427346	-0.386533	-0.041240	0.200552	-0.206627	1.258724	-1.859288	1.857536	-2.052330	0.945961	-1.049120	-0.159874	-0.153872	-1.028083	1.200406	-1.333931	1.072354	0.219595	-0.470437	-0.553132	0.168371
0.648508	-0.315974	0.805937	-1.016023	0.040225	0.227389	1.122276	-1.215799	-0.019894	0.048573	-0.622199	1.395708	-0.266667	0.383218	-1.010849	1.049212	0.009182	-0.111767	0.719542	-0.970390	0.956998	-0.331377	0.160751	-0.617904	-0.693535	0.150693	0.182879	0.166242	-0.294146	0.366083	-0.022248	0.250685	1.002036	-0.981008	0.598549	-0.320573	0.049848	0.217978	0.220794	-0.640813	-0.282689	0.680409	-0.551805	-0.314082	-0.275333	-0.060287	-0.477813	0.970477	0.382120	-0.944889	0.031426	0.339837	0.898296	-0.415978	0.630849	-0.698850	-0.464580	1.027692	0.322126	-0.250240	-0.086956	1.108557	-0.442932	-0.210875
-0.517333	0.309375	0.341305	-0.543984	0.592709	-1.202984	0.750158	-0.512412	0.227332	-0.585312	-1.189443	0.782952	-0.519589	0.990496	-1.572658	0.959684	-0.614499	-0.196741	0.624241	0.069563	-0.431320	-0.961483	1.472770	-1.565820	0.237746	0.070798	0.204635	-0.466572	-0.025891	0.278933	-0.819770	0.687094	-0.165469	-0.683689	0.848691	-0.594091	0.666142	-1.155380	0.241210	-0.787058	-0.554855	0.485500	-0.799495	0.569732	-0.714457	0.880857	-0.503172	0.909298	0.335130	0.597670	0.136603	-0.942465	0.387654	-0.064256	-0.223035	0.092208	0.084717	-0.297651	0.851719	-0.919050	0.119193	-0.110943	-0.042911	-0.078954
-0.463726	-1.341501	0.995607	0.032926	0.190125	-1.101378	1.680808	0.014122	0.712603	0.035241	-0.103828	-0.950451	-0.138152	1.629698	-0.952926	-1.504801	-0.281981	0.049797	-0.709995	1.717292	-0.472306	-0.253812	-0.180626	1.346948	0.403763	-0.379164	0.330429	-1.469809	-0.234622	-0.808199	0.691710	-0.197949	-0.320326	0.062438	-0.003590	-0.748734	1.649859	0.285065	0.091615	-0.977272	-0.060798	-0.379205	0.144981	1.026698	-1.417092	-0.095580	0.224184	0.806259	0.207249	0.551171	0.083257	0.207036	-0.351876	0.221716	-0.735247	0.362759	0.354317	-0.678573	-0.474093	-0.037393	0.211443	0.002231	-0.165811	-0.792295
-0.532037	0.102374	-0.415752	0.501828	-0.422365	2.913128	-1.367475	-0.285421	0.239430	-0.407850	0.399200	0.681869	-0.843090	-0.854681	0.435408	1.286477	-0.476334	-0.453499	0.585849	-1.016211	0.695906	-0.534971	-0.473521	-0.726814	-0.530866	1.891799	-1.314931	-0.190764	0.625384	-0.520323	0.220726	0.089902	0.236967	-0.562905	0.403587	0.701945	-1.021536	0.147766	-0.534445	0.402389	0.217360	-0.206758	0.658912	0.034797	-0.738258	0.247702	1.114647	0.165274	0.927468	-0.204401	-0.023184	-0.709847	0.908571	-1.370432	-0.316394	-0.367986	0.055862	-0.517176	0.025281	0.322194	-1.732280	0.510674	0.229535	-0.011062
0.021163	-0.598934	1.178963	0.308794	-0.057257	0.225543	0.467984	-0.464786	0.021114	0.980978	0.497687	-2.439302	0.536428	0.572904	-1.067432	-0.580939	-0.715775	0.405952	-0.659103	1.665503	-0.045182	-2.028263	0.715294	-0.169241	-0.360909	-0.034579	-1.326358	0.037004	1.298482	0.940361	-0.656501	-0.667550	1.224371	-0.511166	0.396728	-0.530851	-0.243019	-0.492990	1.436361	0.350944	-0.956712	-0.911697	1.960789	-0.635688	0.029701	-0.088282	-0.740218	0.089351	0.767691	-0.552819	-0.482305	-0.152909	2.543878	-2.584525	1.838020	-1.809299	1.906973	-2.534124	-0.120531	-0.038436	-2.032672	0.738115	-0.653858	0.523675
-0.548657	0.991111	-0.915204	0.281486	-0.404730	0.375234	-0.104759	0.034488	0.168643	-1.006012	0.999620	-0.465426	0.039762	0.094518	-0.431329	-0.614237	-0.555427	0.787521	-0.827439	0.526065	0.078192	-0.368079	0.161709	-0.247963	1.175273	-0.658224	-0.057037	0.230447	-0.700295	0.304400	-0.467614	0.246457	-1.380533	0.156833	-0.203831	0.171504	-0.064069	0.309870	-0.668511	0.488735	0.682977	-0.675997	0.484428	-0.360238	-0.269293	-0.120038	0.414809	-0.783860	-0.327479	0.537121	0.384296	-1.209475	0.653301	0.047234	0.253978	-0.133175	-0.113173	-0.258240	-0.769837	0.692355	-0.851848	0.591151	-1.092630	0.409737
0.333729	-0.296795	-0.841063	-0.219336	0.705914	-0.533141	-0.351321	0.571156	-0.407017	0.488430	-0.073836	0.559815	-0.557018	0.104024	-0.337455	-0.001108	0.811228	-1.569247	0.339589	-0.278845	0.659966	-0.402456	0.501967	-0.222258	-1.490250	1.111446	-0.191747	-0.133404	-1.152449	-0.237041	0.388978	0.071049	1.683045	-0.563854	0.043847	0.129803	-0.293120	0.864361	-0.814508	0.230340	-0.722696	0.077813	-0.220678	-0.460904	1.309020	-1.881026	0.852949	-0.332420	-0.144054	0.563149	0.102690	0.521400	-0.413235	-0.199885	0.205457	-0.017708	0.563054	-0.447070	-0.452488	-0.064692	0.329239	-0.212171	-0.068318	0.109040
0.014547	-0.104753	0.296318	-0.431910	0.783226	-1.038911	0.687901	-0.430620	0.209960	0.464539	-0.055280	0.327563	-1.452363	0.703261	-0.498030	0.280605	-0.938184	0.274634	-0.554975	0.020157	1.342405	-1.395218	0.507438	-0.081102	0.257846	-0.531524	0.797242	-0.576212	-1.460513	1.027317	-0.500539	-0.596248	0.410112	0.280561	-1.466245	0.577176	0.442370	0.057456	-0.176702	0.833153	-0.594100	-0.412207	0.181692	0.257531	-1.130179	0.032504	0.895059	-0.622105	1.155021	-0.468697	0.366374	-0.422737	0.633501	0.074626	-0.145955	0.063600	-0.407792	0.117238	-0.430096	-0.417310	0.395433	-0.320496	0.165566	-0.254205
0.121285	0.586983	-0.789979	0.149568	-0.032934	-0.118591	0.300865	-0.071950	-0.999334	0.316367	-0.247770	-0.492667	0.169690	0.343879	-0.521992	0.265707	0.296280	-0.629557	0.433015	0.627372	0.487656	-1.061897	0.886768	-0.595854	0.888344	0.007445	-0.182725	-0.907869	-1.053549	1.267462	-1.332301	1.196831	-1.291954	0.146443	-0.030356	0.210099	0.309484	-0.125647	-0.010652	-0.720849	1.765849	-1.087265	0.183544	-0.090749	-0.098807	0.262270	-0.025355	0.374485	-0.871901	1.568118	-1.340245	0.693055	-0.505578	0.257800	-0.334019	0.443291	-0.017787	-1.357204	1.809630	-0.890238	0.162809	-0.375720	0.347162	-0.485482
1.045200	-0.752575	-0.439535	0.570386	-0.025806	0.313383	0.453775	0.087800	-0.955079	0.762625	-0.298893	-0.425701	0.227166	-0.712304	0.291573	-0.350435	0.998478	-0.167014	-0.780402	-0.422328	-0.388376	1.111154	0.582388	-0.939664	-1.740469	0.273387	1.826093	-0.791913	0.218444	-0.174502	-1.312271	1.947215	1.173320	1.163979	-2.015577	0.088137	0.049665	-0.682435	0.495680	-1.110395	-0.358194	-0.714740	-0.300065	0.755319	-0.640215	1.487595	-0.421307	-0.723607	-0.346485	-0.238376	0.980077	-0.880084	-0.140189	-0.545666	0.135671	0.694426	-0.037248	-0.447768	0.412296	0.227031	0.664944	-0.633058	-0.897742	0.448703
-0.422238	0.594843	0.523598	-0.749951	0.635632	0.783651	-0.611928	0.340751	-0.036591	1.110528	-0.544851	1.383050	-0.786891	-0.235779	-0.191765	0.024689	-0.711713	0.213491	1.009199	-1.630144	0.590693	-0.037336	-0.830030	-0.138229	2.072009	-1.284181	-1.385700	0.627003	-0.863294	-0.256371	-0.213489	-0.108658	-2.126733	0.312858	-0.156293	1.808618	-1.725813	-0.413437	0.478658	0.566986	0.267402	0.621207	0.817883	-2.237750	1.329169	-1.149147	0.179383	-0.955823	-1.024865	-0.620224	-0.327350	0.603777	0.553181	-1.009791	-0.627337	0.363319	-0.478480	0.589384	0.261739	-0.068696	-0.979580	1.186457	0.155733	-0.950030
-0.538076	-0.943536	1.200535	-0.824780	-0.680223	1.988297	-0.451323	-1.466247	0.254452	-0.304629	-0.645480	0.588545	0.560456	-1.761695	0.624768	1.460516	-0.556317	1.099887	-0.651237	0.945499	0.193909	0.686450	-1.002197	0.173248	1.323829	-0.525467	-0.096872	-0.451708	0.229037	1.093458	-0.030070	-0.694321	-0.310154	0.756706	-0.346373	0.265850	-0.079299	-1.348854	0.621850	0.130310	0.034516	-0.155658	-0.141613	0.858372	-0.090113	1.010383	-1.126463	0.291662	0.073160	0.254089	0.913260	-0.688703	0.053650	0.111340	0.221474	0.385734	0.055803	-0.937603	0.935686	-0.318128	-0.092141	-0.564848	0.522568	-0.983750
-1.086254	0.387132	0.643834	-0.281921	-0.790400	0.110521	0.270903	-0.196186	0.968839	-1.345383	-0.409617	0.844133	-0.092621	-0.021052	-0.358367	-0.146926	-0.793119	1.291907	0.398597	-0.491805	0.181569	-0.556943	0.714468	0.401786	0.972659	-0.118506	-0.792178	0.305960	-0.087903	-0.392059	0.589423	-1.032848	-0.757678	-0.873300	0.607303	-0.115142	-0.395973	0.039265	-0.508532	0.808114	0.626115	0.050506	-0.208181	-0.664678	0.844169	-0.219120	0.141461	0.165066	0.356559	-0.215516	-0.190053	0.871197	-0.982896	0.511455	-0.236983	0.087646	-0.589911	0.235021	0.151206	-0.342953	-0.000245	-0.771999	0.386783	-0.332892
1.132883	-1.019627	0.968904	-1.077243	0.879816	-1.071632	0.717487	-0.567396	-0.032681	0.112498	-1.600961	0.364626	0.189380	-0.706419	0.199193	0.076592	0.211880	-0.243561	0.960496	-0.173305	0.246198	0.590428	-0.725209	-0.535582	-0.118575	-1.144215	0.123279	-0.967785	0.017277	0.575260	-0.001829	0.555734	-0.155686	0.865039	0.564842	-0.089663	-0.651273	-0.643633	-0.500364	-0.001356	-0.020822	0.132078	-0.503138	0.673831	-0.532236	0.768546	0.598589	-0.782318	-0.324419	1.108564	-0.582579	0.468989	-1.136506	-0.798237	-0.310436	0.741049	0.184753	-0.303647	-0.177001	-1.827857	1.852359	-0.120277	-0.103025	0.147585
0.632710	-0.675678	-0.193886	1.216284	-1.506233	-0.258046	-0.482637	-0.057669	-0.710150	0.995583	-0.116874	-0.734997	0.800455	0.158046	-0.030988	0.302414	-0.275301	-0.339531	-0.100865	-0.221109	-0.314246	0.430988	0.159738	-0.808995	2.238153	-0.670275	0.490884	-0.073816	0.050664	-0.871742	0.144902	0.389664	-1.112354	0.241604	-0.244417	0.883818	-0.486888	0.133706	0.314163	-1.062009	-0.394496	-0.116445	-0.388392	-0.400653	0.215451	-0.059416	-0.854882	0.577054	0.561436	-0.180225	-0.290601	0.132325	0.369388	-0.329603	0.267600	-0.652849	-0.703864	1.021605	-0.662298	-0.119733	0.037649	-0.138149	-0.593520	0.344690
-1.179163	1.251245	-0.019136	-0.548046	1.246920	-0.693866	0.391568	0.067635	0.629993	-0.164634	-0.203089	0.512135	-0.983259	0.488582	-0.422853	0.478422	0.011457	-0.240956	-0.162233	-0.594908	0.435672	0.559044	-0.860805	0.289350	0.024015	0.397746	0.354488	1.218911	-0.765045	-1.234102	0.468119	-0.439399	0.171823	-0.204805	0.208240	-0.439149	0.670725	-0.073795	-0.043134	0.460996	0.353570	-0.920695	0.838730	-0.864517	0.013526	0.180004	0.242628	-0.871885	0.301645	0.865452	-0.838814	0.443478	0.190888	-0.822333	0.184096	0.728241	0.106383	-0.537637	0.502914	0.402272	-1.146155	1.034837	0.387985	-0.505561
2.129863	0.035322	-1.346047	-1.091647	1.050100	-2.683594	-0.568591	-0.083386	-2.027770	0.748826	0.250641	0.232480	0.587741	-0.002532	1.201324	-0.157335	-0.033959	-1.299622	-0.539894	0.179036	0.220272	-2.056461	1.725699	0.033097	0.132359	-0.007191	2.148495	-1.212326	0.140907	1.164098	-0.147254	-1.414576	1.089600	0.514695	-0.582695	0.028786	0.812052	-0.616906	-0.891373	0.163288	-0.091601	0.104067	0.172349	1.263029	0.824933	-2.897171	2.509777	0.630400	-1.668580	-0.466559	-1.278733	-0.447114	0.697363	-3.874908	-0.041458	-0.439958	-0.269046	-0.257935	-1.509191	2.702237	0.436682	-1.436776	-1.525124	-0.479512
-0.123438	-1.028913	0.322408	0.423657	-0.971098	-0.128808	-0.336193	0.074711	0.373156	-0.065107	0.134805	0.460484	-0.053310	0.824565	-0.382728	-0.092961	-0.588478	-0.522835	0.619749	-1.116379	0.015045	-0.711186	-0.394928	0.686517	-0.553918	0.272705	-0.117447	-0.359203	1.028512	-0.052082	1.214416	-0.528262	-0.364233	0.875718	0.301952	-0.248293	-2.105375	1.407142	-0.569610	-0.153286	1.326142	-1.488440	-0.130735	1.243716	-1.143568	-0.540580	0.616715	-0.279719	-0.927494	1.500819	-0.692206	-1.062591	2.148794	-0.162579	0.450037	0.256588	-0.129373	-0.428030	0.353690	-0.670384	-0.588852	0.235081	-0.071697	-0.303557
0.299140	-0.061745	2.135303	-0.828562	0.994525	-2.028117	-0.313753	-0.451852	1.065672	-1.076903	-1.366528	-0.548745	-0.214709	-0.487484	-1.123793	0.768058	-0.225014	0.988454	0.092480	0.616250	-0.608688	0.630337	0.611469	2.137812	0.657515	0.393292	1.224855	-0.008123	-0.652825	2.293949	-2.715079	-1.384970	0.614777	-3.579339	-0.552326	0.731245	-1.080544	0.768402	0.483272	-0.235809	0.051452	1.260442	0.851803	-4.935554	0.205343	-0.591792	0.370368	-0.264648	-0.309158	-0.419458	0.206040	0.783260	0.804071	-1.740073	0.053635	0.370354	-0.114945	-0.682122	0.374554	0.612674	-0.098205	0.896351	-0.890015	-2.612948
-0.213530	0.459684	-0.095817	-0.284850	0.400957	0.478564	-1.037965	0.674606	-0.908288	-0.142474	-0.360325	0.382356	0.365363	-0.579160	0.166930	-0.599059	0.724109	-0.195265	0.059748	0.073633	-0.176373	0.655679	-0.386437	0.491568	-0.073970	-0.303309	1.075885	-0.747877	0.296414	-0.064802	0.520556	-0.412514	-0.630753	-0.097614	-0.787659	0.512896	-0.540017	0.061574	-0.559736	0.180111	0.859340	0.249168	-0.021527	-0.774150	0.498663	-0.287577	0.265786	-0.076565	-0.346294	-0.434336	0.750060	0.106668	-0.335166	0.012327	-0.553932	0.730418	-0.022161	0.968382	-0.750337	-0.506368	0.180241	-0.430762	0.887625	-0.931937
-0.441437	0.854837	-1.269824	0.565059	-0.598634	1.262575	-0.407334	-0.219336	-0.621332	-0.031268	0.117406	0.210461	0.034105	-0.425090	-0.751897	0.533707	0.219826	0.074306	0.086130	-0.179352	0.249637	-0.387188	0.882029	-0.112221	-0.066331	-0.786722	0.179929	-0.055716	0.451336	0.036782	-0.813385	-0.150979	0.634158	0.473757	0.127155	-0.345747	-0.845852	0.737969	-0.075255	-0.389625	-1.120735	0.303839	-0.332904	0.391441	-0.092222	0.050836	-0.905577	0.563501	1.559993	-0.528807	0.151702	-0.623127	0.193146	-0.210919	0.792728	-0.277477	-0.605679	-0.005721	0.198694	0.647328	-0.274565	0.191654	-0.090700	-0.077149
-0.116982	-0.558813	-0.167197	0.202720	-0.513657	0.558916	-0.437236	-0.091170	0.632165	0.376236	-0.116072	0.153986	-0.079296	0.448100	-0.592624	0.986737	0.468660	-0.006701	-0.390324	-0.510569	0.490085	-1.649640	0.867231	-0.941071	-0.497861	-0.788421	0.279842	0.579647	-0.252046	0.715689	-0.211625	0.574653	-1.028470	1.366808	-0.076422	-0.460415	1.163304	-0.809767	0.525624	-0.337450	1.199646	-0.128912	-0.183792	-0.035448	0.051164	-1.119833	0.425828	0.296679	-1.791998	0.285671	-0.346950	-0.080881	0.146251	0.646808	0.055365	-0.789864	1.287748	-0.694676	0.887759	-0.447393	0.346359	-1.252201	0.524136	0.147922
0.155763	0.284902	-0.899283	1.056038	-0.271426	-0.948857	1.111716	-0.293190	-0.883184	-0.134358	0.364152	-1.082194	0.521115	-0.684289	0.427181	-0.706555	0.763845	-0.895863	-0.057851	-0.503771	1.143710	-0.743058	-0.829378	0.163632	0.143250	1.313597	-0.809934	0.023165	-0.703147	0.884309	-0.468773	0.476724	0.081974	-1.274676	0.736928	-0.212716	0.295852	0.077676	0.285378	-0.088221	-0.325064	1.230201	-1.612232	0.176891	-1.213959	0.507708	-0.178176	-0.308073	0.049711	-0.023153	-0.015155	-0.001912	0.560523	-0.524941	1.092104	-0.319678	0.368820	-0.640871	0.729189	-0.859946	0.501787	-0.767106	-0.389494	0.637468
-0.102659	0.252242	-0.524578	0.422532	0.600910	-0.068536	-1.311419	1.285332	0.294753	-0.902789	0.470539	-1.042942	0.105185	-1.160177	1.237524	-0.819270	-0.706779	0.831575	-0.414593	0.411689	-0.610342	0.894432	0.035113	0.496226	-0.273827	0.364461	-0.190570	0.277441	0.392235	-1.100821	0.514945	-0.514247	-0.169974	0.092877	0.421180	-0.808107	0.642326	-0.116919	-0.291639	-0.087186	0.460175	-0.304457	-0.370928	0.684299	-0.162425	-0.097272	-0.660282	1.054178	-0.356879	0.140302	0.242113	-0.478672	0.275845	-0.580521	0.839197	-1.086757	0.511959	-0.377886	0.284065	-0.393975	0.187359	0.457735	-0.311618	0.370053
0.018680	0.055705	-0.060812	-0.349023	0.636645	0.219000	-0.347351	-0.203874	0.004372	-0.070066	0.492341	0.431314	-0.894377	0.489946	0.101909	0.635060	-0.663457	0.377814	-0.971096	0.388447	0.513995	-0.601124	-0.582743	0.263552	1.163404	-0.681345	0.052120	-0.865969	-0.451426	-0.121322	1.225384	-0.415749	0.039146	-0.585453	0.522102	-0.254891	0.106306	-0.043121	-0.606849	0.544111	0.861107	0.254142	-1.401693	0.783042	-0.648013	0.875258	-0.420164	0.052211	-1.813387	-0.022851	1.579419	-0.953146	0.557152	-1.610767	1.285533	0.226144	0.556694	0.318405	-1.141914	0.893445	-1.073034	0.635106	-0.769885	0.065941
-0.562547	1.104672	0.060111	-0.416312	-0.656248	0.195038	-0.461109	0.231656	0.574352	-1.004839	-0.628603	0.704658	0.916272	-0.753589	-0.636715	0.939026	-0.812397	0.381111	0.232720	-0.494968	-0.181076	0.275478	0.102331	-0.942638	0.051865	-0.677002	0.064453	-0.375749	-1.144778	-0.665000	0.345729	0.226591	0.400160	-0.167078	0.547237	-0.884801	0.210238	0.405392	-0.488838	0.169171	-1.119326	-0.219638	-0.802375	0.750113	0.198739	-1.327070	1.131659	-0.614580	0.276471	-0.118372	-0.241539	-0.017730	-0.100241	0.296711	-0.950328	1.022869	1.157781	-1.255979	0.679106	-0.372360	0.184173	-0.591594	0.467090	0.208759
0.079123	-0.928829	0.980313	-0.652492	-0.141323	0.777507	-0.330065	-0.057505	0.349654	0.509471	-0.554995	0.644760	-0.191576	0.213398	0.088189	-0.203333	-0.596042	0.105400	-0.227796	-0.146685	-0.557282	0.260636	0.152509	0.408776	-0.014282	-0.544345	0.672318	-0.404031	0.379208	-0.544034	-0.174343	-0.370982	-0.181860	0.765970	-0.937498	0.649274	-0.281682	0.576365	-0.320141	0.082337	0.661270	-0.086299	0.272413	-0.378668	0.458497	-1.265834	0.921758	-0.023687	-0.609621	-0.022844	0.017038	0.039995	-0.093310	0.061345	-0.284886	-0.217588	0.553270	-0.364768	-0.130892	0.015445	0.161222	0.988525	-1.239859	0.760668
0.677245	-1.000175	-0.007912	0.295919	-0.613596	0.735032	-0.380260	-0.010743	-0.486114	0.387991	0.363663	-0.960038	0.389054	-1.063148	0.823450	-0.738689	-0.425584	0.278938	-0.532056	0.157495	-0.065387	0.033433	-1.209943	0.487137	0.435735	-0.166499	-0.088947	-0.029066	0.083418	0.030801	0.352913	-0.404218	-0.198020	0.451635	-0.289351	0.178198	-0.317146	0.655388	-0.824714	0.588379	-0.421836	-0.541444	0.260948	-0.836150	0.832727	-0.731323	0.970710	-1.064838	-0.172983	0.309594	-0.750873	1.102830	-0.670569	0.386640	-0.696504	0.572260	0.205810	0.603442	-0.539698	0.561332	-0.112298	-0.252831	0.123730	-0.390229
0.034466	0.122339	-0.015073	-0.515542	0.847167	1.472988	-1.835884	-0.435465	-0.102427	-0.114895	0.186840	-0.300500	-0.436733	-0.178063	0.214747	1.137193	-1.061224	0.405588	-0.135791	-0.220911	0.229546	-0.147965	0.151213	-0.681695	1.522092	-1.159923	0.898502	0.116465	-0.949099	-0.643554	0.191315	0.648611	-0.187472	0.130591	-0.548079	-0.862176	0.932855	0.529449	-0.427295	-0.785734	-0.069662	0.117441	1.100492	-0.993057	-0.762003	0.271469	0.118571	0.577948	0.543734	-0.751341	0.653572	0.571161	-0.236828	-0.060645	-0.186984	-0.365728	-1.277918	1.180367	-0.709640	-0.020037	0.793793	-1.453932	1.193491	-0.692621
0.373927	-0.225568	0.046967	-0.068897	-0.269334	0.064278	-0.489894	1.556298	-0.721044	-0.098363	-0.430677	0.388988	-0.909400	0.744983	-0.206590	-1.816191	-0.804863	-0.179213	1.017684	-0.305844	0.605085	0.415887	-0.837867	1.152041	0.342815	0.633530	-1.573646	0.552101	0.489932	-1.333678	-0.086991	0.830538	-0.891467	-0.898222	0.923990	-0.153993	-0.990015	0.150869	-0.108642	-1.426002	0.642387	0.520654	-0.564670	-0.382020	0.546402	-0.019352	0.179058	0.448458	-0.113353	0.120794	-0.591106	0.254720	-0.445832	-0.630537	0.569297	-0.061873	-0.308070	-0.290870	0.854016	-0.636867	0.104542	-0.122345	-0.390641	-0.326929
0.628727	-0.479284	-0.228081	0.865545	-1.245997	1.370354	-1.277201	0.872843	-0.437968	-0.216376	-0.080904	-0.346937	-0.237218	-0.003234	-0.001399	0.065445	-0.063310	0.969192	-0.795662	0.918975	-0.131009	0.070319	0.418728	-0.672522	-0.326757	-0.238593	-0.086335	-0.333265	-0.739696	0.835665	-0.582210	0.217658	0.388124	-1.270303	0.395807	0.650287	0.631653	-0.470706	0.621178	-0.229418	-0.404279	1.283288	-1.200098	-0.183518	0.039104	-0.861633	0.456700	-0.308570	-0.108063	-0.503633	0.559357	0.164674	-0.222694	0.076034	-0.319500	0.448246	-0.312804	0.100710	1.056219	-0.970385	0.051189	0.636277	-0.029085	-0.474338
-0.332439	0.638202	-0.097669	-0.151162	0.058196	-0.254721	0.735949	-0.420510	-0.345674	0.329952	-0.970397	0.337511	-0.285089	0.254671	-0.262076	-0.209806	-0.098579	-0.140707	0.381028	-0.474089	0.417121	0.138708	-0.932338	0.891839	0.792399	-0.181884	-0.049481	-0.510734	-0.179456	0.266703	0.552829	-1.105021	-1.125654	0.538288	-0.765020	1.147470	0.028633	-0.214374	-0.351216	0.657296	-0.045123	0.493825	-0.369355	-0.289403	0.430977	0.384053	-0.788493	0.273744	0.009111	-0.540928	0.553111	-0.209358	-0.559660	-0.427912	0.882737	-0.815796	1.197293	-1.134095	0.225254	-0.269221	0.645838	-0.556045	-0.304132	0.700471
-0.210380	0.126168	0.812810	-0.055270	-0.223869	0.167875	0.503617	0.182438	1.399945	-1.385964	-0.450035	-1.283581	0.683376	-0.079979	0.257715	-0.793399	-1.057591	0.765085	0.370150	-0.458434	0.233224	-0.967054	-0.210507	0.737630	0.575593	-1.328800	-0.711242	0.755903	-1.601792	0.583221	-0.231792	-0.387768	-0.680405	0.393270	0.616149	-0.414143	0.175419	-0.358353	0.557220	-0.478757	0.057096	0.136157	-1.489322	0.039189	-1.063425	1.298661	-1.031628	-0.836100	-0.878672	-0.539256	-0.133836	0.523828	1.519347	-1.152691	0.653980	1.126316	0.421464	0.232136	-0.441014	-0.288775	-0.725972	1.231615	0.387643	-0.738572
-0.072661	-0.531748	0.152714	-0.994019	0.951996	0.273691	-0.035892	-0.642663	-0.014809	0.541236	0.208374	0.259473	-0.883430	-1.221324	0.265930	0.119111	0.276735	-0.061256	-0.284935	0.822212	0.000887	-0.396150	0.809952	-0.598333	-0.137921	0.055622	-0.784096	0.452176	-1.177831	0.393787	-0.412247	0.374492	0.897213	-0.538309	0.246300	0.333758	0.633877	-0.359784	-0.086257	0.448626	-0.035801	0.570037	-0.016719	-0.153917	0.483294	-0.147388	-0.138439	-0.387206	-0.512298	-0.917269	-0.019328	0.291295	-1.077463	0.162771	0.436703	0.125251	-0.120575	0.583305	0.288181	-0.387859	0.105289	-0.028248	0.359808	0.062425
-1.002550	0.157957	-0.263673	0.551673	0.111978	-1.057528	0.257874	-0.305586	2.055937	-0.677308	-0.199835	0.115309	-0.806543	0.016694	-0.381684	0.422184	-0.678290	0.048941	-0.042661	-0.948599	0.080976	0.495809	-0.410808	-0.157777	-0.390875	0.258722	-0.623600	0.929320	-0.348262	0.457929	-0.205884	0.690342	0.154993	-0.385723	-0.112634	-0.711628	0.505217	-0.893019	0.213779	-0.781649	-0.044284	-0.323351	0.339422	-0.203636	-0.283826	0.403559	-0.831439	0.804904	0.285243	-0.593017	-0.249144	-0.079279	-0.269768	-0.505336	0.509725	-0.755059	-0.406192	0.041006	-0.244582	0.767358	-0.152475	-0.142875	-0.994800	1.786914
0.371039	0.253852	-1.781235	0.543947	-0.406087	-0.273654	-0.248715	0.077490	-0.446104	-0.409595	1.114098	-0.081069	0.259577	0.197434	-0.585882	-0.338730	0.846732	-0.335282	0.026675	-0.731290	-0.016845	-1.042920	1.793171	-0.408585	-0.519401	0.350205	-0.213684	0.967022	-0.506969	-0.949368	-2.404451	0.759025	0.496446	-0.817434	0.016191	-0.312540	0.468573	-0.269678	1.146563	-0.223467	-0.112187	0.470433	0.400868	-0.467697	0.514809	0.089543	-0.535868	0.586505	-0.279313	-0.632690	0.399577	-0.406235	0.454445	-0.620337	-1.384766	-0.144792	0.644493	0.156948	-1.252873	0.985797	-0.625327	0.384319	0.453340	-0.713779
0.357001	-0.307970	-0.258328	-0.085142	1.069236	-0.572800	0.406578	-0.207221	-0.772145	0.444122	-0.235445	0.349209	-0.396380	0.624714	-0.358198	-0.101279	1.059873	-0.634687	0.201198	0.123371	-0.041825	-0.515875	0.103718	0.878658	-0.370347	0.744478	-0.373624	-0.475510	0.467937	0.478737	-0.380040	-0.162545	0.032795	-0.500607	-0.714938	1.594276	0.225115	-1.264494	1.613595	-1.073168	0.095968	-0.057872	0.311325	-0.205861	-0.472496	0.412971	-1.121955	0.697673	-0.622371	0.582577	-0.227713	-0.081533	0.931098	-0.212229	1.168334	-0.511576	-0.237759	0.188601	-0.442122	1.108639	-0.417464	-0.028402	-0.201254	-0.044337
0.255304	-0.173129	0.336859	-0.427754	0.398561	-0.245933	0.276322	0.111362	-0.656416	0.301147	-0.452252	0.301356	0.178141	-0.533151	-0.207113	0.032273	0.836086	-0.396010	0.720338	0.126271	-0.985825	0.729935	0.429747	-0.690399	-0.831863	0.675840	-0.534942	-0.468320	0.410974	-0.611795	0.441575	0.019546	0.318999	-0.635530	0.081093	0.496078	-0.202960	-0.228428	-0.040871	0.026057	0.469342	-0.148216	0.108426	-0.090950	-0.418742	0.406976	-0.213320	0.272754	-0.710618	-0.113579	0.501980	-0.034590	0.724769	-0.861019	0.479982	-0.141601	1.293622	-0.803304	0.745368	-0.235734	-0.480987	0.568209	-0.005467	0.174133
2.337567	-1.237577	0.589894	-0.573276	-0.623177	0.678202	-0.556446	-0.708041	-1.372092	-0.530262	0.448923	-0.338540	0.017476	0.223120	-0.067417	0.737259	0.537534	0.172066	-0.358191	0.974381	-0.969303	-0.012081	-0.104745	0.554495	-0.163745	-0.456691	0.499173	-0.282473	0.052046	0.082700	0.921098	-0.666722	0.368865	-0.658564	0.490251	-0.603281	0.720024	-0.799252	-0.069366	0.022168	0.178128	0.031473	-0.222063	0.210118	-0.277875	0.248040	-0.360985	0.189819	0.234589	0.162251	-1.324656	-0.171823	-0.393860	0.273910	0.568293	-0.446339	-0.162045	-0.343063	0.914410	-0.190350	1.060001	-0.398517	-0.166392	0.466035
-0.049801	-0.076913	1.157655	-0.716883	-0.244752	-0.684697	0.201038	-0.307502	0.140739	0.833351	-0.929171	-1.032738	2.782495	-1.481813	0.535377	-0.718848	-0.601016	-1.537183	1.294758	0.766424	-1.901824	0.852968	-0.180711	1.308822	0.693109	-0.027826	-1.984649	-0.104220	-0.341092	0.515434	-1.842267	0.414315	2.030855	-0.699291	0.843058	-0.027109	-0.352654	-1.049615	3.014185	-0.881184	-0.474123	-1.385918	0.191243	-0.658999	-0.422631	-0.571575	0.668314	-0.312759	1.054028	-0.622465	0.686790	-0.578110	-0.209089	-1.130865	0.697836	0.928648	-0.887781	0.094448	1.531274	-0.885338	0.367594	-0.047789	-0.190953	-1.087002
-0.707490	0.523776	0.056356	-0.379011	0.754541	0.043177	-1.015653	0.719991	1.072394	-0.892948	0.076537	-0.368540	-0.163280	0.222162	0.657759	-1.219397	-0.008760	-0.499822	-0.172188	-0.176070	0.118338	-0.460742	-0.759147	1.038149	-0.704562	0.334121	-0.099628	0.114319	-0.571838	1.341661	0.241005	-0.450664	0.495444	-0.148274	-0.140191	-0.021076	0.205408	-0.002202	-0.468724	0.458928	-0.070151	-0.698204	0.405447	0.232158	-0.358342	-0.727382	-0.268699	-0.061113	0.348104	0.128193	-0.656464	0.344466	-1.072656	1.076718	0.471909	0.268056	-0.564846	-0.025407	0.089542	-0.829665	0.895300	0.109516	-0.634368	-0.063210
0.446642	0.024107	-0.316636	0.862009	0.414779	-1.266093	0.271363	0.604160	-1.265178	-1.072645	-0.215716	-1.148708	0.446555	0.223092	0.619251	-0.036187	0.307291	0.372406	0.217934	-0.438504	-0.059892	0.268170	-0.580045	-1.109920	-0.434102	0.468609	0.096878	0.091841	-0.422693	-0.116519	0.715639	1.328580	1.228861	-0.027803	-0.727963	-0.443798	0.985762	-0.379520	0.024789	-1.289039	-1.807338	0.726497	-0.233731	-0.066517	-0.544198	-0.984712	0.687831	0.634927	0.654571	0.231094	-0.204429	1.030446	0.637200	-0.061382	-2.122141	0.548482	-0.128420	-0.928302	-0.586798	0.528290	-1.757052	0.493551	0.325108	-0.543408
