-0.024269	-0.021135	-0.021910	0.008386	-0.045300	-0.016181	-0.004384	-0.014550	-0.008393	-0.030864	-0.012340	-0.060516	0.011818	-0.063364	-0.027564	-0.037754	-0.072224	0.018634	-0.068371	0.018280	-0.051233	0.009278	-0.051749	-0.027055	0.031582	-0.097296	0.027825	-0.095461	0.022446	-0.066537	-0.001729	-0.023652	-0.103041	0.054941	-0.104561	0.045984	-0.093455	0.009453	-0.078533	0.008633	0.055283	-0.107646	0.066158	-0.112721	0.040836	-0.109110	0.024185	-0.064251	-0.095823	0.041422	-0.097216	0.064970	-0.129964	0.065948	-0.067891	0.032742	0.025099	-0.086217	0.037698	-0.084803	0.044464	-0.087406	0.014281	-0.064718
-0.024818	-0.005123	-0.034160	0.003733	-0.044670	-0.018269	-0.024025	-0.003469	-0.003346	-0.024919	-0.033837	-0.052933	0.013030	-0.054529	-0.003913	-0.061025	-0.069892	0.021089	-0.049731	0.031230	-0.084020	0.011830	-0.052572	-0.003459	0.034951	-0.101594	0.045005	-0.099263	0.028061	-0.076597	0.005035	-0.067030	-0.108782	0.075549	-0.125152	0.064385	-0.122632	0.031356	-0.076124	0.001137	0.051423	-0.117403	0.096399	-0.120808	0.066539	-0.111593	0.011695	-0.081790	-0.109349	0.094479	-0.116079	0.080902	-0.134021	0.050741	-0.073381	0.032281	0.047704	-0.103934	0.056219	-0.120352	0.060688	-0.069266	0.017053	-0.062471
-0.035511	-0.019147	-0.055339	0.000093	-0.063494	-0.002426	-0.039238	-0.001816	-0.005678	-0.050858	0.011069	-0.080983	0.019937	-0.040564	-0.019706	-0.038825	-0.069574	0.033174	-0.086285	0.030827	-0.075296	0.024186	-0.061587	-0.001815	0.038626	-0.110109	0.053863	-0.122894	0.060618	-0.072175	0.000360	-0.046255	-0.126056	0.086296	-0.117279	0.062823	-0.101721	0.044437	-0.067720	0.032832	0.053740	-0.131377	0.070440	-0.134152	0.067332	-0.111005	0.039553	-0.076013	-0.110200	0.085106	-0.117486	0.109037	-0.129860	0.059311	-0.100693	0.033122	0.036818	-0.085576	0.046849	-0.106663	0.047743	-0.111573	0.027111	-0.049681
-0.035466	-0.027276	-0.037571	0.003332	-0.062773	-0.004852	-0.030125	-0.030545	0.007787	-0.043675	0.014553	-0.058906	0.004428	-0.067397	0.005211	-0.037261	-0.070372	0.067611	-0.070469	0.059098	-0.074831	0.032649	-0.072772	0.005931	0.040008	-0.118876	0.048321	-0.118897	0.069771	-0.103077	0.025446	-0.075039	-0.123774	0.092407	-0.133334	0.064121	-0.124543	0.052103	-0.089031	0.018372	0.059180	-0.133624	0.104736	-0.122354	0.049817	-0.116089	0.031924	-0.078010	-0.121430	0.070072	-0.110773	0.090718	-0.151416	0.066190	-0.096305	0.022152	0.059186	-0.089873	0.028096	-0.097326	0.079903	-0.086266	0.016172	-0.064798
-0.024049	-0.020434	-0.036495	0.010332	-0.065806	-0.003387	-0.067858	-0.025451	0.001360	-0.062934	0.023108	-0.087808	0.018010	-0.058616	0.018321	-0.059884	-0.062332	0.027819	-0.088052	0.055125	-0.085054	0.021870	-0.069602	-0.004991	0.048328	-0.108270	0.071705	-0.134264	0.070007	-0.104358	0.017136	-0.050834	-0.114140	0.073345	-0.135294	0.070976	-0.123774	0.054905	-0.077648	0.008997	0.066789	-0.121034	0.089776	-0.121776	0.063373	-0.124904	0.048658	-0.081697	-0.111423	0.071280	-0.101421	0.074960	-0.132612	0.068812	-0.095327	0.042982	0.048265	-0.084391	0.055413	-0.106259	0.065133	-0.101065	0.037793	-0.062757
-0.034682	-0.009610	-0.045830	0.019402	-0.061237	-0.022816	-0.015354	-0.012185	0.006752	-0.038030	-0.002083	-0.074766	0.015745	-0.059306	0.005256	-0.040110	-0.077889	0.016694	-0.064083	0.033991	-0.085844	0.020583	-0.058880	-0.014157	0.035942	-0.104492	0.029958	-0.124696	0.028400	-0.075449	0.011805	-0.033679	-0.101513	0.069247	-0.123117	0.054862	-0.106152	0.031765	-0.067680	-0.001029	0.056477	-0.101304	0.071588	-0.114975	0.068825	-0.113360	0.033075	-0.079446	-0.105654	0.056197	-0.109137	0.079361	-0.115336	0.071820	-0.060717	0.014690	0.045915	-0.088393	0.061378	-0.111049	0.043327	-0.096759	0.003567	-0.059729
-0.041217	-0.018008	-0.030062	0.012573	-0.037021	-0.018808	-0.035974	-0.016486	-0.017118	-0.022531	0.007302	-0.066962	-0.007304	-0.035291	-0.008034	-0.025209	-0.083430	0.010747	-0.066494	0.037603	-0.079551	0.022370	-0.072750	-0.009487	0.039349	-0.099567	0.050501	-0.120309	0.017628	-0.060064	0.014306	-0.060610	-0.092002	0.069256	-0.108704	0.063544	-0.084031	0.054576	-0.078148	0.022521	0.054821	-0.100413	0.058950	-0.109514	0.071471	-0.129513	0.022353	-0.105994	-0.107064	0.068201	-0.088925	0.070733	-0.111600	0.047688	-0.104796	0.026794	0.037958	-0.086903	0.010933	-0.099136	0.035646	-0.083818	0.032599	-0.068677
-0.040278	-0.024195	-0.037691	0.011545	-0.062890	0.000666	-0.033697	-0.025847	0.002882	-0.056661	-0.002068	-0.080846	0.042000	-0.054432	-0.007394	-0.036536	-0.071740	0.023846	-0.065928	0.056022	-0.087730	0.019822	-0.067843	-0.027782	0.030411	-0.096625	0.070841	-0.119187	0.051533	-0.075784	0.049966	-0.041274	-0.115264	0.069242	-0.146138	0.077203	-0.121120	0.030308	-0.085170	0.005215	0.075432	-0.112268	0.081210	-0.109359	0.072702	-0.126158	0.058153	-0.080383	-0.119740	0.068914	-0.121360	0.067178	-0.126987	0.093267	-0.106697	0.038650	0.033761	-0.095782	0.036516	-0.113665	0.060136	-0.105554	0.039418	-0.060594
-0.032116	-0.027290	-0.035998	0.002699	-0.039015	-0.020627	-0.022235	-0.011400	-0.018862	-0.032337	-0.010614	-0.052170	0.005554	-0.065912	-0.021486	-0.034744	-0.061045	0.010055	-0.056346	0.022084	-0.073257	0.006326	-0.065422	-0.005459	0.033399	-0.107804	0.057686	-0.113441	0.046990	-0.083205	0.018292	-0.033674	-0.134648	0.066094	-0.115579	0.066350	-0.101147	0.033243	-0.071513	0.012251	0.066771	-0.113873	0.079955	-0.122374	0.060790	-0.114614	0.042020	-0.085938	-0.101303	0.089437	-0.097837	0.073469	-0.117446	0.063849	-0.107954	0.019858	0.018554	-0.090853	0.039516	-0.081526	0.058986	-0.094113	0.042682	-0.080733
-0.035029	-0.007064	-0.054343	0.009707	-0.049212	-0.013029	-0.023650	0.005226	0.003401	-0.044842	-0.005187	-0.076708	0.024802	-0.063573	-0.002503	-0.047292	-0.067746	0.026477	-0.061324	0.036644	-0.082560	0.009071	-0.069527	-0.001688	0.052769	-0.122352	0.057924	-0.099892	0.042108	-0.055826	0.002745	-0.066707	-0.134895	0.092130	-0.122106	0.068357	-0.107055	0.025064	-0.049866	0.012466	0.055086	-0.115207	0.082607	-0.122240	0.057257	-0.109323	0.054897	-0.071080	-0.092427	0.061791	-0.124233	0.077167	-0.135936	0.078845	-0.108524	0.044085	0.035314	-0.097031	0.029720	-0.123632	0.064501	-0.095556	0.018038	-0.073966
-0.039071	0.003716	-0.038947	-0.017875	-0.053144	-0.007838	-0.059094	-0.015962	0.000063	-0.037746	0.020310	-0.053067	0.014932	-0.066430	0.028078	-0.041330	-0.069459	0.023207	-0.067525	0.041328	-0.084206	0.017472	-0.066355	-0.007262	0.037271	-0.107841	0.046324	-0.095620	0.012414	-0.064869	0.029118	-0.076772	-0.116589	0.073373	-0.141250	0.062812	-0.121394	0.059677	-0.066790	0.029219	0.063934	-0.133560	0.074177	-0.118117	0.055434	-0.105793	0.035078	-0.088336	-0.101362	0.075153	-0.116652	0.092674	-0.145779	0.074566	-0.081953	0.026247	0.043679	-0.105323	0.052286	-0.106115	0.051421	-0.082760	0.025244	-0.072921
-0.055067	-0.002223	-0.055829	0.024064	-0.078976	0.017304	-0.030156	-0.015029	0.002215	-0.046385	0.008731	-0.061806	0.027116	-0.059115	0.001033	-0.044591	-0.072460	0.013796	-0.092606	0.061591	-0.086486	0.029886	-0.071292	0.005515	0.046566	-0.126035	0.061269	-0.133844	0.056877	-0.103353	0.033410	-0.053231	-0.118080	0.097250	-0.120313	0.093752	-0.140588	0.037783	-0.089768	0.020836	0.069392	-0.137496	0.092432	-0.142994	0.073682	-0.137486	0.036022	-0.103855	-0.125463	0.089876	-0.132282	0.119058	-0.140000	0.080221	-0.104848	0.042219	0.039284	-0.096448	0.077159	-0.113393	0.077661	-0.109047	0.038795	-0.043082
-0.042767	0.002172	-0.028495	-0.012066	-0.042801	-0.001501	-0.020258	-0.039288	-0.007935	-0.047949	-0.003998	-0.057548	0.014384	-0.065755	-0.002759	-0.031719	-0.064587	0.032064	-0.060749	0.044182	-0.078166	-0.000232	-0.057912	-0.006414	0.045187	-0.123640	0.034844	-0.101446	0.036487	-0.067926	0.010262	-0.052051	-0.104300	0.068972	-0.126447	0.063523	-0.115174	0.034426	-0.073205	0.006102	0.067041	-0.132086	0.075188	-0.129579	0.081495	-0.112692	0.045485	-0.099955	-0.107176	0.076747	-0.113153	0.089749	-0.142551	0.081536	-0.064985	0.022610	0.032603	-0.077290	0.056707	-0.112027	0.051493	-0.098918	0.015987	-0.068634
-0.045598	-0.031396	-0.034110	-0.009841	-0.030389	-0.029586	-0.014492	-0.030344	-0.006689	-0.035521	-0.022133	-0.057454	0.007325	-0.043844	-0.010543	-0.010675	-0.074743	0.007296	-0.072852	0.026581	-0.082551	0.023789	-0.045550	-0.021127	0.026002	-0.101395	0.033645	-0.103378	0.032804	-0.090575	0.021139	-0.032080	-0.116461	0.061408	-0.120618	0.064056	-0.100874	0.053579	-0.076596	-0.003180	0.030495	-0.125383	0.067688	-0.101543	0.052796	-0.110472	0.029075	-0.070313	-0.079280	0.053079	-0.114888	0.080977	-0.126597	0.079935	-0.081854	0.017171	0.036798	-0.078371	0.041338	-0.098889	0.061082	-0.082548	0.039242	-0.052359
-0.036544	-0.018029	-0.020930	-0.016497	-0.043734	-0.017436	-0.026526	-0.008083	0.000777	-0.043701	-0.018708	-0.054777	0.017645	-0.027658	-0.010219	-0.036761	-0.067638	0.036268	-0.070198	0.042017	-0.071140	0.018819	-0.066843	-0.006574	0.052180	-0.120071	0.048082	-0.120243	0.049511	-0.090718	0.003858	-0.047813	-0.094603	0.070432	-0.132040	0.087634	-0.124376	0.013168	-0.069804	0.004434	0.037756	-0.110043	0.075817	-0.127812	0.049856	-0.102804	0.039976	-0.084094	-0.084614	0.050042	-0.124772	0.066796	-0.133431	0.066504	-0.090231	0.029138	0.019278	-0.072241	0.034236	-0.090242	0.055925	-0.088539	0.034276	-0.053932
-0.032343	0.000144	-0.039524	0.007586	-0.056859	0.010343	-0.041894	0.003463	0.002723	-0.065227	0.004533	-0.078775	0.028456	-0.066376	-0.003269	-0.065952	-0.079268	-0.000600	-0.092525	0.053431	-0.075895	0.028674	-0.080234	-0.002145	0.044941	-0.125586	0.066313	-0.107386	0.038299	-0.080372	0.018122	-0.079215	-0.118649	0.068587	-0.140091	0.066985	-0.093399	0.046272	-0.084959	0.019674	0.068130	-0.111648	0.076076	-0.130918	0.072095	-0.109801	0.044030	-0.078848	-0.097460	0.059212	-0.097360	0.077336	-0.111829	0.056448	-0.069866	0.027702	0.029020	-0.095666	0.033697	-0.098633	0.057603	-0.099535	0.027740	-0.035150
-0.011654	-0.021157	-0.027716	-0.013490	-0.035255	-0.030877	-0.023748	-0.045956	-0.005696	-0.028961	-0.020221	-0.037189	-0.010760	-0.058030	-0.013195	-0.020592	-0.043452	0.003028	-0.046087	0.025818	-0.067908	0.014240	-0.045264	-0.034259	0.047198	-0.083961	0.027049	-0.094989	0.027659	-0.059977	-0.007817	-0.050575	-0.104314	0.073371	-0.107902	0.048963	-0.087301	-0.006808	-0.051395	-0.017654	0.039477	-0.122577	0.048288	-0.097198	0.045285	-0.097259	0.021748	-0.070142	-0.100646	0.041841	-0.090533	0.057913	-0.139627	0.049220	-0.062808	0.026130	0.026673	-0.088407	0.025818	-0.074139	0.048925	-0.082212	0.031462	-0.050756
-0.039804	-0.018294	-0.039398	-0.003789	-0.046005	-0.007000	-0.024471	-0.019380	0.001055	-0.068178	0.008673	-0.064902	0.028162	-0.088808	0.021256	-0.045402	-0.059735	0.010116	-0.065897	0.031601	-0.089870	0.043557	-0.070785	-0.002220	0.050562	-0.105405	0.049083	-0.111658	0.065650	-0.080867	0.015778	-0.044357	-0.101976	0.085649	-0.121528	0.057284	-0.095925	0.027184	-0.074888	0.004132	0.050637	-0.117463	0.079294	-0.121548	0.084084	-0.111768	0.033174	-0.076121	-0.095459	0.051860	-0.106998	0.085814	-0.141710	0.082573	-0.093396	0.029440	0.033449	-0.090996	0.027541	-0.122180	0.073547	-0.107256	0.021846	-0.084006
-0.036206	-0.037384	-0.012553	0.002411	-0.054679	0.010949	-0.015555	-0.026046	-0.033038	-0.012930	-0.023651	-0.076989	0.021265	-0.022722	0.006797	-0.030744	-0.056549	0.022173	-0.054164	0.037538	-0.071351	0.012934	-0.066644	-0.012849	0.018143	-0.102724	0.030011	-0.116362	0.032637	-0.054408	0.016516	-0.065263	-0.116576	0.076707	-0.128641	0.058527	-0.095813	0.021008	-0.068177	-0.006981	0.040362	-0.109091	0.050922	-0.109526	0.057197	-0.100039	0.031166	-0.064225	-0.099967	0.053904	-0.102039	0.074834	-0.126222	0.059475	-0.089065	0.014778	0.016557	-0.065784	0.019366	-0.105299	0.041448	-0.078584	0.021432	-0.040992
-0.046505	-0.009030	-0.050404	0.023668	-0.067394	-0.002941	-0.024331	-0.013360	0.002980	-0.052387	0.005350	-0.073307	0.029434	-0.033705	-0.006750	-0.057664	-0.076400	0.054840	-0.085680	0.065312	-0.066865	0.018518	-0.062385	0.014479	0.043147	-0.117596	0.047414	-0.130638	0.038039	-0.094320	0.016785	-0.064562	-0.114962	0.062377	-0.129173	0.083849	-0.137443	0.047965	-0.067226	0.002220	0.073788	-0.119445	0.073147	-0.129391	0.077550	-0.118125	0.044985	-0.097145	-0.108733	0.054153	-0.116459	0.072349	-0.147882	0.084127	-0.081458	0.036632	0.026979	-0.096308	0.054724	-0.106772	0.083395	-0.094775	0.035670	-0.064477
-0.033109	-0.018221	-0.027993	0.005725	-0.057722	-0.023297	-0.047629	-0.013616	-0.011225	-0.067302	0.002638	-0.038214	0.014917	-0.043752	-0.002417	-0.040698	-0.060011	0.018817	-0.067048	0.045366	-0.086310	0.031024	-0.065632	-0.014040	0.048444	-0.119170	0.048701	-0.113533	0.051790	-0.071954	0.012772	-0.043920	-0.098210	0.080737	-0.126869	0.056476	-0.122542	0.037278	-0.082560	0.010940	0.054385	-0.114890	0.076212	-0.118943	0.068814	-0.135894	0.027080	-0.085561	-0.121322	0.073508	-0.095579	0.091113	-0.138181	0.084175	-0.087788	0.024091	0.031741	-0.094044	0.035422	-0.102444	0.058094	-0.095529	0.036115	-0.045854
-0.023816	-0.031292	-0.062463	0.008029	-0.063605	-0.012040	-0.037296	-0.040196	0.006633	-0.035415	-0.006501	-0.091280	0.009022	-0.045493	-0.021375	-0.033701	-0.069385	0.028255	-0.066854	0.030491	-0.062499	0.016172	-0.059893	-0.018221	0.039578	-0.117984	0.046181	-0.091708	0.022054	-0.089002	0.025471	-0.051252	-0.119568	0.086609	-0.131931	0.087370	-0.098933	0.031440	-0.048512	0.003066	0.061780	-0.116189	0.090279	-0.103913	0.064619	-0.116933	0.037287	-0.086342	-0.084809	0.067935	-0.113973	0.078825	-0.145898	0.054301	-0.070728	0.016955	0.025773	-0.083467	0.051972	-0.094987	0.065388	-0.098913	0.012441	-0.037739
-0.039093	-0.024748	-0.021298	-0.003810	-0.045981	0.009431	-0.037142	-0.012790	-0.004744	-0.040859	0.007266	-0.058195	0.014559	-0.041249	-0.012274	-0.050264	-0.080144	-0.006458	-0.045229	0.021173	-0.077871	0.009182	-0.059715	-0.002118	0.046064	-0.113344	0.037676	-0.105262	0.026481	-0.055757	0.010630	-0.045506	-0.105289	0.079718	-0.121136	0.045635	-0.101102	0.023071	-0.079539	0.013459	0.060522	-0.118965	0.071440	-0.100856	0.058555	-0.082318	0.034543	-0.102662	-0.099593	0.064158	-0.096039	0.075868	-0.132323	0.045305	-0.089157	0.013611	0.025953	-0.084526	0.050505	-0.097977	0.034869	-0.087927	0.037700	-0.065689
-0.043424	-0.009486	-0.053078	0.010114	-0.058268	0.000271	-0.042274	-0.020967	0.016076	-0.058911	0.026913	-0.079743	0.024492	-0.050242	-0.013809	-0.063447	-0.096636	0.045459	-0.088058	0.079180	-0.094749	0.029343	-0.054632	0.019716	0.073652	-0.108230	0.068511	-0.118621	0.056555	-0.090653	0.009678	-0.058265	-0.124002	0.078905	-0.130509	0.088900	-0.119426	0.061902	-0.094213	0.013477	0.052048	-0.148523	0.084276	-0.134155	0.089842	-0.114038	0.029060	-0.068439	-0.100817	0.079095	-0.121804	0.074835	-0.146272	0.083587	-0.074051	0.046799	0.035344	-0.107816	0.045915	-0.128697	0.063256	-0.101471	0.029353	-0.078857
-0.022708	-0.027786	-0.038286	-0.041518	-0.040455	0.001986	-0.002443	-0.029406	-0.012092	-0.029640	-0.021296	-0.049210	0.013656	-0.027982	-0.013264	-0.032834	-0.069184	0.003578	-0.058558	0.034065	-0.054830	-0.000066	-0.035279	-0.016491	0.035403	-0.104495	0.011493	-0.088358	0.034091	-0.064686	0.003023	-0.037168	-0.118268	0.058627	-0.103374	0.043789	-0.091857	0.013467	-0.057985	0.004154	0.028780	-0.096112	0.057893	-0.117468	0.056893	-0.088188	0.015606	-0.072480	-0.094389	0.065560	-0.097857	0.064132	-0.131245	0.058518	-0.088109	-0.010627	0.037480	-0.072993	0.007870	-0.105585	0.055460	-0.063104	0.023934	-0.058032
-0.039469	-0.003835	-0.044198	-0.015359	-0.054436	-0.024900	-0.025222	-0.008358	0.001621	-0.048565	-0.008023	-0.081015	0.018750	-0.050450	-0.013408	-0.002932	-0.067849	0.009696	-0.073409	0.047907	-0.074078	-0.003894	-0.049038	-0.021212	0.059595	-0.097693	0.037734	-0.096353	0.031210	-0.062124	0.008371	-0.057606	-0.120032	0.080307	-0.127668	0.057236	-0.114982	0.034397	-0.048459	-0.007804	0.049237	-0.104293	0.068715	-0.113698	0.045642	-0.103238	0.024086	-0.068599	-0.095095	0.088252	-0.102533	0.072785	-0.127869	0.054146	-0.079285	0.015997	0.034966	-0.076015	0.022551	-0.089439	0.062032	-0.091735	0.000134	-0.061358
-0.025022	-0.014024	-0.052405	-0.005272	-0.046362	-0.001125	-0.034701	-0.021928	-0.000724	-0.060744	0.021110	-0.075848	0.032450	-0.042959	0.009854	-0.048309	-0.072063	0.026410	-0.087504	0.051141	-0.098992	0.037534	-0.074477	-0.002034	0.050327	-0.119379	0.059030	-0.125651	0.053633	-0.097257	0.016950	-0.036143	-0.130055	0.072569	-0.128287	0.075343	-0.112925	0.047993	-0.073888	0.025300	0.062764	-0.129582	0.087479	-0.108329	0.067411	-0.128248	0.049075	-0.088543	-0.137233	0.079977	-0.122186	0.078524	-0.134025	0.069446	-0.083577	0.023052	0.045966	-0.098415	0.048858	-0.100121	0.044983	-0.084783	0.024366	-0.050830
-0.030987	0.003047	-0.037383	-0.009127	-0.047801	-0.015074	-0.016763	-0.039262	-0.010959	-0.055322	0.006773	-0.044450	0.011365	-0.051685	-0.005422	-0.024809	-0.078559	0.022820	-0.057173	0.043553	-0.072833	0.027604	-0.089691	-0.001129	0.034786	-0.126684	0.050528	-0.094228	0.033137	-0.062266	0.026189	-0.036371	-0.093536	0.079833	-0.122189	0.047809	-0.107543	0.025841	-0.048864	0.007509	0.053361	-0.112446	0.073806	-0.100636	0.055152	-0.106977	0.024465	-0.095007	-0.113375	0.065009	-0.113437	0.067230	-0.145484	0.062405	-0.100736	0.033278	0.038289	-0.105570	0.035201	-0.109971	0.056370	-0.077030	0.008071	-0.054624
-0.037368	-0.007197	-0.032673	-0.010873	-0.050441	-0.018306	-0.013709	-0.019861	0.023855	-0.045836	-0.007107	-0.078795	-0.004551	-0.066235	-0.001777	-0.031039	-0.087057	0.033498	-0.074296	0.043677	-0.058529	0.028229	-0.062931	-0.016352	0.022075	-0.116080	0.047010	-0.120785	0.036277	-0.071579	0.008906	-0.056349	-0.109233	0.079339	-0.135704	0.083379	-0.106663	0.037226	-0.064068	0.013258	0.063706	-0.114213	0.068330	-0.114039	0.050706	-0.106370	0.032539	-0.081557	-0.106570	0.045143	-0.111627	0.074727	-0.125914	0.051934	-0.069282	0.016320	0.047566	-0.082322	0.029641	-0.079291	0.038609	-0.078780	0.038341	-0.061443
-0.020414	-0.018723	-0.032345	-0.001660	-0.050151	-0.002038	-0.017515	-0.039872	0.014957	-0.062733	0.009718	-0.052481	0.002762	-0.055395	-0.016782	-0.039755	-0.073925	0.030410	-0.055914	0.056633	-0.083879	0.017400	-0.080013	-0.015459	0.053805	-0.092378	0.034827	-0.119223	0.039203	-0.072695	0.003781	-0.047257	-0.117717	0.074280	-0.120727	0.070046	-0.115005	0.038775	-0.076762	0.008655	0.050872	-0.103264	0.082850	-0.126274	0.074593	-0.117608	0.049101	-0.080595	-0.108983	0.071636	-0.127433	0.066306	-0.147435	0.069393	-0.070918	0.052088	0.044438	-0.084783	0.020020	-0.109052	0.047527	-0.101346	0.030032	-0.064154
-0.058326	-0.007290	-0.048405	-0.001344	-0.028233	-0.018606	-0.056730	-0.020950	0.013855	-0.025827	-0.013542	-0.060251	0.009769	-0.055143	0.025577	-0.057204	-0.069683	0.027532	-0.059837	0.043308	-0.076725	0.016662	-0.062005	-0.009318	0.050914	-0.115171	0.053138	-0.115494	0.052742	-0.078365	-0.006142	-0.039499	-0.124169	0.068813	-0.134972	0.085504	-0.135398	0.073449	-0.065256	0.013773	0.053958	-0.118664	0.082207	-0.117004	0.072482	-0.113481	0.033184	-0.085072	-0.111533	0.078855	-0.104269	0.044879	-0.126781	0.067801	-0.088022	0.022183	0.049841	-0.081127	0.029201	-0.097661	0.043316	-0.108274	0.022723	-0.048315
-0.023756	-0.012655	-0.026351	0.000418	-0.055445	-0.005283	-0.019270	-0.011434	0.011528	-0.034833	0.000130	-0.051399	0.013969	-0.060728	-0.005761	-0.046670	-0.074562	0.017106	-0.074427	0.035840	-0.096168	0.021126	-0.061841	-0.015529	0.046472	-0.094410	0.026985	-0.116139	0.027968	-0.083210	0.019197	-0.052430	-0.110098	0.048121	-0.114078	0.051971	-0.104769	0.039031	-0.057921	-0.003573	0.017023	-0.112805	0.090817	-0.105305	0.064166	-0.114549	0.041367	-0.090916	-0.098170	0.067964	-0.096335	0.102864	-0.125613	0.057422	-0.084723	0.006364	0.027440	-0.091633	0.030972	-0.098820	0.043181	-0.078307	0.027553	-0.055593
-0.036055	-0.015934	-0.024402	-0.013749	-0.055131	-0.011875	-0.041539	-0.027123	-0.005775	-0.032725	0.000927	-0.060745	0.023860	-0.052697	0.001237	-0.040183	-0.064087	0.014266	-0.093029	0.039499	-0.061424	0.029413	-0.052378	0.008162	0.042210	-0.103948	0.040532	-0.112932	0.044309	-0.061212	0.011556	-0.057055	-0.109012	0.078839	-0.138088	0.043723	-0.112805	0.025965	-0.080110	0.012191	0.045859	-0.100550	0.077738	-0.116339	0.071762	-0.123540	0.047652	-0.084567	-0.095862	0.051953	-0.123364	0.084134	-0.127266	0.056539	-0.096507	0.040837	0.021913	-0.068368	0.027147	-0.093475	0.050282	-0.085488	0.025384	-0.059792
-0.033683	-0.028522	-0.025718	-0.011166	-0.049879	-0.021748	-0.053069	-0.022996	0.025015	-0.034829	-0.003840	-0.064817	0.012624	-0.044031	-0.018566	-0.025273	-0.061463	0.027323	-0.062773	0.039245	-0.068461	0.022977	-0.064102	-0.014624	0.042888	-0.091366	0.032723	-0.125118	0.037846	-0.072345	0.011711	-0.047939	-0.114160	0.088840	-0.141015	0.058074	-0.107628	0.018762	-0.074381	0.027844	0.053190	-0.116485	0.061201	-0.126294	0.058853	-0.113144	0.046311	-0.075013	-0.118998	0.068221	-0.103870	0.086669	-0.114161	0.052445	-0.092834	0.010514	0.034799	-0.084938	0.048183	-0.102510	0.049177	-0.089065	0.018106	-0.032498
-0.048131	-0.018439	-0.009292	-0.007641	-0.048134	-0.015666	-0.027296	-0.006198	-0.026552	-0.023195	-0.020481	-0.063115	0.007489	-0.042839	-0.022284	-0.033123	-0.044515	0.003661	-0.063582	0.032304	-0.070980	0.018507	-0.068771	-0.001058	0.060383	-0.109155	0.054650	-0.124870	0.028120	-0.069705	0.028806	-0.049028	-0.115026	0.074745	-0.139716	0.076621	-0.100480	0.035549	-0.081868	0.017340	0.048727	-0.120655	0.099626	-0.126015	0.064285	-0.121953	0.046381	-0.087634	-0.113151	0.080453	-0.095673	0.072175	-0.155669	0.080416	-0.097868	0.038420	0.015784	-0.079391	0.025391	-0.095296	0.057382	-0.106036	0.029158	-0.052921
-0.029478	-0.015315	-0.007713	-0.028251	-0.024607	-0.015367	-0.030828	-0.038541	-0.006445	-0.028492	-0.009953	-0.039871	-0.008625	-0.044345	-0.023979	-0.029401	-0.054770	0.011263	-0.089476	0.036396	-0.065447	0.016462	-0.043091	-0.022488	0.045662	-0.090968	0.023627	-0.102387	0.026925	-0.069713	0.010622	-0.053374	-0.115440	0.070966	-0.132855	0.052954	-0.096750	0.022253	-0.064048	0.014859	0.032842	-0.124594	0.086524	-0.129535	0.057974	-0.104994	0.041612	-0.083942	-0.112118	0.079915	-0.090949	0.086231	-0.131697	0.056868	-0.094922	0.031437	0.041041	-0.074601	0.045168	-0.118992	0.066674	-0.103878	0.025999	-0.054644
-0.015223	0.014657	-0.030790	-0.007049	-0.046155	0.000435	-0.035163	0.000610	0.000682	-0.040500	0.004510	-0.062071	0.023611	-0.061907	-0.008392	-0.054748	-0.065254	0.027138	-0.065699	0.057756	-0.080139	0.027208	-0.077983	-0.009476	0.046423	-0.098910	0.041895	-0.113139	0.021022	-0.081198	0.021932	-0.048679	-0.104766	0.069613	-0.124138	0.058878	-0.102196	0.042053	-0.072359	0.006354	0.024694	-0.104510	0.065894	-0.130231	0.070520	-0.118297	0.046346	-0.079461	-0.096665	0.046006	-0.094953	0.075596	-0.136712	0.065717	-0.108548	0.031997	0.021705	-0.101647	0.017971	-0.089639	0.044568	-0.077575	0.024103	-0.078563
-0.047517	-0.000271	-0.037748	-0.007694	-0.047751	-0.001639	-0.016621	-0.001852	-0.000252	-0.059543	-0.002632	-0.062290	0.007488	-0.063770	0.003455	-0.041160	-0.069620	0.016636	-0.072938	0.034863	-0.070009	0.035182	-0.085305	-0.011738	0.029381	-0.116429	0.050193	-0.128793	0.032787	-0.089052	0.020272	-0.054188	-0.120616	0.079514	-0.133244	0.069270	-0.093494	0.058108	-0.092845	0.026303	0.064625	-0.132935	0.087742	-0.106773	0.057308	-0.125371	0.051885	-0.083743	-0.101176	0.072462	-0.106749	0.065534	-0.123962	0.083227	-0.093613	0.031888	0.022220	-0.084093	0.046638	-0.103910	0.069514	-0.099258	0.041293	-0.071086
-0.034873	-0.021044	-0.030973	-0.011319	-0.048857	-0.003875	-0.030972	-0.039088	0.016808	-0.028023	-0.019515	-0.053773	0.005044	-0.046968	-0.004092	-0.040451	-0.077003	0.010861	-0.075888	0.027560	-0.074823	0.007066	-0.053628	0.007106	0.034485	-0.104785	0.049075	-0.103576	0.033913	-0.063755	0.013197	-0.064774	-0.102393	0.081256	-0.132006	0.064646	-0.098034	0.031070	-0.060639	0.033922	0.043745	-0.134385	0.076301	-0.111383	0.057648	-0.093313	0.016271	-0.073331	-0.114535	0.083485	-0.088579	0.065020	-0.136060	0.070226	-0.088079	0.022265	0.037541	-0.111623	0.037071	-0.108858	0.046053	-0.075404	0.012514	-0.046676
-0.035636	-0.023936	-0.024363	-0.006123	-0.039801	-0.004277	-0.029159	-0.029920	-0.016843	-0.049125	0.023068	-0.046257	-0.006333	-0.061519	-0.004562	-0.030568	-0.058155	0.010387	-0.064719	0.036353	-0.070669	-0.011652	-0.060081	-0.020935	0.035593	-0.069450	0.042225	-0.107968	0.039265	-0.064156	0.009763	-0.042179	-0.083062	0.051579	-0.111922	0.048926	-0.095891	0.021272	-0.074687	0.003888	0.054953	-0.102699	0.053069	-0.113425	0.049109	-0.120632	0.027554	-0.083004	-0.077085	0.062816	-0.118347	0.061655	-0.115949	0.081425	-0.100448	0.002095	0.051860	-0.082265	0.022910	-0.091763	0.019817	-0.089511	0.028781	-0.045767
-0.048385	-0.012894	-0.048819	0.002387	-0.063071	-0.009229	-0.043553	-0.008350	0.011607	-0.050050	0.002255	-0.084216	0.015931	-0.057946	0.028995	-0.056412	-0.056341	0.033544	-0.069257	0.062586	-0.077428	0.027543	-0.068790	0.011033	0.054694	-0.115988	0.033892	-0.114795	0.031198	-0.078443	0.027923	-0.060289	-0.112451	0.073617	-0.115735	0.044172	-0.115446	0.041160	-0.063910	0.008456	0.031845	-0.111290	0.067100	-0.133169	0.057790	-0.113998	0.028855	-0.107742	-0.096305	0.077659	-0.102063	0.062885	-0.133961	0.064298	-0.080981	0.034329	0.027754	-0.087961	0.041817	-0.086180	0.060018	-0.084108	0.030081	-0.042687
-0.027483	-0.028742	-0.016934	-0.000475	-0.050036	-0.019147	-0.020104	-0.018387	-0.001067	-0.036902	0.012038	-0.048173	0.011737	-0.036081	-0.020454	-0.029884	-0.046830	0.014990	-0.073147	0.029034	-0.083256	0.004522	-0.059685	-0.026817	0.040452	-0.095774	0.034177	-0.090898	0.038265	-0.057460	-0.001751	-0.037176	-0.121844	0.081625	-0.120705	0.070521	-0.116218	0.023287	-0.061984	-0.003503	0.057274	-0.132828	0.083139	-0.131162	0.066906	-0.100444	0.022487	-0.071985	-0.103998	0.059534	-0.118940	0.052996	-0.125622	0.045338	-0.081643	0.020362	0.044197	-0.092492	0.033863	-0.092538	0.055208	-0.086739	0.032079	-0.071162
-0.033783	-0.008601	-0.054354	-0.004986	-0.057321	-0.009567	-0.031455	-0.003788	0.014237	-0.067741	0.008927	-0.059941	0.021734	-0.050119	0.020073	-0.036882	-0.076461	0.036983	-0.079258	0.047094	-0.092933	0.040743	-0.082183	0.012588	0.050468	-0.134152	0.056757	-0.146471	0.050646	-0.076881	0.009892	-0.059839	-0.099873	0.072618	-0.148696	0.090066	-0.100134	0.043024	-0.074734	0.029182	0.046224	-0.133203	0.092937	-0.115626	0.076388	-0.132919	0.060457	-0.098367	-0.116688	0.071176	-0.102936	0.089670	-0.139626	0.075388	-0.097677	0.035857	0.009307	-0.098891	0.042470	-0.123263	0.061319	-0.104913	0.051533	-0.049064
-0.039776	-0.013574	-0.036351	-0.005340	-0.046011	-0.014998	-0.038040	-0.010513	0.011885	-0.053638	0.012552	-0.070714	0.020414	-0.042131	-0.001821	-0.032819	-0.075881	0.024583	-0.072060	0.037745	-0.079236	0.006252	-0.066699	-0.006700	0.045259	-0.112839	0.051869	-0.107776	0.052279	-0.081609	0.002333	-0.061677	-0.118831	0.076823	-0.135792	0.060546	-0.115290	0.045018	-0.067763	0.008843	0.054727	-0.131969	0.082483	-0.133005	0.077373	-0.132039	0.035059	-0.078464	-0.107802	0.101545	-0.109369	0.072360	-0.136099	0.052383	-0.088266	0.020789	0.052698	-0.098336	0.043562	-0.111159	0.078432	-0.097847	0.053346	-0.047797
-0.028011	-0.012896	-0.029648	-0.024343	-0.050831	-0.000741	-0.025816	-0.035074	-0.000165	-0.024908	0.012395	-0.063833	0.025072	-0.054290	-0.022769	-0.046297	-0.052347	0.019835	-0.071709	0.039679	-0.057219	0.036904	-0.037512	-0.008399	0.047607	-0.125443	0.066235	-0.125392	0.042725	-0.086026	0.005967	-0.059289	-0.118776	0.071186	-0.133281	0.080672	-0.121373	0.042346	-0.060926	0.006570	0.047057	-0.122579	0.091354	-0.120893	0.062195	-0.107312	0.024398	-0.074842	-0.101911	0.064525	-0.119940	0.069867	-0.128431	0.081164	-0.094363	0.033174	0.015627	-0.095415	0.040375	-0.112815	0.047042	-0.101146	0.035259	-0.060010
-0.061083	-0.035572	-0.045487	0.005756	-0.083009	-0.010649	-0.035642	-0.003842	0.000452	-0.044226	0.005112	-0.092479	0.027979	-0.053691	0.003880	0.000659	-0.095547	0.044632	-0.077688	0.050247	-0.083265	0.019072	-0.071824	-0.001411	0.030589	-0.105363	0.048106	-0.129408	0.038460	-0.065670	0.009726	-0.050635	-0.122903	0.085785	-0.123221	0.093056	-0.115595	0.049589	-0.077618	0.028309	0.047042	-0.113774	0.077108	-0.126525	0.070817	-0.113915	0.037751	-0.084284	-0.091348	0.077960	-0.103091	0.075136	-0.146682	0.080193	-0.082138	0.045913	0.030924	-0.092784	0.022705	-0.109146	0.067994	-0.101695	0.040423	-0.062643
-0.023326	-0.038498	-0.022571	-0.047469	-0.040542	-0.035791	-0.008314	-0.016013	-0.004874	-0.015980	-0.025315	-0.031617	0.012479	-0.044036	0.000129	-0.045395	-0.066120	0.001201	-0.059476	0.015117	-0.050931	0.004650	-0.049625	-0.018565	0.011312	-0.091231	0.013616	-0.097492	0.009771	-0.041769	0.012207	-0.044352	-0.085763	0.051341	-0.105313	0.057175	-0.092587	0.040765	-0.058456	0.009101	0.024864	-0.118392	0.062884	-0.108338	0.041739	-0.077313	0.043666	-0.071024	-0.097349	0.054968	-0.111023	0.067704	-0.121011	0.044683	-0.077187	0.020766	0.010963	-0.092392	0.027403	-0.075724	0.054347	-0.101573	0.031011	-0.071200
-0.021852	-0.018442	-0.036354	0.014254	-0.063370	-0.020846	-0.032861	-0.006062	-0.012072	-0.073952	-0.002723	-0.058803	0.031430	-0.056475	-0.005223	-0.025629	-0.089347	0.021353	-0.066983	0.049226	-0.082456	0.022659	-0.087455	-0.011531	0.051315	-0.118913	0.051159	-0.105586	0.036402	-0.070762	0.002819	-0.051371	-0.104961	0.078307	-0.130252	0.072621	-0.098215	0.016779	-0.058789	0.008779	0.059905	-0.104984	0.063296	-0.126948	0.062863	-0.116932	0.053578	-0.088675	-0.111419	0.070418	-0.121521	0.074200	-0.126737	0.062471	-0.084456	0.021184	0.023182	-0.085229	0.060084	-0.100996	0.057761	-0.082163	0.016153	-0.035195
-0.037569	0.005830	-0.048570	0.020427	-0.045343	-0.000578	-0.027045	-0.021024	0.019394	-0.049357	-0.015762	-0.082014	0.017176	-0.052631	-0.001737	-0.028375	-0.097318	0.030361	-0.095428	0.055680	-0.083873	0.028187	-0.076101	0.009754	0.060686	-0.110006	0.052754	-0.111899	0.035600	-0.070268	0.033172	-0.043704	-0.126349	0.084827	-0.145990	0.079996	-0.108332	0.022619	-0.090618	0.011344	0.055257	-0.137542	0.085235	-0.123641	0.066883	-0.123664	0.049540	-0.068199	-0.116051	0.063916	-0.108527	0.076177	-0.137368	0.076992	-0.110832	0.043446	0.040604	-0.096892	0.039926	-0.104844	0.037377	-0.079239	0.032724	-0.054804
-0.021819	-0.023654	-0.027902	-0.002994	-0.037888	-0.028371	-0.025579	-0.022266	0.010203	-0.037972	-0.003621	-0.070740	0.018915	-0.060758	0.009992	-0.041497	-0.100428	0.024389	-0.080478	0.031580	-0.092065	0.028552	-0.049508	0.002618	0.043747	-0.105898	0.050971	-0.122581	0.036284	-0.096240	0.015491	-0.050392	-0.114682	0.079254	-0.140205	0.086310	-0.127888	0.057022	-0.087741	0.011080	0.046149	-0.128800	0.098024	-0.122322	0.087429	-0.111646	0.032699	-0.087797	-0.118636	0.091015	-0.128188	0.098160	-0.129771	0.096059	-0.095178	0.042019	0.070058	-0.099679	0.032116	-0.126411	0.072793	-0.117219	0.035080	-0.053661
-0.037298	-0.010741	-0.038717	0.012454	-0.065034	-0.015336	-0.039624	-0.011184	0.011872	-0.045489	0.013698	-0.083501	0.034616	-0.040568	0.003867	-0.023534	-0.092585	0.018396	-0.083162	0.051033	-0.094013	0.028064	-0.052141	0.000688	0.047497	-0.124129	0.039717	-0.102386	0.046362	-0.078673	0.007466	-0.076857	-0.127399	0.094171	-0.141790	0.069011	-0.099693	0.023204	-0.074919	0.021012	0.051543	-0.089911	0.054988	-0.110811	0.060109	-0.104523	0.037346	-0.092588	-0.105210	0.042789	-0.103362	0.075677	-0.125836	0.073411	-0.083793	0.026087	0.024946	-0.097411	0.047798	-0.087473	0.047778	-0.092518	0.017032	-0.045313
-0.031699	0.007266	-0.049856	-0.004285	-0.051411	0.000065	-0.032836	-0.027721	0.013607	-0.042475	-0.005647	-0.056485	0.031795	-0.056187	0.000002	-0.036137	-0.084212	0.027397	-0.099759	0.057844	-0.102230	0.041020	-0.071351	-0.006198	0.039880	-0.118276	0.069602	-0.147210	0.058722	-0.077719	0.002691	-0.066336	-0.098439	0.068070	-0.145197	0.087515	-0.112436	0.032628	-0.076158	0.002443	0.065944	-0.111688	0.085486	-0.124327	0.088473	-0.116572	0.024714	-0.081078	-0.087104	0.056601	-0.117347	0.084549	-0.138349	0.058074	-0.078814	0.053478	0.039503	-0.100929	0.023918	-0.103187	0.068168	-0.091446	0.031770	-0.066713
-0.046698	-0.006091	-0.025095	-0.020950	-0.030225	-0.004957	-0.009899	-0.035868	-0.011597	-0.047169	0.005485	-0.044757	0.021627	-0.053047	-0.015889	-0.023646	-0.081429	0.041602	-0.073892	0.060091	-0.071234	0.020011	-0.068494	-0.009093	0.050470	-0.110051	0.044295	-0.116067	0.042772	-0.100207	0.020262	-0.063786	-0.126020	0.059290	-0.146747	0.057934	-0.119350	0.063233	-0.082914	0.016859	0.060045	-0.119250	0.077488	-0.135884	0.083428	-0.095229	0.020093	-0.095179	-0.111284	0.057785	-0.104671	0.070538	-0.111360	0.080251	-0.085980	0.040179	0.050803	-0.095939	0.030656	-0.101842	0.064758	-0.092422	0.015257	-0.066722
-0.037516	-0.017412	-0.015832	-0.019290	-0.045416	0.005399	-0.004356	-0.025310	0.007145	-0.040896	0.001149	-0.067080	0.019124	-0.080272	0.002753	-0.038475	-0.076464	0.045341	-0.079450	0.037720	-0.058268	0.010917	-0.070307	-0.008346	0.055215	-0.111645	0.035769	-0.120504	0.032564	-0.077910	0.016348	-0.048998	-0.136404	0.089332	-0.128273	0.085824	-0.107461	0.050324	-0.070981	0.024890	0.062105	-0.125934	0.103173	-0.116937	0.072713	-0.127067	0.020012	-0.079676	-0.109711	0.062382	-0.113213	0.095671	-0.128723	0.053281	-0.087735	0.015616	0.034587	-0.097632	0.035391	-0.119214	0.053671	-0.099508	-0.003552	-0.034113
-0.021326	-0.021549	-0.031864	-0.019027	-0.028046	0.008883	-0.024532	-0.008630	0.001365	-0.056162	-0.007705	-0.058550	0.007038	-0.051080	-0.006118	-0.038801	-0.067004	0.009715	-0.073685	0.025118	-0.063059	-0.005092	-0.048491	0.008338	0.039722	-0.134346	0.042798	-0.109366	0.025508	-0.077417	0.027650	-0.044801	-0.120772	0.057500	-0.127024	0.065284	-0.101303	0.032037	-0.068462	0.033254	0.062704	-0.119141	0.073746	-0.123894	0.077382	-0.117614	0.035765	-0.081822	-0.112955	0.052871	-0.105800	0.075835	-0.126357	0.060145	-0.073755	0.018567	0.057528	-0.108996	0.044047	-0.096422	0.045878	-0.088056	0.044817	-0.081097
-0.028966	-0.043780	-0.047281	0.013728	-0.058402	-0.020494	-0.032519	0.002837	-0.019984	-0.056343	0.014582	-0.047509	0.015132	-0.068505	0.019573	-0.024980	-0.064083	0.013608	-0.072344	0.040609	-0.077245	0.036505	-0.056775	-0.016765	0.058554	-0.109326	0.056902	-0.099857	0.028168	-0.078652	0.007843	-0.071115	-0.112593	0.104061	-0.149971	0.070942	-0.106173	0.041668	-0.079361	-0.000485	0.057578	-0.132190	0.056582	-0.114219	0.078622	-0.116456	0.039836	-0.075161	-0.108490	0.078681	-0.118612	0.094251	-0.135593	0.071401	-0.105906	0.032386	0.029557	-0.100243	0.032975	-0.118902	0.080208	-0.084483	0.053814	-0.074775
-0.034007	-0.029819	-0.040795	-0.015985	-0.032802	-0.016075	-0.014203	-0.013818	0.025781	-0.059842	0.011056	-0.049551	0.001838	-0.038931	-0.001366	-0.041120	-0.078288	0.014222	-0.046690	0.040288	-0.067709	0.010688	-0.071107	0.006241	0.029429	-0.112983	0.047824	-0.110492	0.037145	-0.071544	0.021529	-0.045613	-0.123237	0.072442	-0.113542	0.079019	-0.124389	0.045088	-0.098054	0.015523	0.075144	-0.130704	0.068274	-0.114201	0.051085	-0.121099	0.044919	-0.091886	-0.110706	0.075854	-0.105985	0.080459	-0.137895	0.072697	-0.091025	0.034493	0.033173	-0.091999	0.028319	-0.102895	0.047385	-0.106692	0.035653	-0.056957
-0.026434	-0.025805	-0.030127	-0.003944	-0.043690	-0.023306	-0.026249	-0.019536	-0.004590	-0.065255	-0.005941	-0.039137	0.005256	-0.058922	-0.004459	-0.036613	-0.055495	0.002083	-0.059709	0.041399	-0.078149	0.017991	-0.052046	-0.000809	0.025395	-0.098508	0.041192	-0.110079	0.033917	-0.076217	0.020031	-0.053834	-0.123787	0.065068	-0.123166	0.076442	-0.101925	0.024445	-0.048616	0.011179	0.063243	-0.121493	0.076723	-0.112567	0.073221	-0.101553	0.040389	-0.087240	-0.114509	0.065776	-0.100244	0.069402	-0.122153	0.077478	-0.097827	0.014943	0.032693	-0.087435	0.028642	-0.088546	0.054958	-0.093939	0.012141	-0.072838
-0.027421	-0.041948	-0.019189	-0.008098	-0.011662	0.013160	-0.026490	-0.021329	0.009145	-0.021068	-0.022017	-0.078485	0.006667	-0.042669	0.000227	-0.025101	-0.079137	-0.004666	-0.055764	0.031388	-0.095791	0.020142	-0.051624	-0.008171	0.038819	-0.108323	0.043785	-0.123847	0.030532	-0.066468	0.014620	-0.047937	-0.122176	0.074385	-0.148245	0.072098	-0.091929	0.022525	-0.078517	0.015810	0.068932	-0.125090	0.071989	-0.142566	0.067456	-0.089195	0.038547	-0.081984	-0.104648	0.069600	-0.120115	0.088512	-0.131089	0.067467	-0.096484	0.041637	0.046986	-0.097085	0.052556	-0.108737	0.048678	-0.100597	0.012854	-0.051424
-0.053038	-0.021994	-0.056940	0.002186	-0.049635	-0.007112	-0.036280	-0.027059	0.012563	-0.049948	0.009572	-0.073309	0.023077	-0.037154	0.008083	-0.041221	-0.066483	0.026566	-0.069200	0.045068	-0.078700	0.028249	-0.072314	-0.011019	0.035380	-0.125787	0.042351	-0.110241	0.036202	-0.068928	0.018844	-0.070948	-0.105253	0.091185	-0.137321	0.081330	-0.118129	0.046535	-0.086450	-0.001614	0.056785	-0.121950	0.080926	-0.135157	0.068741	-0.108630	0.040192	-0.078205	-0.114945	0.087552	-0.124018	0.090163	-0.120771	0.077312	-0.087476	0.025866	0.055979	-0.105631	0.036338	-0.106652	0.074277	-0.087784	0.025149	-0.057490
-0.039937	-0.023435	-0.022142	-0.019698	-0.029345	-0.001751	-0.013012	-0.025100	0.000430	-0.058083	-0.007442	-0.055821	0.027349	-0.060631	-0.008868	-0.037741	-0.083539	0.029085	-0.074750	0.038715	-0.079229	0.010042	-0.059437	-0.009261	0.040658	-0.115462	0.051552	-0.092067	0.038496	-0.060890	-0.003628	-0.047661	-0.122475	0.059344	-0.131422	0.080949	-0.095958	0.039926	-0.087911	0.009781	0.057433	-0.115971	0.056803	-0.128957	0.064165	-0.103512	0.011671	-0.082563	-0.105024	0.075940	-0.101082	0.083067	-0.139316	0.045836	-0.089519	0.038642	0.053358	-0.081488	0.043885	-0.096935	0.048928	-0.093264	0.049140	-0.067158
-0.012890	-0.028356	-0.014052	-0.028216	-0.037190	-0.024148	-0.039870	-0.020955	0.002119	-0.045737	-0.027711	-0.056898	0.004854	-0.040525	0.000103	-0.037488	-0.041989	0.012743	-0.063630	0.013307	-0.073169	0.007623	-0.047756	-0.006712	0.019225	-0.097444	0.044307	-0.087130	0.037957	-0.061144	0.006093	-0.044870	-0.089679	0.048172	-0.120023	0.050250	-0.098071	0.044467	-0.077446	-0.017601	0.038147	-0.101401	0.071114	-0.109751	0.054326	-0.121946	0.036041	-0.089942	-0.076991	0.062310	-0.109618	0.061580	-0.128756	0.057257	-0.073219	0.025998	0.021747	-0.064331	0.031651	-0.090137	0.042413	-0.086492	0.029843	-0.077960
-0.009278	-0.005527	-0.035495	-0.017527	-0.043555	-0.007953	-0.024142	-0.015365	0.001607	-0.023734	0.001691	-0.071939	0.028750	-0.034507	0.031971	-0.052565	-0.060898	-0.005251	-0.057760	0.032727	-0.054752	0.012789	-0.082362	-0.007477	0.017987	-0.094405	0.022263	-0.107482	0.016027	-0.078319	0.033055	-0.050081	-0.116458	0.071181	-0.121625	0.072686	-0.122208	0.047603	-0.105622	0.009622	0.046383	-0.109715	0.075564	-0.134883	0.056306	-0.111187	0.038454	-0.092083	-0.109711	0.073456	-0.114301	0.076343	-0.109899	0.052691	-0.108930	0.039702	0.029966	-0.091577	0.030499	-0.104607	0.072870	-0.085380	0.043124	-0.074946
-0.045330	-0.048202	-0.041624	0.004835	-0.042455	-0.013358	-0.025923	-0.029081	0.001499	-0.034068	-0.020331	-0.059402	0.023119	-0.054582	0.001431	-0.006756	-0.069731	0.024238	-0.075263	0.041929	-0.071602	0.020079	-0.071338	-0.006427	0.057144	-0.102535	0.056851	-0.113138	0.045072	-0.070747	0.000671	-0.046911	-0.120362	0.065031	-0.121226	0.069779	-0.119622	0.048558	-0.067386	0.003142	0.034379	-0.117090	0.067144	-0.116563	0.058819	-0.131454	0.030037	-0.084903	-0.097825	0.055115	-0.087214	0.051457	-0.115072	0.061065	-0.076509	0.027296	0.047358	-0.090752	0.022706	-0.083182	0.049653	-0.088473	0.041930	-0.068162
-0.025469	-0.026778	-0.033314	-0.007163	-0.062629	-0.021575	-0.011043	-0.012820	-0.004959	-0.037465	-0.010029	-0.046097	0.008473	-0.046269	0.004536	-0.045377	-0.049370	0.000147	-0.047682	0.032266	-0.076739	-0.004519	-0.064422	-0.020751	0.032985	-0.107543	0.054137	-0.107138	0.038052	-0.083555	-0.001337	-0.030309	-0.118665	0.089532	-0.127071	0.066143	-0.096003	0.048889	-0.073760	0.004867	0.051301	-0.115576	0.084018	-0.121213	0.070252	-0.094526	0.037158	-0.078921	-0.123339	0.037733	-0.106512	0.075027	-0.139309	0.067578	-0.087809	0.037474	0.037989	-0.098622	0.049074	-0.106156	0.060487	-0.098991	0.022646	-0.056789
-0.031196	-0.008877	-0.033725	-0.021416	-0.050038	0.001726	-0.027455	-0.019200	0.013278	-0.048074	-0.016131	-0.061335	0.011989	-0.059209	-0.002620	-0.030687	-0.065904	0.026733	-0.045921	0.039275	-0.070888	0.017341	-0.068893	-0.009146	0.039480	-0.100809	0.074638	-0.115557	0.036266	-0.072743	0.020275	-0.047430	-0.094058	0.050537	-0.146851	0.065860	-0.093763	0.025438	-0.104770	0.023379	0.058476	-0.127128	0.067938	-0.127803	0.068622	-0.115703	0.044981	-0.111998	-0.113532	0.057589	-0.109012	0.072924	-0.119931	0.047983	-0.083857	0.037224	0.061079	-0.092503	0.045099	-0.117753	0.030936	-0.079707	0.032747	-0.042502
-0.052190	-0.006465	-0.019275	0.006227	-0.051335	-0.003113	-0.048625	0.000286	0.000148	-0.043475	-0.011780	-0.082135	0.036747	-0.061229	0.018075	-0.044656	-0.094800	0.038406	-0.081263	0.055731	-0.082615	0.009791	-0.065979	0.022040	0.056165	-0.116326	0.065976	-0.114969	0.046412	-0.089839	0.018398	-0.043536	-0.127559	0.097464	-0.132869	0.065873	-0.102198	0.038853	-0.068197	0.011170	0.060127	-0.120620	0.086923	-0.147899	0.058199	-0.104000	0.035895	-0.089301	-0.127401	0.062796	-0.137292	0.082047	-0.142032	0.058593	-0.089118	0.032922	0.065826	-0.111513	0.057271	-0.095465	0.049276	-0.092078	0.027500	-0.055477
-0.014545	-0.010132	-0.026047	-0.008015	-0.061554	-0.012093	-0.009502	-0.037409	-0.010873	-0.038476	-0.012063	-0.068896	0.010696	-0.061936	-0.015581	-0.025958	-0.079833	0.004961	-0.071411	0.048855	-0.075565	0.014154	-0.057484	-0.025576	0.049895	-0.101939	0.043359	-0.097550	0.026666	-0.059495	0.013610	-0.052091	-0.111357	0.075594	-0.110582	0.058349	-0.114100	0.050651	-0.078469	0.022928	0.075333	-0.124185	0.086590	-0.132278	0.075179	-0.108161	0.041660	-0.087884	-0.125494	0.076418	-0.132333	0.076675	-0.121922	0.069436	-0.064039	0.039077	0.034506	-0.089767	0.042274	-0.118957	0.047202	-0.096779	0.009907	-0.054184
-0.035937	-0.034317	-0.029100	0.002337	-0.043851	-0.015128	-0.018397	-0.013359	0.004024	-0.051638	0.001380	-0.049338	0.006764	-0.026714	-0.011242	-0.036872	-0.075111	0.024150	-0.086607	0.035984	-0.087952	0.020138	-0.050223	0.000163	0.017825	-0.086441	0.051764	-0.120107	0.041434	-0.072613	0.005316	-0.049028	-0.117884	0.071357	-0.133656	0.055823	-0.108055	0.046712	-0.069739	0.022014	0.058216	-0.126343	0.087990	-0.137769	0.059060	-0.124519	0.049402	-0.073558	-0.102776	0.080028	-0.121188	0.083779	-0.136727	0.079025	-0.090522	0.024599	0.044514	-0.081429	0.033741	-0.104505	0.046740	-0.121939	0.035471	-0.051922
-0.027879	-0.041978	-0.033575	-0.033873	-0.028408	-0.027696	-0.009801	-0.012872	-0.014280	-0.050816	-0.004352	-0.066265	0.008189	-0.050144	-0.028540	-0.059255	-0.061495	0.008794	-0.068506	0.040608	-0.057332	0.008478	-0.059918	-0.005585	0.022510	-0.100116	0.046408	-0.096760	0.008833	-0.075064	-0.004227	-0.046344	-0.101457	0.083110	-0.123525	0.054803	-0.088153	0.033294	-0.054777	0.009408	0.035828	-0.127991	0.052196	-0.106966	0.069262	-0.085801	0.037155	-0.065857	-0.109489	0.048516	-0.095649	0.073999	-0.125364	0.062650	-0.077757	0.035062	0.048035	-0.081238	0.042823	-0.092953	0.044324	-0.079931	0.009570	-0.042435
-0.049069	-0.010695	-0.045416	0.003237	-0.047595	-0.028221	-0.019951	-0.027837	0.012577	-0.045519	0.004101	-0.073222	0.006880	-0.052851	0.002089	-0.017339	-0.078723	0.033978	-0.091343	0.027430	-0.083782	0.001566	-0.074145	-0.005854	0.040950	-0.103107	0.053817	-0.105048	0.041062	-0.069983	-0.005751	-0.034927	-0.115808	0.061684	-0.122875	0.054352	-0.106363	0.036022	-0.062997	-0.004060	0.045930	-0.103608	0.076229	-0.092837	0.070403	-0.091128	0.012638	-0.066644	-0.104371	0.056693	-0.102672	0.080332	-0.119046	0.048323	-0.069813	0.013668	0.038033	-0.089721	0.032945	-0.088782	0.036997	-0.064126	0.003308	-0.056808
-0.034746	-0.008586	-0.039512	-0.004579	-0.045363	-0.014752	-0.011658	-0.013696	0.012808	-0.059735	0.000004	-0.069790	0.002307	-0.047237	-0.013383	-0.030871	-0.086813	0.043673	-0.083768	0.045000	-0.070905	0.011288	-0.052974	-0.022278	0.062044	-0.114948	0.044392	-0.119130	0.047234	-0.082096	0.002452	-0.054495	-0.129695	0.096307	-0.136599	0.079070	-0.108969	0.027674	-0.075922	0.018860	0.052252	-0.110155	0.087741	-0.114867	0.060753	-0.125248	0.028064	-0.081886	-0.103094	0.042728	-0.112067	0.078018	-0.137999	0.079715	-0.084500	0.039965	0.033895	-0.081035	0.054936	-0.090211	0.042021	-0.097396	0.025615	-0.053635
-0.026344	-0.024781	-0.031745	-0.027224	-0.028734	-0.017654	-0.022863	-0.024075	0.014020	-0.073604	-0.000984	-0.061409	0.007118	-0.029253	-0.015149	-0.027640	-0.065127	0.036015	-0.075078	0.033730	-0.063488	0.023081	-0.076280	-0.011564	0.047225	-0.098417	0.041661	-0.141521	0.044861	-0.086816	-0.007214	-0.081257	-0.100643	0.074779	-0.126169	0.083910	-0.101026	0.057294	-0.089279	0.013479	0.034935	-0.118311	0.071945	-0.111832	0.065338	-0.104136	0.043877	-0.058975	-0.107067	0.054579	-0.102965	0.065806	-0.113513	0.062643	-0.091742	0.023311	0.044514	-0.088045	0.029410	-0.080446	0.043770	-0.090344	0.037908	-0.074335
-0.028836	-0.031134	-0.025182	-0.018320	-0.039998	-0.001971	-0.017831	-0.019483	-0.005253	-0.049172	0.010184	-0.069555	-0.000896	-0.043071	-0.015891	-0.048640	-0.083708	0.012239	-0.068044	0.038972	-0.064950	0.020634	-0.063480	-0.011275	0.044432	-0.092923	0.043866	-0.113731	0.022688	-0.088506	0.015829	-0.045558	-0.104085	0.067439	-0.107551	0.057926	-0.096000	0.033776	-0.080050	0.015235	0.053405	-0.113276	0.071166	-0.118778	0.084737	-0.096847	0.038342	-0.080591	-0.095504	0.067254	-0.107158	0.067802	-0.130192	0.026308	-0.081953	0.017681	0.051464	-0.088746	0.021648	-0.100596	0.038166	-0.085067	0.028116	-0.045777
-0.043753	-0.010670	-0.051246	0.008899	-0.044832	0.001035	-0.028918	-0.010227	0.022289	-0.048577	0.006136	-0.077776	0.011589	-0.053313	0.014111	-0.043679	-0.071757	0.021719	-0.076482	0.050460	-0.095627	0.040046	-0.072536	0.007482	0.032042	-0.100948	0.059091	-0.108636	0.033691	-0.074433	0.006026	-0.056043	-0.099199	0.084896	-0.125238	0.063285	-0.103094	0.043973	-0.100405	0.025465	0.053660	-0.104039	0.067566	-0.155961	0.073896	-0.109844	0.022029	-0.093493	-0.074384	0.063948	-0.101271	0.074770	-0.156383	0.068915	-0.089903	0.026323	0.036584	-0.084198	0.040083	-0.116087	0.064775	-0.114027	0.012453	-0.048295
-0.031117	-0.012106	-0.053676	-0.005519	-0.055726	-0.020548	-0.038245	-0.007911	0.020062	-0.052197	0.013454	-0.089616	0.029109	-0.065759	0.006042	-0.045492	-0.058720	0.018255	-0.067619	0.046027	-0.085464	0.026172	-0.077382	0.000028	0.047809	-0.110941	0.055600	-0.109764	0.056722	-0.091819	0.027882	-0.068223	-0.110275	0.088726	-0.152819	0.078941	-0.120678	0.037633	-0.064301	0.010020	0.050955	-0.124672	0.093130	-0.131179	0.086499	-0.111393	0.017314	-0.091732	-0.117238	0.079153	-0.145376	0.113362	-0.134188	0.074122	-0.078807	0.056907	0.051497	-0.084111	0.047383	-0.109414	0.056191	-0.106160	0.028725	-0.074438
-0.033052	-0.037532	-0.030283	-0.008232	-0.044095	-0.020343	0.008585	-0.008935	-0.015989	-0.038968	-0.011671	-0.071465	-0.004061	-0.043079	-0.015795	-0.026552	-0.056962	0.032717	-0.075548	0.042910	-0.067512	0.010045	-0.067656	0.007769	0.043270	-0.100340	0.036311	-0.122741	0.029042	-0.073257	-0.002498	-0.050171	-0.128944	0.060124	-0.116941	0.072854	-0.110776	0.024967	-0.083181	0.005314	0.058662	-0.108728	0.068942	-0.132678	0.065999	-0.119104	0.026973	-0.067296	-0.098684	0.066798	-0.123254	0.077367	-0.121008	0.059650	-0.071198	0.038133	0.054609	-0.087374	0.044007	-0.087544	0.057817	-0.097686	0.023295	-0.054165
-0.048123	-0.019816	-0.022621	-0.029226	-0.032752	0.001749	-0.034009	-0.013017	-0.001343	-0.030536	0.007456	-0.078628	0.019953	-0.054827	-0.002564	-0.048635	-0.050110	0.030072	-0.076584	0.026167	-0.081967	0.023862	-0.061481	0.007418	0.048451	-0.096975	0.049312	-0.126044	0.035433	-0.064484	0.011785	-0.048242	-0.113422	0.060177	-0.125576	0.070574	-0.115673	0.035504	-0.085603	0.024118	0.046593	-0.101615	0.088746	-0.121192	0.053211	-0.133965	0.019114	-0.098260	-0.090003	0.063226	-0.103341	0.050100	-0.143958	0.072765	-0.083207	0.024474	0.039917	-0.070122	0.032625	-0.099870	0.053807	-0.066088	0.005278	-0.049621
-0.035383	-0.013024	-0.041756	-0.006325	-0.043852	0.023771	-0.021702	-0.029144	-0.007801	-0.047529	-0.023577	-0.067957	0.022399	-0.068735	0.008022	-0.036326	-0.074235	0.015127	-0.050476	0.046287	-0.079264	0.018264	-0.065363	-0.010462	0.014505	-0.083424	0.044909	-0.107158	0.037179	-0.086028	0.012446	-0.073335	-0.084292	0.055721	-0.134543	0.061376	-0.097192	0.040248	-0.092866	0.028567	0.056249	-0.111610	0.080112	-0.096737	0.088292	-0.124280	0.055935	-0.084573	-0.100768	0.045436	-0.111616	0.066441	-0.126692	0.078909	-0.114394	0.029800	0.047002	-0.091851	0.044714	-0.100238	0.058244	-0.099458	0.020254	-0.073726
-0.026858	-0.016199	-0.036686	-0.008721	-0.052841	0.001832	-0.030943	-0.033868	0.008151	-0.046288	-0.000707	-0.047883	0.015366	-0.049987	-0.015485	-0.042068	-0.063296	0.005818	-0.068148	0.044366	-0.079689	0.032718	-0.061565	0.011035	0.033531	-0.109181	0.051214	-0.127211	0.052849	-0.054306	0.014551	-0.048955	-0.113581	0.070445	-0.149504	0.066765	-0.129427	0.061439	-0.079960	0.011369	0.065714	-0.135648	0.073503	-0.126976	0.082699	-0.112895	0.042479	-0.086125	-0.106462	0.073231	-0.126329	0.083255	-0.151190	0.072636	-0.097363	0.057536	0.039867	-0.108502	0.041622	-0.102121	0.077717	-0.104566	0.017745	-0.052060
-0.050144	-0.018465	-0.038731	-0.003342	-0.041163	-0.016281	-0.029019	-0.019489	0.005010	-0.044827	0.006281	-0.056153	0.020122	-0.046790	-0.020013	-0.037535	-0.066399	0.032794	-0.078690	0.037586	-0.085358	0.027758	-0.052682	-0.008933	0.055765	-0.110025	0.050319	-0.117104	0.050619	-0.074640	0.039595	-0.062386	-0.108903	0.072828	-0.137982	0.073018	-0.110993	0.073878	-0.079356	0.003139	0.059546	-0.143680	0.078925	-0.123834	0.077657	-0.104376	0.032966	-0.085835	-0.116484	0.057724	-0.108255	0.066216	-0.139104	0.058365	-0.082803	0.048625	0.025935	-0.110199	0.039635	-0.103266	0.059212	-0.099006	0.030325	-0.054497
-0.023299	-0.038723	-0.039135	-0.002062	-0.061257	0.009035	-0.034964	-0.021482	0.004939	-0.050260	-0.022266	-0.069979	0.025857	-0.057138	-0.013760	-0.029375	-0.073754	0.015845	-0.068299	0.049382	-0.053940	0.027682	-0.051285	-0.013099	0.032549	-0.110257	0.049284	-0.125274	0.036365	-0.071907	0.014970	-0.047067	-0.112413	0.071067	-0.134269	0.057275	-0.092471	0.039043	-0.078820	0.002211	0.087100	-0.135559	0.074701	-0.121509	0.073953	-0.106070	0.055820	-0.080410	-0.123301	0.067561	-0.112425	0.102285	-0.153527	0.082130	-0.089844	0.037671	0.038718	-0.103326	0.049975	-0.100974	0.068248	-0.098196	0.026898	-0.077382
-0.023064	-0.016643	-0.041819	-0.014412	-0.051923	-0.028256	-0.035014	-0.033672	-0.009834	-0.047330	-0.025179	-0.038788	0.024100	-0.058936	-0.003292	-0.034636	-0.051596	0.005398	-0.051783	0.029149	-0.089006	0.024329	-0.048745	0.019884	0.023539	-0.095545	0.036330	-0.098672	0.018192	-0.086965	0.002384	-0.052379	-0.114537	0.074882	-0.110255	0.069134	-0.088718	0.040275	-0.088038	0.026475	0.042329	-0.106788	0.087391	-0.113898	0.045848	-0.121368	0.048279	-0.086248	-0.103995	0.070367	-0.100876	0.076192	-0.133736	0.060304	-0.078387	0.031800	0.031564	-0.076845	0.034236	-0.110730	0.044808	-0.103290	0.025988	-0.045149
-0.040910	-0.012327	-0.039600	-0.005208	-0.061692	-0.010903	-0.026309	-0.013027	0.003944	-0.053398	0.010348	-0.057825	0.016808	-0.047220	-0.009713	-0.032246	-0.059654	0.002226	-0.069035	0.036429	-0.068189	0.029603	-0.064393	-0.012527	0.036396	-0.110506	0.041347	-0.094759	0.022961	-0.062516	-0.008764	-0.051723	-0.109644	0.088869	-0.119578	0.040121	-0.119735	0.034128	-0.059608	0.013109	0.053179	-0.099570	0.065000	-0.101578	0.042060	-0.111146	0.011163	-0.078162	-0.101274	0.063625	-0.100413	0.061241	-0.124365	0.044320	-0.063093	0.020279	0.030606	-0.066088	0.022391	-0.106413	0.038765	-0.085030	0.030551	-0.042618
-0.005197	-0.037154	-0.028813	-0.004329	-0.056821	-0.009373	-0.038794	0.004317	0.013420	-0.044221	0.019695	-0.082933	0.008531	-0.077967	-0.003373	-0.039353	-0.069747	0.030100	-0.087562	0.058545	-0.079110	0.036176	-0.085966	0.003727	0.036856	-0.116244	0.061716	-0.115259	0.038583	-0.078903	0.003777	-0.041609	-0.116677	0.094845	-0.135846	0.072650	-0.121697	0.056517	-0.085593	0.025531	0.056450	-0.143757	0.079016	-0.138711	0.075039	-0.128623	0.052804	-0.086231	-0.111052	0.080884	-0.103429	0.084841	-0.144355	0.054377	-0.096868	0.026813	0.043974	-0.095011	0.052445	-0.111001	0.060121	-0.081973	0.039740	-0.058526
-0.043186	-0.020538	-0.046696	-0.006917	-0.044039	-0.008385	-0.044893	0.001698	0.007045	-0.062147	-0.002466	-0.066349	0.036401	-0.067553	0.009824	-0.026915	-0.078633	0.022046	-0.083647	0.043056	-0.081948	0.030596	-0.054752	-0.011805	0.024711	-0.111653	0.054110	-0.112762	0.038517	-0.077267	0.031428	-0.050372	-0.118464	0.071966	-0.130709	0.089324	-0.113747	0.041251	-0.082707	0.026051	0.076539	-0.117221	0.079570	-0.123990	0.042781	-0.106706	0.038803	-0.080236	-0.116760	0.064450	-0.115973	0.089457	-0.138967	0.090230	-0.084793	0.015246	0.037429	-0.097387	0.016250	-0.086274	0.062972	-0.089433	0.034113	-0.073312
-0.043070	-0.005434	-0.049520	-0.029405	-0.052598	-0.011828	-0.026034	-0.012618	0.009972	-0.045250	0.013705	-0.082815	0.020223	-0.045482	-0.018619	-0.054765	-0.081399	0.017397	-0.065130	0.036972	-0.088521	0.011957	-0.050197	-0.008475	0.044191	-0.114306	0.064374	-0.123561	0.052893	-0.073024	0.007729	-0.023991	-0.127460	0.074203	-0.143323	0.080755	-0.092878	0.055051	-0.060894	0.006764	0.052062	-0.141518	0.100344	-0.119150	0.059690	-0.098313	0.022954	-0.077709	-0.111600	0.074972	-0.113452	0.061824	-0.133243	0.076475	-0.087721	0.033813	0.026730	-0.092049	0.032306	-0.095482	0.054154	-0.086670	0.040511	-0.050409
-0.028463	-0.029263	-0.032315	-0.010691	-0.052029	-0.013352	-0.036958	-0.040177	-0.009394	-0.038537	-0.017644	-0.062116	0.034894	-0.041296	0.014259	-0.034358	-0.054111	0.011577	-0.073235	0.011430	-0.064727	0.036970	-0.069238	-0.008146	0.033437	-0.102622	0.059045	-0.129407	0.043507	-0.078696	0.015019	-0.047746	-0.112799	0.072987	-0.127441	0.079364	-0.104988	0.042478	-0.089334	0.010201	0.063292	-0.118513	0.082911	-0.102397	0.076983	-0.111604	0.031785	-0.111438	-0.109278	0.063496	-0.105318	0.074602	-0.135491	0.047171	-0.097178	0.033924	0.056779	-0.091020	0.041991	-0.091450	0.045754	-0.088421	0.022811	-0.048566
-0.032901	-0.013411	-0.042834	0.002652	-0.026283	-0.020898	-0.030409	-0.017780	0.008760	-0.049877	-0.031970	-0.049085	0.022705	-0.070551	-0.010194	-0.021857	-0.053954	0.031133	-0.070555	0.042696	-0.079943	0.033165	-0.072638	-0.014401	0.052907	-0.108831	0.062550	-0.119908	0.039663	-0.086317	0.013270	-0.067976	-0.116072	0.057601	-0.118034	0.077324	-0.128496	0.053611	-0.048923	0.012829	0.045126	-0.087808	0.061343	-0.122329	0.068759	-0.098688	0.038910	-0.088162	-0.116016	0.061867	-0.120661	0.078679	-0.140297	0.051001	-0.074223	0.021883	0.023631	-0.091313	0.040718	-0.122768	0.060189	-0.105643	0.048994	-0.052411
-0.035783	-0.023418	-0.032859	0.001739	-0.044318	-0.014168	-0.021366	-0.027101	-0.003315	-0.062391	0.007649	-0.055582	0.003873	-0.025305	-0.005977	-0.044271	-0.055863	0.024393	-0.059482	0.034250	-0.066205	0.013189	-0.049787	-0.028774	0.037191	-0.085449	0.037535	-0.112353	0.031218	-0.081420	-0.014039	-0.048522	-0.106715	0.072592	-0.122161	0.067315	-0.092786	0.034948	-0.075046	0.007973	0.060421	-0.101626	0.069380	-0.116499	0.068285	-0.118470	0.034788	-0.093929	-0.125151	0.072330	-0.112205	0.079479	-0.130136	0.055649	-0.083288	0.013029	0.055815	-0.104073	0.039269	-0.112151	0.062295	-0.093725	0.024360	-0.044207
-0.034538	-0.011358	-0.045483	-0.020370	-0.046827	-0.014399	-0.020666	-0.020836	0.001101	-0.060630	0.016476	-0.064311	0.019641	-0.059052	-0.002136	-0.053239	-0.062153	0.014119	-0.066020	0.044214	-0.086501	0.008314	-0.055809	0.015255	0.037024	-0.097683	0.040922	-0.084925	0.012682	-0.068605	-0.008976	-0.077003	-0.104326	0.069412	-0.121927	0.059413	-0.068418	0.028554	-0.064222	0.001727	0.050417	-0.115981	0.064246	-0.095435	0.069540	-0.104022	0.005254	-0.083145	-0.073085	0.056822	-0.092811	0.085061	-0.124551	0.050693	-0.107848	0.030330	0.023401	-0.083164	0.020374	-0.101044	0.049642	-0.085753	0.013944	-0.041989
-0.032845	-0.036112	-0.026675	-0.006514	-0.037503	0.001533	-0.020914	-0.022170	-0.013613	-0.025227	-0.003319	-0.056979	-0.010535	-0.024277	-0.021653	-0.035329	-0.055503	0.005244	-0.073370	0.013755	-0.057375	0.007385	-0.019292	-0.020097	0.030493	-0.103900	0.046931	-0.104865	0.039539	-0.073423	-0.006457	-0.061330	-0.125640	0.065298	-0.117593	0.057437	-0.084174	0.047981	-0.068256	-0.008627	0.044531	-0.115157	0.064761	-0.117459	0.054667	-0.106488	0.026586	-0.072178	-0.093098	0.052598	-0.086135	0.062641	-0.139999	0.067704	-0.087185	0.029889	0.009510	-0.065676	0.043595	-0.110087	0.037651	-0.066905	0.021322	-0.060196
-0.056602	-0.019288	-0.035127	0.004012	-0.061957	-0.024018	-0.021288	-0.007622	-0.015240	-0.030132	-0.000754	-0.049686	0.014906	-0.077128	-0.003840	-0.026569	-0.076207	0.017714	-0.068200	0.011239	-0.058654	0.012592	-0.057057	-0.004768	0.056373	-0.101949	0.045979	-0.119919	0.050165	-0.095599	0.022866	-0.063997	-0.096467	0.076331	-0.117426	0.072736	-0.128554	0.034204	-0.069264	0.017878	0.065701	-0.112501	0.067149	-0.130620	0.071552	-0.138893	0.057479	-0.078998	-0.091483	0.049648	-0.095144	0.102758	-0.148094	0.078863	-0.088833	0.013957	0.042926	-0.078297	0.032887	-0.089097	0.040039	-0.109929	0.035418	-0.057441
-0.042600	-0.011049	-0.030244	0.002974	-0.052688	-0.004378	-0.034590	0.000818	-0.011973	-0.021321	-0.004655	-0.079476	0.027144	-0.051828	0.003052	-0.027767	-0.065268	0.011037	-0.058041	0.037571	-0.070136	-0.006453	-0.058615	-0.015560	0.056730	-0.101774	0.046524	-0.106456	0.024227	-0.057568	0.030113	-0.049107	-0.095494	0.065404	-0.134475	0.066571	-0.105124	0.031965	-0.070517	0.013803	0.040133	-0.115235	0.083803	-0.121811	0.076373	-0.127695	0.039299	-0.097646	-0.121042	0.058891	-0.122754	0.070112	-0.138115	0.074199	-0.093489	0.009542	0.048980	-0.101789	0.037613	-0.100385	0.056025	-0.084350	0.034908	-0.069060
-0.013072	-0.017265	-0.039278	0.003343	-0.046439	-0.011673	0.000649	-0.028463	-0.005911	-0.044651	0.007467	-0.081063	-0.011203	-0.055880	-0.028319	-0.041762	-0.066343	0.009651	-0.086207	0.038683	-0.067760	-0.004885	-0.051575	-0.004055	0.051283	-0.098574	0.068633	-0.117357	0.034990	-0.078203	0.005319	-0.034318	-0.129220	0.063350	-0.114003	0.076558	-0.112819	0.042144	-0.069236	0.020702	0.052446	-0.111750	0.102016	-0.117490	0.061682	-0.103365	0.024341	-0.055093	-0.108127	0.061813	-0.122690	0.085994	-0.124825	0.055413	-0.078707	0.003525	0.037607	-0.088652	0.055634	-0.113622	0.038044	-0.102367	0.009628	-0.041282
-0.017707	-0.014547	-0.022014	-0.003323	-0.050037	-0.013601	-0.030689	-0.036888	0.002314	-0.044380	0.005398	-0.062882	0.012780	-0.061502	-0.003176	-0.031132	-0.081079	0.021354	-0.066718	0.033213	-0.084345	0.022467	-0.075496	-0.002436	0.031727	-0.096628	0.071415	-0.120611	0.043798	-0.083614	0.023682	-0.066264	-0.105258	0.062683	-0.126386	0.056339	-0.099737	0.029251	-0.069205	0.008070	0.050222	-0.115634	0.065146	-0.117678	0.079661	-0.120027	0.046708	-0.066518	-0.114855	0.048663	-0.104537	0.067868	-0.111152	0.064375	-0.094816	0.013445	0.048175	-0.094959	0.037057	-0.090606	0.046993	-0.092388	0.028449	-0.049410
-0.027003	-0.018688	-0.033466	-0.007821	-0.063889	-0.006714	-0.006154	-0.028788	-0.008081	-0.052190	0.006149	-0.057927	0.012962	-0.060645	-0.002888	-0.054853	-0.066657	0.030605	-0.080476	0.024021	-0.058967	0.013032	-0.050320	-0.006747	0.041330	-0.102530	0.037323	-0.108243	0.033849	-0.088118	0.016981	-0.055749	-0.112855	0.061942	-0.107556	0.077394	-0.097492	0.036264	-0.093994	0.035510	0.054298	-0.128206	0.081944	-0.108855	0.065469	-0.098573	0.048571	-0.095615	-0.115213	0.079678	-0.140688	0.076723	-0.147532	0.061451	-0.090554	0.024905	0.033961	-0.103462	0.065639	-0.083126	0.042639	-0.075781	0.026815	-0.056030
-0.033308	-0.026082	-0.021646	-0.006349	-0.050977	-0.027137	-0.033277	-0.040544	-0.001922	-0.054193	-0.007622	-0.046140	0.023192	-0.047981	-0.009415	-0.015237	-0.061296	0.015233	-0.080899	0.041499	-0.065115	0.008616	-0.055645	-0.014014	0.037693	-0.131750	0.042275	-0.098379	0.028189	-0.071103	0.001033	-0.046022	-0.110273	0.059827	-0.107874	0.075026	-0.112687	0.041309	-0.067419	0.017426	0.030314	-0.103800	0.065587	-0.122683	0.090973	-0.107966	0.030069	-0.105417	-0.088122	0.047164	-0.117030	0.070094	-0.116675	0.072427	-0.087878	0.029369	0.027328	-0.084898	0.036435	-0.090581	0.063080	-0.086928	0.025080	-0.049299
-0.037109	-0.025587	-0.042497	-0.000414	-0.042823	-0.008323	-0.043098	-0.016382	0.004196	-0.045857	0.013078	-0.058567	0.013078	-0.063529	-0.010279	-0.035526	-0.058252	0.023402	-0.078290	0.063779	-0.079797	0.031849	-0.082413	0.006008	0.038111	-0.127547	0.051449	-0.127406	0.045526	-0.099205	0.030105	-0.046526	-0.138800	0.092551	-0.144013	0.087940	-0.120516	0.048443	-0.085582	0.031532	0.045608	-0.120345	0.096835	-0.125268	0.100871	-0.127917	0.053622	-0.091302	-0.099203	0.072943	-0.122979	0.100428	-0.148518	0.059850	-0.100961	0.039847	0.055866	-0.094320	0.059191	-0.124655	0.057489	-0.103648	0.035637	-0.061899
-0.027039	-0.019694	-0.033398	-0.002912	-0.059580	-0.006951	-0.031098	-0.017631	0.003243	-0.044098	-0.002993	-0.051279	0.005272	-0.061661	0.030497	-0.052813	-0.085240	0.033084	-0.092707	0.042368	-0.056720	0.008073	-0.087644	-0.015986	0.056059	-0.099072	0.046182	-0.107264	0.057930	-0.059668	0.016220	-0.080621	-0.122764	0.074471	-0.131513	0.072284	-0.101664	0.058501	-0.082173	0.030781	0.060523	-0.121297	0.090887	-0.125179	0.094117	-0.133272	0.037730	-0.089389	-0.103602	0.083683	-0.112873	0.066894	-0.128764	0.081636	-0.114117	0.034273	0.022662	-0.097652	0.032289	-0.095398	0.060527	-0.111535	0.047333	-0.077317
