-0.088486	-0.088486	-0.088486	-0.088486	-0.088486	-0.088486	-0.088486	-0.088486	-0.088486	-0.088486	-0.088486	-0.088486	-0.088486	-0.088486	-0.088486	-0.088486	-0.088486	-0.088486	-0.088486	-0.088486	-0.088486	-0.088486	-0.088486	-0.088486	-0.088486	-0.088486	-0.088486	-0.088486	-0.088486	-0.088486	-0.088486	-0.088486	-0.088486	-0.088486	-0.088486	-0.088486	-0.088486	-0.088486	-0.088486	-0.088486	-0.088486	-0.088486	-0.088486	-0.088486	-0.088486	-0.088486	-0.088486	-0.088486	-0.088486	-0.088486	-0.088486	-0.088486	-0.088486	-0.088486	-0.088486	-0.088486	-0.088486	-0.088486	-0.088486	-0.088486	-0.088486	-0.088486	-0.088486	-0.088486	-0.088486	-0.088486	-0.088486	-0.088486	-0.088486	-0.088486	-0.088486	-0.088486	-0.088486	-0.088486	-0.088486	-0.088486	-0.088486	-0.088486	-0.088486	-0.088486	-0.088486	-0.088486	-0.088486	-0.088486	-0.088486	-0.088486	-0.088486	-0.088486	-0.088486	-0.088486	-0.088486	-0.088486	-0.088486	-0.088486	-0.088486	-0.088486	-0.088486	-0.088486	-0.088486	-0.088486
-1.895943	-1.895943	-1.895943	-1.895943	-1.895943	-1.895943	-1.895943	-1.895943	-1.895943	-1.895943	-1.895943	-1.895943	-1.895943	-1.895943	-1.895943	-1.895943	-1.895943	-1.895943	-1.895943	-1.895943	-1.895943	-1.895943	-1.895943	-1.895943	-1.895943	-1.895943	-1.895943	-1.895943	-1.895943	-1.895943	-1.895943	-1.895943	-1.895943	-1.895943	-1.895943	-1.895943	-1.895943	-1.895943	-1.895943	-1.895943	-1.895943	-1.895943	-1.895943	-1.895943	-1.895943	-1.895943	-1.895943	-1.895943	-1.895943	-1.895943	-1.895943	-1.895943	-1.895943	-1.895943	-1.895943	-1.895943	-1.895943	-1.895943	-1.895943	-1.895943	-1.895943	-1.895943	-1.895943	-1.895943	-1.895943	-1.895943	-1.895943	-1.895943	-1.895943	-1.895943	-1.895943	-1.895943	-1.895943	-1.895943	-1.895943	-1.895943	-1.895943	-1.895943	-1.895943	-1.895943	-1.895943	-1.895943	-1.895943	-1.895943	-1.895943	-1.895943	-1.895943	-1.895943	-1.895943	-1.895943	-1.895943	-1.895943	-1.895943	-1.895943	-1.895943	-1.895943	-1.895943	-1.895943	-1.895943	-1.895943
-0.944562	-0.944562	-0.944562	-0.944562	-0.944562	-0.944562	-0.944562	-0.944562	-0.944562	-0.944562	-0.944562	-0.944562	-0.944562	-0.944562	-0.944562	-0.944562	-0.944562	-0.944562	-0.944562	-0.944562	-0.944562	-0.944562	-0.944562	-0.944562	-0.944562	-0.944562	-0.944562	-0.944562	-0.944562	-0.944562	-0.944562	-0.944562	-0.944562	-0.944562	-0.944562	-0.944562	-0.944562	-0.944562	-0.944562	-0.944562	-0.944562	-0.944562	-0.944562	-0.944562	-0.944562	-0.944562	-0.944562	-0.944562	-0.944562	-0.944562	-0.944562	-0.944562	-0.944562	-0.944562	-0.944562	-0.944562	-0.944562	-0.944562	-0.944562	-0.944562	-0.944562	-0.944562	-0.944562	-0.944562	-0.944562	-0.944562	-0.944562	-0.944562	-0.944562	-0.944562	-0.944562	-0.944562	-0.944562	-0.944562	-0.944562	-0.944562	-0.944562	-0.944562	-0.944562	-0.944562	-0.944562	-0.944562	-0.944562	-0.944562	-0.944562	-0.944562	-0.944562	-0.944562	-0.944562	-0.944562	-0.944562	-0.944562	-0.944562	-0.944562	-0.944562	-0.944562	-0.944562	-0.944562	-0.944562	-0.944562
0.268542	0.268542	0.268542	0.268542	0.268542	0.268542	0.268542	0.268542	0.268542	0.268542	0.268542	0.268542	0.268542	0.268542	0.268542	0.268542	0.268542	0.268542	0.268542	0.268542	0.268542	0.268542	0.268542	0.268542	0.268542	0.268542	0.268542	0.268542	0.268542	0.268542	0.268542	0.268542	0.268542	0.268542	0.268542	0.268542	0.268542	0.268542	0.268542	0.268542	0.268542	0.268542	0.268542	0.268542	0.268542	0.268542	0.268542	0.268542	0.268542	0.268542	0.268542	0.268542	0.268542	0.268542	0.268542	0.268542	0.268542	0.268542	0.268542	0.268542	0.268542	0.268542	0.268542	0.268542	0.268542	0.268542	0.268542	0.268542	0.268542	0.268542	0.268542	0.268542	0.268542	0.268542	0.268542	0.268542	0.268542	0.268542	0.268542	0.268542	0.268542	0.268542	0.268542	0.268542	0.268542	0.268542	0.268542	0.268542	0.268542	0.268542	0.268542	0.268542	0.268542	0.268542	0.268542	0.268542	0.268542	0.268542	0.268542	0.268542
-3.150776	-3.150776	-3.150776	-3.150776	-3.150776	-3.150776	-3.150776	-3.150776	-3.150776	-3.150776	-3.150776	-3.150776	-3.150776	-3.150776	-3.150776	-3.150776	-3.150776	-3.150776	-3.150776	-3.150776	-3.150776	-3.150776	-3.150776	-3.150776	-3.150776	-3.150776	-3.150776	-3.150776	-3.150776	-3.150776	-3.150776	-3.150776	-3.150776	-3.150776	-3.150776	-3.150776	-3.150776	-3.150776	-3.150776	-3.150776	-3.150776	-3.150776	-3.150776	-3.150776	-3.150776	-3.150776	-3.150776	-3.150776	-3.150776	-3.150776	-3.150776	-3.150776	-3.150776	-3.150776	-3.150776	-3.150776	-3.150776	-3.150776	-3.150776	-3.150776	-3.150776	-3.150776	-3.150776	-3.150776	-3.150776	-3.150776	-3.150776	-3.150776	-3.150776	-3.150776	-3.150776	-3.150776	-3.150776	-3.150776	-3.150776	-3.150776	-3.150776	-3.150776	-3.150776	-3.150776	-3.150776	-3.150776	-3.150776	-3.150776	-3.150776	-3.150776	-3.150776	-3.150776	-3.150776	-3.150776	-3.150776	-3.150776	-3.150776	-3.150776	-3.150776	-3.150776	-3.150776	-3.150776	-3.150776	-3.150776
-3.462077	-3.462077	-3.462077	-3.462077	-3.462077	-3.462077	-3.462077	-3.462077	-3.462077	-3.462077	-3.462077	-3.462077	-3.462077	-3.462077	-3.462077	-3.462077	-3.462077	-3.462077	-3.462077	-3.462077	-3.462077	-3.462077	-3.462077	-3.462077	-3.462077	-3.462077	-3.462077	-3.462077	-3.462077	-3.462077	-3.462077	-3.462077	-3.462077	-3.462077	-3.462077	-3.462077	-3.462077	-3.462077	-3.462077	-3.462077	-3.462077	-3.462077	-3.462077	-3.462077	-3.462077	-3.462077	-3.462077	-3.462077	-3.462077	-3.462077	-3.462077	-3.462077	-3.462077	-3.462077	-3.462077	-3.462077	-3.462077	-3.462077	-3.462077	-3.462077	-3.462077	-3.462077	-3.462077	-3.462077	-3.462077	-3.462077	-3.462077	-3.462077	-3.462077	-3.462077	-3.462077	-3.462077	-3.462077	-3.462077	-3.462077	-3.462077	-3.462077	-3.462077	-3.462077	-3.462077	-3.462077	-3.462077	-3.462077	-3.462077	-3.462077	-3.462077	-3.462077	-3.462077	-3.462077	-3.462077	-3.462077	-3.462077	-3.462077	-3.462077	-3.462077	-3.462077	-3.462077	-3.462077	-3.462077	-3.462077
-2.034761	-2.034761	-2.034761	-2.034761	-2.034761	-2.034761	-2.034761	-2.034761	-2.034761	-2.034761	-2.034761	-2.034761	-2.034761	-2.034761	-2.034761	-2.034761	-2.034761	-2.034761	-2.034761	-2.034761	-2.034761	-2.034761	-2.034761	-2.034761	-2.034761	-2.034761	-2.034761	-2.034761	-2.034761	-2.034761	-2.034761	-2.034761	-2.034761	-2.034761	-2.034761	-2.034761	-2.034761	-2.034761	-2.034761	-2.034761	-2.034761	-2.034761	-2.034761	-2.034761	-2.034761	-2.034761	-2.034761	-2.034761	-2.034761	-2.034761	-2.034761	-2.034761	-2.034761	-2.034761	-2.034761	-2.034761	-2.034761	-2.034761	-2.034761	-2.034761	-2.034761	-2.034761	-2.034761	-2.034761	-2.034761	-2.034761	-2.034761	-2.034761	-2.034761	-2.034761	-2.034761	-2.034761	-2.034761	-2.034761	-2.034761	-2.034761	-2.034761	-2.034761	-2.034761	-2.034761	-2.034761	-2.034761	-2.034761	-2.034761	-2.034761	-2.034761	-2.034761	-2.034761	-2.034761	-2.034761	-2.034761	-2.034761	-2.034761	-2.034761	-2.034761	-2.034761	-2.034761	-2.034761	-2.034761	-2.034761
-1.382365	-1.382365	-1.382365	-1.382365	-1.382365	-1.382365	-1.382365	-1.382365	-1.382365	-1.382365	-1.382365	-1.382365	-1.382365	-1.382365	-1.382365	-1.382365	-1.382365	-1.382365	-1.382365	-1.382365	-1.382365	-1.382365	-1.382365	-1.382365	-1.382365	-1.382365	-1.382365	-1.382365	-1.382365	-1.382365	-1.382365	-1.382365	-1.382365	-1.382365	-1.382365	-1.382365	-1.382365	-1.382365	-1.382365	-1.382365	-1.382365	-1.382365	-1.382365	-1.382365	-1.382365	-1.382365	-1.382365	-1.382365	-1.382365	-1.382365	-1.382365	-1.382365	-1.382365	-1.382365	-1.382365	-1.382365	-1.382365	-1.382365	-1.382365	-1.382365	-1.382365	-1.382365	-1.382365	-1.382365	-1.382365	-1.382365	-1.382365	-1.382365	-1.382365	-1.382365	-1.382365	-1.382365	-1.382365	-1.382365	-1.382365	-1.382365	-1.382365	-1.382365	-1.382365	-1.382365	-1.382365	-1.382365	-1.382365	-1.382365	-1.382365	-1.382365	-1.382365	-1.382365	-1.382365	-1.382365	-1.382365	-1.382365	-1.382365	-1.382365	-1.382365	-1.382365	-1.382365	-1.382365	-1.382365	-1.382365
-1.038537	-1.038537	-1.038537	-1.038537	-1.038537	-1.038537	-1.038537	-1.038537	-1.038537	-1.038537	-1.038537	-1.038537	-1.038537	-1.038537	-1.038537	-1.038537	-1.038537	-1.038537	-1.038537	-1.038537	-1.038537	-1.038537	-1.038537	-1.038537	-1.038537	-1.038537	-1.038537	-1.038537	-1.038537	-1.038537	-1.038537	-1.038537	-1.038537	-1.038537	-1.038537	-1.038537	-1.038537	-1.038537	-1.038537	-1.038537	-1.038537	-1.038537	-1.038537	-1.038537	-1.038537	-1.038537	-1.038537	-1.038537	-1.038537	-1.038537	-1.038537	-1.038537	-1.038537	-1.038537	-1.038537	-1.038537	-1.038537	-1.038537	-1.038537	-1.038537	-1.038537	-1.038537	-1.038537	-1.038537	-1.038537	-1.038537	-1.038537	-1.038537	-1.038537	-1.038537	-1.038537	-1.038537	-1.038537	-1.038537	-1.038537	-1.038537	-1.038537	-1.038537	-1.038537	-1.038537	-1.038537	-1.038537	-1.038537	-1.038537	-1.038537	-1.038537	-1.038537	-1.038537	-1.038537	-1.038537	-1.038537	-1.038537	-1.038537	-1.038537	-1.038537	-1.038537	-1.038537	-1.038537	-1.038537	-1.038537
0.439771	0.439771	0.439771	0.439771	0.439771	0.439771	0.439771	0.439771	0.439771	0.439771	0.439771	0.439771	0.439771	0.439771	0.439771	0.439771	0.439771	0.439771	0.439771	0.439771	0.439771	0.439771	0.439771	0.439771	0.439771	0.439771	0.439771	0.439771	0.439771	0.439771	0.439771	0.439771	0.439771	0.439771	0.439771	0.439771	0.439771	0.439771	0.439771	0.439771	0.439771	0.439771	0.439771	0.439771	0.439771	0.439771	0.439771	0.439771	0.439771	0.439771	0.439771	0.439771	0.439771	0.439771	0.439771	0.439771	0.439771	0.439771	0.439771	0.439771	0.439771	0.439771	0.439771	0.439771	0.439771	0.439771	0.439771	0.439771	0.439771	0.439771	0.439771	0.439771	0.439771	0.439771	0.439771	0.439771	0.439771	0.439771	0.439771	0.439771	0.439771	0.439771	0.439771	0.439771	0.439771	0.439771	0.439771	0.439771	0.439771	0.439771	0.439771	0.439771	0.439771	0.439771	0.439771	0.439771	0.439771	0.439771	0.439771	0.439771
0.103818	0.103818	0.103818	0.103818	0.103818	0.103818	0.103818	0.103818	0.103818	0.103818	0.103818	0.103818	0.103818	0.103818	0.103818	0.103818	0.103818	0.103818	0.103818	0.103818	0.103818	0.103818	0.103818	0.103818	0.103818	0.103818	0.103818	0.103818	0.103818	0.103818	0.103818	0.103818	0.103818	0.103818	0.103818	0.103818	0.103818	0.103818	0.103818	0.103818	0.103818	0.103818	0.103818	0.103818	0.103818	0.103818	0.103818	0.103818	0.103818	0.103818	0.103818	0.103818	0.103818	0.103818	0.103818	0.103818	0.103818	0.103818	0.103818	0.103818	0.103818	0.103818	0.103818	0.103818	0.103818	0.103818	0.103818	0.103818	0.103818	0.103818	0.103818	0.103818	0.103818	0.103818	0.103818	0.103818	0.103818	0.103818	0.103818	0.103818	0.103818	0.103818	0.103818	0.103818	0.103818	0.103818	0.103818	0.103818	0.103818	0.103818	0.103818	0.103818	0.103818	0.103818	0.103818	0.103818	0.103818	0.103818	0.103818	0.103818
0.278659	0.278659	0.278659	0.278659	0.278659	0.278659	0.278659	0.278659	0.278659	0.278659	0.278659	0.278659	0.278659	0.278659	0.278659	0.278659	0.278659	0.278659	0.278659	0.278659	0.278659	0.278659	0.278659	0.278659	0.278659	0.278659	0.278659	0.278659	0.278659	0.278659	0.278659	0.278659	0.278659	0.278659	0.278659	0.278659	0.278659	0.278659	0.278659	0.278659	0.278659	0.278659	0.278659	0.278659	0.278659	0.278659	0.278659	0.278659	0.278659	0.278659	0.278659	0.278659	0.278659	0.278659	0.278659	0.278659	0.278659	0.278659	0.278659	0.278659	0.278659	0.278659	0.278659	0.278659	0.278659	0.278659	0.278659	0.278659	0.278659	0.278659	0.278659	0.278659	0.278659	0.278659	0.278659	0.278659	0.278659	0.278659	0.278659	0.278659	0.278659	0.278659	0.278659	0.278659	0.278659	0.278659	0.278659	0.278659	0.278659	0.278659	0.278659	0.278659	0.278659	0.278659	0.278659	0.278659	0.278659	0.278659	0.278659	0.278659
-2.018142	-2.018142	-2.018142	-2.018142	-2.018142	-2.018142	-2.018142	-2.018142	-2.018142	-2.018142	-2.018142	-2.018142	-2.018142	-2.018142	-2.018142	-2.018142	-2.018142	-2.018142	-2.018142	-2.018142	-2.018142	-2.018142	-2.018142	-2.018142	-2.018142	-2.018142	-2.018142	-2.018142	-2.018142	-2.018142	-2.018142	-2.018142	-2.018142	-2.018142	-2.018142	-2.018142	-2.018142	-2.018142	-2.018142	-2.018142	-2.018142	-2.018142	-2.018142	-2.018142	-2.018142	-2.018142	-2.018142	-2.018142	-2.018142	-2.018142	-2.018142	-2.018142	-2.018142	-2.018142	-2.018142	-2.018142	-2.018142	-2.018142	-2.018142	-2.018142	-2.018142	-2.018142	-2.018142	-2.018142	-2.018142	-2.018142	-2.018142	-2.018142	-2.018142	-2.018142	-2.018142	-2.018142	-2.018142	-2.018142	-2.018142	-2.018142	-2.018142	-2.018142	-2.018142	-2.018142	-2.018142	-2.018142	-2.018142	-2.018142	-2.018142	-2.018142	-2.018142	-2.018142	-2.018142	-2.018142	-2.018142	-2.018142	-2.018142	-2.018142	-2.018142	-2.018142	-2.018142	-2.018142	-2.018142	-2.018142
-2.807680	-2.807680	-2.807680	-2.807680	-2.807680	-2.807680	-2.807680	-2.807680	-2.807680	-2.807680	-2.807680	-2.807680	-2.807680	-2.807680	-2.807680	-2.807680	-2.807680	-2.807680	-2.807680	-2.807680	-2.807680	-2.807680	-2.807680	-2.807680	-2.807680	-2.807680	-2.807680	-2.807680	-2.807680	-2.807680	-2.807680	-2.807680	-2.807680	-2.807680	-2.807680	-2.807680	-2.807680	-2.807680	-2.807680	-2.807680	-2.807680	-2.807680	-2.807680	-2.807680	-2.807680	-2.807680	-2.807680	-2.807680	-2.807680	-2.807680	-2.807680	-2.807680	-2.807680	-2.807680	-2.807680	-2.807680	-2.807680	-2.807680	-2.807680	-2.807680	-2.807680	-2.807680	-2.807680	-2.807680	-2.807680	-2.807680	-2.807680	-2.807680	-2.807680	-2.807680	-2.807680	-2.807680	-2.807680	-2.807680	-2.807680	-2.807680	-2.807680	-2.807680	-2.807680	-2.807680	-2.807680	-2.807680	-2.807680	-2.807680	-2.807680	-2.807680	-2.807680	-2.807680	-2.807680	-2.807680	-2.807680	-2.807680	-2.807680	-2.807680	-2.807680	-2.807680	-2.807680	-2.807680	-2.807680	-2.807680
-0.237188	-0.237188	-0.237188	-0.237188	-0.237188	-0.237188	-0.237188	-0.237188	-0.237188	-0.237188	-0.237188	-0.237188	-0.237188	-0.237188	-0.237188	-0.237188	-0.237188	-0.237188	-0.237188	-0.237188	-0.237188	-0.237188	-0.237188	-0.237188	-0.237188	-0.237188	-0.237188	-0.237188	-0.237188	-0.237188	-0.237188	-0.237188	-0.237188	-0.237188	-0.237188	-0.237188	-0.237188	-0.237188	-0.237188	-0.237188	-0.237188	-0.237188	-0.237188	-0.237188	-0.237188	-0.237188	-0.237188	-0.237188	-0.237188	-0.237188	-0.237188	-0.237188	-0.237188	-0.237188	-0.237188	-0.237188	-0.237188	-0.237188	-0.237188	-0.237188	-0.237188	-0.237188	-0.237188	-0.237188	-0.237188	-0.237188	-0.237188	-0.237188	-0.237188	-0.237188	-0.237188	-0.237188	-0.237188	-0.237188	-0.237188	-0.237188	-0.237188	-0.237188	-0.237188	-0.237188	-0.237188	-0.237188	-0.237188	-0.237188	-0.237188	-0.237188	-0.237188	-0.237188	-0.237188	-0.237188	-0.237188	-0.237188	-0.237188	-0.237188	-0.237188	-0.237188	-0.237188	-0.237188	-0.237188	-0.237188
-1.163417	-1.163417	-1.163417	-1.163417	-1.163417	-1.163417	-1.163417	-1.163417	-1.163417	-1.163417	-1.163417	-1.163417	-1.163417	-1.163417	-1.163417	-1.163417	-1.163417	-1.163417	-1.163417	-1.163417	-1.163417	-1.163417	-1.163417	-1.163417	-1.163417	-1.163417	-1.163417	-1.163417	-1.163417	-1.163417	-1.163417	-1.163417	-1.163417	-1.163417	-1.163417	-1.163417	-1.163417	-1.163417	-1.163417	-1.163417	-1.163417	-1.163417	-1.163417	-1.163417	-1.163417	-1.163417	-1.163417	-1.163417	-1.163417	-1.163417	-1.163417	-1.163417	-1.163417	-1.163417	-1.163417	-1.163417	-1.163417	-1.163417	-1.163417	-1.163417	-1.163417	-1.163417	-1.163417	-1.163417	-1.163417	-1.163417	-1.163417	-1.163417	-1.163417	-1.163417	-1.163417	-1.163417	-1.163417	-1.163417	-1.163417	-1.163417	-1.163417	-1.163417	-1.163417	-1.163417	-1.163417	-1.163417	-1.163417	-1.163417	-1.163417	-1.163417	-1.163417	-1.163417	-1.163417	-1.163417	-1.163417	-1.163417	-1.163417	-1.163417	-1.163417	-1.163417	-1.163417	-1.163417	-1.163417	-1.163417
-0.026130	-0.026130	-0.026130	-0.026130	-0.026130	-0.026130	-0.026130	-0.026130	-0.026130	-0.026130	-0.026130	-0.026130	-0.026130	-0.026130	-0.026130	-0.026130	-0.026130	-0.026130	-0.026130	-0.026130	-0.026130	-0.026130	-0.026130	-0.026130	-0.026130	-0.026130	-0.026130	-0.026130	-0.026130	-0.026130	-0.026130	-0.026130	-0.026130	-0.026130	-0.026130	-0.026130	-0.026130	-0.026130	-0.026130	-0.026130	-0.026130	-0.026130	-0.026130	-0.026130	-0.026130	-0.026130	-0.026130	-0.026130	-0.026130	-0.026130	-0.026130	-0.026130	-0.026130	-0.026130	-0.026130	-0.026130	-0.026130	-0.026130	-0.026130	-0.026130	-0.026130	-0.026130	-0.026130	-0.026130	-0.026130	-0.026130	-0.026130	-0.026130	-0.026130	-0.026130	-0.026130	-0.026130	-0.026130	-0.026130	-0.026130	-0.026130	-0.026130	-0.026130	-0.026130	-0.026130	-0.026130	-0.026130	-0.026130	-0.026130	-0.026130	-0.026130	-0.026130	-0.026130	-0.026130	-0.026130	-0.026130	-0.026130	-0.026130	-0.026130	-0.026130	-0.026130	-0.026130	-0.026130	-0.026130	-0.026130
0.211071	0.211071	0.211071	0.211071	0.211071	0.211071	0.211071	0.211071	0.211071	0.211071	0.211071	0.211071	0.211071	0.211071	0.211071	0.211071	0.211071	0.211071	0.211071	0.211071	0.211071	0.211071	0.211071	0.211071	0.211071	0.211071	0.211071	0.211071	0.211071	0.211071	0.211071	0.211071	0.211071	0.211071	0.211071	0.211071	0.211071	0.211071	0.211071	0.211071	0.211071	0.211071	0.211071	0.211071	0.211071	0.211071	0.211071	0.211071	0.211071	0.211071	0.211071	0.211071	0.211071	0.211071	0.211071	0.211071	0.211071	0.211071	0.211071	0.211071	0.211071	0.211071	0.211071	0.211071	0.211071	0.211071	0.211071	0.211071	0.211071	0.211071	0.211071	0.211071	0.211071	0.211071	0.211071	0.211071	0.211071	0.211071	0.211071	0.211071	0.211071	0.211071	0.211071	0.211071	0.211071	0.211071	0.211071	0.211071	0.211071	0.211071	0.211071	0.211071	0.211071	0.211071	0.211071	0.211071	0.211071	0.211071	0.211071	0.211071
-1.633943	-1.633943	-1.633943	-1.633943	-1.633943	-1.633943	-1.633943	-1.633943	-1.633943	-1.633943	-1.633943	-1.633943	-1.633943	-1.633943	-1.633943	-1.633943	-1.633943	-1.633943	-1.633943	-1.633943	-1.633943	-1.633943	-1.633943	-1.633943	-1.633943	-1.633943	-1.633943	-1.633943	-1.633943	-1.633943	-1.633943	-1.633943	-1.633943	-1.633943	-1.633943	-1.633943	-1.633943	-1.633943	-1.633943	-1.633943	-1.633943	-1.633943	-1.633943	-1.633943	-1.633943	-1.633943	-1.633943	-1.633943	-1.633943	-1.633943	-1.633943	-1.633943	-1.633943	-1.633943	-1.633943	-1.633943	-1.633943	-1.633943	-1.633943	-1.633943	-1.633943	-1.633943	-1.633943	-1.633943	-1.633943	-1.633943	-1.633943	-1.633943	-1.633943	-1.633943	-1.633943	-1.633943	-1.633943	-1.633943	-1.633943	-1.633943	-1.633943	-1.633943	-1.633943	-1.633943	-1.633943	-1.633943	-1.633943	-1.633943	-1.633943	-1.633943	-1.633943	-1.633943	-1.633943	-1.633943	-1.633943	-1.633943	-1.633943	-1.633943	-1.633943	-1.633943	-1.633943	-1.633943	-1.633943	-1.633943
0.164599	0.164599	0.164599	0.164599	0.164599	0.164599	0.164599	0.164599	0.164599	0.164599	0.164599	0.164599	0.164599	0.164599	0.164599	0.164599	0.164599	0.164599	0.164599	0.164599	0.164599	0.164599	0.164599	0.164599	0.164599	0.164599	0.164599	0.164599	0.164599	0.164599	0.164599	0.164599	0.164599	0.164599	0.164599	0.164599	0.164599	0.164599	0.164599	0.164599	0.164599	0.164599	0.164599	0.164599	0.164599	0.164599	0.164599	0.164599	0.164599	0.164599	0.164599	0.164599	0.164599	0.164599	0.164599	0.164599	0.164599	0.164599	0.164599	0.164599	0.164599	0.164599	0.164599	0.164599	0.164599	0.164599	0.164599	0.164599	0.164599	0.164599	0.164599	0.164599	0.164599	0.164599	0.164599	0.164599	0.164599	0.164599	0.164599	0.164599	0.164599	0.164599	0.164599	0.164599	0.164599	0.164599	0.164599	0.164599	0.164599	0.164599	0.164599	0.164599	0.164599	0.164599	0.164599	0.164599	0.164599	0.164599	0.164599	0.164599
0.062498	0.062498	0.062498	0.062498	0.062498	0.062498	0.062498	0.062498	0.062498	0.062498	0.062498	0.062498	0.062498	0.062498	0.062498	0.062498	0.062498	0.062498	0.062498	0.062498	0.062498	0.062498	0.062498	0.062498	0.062498	0.062498	0.062498	0.062498	0.062498	0.062498	0.062498	0.062498	0.062498	0.062498	0.062498	0.062498	0.062498	0.062498	0.062498	0.062498	0.062498	0.062498	0.062498	0.062498	0.062498	0.062498	0.062498	0.062498	0.062498	0.062498	0.062498	0.062498	0.062498	0.062498	0.062498	0.062498	0.062498	0.062498	0.062498	0.062498	0.062498	0.062498	0.062498	0.062498	0.062498	0.062498	0.062498	0.062498	0.062498	0.062498	0.062498	0.062498	0.062498	0.062498	0.062498	0.062498	0.062498	0.062498	0.062498	0.062498	0.062498	0.062498	0.062498	0.062498	0.062498	0.062498	0.062498	0.062498	0.062498	0.062498	0.062498	0.062498	0.062498	0.062498	0.062498	0.062498	0.062498	0.062498	0.062498	0.062498
0.162450	0.162450	0.162450	0.162450	0.162450	0.162450	0.162450	0.162450	0.162450	0.162450	0.162450	0.162450	0.162450	0.162450	0.162450	0.162450	0.162450	0.162450	0.162450	0.162450	0.162450	0.162450	0.162450	0.162450	0.162450	0.162450	0.162450	0.162450	0.162450	0.162450	0.162450	0.162450	0.162450	0.162450	0.162450	0.162450	0.162450	0.162450	0.162450	0.162450	0.162450	0.162450	0.162450	0.162450	0.162450	0.162450	0.162450	0.162450	0.162450	0.162450	0.162450	0.162450	0.162450	0.162450	0.162450	0.162450	0.162450	0.162450	0.162450	0.162450	0.162450	0.162450	0.162450	0.162450	0.162450	0.162450	0.162450	0.162450	0.162450	0.162450	0.162450	0.162450	0.162450	0.162450	0.162450	0.162450	0.162450	0.162450	0.162450	0.162450	0.162450	0.162450	0.162450	0.162450	0.162450	0.162450	0.162450	0.162450	0.162450	0.162450	0.162450	0.162450	0.162450	0.162450	0.162450	0.162450	0.162450	0.162450	0.162450	0.162450
0.353881	0.353881	0.353881	0.353881	0.353881	0.353881	0.353881	0.353881	0.353881	0.353881	0.353881	0.353881	0.353881	0.353881	0.353881	0.353881	0.353881	0.353881	0.353881	0.353881	0.353881	0.353881	0.353881	0.353881	0.353881	0.353881	0.353881	0.353881	0.353881	0.353881	0.353881	0.353881	0.353881	0.353881	0.353881	0.353881	0.353881	0.353881	0.353881	0.353881	0.353881	0.353881	0.353881	0.353881	0.353881	0.353881	0.353881	0.353881	0.353881	0.353881	0.353881	0.353881	0.353881	0.353881	0.353881	0.353881	0.353881	0.353881	0.353881	0.353881	0.353881	0.353881	0.353881	0.353881	0.353881	0.353881	0.353881	0.353881	0.353881	0.353881	0.353881	0.353881	0.353881	0.353881	0.353881	0.353881	0.353881	0.353881	0.353881	0.353881	0.353881	0.353881	0.353881	0.353881	0.353881	0.353881	0.353881	0.353881	0.353881	0.353881	0.353881	0.353881	0.353881	0.353881	0.353881	0.353881	0.353881	0.353881	0.353881	0.353881
-1.042146	-1.042146	-1.042146	-1.042146	-1.042146	-1.042146	-1.042146	-1.042146	-1.042146	-1.042146	-1.042146	-1.042146	-1.042146	-1.042146	-1.042146	-1.042146	-1.042146	-1.042146	-1.042146	-1.042146	-1.042146	-1.042146	-1.042146	-1.042146	-1.042146	-1.042146	-1.042146	-1.042146	-1.042146	-1.042146	-1.042146	-1.042146	-1.042146	-1.042146	-1.042146	-1.042146	-1.042146	-1.042146	-1.042146	-1.042146	-1.042146	-1.042146	-1.042146	-1.042146	-1.042146	-1.042146	-1.042146	-1.042146	-1.042146	-1.042146	-1.042146	-1.042146	-1.042146	-1.042146	-1.042146	-1.042146	-1.042146	-1.042146	-1.042146	-1.042146	-1.042146	-1.042146	-1.042146	-1.042146	-1.042146	-1.042146	-1.042146	-1.042146	-1.042146	-1.042146	-1.042146	-1.042146	-1.042146	-1.042146	-1.042146	-1.042146	-1.042146	-1.042146	-1.042146	-1.042146	-1.042146	-1.042146	-1.042146	-1.042146	-1.042146	-1.042146	-1.042146	-1.042146	-1.042146	-1.042146	-1.042146	-1.042146	-1.042146	-1.042146	-1.042146	-1.042146	-1.042146	-1.042146	-1.042146	-1.042146
0.429107	0.429107	0.429107	0.429107	0.429107	0.429107	0.429107	0.429107	0.429107	0.429107	0.429107	0.429107	0.429107	0.429107	0.429107	0.429107	0.429107	0.429107	0.429107	0.429107	0.429107	0.429107	0.429107	0.429107	0.429107	0.429107	0.429107	0.429107	0.429107	0.429107	0.429107	0.429107	0.429107	0.429107	0.429107	0.429107	0.429107	0.429107	0.429107	0.429107	0.429107	0.429107	0.429107	0.429107	0.429107	0.429107	0.429107	0.429107	0.429107	0.429107	0.429107	0.429107	0.429107	0.429107	0.429107	0.429107	0.429107	0.429107	0.429107	0.429107	0.429107	0.429107	0.429107	0.429107	0.429107	0.429107	0.429107	0.429107	0.429107	0.429107	0.429107	0.429107	0.429107	0.429107	0.429107	0.429107	0.429107	0.429107	0.429107	0.429107	0.429107	0.429107	0.429107	0.429107	0.429107	0.429107	0.429107	0.429107	0.429107	0.429107	0.429107	0.429107	0.429107	0.429107	0.429107	0.429107	0.429107	0.429107	0.429107	0.429107
-3.912214	-3.912214	-3.912214	-3.912214	-3.912214	-3.912214	-3.912214	-3.912214	-3.912214	-3.912214	-3.912214	-3.912214	-3.912214	-3.912214	-3.912214	-3.912214	-3.912214	-3.912214	-3.912214	-3.912214	-3.912214	-3.912214	-3.912214	-3.912214	-3.912214	-3.912214	-3.912214	-3.912214	-3.912214	-3.912214	-3.912214	-3.912214	-3.912214	-3.912214	-3.912214	-3.912214	-3.912214	-3.912214	-3.912214	-3.912214	-3.912214	-3.912214	-3.912214	-3.912214	-3.912214	-3.912214	-3.912214	-3.912214	-3.912214	-3.912214	-3.912214	-3.912214	-3.912214	-3.912214	-3.912214	-3.912214	-3.912214	-3.912214	-3.912214	-3.912214	-3.912214	-3.912214	-3.912214	-3.912214	-3.912214	-3.912214	-3.912214	-3.912214	-3.912214	-3.912214	-3.912214	-3.912214	-3.912214	-3.912214	-3.912214	-3.912214	-3.912214	-3.912214	-3.912214	-3.912214	-3.912214	-3.912214	-3.912214	-3.912214	-3.912214	-3.912214	-3.912214	-3.912214	-3.912214	-3.912214	-3.912214	-3.912214	-3.912214	-3.912214	-3.912214	-3.912214	-3.912214	-3.912214	-3.912214	-3.912214
-1.145708	-1.145708	-1.145708	-1.145708	-1.145708	-1.145708	-1.145708	-1.145708	-1.145708	-1.145708	-1.145708	-1.145708	-1.145708	-1.145708	-1.145708	-1.145708	-1.145708	-1.145708	-1.145708	-1.145708	-1.145708	-1.145708	-1.145708	-1.145708	-1.145708	-1.145708	-1.145708	-1.145708	-1.145708	-1.145708	-1.145708	-1.145708	-1.145708	-1.145708	-1.145708	-1.145708	-1.145708	-1.145708	-1.145708	-1.145708	-1.145708	-1.145708	-1.145708	-1.145708	-1.145708	-1.145708	-1.145708	-1.145708	-1.145708	-1.145708	-1.145708	-1.145708	-1.145708	-1.145708	-1.145708	-1.145708	-1.145708	-1.145708	-1.145708	-1.145708	-1.145708	-1.145708	-1.145708	-1.145708	-1.145708	-1.145708	-1.145708	-1.145708	-1.145708	-1.145708	-1.145708	-1.145708	-1.145708	-1.145708	-1.145708	-1.145708	-1.145708	-1.145708	-1.145708	-1.145708	-1.145708	-1.145708	-1.145708	-1.145708	-1.145708	-1.145708	-1.145708	-1.145708	-1.145708	-1.145708	-1.145708	-1.145708	-1.145708	-1.145708	-1.145708	-1.145708	-1.145708	-1.145708	-1.145708	-1.145708
0.790679	0.790679	0.790679	0.790679	0.790679	0.790679	0.790679	0.790679	0.790679	0.790679	0.790679	0.790679	0.790679	0.790679	0.790679	0.790679	0.790679	0.790679	0.790679	0.790679	0.790679	0.790679	0.790679	0.790679	0.790679	0.790679	0.790679	0.790679	0.790679	0.790679	0.790679	0.790679	0.790679	0.790679	0.790679	0.790679	0.790679	0.790679	0.790679	0.790679	0.790679	0.790679	0.790679	0.790679	0.790679	0.790679	0.790679	0.790679	0.790679	0.790679	0.790679	0.790679	0.790679	0.790679	0.790679	0.790679	0.790679	0.790679	0.790679	0.790679	0.790679	0.790679	0.790679	0.790679	0.790679	0.790679	0.790679	0.790679	0.790679	0.790679	0.790679	0.790679	0.790679	0.790679	0.790679	0.790679	0.790679	0.790679	0.790679	0.790679	0.790679	0.790679	0.790679	0.790679	0.790679	0.790679	0.790679	0.790679	0.790679	0.790679	0.790679	0.790679	0.790679	0.790679	0.790679	0.790679	0.790679	0.790679	0.790679	0.790679
-0.564193	-0.564193	-0.564193	-0.564193	-0.564193	-0.564193	-0.564193	-0.564193	-0.564193	-0.564193	-0.564193	-0.564193	-0.564193	-0.564193	-0.564193	-0.564193	-0.564193	-0.564193	-0.564193	-0.564193	-0.564193	-0.564193	-0.564193	-0.564193	-0.564193	-0.564193	-0.564193	-0.564193	-0.564193	-0.564193	-0.564193	-0.564193	-0.564193	-0.564193	-0.564193	-0.564193	-0.564193	-0.564193	-0.564193	-0.564193	-0.564193	-0.564193	-0.564193	-0.564193	-0.564193	-0.564193	-0.564193	-0.564193	-0.564193	-0.564193	-0.564193	-0.564193	-0.564193	-0.564193	-0.564193	-0.564193	-0.564193	-0.564193	-0.564193	-0.564193	-0.564193	-0.564193	-0.564193	-0.564193	-0.564193	-0.564193	-0.564193	-0.564193	-0.564193	-0.564193	-0.564193	-0.564193	-0.564193	-0.564193	-0.564193	-0.564193	-0.564193	-0.564193	-0.564193	-0.564193	-0.564193	-0.564193	-0.564193	-0.564193	-0.564193	-0.564193	-0.564193	-0.564193	-0.564193	-0.564193	-0.564193	-0.564193	-0.564193	-0.564193	-0.564193	-0.564193	-0.564193	-0.564193	-0.564193	-0.564193
-0.140408	-0.140408	-0.140408	-0.140408	-0.140408	-0.140408	-0.140408	-0.140408	-0.140408	-0.140408	-0.140408	-0.140408	-0.140408	-0.140408	-0.140408	-0.140408	-0.140408	-0.140408	-0.140408	-0.140408	-0.140408	-0.140408	-0.140408	-0.140408	-0.140408	-0.140408	-0.140408	-0.140408	-0.140408	-0.140408	-0.140408	-0.140408	-0.140408	-0.140408	-0.140408	-0.140408	-0.140408	-0.140408	-0.140408	-0.140408	-0.140408	-0.140408	-0.140408	-0.140408	-0.140408	-0.140408	-0.140408	-0.140408	-0.140408	-0.140408	-0.140408	-0.140408	-0.140408	-0.140408	-0.140408	-0.140408	-0.140408	-0.140408	-0.140408	-0.140408	-0.140408	-0.140408	-0.140408	-0.140408	-0.140408	-0.140408	-0.140408	-0.140408	-0.140408	-0.140408	-0.140408	-0.140408	-0.140408	-0.140408	-0.140408	-0.140408	-0.140408	-0.140408	-0.140408	-0.140408	-0.140408	-0.140408	-0.140408	-0.140408	-0.140408	-0.140408	-0.140408	-0.140408	-0.140408	-0.140408	-0.140408	-0.140408	-0.140408	-0.140408	-0.140408	-0.140408	-0.140408	-0.140408	-0.140408	-0.140408
0.078077	0.078077	0.078077	0.078077	0.078077	0.078077	0.078077	0.078077	0.078077	0.078077	0.078077	0.078077	0.078077	0.078077	0.078077	0.078077	0.078077	0.078077	0.078077	0.078077	0.078077	0.078077	0.078077	0.078077	0.078077	0.078077	0.078077	0.078077	0.078077	0.078077	0.078077	0.078077	0.078077	0.078077	0.078077	0.078077	0.078077	0.078077	0.078077	0.078077	0.078077	0.078077	0.078077	0.078077	0.078077	0.078077	0.078077	0.078077	0.078077	0.078077	0.078077	0.078077	0.078077	0.078077	0.078077	0.078077	0.078077	0.078077	0.078077	0.078077	0.078077	0.078077	0.078077	0.078077	0.078077	0.078077	0.078077	0.078077	0.078077	0.078077	0.078077	0.078077	0.078077	0.078077	0.078077	0.078077	0.078077	0.078077	0.078077	0.078077	0.078077	0.078077	0.078077	0.078077	0.078077	0.078077	0.078077	0.078077	0.078077	0.078077	0.078077	0.078077	0.078077	0.078077	0.078077	0.078077	0.078077	0.078077	0.078077	0.078077
-3.048373	-3.048373	-3.048373	-3.048373	-3.048373	-3.048373	-3.048373	-3.048373	-3.048373	-3.048373	-3.048373	-3.048373	-3.048373	-3.048373	-3.048373	-3.048373	-3.048373	-3.048373	-3.048373	-3.048373	-3.048373	-3.048373	-3.048373	-3.048373	-3.048373	-3.048373	-3.048373	-3.048373	-3.048373	-3.048373	-3.048373	-3.048373	-3.048373	-3.048373	-3.048373	-3.048373	-3.048373	-3.048373	-3.048373	-3.048373	-3.048373	-3.048373	-3.048373	-3.048373	-3.048373	-3.048373	-3.048373	-3.048373	-3.048373	-3.048373	-3.048373	-3.048373	-3.048373	-3.048373	-3.048373	-3.048373	-3.048373	-3.048373	-3.048373	-3.048373	-3.048373	-3.048373	-3.048373	-3.048373	-3.048373	-3.048373	-3.048373	-3.048373	-3.048373	-3.048373	-3.048373	-3.048373	-3.048373	-3.048373	-3.048373	-3.048373	-3.048373	-3.048373	-3.048373	-3.048373	-3.048373	-3.048373	-3.048373	-3.048373	-3.048373	-3.048373	-3.048373	-3.048373	-3.048373	-3.048373	-3.048373	-3.048373	-3.048373	-3.048373	-3.048373	-3.048373	-3.048373	-3.048373	-3.048373	-3.048373
-1.209259	-1.209259	-1.209259	-1.209259	-1.209259	-1.209259	-1.209259	-1.209259	-1.209259	-1.209259	-1.209259	-1.209259	-1.209259	-1.209259	-1.209259	-1.209259	-1.209259	-1.209259	-1.209259	-1.209259	-1.209259	-1.209259	-1.209259	-1.209259	-1.209259	-1.209259	-1.209259	-1.209259	-1.209259	-1.209259	-1.209259	-1.209259	-1.209259	-1.209259	-1.209259	-1.209259	-1.209259	-1.209259	-1.209259	-1.209259	-1.209259	-1.209259	-1.209259	-1.209259	-1.209259	-1.209259	-1.209259	-1.209259	-1.209259	-1.209259	-1.209259	-1.209259	-1.209259	-1.209259	-1.209259	-1.209259	-1.209259	-1.209259	-1.209259	-1.209259	-1.209259	-1.209259	-1.209259	-1.209259	-1.209259	-1.209259	-1.209259	-1.209259	-1.209259	-1.209259	-1.209259	-1.209259	-1.209259	-1.209259	-1.209259	-1.209259	-1.209259	-1.209259	-1.209259	-1.209259	-1.209259	-1.209259	-1.209259	-1.209259	-1.209259	-1.209259	-1.209259	-1.209259	-1.209259	-1.209259	-1.209259	-1.209259	-1.209259	-1.209259	-1.209259	-1.209259	-1.209259	-1.209259	-1.209259	-1.209259
0.660642	0.660642	0.660642	0.660642	0.660642	0.660642	0.660642	0.660642	0.660642	0.660642	0.660642	0.660642	0.660642	0.660642	0.660642	0.660642	0.660642	0.660642	0.660642	0.660642	0.660642	0.660642	0.660642	0.660642	0.660642	0.660642	0.660642	0.660642	0.660642	0.660642	0.660642	0.660642	0.660642	0.660642	0.660642	0.660642	0.660642	0.660642	0.660642	0.660642	0.660642	0.660642	0.660642	0.660642	0.660642	0.660642	0.660642	0.660642	0.660642	0.660642	0.660642	0.660642	0.660642	0.660642	0.660642	0.660642	0.660642	0.660642	0.660642	0.660642	0.660642	0.660642	0.660642	0.660642	0.660642	0.660642	0.660642	0.660642	0.660642	0.660642	0.660642	0.660642	0.660642	0.660642	0.660642	0.660642	0.660642	0.660642	0.660642	0.660642	0.660642	0.660642	0.660642	0.660642	0.660642	0.660642	0.660642	0.660642	0.660642	0.660642	0.660642	0.660642	0.660642	0.660642	0.660642	0.660642	0.660642	0.660642	0.660642	0.660642
0.514900	0.514900	0.514900	0.514900	0.514900	0.514900	0.514900	0.514900	0.514900	0.514900	0.514900	0.514900	0.514900	0.514900	0.514900	0.514900	0.514900	0.514900	0.514900	0.514900	0.514900	0.514900	0.514900	0.514900	0.514900	0.514900	0.514900	0.514900	0.514900	0.514900	0.514900	0.514900	0.514900	0.514900	0.514900	0.514900	0.514900	0.514900	0.514900	0.514900	0.514900	0.514900	0.514900	0.514900	0.514900	0.514900	0.514900	0.514900	0.514900	0.514900	0.514900	0.514900	0.514900	0.514900	0.514900	0.514900	0.514900	0.514900	0.514900	0.514900	0.514900	0.514900	0.514900	0.514900	0.514900	0.514900	0.514900	0.514900	0.514900	0.514900	0.514900	0.514900	0.514900	0.514900	0.514900	0.514900	0.514900	0.514900	0.514900	0.514900	0.514900	0.514900	0.514900	0.514900	0.514900	0.514900	0.514900	0.514900	0.514900	0.514900	0.514900	0.514900	0.514900	0.514900	0.514900	0.514900	0.514900	0.514900	0.514900	0.514900
-0.826779	-0.826779	-0.826779	-0.826779	-0.826779	-0.826779	-0.826779	-0.826779	-0.826779	-0.826779	-0.826779	-0.826779	-0.826779	-0.826779	-0.826779	-0.826779	-0.826779	-0.826779	-0.826779	-0.826779	-0.826779	-0.826779	-0.826779	-0.826779	-0.826779	-0.826779	-0.826779	-0.826779	-0.826779	-0.826779	-0.826779	-0.826779	-0.826779	-0.826779	-0.826779	-0.826779	-0.826779	-0.826779	-0.826779	-0.826779	-0.826779	-0.826779	-0.826779	-0.826779	-0.826779	-0.826779	-0.826779	-0.826779	-0.826779	-0.826779	-0.826779	-0.826779	-0.826779	-0.826779	-0.826779	-0.826779	-0.826779	-0.826779	-0.826779	-0.826779	-0.826779	-0.826779	-0.826779	-0.826779	-0.826779	-0.826779	-0.826779	-0.826779	-0.826779	-0.826779	-0.826779	-0.826779	-0.826779	-0.826779	-0.826779	-0.826779	-0.826779	-0.826779	-0.826779	-0.826779	-0.826779	-0.826779	-0.826779	-0.826779	-0.826779	-0.826779	-0.826779	-0.826779	-0.826779	-0.826779	-0.826779	-0.826779	-0.826779	-0.826779	-0.826779	-0.826779	-0.826779	-0.826779	-0.826779	-0.826779
0.528557	0.528557	0.528557	0.528557	0.528557	0.528557	0.528557	0.528557	0.528557	0.528557	0.528557	0.528557	0.528557	0.528557	0.528557	0.528557	0.528557	0.528557	0.528557	0.528557	0.528557	0.528557	0.528557	0.528557	0.528557	0.528557	0.528557	0.528557	0.528557	0.528557	0.528557	0.528557	0.528557	0.528557	0.528557	0.528557	0.528557	0.528557	0.528557	0.528557	0.528557	0.528557	0.528557	0.528557	0.528557	0.528557	0.528557	0.528557	0.528557	0.528557	0.528557	0.528557	0.528557	0.528557	0.528557	0.528557	0.528557	0.528557	0.528557	0.528557	0.528557	0.528557	0.528557	0.528557	0.528557	0.528557	0.528557	0.528557	0.528557	0.528557	0.528557	0.528557	0.528557	0.528557	0.528557	0.528557	0.528557	0.528557	0.528557	0.528557	0.528557	0.528557	0.528557	0.528557	0.528557	0.528557	0.528557	0.528557	0.528557	0.528557	0.528557	0.528557	0.528557	0.528557	0.528557	0.528557	0.528557	0.528557	0.528557	0.528557
-1.012411	-1.012411	-1.012411	-1.012411	-1.012411	-1.012411	-1.012411	-1.012411	-1.012411	-1.012411	-1.012411	-1.012411	-1.012411	-1.012411	-1.012411	-1.012411	-1.012411	-1.012411	-1.012411	-1.012411	-1.012411	-1.012411	-1.012411	-1.012411	-1.012411	-1.012411	-1.012411	-1.012411	-1.012411	-1.012411	-1.012411	-1.012411	-1.012411	-1.012411	-1.012411	-1.012411	-1.012411	-1.012411	-1.012411	-1.012411	-1.012411	-1.012411	-1.012411	-1.012411	-1.012411	-1.012411	-1.012411	-1.012411	-1.012411	-1.012411	-1.012411	-1.012411	-1.012411	-1.012411	-1.012411	-1.012411	-1.012411	-1.012411	-1.012411	-1.012411	-1.012411	-1.012411	-1.012411	-1.012411	-1.012411	-1.012411	-1.012411	-1.012411	-1.012411	-1.012411	-1.012411	-1.012411	-1.012411	-1.012411	-1.012411	-1.012411	-1.012411	-1.012411	-1.012411	-1.012411	-1.012411	-1.012411	-1.012411	-1.012411	-1.012411	-1.012411	-1.012411	-1.012411	-1.012411	-1.012411	-1.012411	-1.012411	-1.012411	-1.012411	-1.012411	-1.012411	-1.012411	-1.012411	-1.012411	-1.012411
-1.058046	-1.058046	-1.058046	-1.058046	-1.058046	-1.058046	-1.058046	-1.058046	-1.058046	-1.058046	-1.058046	-1.058046	-1.058046	-1.058046	-1.058046	-1.058046	-1.058046	-1.058046	-1.058046	-1.058046	-1.058046	-1.058046	-1.058046	-1.058046	-1.058046	-1.058046	-1.058046	-1.058046	-1.058046	-1.058046	-1.058046	-1.058046	-1.058046	-1.058046	-1.058046	-1.058046	-1.058046	-1.058046	-1.058046	-1.058046	-1.058046	-1.058046	-1.058046	-1.058046	-1.058046	-1.058046	-1.058046	-1.058046	-1.058046	-1.058046	-1.058046	-1.058046	-1.058046	-1.058046	-1.058046	-1.058046	-1.058046	-1.058046	-1.058046	-1.058046	-1.058046	-1.058046	-1.058046	-1.058046	-1.058046	-1.058046	-1.058046	-1.058046	-1.058046	-1.058046	-1.058046	-1.058046	-1.058046	-1.058046	-1.058046	-1.058046	-1.058046	-1.058046	-1.058046	-1.058046	-1.058046	-1.058046	-1.058046	-1.058046	-1.058046	-1.058046	-1.058046	-1.058046	-1.058046	-1.058046	-1.058046	-1.058046	-1.058046	-1.058046	-1.058046	-1.058046	-1.058046	-1.058046	-1.058046	-1.058046
-3.496685	-3.496685	-3.496685	-3.496685	-3.496685	-3.496685	-3.496685	-3.496685	-3.496685	-3.496685	-3.496685	-3.496685	-3.496685	-3.496685	-3.496685	-3.496685	-3.496685	-3.496685	-3.496685	-3.496685	-3.496685	-3.496685	-3.496685	-3.496685	-3.496685	-3.496685	-3.496685	-3.496685	-3.496685	-3.496685	-3.496685	-3.496685	-3.496685	-3.496685	-3.496685	-3.496685	-3.496685	-3.496685	-3.496685	-3.496685	-3.496685	-3.496685	-3.496685	-3.496685	-3.496685	-3.496685	-3.496685	-3.496685	-3.496685	-3.496685	-3.496685	-3.496685	-3.496685	-3.496685	-3.496685	-3.496685	-3.496685	-3.496685	-3.496685	-3.496685	-3.496685	-3.496685	-3.496685	-3.496685	-3.496685	-3.496685	-3.496685	-3.496685	-3.496685	-3.496685	-3.496685	-3.496685	-3.496685	-3.496685	-3.496685	-3.496685	-3.496685	-3.496685	-3.496685	-3.496685	-3.496685	-3.496685	-3.496685	-3.496685	-3.496685	-3.496685	-3.496685	-3.496685	-3.496685	-3.496685	-3.496685	-3.496685	-3.496685	-3.496685	-3.496685	-3.496685	-3.496685	-3.496685	-3.496685	-3.496685
-1.344195	-1.344195	-1.344195	-1.344195	-1.344195	-1.344195	-1.344195	-1.344195	-1.344195	-1.344195	-1.344195	-1.344195	-1.344195	-1.344195	-1.344195	-1.344195	-1.344195	-1.344195	-1.344195	-1.344195	-1.344195	-1.344195	-1.344195	-1.344195	-1.344195	-1.344195	-1.344195	-1.344195	-1.344195	-1.344195	-1.344195	-1.344195	-1.344195	-1.344195	-1.344195	-1.344195	-1.344195	-1.344195	-1.344195	-1.344195	-1.344195	-1.344195	-1.344195	-1.344195	-1.344195	-1.344195	-1.344195	-1.344195	-1.344195	-1.344195	-1.344195	-1.344195	-1.344195	-1.344195	-1.344195	-1.344195	-1.344195	-1.344195	-1.344195	-1.344195	-1.344195	-1.344195	-1.344195	-1.344195	-1.344195	-1.344195	-1.344195	-1.344195	-1.344195	-1.344195	-1.344195	-1.344195	-1.344195	-1.344195	-1.344195	-1.344195	-1.344195	-1.344195	-1.344195	-1.344195	-1.344195	-1.344195	-1.344195	-1.344195	-1.344195	-1.344195	-1.344195	-1.344195	-1.344195	-1.344195	-1.344195	-1.344195	-1.344195	-1.344195	-1.344195	-1.344195	-1.344195	-1.344195	-1.344195	-1.344195
-1.018117	-1.018117	-1.018117	-1.018117	-1.018117	-1.018117	-1.018117	-1.018117	-1.018117	-1.018117	-1.018117	-1.018117	-1.018117	-1.018117	-1.018117	-1.018117	-1.018117	-1.018117	-1.018117	-1.018117	-1.018117	-1.018117	-1.018117	-1.018117	-1.018117	-1.018117	-1.018117	-1.018117	-1.018117	-1.018117	-1.018117	-1.018117	-1.018117	-1.018117	-1.018117	-1.018117	-1.018117	-1.018117	-1.018117	-1.018117	-1.018117	-1.018117	-1.018117	-1.018117	-1.018117	-1.018117	-1.018117	-1.018117	-1.018117	-1.018117	-1.018117	-1.018117	-1.018117	-1.018117	-1.018117	-1.018117	-1.018117	-1.018117	-1.018117	-1.018117	-1.018117	-1.018117	-1.018117	-1.018117	-1.018117	-1.018117	-1.018117	-1.018117	-1.018117	-1.018117	-1.018117	-1.018117	-1.018117	-1.018117	-1.018117	-1.018117	-1.018117	-1.018117	-1.018117	-1.018117	-1.018117	-1.018117	-1.018117	-1.018117	-1.018117	-1.018117	-1.018117	-1.018117	-1.018117	-1.018117	-1.018117	-1.018117	-1.018117	-1.018117	-1.018117	-1.018117	-1.018117	-1.018117	-1.018117	-1.018117
0.477268	0.477268	0.477268	0.477268	0.477268	0.477268	0.477268	0.477268	0.477268	0.477268	0.477268	0.477268	0.477268	0.477268	0.477268	0.477268	0.477268	0.477268	0.477268	0.477268	0.477268	0.477268	0.477268	0.477268	0.477268	0.477268	0.477268	0.477268	0.477268	0.477268	0.477268	0.477268	0.477268	0.477268	0.477268	0.477268	0.477268	0.477268	0.477268	0.477268	0.477268	0.477268	0.477268	0.477268	0.477268	0.477268	0.477268	0.477268	0.477268	0.477268	0.477268	0.477268	0.477268	0.477268	0.477268	0.477268	0.477268	0.477268	0.477268	0.477268	0.477268	0.477268	0.477268	0.477268	0.477268	0.477268	0.477268	0.477268	0.477268	0.477268	0.477268	0.477268	0.477268	0.477268	0.477268	0.477268	0.477268	0.477268	0.477268	0.477268	0.477268	0.477268	0.477268	0.477268	0.477268	0.477268	0.477268	0.477268	0.477268	0.477268	0.477268	0.477268	0.477268	0.477268	0.477268	0.477268	0.477268	0.477268	0.477268	0.477268
0.494791	0.494791	0.494791	0.494791	0.494791	0.494791	0.494791	0.494791	0.494791	0.494791	0.494791	0.494791	0.494791	0.494791	0.494791	0.494791	0.494791	0.494791	0.494791	0.494791	0.494791	0.494791	0.494791	0.494791	0.494791	0.494791	0.494791	0.494791	0.494791	0.494791	0.494791	0.494791	0.494791	0.494791	0.494791	0.494791	0.494791	0.494791	0.494791	0.494791	0.494791	0.494791	0.494791	0.494791	0.494791	0.494791	0.494791	0.494791	0.494791	0.494791	0.494791	0.494791	0.494791	0.494791	0.494791	0.494791	0.494791	0.494791	0.494791	0.494791	0.494791	0.494791	0.494791	0.494791	0.494791	0.494791	0.494791	0.494791	0.494791	0.494791	0.494791	0.494791	0.494791	0.494791	0.494791	0.494791	0.494791	0.494791	0.494791	0.494791	0.494791	0.494791	0.494791	0.494791	0.494791	0.494791	0.494791	0.494791	0.494791	0.494791	0.494791	0.494791	0.494791	0.494791	0.494791	0.494791	0.494791	0.494791	0.494791	0.494791
-0.124302	-0.124302	-0.124302	-0.124302	-0.124302	-0.124302	-0.124302	-0.124302	-0.124302	-0.124302	-0.124302	-0.124302	-0.124302	-0.124302	-0.124302	-0.124302	-0.124302	-0.124302	-0.124302	-0.124302	-0.124302	-0.124302	-0.124302	-0.124302	-0.124302	-0.124302	-0.124302	-0.124302	-0.124302	-0.124302	-0.124302	-0.124302	-0.124302	-0.124302	-0.124302	-0.124302	-0.124302	-0.124302	-0.124302	-0.124302	-0.124302	-0.124302	-0.124302	-0.124302	-0.124302	-0.124302	-0.124302	-0.124302	-0.124302	-0.124302	-0.124302	-0.124302	-0.124302	-0.124302	-0.124302	-0.124302	-0.124302	-0.124302	-0.124302	-0.124302	-0.124302	-0.124302	-0.124302	-0.124302	-0.124302	-0.124302	-0.124302	-0.124302	-0.124302	-0.124302	-0.124302	-0.124302	-0.124302	-0.124302	-0.124302	-0.124302	-0.124302	-0.124302	-0.124302	-0.124302	-0.124302	-0.124302	-0.124302	-0.124302	-0.124302	-0.124302	-0.124302	-0.124302	-0.124302	-0.124302	-0.124302	-0.124302	-0.124302	-0.124302	-0.124302	-0.124302	-0.124302	-0.124302	-0.124302	-0.124302
-0.005472	-0.005472	-0.005472	-0.005472	-0.005472	-0.005472	-0.005472	-0.005472	-0.005472	-0.005472	-0.005472	-0.005472	-0.005472	-0.005472	-0.005472	-0.005472	-0.005472	-0.005472	-0.005472	-0.005472	-0.005472	-0.005472	-0.005472	-0.005472	-0.005472	-0.005472	-0.005472	-0.005472	-0.005472	-0.005472	-0.005472	-0.005472	-0.005472	-0.005472	-0.005472	-0.005472	-0.005472	-0.005472	-0.005472	-0.005472	-0.005472	-0.005472	-0.005472	-0.005472	-0.005472	-0.005472	-0.005472	-0.005472	-0.005472	-0.005472	-0.005472	-0.005472	-0.005472	-0.005472	-0.005472	-0.005472	-0.005472	-0.005472	-0.005472	-0.005472	-0.005472	-0.005472	-0.005472	-0.005472	-0.005472	-0.005472	-0.005472	-0.005472	-0.005472	-0.005472	-0.005472	-0.005472	-0.005472	-0.005472	-0.005472	-0.005472	-0.005472	-0.005472	-0.005472	-0.005472	-0.005472	-0.005472	-0.005472	-0.005472	-0.005472	-0.005472	-0.005472	-0.005472	-0.005472	-0.005472	-0.005472	-0.005472	-0.005472	-0.005472	-0.005472	-0.005472	-0.005472	-0.005472	-0.005472	-0.005472
-1.395241	-1.395241	-1.395241	-1.395241	-1.395241	-1.395241	-1.395241	-1.395241	-1.395241	-1.395241	-1.395241	-1.395241	-1.395241	-1.395241	-1.395241	-1.395241	-1.395241	-1.395241	-1.395241	-1.395241	-1.395241	-1.395241	-1.395241	-1.395241	-1.395241	-1.395241	-1.395241	-1.395241	-1.395241	-1.395241	-1.395241	-1.395241	-1.395241	-1.395241	-1.395241	-1.395241	-1.395241	-1.395241	-1.395241	-1.395241	-1.395241	-1.395241	-1.395241	-1.395241	-1.395241	-1.395241	-1.395241	-1.395241	-1.395241	-1.395241	-1.395241	-1.395241	-1.395241	-1.395241	-1.395241	-1.395241	-1.395241	-1.395241	-1.395241	-1.395241	-1.395241	-1.395241	-1.395241	-1.395241	-1.395241	-1.395241	-1.395241	-1.395241	-1.395241	-1.395241	-1.395241	-1.395241	-1.395241	-1.395241	-1.395241	-1.395241	-1.395241	-1.395241	-1.395241	-1.395241	-1.395241	-1.395241	-1.395241	-1.395241	-1.395241	-1.395241	-1.395241	-1.395241	-1.395241	-1.395241	-1.395241	-1.395241	-1.395241	-1.395241	-1.395241	-1.395241	-1.395241	-1.395241	-1.395241	-1.395241
0.411098	0.411098	0.411098	0.411098	0.411098	0.411098	0.411098	0.411098	0.411098	0.411098	0.411098	0.411098	0.411098	0.411098	0.411098	0.411098	0.411098	0.411098	0.411098	0.411098	0.411098	0.411098	0.411098	0.411098	0.411098	0.411098	0.411098	0.411098	0.411098	0.411098	0.411098	0.411098	0.411098	0.411098	0.411098	0.411098	0.411098	0.411098	0.411098	0.411098	0.411098	0.411098	0.411098	0.411098	0.411098	0.411098	0.411098	0.411098	0.411098	0.411098	0.411098	0.411098	0.411098	0.411098	0.411098	0.411098	0.411098	0.411098	0.411098	0.411098	0.411098	0.411098	0.411098	0.411098	0.411098	0.411098	0.411098	0.411098	0.411098	0.411098	0.411098	0.411098	0.411098	0.411098	0.411098	0.411098	0.411098	0.411098	0.411098	0.411098	0.411098	0.411098	0.411098	0.411098	0.411098	0.411098	0.411098	0.411098	0.411098	0.411098	0.411098	0.411098	0.411098	0.411098	0.411098	0.411098	0.411098	0.411098	0.411098	0.411098
-2.424075	-2.424075	-2.424075	-2.424075	-2.424075	-2.424075	-2.424075	-2.424075	-2.424075	-2.424075	-2.424075	-2.424075	-2.424075	-2.424075	-2.424075	-2.424075	-2.424075	-2.424075	-2.424075	-2.424075	-2.424075	-2.424075	-2.424075	-2.424075	-2.424075	-2.424075	-2.424075	-2.424075	-2.424075	-2.424075	-2.424075	-2.424075	-2.424075	-2.424075	-2.424075	-2.424075	-2.424075	-2.424075	-2.424075	-2.424075	-2.424075	-2.424075	-2.424075	-2.424075	-2.424075	-2.424075	-2.424075	-2.424075	-2.424075	-2.424075	-2.424075	-2.424075	-2.424075	-2.424075	-2.424075	-2.424075	-2.424075	-2.424075	-2.424075	-2.424075	-2.424075	-2.424075	-2.424075	-2.424075	-2.424075	-2.424075	-2.424075	-2.424075	-2.424075	-2.424075	-2.424075	-2.424075	-2.424075	-2.424075	-2.424075	-2.424075	-2.424075	-2.424075	-2.424075	-2.424075	-2.424075	-2.424075	-2.424075	-2.424075	-2.424075	-2.424075	-2.424075	-2.424075	-2.424075	-2.424075	-2.424075	-2.424075	-2.424075	-2.424075	-2.424075	-2.424075	-2.424075	-2.424075	-2.424075	-2.424075
-0.471614	-0.471614	-0.471614	-0.471614	-0.471614	-0.471614	-0.471614	-0.471614	-0.471614	-0.471614	-0.471614	-0.471614	-0.471614	-0.471614	-0.471614	-0.471614	-0.471614	-0.471614	-0.471614	-0.471614	-0.471614	-0.471614	-0.471614	-0.471614	-0.471614	-0.471614	-0.471614	-0.471614	-0.471614	-0.471614	-0.471614	-0.471614	-0.471614	-0.471614	-0.471614	-0.471614	-0.471614	-0.471614	-0.471614	-0.471614	-0.471614	-0.471614	-0.471614	-0.471614	-0.471614	-0.471614	-0.471614	-0.471614	-0.471614	-0.471614	-0.471614	-0.471614	-0.471614	-0.471614	-0.471614	-0.471614	-0.471614	-0.471614	-0.471614	-0.471614	-0.471614	-0.471614	-0.471614	-0.471614	-0.471614	-0.471614	-0.471614	-0.471614	-0.471614	-0.471614	-0.471614	-0.471614	-0.471614	-0.471614	-0.471614	-0.471614	-0.471614	-0.471614	-0.471614	-0.471614	-0.471614	-0.471614	-0.471614	-0.471614	-0.471614	-0.471614	-0.471614	-0.471614	-0.471614	-0.471614	-0.471614	-0.471614	-0.471614	-0.471614	-0.471614	-0.471614	-0.471614	-0.471614	-0.471614	-0.471614
0.573740	0.573740	0.573740	0.573740	0.573740	0.573740	0.573740	0.573740	0.573740	0.573740	0.573740	0.573740	0.573740	0.573740	0.573740	0.573740	0.573740	0.573740	0.573740	0.573740	0.573740	0.573740	0.573740	0.573740	0.573740	0.573740	0.573740	0.573740	0.573740	0.573740	0.573740	0.573740	0.573740	0.573740	0.573740	0.573740	0.573740	0.573740	0.573740	0.573740	0.573740	0.573740	0.573740	0.573740	0.573740	0.573740	0.573740	0.573740	0.573740	0.573740	0.573740	0.573740	0.573740	0.573740	0.573740	0.573740	0.573740	0.573740	0.573740	0.573740	0.573740	0.573740	0.573740	0.573740	0.573740	0.573740	0.573740	0.573740	0.573740	0.573740	0.573740	0.573740	0.573740	0.573740	0.573740	0.573740	0.573740	0.573740	0.573740	0.573740	0.573740	0.573740	0.573740	0.573740	0.573740	0.573740	0.573740	0.573740	0.573740	0.573740	0.573740	0.573740	0.573740	0.573740	0.573740	0.573740	0.573740	0.573740	0.573740	0.573740
-0.443377	-0.443377	-0.443377	-0.443377	-0.443377	-0.443377	-0.443377	-0.443377	-0.443377	-0.443377	-0.443377	-0.443377	-0.443377	-0.443377	-0.443377	-0.443377	-0.443377	-0.443377	-0.443377	-0.443377	-0.443377	-0.443377	-0.443377	-0.443377	-0.443377	-0.443377	-0.443377	-0.443377	-0.443377	-0.443377	-0.443377	-0.443377	-0.443377	-0.443377	-0.443377	-0.443377	-0.443377	-0.443377	-0.443377	-0.443377	-0.443377	-0.443377	-0.443377	-0.443377	-0.443377	-0.443377	-0.443377	-0.443377	-0.443377	-0.443377	-0.443377	-0.443377	-0.443377	-0.443377	-0.443377	-0.443377	-0.443377	-0.443377	-0.443377	-0.443377	-0.443377	-0.443377	-0.443377	-0.443377	-0.443377	-0.443377	-0.443377	-0.443377	-0.443377	-0.443377	-0.443377	-0.443377	-0.443377	-0.443377	-0.443377	-0.443377	-0.443377	-0.443377	-0.443377	-0.443377	-0.443377	-0.443377	-0.443377	-0.443377	-0.443377	-0.443377	-0.443377	-0.443377	-0.443377	-0.443377	-0.443377	-0.443377	-0.443377	-0.443377	-0.443377	-0.443377	-0.443377	-0.443377	-0.443377	-0.443377
-0.506220	-0.506220	-0.506220	-0.506220	-0.506220	-0.506220	-0.506220	-0.506220	-0.506220	-0.506220	-0.506220	-0.506220	-0.506220	-0.506220	-0.506220	-0.506220	-0.506220	-0.506220	-0.506220	-0.506220	-0.506220	-0.506220	-0.506220	-0.506220	-0.506220	-0.506220	-0.506220	-0.506220	-0.506220	-0.506220	-0.506220	-0.506220	-0.506220	-0.506220	-0.506220	-0.506220	-0.506220	-0.506220	-0.506220	-0.506220	-0.506220	-0.506220	-0.506220	-0.506220	-0.506220	-0.506220	-0.506220	-0.506220	-0.506220	-0.506220	-0.506220	-0.506220	-0.506220	-0.506220	-0.506220	-0.506220	-0.506220	-0.506220	-0.506220	-0.506220	-0.506220	-0.506220	-0.506220	-0.506220	-0.506220	-0.506220	-0.506220	-0.506220	-0.506220	-0.506220	-0.506220	-0.506220	-0.506220	-0.506220	-0.506220	-0.506220	-0.506220	-0.506220	-0.506220	-0.506220	-0.506220	-0.506220	-0.506220	-0.506220	-0.506220	-0.506220	-0.506220	-0.506220	-0.506220	-0.506220	-0.506220	-0.506220	-0.506220	-0.506220	-0.506220	-0.506220	-0.506220	-0.506220	-0.506220	-0.506220
-0.453562	-0.453562	-0.453562	-0.453562	-0.453562	-0.453562	-0.453562	-0.453562	-0.453562	-0.453562	-0.453562	-0.453562	-0.453562	-0.453562	-0.453562	-0.453562	-0.453562	-0.453562	-0.453562	-0.453562	-0.453562	-0.453562	-0.453562	-0.453562	-0.453562	-0.453562	-0.453562	-0.453562	-0.453562	-0.453562	-0.453562	-0.453562	-0.453562	-0.453562	-0.453562	-0.453562	-0.453562	-0.453562	-0.453562	-0.453562	-0.453562	-0.453562	-0.453562	-0.453562	-0.453562	-0.453562	-0.453562	-0.453562	-0.453562	-0.453562	-0.453562	-0.453562	-0.453562	-0.453562	-0.453562	-0.453562	-0.453562	-0.453562	-0.453562	-0.453562	-0.453562	-0.453562	-0.453562	-0.453562	-0.453562	-0.453562	-0.453562	-0.453562	-0.453562	-0.453562	-0.453562	-0.453562	-0.453562	-0.453562	-0.453562	-0.453562	-0.453562	-0.453562	-0.453562	-0.453562	-0.453562	-0.453562	-0.453562	-0.453562	-0.453562	-0.453562	-0.453562	-0.453562	-0.453562	-0.453562	-0.453562	-0.453562	-0.453562	-0.453562	-0.453562	-0.453562	-0.453562	-0.453562	-0.453562	-0.453562
-1.918514	-1.918514	-1.918514	-1.918514	-1.918514	-1.918514	-1.918514	-1.918514	-1.918514	-1.918514	-1.918514	-1.918514	-1.918514	-1.918514	-1.918514	-1.918514	-1.918514	-1.918514	-1.918514	-1.918514	-1.918514	-1.918514	-1.918514	-1.918514	-1.918514	-1.918514	-1.918514	-1.918514	-1.918514	-1.918514	-1.918514	-1.918514	-1.918514	-1.918514	-1.918514	-1.918514	-1.918514	-1.918514	-1.918514	-1.918514	-1.918514	-1.918514	-1.918514	-1.918514	-1.918514	-1.918514	-1.918514	-1.918514	-1.918514	-1.918514	-1.918514	-1.918514	-1.918514	-1.918514	-1.918514	-1.918514	-1.918514	-1.918514	-1.918514	-1.918514	-1.918514	-1.918514	-1.918514	-1.918514	-1.918514	-1.918514	-1.918514	-1.918514	-1.918514	-1.918514	-1.918514	-1.918514	-1.918514	-1.918514	-1.918514	-1.918514	-1.918514	-1.918514	-1.918514	-1.918514	-1.918514	-1.918514	-1.918514	-1.918514	-1.918514	-1.918514	-1.918514	-1.918514	-1.918514	-1.918514	-1.918514	-1.918514	-1.918514	-1.918514	-1.918514	-1.918514	-1.918514	-1.918514	-1.918514	-1.918514
-2.201258	-2.201258	-2.201258	-2.201258	-2.201258	-2.201258	-2.201258	-2.201258	-2.201258	-2.201258	-2.201258	-2.201258	-2.201258	-2.201258	-2.201258	-2.201258	-2.201258	-2.201258	-2.201258	-2.201258	-2.201258	-2.201258	-2.201258	-2.201258	-2.201258	-2.201258	-2.201258	-2.201258	-2.201258	-2.201258	-2.201258	-2.201258	-2.201258	-2.201258	-2.201258	-2.201258	-2.201258	-2.201258	-2.201258	-2.201258	-2.201258	-2.201258	-2.201258	-2.201258	-2.201258	-2.201258	-2.201258	-2.201258	-2.201258	-2.201258	-2.201258	-2.201258	-2.201258	-2.201258	-2.201258	-2.201258	-2.201258	-2.201258	-2.201258	-2.201258	-2.201258	-2.201258	-2.201258	-2.201258	-2.201258	-2.201258	-2.201258	-2.201258	-2.201258	-2.201258	-2.201258	-2.201258	-2.201258	-2.201258	-2.201258	-2.201258	-2.201258	-2.201258	-2.201258	-2.201258	-2.201258	-2.201258	-2.201258	-2.201258	-2.201258	-2.201258	-2.201258	-2.201258	-2.201258	-2.201258	-2.201258	-2.201258	-2.201258	-2.201258	-2.201258	-2.201258	-2.201258	-2.201258	-2.201258	-2.201258
-0.098078	-0.098078	-0.098078	-0.098078	-0.098078	-0.098078	-0.098078	-0.098078	-0.098078	-0.098078	-0.098078	-0.098078	-0.098078	-0.098078	-0.098078	-0.098078	-0.098078	-0.098078	-0.098078	-0.098078	-0.098078	-0.098078	-0.098078	-0.098078	-0.098078	-0.098078	-0.098078	-0.098078	-0.098078	-0.098078	-0.098078	-0.098078	-0.098078	-0.098078	-0.098078	-0.098078	-0.098078	-0.098078	-0.098078	-0.098078	-0.098078	-0.098078	-0.098078	-0.098078	-0.098078	-0.098078	-0.098078	-0.098078	-0.098078	-0.098078	-0.098078	-0.098078	-0.098078	-0.098078	-0.098078	-0.098078	-0.098078	-0.098078	-0.098078	-0.098078	-0.098078	-0.098078	-0.098078	-0.098078	-0.098078	-0.098078	-0.098078	-0.098078	-0.098078	-0.098078	-0.098078	-0.098078	-0.098078	-0.098078	-0.098078	-0.098078	-0.098078	-0.098078	-0.098078	-0.098078	-0.098078	-0.098078	-0.098078	-0.098078	-0.098078	-0.098078	-0.098078	-0.098078	-0.098078	-0.098078	-0.098078	-0.098078	-0.098078	-0.098078	-0.098078	-0.098078	-0.098078	-0.098078	-0.098078	-0.098078
0.681163	0.681163	0.681163	0.681163	0.681163	0.681163	0.681163	0.681163	0.681163	0.681163	0.681163	0.681163	0.681163	0.681163	0.681163	0.681163	0.681163	0.681163	0.681163	0.681163	0.681163	0.681163	0.681163	0.681163	0.681163	0.681163	0.681163	0.681163	0.681163	0.681163	0.681163	0.681163	0.681163	0.681163	0.681163	0.681163	0.681163	0.681163	0.681163	0.681163	0.681163	0.681163	0.681163	0.681163	0.681163	0.681163	0.681163	0.681163	0.681163	0.681163	0.681163	0.681163	0.681163	0.681163	0.681163	0.681163	0.681163	0.681163	0.681163	0.681163	0.681163	0.681163	0.681163	0.681163	0.681163	0.681163	0.681163	0.681163	0.681163	0.681163	0.681163	0.681163	0.681163	0.681163	0.681163	0.681163	0.681163	0.681163	0.681163	0.681163	0.681163	0.681163	0.681163	0.681163	0.681163	0.681163	0.681163	0.681163	0.681163	0.681163	0.681163	0.681163	0.681163	0.681163	0.681163	0.681163	0.681163	0.681163	0.681163	0.681163
-0.491183	-0.491183	-0.491183	-0.491183	-0.491183	-0.491183	-0.491183	-0.491183	-0.491183	-0.491183	-0.491183	-0.491183	-0.491183	-0.491183	-0.491183	-0.491183	-0.491183	-0.491183	-0.491183	-0.491183	-0.491183	-0.491183	-0.491183	-0.491183	-0.491183	-0.491183	-0.491183	-0.491183	-0.491183	-0.491183	-0.491183	-0.491183	-0.491183	-0.491183	-0.491183	-0.491183	-0.491183	-0.491183	-0.491183	-0.491183	-0.491183	-0.491183	-0.491183	-0.491183	-0.491183	-0.491183	-0.491183	-0.491183	-0.491183	-0.491183	-0.491183	-0.491183	-0.491183	-0.491183	-0.491183	-0.491183	-0.491183	-0.491183	-0.491183	-0.491183	-0.491183	-0.491183	-0.491183	-0.491183	-0.491183	-0.491183	-0.491183	-0.491183	-0.491183	-0.491183	-0.491183	-0.491183	-0.491183	-0.491183	-0.491183	-0.491183	-0.491183	-0.491183	-0.491183	-0.491183	-0.491183	-0.491183	-0.491183	-0.491183	-0.491183	-0.491183	-0.491183	-0.491183	-0.491183	-0.491183	-0.491183	-0.491183	-0.491183	-0.491183	-0.491183	-0.491183	-0.491183	-0.491183	-0.491183	-0.491183
-1.286995	-1.286995	-1.286995	-1.286995	-1.286995	-1.286995	-1.286995	-1.286995	-1.286995	-1.286995	-1.286995	-1.286995	-1.286995	-1.286995	-1.286995	-1.286995	-1.286995	-1.286995	-1.286995	-1.286995	-1.286995	-1.286995	-1.286995	-1.286995	-1.286995	-1.286995	-1.286995	-1.286995	-1.286995	-1.286995	-1.286995	-1.286995	-1.286995	-1.286995	-1.286995	-1.286995	-1.286995	-1.286995	-1.286995	-1.286995	-1.286995	-1.286995	-1.286995	-1.286995	-1.286995	-1.286995	-1.286995	-1.286995	-1.286995	-1.286995	-1.286995	-1.286995	-1.286995	-1.286995	-1.286995	-1.286995	-1.286995	-1.286995	-1.286995	-1.286995	-1.286995	-1.286995	-1.286995	-1.286995	-1.286995	-1.286995	-1.286995	-1.286995	-1.286995	-1.286995	-1.286995	-1.286995	-1.286995	-1.286995	-1.286995	-1.286995	-1.286995	-1.286995	-1.286995	-1.286995	-1.286995	-1.286995	-1.286995	-1.286995	-1.286995	-1.286995	-1.286995	-1.286995	-1.286995	-1.286995	-1.286995	-1.286995	-1.286995	-1.286995	-1.286995	-1.286995	-1.286995	-1.286995	-1.286995	-1.286995
0.182298	0.182298	0.182298	0.182298	0.182298	0.182298	0.182298	0.182298	0.182298	0.182298	0.182298	0.182298	0.182298	0.182298	0.182298	0.182298	0.182298	0.182298	0.182298	0.182298	0.182298	0.182298	0.182298	0.182298	0.182298	0.182298	0.182298	0.182298	0.182298	0.182298	0.182298	0.182298	0.182298	0.182298	0.182298	0.182298	0.182298	0.182298	0.182298	0.182298	0.182298	0.182298	0.182298	0.182298	0.182298	0.182298	0.182298	0.182298	0.182298	0.182298	0.182298	0.182298	0.182298	0.182298	0.182298	0.182298	0.182298	0.182298	0.182298	0.182298	0.182298	0.182298	0.182298	0.182298	0.182298	0.182298	0.182298	0.182298	0.182298	0.182298	0.182298	0.182298	0.182298	0.182298	0.182298	0.182298	0.182298	0.182298	0.182298	0.182298	0.182298	0.182298	0.182298	0.182298	0.182298	0.182298	0.182298	0.182298	0.182298	0.182298	0.182298	0.182298	0.182298	0.182298	0.182298	0.182298	0.182298	0.182298	0.182298	0.182298
-0.508849	-0.508849	-0.508849	-0.508849	-0.508849	-0.508849	-0.508849	-0.508849	-0.508849	-0.508849	-0.508849	-0.508849	-0.508849	-0.508849	-0.508849	-0.508849	-0.508849	-0.508849	-0.508849	-0.508849	-0.508849	-0.508849	-0.508849	-0.508849	-0.508849	-0.508849	-0.508849	-0.508849	-0.508849	-0.508849	-0.508849	-0.508849	-0.508849	-0.508849	-0.508849	-0.508849	-0.508849	-0.508849	-0.508849	-0.508849	-0.508849	-0.508849	-0.508849	-0.508849	-0.508849	-0.508849	-0.508849	-0.508849	-0.508849	-0.508849	-0.508849	-0.508849	-0.508849	-0.508849	-0.508849	-0.508849	-0.508849	-0.508849	-0.508849	-0.508849	-0.508849	-0.508849	-0.508849	-0.508849	-0.508849	-0.508849	-0.508849	-0.508849	-0.508849	-0.508849	-0.508849	-0.508849	-0.508849	-0.508849	-0.508849	-0.508849	-0.508849	-0.508849	-0.508849	-0.508849	-0.508849	-0.508849	-0.508849	-0.508849	-0.508849	-0.508849	-0.508849	-0.508849	-0.508849	-0.508849	-0.508849	-0.508849	-0.508849	-0.508849	-0.508849	-0.508849	-0.508849	-0.508849	-0.508849	-0.508849
-2.364212	-2.364212	-2.364212	-2.364212	-2.364212	-2.364212	-2.364212	-2.364212	-2.364212	-2.364212	-2.364212	-2.364212	-2.364212	-2.364212	-2.364212	-2.364212	-2.364212	-2.364212	-2.364212	-2.364212	-2.364212	-2.364212	-2.364212	-2.364212	-2.364212	-2.364212	-2.364212	-2.364212	-2.364212	-2.364212	-2.364212	-2.364212	-2.364212	-2.364212	-2.364212	-2.364212	-2.364212	-2.364212	-2.364212	-2.364212	-2.364212	-2.364212	-2.364212	-2.364212	-2.364212	-2.364212	-2.364212	-2.364212	-2.364212	-2.364212	-2.364212	-2.364212	-2.364212	-2.364212	-2.364212	-2.364212	-2.364212	-2.364212	-2.364212	-2.364212	-2.364212	-2.364212	-2.364212	-2.364212	-2.364212	-2.364212	-2.364212	-2.364212	-2.364212	-2.364212	-2.364212	-2.364212	-2.364212	-2.364212	-2.364212	-2.364212	-2.364212	-2.364212	-2.364212	-2.364212	-2.364212	-2.364212	-2.364212	-2.364212	-2.364212	-2.364212	-2.364212	-2.364212	-2.364212	-2.364212	-2.364212	-2.364212	-2.364212	-2.364212	-2.364212	-2.364212	-2.364212	-2.364212	-2.364212	-2.364212
-2.367133	-2.367133	-2.367133	-2.367133	-2.367133	-2.367133	-2.367133	-2.367133	-2.367133	-2.367133	-2.367133	-2.367133	-2.367133	-2.367133	-2.367133	-2.367133	-2.367133	-2.367133	-2.367133	-2.367133	-2.367133	-2.367133	-2.367133	-2.367133	-2.367133	-2.367133	-2.367133	-2.367133	-2.367133	-2.367133	-2.367133	-2.367133	-2.367133	-2.367133	-2.367133	-2.367133	-2.367133	-2.367133	-2.367133	-2.367133	-2.367133	-2.367133	-2.367133	-2.367133	-2.367133	-2.367133	-2.367133	-2.367133	-2.367133	-2.367133	-2.367133	-2.367133	-2.367133	-2.367133	-2.367133	-2.367133	-2.367133	-2.367133	-2.367133	-2.367133	-2.367133	-2.367133	-2.367133	-2.367133	-2.367133	-2.367133	-2.367133	-2.367133	-2.367133	-2.367133	-2.367133	-2.367133	-2.367133	-2.367133	-2.367133	-2.367133	-2.367133	-2.367133	-2.367133	-2.367133	-2.367133	-2.367133	-2.367133	-2.367133	-2.367133	-2.367133	-2.367133	-2.367133	-2.367133	-2.367133	-2.367133	-2.367133	-2.367133	-2.367133	-2.367133	-2.367133	-2.367133	-2.367133	-2.367133	-2.367133
