0.138056	-0.397011	0.336880	-0.482967	0.295496	-0.569753	0.356973	-0.398439	-0.404653	0.324557	-0.675963	0.402046	-0.647470	0.449460	-0.644208	0.282631	0.180681	-0.554385	0.429402	-0.726125	0.509024	-0.794097	0.460103	-0.569882	-0.382220	0.157499	-0.600095	0.350958	-0.803730	0.476767	-0.690727	0.347209	0.033176	0.019617	0.176510	-0.066151	0.332899	-0.655824	0.312375	-0.470793	-0.260095	-0.040372	0.324173	0.114442	-0.064334	0.142825	-0.461945	0.154691	-0.112960	0.029958	-0.043692	0.344031	-0.089226	-0.004136	0.153408	-0.332241	-0.134105	-0.129346	-0.189149	-0.087068	-0.071398	-0.002552	-0.317969	0.045811
-0.008229	-0.250940	0.041925	-0.268051	0.015327	-0.296497	0.012308	-0.215082	-0.287217	0.090835	-0.389765	0.108138	-0.289703	0.068706	-0.286440	-0.043768	0.005356	-0.296508	0.149526	-0.342301	0.099028	-0.330388	0.088073	-0.274386	-0.251989	-0.026476	-0.299004	0.071289	-0.341620	0.100927	-0.331943	0.008899	-0.108900	0.347916	-0.089072	0.375602	-0.006322	-0.308107	0.055638	-0.308739	-0.148219	-0.220737	0.704799	-0.147909	0.352663	-0.067825	-0.315254	-0.025447	-0.251246	0.251698	-0.266660	0.656744	-0.180323	0.127526	-0.043577	-0.262342	-0.068510	-0.291851	-0.044568	-0.268461	-0.035953	-0.110322	-0.244145	-0.084001
-0.272247	-0.040093	-0.334882	0.011976	-0.308388	-0.024010	-0.270345	-0.074950	-0.018845	-0.322452	0.083063	-0.350565	0.052257	-0.275080	-0.047712	-0.241362	-0.305936	0.081820	-0.364627	0.085671	-0.317307	0.051426	-0.263889	-0.060516	0.012183	-0.316539	0.083493	-0.342816	0.109184	-0.271197	-0.044472	-0.219054	-0.303609	0.637231	-0.335153	0.762568	-0.277682	-0.016082	-0.213186	-0.072034	-0.036338	-0.284565	0.841560	-0.331509	0.600031	-0.189552	-0.093843	-0.177123	-0.239107	0.260633	-0.261636	0.772403	-0.223743	0.245139	-0.200161	-0.124778	-0.104874	-0.220871	-0.078427	-0.205758	-0.070211	-0.204479	-0.130271	-0.159411
-0.297769	-0.038355	-0.350435	0.043541	-0.357833	0.024862	-0.326688	-0.070583	0.027214	-0.368674	0.148106	-0.406963	0.102657	-0.413118	0.071385	-0.312203	-0.348842	0.166101	-0.436747	0.209424	-0.438366	0.189384	-0.410732	0.033684	0.044971	-0.351789	0.155466	-0.434152	0.257020	-0.456048	0.115838	-0.357965	-0.302149	0.673373	-0.400666	0.869921	-0.404952	0.107960	-0.358707	-0.003514	-0.027965	-0.252954	0.882805	-0.344890	0.643085	-0.236597	-0.035227	-0.239999	-0.220841	0.220393	-0.196761	0.735960	-0.255805	0.280304	-0.220731	-0.084757	-0.084867	-0.179139	-0.144498	-0.151547	-0.036922	-0.163318	-0.115450	-0.198198
-0.297087	-0.017096	-0.391034	0.096860	-0.425711	0.098919	-0.455659	0.001001	0.017373	-0.418986	0.213773	-0.521672	0.202692	-0.496394	0.174066	-0.416895	-0.326268	0.123117	-0.508717	0.279326	-0.542090	0.269714	-0.490492	0.076566	0.032095	-0.310229	0.227567	-0.502896	0.343708	-0.529794	0.168940	-0.370639	-0.248935	0.616977	-0.394503	0.909525	-0.438932	0.164762	-0.397853	0.023428	-0.062489	-0.165756	0.815163	-0.340151	0.684266	-0.271013	0.026692	-0.292949	-0.158471	0.175672	-0.133861	0.685415	-0.230380	0.301753	-0.249450	-0.016057	-0.137403	-0.126529	-0.149111	-0.133826	-0.065044	-0.182032	-0.058639	-0.224936
-0.207102	-0.080055	-0.217598	-0.022215	-0.201258	-0.143488	-0.110626	-0.171970	-0.067858	-0.176288	-0.075364	-0.189928	-0.068810	-0.127216	-0.155272	-0.096500	-0.218979	-0.053549	-0.145012	-0.074297	-0.119704	-0.141482	-0.037371	-0.232784	-0.081519	-0.208916	-0.106535	-0.148532	-0.163995	-0.036719	-0.238293	-0.002684	-0.209070	0.473110	-0.204052	0.509720	-0.064466	-0.245524	0.031397	-0.318085	-0.102423	-0.197495	0.694624	-0.136016	0.365286	-0.024154	-0.321821	0.008589	-0.231151	0.150602	-0.190943	0.589705	-0.054407	0.073436	0.042205	-0.337023	-0.121732	-0.210006	-0.116984	-0.167305	-0.189672	-0.054966	-0.349687	-0.022660
-0.018157	-0.295710	0.042233	-0.257466	0.009260	-0.255293	-0.055413	-0.199932	-0.319881	0.084433	-0.274929	0.034579	-0.258213	0.027844	-0.213396	-0.066000	0.007521	-0.298122	0.058206	-0.230854	-0.013892	-0.177219	-0.061747	-0.180740	-0.296478	0.006100	-0.248325	-0.047348	-0.215485	-0.044967	-0.118501	-0.132791	0.002630	0.262864	-0.034040	0.423847	-0.057262	-0.100550	-0.164395	-0.086002	-0.283217	-0.030932	0.518177	-0.088537	0.429477	-0.228370	-0.103363	-0.243225	-0.086686	0.018162	-0.032067	0.536457	-0.138793	0.204569	-0.227094	-0.096931	-0.239196	-0.073782	-0.297063	-0.123033	-0.120632	-0.173452	-0.118647	-0.223883
-0.246473	-0.089127	-0.290438	0.004835	-0.326740	0.006172	-0.302669	-0.080933	-0.051483	-0.306347	0.062341	-0.376882	0.119734	-0.358650	0.030162	-0.292432	-0.258148	0.028058	-0.348794	0.154047	-0.421213	0.151078	-0.376774	-0.023389	-0.059053	-0.239994	0.114780	-0.396094	0.205491	-0.402331	0.140493	-0.305312	-0.218307	0.561887	-0.353889	0.844998	-0.396962	0.093233	-0.377730	0.009407	-0.070571	-0.176566	0.815202	-0.327213	0.704631	-0.324696	0.067134	-0.302362	-0.181029	0.181316	-0.204485	0.722664	-0.286445	0.393042	-0.324913	0.002916	-0.152001	-0.166115	-0.132885	-0.205188	-0.003429	-0.264252	-0.007959	-0.265129
0.041314	-0.347230	0.103802	-0.338830	0.075620	-0.337636	0.043278	-0.248049	-0.371630	0.139539	-0.396312	0.153495	-0.332273	0.082095	-0.321407	-0.005429	0.082832	-0.364587	0.163601	-0.357513	0.091852	-0.303205	0.040289	-0.254235	-0.321606	0.019502	-0.293815	0.026602	-0.261481	0.015039	-0.214377	-0.014322	-0.072298	0.267826	-0.044110	0.389175	-0.038835	-0.195569	-0.079292	-0.170238	-0.213792	-0.121410	0.606532	-0.142785	0.412087	-0.198058	-0.113749	-0.169528	-0.142207	0.137460	-0.142837	0.610707	-0.210715	0.263972	-0.238567	-0.129358	-0.203094	-0.162205	-0.164286	-0.178337	-0.009012	-0.237516	-0.078897	-0.236457
-0.248116	-0.049103	-0.292964	-0.006401	-0.262364	-0.060216	-0.225749	-0.075761	-0.035671	-0.272262	0.010743	-0.295575	0.024910	-0.263757	-0.047424	-0.236733	-0.271391	0.035655	-0.273069	0.041487	-0.268685	-0.007737	-0.237739	-0.071738	0.004007	-0.306057	0.043266	-0.258764	0.025690	-0.192465	-0.076929	-0.220598	-0.300681	0.614225	-0.308789	0.714820	-0.235393	-0.083578	-0.155937	-0.116621	-0.059065	-0.256760	0.834155	-0.293443	0.555763	-0.181382	-0.088100	-0.166790	-0.205952	0.210539	-0.269500	0.724022	-0.234552	0.273880	-0.222935	-0.108896	-0.126031	-0.232453	-0.102060	-0.241714	-0.038112	-0.201178	-0.133823	-0.203688
-0.232685	-0.062281	-0.259963	-0.063650	-0.281084	-0.014612	-0.329660	-0.057827	-0.076792	-0.240949	0.035886	-0.272249	0.036521	-0.331443	0.061892	-0.292108	-0.230825	-0.011131	-0.274306	0.052647	-0.319626	0.077070	-0.326614	-0.008584	-0.061390	-0.232565	0.007237	-0.264712	0.045479	-0.290293	0.047997	-0.317325	-0.229881	0.560232	-0.310781	0.743203	-0.311346	0.038096	-0.266529	-0.011958	-0.064497	-0.252094	0.818035	-0.312280	0.612363	-0.229615	-0.049567	-0.251185	-0.201731	0.227516	-0.251228	0.763765	-0.277056	0.303023	-0.229092	-0.081391	-0.112629	-0.234041	-0.078240	-0.217107	-0.035891	-0.203407	-0.084564	-0.233089
-0.337537	0.014076	-0.410918	0.095774	-0.423054	0.095298	-0.377218	-0.010616	0.020410	-0.390860	0.172952	-0.453470	0.178825	-0.464023	0.117491	-0.374065	-0.338130	0.097696	-0.485692	0.242086	-0.509132	0.242451	-0.473931	0.076660	0.038154	-0.337637	0.182987	-0.485146	0.301094	-0.508182	0.171501	-0.372505	-0.283479	0.671040	-0.389587	0.947481	-0.476425	0.143420	-0.415701	0.048984	-0.023093	-0.249478	0.890553	-0.425802	0.747055	-0.325078	0.037072	-0.334119	-0.225220	0.270165	-0.267366	0.834319	-0.315662	0.368977	-0.306083	0.001215	-0.097031	-0.216507	-0.034390	-0.225460	0.024157	-0.254431	-0.017242	-0.225033
-0.126409	-0.160924	-0.068529	-0.211862	-0.058433	-0.217617	-0.039974	-0.258745	-0.192617	-0.079040	-0.196854	-0.022562	-0.193284	-0.038750	-0.227134	-0.052971	-0.095769	-0.138959	-0.030445	-0.164029	-0.034208	-0.212603	-0.024054	-0.215244	-0.163866	-0.157531	-0.179660	-0.077510	-0.158201	-0.034213	-0.194847	-0.072833	-0.154511	0.423373	-0.181785	0.522781	-0.133051	-0.160256	-0.082355	-0.198739	-0.119120	-0.249490	0.733238	-0.239713	0.511348	-0.184162	-0.147067	-0.151275	-0.228083	0.194017	-0.260263	0.716095	-0.250042	0.264066	-0.149882	-0.188788	-0.146170	-0.221955	-0.074130	-0.274881	-0.031899	-0.230848	-0.171010	-0.184763
0.066499	-0.362627	0.209944	-0.422111	0.204194	-0.472364	0.216872	-0.350093	-0.358259	0.208336	-0.527239	0.252299	-0.469698	0.276770	-0.460933	0.174893	0.104533	-0.445726	0.241387	-0.488593	0.207948	-0.465562	0.216439	-0.394025	-0.347204	0.053487	-0.405653	0.110715	-0.449299	0.128620	-0.352856	0.113796	-0.033199	0.183596	-0.020068	0.259737	0.037689	-0.277717	0.020366	-0.268903	-0.260938	-0.129315	0.531117	-0.090109	0.292830	-0.134983	-0.207663	-0.059343	-0.107658	0.113332	-0.171937	0.596396	-0.272820	0.263996	-0.116652	-0.177266	-0.127732	-0.143094	-0.123781	-0.214881	0.076492	-0.190270	-0.107955	-0.110657
-0.102146	-0.217090	-0.040978	-0.223544	-0.058120	-0.222685	-0.073836	-0.183923	-0.184604	-0.070506	-0.197809	-0.036178	-0.170383	-0.014272	-0.198974	-0.096080	-0.106564	-0.123904	-0.077779	-0.118941	-0.081885	-0.132204	-0.078253	-0.176083	-0.161398	-0.155789	-0.115539	-0.160421	-0.081071	-0.122218	-0.142244	-0.102551	-0.099054	0.392390	-0.194207	0.597689	-0.179852	-0.145389	-0.125135	-0.166783	-0.238367	-0.128399	0.669140	-0.209092	0.463655	-0.173263	-0.129677	-0.154247	-0.090317	0.043233	-0.164692	0.612956	-0.191584	0.225292	-0.180839	-0.155978	-0.256208	-0.098302	-0.207863	-0.161232	-0.078466	-0.181609	-0.157880	-0.175007
-0.351127	0.048047	-0.434047	0.139009	-0.442723	0.136586	-0.437896	0.043027	0.066337	-0.461997	0.218029	-0.542123	0.233995	-0.510972	0.145335	-0.418562	-0.396737	0.130963	-0.536086	0.289996	-0.504265	0.246474	-0.469350	0.055320	0.080482	-0.374390	0.243534	-0.431134	0.239650	-0.430046	0.109137	-0.361541	-0.293533	0.646845	-0.406349	0.861184	-0.308720	0.056647	-0.305765	-0.045723	-0.033811	-0.163810	0.777816	-0.289485	0.584641	-0.128148	-0.105004	-0.189174	-0.150521	0.154445	-0.097894	0.621494	-0.105288	0.170186	-0.089275	-0.145800	-0.164580	-0.129226	-0.206172	-0.064574	-0.163304	-0.075769	-0.185693	-0.089282
0.297850	-0.567885	0.551009	-0.732982	0.525721	-0.798699	0.517025	-0.578075	-0.571054	0.555036	-0.957458	0.706941	-0.938789	0.714529	-0.845407	0.479613	0.399006	-0.798101	0.731869	-0.969129	0.765163	-1.067320	0.713117	-0.756727	-0.492396	0.357557	-0.816998	0.582538	-1.051955	0.738843	-0.924187	0.482881	0.164012	-0.156562	0.369242	-0.325657	0.547778	-0.864094	0.542624	-0.650733	-0.362152	0.040485	0.092811	0.324682	-0.289803	0.305206	-0.579291	0.271418	-0.059488	-0.073296	0.082843	0.137747	0.025979	-0.168339	0.293445	-0.443162	-0.161477	-0.084741	-0.260944	-0.000730	-0.129579	0.096868	-0.393278	0.142881
-0.215654	-0.109623	-0.257280	-0.047947	-0.291871	0.004503	-0.311873	-0.047084	-0.097850	-0.271662	0.032399	-0.317965	0.094399	-0.411489	0.095759	-0.335324	-0.186583	-0.049698	-0.288477	0.081653	-0.401822	0.190583	-0.396220	0.035886	-0.089364	-0.187927	0.025737	-0.331235	0.193308	-0.392315	0.094624	-0.312932	-0.148321	0.523753	-0.266306	0.776693	-0.337491	0.061555	-0.342213	0.002456	-0.152174	-0.142923	0.781059	-0.336235	0.713205	-0.298593	0.015657	-0.288736	-0.113889	0.120803	-0.184165	0.758347	-0.322431	0.381669	-0.307948	-0.013243	-0.186233	-0.140898	-0.145810	-0.233906	0.035877	-0.280176	-0.024221	-0.295186
0.099230	-0.391004	0.228827	-0.348315	0.086366	-0.321381	0.123982	-0.266484	-0.413195	0.258051	-0.523531	0.169678	-0.370506	0.221582	-0.343137	0.078750	0.132604	-0.437679	0.258892	-0.444358	0.190554	-0.446492	0.144508	-0.326563	-0.345245	0.050350	-0.413117	0.100408	-0.473157	0.192933	-0.366021	0.061265	-0.050159	0.212050	-0.019802	0.230479	0.083084	-0.383451	0.082187	-0.302032	-0.239430	-0.094547	0.470934	-0.055044	0.226039	-0.042286	-0.282956	-0.011875	-0.125529	0.087049	-0.114122	0.528330	-0.199657	0.143294	-0.038554	-0.234276	-0.168274	-0.094154	-0.193771	-0.169893	-0.018784	-0.099141	-0.202801	-0.029444
-0.323344	-0.001767	-0.383465	0.079821	-0.373270	0.033599	-0.326999	-0.041194	0.023854	-0.391944	0.153701	-0.441212	0.140818	-0.374182	0.058118	-0.350265	-0.343747	0.151209	-0.463781	0.231216	-0.435363	0.174191	-0.402517	0.050838	0.028204	-0.329205	0.157669	-0.456748	0.226149	-0.442511	0.105391	-0.343956	-0.260685	0.602560	-0.377696	0.898469	-0.425306	0.110270	-0.338644	-0.015974	-0.047188	-0.192399	0.820773	-0.358735	0.702491	-0.262422	0.005503	-0.285303	-0.169586	0.171530	-0.192115	0.721927	-0.280219	0.336621	-0.234965	-0.038729	-0.152693	-0.167372	-0.109628	-0.179065	-0.004033	-0.203353	-0.058034	-0.226188
-0.159291	-0.150734	-0.161634	-0.107460	-0.196223	-0.123703	-0.219471	-0.119052	-0.147999	-0.197196	-0.063521	-0.153035	-0.049123	-0.191622	-0.064933	-0.210396	-0.156773	-0.075307	-0.191458	-0.004424	-0.251690	0.025600	-0.233002	-0.083027	-0.112433	-0.207362	-0.043340	-0.252631	0.059038	-0.250387	-0.015146	-0.214068	-0.159934	0.496568	-0.255075	0.680160	-0.304079	0.003920	-0.264852	-0.057263	-0.134742	-0.195932	0.769910	-0.304697	0.632133	-0.315550	-0.041403	-0.245121	-0.204850	0.170274	-0.206775	0.748630	-0.296037	0.348335	-0.270774	-0.084180	-0.166299	-0.194590	-0.128033	-0.232711	-0.001954	-0.265787	-0.063249	-0.221009
-0.161329	-0.135375	-0.190040	-0.084252	-0.140270	-0.196546	-0.059129	-0.266914	-0.089990	-0.136913	-0.125285	-0.140505	-0.158210	-0.015655	-0.274685	-0.013947	-0.195702	-0.057488	-0.104203	-0.143997	-0.004002	-0.236809	0.040910	-0.295362	-0.069860	-0.237435	-0.103521	-0.065744	-0.238687	0.013099	-0.272677	0.017258	-0.256570	0.515321	-0.230262	0.522715	-0.021884	-0.282798	0.088137	-0.343089	-0.078960	-0.253498	0.735775	-0.119678	0.341822	-0.016605	-0.335746	0.021308	-0.216224	0.177573	-0.217111	0.594206	-0.100732	0.053389	0.034366	-0.352395	-0.148838	-0.213346	-0.123128	-0.162543	-0.145217	-0.068119	-0.347085	0.008501
-0.027335	-0.270308	0.068801	-0.267290	0.011388	-0.242003	-0.000482	-0.212410	-0.269655	0.068944	-0.332243	0.089489	-0.284829	0.097171	-0.296545	-0.022648	-0.016301	-0.328707	0.147766	-0.355102	0.114441	-0.357891	0.087817	-0.271582	-0.219776	-0.046820	-0.311056	0.072685	-0.390613	0.147369	-0.324949	0.036349	-0.105068	0.328489	-0.055039	0.289384	0.066372	-0.349336	0.047052	-0.271303	-0.163105	-0.166031	0.579989	-0.044757	0.261327	0.005045	-0.285220	-0.070025	-0.178662	0.137270	-0.134434	0.548797	-0.126794	0.090969	-0.046663	-0.254882	-0.146709	-0.171612	-0.143641	-0.150340	-0.121731	-0.094060	-0.210739	-0.084689
-0.396053	0.074775	-0.479400	0.145216	-0.424488	0.089561	-0.397020	-0.020343	0.131640	-0.503520	0.279067	-0.547460	0.203949	-0.460335	0.089278	-0.382027	-0.471999	0.243055	-0.577587	0.336130	-0.538680	0.230471	-0.423840	0.061178	0.161480	-0.405641	0.278265	-0.503323	0.299511	-0.464528	0.100356	-0.334730	-0.344833	0.701897	-0.446418	0.945316	-0.407053	0.120576	-0.352378	-0.034175	-0.019745	-0.265744	0.859884	-0.359289	0.680894	-0.192767	-0.068783	-0.204799	-0.192826	0.238767	-0.197356	0.696447	-0.217152	0.270005	-0.156709	-0.076913	-0.113010	-0.200741	-0.121189	-0.167294	-0.088955	-0.144511	-0.125401	-0.192118
0.252668	-0.538289	0.492830	-0.719679	0.464660	-0.700037	0.480810	-0.507283	-0.540553	0.500646	-0.892517	0.628198	-0.843491	0.678276	-0.776186	0.399613	0.329280	-0.749260	0.653186	-0.900898	0.707301	-1.003582	0.641733	-0.666240	-0.490046	0.299674	-0.794923	0.535642	-0.970347	0.649910	-0.827650	0.431102	0.130063	-0.139032	0.332675	-0.254748	0.470532	-0.772234	0.459952	-0.565566	-0.377762	0.067033	0.159780	0.234760	-0.191546	0.259560	-0.544938	0.227186	-0.051238	-0.027286	0.041701	0.215582	-0.014941	-0.105757	0.215004	-0.456878	-0.151656	-0.070670	-0.272863	-0.069909	-0.089696	0.086528	-0.370213	0.110263
-0.176562	-0.069677	-0.114436	-0.149031	-0.035788	-0.298800	0.081125	-0.283002	-0.063816	-0.123376	-0.195109	-0.048259	-0.259774	0.131305	-0.406284	0.160598	-0.194018	-0.115468	-0.043704	-0.239230	0.122418	-0.477408	0.241603	-0.443610	-0.012055	-0.210597	-0.181608	0.022846	-0.437600	0.238164	-0.499641	0.179818	-0.283163	0.462679	-0.166536	0.306049	0.119299	-0.474988	0.275115	-0.507983	-0.062076	-0.240187	0.609235	-0.018740	0.112506	0.156217	-0.517840	0.190796	-0.255167	0.221992	-0.141840	0.471649	0.003387	-0.071218	0.185168	-0.452807	-0.076999	-0.189088	-0.180339	-0.080236	-0.197344	0.065585	-0.458937	0.105786
-0.324456	0.022508	-0.426262	0.090905	-0.380650	0.058326	-0.358963	-0.041952	0.059403	-0.441591	0.210001	-0.488345	0.183442	-0.414436	0.091301	-0.332829	-0.393540	0.162949	-0.507453	0.245444	-0.496987	0.201946	-0.404826	0.002277	0.099184	-0.386843	0.209487	-0.457648	0.237064	-0.430718	0.070625	-0.274375	-0.341495	0.678440	-0.410820	0.876082	-0.358185	0.063860	-0.291091	-0.044668	0.007457	-0.258068	0.855048	-0.296489	0.613880	-0.192404	-0.069880	-0.206972	-0.263051	0.251824	-0.201865	0.680224	-0.176789	0.223162	-0.140355	-0.133157	-0.083055	-0.200951	-0.121265	-0.119098	-0.136418	-0.100749	-0.163070	-0.128995
-0.106153	-0.151055	-0.060884	-0.203729	-0.033200	-0.263459	0.016910	-0.281669	-0.184956	-0.071641	-0.215715	0.023106	-0.233527	0.042577	-0.284413	0.014892	-0.113061	-0.166241	0.015393	-0.220814	0.054137	-0.271071	0.025695	-0.278215	-0.163939	-0.153407	-0.194758	0.008710	-0.291262	0.088581	-0.284467	0.044285	-0.140940	0.406166	-0.123560	0.379175	0.013412	-0.310230	0.085099	-0.310136	-0.139783	-0.194165	0.644612	-0.074098	0.304577	-0.025965	-0.315325	-0.030224	-0.230609	0.157307	-0.183962	0.565804	-0.120902	0.101197	-0.046139	-0.273968	-0.123066	-0.232758	-0.145997	-0.185415	-0.121494	-0.070461	-0.297609	-0.052802
-0.284735	-0.024015	-0.261883	-0.026618	-0.208635	-0.123704	-0.125330	-0.181040	0.054382	-0.300897	0.014462	-0.265086	-0.070200	-0.170330	-0.149588	-0.099466	-0.355053	0.094008	-0.293578	0.030908	-0.155617	-0.089829	-0.087962	-0.210070	0.013525	-0.349312	0.044751	-0.251752	-0.077720	-0.101845	-0.184831	-0.084229	-0.302394	0.597358	-0.325463	0.649422	-0.123340	-0.188645	-0.026197	-0.261069	-0.036761	-0.251045	0.729147	-0.149344	0.355381	-0.003639	-0.303179	-0.011102	-0.232126	0.130365	-0.146380	0.545125	-0.019577	0.025796	0.039416	-0.315367	-0.130424	-0.156444	-0.218876	-0.047525	-0.261042	0.007515	-0.313521	-0.032311
-0.147308	-0.148413	-0.153147	-0.129691	-0.153375	-0.136952	-0.126252	-0.198140	-0.105772	-0.187998	-0.070295	-0.141218	-0.103112	-0.149218	-0.139583	-0.155748	-0.182506	-0.059156	-0.155128	-0.015746	-0.196285	-0.044910	-0.191903	-0.127145	-0.099968	-0.176278	-0.078772	-0.234235	-0.002274	-0.198213	-0.069704	-0.177002	-0.192373	0.477892	-0.239737	0.662199	-0.256546	-0.029510	-0.221724	-0.092664	-0.140424	-0.189580	0.769705	-0.289586	0.599541	-0.265139	-0.041287	-0.218923	-0.195305	0.164665	-0.245346	0.699674	-0.283673	0.304447	-0.229811	-0.065487	-0.154023	-0.184725	-0.155522	-0.235728	-0.032604	-0.260346	-0.090907	-0.238157
-0.291339	-0.048213	-0.296442	-0.019221	-0.240341	-0.052234	-0.297233	-0.091152	-0.003982	-0.270918	0.031202	-0.303396	0.023957	-0.294060	0.023221	-0.270839	-0.297274	0.054719	-0.317254	0.096659	-0.327359	0.061788	-0.279168	-0.059449	0.013193	-0.307630	0.083500	-0.348377	0.125846	-0.308251	-0.028439	-0.218003	-0.279363	0.592473	-0.355284	0.809628	-0.347988	0.051019	-0.230656	-0.089480	-0.059431	-0.236007	0.818469	-0.288293	0.603307	-0.198226	-0.099689	-0.185652	-0.211264	0.206952	-0.175972	0.631408	-0.186039	0.234699	-0.165891	-0.141746	-0.115871	-0.164259	-0.168954	-0.133857	-0.116076	-0.169169	-0.157751	-0.145543
-0.087379	-0.202492	-0.069460	-0.162085	-0.128954	-0.145572	-0.120985	-0.147381	-0.187899	-0.042376	-0.176328	-0.065451	-0.116749	-0.117029	-0.137204	-0.147644	-0.082880	-0.185442	-0.053547	-0.131788	-0.127024	-0.098735	-0.101067	-0.164831	-0.202382	-0.064916	-0.200647	-0.104132	-0.135337	-0.108517	-0.128317	-0.110129	-0.088634	0.323250	-0.110668	0.493083	-0.113037	-0.139471	-0.080978	-0.190371	-0.269912	-0.113455	0.660466	-0.146899	0.442753	-0.157025	-0.162422	-0.141876	-0.121028	0.082805	-0.133913	0.649871	-0.159050	0.177278	-0.133294	-0.215212	-0.220955	-0.143823	-0.197671	-0.170000	-0.113500	-0.134236	-0.193836	-0.137564
-0.107342	-0.208324	-0.091767	-0.178142	-0.162132	-0.118826	-0.203622	-0.132394	-0.208726	-0.077881	-0.120225	-0.133572	-0.062774	-0.180977	-0.060562	-0.214439	-0.086913	-0.154189	-0.158386	-0.055862	-0.181523	0.008443	-0.205881	-0.043968	-0.193083	-0.111539	-0.112110	-0.196759	0.005505	-0.211481	-0.008082	-0.241576	-0.097275	0.411643	-0.199658	0.600102	-0.246312	-0.023471	-0.270912	-0.033614	-0.230239	-0.096349	0.688361	-0.240908	0.591555	-0.295012	-0.003853	-0.273286	-0.090728	0.049164	-0.168471	0.681155	-0.248894	0.294987	-0.289978	-0.037545	-0.256142	-0.081887	-0.208988	-0.178579	-0.043519	-0.235592	-0.073778	-0.259285
-0.106179	-0.207256	-0.043058	-0.204427	-0.045702	-0.257473	-0.050038	-0.245408	-0.140417	-0.046044	-0.218686	-0.012668	-0.219238	0.034522	-0.286254	0.001612	-0.104044	-0.152364	-0.010229	-0.200961	0.030591	-0.255152	0.046078	-0.285922	-0.144927	-0.120523	-0.195729	-0.062447	-0.242449	0.043784	-0.276288	0.010820	-0.181252	0.440324	-0.173611	0.438202	-0.024831	-0.285842	0.026934	-0.265978	-0.131143	-0.208630	0.645065	-0.129652	0.334486	-0.049514	-0.274081	-0.010111	-0.238389	0.157032	-0.168473	0.591446	-0.075815	0.082945	-0.034138	-0.314818	-0.137088	-0.197439	-0.147091	-0.164159	-0.148800	-0.077928	-0.297936	-0.017504
0.038368	-0.368532	0.147282	-0.377316	0.055351	-0.316144	-0.002188	-0.222177	-0.414499	0.163879	-0.402186	0.133133	-0.313366	0.069983	-0.277165	-0.054137	0.127529	-0.387118	0.142333	-0.314682	0.043930	-0.216719	-0.037001	-0.189322	-0.323786	0.036171	-0.288188	-0.023268	-0.207284	-0.048467	-0.108459	-0.114713	-0.012121	0.267331	-0.083422	0.469607	-0.115987	-0.099716	-0.195837	-0.078014	-0.282606	-0.103590	0.648062	-0.201505	0.521899	-0.307741	-0.012481	-0.258952	-0.118946	0.084972	-0.145005	0.660636	-0.330920	0.370858	-0.325294	-0.039390	-0.253551	-0.122295	-0.194323	-0.230863	0.041615	-0.330520	-0.034160	-0.276574
0.160023	-0.415455	0.370179	-0.569887	0.331392	-0.558479	0.290582	-0.400969	-0.435758	0.326764	-0.655196	0.428207	-0.645818	0.413666	-0.575813	0.219549	0.215338	-0.550239	0.357297	-0.641089	0.389834	-0.641732	0.328115	-0.446870	-0.376009	0.139770	-0.538734	0.236040	-0.619801	0.292004	-0.475309	0.145657	-0.001413	0.123040	0.033095	0.125570	0.136223	-0.422222	0.104751	-0.268474	-0.248037	-0.142107	0.521585	-0.099333	0.224624	-0.084782	-0.217615	-0.061187	-0.186127	0.186076	-0.172207	0.590068	-0.300333	0.223322	-0.122260	-0.151302	-0.066679	-0.188990	-0.077326	-0.268766	0.135471	-0.232973	-0.098113	-0.114517
-0.148602	-0.116160	-0.197211	-0.092504	-0.255369	-0.005946	-0.313587	-0.021938	-0.145097	-0.187997	-0.011536	-0.273498	0.053952	-0.342049	0.044371	-0.341510	-0.147974	-0.074288	-0.245843	0.086045	-0.355490	0.146738	-0.384641	0.024164	-0.143693	-0.132854	-0.018408	-0.300399	0.106115	-0.374743	0.111495	-0.321735	-0.092160	0.439744	-0.220516	0.734106	-0.315439	0.083582	-0.354096	0.025058	-0.251048	-0.057369	0.685462	-0.289792	0.658219	-0.309044	0.047709	-0.313188	-0.052333	0.036932	-0.086409	0.673359	-0.265587	0.336214	-0.323523	0.003791	-0.258061	-0.084957	-0.238563	-0.128493	-0.056564	-0.206731	-0.036238	-0.296632
-0.231972	-0.085027	-0.245994	-0.074609	-0.255048	-0.028626	-0.263282	-0.051367	-0.087527	-0.268846	0.016241	-0.288563	0.024356	-0.334301	0.034660	-0.303229	-0.215599	-0.024563	-0.302553	0.073243	-0.348885	0.147208	-0.395126	0.013811	-0.096008	-0.226170	0.041177	-0.360922	0.145402	-0.403770	0.117526	-0.339440	-0.196816	0.542626	-0.305176	0.794973	-0.338710	0.128586	-0.405659	0.065938	-0.109284	-0.191485	0.799618	-0.309464	0.674039	-0.338151	0.079272	-0.331675	-0.136182	0.163027	-0.175225	0.713730	-0.288292	0.391804	-0.332411	0.017104	-0.190987	-0.137514	-0.136417	-0.192012	0.012785	-0.272099	0.011152	-0.302528
-0.067047	-0.222494	0.019197	-0.257120	0.018663	-0.289579	0.045375	-0.291636	-0.182858	0.029310	-0.329563	0.085748	-0.314480	0.116584	-0.332781	0.035227	-0.078782	-0.241674	0.062370	-0.327063	0.128576	-0.393759	0.137174	-0.302303	-0.174975	-0.102558	-0.246897	0.048947	-0.379671	0.160273	-0.366588	0.048210	-0.159011	0.396653	-0.124811	0.345796	0.072696	-0.367365	0.122234	-0.307468	-0.123509	-0.254011	0.641667	-0.074104	0.248443	0.031559	-0.374022	0.039050	-0.260085	0.222213	-0.163717	0.546442	-0.104400	0.081355	0.018086	-0.322468	-0.079059	-0.262048	-0.127474	-0.173098	-0.128339	-0.038374	-0.314484	-0.000368
0.078340	-0.344153	0.212515	-0.391264	0.159885	-0.385642	0.150192	-0.295013	-0.376287	0.197729	-0.465164	0.249228	-0.461406	0.224950	-0.404350	0.112430	0.141206	-0.461974	0.260878	-0.482996	0.232052	-0.521296	0.190767	-0.366249	-0.350387	0.121922	-0.428573	0.131723	-0.486735	0.197549	-0.389065	0.103821	0.025802	0.133037	0.031126	0.183918	0.089593	-0.373290	0.058628	-0.265925	-0.236522	-0.078929	0.461912	-0.058909	0.221409	-0.100350	-0.243202	-0.059397	-0.105809	0.113643	-0.142759	0.511713	-0.208273	0.215520	-0.097279	-0.214627	-0.098347	-0.137279	-0.174958	-0.155311	-0.027006	-0.150645	-0.144702	-0.067291
-0.322383	-0.018915	-0.381670	0.076576	-0.411012	0.086002	-0.418632	0.018068	0.013751	-0.370604	0.142924	-0.484916	0.178123	-0.466972	0.170980	-0.402521	-0.294145	0.092567	-0.422065	0.237926	-0.463566	0.220892	-0.444786	0.075386	0.018890	-0.287396	0.116348	-0.386227	0.192927	-0.408690	0.117217	-0.341374	-0.224008	0.585424	-0.308176	0.788450	-0.326590	0.052769	-0.292553	-0.034675	-0.127335	-0.132299	0.744743	-0.288231	0.589439	-0.177568	-0.081573	-0.263643	-0.123361	0.158985	-0.108961	0.626738	-0.176520	0.229482	-0.156858	-0.090209	-0.184556	-0.112600	-0.190770	-0.077291	-0.116484	-0.104464	-0.131462	-0.142887
0.012539	-0.267995	0.136343	-0.323072	0.125640	-0.425858	0.200954	-0.331360	-0.253458	0.105278	-0.399575	0.197700	-0.439916	0.288089	-0.494906	0.177534	0.022161	-0.324486	0.165148	-0.460102	0.241177	-0.575061	0.278686	-0.463221	-0.190203	-0.058330	-0.342565	0.128841	-0.519793	0.291462	-0.532034	0.214680	-0.182539	0.341693	-0.089929	0.257545	0.103219	-0.470032	0.210598	-0.423307	-0.082886	-0.273291	0.629954	-0.109154	0.202295	0.043597	-0.398772	0.086852	-0.266760	0.232358	-0.237150	0.534913	-0.166685	0.070214	0.048577	-0.315947	-0.018630	-0.254311	-0.081971	-0.181384	-0.023793	-0.072487	-0.249687	-0.011095
-0.294728	-0.019064	-0.376732	0.026836	-0.360361	0.037380	-0.363411	-0.002346	0.021875	-0.403089	0.157708	-0.424352	0.145121	-0.428901	0.131702	-0.364313	-0.329363	0.115792	-0.462316	0.222071	-0.505551	0.248843	-0.481602	0.089320	0.019135	-0.331503	0.180123	-0.499396	0.285967	-0.472029	0.152962	-0.385684	-0.218433	0.604678	-0.404874	0.931557	-0.411158	0.150626	-0.410216	0.073854	-0.102935	-0.189357	0.839232	-0.359593	0.731563	-0.322240	0.080652	-0.341772	-0.153361	0.177094	-0.161794	0.748243	-0.289181	0.361314	-0.304517	0.011513	-0.191144	-0.150999	-0.138581	-0.192641	-0.019655	-0.238112	0.002810	-0.247254
-0.250043	-0.060530	-0.255148	-0.051870	-0.220660	-0.098471	-0.209135	-0.125423	-0.024111	-0.276665	0.021663	-0.254783	-0.017068	-0.200666	-0.080207	-0.183441	-0.280672	0.029733	-0.273900	0.025940	-0.246269	-0.031640	-0.210270	-0.102006	-0.011862	-0.296560	0.026406	-0.273138	0.047626	-0.230007	-0.080295	-0.202756	-0.285346	0.597002	-0.338498	0.713495	-0.276414	-0.034819	-0.184648	-0.122214	-0.038868	-0.311750	0.859397	-0.332507	0.609122	-0.236454	-0.106167	-0.166448	-0.266968	0.296599	-0.284445	0.738351	-0.251652	0.247458	-0.198990	-0.153655	-0.069754	-0.274323	-0.062270	-0.249287	-0.005222	-0.221417	-0.096904	-0.166256
-0.138950	-0.156741	-0.129280	-0.169178	-0.135171	-0.154115	-0.111184	-0.208779	-0.141184	-0.113738	-0.089114	-0.125661	-0.099465	-0.112011	-0.183671	-0.130109	-0.145093	-0.080623	-0.154195	-0.063029	-0.121543	-0.067977	-0.083036	-0.158531	-0.104331	-0.229840	-0.032790	-0.222416	-0.039037	-0.161626	-0.123747	-0.144056	-0.207195	0.488289	-0.270568	0.655620	-0.226720	-0.077814	-0.135248	-0.156787	-0.135378	-0.236683	0.788092	-0.268073	0.536842	-0.202614	-0.136475	-0.151578	-0.191909	0.157659	-0.247800	0.688223	-0.229629	0.275271	-0.210203	-0.143811	-0.194279	-0.206921	-0.123965	-0.241781	-0.053133	-0.232639	-0.130569	-0.195995
-0.321656	-0.057584	-0.348701	0.044621	-0.384655	0.019611	-0.327889	-0.043394	0.003913	-0.350459	0.125347	-0.443679	0.131267	-0.382460	0.055360	-0.255281	-0.349878	0.116576	-0.423558	0.192207	-0.435648	0.153905	-0.385356	0.006092	-0.001617	-0.301596	0.136152	-0.434142	0.195989	-0.380496	0.076486	-0.308422	-0.260025	0.621081	-0.356872	0.887463	-0.376829	0.092241	-0.337930	0.006265	-0.095860	-0.179929	0.812374	-0.336667	0.670925	-0.249748	-0.010465	-0.267129	-0.137755	0.185072	-0.160556	0.707919	-0.266429	0.322811	-0.231862	-0.030385	-0.162514	-0.148134	-0.169896	-0.167219	-0.035949	-0.205144	-0.056351	-0.225594
0.401574	-0.728675	0.706870	-0.896734	0.566113	-0.796616	0.480056	-0.470957	-0.719130	0.726762	-1.103087	0.824639	-0.936502	0.690518	-0.732437	0.340929	0.530325	-0.962585	0.850060	-1.068632	0.781520	-0.984118	0.572607	-0.598993	-0.706592	0.503947	-0.942451	0.626930	-1.031118	0.650783	-0.726939	0.327602	0.333579	-0.314478	0.442093	-0.307467	0.460492	-0.664962	0.343018	-0.430477	-0.502301	0.139807	0.080828	0.261532	-0.174294	0.159643	-0.359259	0.088703	0.026845	-0.103421	0.059660	0.212971	-0.063482	-0.033670	0.085223	-0.280822	-0.225807	-0.052729	-0.266516	-0.045942	-0.024276	-0.059470	-0.228163	-0.029548
-0.255367	-0.038547	-0.301396	0.043405	-0.305579	-0.056402	-0.235275	-0.101423	-0.011526	-0.345250	0.045087	-0.307751	0.057994	-0.261040	-0.061449	-0.179302	-0.348679	0.074902	-0.314298	0.084372	-0.273920	-0.001672	-0.223515	-0.130300	0.045988	-0.343144	0.062752	-0.267690	-0.004246	-0.180441	-0.125316	-0.146915	-0.291280	0.613746	-0.329229	0.700515	-0.178797	-0.155434	-0.086628	-0.202151	-0.031189	-0.244714	0.782816	-0.242434	0.472946	-0.090077	-0.197880	-0.088747	-0.246137	0.214431	-0.232050	0.644786	-0.118264	0.130949	-0.060511	-0.247992	-0.136938	-0.206226	-0.095491	-0.152600	-0.143847	-0.069514	-0.263303	-0.043704
-0.363858	0.064129	-0.422184	0.119361	-0.358795	0.032769	-0.310646	-0.073202	0.114385	-0.443492	0.158058	-0.474261	0.128234	-0.379751	0.030598	-0.269646	-0.455849	0.192663	-0.513918	0.229446	-0.430514	0.134779	-0.359403	-0.014648	0.140427	-0.405649	0.205208	-0.419857	0.163318	-0.344020	0.050328	-0.256146	-0.361297	0.714389	-0.442595	0.864629	-0.313500	-0.007527	-0.277360	-0.088444	0.004000	-0.283775	0.860156	-0.302102	0.585141	-0.161859	-0.091325	-0.159178	-0.235067	0.226683	-0.181807	0.670976	-0.167256	0.224811	-0.166513	-0.119756	-0.097554	-0.195350	-0.135996	-0.121180	-0.153745	-0.088924	-0.158746	-0.133548
-0.165843	-0.140226	-0.192398	-0.104650	-0.192692	-0.121034	-0.209092	-0.121195	-0.093578	-0.202079	-0.034093	-0.232955	-0.019823	-0.255814	-0.022757	-0.243876	-0.250025	-0.028682	-0.262617	0.019255	-0.315092	0.073720	-0.277172	-0.021194	-0.077617	-0.229148	0.009302	-0.329951	0.114882	-0.353276	0.043776	-0.278844	-0.214549	0.550079	-0.331284	0.809355	-0.392240	0.099082	-0.347492	-0.000660	-0.102773	-0.258909	0.879293	-0.390987	0.745725	-0.348921	0.036968	-0.305625	-0.236004	0.256939	-0.312261	0.841492	-0.359046	0.433426	-0.351984	0.000999	-0.071156	-0.252208	-0.070941	-0.312900	0.084040	-0.354767	0.004631	-0.282892
-0.358967	0.038046	-0.416333	0.135614	-0.409403	0.040305	-0.345870	-0.050082	0.099710	-0.436569	0.203043	-0.504970	0.181103	-0.380388	0.046690	-0.265485	-0.441734	0.174238	-0.501238	0.241002	-0.449819	0.137447	-0.313065	-0.039123	0.116289	-0.413541	0.190442	-0.385142	0.157797	-0.328341	-0.006685	-0.274531	-0.339786	0.701480	-0.405464	0.808340	-0.248510	-0.056949	-0.203397	-0.119281	-0.035242	-0.166020	0.748418	-0.218180	0.501467	-0.065473	-0.177837	-0.136869	-0.179911	0.135891	-0.105726	0.591027	-0.080249	0.143580	-0.050909	-0.201735	-0.161211	-0.139548	-0.184974	-0.041408	-0.206229	-0.033160	-0.249995	-0.057054
-0.318630	0.027960	-0.397001	0.061978	-0.365087	0.047982	-0.346314	-0.057698	0.058296	-0.398373	0.161129	-0.441550	0.165752	-0.421294	0.075536	-0.316843	-0.380780	0.143464	-0.513298	0.255538	-0.509663	0.219537	-0.410039	0.010882	0.046364	-0.357629	0.227868	-0.509338	0.269053	-0.425043	0.075148	-0.326090	-0.248903	0.626025	-0.426089	0.924054	-0.389565	0.072377	-0.320484	-0.051091	-0.057154	-0.179614	0.832249	-0.338581	0.680563	-0.213226	-0.066637	-0.223455	-0.134072	0.157804	-0.166106	0.699779	-0.216493	0.247882	-0.175278	-0.058348	-0.147552	-0.151962	-0.176439	-0.132344	-0.073445	-0.144762	-0.112993	-0.192264
-0.223185	-0.094566	-0.192252	-0.122267	-0.156297	-0.119541	-0.143992	-0.182445	-0.083370	-0.238573	-0.008370	-0.194712	-0.043372	-0.195479	-0.109644	-0.161003	-0.261490	0.028300	-0.271975	0.057877	-0.252552	0.015700	-0.238619	-0.084049	-0.035207	-0.268630	0.019653	-0.311269	0.079425	-0.314859	0.013429	-0.252347	-0.250375	0.530924	-0.338100	0.730858	-0.322896	0.057241	-0.285453	-0.045402	-0.085920	-0.226012	0.794315	-0.322419	0.637656	-0.235535	-0.061981	-0.246369	-0.199173	0.156728	-0.190264	0.694093	-0.217287	0.303878	-0.232513	-0.071042	-0.133468	-0.183659	-0.158313	-0.189140	-0.039742	-0.215819	-0.119490	-0.228360
-0.260512	-0.057128	-0.230952	-0.054547	-0.222986	-0.077209	-0.147254	-0.165096	0.001437	-0.276152	0.013366	-0.252957	-0.022400	-0.230752	-0.100393	-0.154552	-0.329105	0.091408	-0.296467	0.023910	-0.188618	-0.061184	-0.168125	-0.145676	0.054438	-0.344233	0.023896	-0.273987	-0.024332	-0.174577	-0.115291	-0.137486	-0.360855	0.651748	-0.354557	0.724226	-0.211561	-0.096881	-0.110757	-0.179811	0.005404	-0.332446	0.878975	-0.269635	0.513346	-0.132053	-0.231410	-0.077664	-0.282272	0.239050	-0.268000	0.710113	-0.154573	0.139294	-0.080757	-0.258009	-0.097582	-0.258222	-0.104533	-0.210932	-0.121766	-0.120914	-0.282902	-0.052860
-0.024678	-0.265947	0.028929	-0.303816	0.042886	-0.262111	0.001408	-0.227272	-0.253542	0.006289	-0.302667	0.080324	-0.290621	0.064421	-0.278945	-0.032263	-0.024151	-0.255733	0.054777	-0.290774	0.084720	-0.307393	0.050158	-0.227521	-0.224275	-0.101674	-0.245651	0.000232	-0.275687	0.033508	-0.216769	-0.030349	-0.124819	0.338150	-0.107866	0.424196	-0.032147	-0.225316	-0.036643	-0.181612	-0.160827	-0.182063	0.646245	-0.151280	0.419545	-0.143366	-0.190439	-0.110083	-0.212394	0.129827	-0.181618	0.619704	-0.171920	0.192334	-0.125826	-0.201163	-0.109695	-0.234077	-0.134769	-0.195292	-0.077587	-0.177044	-0.146707	-0.184070
-0.163269	-0.168414	-0.216177	-0.067229	-0.238876	-0.085866	-0.235157	-0.076497	-0.148208	-0.206686	-0.021896	-0.205229	-0.012778	-0.268291	-0.003601	-0.223683	-0.184967	-0.058055	-0.231668	0.012697	-0.267902	0.059738	-0.259464	-0.058900	-0.067158	-0.222485	-0.002225	-0.255216	0.045287	-0.278729	-0.003770	-0.276602	-0.211871	0.575930	-0.316611	0.733991	-0.296581	0.017698	-0.280741	-0.053555	-0.097893	-0.249124	0.789536	-0.324129	0.665447	-0.294247	-0.009096	-0.254070	-0.206958	0.214985	-0.271329	0.788906	-0.314473	0.350133	-0.319007	-0.046127	-0.148417	-0.228521	-0.093938	-0.276324	0.050112	-0.272008	-0.006436	-0.282703
-0.111446	-0.218264	-0.084153	-0.231345	-0.051591	-0.213137	-0.081483	-0.178419	-0.151768	-0.110289	-0.147485	-0.041705	-0.183082	-0.063631	-0.152673	-0.146504	-0.120362	-0.153118	-0.059300	-0.117924	-0.105568	-0.099752	-0.157801	-0.100939	-0.190232	-0.143259	-0.128997	-0.161832	-0.049826	-0.171151	-0.038446	-0.184264	-0.161025	0.426838	-0.184459	0.615018	-0.244012	-0.014915	-0.271135	-0.050007	-0.133956	-0.211915	0.709465	-0.251016	0.557824	-0.301129	-0.008293	-0.268519	-0.189679	0.154678	-0.202742	0.702200	-0.285729	0.336130	-0.296704	-0.056666	-0.179597	-0.188650	-0.162092	-0.231997	-0.019805	-0.299763	-0.052969	-0.262000
0.016133	-0.306578	0.082155	-0.314607	0.053108	-0.326413	0.033985	-0.251679	-0.309228	0.061592	-0.362685	0.144806	-0.318956	0.085803	-0.298004	-0.002477	0.054836	-0.342524	0.135266	-0.317534	0.087668	-0.304075	0.073201	-0.259260	-0.299003	0.004700	-0.302144	0.030340	-0.302987	0.055687	-0.253449	-0.009176	-0.086048	0.287177	-0.067065	0.393646	-0.010754	-0.261669	0.013621	-0.224974	-0.190039	-0.148380	0.604246	-0.112813	0.380792	-0.117003	-0.194369	-0.104731	-0.178311	0.117268	-0.141889	0.583776	-0.177079	0.220512	-0.143174	-0.204858	-0.163199	-0.162712	-0.179096	-0.168860	-0.046823	-0.177352	-0.186871	-0.153018
0.021444	-0.340689	0.107349	-0.331797	0.100051	-0.303334	0.052368	-0.277919	-0.295113	0.123368	-0.401564	0.110076	-0.336818	0.124559	-0.323125	0.035154	0.008209	-0.343616	0.147510	-0.345132	0.089770	-0.332501	0.102842	-0.300362	-0.255201	-0.033467	-0.290086	0.021129	-0.325199	0.100815	-0.299866	0.025744	-0.117855	0.340911	-0.124043	0.402389	0.012628	-0.288083	0.006543	-0.252985	-0.142752	-0.210865	0.662509	-0.183758	0.382183	-0.086148	-0.219998	-0.076459	-0.217372	0.186636	-0.242121	0.667160	-0.206786	0.205940	-0.134285	-0.194433	-0.101777	-0.245585	-0.079951	-0.246564	-0.029306	-0.195881	-0.196374	-0.120969
-0.306908	-0.033443	-0.342287	0.016442	-0.292625	-0.029452	-0.267915	-0.109099	0.017249	-0.332335	0.083893	-0.345316	0.056910	-0.279504	-0.005906	-0.245567	-0.314841	0.079859	-0.349322	0.105505	-0.328160	0.067800	-0.293649	-0.062657	0.016235	-0.344784	0.075922	-0.335702	0.089723	-0.282381	-0.007145	-0.260911	-0.285466	0.654602	-0.376805	0.806380	-0.314715	0.000402	-0.245780	-0.110126	-0.021917	-0.286864	0.872074	-0.344358	0.611518	-0.191366	-0.094502	-0.174764	-0.261469	0.281852	-0.280956	0.755861	-0.216886	0.265384	-0.178798	-0.139318	-0.060650	-0.261624	-0.082462	-0.209049	-0.033217	-0.172430	-0.138381	-0.162962
-0.126144	-0.193710	-0.048146	-0.220956	-0.026136	-0.229278	-0.010294	-0.246316	-0.159239	-0.098153	-0.205437	-0.012902	-0.189701	-0.005564	-0.257771	-0.036785	-0.145077	-0.123767	-0.050946	-0.177521	-0.007230	-0.239425	0.018549	-0.250361	-0.138284	-0.167389	-0.146117	-0.049754	-0.207503	0.027704	-0.259370	-0.022903	-0.190900	0.409505	-0.176402	0.502944	-0.046012	-0.217709	-0.039940	-0.246196	-0.133353	-0.205151	0.657696	-0.166993	0.394437	-0.084709	-0.261366	-0.075063	-0.217025	0.163693	-0.177947	0.622634	-0.150605	0.132582	-0.103978	-0.210243	-0.122649	-0.195781	-0.144388	-0.180172	-0.114344	-0.147478	-0.185088	-0.139185
0.294766	-0.563547	0.492787	-0.647923	0.336733	-0.545708	0.230142	-0.317407	-0.566665	0.466281	-0.811189	0.487074	-0.637071	0.395103	-0.473915	0.148280	0.394386	-0.725766	0.531747	-0.757729	0.392245	-0.617730	0.271327	-0.363522	-0.583409	0.306140	-0.643284	0.336144	-0.634441	0.273570	-0.418939	0.095958	0.206416	-0.104184	0.189582	0.017588	0.149664	-0.367406	0.031370	-0.241773	-0.417199	0.075389	0.313017	0.023289	0.168747	-0.138331	-0.167043	-0.128972	0.020962	-0.016016	-0.045200	0.428348	-0.251702	0.200353	-0.124224	-0.098386	-0.219192	-0.023671	-0.229893	-0.140251	0.054866	-0.187646	-0.069835	-0.179439
0.079240	-0.346119	0.065492	-0.343516	-0.039208	-0.179209	-0.149828	-0.118877	-0.398941	0.141593	-0.315406	0.030518	-0.162973	-0.091826	-0.036563	-0.234678	0.137017	-0.415008	0.114109	-0.248022	-0.060879	-0.055385	-0.233021	-0.049853	-0.434825	0.117549	-0.346320	-0.033468	-0.113745	-0.205339	0.049837	-0.261145	0.055732	0.213236	-0.021720	0.501933	-0.224155	0.029860	-0.362593	0.041083	-0.344108	-0.017782	0.581043	-0.228287	0.582990	-0.374121	0.079335	-0.382079	-0.068159	0.030497	-0.145156	0.672824	-0.297930	0.370892	-0.426132	0.055615	-0.271022	-0.105484	-0.205733	-0.237872	0.064470	-0.338428	0.056059	-0.379470
-0.135114	-0.231720	-0.101264	-0.146312	-0.100599	-0.180548	-0.092369	-0.210454	-0.155810	-0.082687	-0.167921	-0.093944	-0.116215	-0.084620	-0.165405	-0.055195	-0.139979	-0.111053	-0.114866	-0.085320	-0.110807	-0.111125	-0.092617	-0.179445	-0.120763	-0.156581	-0.085898	-0.161831	-0.081183	-0.109043	-0.143961	-0.101935	-0.162191	0.409161	-0.181282	0.560337	-0.163217	-0.101278	-0.116481	-0.178674	-0.211209	-0.140108	0.630959	-0.148105	0.433572	-0.179155	-0.165258	-0.140486	-0.133154	0.056210	-0.070203	0.528386	-0.105291	0.168466	-0.119665	-0.176269	-0.195528	-0.116634	-0.260707	-0.093163	-0.150944	-0.128710	-0.181059	-0.163457
0.067229	-0.343478	0.143342	-0.368462	0.083357	-0.386356	0.123052	-0.278040	-0.358079	0.163085	-0.454197	0.206103	-0.390717	0.182164	-0.360144	0.048171	0.110130	-0.412857	0.226651	-0.422917	0.169739	-0.428901	0.133061	-0.345900	-0.315649	0.018498	-0.338544	0.086115	-0.383243	0.116475	-0.357189	0.083496	-0.071921	0.294181	-0.058514	0.327851	0.028495	-0.274738	0.023879	-0.269254	-0.194775	-0.162821	0.626134	-0.142589	0.366112	-0.109658	-0.209949	-0.076523	-0.211457	0.129258	-0.204846	0.635168	-0.263459	0.237153	-0.135275	-0.171609	-0.109080	-0.220068	-0.083605	-0.247094	0.043763	-0.215801	-0.145068	-0.131114
-0.138444	-0.160838	-0.126415	-0.168223	-0.152994	-0.117468	-0.160534	-0.145579	-0.138259	-0.134507	-0.133741	-0.132456	-0.089659	-0.167933	-0.096424	-0.167258	-0.140364	-0.098196	-0.110981	-0.063531	-0.167392	-0.041114	-0.189420	-0.103169	-0.147671	-0.156102	-0.051794	-0.199314	-0.031368	-0.191719	-0.038596	-0.195207	-0.136601	0.425477	-0.245952	0.624181	-0.198800	-0.060810	-0.257713	-0.057562	-0.141030	-0.203863	0.720173	-0.253610	0.548333	-0.238286	-0.054904	-0.264465	-0.196699	0.137074	-0.195887	0.669510	-0.204583	0.233676	-0.220916	-0.089557	-0.128456	-0.190923	-0.140234	-0.219438	-0.094352	-0.191239	-0.113145	-0.194550
-0.375339	0.044599	-0.387344	0.115152	-0.398185	0.065743	-0.378917	-0.008401	0.083493	-0.425553	0.151521	-0.483295	0.178921	-0.421491	0.089388	-0.320023	-0.451801	0.193874	-0.482357	0.219212	-0.425568	0.114654	-0.350975	0.007330	0.144479	-0.415658	0.204700	-0.398352	0.151443	-0.340590	0.000302	-0.242580	-0.382486	0.744673	-0.419416	0.828262	-0.281004	-0.034499	-0.199979	-0.124613	0.042177	-0.296143	0.888098	-0.333395	0.550134	-0.095115	-0.161226	-0.148674	-0.296905	0.275120	-0.265889	0.699332	-0.161475	0.164597	-0.100294	-0.172324	-0.021517	-0.269470	-0.068083	-0.131707	-0.141587	-0.088455	-0.193281	-0.100407
-0.006224	-0.247425	0.038953	-0.277992	0.006721	-0.319522	0.079465	-0.319455	-0.273016	0.044482	-0.328912	0.071951	-0.299426	0.089770	-0.352594	0.056036	-0.037755	-0.276706	0.082953	-0.287375	0.101611	-0.337332	0.107608	-0.341426	-0.201965	-0.063717	-0.267775	0.042176	-0.321145	0.106628	-0.310075	0.030764	-0.139090	0.373700	-0.092183	0.384702	-0.015494	-0.250336	0.015870	-0.260677	-0.102352	-0.234830	0.692150	-0.160443	0.381243	-0.092853	-0.236845	-0.063744	-0.271714	0.214520	-0.262147	0.637525	-0.166017	0.175646	-0.059714	-0.227652	-0.101926	-0.246145	-0.093777	-0.250003	-0.064213	-0.158753	-0.237987	-0.095294
-0.077074	-0.253417	-0.030308	-0.236806	-0.025484	-0.260023	-0.030985	-0.220575	-0.221242	-0.043958	-0.214850	0.017579	-0.227442	0.022537	-0.235988	-0.077279	-0.064906	-0.189257	-0.045401	-0.181028	-0.060655	-0.168207	-0.036683	-0.183700	-0.249799	-0.070148	-0.168491	-0.115213	-0.117756	-0.082083	-0.153511	-0.104540	-0.123501	0.386983	-0.177948	0.527651	-0.160562	-0.089227	-0.145002	-0.121021	-0.174053	-0.207549	0.735054	-0.267379	0.528993	-0.269680	-0.063072	-0.181451	-0.188110	0.167463	-0.252693	0.719055	-0.281991	0.327233	-0.259706	-0.125901	-0.157078	-0.201136	-0.124330	-0.265962	-0.003915	-0.317713	-0.082373	-0.223139
0.100342	-0.377565	0.256127	-0.483562	0.266650	-0.524450	0.283863	-0.336214	-0.359451	0.217807	-0.561780	0.306069	-0.565149	0.373198	-0.553179	0.168942	0.120582	-0.471335	0.307309	-0.576555	0.382834	-0.665401	0.329255	-0.441507	-0.322331	0.054606	-0.456679	0.225370	-0.681335	0.339721	-0.570642	0.219201	-0.046002	0.186234	0.028068	0.096500	0.217512	-0.512769	0.237252	-0.388482	-0.211310	-0.155780	0.436415	0.008462	0.107169	0.084708	-0.378227	0.087567	-0.192088	0.124106	-0.122619	0.470441	-0.156104	0.065835	0.071594	-0.281482	-0.056657	-0.177415	-0.131023	-0.147697	-0.026996	-0.046972	-0.278992	0.038569
-0.347742	0.062557	-0.314868	0.048734	-0.174763	-0.174975	-0.037046	-0.250140	0.121841	-0.325394	0.036510	-0.232523	-0.117585	-0.020250	-0.282184	0.066587	-0.394404	0.124125	-0.282287	-0.077912	-0.034433	-0.337774	0.130581	-0.387623	0.103934	-0.361391	0.000768	-0.097423	-0.313696	0.155708	-0.475927	0.185017	-0.361599	0.538519	-0.230920	0.376065	0.124444	-0.479144	0.292558	-0.568814	-0.036841	-0.230796	0.602917	0.066869	0.073063	0.298998	-0.654047	0.296004	-0.262249	0.124564	-0.058244	0.365144	0.202339	-0.256852	0.343518	-0.581517	-0.116698	-0.158404	-0.259206	0.045847	-0.433920	0.261440	-0.626468	0.217499
-0.296418	-0.007868	-0.296725	-0.016126	-0.210216	-0.125586	-0.126272	-0.174000	0.058181	-0.358814	0.059711	-0.279872	-0.054284	-0.160981	-0.158810	-0.116126	-0.387798	0.148109	-0.359462	0.070011	-0.219780	-0.075318	-0.122111	-0.187948	0.097692	-0.393192	0.091560	-0.315026	0.013052	-0.182726	-0.134381	-0.135553	-0.359413	0.673231	-0.384512	0.731176	-0.213681	-0.116124	-0.132849	-0.178165	-0.028986	-0.279002	0.831775	-0.242999	0.491373	-0.130223	-0.198806	-0.094627	-0.232949	0.166881	-0.209606	0.646077	-0.143046	0.182169	-0.094265	-0.197584	-0.133722	-0.186776	-0.124361	-0.131626	-0.159887	-0.116432	-0.228139	-0.103987
-0.136645	-0.179738	-0.107861	-0.207048	-0.057156	-0.208064	-0.084826	-0.203330	-0.112883	-0.179925	-0.106025	-0.097754	-0.156973	-0.051303	-0.182717	-0.103165	-0.163304	-0.060101	-0.161799	-0.070309	-0.127583	-0.081380	-0.141896	-0.144236	-0.120442	-0.178717	-0.068769	-0.251366	-0.022225	-0.192031	-0.086517	-0.206950	-0.144284	0.447695	-0.232495	0.644826	-0.206618	-0.019491	-0.227192	-0.094308	-0.202615	-0.164715	0.685035	-0.205157	0.517271	-0.209733	-0.075003	-0.164036	-0.145246	0.073448	-0.125835	0.602476	-0.160527	0.233097	-0.208065	-0.127085	-0.195284	-0.125545	-0.227844	-0.119885	-0.115013	-0.185319	-0.129342	-0.224592
-0.046342	-0.256769	0.018523	-0.261218	0.008688	-0.255981	0.012677	-0.233358	-0.232207	0.002098	-0.254160	0.028415	-0.272865	0.066207	-0.286000	-0.030363	-0.069147	-0.239588	0.042392	-0.249865	0.068035	-0.274555	0.047247	-0.267859	-0.197934	-0.058761	-0.237820	-0.010659	-0.298638	0.029549	-0.256842	0.005840	-0.107632	0.335247	-0.073521	0.384209	0.006870	-0.263495	-0.000884	-0.252713	-0.185510	-0.142946	0.591872	-0.087616	0.348006	-0.039641	-0.262364	-0.044484	-0.159144	0.108100	-0.121285	0.532189	-0.098261	0.051979	-0.030411	-0.270179	-0.140090	-0.154121	-0.220247	-0.131514	-0.157977	-0.071779	-0.262515	-0.048822
-0.274047	-0.053072	-0.331613	0.017100	-0.323744	0.038757	-0.344379	-0.021711	-0.016472	-0.317843	0.099098	-0.401141	0.107128	-0.402878	0.106924	-0.354911	-0.259656	0.026999	-0.382498	0.169397	-0.456574	0.216021	-0.432569	0.066286	-0.065555	-0.227713	0.106066	-0.379106	0.198666	-0.420375	0.113522	-0.352146	-0.167937	0.558436	-0.309683	0.832795	-0.365353	0.105613	-0.395158	0.039204	-0.139124	-0.116989	0.767503	-0.376659	0.698457	-0.269361	-0.006504	-0.302038	-0.074324	0.129086	-0.146638	0.720436	-0.303151	0.332186	-0.262539	-0.037024	-0.187184	-0.112932	-0.154440	-0.187917	-0.012964	-0.239863	-0.071619	-0.216476
-0.277390	-0.028205	-0.361811	0.022528	-0.351241	0.014373	-0.350798	-0.021773	0.011314	-0.351717	0.127657	-0.429256	0.135868	-0.417038	0.087401	-0.343967	-0.291175	0.063460	-0.394699	0.167324	-0.442474	0.182040	-0.423832	0.040127	0.013911	-0.298124	0.126843	-0.399127	0.225658	-0.426442	0.108204	-0.349796	-0.256929	0.639407	-0.401707	0.881711	-0.400854	0.080811	-0.322415	-0.008523	-0.058252	-0.239008	0.887475	-0.386240	0.720125	-0.256461	-0.037912	-0.279208	-0.214746	0.245655	-0.288375	0.817995	-0.285612	0.327142	-0.240962	-0.013792	-0.091857	-0.197872	-0.077417	-0.214395	-0.016697	-0.235144	-0.056041	-0.246220
0.006473	-0.309346	0.093403	-0.327740	0.092311	-0.383495	0.151826	-0.288130	-0.302903	0.088978	-0.384221	0.126499	-0.385533	0.181292	-0.394901	0.078610	0.023126	-0.285562	0.116431	-0.345821	0.159591	-0.404567	0.133075	-0.313221	-0.233218	-0.038766	-0.301215	0.025732	-0.373980	0.129626	-0.362086	0.063232	-0.131970	0.302062	-0.077417	0.364617	0.015412	-0.318089	0.036264	-0.297001	-0.159050	-0.169406	0.615107	-0.140937	0.332464	-0.091498	-0.269895	-0.019772	-0.197047	0.167147	-0.209225	0.606489	-0.173909	0.162831	-0.052999	-0.222807	-0.085614	-0.205550	-0.115059	-0.184537	-0.031900	-0.153497	-0.211705	-0.084015
-0.166981	-0.174499	-0.136370	-0.156009	-0.171787	-0.070026	-0.231027	-0.091037	-0.154498	-0.130475	-0.059022	-0.214413	-0.024768	-0.229880	-0.032706	-0.251097	-0.123522	-0.084621	-0.199889	-0.018198	-0.258914	0.040752	-0.250879	-0.028910	-0.137235	-0.145990	-0.049068	-0.263676	0.036534	-0.251664	0.008923	-0.241139	-0.136622	0.430351	-0.223414	0.686913	-0.274745	-0.001973	-0.275117	-0.031010	-0.196753	-0.113014	0.722382	-0.249371	0.561719	-0.273541	-0.073330	-0.257280	-0.094051	0.077380	-0.127902	0.616890	-0.231190	0.272056	-0.212915	-0.097532	-0.217644	-0.083227	-0.214584	-0.151643	-0.078515	-0.153867	-0.152518	-0.193383
-0.037485	-0.275801	-0.051710	-0.234620	-0.141758	-0.054655	-0.223840	-0.101601	-0.317033	-0.009317	-0.223212	-0.099991	-0.058997	-0.253364	0.008820	-0.273156	0.031417	-0.280999	-0.016510	-0.097888	-0.236595	0.073029	-0.311962	0.006159	-0.372776	0.061712	-0.206546	-0.156185	0.046556	-0.340732	0.110416	-0.370048	0.069458	0.255116	-0.102627	0.602638	-0.289518	0.109213	-0.436389	0.131382	-0.312211	-0.013856	0.625186	-0.229673	0.711446	-0.449179	0.172016	-0.425600	-0.041018	-0.003314	-0.130915	0.684665	-0.350860	0.463232	-0.479666	0.095025	-0.249282	-0.087257	-0.182669	-0.223039	0.059079	-0.372699	0.069521	-0.402622
-0.128179	-0.171027	-0.149183	-0.158431	-0.170616	-0.111215	-0.185325	-0.154306	-0.155603	-0.142406	-0.092409	-0.138808	-0.069801	-0.191644	-0.086555	-0.217367	-0.130071	-0.123731	-0.168759	-0.024959	-0.241114	0.034496	-0.247450	-0.031911	-0.159805	-0.168632	-0.056758	-0.276198	0.082860	-0.255273	0.016476	-0.253342	-0.162769	0.474637	-0.286827	0.719821	-0.355674	0.080003	-0.315544	-0.010154	-0.124218	-0.234295	0.796868	-0.360360	0.714280	-0.353612	0.043429	-0.305579	-0.191387	0.192228	-0.288074	0.798282	-0.381725	0.402903	-0.359881	0.018356	-0.147109	-0.239338	-0.081531	-0.285135	0.089831	-0.346643	-0.020470	-0.289135
-0.255780	-0.081299	-0.256574	-0.055833	-0.219381	-0.089980	-0.215531	-0.125981	-0.038900	-0.272555	0.034829	-0.264334	0.002097	-0.241452	-0.072941	-0.217379	-0.268240	0.044236	-0.320626	0.066793	-0.316953	0.058859	-0.257116	-0.061884	-0.005180	-0.288313	0.061077	-0.342519	0.119603	-0.310366	0.049886	-0.267040	-0.246564	0.583027	-0.351264	0.787616	-0.330653	0.079200	-0.289147	-0.059935	-0.065222	-0.270894	0.825200	-0.322199	0.647920	-0.239941	-0.045946	-0.233802	-0.210934	0.183049	-0.210902	0.704462	-0.254797	0.278440	-0.222960	-0.060343	-0.149930	-0.212370	-0.125756	-0.191404	-0.041871	-0.216275	-0.097048	-0.206493
-0.102874	-0.214624	-0.109107	-0.163512	-0.146085	-0.143214	-0.124447	-0.190021	-0.176056	-0.100017	-0.186091	-0.098778	-0.112665	-0.111152	-0.168938	-0.115793	-0.122092	-0.139144	-0.085268	-0.100938	-0.081541	-0.096906	-0.098781	-0.164698	-0.167118	-0.158710	-0.124142	-0.163283	-0.088824	-0.117111	-0.123003	-0.128718	-0.182118	0.456907	-0.223350	0.574023	-0.164739	-0.092640	-0.162070	-0.144203	-0.071611	-0.272150	0.772782	-0.279820	0.568240	-0.238616	-0.061990	-0.195812	-0.269067	0.212296	-0.294731	0.782309	-0.320367	0.330722	-0.260886	-0.104455	-0.120553	-0.279652	-0.053919	-0.292055	0.033444	-0.291570	-0.085829	-0.257648
0.120236	-0.391536	0.171380	-0.409584	0.075932	-0.337288	0.016139	-0.243625	-0.444650	0.215215	-0.502258	0.219837	-0.320900	0.078671	-0.264588	-0.033132	0.199805	-0.489556	0.263772	-0.421465	0.085073	-0.269326	0.028358	-0.177489	-0.440938	0.144599	-0.426589	0.110984	-0.338439	-0.003613	-0.198115	-0.082425	0.047953	0.169199	0.042872	0.323508	-0.010795	-0.175099	-0.140414	-0.089204	-0.317611	-0.038575	0.544195	-0.112589	0.387275	-0.242574	-0.065769	-0.216615	-0.090032	0.067570	-0.120876	0.611238	-0.274026	0.288075	-0.227539	-0.074034	-0.207520	-0.102998	-0.178781	-0.223920	0.026991	-0.269517	-0.063262	-0.201942
-0.173794	-0.098739	-0.125329	-0.106953	-0.107939	-0.197033	-0.019555	-0.214289	-0.083900	-0.125626	-0.146358	-0.068295	-0.179195	0.030877	-0.284331	0.022456	-0.159324	-0.136999	-0.052823	-0.200712	0.053770	-0.314449	0.112300	-0.334455	-0.084341	-0.190336	-0.176383	0.012377	-0.377510	0.155439	-0.418236	0.099892	-0.221807	0.442932	-0.124094	0.302976	0.083885	-0.415570	0.193478	-0.411414	-0.112031	-0.166443	0.557631	0.024573	0.125310	0.126051	-0.495340	0.120521	-0.204854	0.114147	-0.074306	0.418686	0.046442	-0.094703	0.185597	-0.418384	-0.146167	-0.113707	-0.246022	-0.060371	-0.273907	0.082976	-0.415907	0.104999
-0.209676	-0.100569	-0.293621	-0.004303	-0.334667	0.013629	-0.343001	-0.010256	-0.025771	-0.309787	0.111808	-0.400880	0.095539	-0.418219	0.071824	-0.332190	-0.288294	0.063053	-0.409256	0.178496	-0.429468	0.191094	-0.429355	0.041123	-0.013980	-0.297989	0.130720	-0.406126	0.204975	-0.418054	0.092599	-0.321684	-0.251663	0.635285	-0.369694	0.866449	-0.407979	0.123927	-0.374568	0.030799	-0.064891	-0.244844	0.840888	-0.379836	0.707444	-0.301228	0.036130	-0.294428	-0.190301	0.221844	-0.200677	0.754824	-0.288120	0.307536	-0.277478	-0.035399	-0.119409	-0.185978	-0.102428	-0.197416	-0.024990	-0.201182	-0.040202	-0.234463
-0.289993	-0.047868	-0.333898	0.011051	-0.318905	0.014081	-0.338175	-0.029823	0.000701	-0.354461	0.091434	-0.380503	0.124041	-0.388839	0.061719	-0.287837	-0.316900	0.069465	-0.400997	0.152231	-0.406506	0.150845	-0.349074	-0.012954	-0.013836	-0.300789	0.118527	-0.380332	0.159694	-0.369702	0.081490	-0.292719	-0.263602	0.606109	-0.356901	0.853708	-0.342710	0.047838	-0.310475	-0.018948	-0.033356	-0.211464	0.822462	-0.319045	0.598214	-0.209156	-0.047523	-0.229385	-0.200156	0.190346	-0.190079	0.716646	-0.230508	0.303283	-0.201695	-0.102950	-0.133571	-0.172184	-0.174709	-0.128653	-0.065951	-0.168966	-0.093616	-0.210437
-0.315799	0.009160	-0.329169	-0.021250	-0.248855	-0.090667	-0.172593	-0.150271	0.056198	-0.338229	0.081651	-0.314466	-0.003672	-0.184585	-0.145176	-0.161166	-0.377141	0.104923	-0.327797	0.060128	-0.243794	-0.077209	-0.110667	-0.180265	0.077807	-0.385184	0.109276	-0.306907	-0.002656	-0.145043	-0.169548	-0.064324	-0.370642	0.659543	-0.395964	0.717008	-0.165238	-0.126336	-0.057273	-0.246471	0.003083	-0.354964	0.870243	-0.234835	0.447394	-0.045589	-0.266232	-0.040446	-0.280623	0.248474	-0.236042	0.616729	-0.104998	0.131262	-0.048393	-0.252675	-0.115936	-0.230996	-0.137419	-0.131458	-0.168953	-0.070371	-0.248941	-0.060752
-0.067565	-0.249729	-0.065979	-0.198847	-0.131073	-0.152023	-0.162510	-0.175207	-0.242286	-0.043007	-0.191457	-0.089398	-0.079786	-0.132630	-0.073330	-0.171658	-0.051386	-0.191303	-0.081953	-0.138682	-0.145102	-0.012500	-0.192685	-0.096338	-0.215691	-0.099532	-0.120679	-0.189116	-0.022007	-0.207931	-0.031125	-0.200656	-0.120332	0.408808	-0.189966	0.621373	-0.226351	-0.018627	-0.256915	-0.058788	-0.168158	-0.166905	0.710129	-0.222132	0.580356	-0.271789	-0.045357	-0.289477	-0.172176	0.117233	-0.183221	0.672068	-0.256097	0.263762	-0.272383	-0.070754	-0.155919	-0.173393	-0.159572	-0.196481	-0.048733	-0.237963	-0.099819	-0.227246
-0.150290	-0.154734	-0.163356	-0.123519	-0.140802	-0.133889	-0.182414	-0.138875	-0.133074	-0.158846	-0.124821	-0.149502	-0.048917	-0.214838	-0.086095	-0.172236	-0.133850	-0.076522	-0.176562	-0.017114	-0.231986	0.028290	-0.232531	-0.087779	-0.127360	-0.173536	-0.038989	-0.251477	0.034702	-0.261739	-0.017936	-0.238681	-0.155062	0.429053	-0.222692	0.693251	-0.300762	0.012979	-0.210897	-0.066803	-0.179936	-0.123399	0.718186	-0.293165	0.614014	-0.250035	-0.046603	-0.235651	-0.166581	0.122606	-0.219782	0.724317	-0.288283	0.287222	-0.235353	-0.097428	-0.201943	-0.170999	-0.128261	-0.260815	0.001427	-0.271466	-0.058895	-0.223626
-0.015239	-0.255686	0.077765	-0.304356	0.096965	-0.385112	0.139749	-0.320930	-0.266941	0.049100	-0.370171	0.156960	-0.399094	0.232337	-0.417862	0.094600	0.024340	-0.304305	0.159843	-0.401536	0.205397	-0.463575	0.209031	-0.407446	-0.241155	-0.014208	-0.332503	0.078272	-0.437585	0.174901	-0.446691	0.119084	-0.114712	0.312082	-0.073237	0.303331	0.079971	-0.360002	0.101319	-0.333535	-0.123146	-0.194027	0.622565	-0.112861	0.297724	-0.062801	-0.294905	-0.016296	-0.277480	0.230587	-0.234505	0.620725	-0.200540	0.149849	-0.038609	-0.281282	-0.024457	-0.276280	-0.068355	-0.244098	0.004955	-0.143416	-0.218810	-0.037627
-0.119773	-0.156242	-0.092945	-0.176227	-0.079100	-0.193501	-0.053016	-0.189108	-0.162493	-0.083496	-0.170575	-0.051013	-0.165278	-0.024093	-0.210527	-0.085229	-0.084252	-0.183010	-0.014144	-0.185417	0.000355	-0.257889	0.030341	-0.200354	-0.174718	-0.092175	-0.212251	0.023666	-0.326772	0.075376	-0.305888	-0.034004	-0.122957	0.352430	-0.088788	0.366184	0.095613	-0.328746	0.074467	-0.306707	-0.201526	-0.124097	0.556512	-0.014318	0.266018	0.021664	-0.370213	-0.006231	-0.098574	0.054326	-0.071540	0.516502	-0.040947	0.033008	-0.010817	-0.291389	-0.215480	-0.109588	-0.246263	-0.104587	-0.184861	-0.028402	-0.320020	-0.007460
0.159089	-0.449742	0.364856	-0.539962	0.336267	-0.569059	0.344318	-0.409420	-0.442283	0.353493	-0.671566	0.428840	-0.697097	0.511077	-0.638252	0.275643	0.221485	-0.579300	0.412271	-0.714805	0.470455	-0.759652	0.461908	-0.524317	-0.397767	0.140311	-0.540400	0.284529	-0.703222	0.387958	-0.609062	0.231985	0.006127	0.057408	0.111402	0.028966	0.248686	-0.498714	0.217762	-0.405734	-0.285216	-0.052854	0.363449	0.042284	0.061475	0.039927	-0.355523	0.062711	-0.086187	0.039304	-0.040933	0.396051	-0.174281	0.089924	0.029859	-0.253093	-0.179863	-0.083357	-0.185974	-0.146908	-0.026628	-0.045571	-0.234124	-0.021192
-0.127530	-0.219177	-0.097797	-0.179769	-0.155888	-0.148146	-0.174201	-0.114704	-0.230544	-0.067621	-0.134334	-0.099819	-0.088864	-0.214813	-0.066413	-0.201846	-0.087967	-0.167271	-0.117143	-0.103400	-0.195804	0.015423	-0.243191	-0.042270	-0.195135	-0.093559	-0.114286	-0.227076	0.066486	-0.315604	0.058712	-0.290324	-0.068917	0.397700	-0.181508	0.682355	-0.340957	0.062585	-0.331400	0.030051	-0.208435	-0.114334	0.695369	-0.319966	0.685233	-0.407423	0.087319	-0.319177	-0.093614	0.062014	-0.160450	0.762182	-0.357358	0.413041	-0.362227	-0.020250	-0.214065	-0.115649	-0.173903	-0.217065	0.012322	-0.344780	0.006303	-0.307836
-0.066636	-0.239071	-0.023554	-0.216244	-0.077204	-0.196061	-0.096873	-0.164126	-0.276646	0.032179	-0.248413	-0.029404	-0.168137	-0.042810	-0.178392	-0.091148	-0.014820	-0.250144	0.034698	-0.205639	-0.020766	-0.202475	-0.052136	-0.196812	-0.226746	-0.046521	-0.222586	-0.046810	-0.187184	-0.028142	-0.142592	-0.096496	-0.066988	0.345014	-0.130357	0.492523	-0.110004	-0.150754	-0.109418	-0.150617	-0.220104	-0.160386	0.691928	-0.203911	0.505895	-0.233052	-0.114651	-0.192856	-0.201691	0.129076	-0.235137	0.669633	-0.251737	0.278597	-0.225247	-0.163710	-0.145612	-0.224588	-0.124866	-0.242402	-0.016797	-0.231534	-0.107630	-0.218468
-0.101027	-0.143905	-0.085101	-0.166514	-0.004715	-0.309789	0.110549	-0.319516	-0.135829	-0.085246	-0.192859	-0.019174	-0.310149	0.117131	-0.413197	0.082840	-0.150578	-0.139970	-0.049053	-0.241270	0.115511	-0.424410	0.192774	-0.381918	-0.071746	-0.183343	-0.133085	-0.030083	-0.352305	0.155460	-0.432493	0.152094	-0.258434	0.442818	-0.170877	0.410685	0.048820	-0.377384	0.171618	-0.414616	-0.074430	-0.259015	0.723242	-0.101475	0.247251	0.071765	-0.437502	0.149326	-0.272360	0.204129	-0.233625	0.579716	-0.052894	0.005410	0.102106	-0.432420	-0.079279	-0.244696	-0.090366	-0.178285	-0.178230	-0.025346	-0.394793	0.068141
-0.147773	-0.143308	-0.159632	-0.097579	-0.196162	-0.101939	-0.196475	-0.155387	-0.115405	-0.176499	-0.048833	-0.201009	-0.035776	-0.219569	-0.065010	-0.188314	-0.200346	-0.058719	-0.204724	-0.005258	-0.247713	0.014477	-0.233658	-0.075146	-0.119699	-0.185948	-0.001560	-0.256222	0.028796	-0.249344	-0.013159	-0.229430	-0.166150	0.466475	-0.245110	0.653230	-0.231239	-0.044514	-0.210056	-0.095925	-0.148041	-0.168962	0.710412	-0.238211	0.565337	-0.222371	-0.080614	-0.170013	-0.174827	0.100760	-0.153517	0.636815	-0.168996	0.234391	-0.196505	-0.152016	-0.162909	-0.156302	-0.180918	-0.145369	-0.101327	-0.175281	-0.145989	-0.165390
-0.111056	-0.185274	-0.103643	-0.171728	-0.137313	-0.165176	-0.089357	-0.187120	-0.190708	-0.105280	-0.142588	-0.079852	-0.133108	-0.113712	-0.145222	-0.160499	-0.111138	-0.125591	-0.096775	-0.143264	-0.078940	-0.113614	-0.106991	-0.138102	-0.161721	-0.132618	-0.156149	-0.123099	-0.101390	-0.141588	-0.100134	-0.162099	-0.163563	0.425528	-0.168405	0.575841	-0.151444	-0.097779	-0.191535	-0.081315	-0.133020	-0.239247	0.748428	-0.222858	0.515355	-0.196536	-0.084326	-0.212308	-0.233588	0.206630	-0.294355	0.697998	-0.253091	0.248547	-0.218966	-0.136817	-0.138880	-0.255811	-0.068456	-0.215303	-0.059602	-0.201984	-0.130350	-0.197730
0.021416	-0.319703	0.117367	-0.338587	0.072167	-0.365474	0.070429	-0.312693	-0.310574	0.086873	-0.376551	0.152141	-0.324492	0.142445	-0.349671	0.069925	0.054419	-0.328359	0.112270	-0.327153	0.116379	-0.340574	0.098545	-0.307894	-0.298119	-0.036035	-0.298798	0.038425	-0.313528	0.062191	-0.274900	0.008518	-0.030495	0.239245	-0.033106	0.386581	-0.042118	-0.214484	-0.037864	-0.194616	-0.297229	-0.065358	0.550967	-0.127771	0.427889	-0.162994	-0.166451	-0.153922	-0.082054	0.036346	-0.131335	0.583460	-0.203242	0.247210	-0.160613	-0.150620	-0.213395	-0.110962	-0.187546	-0.174952	-0.005559	-0.190848	-0.145412	-0.147603
-0.227149	-0.105393	-0.280452	-0.045296	-0.276462	-0.019049	-0.320720	-0.052194	-0.067576	-0.282884	0.074629	-0.326344	0.061519	-0.371944	0.044890	-0.320830	-0.231892	0.017156	-0.364632	0.154683	-0.421115	0.189965	-0.439409	0.060141	-0.054410	-0.274056	0.091341	-0.425062	0.237520	-0.475765	0.167196	-0.363029	-0.243381	0.595848	-0.366096	0.901101	-0.452983	0.169809	-0.439003	0.096462	-0.113232	-0.194119	0.863920	-0.405873	0.812247	-0.382235	0.113670	-0.362189	-0.151408	0.198105	-0.241889	0.823579	-0.368738	0.395322	-0.367418	0.046523	-0.119232	-0.184347	-0.074835	-0.259072	0.040522	-0.303623	0.026655	-0.302474
-0.165566	-0.152544	-0.200788	-0.107353	-0.250681	-0.041835	-0.285424	-0.060249	-0.124372	-0.209542	-0.017478	-0.239197	-0.000563	-0.322448	0.077508	-0.333402	-0.204075	-0.037698	-0.295935	0.054967	-0.318818	0.110538	-0.411094	0.031374	-0.090355	-0.176806	0.004322	-0.320855	0.179628	-0.372297	0.132521	-0.400384	-0.174964	0.509632	-0.283148	0.800580	-0.376335	0.154032	-0.428676	0.113108	-0.136508	-0.164932	0.804959	-0.362224	0.774044	-0.405850	0.114562	-0.386928	-0.135466	0.173084	-0.198110	0.748368	-0.344121	0.446215	-0.424555	0.070588	-0.192080	-0.160497	-0.142138	-0.206528	0.043042	-0.343683	0.078102	-0.361905
