0.187495	0.366542	-0.735927	0.266874	-0.239678	0.333128	0.092582	0.318698	0.200148	-0.282961	0.184952	0.784081	-0.044702	-0.187346	-0.284360	-1.306573	-0.291375	0.427917	-0.168716	-1.413662	0.583807	-0.160428	0.039834	1.588285	-0.338444	-0.016024	0.317225	0.656368	-0.222637	-0.996733	0.241353	-0.699708	0.721087	0.227125	-0.578981	-0.260910	0.196579	0.521235	-0.119931	-0.392147	0.347388	-0.962123	0.489096	0.291055	-0.714080	0.304047	-0.063410	-0.418143	-0.125685	0.600386	-1.402206	0.507447	0.121596	-0.710013	0.189669	1.860621	-0.106792	0.070610	0.420216	0.043771	-0.248374	0.699009	0.049232	-1.588310
-0.937834	0.733050	-0.885705	0.083252	0.164544	0.068953	0.080826	-0.733622	-0.007772	0.253844	0.534838	-0.292854	-0.301972	-0.542592	0.442067	0.139161	0.025485	-0.147712	-0.427894	0.107816	0.143025	0.452244	-0.678038	0.171377	0.330053	0.153487	0.452827	-0.163280	-0.205778	-0.464618	0.833010	-0.377479	-0.202879	0.470180	-0.805572	0.235837	-0.230875	1.295714	-1.240818	0.151183	0.071889	-1.590201	1.295485	-0.069600	-0.272145	-0.148109	-0.144494	0.297714	0.664923	0.855095	-0.680528	-0.720698	0.284556	-0.428887	0.105028	0.355951	-0.369490	-0.292906	0.098652	0.191393	0.094262	-0.158423	0.155734	-0.210445
0.571242	-0.233331	-0.583746	-0.276927	0.060806	1.217712	-0.770305	0.495301	-0.358316	0.300781	0.604669	0.181952	0.011625	-0.293119	0.228637	-0.665410	0.229927	0.387588	-0.767995	-0.916073	0.220376	-0.787829	-0.059084	0.747298	-0.922997	0.300307	-0.245822	0.325170	0.377678	-0.336765	1.467598	-0.912221	-0.160794	0.158881	1.540427	-1.069819	-0.546529	0.589223	-0.676622	0.842024	0.599978	-0.692848	-1.150515	1.004019	0.231295	0.344912	-0.415766	0.061601	0.137775	0.131070	1.011244	-0.942806	0.380337	-0.100052	0.125814	0.139507	-0.855965	0.247702	-0.641081	0.464330	-0.327907	-0.791063	0.363107	-0.169879
1.115064	-1.508762	1.131021	1.290415	-2.654765	-1.105303	1.520351	-0.349213	0.398773	-0.629817	-1.037907	-1.408039	0.066408	-0.126833	1.322721	-0.724362	0.489112	-0.514255	1.353693	-1.398526	0.402543	0.735660	1.084266	0.470649	-0.106762	-2.020459	2.046622	1.897386	-1.098890	-1.036444	-1.859915	0.005176	-0.977661	-0.229145	-0.312617	-1.797372	0.086499	0.361288	-1.036967	-0.500906	0.997072	-0.486141	-0.563953	1.118883	1.273592	-1.072593	-0.302045	-0.865608	-0.848202	-0.525406	-0.255181	-1.031529	-0.732471	-1.406307	0.059114	1.022779	1.696049	0.061118	-0.803822	0.174866	-0.907928	-0.812619	0.156658	-0.827448
0.901710	-1.292206	-0.360126	-0.007495	-0.359348	0.337289	0.214964	0.157122	0.210900	-0.056150	0.445088	0.331301	-0.149318	-0.657169	0.552739	-0.723006	-0.337356	-0.982381	0.756694	-0.964174	0.339235	1.177389	0.335941	-0.163362	0.419023	0.560064	0.240221	0.650870	-0.048734	-0.567646	-0.832235	-0.229774	0.034616	1.087692	-1.845955	1.002275	-0.565530	0.125362	-0.105257	-0.552142	-0.367971	-0.042390	0.371664	0.372406	0.311481	0.400319	-0.129723	-0.206464	-0.401941	-0.497341	0.199607	-0.744332	0.295521	-0.105254	0.507883	0.273007	-0.783936	1.641985	-1.604914	0.585144	0.427189	-0.483848	-1.643996	2.150553
0.456766	-1.031900	1.014126	-0.304001	-0.314460	0.616801	-0.122148	-1.003783	-1.977113	0.658918	-0.162497	0.407807	-0.323721	0.728907	-0.449272	0.206901	1.512767	0.649919	-0.224079	0.098838	0.006322	-0.101726	-0.541730	0.462700	-0.880283	-0.112958	0.225974	0.251510	0.232412	-0.804324	0.969537	-0.489290	-0.283940	0.197535	-0.072867	-0.456086	0.919939	-0.325131	0.007954	-0.014550	-0.053809	0.104079	0.736056	-0.911768	0.143708	-0.418727	0.011305	0.132059	0.473822	0.176358	-0.355350	-0.013538	0.166236	0.373262	0.313297	-0.545790	-0.585581	0.269180	-0.170133	0.849050	-0.769756	-0.298556	-0.360236	-0.097156
-0.563824	-0.001590	0.535963	-0.951173	0.496959	-0.232942	1.021275	-0.772259	0.211414	0.082907	-0.836105	0.959336	-0.683595	-0.796149	-0.648744	0.492461	0.498298	-0.544656	0.446018	-0.340399	0.069591	0.012460	0.033047	0.380449	-0.203444	0.228063	0.293421	-0.833969	0.975446	-0.227161	0.282566	-0.368821	-0.338595	0.482462	-0.021725	0.961130	-1.342587	0.289473	-0.375848	-0.238600	-0.069754	-0.366892	0.400465	-0.905469	0.674725	0.344225	-0.733704	0.462448	-0.940913	0.622449	-0.689885	0.610265	-0.431854	-0.651824	0.607589	-1.116162	0.567937	-1.005975	1.108886	-0.989973	0.386404	-0.103592	-0.020211	0.279560
0.277128	-1.195667	1.213036	-1.474133	0.894486	0.757803	-0.283269	-0.231584	0.085360	0.826722	-1.008418	0.953600	0.003114	-1.252345	-0.194183	0.331202	0.753461	-0.728036	0.998366	-0.649672	0.841316	-0.032906	0.475970	-0.434134	-0.013886	0.158883	-0.557952	0.253333	-0.022772	0.026452	-0.561498	-0.261310	-0.855034	0.661737	0.303772	-0.330071	0.236524	-0.971845	1.173412	-0.033303	0.567501	-0.601917	-0.319264	0.598912	-0.471083	1.043481	-0.516283	-0.240245	-0.073846	0.014115	-0.349342	-0.239970	0.158418	0.199000	-0.426002	0.411177	0.166373	-0.655426	0.414946	0.399061	0.318190	-0.985151	1.604225	-1.148761
0.490343	-1.049319	1.447850	-2.007153	0.944971	-0.501074	0.407269	0.094446	0.322059	-0.014540	0.043564	0.205668	0.379226	-0.135773	-0.093081	-0.390729	-0.691443	1.240513	-1.341206	0.033720	0.270525	-0.252053	0.441197	0.567778	0.091673	-0.405420	-0.099633	-0.510946	0.533072	-0.056405	-0.640108	-0.130947	-0.522433	0.380684	-0.141835	0.163488	-0.331204	0.195662	-0.032005	0.254014	0.369848	-0.929351	0.138915	-0.429650	0.326751	-0.321078	-0.378632	0.256054	1.052507	-0.274595	-0.146817	-0.111831	0.316918	-0.471845	0.773518	-0.200020	-0.209892	-0.389851	-0.348985	0.246230	-0.460984	0.729583	-1.904700	0.894850
1.522106	0.136874	-0.980993	0.738740	-1.158461	0.900997	-0.412850	-0.202440	-1.527732	-0.019129	0.218288	-0.696465	0.503781	-0.588307	0.602351	0.407020	0.371462	0.101802	-0.358733	0.821354	-0.281061	-0.054381	0.100333	-0.479342	-0.390979	0.207980	0.237465	-0.398908	0.550480	-0.032966	-0.264344	0.891646	0.833297	0.063788	-0.206247	0.058375	-0.544509	-0.301389	-0.369239	-0.850579	0.115673	-0.373031	0.177096	-0.498009	0.695206	0.450273	0.085288	-0.120936	-0.061858	0.641199	-0.584292	0.120481	0.094923	-0.495179	0.039769	0.009437	0.238449	-0.514508	0.435324	0.061900	-0.616220	0.248357	-0.270470	0.167477
0.465496	-0.689197	0.357511	0.452517	-0.822540	0.496100	0.309195	-0.367277	-0.229826	-0.112287	0.158927	-0.302064	0.581096	-0.407145	-0.275948	0.116870	-0.129439	0.283423	-0.285802	0.096832	-0.332570	0.217225	-0.077338	0.535357	-0.448599	0.001037	0.027788	0.337526	-0.107349	-0.196320	0.234933	-0.394118	-0.080799	0.484513	-0.342953	-0.477222	0.609109	-0.678821	0.768806	-0.588383	1.379638	-0.745742	-0.326537	0.803989	-1.094185	0.488485	-0.329716	0.230492	-1.286186	0.597958	0.138906	-0.915883	1.722871	-0.650123	0.181956	-0.289936	0.724666	-1.188179	0.756020	-0.046559	-0.571983	0.351690	-0.320283	0.780347
-0.054819	0.184429	-0.646850	0.490018	-0.948222	0.555432	-0.645758	0.478591	-0.336138	-0.996139	1.157166	-0.586197	-0.146080	0.123971	0.364374	-0.919774	0.650664	0.413802	-0.513047	-0.149353	0.383869	-0.144330	-0.028424	-0.442105	-0.431604	0.084198	-0.216186	0.126328	-0.963654	0.385684	-0.790060	0.456603	0.916846	-0.978876	0.000116	-0.210137	1.347768	-0.853557	-0.093138	0.773375	-1.160989	0.853091	-0.770405	0.857674	-0.412364	-0.523108	0.654097	-1.270242	0.307619	-0.941235	0.289900	-0.751073	0.798400	-0.210751	-0.767096	1.107383	-0.090942	0.090394	-0.584143	0.923444	-0.371485	-0.823005	0.419524	-0.833363
-1.002937	1.291150	-0.111405	-0.596109	0.835762	-0.593752	-0.359193	0.927792	-0.241635	-0.431013	0.519996	0.424514	-0.497745	0.561916	-0.614094	0.113377	0.904343	-0.449475	0.359547	0.089682	-0.209634	1.067500	0.014992	-0.661837	-0.335798	0.755253	-0.426266	-0.342957	0.990196	-1.533810	0.615259	0.191476	-1.858319	-0.032550	-0.090631	-0.544995	0.254472	0.333797	-0.157054	-0.055363	1.681266	0.233531	-0.250343	0.160048	0.106122	0.008268	0.167273	-0.537892	-0.045661	-0.126855	0.637219	-0.348025	0.429289	-0.011742	-0.428624	0.684937	-0.245921	-0.032958	-0.144982	0.067301	-1.600191	0.976593	-0.764135	0.312846
1.297087	-0.335375	0.306216	-0.180208	-0.492640	-0.654421	1.324351	-1.079349	-0.717597	0.216409	-0.166549	0.704348	0.420526	1.170117	-1.201402	1.427258	0.549417	-0.577737	-0.026815	-0.554490	0.533636	-0.209421	0.068336	-0.911853	-0.441720	0.235390	0.441412	0.325987	-0.458438	0.081117	0.096166	0.004897	0.315545	-1.126578	0.389326	-0.038008	-0.833576	0.361375	0.672894	-1.126020	-0.135982	0.887617	-0.947539	0.020199	0.322817	-0.256064	-0.420209	0.112185	0.164494	-0.759481	0.024416	0.174823	0.500732	-0.473379	1.110395	-0.222787	-0.290101	0.269878	0.434167	-0.695012	0.263843	0.689147	-0.611792	-0.241244
0.391013	0.255205	-0.046327	-0.272639	0.505591	-0.343988	1.316722	-0.890186	0.049314	-0.361664	0.008596	0.087852	-0.466706	0.777348	-0.580815	0.069527	-0.898567	0.492051	-0.082260	-0.616742	0.230277	-0.388336	-0.413019	-0.013233	0.691721	-0.065451	-0.963868	0.472393	-1.095710	-0.366924	0.949090	-0.388982	-0.924754	0.797290	0.211069	0.150974	0.240912	0.620758	-0.789189	0.371358	1.174844	-1.165279	-0.110162	-0.214893	0.102139	-0.920383	0.645078	-0.154292	-0.739359	0.175193	-0.161788	0.244341	0.540013	0.047538	-0.299233	0.022492	0.550554	-0.293041	0.023104	-0.111941	-0.764299	0.422180	0.139355	-0.309760
0.409938	-0.341034	-0.214050	-0.139530	0.595557	0.426532	-0.985494	0.810445	0.365742	-0.452256	0.208998	0.489731	-0.215604	-0.897039	0.604183	-0.235582	-0.495499	0.349527	-0.361732	0.212637	-0.747827	1.476521	-0.659212	0.050184	0.218879	-0.255682	0.167573	0.206184	-0.282839	-0.807273	0.594569	0.085646	0.298147	-0.624443	0.364333	0.133531	0.769533	-0.091054	-0.217456	-0.520704	-0.064090	0.640925	0.011652	-0.327886	-0.204810	-0.307420	-0.893762	0.794226	-0.266014	-0.130558	-0.545143	-0.099548	-0.292025	0.067937	0.992295	-1.345411	0.290265	-0.679411	0.412579	0.731934	-0.250606	-0.291929	0.830828	-0.180897
-0.486889	0.069181	0.072814	-0.378304	-0.391692	-0.990255	0.287412	-0.544641	0.152153	-0.369628	-0.288065	1.583286	-0.542688	-0.681093	0.090251	-0.396762	-0.709922	0.415225	-0.185101	-0.824541	-0.265947	-0.699325	0.564792	0.326556	0.178770	-0.028926	-0.503321	0.037380	-0.544889	-0.453554	0.565845	-0.508467	1.220312	-1.391429	1.548828	-0.173654	0.373181	-0.544305	-0.760596	1.024429	-0.387341	-0.083303	-0.326968	0.836154	0.047460	-1.317729	0.469395	0.557095	0.877971	-1.006113	-0.633037	0.238251	-0.074422	1.616382	-0.688159	-0.410404	-0.294892	-0.565595	1.871463	-0.433295	-0.330281	-0.318757	-0.492615	0.373574
-0.445102	0.003386	0.256106	0.464590	-0.150095	0.016711	1.076360	-0.160023	0.326444	0.251807	0.231250	-1.773766	1.131543	0.076556	-0.032823	0.098394	-0.762725	-0.224639	0.139435	0.963620	-0.527233	-0.532624	0.121463	0.014604	1.167250	0.173366	-0.268188	-0.244580	1.025245	-0.534849	-0.358471	0.328545	0.107379	-0.433690	0.352598	-0.021239	-0.196385	0.500878	0.522586	-1.084895	-0.882092	0.686214	0.387906	0.005299	-0.584651	-0.402300	0.243801	0.035701	0.107147	-0.369487	-0.230144	-0.414839	0.737771	0.147618	-0.348370	0.450763	0.318100	-0.809907	0.294920	0.095416	-0.808471	1.085022	-0.384143	-0.126554
-0.232245	-0.450805	0.588141	-0.278211	-0.004871	0.312952	-0.270540	-0.859459	0.773616	-0.613236	-0.015909	0.664805	-0.840191	0.686164	-0.101801	0.984115	-0.989973	0.325011	-0.895751	0.453134	-0.195575	-0.361823	-0.603578	0.456836	1.518537	-0.488316	-0.216298	-0.483649	0.497424	0.067914	0.980733	-0.532524	-0.189312	-0.530568	0.260213	-0.042417	-0.339854	-0.382551	-0.546520	0.534813	-0.050419	0.182762	-1.020381	0.847450	-1.141726	1.013258	0.390570	-0.506734	-1.085282	-0.198445	1.039686	-0.634529	0.512272	-1.524870	0.759223	0.673958	0.390770	0.527885	-1.229224	0.299842	-0.447641	0.623482	-0.763426	-0.391781
-0.723575	0.692953	-0.986701	1.049980	0.133522	-0.369681	0.328368	-0.201932	1.646190	-0.712421	0.598747	-0.325988	0.147082	0.214534	-0.614060	0.140561	-1.077419	-0.581042	0.273435	-0.568821	-0.812597	-0.620509	0.723478	-0.188908	0.138716	0.494309	-0.815018	0.407587	0.191923	0.058711	-1.935247	0.603698	-0.215368	0.277910	0.138139	-0.518359	0.280776	0.201942	-0.247122	-0.505987	0.237489	-0.535862	-0.294109	-0.301103	-0.181897	0.508013	-0.338068	0.147475	0.156364	0.106720	-0.257183	-0.771872	-0.549403	-0.279330	1.020004	-0.871465	0.093658	-0.609891	-0.113170	0.834925	0.394752	-1.126290	0.021381	0.388138
0.251645	-0.663628	-0.048947	0.638552	0.179601	-0.222667	-0.587662	0.533377	-0.153535	0.057045	0.469840	-0.892283	-0.967788	1.313374	-0.685229	-0.285106	0.595468	-0.150605	-0.302024	0.548765	0.440897	-0.773747	0.578222	0.079080	-0.475698	0.435586	-0.454449	0.168242	-0.027970	-0.052808	0.019968	-0.444521	0.368913	-0.541718	0.093101	0.255321	-1.200450	1.060602	-0.436461	0.955795	0.008944	-0.101380	0.180291	-0.481685	0.202678	-0.626335	0.574996	-0.711104	-0.444081	0.291927	-0.979770	0.582069	0.452293	0.212465	0.094201	-0.225223	0.513505	-0.323723	0.011331	0.291705	-0.488294	-0.302244	0.494921	0.251161
0.170822	-0.288176	-0.185495	0.529950	0.461077	-0.640368	0.744839	-0.024055	0.254980	-0.436358	0.770502	-0.992228	-0.088184	0.102413	0.009186	-0.641853	0.488268	0.228443	0.114786	-0.118545	0.353765	-0.254622	-0.076694	0.187556	-1.437664	0.302442	-0.875145	0.117555	-0.018965	-0.101181	0.754278	0.811073	0.724484	0.286559	0.116614	0.268616	0.268690	-0.043722	0.159536	-1.820788	-0.072984	0.002957	0.448735	-0.406444	-0.063473	0.275770	-0.674287	1.258521	0.645066	-0.844281	0.047071	0.801437	-0.185192	0.118518	-0.017231	-0.407314	-0.883245	1.540083	-0.918833	-0.567911	0.418668	-0.463182	0.789302	-0.100506
-0.145883	1.172245	-0.271667	-0.353925	0.699574	-0.047846	-0.525553	0.745993	-1.075179	0.019412	0.849917	0.224954	0.283197	0.838989	0.216806	-0.332039	0.733147	-1.596103	0.149064	-0.524951	-0.025060	-1.229729	-0.432662	0.637279	0.744335	-0.062615	0.127589	0.816907	-0.334204	0.210700	0.027234	-0.574348	-0.128299	0.920838	-0.188909	-0.619791	0.179190	-0.850557	-0.138432	0.004511	-0.434624	-0.500947	0.290514	0.324402	-0.300104	1.228458	-0.650603	0.530056	0.735156	-0.861894	-0.251394	-0.562960	0.712191	-1.346973	0.721973	-0.789085	-0.388310	0.079884	0.283992	0.560743	-0.144441	0.248031	0.418954	0.645362
0.470881	-1.423506	0.757874	-0.814589	0.436183	-0.859604	0.617922	0.074292	-0.597981	1.495907	-0.405317	1.071000	-0.587571	-0.079592	-0.263656	-0.481277	0.205909	-1.128301	0.471631	-0.501528	-0.031844	-0.209878	0.709687	-0.234467	-0.000481	0.324806	0.253659	0.402264	0.401665	-0.610706	-0.437910	0.647516	0.717826	-0.752634	0.016839	0.145156	0.247613	0.284481	-0.695122	0.190269	-0.521462	0.952893	-0.778015	-0.885398	-0.293654	-0.258612	0.970046	0.461010	0.712403	-1.238215	1.756376	-0.704539	1.044204	-0.596232	-0.742991	-1.044744	0.164195	0.732742	-0.810497	1.892985	-0.915061	0.223210	1.037523	-0.293041
-0.589353	0.240927	0.197939	0.145725	-0.934392	-0.060174	-1.819942	0.268240	-0.279325	0.649289	-2.063146	0.905374	0.107902	0.186734	0.923347	0.109689	-0.168207	-0.755966	1.547921	0.986751	-0.384873	1.306511	-1.346797	-0.175342	-0.372602	-1.470152	0.382509	-1.172121	-1.472621	1.740958	-0.094091	-0.663015	1.035588	-0.713659	0.477104	-0.818202	1.044058	0.471315	-1.190830	0.499794	-0.730217	-0.090253	0.187080	-0.653454	-1.257127	0.442984	-0.972901	-0.196832	0.346412	-1.608214	2.083684	-0.918305	0.283782	1.200954	-0.148309	0.187515	-0.170543	0.850614	-2.322668	-0.191512	0.591437	-0.489817	-0.437702	0.367864
-1.084940	1.108976	-0.013824	0.243295	-0.636399	-0.703113	0.430573	0.489816	-0.622588	-0.563343	0.051290	0.739470	-0.226374	0.832171	0.038516	-0.873357	1.065649	-0.008086	0.036472	-0.939522	0.676891	-0.284078	-0.027790	1.121437	0.677635	0.219881	-0.545191	0.340731	0.299317	-0.941745	-0.287985	-0.253104	-0.489388	-0.887391	0.349096	0.407343	-1.886046	0.340270	0.243329	-0.015593	-0.329106	1.060053	0.236927	-1.900668	1.397925	-0.512751	-0.596664	0.185395	0.867959	-0.563294	-0.690419	1.146665	-0.540846	0.032343	0.218097	0.565570	-0.268296	-0.517600	0.073128	0.481852	-0.185009	-0.376035	-0.141991	-1.047592
0.224008	-0.298469	0.330228	0.165561	-0.464053	-0.364315	0.495456	-0.550280	-0.128250	0.604606	-0.189231	0.342006	0.293135	-0.508827	-0.254962	-0.200219	0.064649	-0.269251	-0.017281	0.355078	-1.111919	0.290716	-0.558838	0.873320	0.004327	-0.816834	-0.041100	-0.856313	1.244625	-0.195281	-0.233560	-0.070967	0.085346	0.366154	-0.131745	0.679960	-0.820237	0.615042	-0.615661	0.596362	0.371560	0.165536	-0.050273	-0.295634	0.294199	-1.084099	0.773652	-1.277357	-0.305846	-0.378614	-0.211282	-0.419808	0.522152	0.571209	-0.754340	1.554948	-0.541961	0.614646	-0.835938	1.150439	-0.619937	-0.417250	0.652963	-0.613715
1.339147	-1.525694	1.016036	0.166265	-0.523143	0.344863	0.012417	-0.176411	-0.870192	0.455087	-0.294309	-0.298712	0.112837	0.222884	0.245840	-0.185761	-0.330468	0.641314	-0.092757	1.056669	-0.023589	-0.785714	0.386730	0.107669	0.709103	-1.065765	-0.242806	0.120482	-0.466559	1.497153	-0.112164	-0.236624	0.396049	0.202557	0.483112	-0.277999	0.929787	-1.540971	0.738852	0.649694	-0.464833	0.732316	-0.337757	-0.385943	-0.412317	0.570787	-0.497229	-0.081185	-0.652983	-0.111474	-0.008358	0.952235	-0.459634	-0.509760	0.800867	-0.963827	0.913634	-0.152585	-0.210996	-1.391643	1.028822	-0.474013	-0.051296	0.961638
-1.048308	1.465620	-0.470620	0.158519	0.410800	-0.084308	-0.683924	0.790930	0.894664	-0.602901	0.339168	-0.732081	0.345866	-0.589899	0.377117	-1.494676	-1.005327	0.370440	-0.009184	0.383137	-0.545257	0.233386	-0.205375	0.448762	-0.036765	0.223133	-0.428322	0.308488	0.064586	0.751896	0.103239	0.286497	-0.779717	0.449169	-0.639710	-0.147883	-0.900909	-0.421176	0.344987	-0.063926	1.157849	-1.083036	-0.007589	0.055518	1.027803	-0.103856	0.159887	-0.058891	-0.353675	-0.047102	0.359053	-0.158872	-0.156667	-0.035981	-0.196016	0.137231	0.599338	-0.454217	-0.098827	0.307191	-0.766871	-0.442912	-0.244678	0.245450
0.795672	-0.224260	-0.683282	-0.556524	0.187941	0.846360	-0.561694	-0.016869	-0.332803	0.338005	0.499446	0.675646	-0.651438	-0.178484	0.334108	0.641383	-0.370894	0.208040	-0.472224	0.097825	1.159887	0.015470	0.877880	-1.530582	0.104462	0.763526	0.120939	0.159964	-0.683143	-0.950478	0.282821	0.482116	-0.462102	-0.439860	-0.454358	-0.693287	2.133769	0.058727	-0.385228	0.138230	0.397012	0.775429	0.324183	-0.605991	-0.764020	-0.016611	-0.154018	0.161751	-0.977196	-0.641197	0.525599	-0.061909	1.387892	0.153282	0.220049	0.061792	0.035276	0.212548	1.378070	-3.954760	1.485204	-1.111374	0.160338	-0.804530
0.701725	0.068964	-0.359065	0.030983	0.855461	-0.375927	-0.321406	0.172973	-0.432296	-0.091826	-0.670957	0.429704	-0.298989	-0.116955	-0.472508	0.369732	-0.301270	0.825251	-0.363780	0.227074	-0.185722	-0.636771	0.744897	-0.707831	1.012392	-0.940027	-0.145760	0.488160	-0.967841	0.612977	-0.249503	0.638693	-0.439151	0.335094	0.250018	-0.827341	0.925207	-0.384859	0.438372	-0.806517	0.065844	0.252767	-0.440056	0.899675	-0.528033	-0.257802	0.228869	0.632239	0.238500	-0.048990	0.656533	-0.700153	0.695715	0.095404	-0.470425	-0.023912	0.037020	0.269528	-0.511212	0.174918	-0.944963	0.331410	0.066416	-0.183857
0.669883	-0.957141	0.688201	0.462818	-0.534087	-0.883156	0.529799	0.575514	0.099969	0.930164	-2.214391	0.823607	0.183862	0.354611	-0.655686	-0.518104	-0.402250	-0.353605	1.318732	0.374643	0.035758	0.258062	-0.453670	0.821087	0.385889	-0.050361	0.092780	-0.132073	0.103646	-1.105143	0.194735	0.114466	-0.338886	-0.356510	-0.227359	0.213620	0.836984	-0.527418	-0.548529	0.797561	0.469631	-0.300621	0.356592	-0.118166	-0.983817	0.694168	0.831219	-0.086839	0.333564	0.533610	-0.865204	1.109158	0.293895	-0.446474	0.098770	-0.123603	-0.668995	0.393019	0.329180	-1.178951	0.080926	-0.004627	0.337386	0.140824
-0.019361	0.464360	-0.126960	-0.864064	1.457488	-2.274266	2.101134	-1.132999	-0.101872	-0.541728	0.086213	0.465285	-1.075518	0.877119	-1.409601	0.625861	-0.498831	0.657064	-0.018792	0.413301	0.439074	-0.408143	0.907397	-0.258886	-0.045494	0.181330	0.085568	-0.747753	-0.432785	0.856366	-0.673242	-0.140086	0.565886	-0.581691	0.184408	-0.497672	0.606528	-0.549758	0.000507	-0.170283	-0.866878	0.438291	-0.606878	0.439470	-0.632193	1.240160	-0.932892	0.511940	0.105872	0.248039	0.067921	-0.659975	0.526819	0.066377	-0.093405	1.066575	-0.079927	-0.090886	-0.013909	0.109787	0.162938	-0.937304	0.761157	-0.702585
0.084237	-0.191837	-0.635960	-0.001703	-0.188025	-0.594974	0.759155	0.023335	-0.283736	0.670475	1.042072	-0.798165	0.534807	-0.028969	-0.629184	-0.694207	0.405177	-1.033891	-0.155245	1.060402	0.063852	0.281701	-0.592681	0.827040	0.147782	0.547739	-0.446797	-0.392238	-0.543432	-0.034148	0.821667	-0.551003	-0.408630	-0.094570	0.596041	-0.420614	0.388511	0.997910	-0.265414	0.075471	-0.505688	0.366746	-0.409358	-0.061391	0.908716	-0.267423	-0.234773	-0.411441	0.580216	0.147719	0.133966	0.271025	-0.243424	-0.937265	0.922813	0.299312	-0.000671	0.123696	-0.054932	-0.336039	0.666610	-0.112761	-0.689604	0.026752
-0.623675	1.058498	-0.549185	1.503612	-0.810389	0.653043	-1.150202	0.409241	0.139315	0.502201	-0.582234	0.021104	0.297644	-0.737197	1.197856	-0.296765	1.580465	-1.765108	0.056852	-0.162036	-0.443591	0.197371	-0.081846	-0.454086	-0.679941	-0.201068	0.522199	0.246817	0.676311	-0.365925	-0.477483	0.990596	0.179078	1.087079	-0.651124	-1.254243	0.195536	0.094561	0.785865	-0.328044	-0.842240	-0.533636	0.183908	0.052482	-0.043114	-0.338453	-0.878126	0.271859	0.482757	0.459423	-0.422255	0.384853	-0.219035	0.201448	-0.255053	0.018628	-0.858344	0.267665	0.137679	-0.242226	-0.202263	0.625361	0.316446	-1.375299
-0.058903	0.000094	0.263710	-0.594779	0.387686	-0.290848	0.832457	0.118532	0.829944	0.313598	0.427102	0.304122	-0.626659	-0.637973	1.185053	-1.169320	-1.634828	-0.246774	-0.058398	1.942187	-0.679981	0.098436	0.453716	-0.482283	0.113356	0.919230	-0.780034	-1.009507	-0.504752	-0.197027	-1.151455	1.052396	0.843640	-0.720777	-0.991827	1.469330	0.293922	-0.276999	0.749636	-0.914677	-0.548939	-0.045539	1.075962	-0.913762	0.296758	-0.564255	0.539320	-0.459293	0.297601	0.339578	-0.723523	0.264303	-0.672351	-0.045307	0.213229	1.351902	0.042805	-0.099870	0.737623	-1.479258	0.568091	0.040598	-0.397169	-0.075210
-0.961209	0.651916	0.429119	-0.006352	-1.036848	1.574360	-1.543180	0.645427	0.150034	-0.156273	-0.328425	-0.210235	0.619377	-1.418930	1.426708	-0.885252	0.586219	-0.813723	1.081470	-0.603337	0.133028	0.811636	-0.889803	0.891250	-0.369287	0.291325	-0.450653	-0.088369	0.506508	-1.408781	0.674600	-0.830991	-0.172562	-0.321460	-0.231987	0.737829	-0.840781	0.413283	0.078029	-0.059549	1.038127	-0.486891	0.580514	-0.816080	0.421875	-1.105100	1.489549	-0.522135	-0.317611	-0.592269	0.228476	0.075060	0.042718	-0.150790	-0.317650	-0.610630	0.119463	0.549618	0.111322	-0.887463	0.491964	0.413303	-0.639305	0.505224
-0.543820	-0.085307	0.256961	-0.278872	0.482369	-0.729606	0.101724	-0.588587	0.665705	0.532916	-0.677568	0.346801	-0.875718	1.197787	-0.529521	0.621695	-0.488166	-0.198096	0.154112	0.253802	-0.814205	0.095231	0.428656	-0.669006	0.895442	-1.310174	0.584964	-0.097775	0.495398	-0.432917	-0.063839	0.279829	-0.506455	0.590268	-0.642021	0.250516	-0.135868	0.058312	0.796589	-1.199441	0.124136	-0.240113	0.261072	0.021162	0.138236	0.278640	-0.670061	0.961758	0.329659	0.012448	-0.926467	1.194004	-0.430556	-0.214707	0.383707	-0.468065	-0.319525	-0.005170	0.790134	-0.931587	-0.015888	0.357553	-0.867336	0.475669
-0.072192	0.191600	-0.079320	0.074041	-0.760424	0.563862	-0.747615	0.047355	-0.063871	-0.698653	-0.252007	0.461525	0.526417	-0.150439	-0.580210	-0.093614	0.175563	0.135951	0.027221	-0.361643	-0.737160	0.653131	0.569174	0.136589	-1.087912	-0.174317	0.151949	0.083671	0.294501	-0.542790	-0.743737	-0.752598	1.297146	0.342500	-0.163225	-0.437528	0.023244	0.049867	0.558355	0.329425	-2.121308	0.187340	0.357130	-0.539934	0.534616	0.130832	-0.520899	0.931924	0.232907	-0.772617	0.323794	0.367182	1.077730	-0.767522	-0.376630	-0.486566	1.698034	-1.418300	-0.563737	0.477395	-0.582597	0.655991	-0.037108	-0.223822
-0.526580	0.540322	-0.645952	-0.143852	-0.164743	0.873003	-0.627327	0.711399	0.725514	-0.157781	-0.125621	0.624166	-0.430920	0.124282	-0.584735	-0.808287	-0.383390	-0.331196	0.061476	0.254669	-1.223322	-0.152875	-0.037722	0.036060	0.400162	0.137049	0.874456	-1.468429	1.365727	0.651617	-0.157906	0.385965	-0.359894	-1.349569	0.478595	0.867163	-0.102912	-1.045512	0.856283	-1.174822	-0.303208	0.616946	-0.207367	-0.964414	-0.334742	0.823574	-0.311700	0.533659	1.177200	-0.348259	-0.021186	0.104699	0.401622	0.651393	-0.270672	0.780384	-0.697011	1.157158	-0.494075	1.048183	-0.765154	-0.498805	0.068740	-0.543111
0.520061	-0.586526	-0.089383	-0.358330	0.489675	-0.656967	-0.943135	1.028934	-0.582330	0.137888	0.165290	-0.017388	0.235815	-0.145438	0.061018	-0.652335	0.041146	-0.039034	0.083440	0.080894	-0.621944	-0.049612	0.453058	-0.058242	0.650504	0.081889	-0.496764	-0.267572	1.074008	0.080752	-0.336661	0.488358	-0.028518	-0.731035	1.388774	-0.234767	-0.926467	-0.089309	0.434140	-0.814545	-0.169636	0.144872	-1.128524	0.352944	0.898003	-1.309624	-0.415237	1.496427	-0.344039	0.257233	-0.047966	-0.615018	0.080484	0.178207	0.749344	-1.546567	-0.217513	0.103887	0.104518	0.029787	-0.071879	-0.071456	-0.747233	0.656413
0.596254	-0.740794	0.359503	0.539466	-0.355736	0.147431	-0.474837	-0.394791	-0.400176	0.203166	0.091151	-0.347319	0.057366	0.096927	0.727464	0.593688	-0.448788	0.401345	-0.141792	-0.256033	-0.108276	-0.532991	-0.902881	0.637976	0.072588	-0.002884	-0.449640	0.787227	-0.005019	-0.626150	0.802139	-1.127390	-0.405291	-0.175104	-0.814000	-1.111063	0.288836	0.156785	-0.279715	0.448872	0.545407	-0.076954	1.019071	-0.398582	0.305709	-0.459886	-0.198685	0.184990	-0.037495	-0.074483	-0.090136	0.000902	-0.817410	0.999599	-0.600651	-0.192748	-0.432860	-0.521363	0.484728	-0.908675	2.421769	-0.866329	-0.149993	0.520801
-0.048903	0.126969	-0.962815	0.065918	0.955616	-2.498301	1.499613	-0.184906	-0.774192	0.419263	-0.020877	-0.443806	-0.351514	-0.366884	2.289539	-0.496774	-0.994068	0.952960	-0.069117	-1.210426	1.011437	-0.319861	-1.461181	1.039958	-0.066859	-0.160353	0.047902	-0.410029	-0.976702	-0.845182	0.822402	-0.630629	1.770127	0.149575	-0.178485	-2.322556	1.825083	-0.974461	0.145056	-0.186598	-0.491889	1.526662	-2.359975	0.666689	0.463556	-1.060333	0.972295	-2.296129	0.778826	-2.307815	-0.024587	1.494533	0.736746	-2.752289	0.337571	0.175266	0.188953	-1.350351	0.176317	0.944994	-1.581870	-0.484902	-2.142834	0.282541
-0.105758	0.744053	-0.616336	0.343423	0.773962	-0.289518	-0.496250	-0.493840	0.420360	-0.387014	0.585597	-0.090097	-0.554905	0.324850	0.052460	0.918384	0.129463	0.034441	-0.528687	0.632691	0.808601	-0.943590	0.030712	-0.487170	0.246728	-0.603499	0.417080	-0.489919	0.497038	-0.509900	-0.338306	0.948331	-0.400302	0.312805	-0.348688	0.382217	-1.394957	0.662906	0.703082	-0.920038	0.560641	0.582123	0.078567	-1.356316	0.874376	-0.265076	-0.242598	0.096032	-1.657877	-0.042677	1.282909	-0.322643	-0.213552	0.373284	0.591354	-0.510444	0.988678	0.040283	-1.667771	0.797696	0.447228	-0.064962	-0.141471	0.279152
0.941088	-0.384796	-0.157200	-0.707890	-0.251071	0.127482	-0.033399	-0.174047	-0.372219	-0.532790	0.446043	1.068559	-0.721545	0.311030	0.484193	-1.059135	0.952443	-0.706472	-0.690320	0.963601	0.560722	-0.963472	-0.299808	0.224968	-0.234324	0.360799	-0.150177	-0.343262	-0.476297	0.994609	-0.615599	-0.135476	-0.120840	-0.097917	0.047318	0.622156	0.101472	-1.263995	1.444948	0.688280	1.647724	-0.536842	-0.010089	-0.481768	0.957390	0.476628	-0.686206	-0.388806	-0.740908	-0.917190	0.129962	-0.112075	-0.566455	0.990647	-0.108164	-0.421381	-1.027544	2.158203	-0.709723	0.220596	-0.322266	0.014995	0.311994	0.263153
-0.277142	0.746681	-1.021465	0.464035	-0.536147	-0.540759	1.069675	-0.698558	-0.108451	0.316058	-0.484081	-0.265077	-0.686471	-0.173860	0.599944	0.320830	0.182012	0.221967	-0.425861	0.267417	0.015313	1.366708	-1.596508	0.667265	-0.007337	0.283398	-0.185123	-0.451254	0.309915	-0.298320	-0.668371	-0.172346	-1.297497	0.695141	-0.724005	0.472405	0.847907	-0.989312	1.233467	0.746162	0.913945	-0.459211	-0.642654	0.260554	-0.208218	-0.647409	-1.224990	-0.179881	1.370971	-1.348360	0.776454	-0.331985	-0.025088	0.495220	2.147553	-1.692904	0.075136	-0.176819	0.115385	-0.031956	-0.380281	-0.453291	-1.016482	1.340564
1.414616	-0.329806	-0.150279	-0.798078	0.480539	0.068701	0.059666	-0.037364	-1.816432	0.354143	0.112340	0.025883	-0.160254	0.011026	0.687579	-0.561708	-0.057538	-0.284533	1.126917	-0.590458	-0.351262	0.613616	-0.294662	-0.139803	0.595074	0.547152	-1.181026	0.588345	0.117735	0.036918	-0.868543	1.279531	-0.411805	-0.260713	0.576054	-0.273298	-1.212481	0.569380	0.030342	-0.630333	0.769466	-0.349099	0.315216	-0.099019	0.241853	0.449491	-0.727106	-0.370861	-0.793435	0.553347	-0.175690	0.477078	-0.088053	-0.701037	-0.423416	1.588403	0.263281	-0.099568	-0.055960	-0.700536	-0.132015	0.257906	0.458439	-0.654004
0.037552	-0.344717	-0.098993	-0.391050	0.311822	0.523991	0.407840	-0.316502	-0.474150	-0.744882	0.664252	-0.800109	-0.572670	0.381077	-0.745716	-0.668487	-0.325480	-0.605450	-0.574526	1.203579	0.070950	-0.798677	-0.168938	0.458699	1.981086	-0.639162	0.863020	-0.768043	-2.082053	0.063812	0.364352	-0.274230	-1.386730	0.601039	0.042216	-0.666786	1.841626	0.587761	-0.663143	-0.463468	0.576603	-0.257656	-0.047017	0.412870	-1.337252	0.226244	1.755556	-0.482465	1.929298	-0.461146	0.502099	0.707668	-0.621688	0.605923	-0.269685	-0.661696	-0.750852	-0.168043	-0.707611	1.824196	-0.041487	-0.130968	0.199869	-0.206938
0.618401	-1.042289	2.462701	-1.224197	-0.459483	0.082392	0.461668	-1.266894	-0.565892	0.779209	-0.839034	-0.299867	0.346718	-0.492624	0.010724	0.682607	0.984784	-1.088517	0.019978	2.066958	-1.207130	0.525380	-0.175776	0.502370	0.471860	-0.436659	-1.652050	0.611078	0.257528	0.783210	-0.415325	0.235258	0.524390	-0.345659	1.439924	-1.396372	0.052873	0.063459	-0.099096	-1.181431	-0.035319	-0.896208	0.474990	0.186311	0.432113	-0.935595	-0.013336	0.899106	-0.010096	-0.096333	-0.359283	-0.968599	-0.539086	0.486140	-0.610844	0.354607	-0.287369	0.550451	0.297291	0.478309	0.018478	-0.228852	-0.240910	0.161661
-0.521058	-0.210332	0.345295	0.696604	-1.250877	0.608207	0.341372	-0.075755	-0.180298	0.183056	-0.460857	-0.445472	0.145843	0.541026	-0.732893	0.562008	0.284399	0.460583	0.003598	0.250594	0.371714	-0.618902	0.835639	-0.445310	-1.248150	0.002242	1.171377	-1.308032	0.270935	0.708743	-0.758675	0.818544	-0.583681	0.823198	-0.457358	0.507602	-0.459990	-0.177308	-0.241496	-0.428573	0.502003	-0.598057	-0.879507	0.702159	0.068505	-0.218527	0.632732	-0.370993	0.037246	0.116228	0.972048	-0.992900	-0.302198	-0.326755	0.270421	0.576814	-0.218451	0.030883	-0.115265	0.305222	-0.211306	0.708501	0.658916	-0.927301
0.401829	-0.276912	0.498205	-0.186000	-1.084863	0.625395	-0.856890	0.878099	-0.653566	0.444887	-0.517513	0.112073	0.663581	-0.562053	0.195150	-1.769406	-0.269989	0.780765	-0.382602	0.195069	-0.757752	0.258588	0.108340	1.152274	-0.278892	0.319871	0.257062	0.028782	-0.616076	-0.303900	-1.054160	0.316480	0.547077	-0.669003	0.224199	-0.328817	0.001172	-0.233894	1.933297	-1.755925	0.416174	0.190952	-0.842969	0.980242	-0.750438	-0.100022	0.093347	-0.450496	0.862392	-1.262018	0.574320	-0.189521	-0.766888	-0.347383	-0.958445	0.496412	-0.803214	0.010653	0.470646	-0.389133	0.735774	0.291772	-0.409395	0.359963
0.251580	0.436449	-0.458784	-0.034036	0.570965	-0.787562	0.134235	-0.095258	-0.557976	0.900258	-0.340583	0.357122	0.189243	0.292677	-0.050766	0.265383	1.311307	-1.085082	0.938239	-0.146095	-0.393199	-0.249669	-0.010391	-0.045133	-1.453997	0.737348	-0.707041	0.090603	-0.079674	0.225709	0.116776	-0.218992	1.615751	-0.580398	0.291933	-0.498997	0.345747	0.100268	0.165038	0.879790	-0.152882	0.077282	-0.451127	0.292990	1.073877	-1.168783	0.572800	-0.756328	-0.271425	0.181977	0.488588	-0.459171	-0.497129	0.048718	-0.169625	0.284767	0.443750	-0.627418	0.301876	-0.543845	0.484092	-0.242306	0.623654	0.145224
-0.038973	0.629427	-0.455293	0.151534	-0.493012	0.232336	0.674478	-0.383819	-0.060103	0.078929	0.132016	-0.783535	1.000077	-0.276103	-0.326305	0.641535	0.402696	0.082975	-1.078470	1.272075	-1.928719	1.309087	0.252636	-0.684398	-0.437351	0.244605	0.358123	-0.341112	0.453562	-1.372147	0.030589	0.385531	-0.354992	-0.223910	-0.236736	-0.139044	-0.320630	0.768618	-0.710252	0.597239	0.534134	0.134657	-1.271213	0.626579	-0.602563	-0.870445	0.587447	-0.104409	-0.275130	-0.731830	0.625868	0.143471	-0.219503	0.472231	0.019690	0.257582	-0.077100	0.697078	0.179289	-1.031574	0.994322	-0.957948	0.371220	-0.577798
-0.028476	0.455269	-0.695811	0.541440	0.380905	-0.459777	-0.051492	0.403027	-0.450562	0.364080	0.650013	-0.766401	-0.312573	-0.225769	-0.404355	-0.103532	-0.239946	1.030327	-0.789075	0.201470	0.081975	0.194719	0.514224	0.084841	0.298406	-1.359144	1.221506	-0.324953	-0.101831	-0.115074	-0.324579	-0.140981	0.161864	0.078518	-0.422058	0.228311	-0.090599	-0.275144	0.475123	0.134513	-0.491136	-0.028291	0.230387	-0.556443	-0.710955	0.603983	-0.826586	-0.501535	0.649036	-0.728089	0.324968	-0.614404	1.202890	-1.362834	0.410340	0.085585	-0.829382	0.943445	0.067276	-0.466543	-0.068917	0.236265	-0.258812	-0.375225
0.868800	-2.031861	0.868221	0.068566	-0.308609	-0.619973	-0.055408	0.861637	-0.316674	0.808573	0.015946	-0.785580	0.453597	0.510481	0.125288	-0.713289	0.049767	-0.819822	-0.607882	1.149699	-0.918024	0.107007	-0.156817	0.423183	-0.172246	-0.147273	0.706094	-1.318648	0.177309	-0.205486	-0.312514	0.143453	-0.534893	0.591318	-0.761718	0.447636	0.081777	0.171068	0.411630	-0.873906	0.946429	-1.792491	0.998752	0.223267	-0.426577	0.178740	-0.292063	0.928670	-0.808746	0.838371	-0.303092	0.092609	0.288546	0.158214	-0.343244	0.078415	-0.139075	-0.298418	-0.329235	0.449751	-0.453323	0.017944	0.598862	-0.787611
-0.557791	0.699041	-0.445428	0.326071	-0.558747	0.392820	-0.767374	0.250679	0.844082	-1.319753	0.679068	-1.224267	0.024418	-0.009140	0.113980	-0.344179	-0.381474	0.577526	-1.142665	0.560933	0.010474	0.051853	-0.674524	0.122633	0.967217	-0.874579	0.221639	-0.799225	-0.176147	0.360965	-0.245763	0.556648	-0.863450	0.663403	0.230855	-0.467348	1.014663	-0.907703	0.510311	-0.155145	0.215139	-1.098453	-0.082977	0.242642	-0.683211	0.655210	-0.614804	-0.230459	-0.811850	0.597561	-1.289309	1.687410	-0.622376	0.341479	0.222746	0.528189	0.245453	-0.411388	0.512243	-1.179597	0.907746	-0.297044	-0.354196	-0.614052
-0.458622	0.442557	-1.212486	1.295620	-1.132554	-0.024458	0.297998	0.062263	0.706671	-0.563370	0.564510	-0.179083	-0.101651	0.391969	0.071561	-0.592574	-0.526034	0.856261	-0.954673	0.867720	-0.263345	-0.725828	0.036899	0.584679	-0.583346	-0.441930	0.558226	-0.233103	-0.341034	0.398865	-0.212499	-0.500772	0.403079	-0.265249	-0.481664	0.351352	-0.190106	0.677382	-0.895089	0.405234	-0.723284	0.278527	0.030119	0.177272	0.135346	-0.430097	0.479797	0.510154	0.399736	0.141626	0.052841	0.371444	-0.639255	0.145158	0.251017	-1.140917	-0.890199	0.526173	-0.475997	-0.317527	-0.254756	1.600606	-1.466807	1.017872
0.292496	1.137443	0.573938	-1.634092	0.492324	-0.619866	0.660735	-0.310954	1.116353	-1.465510	-0.788500	0.289616	-0.070660	0.875852	-0.523732	-0.430110	-1.172422	0.540922	1.364726	-1.052384	-0.064718	1.177934	-1.908020	0.694917	-0.186393	0.055327	-2.814546	1.726324	-0.460113	-0.526195	1.605932	-0.282174	0.552947	-0.656367	-0.537000	0.681913	-0.144965	-0.877696	-0.377849	0.974181	-1.017760	1.046466	-0.165755	-0.524093	-0.190519	0.910178	-0.524778	0.095218	-0.087605	0.298085	-0.867555	-0.407675	-0.687459	-0.711045	-0.480705	-0.668508	-0.219960	0.432883	0.447091	1.079466	1.208770	-0.177476	-1.711980	1.833592
-0.713662	-0.180586	0.054476	0.090040	-0.198666	0.441789	-0.793116	0.529784	0.291142	-0.505622	0.470975	0.258486	-0.895360	-0.686609	-0.379427	-0.334314	-0.171076	0.215163	0.144359	0.108375	2.730322	-0.718121	-0.312069	-0.144498	0.036425	0.933857	-0.307920	-0.204160	-0.866201	1.096093	0.023056	-0.001903	-0.254141	-1.584799	0.481488	0.641052	-0.346567	-0.856998	0.473201	-0.061358	0.117240	0.331718	0.501640	-1.358473	0.117530	1.846259	-1.015668	0.841804	0.804959	0.465029	-0.838633	0.700784	0.334241	-1.029327	0.546620	-1.095642	-0.170964	-1.142694	0.855692	-0.127732	-0.927358	1.277993	-1.395254	0.779282
0.396698	0.196355	0.238200	-1.687928	0.094447	-0.743987	1.867441	-0.627057	-0.296874	-0.419337	-0.166136	-3.589564	1.718090	-0.922023	0.077239	-0.239634	1.820106	-1.606666	1.065031	2.953332	1.109634	0.175872	-0.834994	-0.939694	-0.126572	-1.717363	-0.650258	-0.189094	0.237087	-1.183540	0.071978	-0.186292	-0.165132	1.152503	-1.453656	-0.859505	0.193876	-0.940353	-0.999368	1.271754	1.412897	-1.269248	0.721279	-0.455623	-1.781585	1.761647	-0.138116	-1.696046	0.837800	-0.156749	-0.224563	0.618201	-1.542087	-1.333208	-0.104775	-1.034386	0.000559	-0.256746	-0.953965	-1.496902	0.498077	1.182959	0.131802	1.482506
-0.380459	-0.190911	0.666072	-0.062409	-0.310315	0.199556	-0.175574	-0.208734	0.291796	-0.214559	-0.143219	-0.803313	0.244960	-0.292939	0.202244	0.029164	0.551806	0.602961	0.441039	-0.275011	1.207902	0.277703	0.414863	-0.690265	-0.704503	0.027785	-0.636993	0.321751	-1.168844	-0.143732	0.016427	0.444223	0.122761	-0.549448	0.650694	-0.353572	-0.119546	0.531916	-0.291465	-0.253125	-0.022119	0.665526	-0.506286	1.915813	-0.626395	0.551326	-0.542959	0.034500	0.147169	-0.102842	-0.413537	-1.222846	0.668885	-0.702027	1.157349	-0.289842	0.027118	1.295548	-0.287559	0.453091	-0.702374	1.200364	-0.459939	0.339553
0.339543	-0.541163	0.281261	-0.219653	0.278169	-0.334596	0.183237	-0.513810	0.752802	-0.576518	0.668952	-0.183869	0.425685	-0.546297	0.207139	1.084209	-0.860894	0.373618	-0.458893	-0.271000	-0.453354	0.869608	-0.684612	-0.766939	-0.095755	-0.295478	0.387322	0.698656	-0.072370	0.173331	-0.394585	0.429482	-0.185894	0.080741	0.653970	-0.799648	0.328902	-0.351018	0.201228	0.283928	-0.249672	0.182598	0.219901	-0.710283	0.893998	-0.537455	0.592388	-0.517005	0.676186	-0.059298	-0.676904	0.824484	0.107874	-0.433158	-0.221786	0.340308	-1.348621	0.673501	0.495031	0.075237	-0.981563	0.804478	0.233221	-0.082858
-0.380780	-0.260753	-0.977265	1.343535	0.011870	0.177854	0.515182	-0.999515	-0.117675	0.677302	0.389213	-0.926447	0.630309	-1.033562	0.255161	0.163905	-0.079035	-0.640800	-0.459662	-0.068371	0.597404	0.754324	-0.679693	0.816123	0.838193	1.078247	-0.151310	0.283348	-0.423847	0.272718	-0.003888	-0.578519	0.672071	-1.590406	0.959511	-0.980876	0.751675	-1.178474	-0.069925	0.575179	0.628366	0.044902	0.376688	0.008415	-0.296310	1.523274	-0.489457	0.171870	-1.110069	0.278957	-0.338330	0.525745	-0.764141	0.334173	-0.780769	0.433132	0.248131	0.064304	-0.479099	0.676675	-0.506355	-0.176037	0.828154	-0.503590
-1.011856	0.552057	-0.034721	-0.163382	-0.723936	0.576575	-0.130014	-0.412169	0.350852	-0.328785	-0.374050	0.058625	0.431011	-0.032463	0.509693	-0.222499	0.486778	0.403657	-0.062523	0.490320	-0.179354	-0.727653	-0.304807	0.201140	-0.242596	-0.515467	0.067157	-0.146144	-0.394796	1.059019	-0.353230	-0.022998	-0.402926	-0.590145	1.178389	-0.347174	-0.111325	0.085249	0.262414	-0.665355	0.286541	1.029552	-0.848488	0.392130	0.149474	-0.130379	-0.348457	0.681453	0.280287	0.615319	-0.311992	-0.053591	0.341016	-0.610276	0.293188	0.012024	0.236506	-1.137141	1.844004	-0.869591	0.253185	-0.562396	1.537205	-0.879843
-0.669813	-0.045052	0.394981	-0.329531	-0.187187	0.103060	-0.407446	0.371361	0.413046	0.736624	-0.944678	0.362589	-0.580959	0.920240	-0.354762	-0.254079	-0.779382	0.061048	0.897652	-0.769782	-0.136624	-0.656911	0.368982	-0.327464	-0.291914	0.684374	-1.094118	0.239049	-0.138217	1.215834	-0.947704	0.412661	1.041634	-0.644443	-0.091584	0.061726	0.695845	-0.678862	0.925162	-0.117880	-0.362111	-0.875050	1.561781	-0.705332	0.367459	-0.375357	-0.482609	-0.661986	-0.342354	0.312364	-0.000531	0.033481	0.094430	-0.933855	1.365232	0.724548	0.466303	-0.284555	-0.365110	0.780025	-0.848981	1.207177	-0.868168	-0.841936
0.245025	-0.296879	0.275894	-0.592680	0.188767	-0.163071	-0.147540	0.471573	-0.335031	1.562573	-3.291742	0.617106	0.303683	-0.150062	0.711866	0.673640	0.188513	-1.736483	-0.138277	-1.028500	-0.030497	-1.015390	0.347573	-1.722692	-0.011147	2.226529	1.050147	-1.616011	0.326577	0.195179	1.665249	1.091211	0.121805	-0.684778	-0.775526	1.444124	0.228202	1.237489	-1.223177	-1.105535	-0.340856	-0.491455	0.971449	0.938741	-0.761104	-0.251650	0.511279	-0.877977	0.504866	-0.293233	-1.229670	-0.220804	1.676200	-0.348573	-1.060182	1.127671	-0.489128	0.199791	-0.907124	0.658906	-0.176529	0.440981	-0.416067	-0.236583
-0.048254	-0.307880	0.429759	0.204391	-1.439600	1.088991	-0.695188	-0.444263	-0.304390	0.364769	-0.342361	-0.572998	1.593166	-0.803872	0.078115	0.565905	-0.373272	0.572316	0.362811	0.076981	-0.269886	0.232288	-0.042455	-0.445490	2.148594	-0.613247	-0.115876	0.373015	-0.620824	-0.059875	0.134240	0.146177	-1.273419	0.753348	-0.385263	0.536437	-0.250815	0.154605	-0.159244	-0.282156	-0.122857	0.322998	-0.240645	-0.374127	0.706849	0.248832	-0.833782	0.420493	0.581345	-0.148729	0.313340	0.405591	-0.217464	-0.628734	0.455150	-0.284108	-0.744353	0.910602	-0.959264	0.523756	-0.318439	-0.185420	0.275842	-0.500780
-0.582867	0.739383	-0.432485	0.108306	-0.063046	-0.197722	-0.350572	1.549157	0.140882	0.355705	-0.341094	-0.418069	-0.249074	-1.268746	0.974705	-1.334957	-0.578200	0.661039	0.330797	1.495630	-0.559127	-0.461571	1.198633	0.298880	0.669039	-0.754115	-0.683542	-0.093413	0.023520	-0.493584	-1.271831	-0.452584	-0.420475	0.299888	2.254723	-1.281414	1.250714	0.033798	-0.567380	0.641768	-0.150975	-1.239512	-0.407421	-0.504489	-0.707339	-0.062597	0.269510	-0.625259	-0.979667	1.345782	-0.706039	0.555574	0.242168	-0.034555	0.014537	0.250598	0.034798	0.457168	-0.856109	0.491196	-0.333239	0.934155	-0.520490	0.368334
-0.810449	0.199720	0.039067	0.951484	-0.128310	-0.303209	0.771999	-1.154296	0.943354	0.380002	-0.564606	-0.073715	-0.006776	0.607414	-0.284346	-0.514366	-0.734109	-0.633733	0.463721	-1.037718	0.623794	-0.545412	-0.263073	0.194958	0.789328	-2.141161	1.811449	-1.381724	0.096224	-2.611465	2.413537	0.480082	0.448817	-0.415772	0.354159	0.323468	0.727158	0.866605	-1.596353	0.066693	-0.576108	0.825917	-1.528525	0.006179	0.357016	-1.020871	-0.348259	1.143415	1.254280	0.382732	0.902807	-1.207179	-0.191515	0.607509	-0.468784	-0.326262	-0.033674	-1.213259	-0.608083	1.263478	0.342543	0.044559	-2.025244	1.045383
0.275564	-1.033525	-0.179593	-0.569244	-0.343695	0.902197	-0.193565	0.321364	-0.246319	1.048170	0.273660	-0.177264	1.801940	-1.373854	0.934678	-1.918775	0.456009	-0.276343	0.651962	-0.989877	-0.703135	0.541923	-0.079041	-0.117925	-0.443028	-0.448348	1.019233	-0.126043	-1.617988	1.623537	-0.470424	0.905934	0.934777	-0.616532	-0.134382	1.232708	-1.163004	0.185455	0.060591	0.111552	-1.897682	-1.365126	-0.045992	-1.265237	-0.421665	-0.581897	0.194699	-0.424182	0.773970	1.418516	-1.741186	0.942678	-0.620319	0.822316	0.169639	-0.698241	-0.783736	-0.716430	-0.403239	0.424075	0.136598	-1.244099	0.090684	0.723559
0.355790	0.369821	-0.057264	0.640126	0.853247	-0.522780	0.038349	-0.613501	-0.764686	0.611945	-1.069610	1.032596	-2.093811	0.201739	0.764107	-0.428062	-0.422472	0.321791	0.604328	-0.063966	1.485812	-0.089857	-1.379621	2.316223	-0.113682	-0.792336	-0.296840	-0.432835	0.232716	-1.557676	-0.690854	-0.399075	0.044522	-0.594794	-0.583315	-0.332295	-0.100362	0.405096	0.888592	-0.992883	0.415983	0.710981	-1.276327	-0.266783	1.101670	0.295761	-1.264019	0.752236	-2.406377	0.319692	1.049460	0.862116	0.346837	-0.592232	0.154520	0.022288	0.454852	-0.552258	0.174099	0.177935	-0.296123	0.197889	0.325294	-0.003477
-0.900156	-0.050191	-0.199918	-0.118709	-0.662721	0.203873	-0.069248	0.298804	1.182223	-1.060172	-0.279433	1.155405	-0.328513	-0.038314	0.725373	-0.514858	-1.461198	0.117547	0.595573	-0.663312	1.058556	-0.932678	-0.656223	0.226029	1.285363	-1.103543	0.297951	-0.217563	-0.390187	1.157537	-0.122973	0.123021	-0.319380	0.478656	-1.190065	0.555493	0.280452	-0.015588	0.322963	-0.389571	-0.112063	0.421066	-0.133985	-0.206755	-0.423212	-0.496092	-0.052206	0.154554	-0.579870	0.332405	0.246024	-0.426643	1.093275	0.431350	-1.067999	-0.110018	-0.292784	-0.276368	0.353751	0.134612	-0.742948	0.114548	0.635986	0.197765
-0.025891	0.245035	-0.600477	0.770821	-0.413746	-0.425146	0.057873	0.195863	0.615624	0.239972	-0.139485	-0.021155	0.067464	-1.220204	0.082272	0.829303	-0.905528	0.952067	0.195387	-1.249819	0.536452	0.223896	-0.251030	-1.451482	-0.313650	-0.667384	-0.478082	0.047186	-0.100371	-1.398455	0.092696	0.919360	0.676844	-0.421207	1.311073	-0.388691	-0.442006	0.813518	-0.221150	-0.703487	-0.762718	-0.368329	-1.219078	0.227732	0.329190	-0.292629	1.277178	-0.236564	-0.334344	1.016726	0.189977	0.362282	0.145024	-1.090858	-0.791529	0.740546	0.965287	-2.545507	1.156800	-0.641740	0.568622	-0.323326	0.038219	0.392080
0.518063	-0.539196	-0.290458	-0.440196	0.383317	-0.361468	-0.156865	0.485154	-0.317706	-0.781022	0.039184	0.052778	0.367170	-0.315230	0.438050	-1.153881	-0.948994	1.341372	-0.958464	0.683789	-0.600076	0.743935	-0.548314	0.231769	0.414883	-0.870231	1.042787	-1.255116	1.803949	-1.453504	1.191074	-1.194592	0.653809	-0.201426	-0.731487	0.526465	-0.708996	0.013171	-0.315855	0.439735	-0.753253	0.277727	-0.427710	-0.393056	0.884834	0.170225	-0.193034	-0.164269	-0.038281	-0.243051	0.108273	0.349538	-0.714431	0.156968	-0.613650	0.038620	0.328767	0.298244	0.237530	-0.175217	0.134889	-0.466066	0.692251	-0.031305
0.240679	1.103306	-1.249169	0.328564	-0.853188	0.921316	0.386653	-1.797518	-0.042840	-0.122154	-0.203498	0.155065	0.159324	-0.062201	-0.094650	0.562658	-0.031474	-0.794824	2.008850	-0.010114	0.200541	-1.202016	0.416182	0.666365	-0.832479	1.277532	-0.640869	-0.758415	0.944554	0.022195	0.078826	-1.836258	0.247014	-0.480199	0.108890	-0.015925	-0.283759	-0.028329	0.197670	0.430326	0.120850	-0.669747	0.319419	0.098131	-0.790385	-0.664009	-0.427437	1.404766	-0.269507	1.226978	-0.013840	-0.987161	2.069264	-0.618042	-0.399322	-0.902862	-0.348263	0.783981	-0.974106	0.456347	-0.144962	0.321291	0.976839	-0.676322
-0.001615	0.817876	-1.316764	0.587788	-0.454949	-0.315553	1.088505	-0.903705	-0.874679	-0.202298	0.753916	0.120634	0.419932	0.026006	-1.596810	1.062123	0.515956	0.221136	-0.342119	-0.114623	0.147913	-0.448329	1.388198	-0.946855	0.431767	-0.204395	0.305030	-0.266101	-0.181268	0.622962	-1.069282	0.512559	-0.309424	-0.015274	-0.779196	0.664752	0.328947	-1.176816	0.681231	-0.465660	0.831553	-0.820237	0.633316	-0.446334	0.208489	-0.493284	0.342244	-0.111498	-0.406931	0.499228	-0.696417	0.157659	-0.561652	0.460186	-0.590379	-0.146365	0.231599	-0.277534	0.396714	0.185371	0.219923	-0.537550	-0.061201	-0.008292
0.929648	-0.630929	-0.873170	0.048609	-0.702757	1.057161	-0.624351	0.387001	-0.850093	-0.253486	0.734890	1.259730	-0.257033	0.038303	0.473425	-0.799776	0.375095	0.213026	-0.304198	-1.724417	-0.387369	0.934055	-0.485681	0.043938	0.504818	-0.273391	-0.389181	-0.357037	-0.127021	-0.989920	-0.927689	0.297035	-1.028948	0.414743	-0.485854	0.903421	0.032161	0.762805	-0.296275	-0.033745	1.191200	-0.182011	0.307010	-0.881392	-1.078297	0.186516	0.145723	-0.228731	-1.663898	1.337005	-0.736014	0.455338	0.043362	-0.983126	0.970261	-0.244149	1.639249	-0.499439	-0.455850	-0.186841	0.383102	0.876977	-2.414533	1.151325
0.793437	0.806488	-1.982813	-1.230837	0.948697	0.074866	-1.310491	0.828263	-0.774205	0.379337	1.151572	0.747355	0.040856	-1.485890	0.440853	0.810613	-0.045226	0.540193	-2.472436	-0.833419	1.728039	-1.635467	1.268151	-0.596330	-0.631536	0.978484	-0.616862	-1.397634	-0.491219	0.789212	-1.248436	-0.196559	1.051426	0.785586	-1.069405	1.116697	0.357058	-0.877586	-0.966869	-0.544089	-1.569593	-1.218898	2.301033	0.513057	0.020747	-1.736605	2.030316	1.052336	0.273254	1.072840	-1.402360	0.056533	0.490093	-0.602675	0.503872	-1.189892	-0.299841	-0.490824	-0.878158	0.956407	-0.965093	-0.576533	-1.146968	-1.132835
0.657515	-0.104746	0.171974	-0.562166	0.609569	0.022575	-0.573368	0.514857	-0.729433	0.468135	-0.186663	-0.246221	0.005347	-0.168700	0.641926	-0.531385	0.926538	-0.050560	-0.649104	0.438120	0.328411	-0.183727	-0.648537	0.787660	-0.213983	-0.616448	1.216535	-0.330344	-1.019676	1.859107	0.270280	-0.539554	-0.375472	0.346117	-0.427117	0.651632	0.086482	-0.727395	-0.476031	-0.033398	-0.129886	0.892624	-0.366702	-0.323546	0.653094	-0.352089	0.098087	-0.099437	-0.166281	-0.349885	0.137976	-0.037395	-0.083221	-0.248844	-0.156446	1.482249	0.441839	-0.668366	0.612073	-0.396247	-0.219007	0.825582	-0.701574	-0.650724
1.380644	0.501530	-0.661083	-0.155840	0.325058	-0.712269	0.240382	0.495261	-3.306729	1.367985	-0.908720	-0.620275	-0.037743	-0.634265	0.350696	-0.367305	0.787626	-4.323111	-0.792070	1.001691	-0.798950	-0.682821	0.242622	1.078735	0.069647	-0.125114	-0.880452	-0.788480	1.700634	1.293658	-0.680400	-0.068230	-1.702860	1.872201	-0.037106	-0.032944	0.365800	-0.599190	-0.479138	-0.305990	-0.562703	1.116219	0.450509	-0.081226	0.341625	-0.747513	-0.497368	-0.155584	-0.058668	-0.322823	-0.386439	1.536904	-0.555057	-1.322800	-0.704896	0.676140	0.989487	1.944076	-1.934335	2.090171	-0.536347	-1.062813	0.716252	2.019843
0.651303	-0.257159	1.370564	-0.922787	0.138453	-0.956974	1.739393	-0.184406	-0.836952	1.586180	-1.456621	0.266989	0.153880	-0.889797	-0.209692	-0.431142	0.531423	0.010440	0.437948	-1.464136	-0.352279	0.804977	0.076084	-0.822623	-1.102369	-1.206375	0.280193	0.239775	2.019990	0.448724	-0.293124	-0.075798	0.955413	0.575751	0.321608	-2.528813	-0.584718	0.528579	-1.106443	1.074621	-0.611788	-0.290316	0.066593	0.961425	-1.724673	0.538051	0.668650	-0.804113	0.235311	0.585965	-0.128050	0.004588	0.388488	0.372469	0.114255	0.225976	0.742716	-0.376002	-0.186258	-0.825482	0.301835	-0.257288	-1.393935	0.493994
-0.351652	0.387458	0.311413	-1.309586	2.205394	-1.977154	0.367099	0.290148	0.179755	-1.154010	0.425584	0.442271	-0.469914	0.834051	0.896991	-0.981266	1.033327	-0.148994	-1.015629	0.202152	-0.149978	0.379508	-1.341136	0.666392	-0.948165	0.111237	0.604065	0.198462	0.829160	-0.450909	-0.351945	0.379266	1.261261	-0.630556	0.469117	-0.668307	0.571597	-0.084791	0.708174	-0.347051	-0.351384	-1.025502	-0.076767	0.825535	-1.235480	-0.187693	0.510170	-0.424978	-0.484859	1.041755	-0.574144	-0.356639	0.280601	0.168539	-0.471801	-0.221179	0.182507	-0.541902	0.050171	0.023694	0.377204	-0.231704	0.097013	-0.099353
0.474216	-0.212984	0.307538	-0.409229	-1.196750	1.919544	-2.091167	0.639475	-0.934171	0.591275	0.459974	-0.244367	0.623963	-1.428836	0.356357	0.636958	-0.619925	-1.070039	-0.283730	-0.127801	-1.299280	0.489693	-1.885068	-0.804534	0.127508	1.375811	-1.773249	-0.161163	0.213788	-0.994523	1.624110	-0.314958	-0.127515	-0.582796	0.949476	0.272242	0.347560	-0.225566	-0.625443	1.956613	-0.595137	1.012105	0.505319	0.091238	-1.084710	-0.459897	-0.048865	-0.733026	0.424350	1.241738	-0.119315	-1.066909	-0.055197	-0.121763	-0.097290	-0.389449	-0.490019	-1.426013	-0.070570	1.199965	-1.047792	0.941972	-0.094716	0.885184
1.489393	0.325403	-0.571132	-1.042759	1.142673	1.069604	-0.877569	-1.563063	-0.414277	0.914179	-0.139434	0.951232	-1.345624	-0.486435	1.384082	0.634463	-1.467854	1.177699	-1.078582	0.608151	0.722075	-0.019498	-1.152618	0.436961	-0.082592	0.263556	0.595824	-0.589878	0.242451	1.197626	-3.153379	0.694921	0.401036	-0.272540	-0.961658	-0.422951	-1.074142	1.737110	-0.092993	-1.178915	-0.453245	-0.150696	1.051495	0.381904	-0.393470	-0.399363	0.538941	0.252812	0.555635	-1.177799	-0.221260	-0.429656	1.035385	0.137825	-0.093265	-1.055971	-1.263965	0.094287	0.138536	-0.066441	-0.244576	-1.082054	1.512692	0.073439
-0.617636	0.432917	0.013681	-0.488693	0.553111	0.597303	0.257106	-0.815923	0.143239	-0.135491	-0.228800	0.084559	0.390239	-0.934426	-0.023193	0.608958	1.005684	-0.792980	-0.416437	0.924594	-1.322513	0.469674	0.388626	-0.287482	-1.757496	1.305119	-0.227394	-0.485075	-0.219306	-0.624298	0.051239	0.176192	1.261985	-1.013736	-0.078028	0.152660	0.402319	-0.081084	0.059865	0.005769	0.064659	0.498184	-0.315967	-0.219266	-0.716708	0.566016	-0.406421	-0.052272	-0.076156	-0.362037	0.213406	0.760819	0.188881	-0.726424	0.548477	-0.270310	0.042326	0.348437	-0.031419	-0.159692	-0.547918	0.733901	-0.804083	0.632048
0.098326	-0.857109	1.323858	0.152095	-0.204413	-0.845255	0.515822	-0.485187	-1.149257	1.213335	-0.760906	0.131364	-0.404374	0.940288	1.060254	-0.715336	0.484474	0.345294	-0.553150	-1.219778	-0.088557	0.118340	-0.943810	-0.879150	-0.266883	-0.339847	0.514492	-1.383793	0.576928	0.259473	-0.312118	1.357293	-0.236744	-0.165274	-0.249702	0.978387	-0.124743	-0.581993	-0.761493	-0.903260	-0.851395	0.703152	0.154643	-0.790790	1.981312	-0.310355	1.173407	-0.095717	0.079231	-0.946406	0.078879	-1.118052	-1.145594	0.245274	-0.855127	-0.660596	0.226143	-0.165239	0.655687	-0.708815	1.761941	-0.034245	-0.631300	0.763920
-0.944502	0.623697	0.571665	-1.128380	1.942219	-0.238582	-0.035803	-0.207545	0.526871	0.293065	-1.175567	0.468800	-0.835798	0.218156	-0.263456	0.029937	-0.479673	0.214161	0.156317	-0.399031	0.097557	-0.191355	0.449819	0.819632	0.401963	-0.096218	0.129461	0.594200	-0.542300	-0.136636	-0.283708	-0.774177	-0.019587	-0.285004	0.000445	-0.434881	-0.280622	0.510137	-0.303069	0.649435	-0.130908	-0.275376	-0.196285	-0.358953	0.287259	-0.656354	0.456482	-0.614898	0.865774	-0.386210	0.582040	0.242071	-0.768708	0.001296	-0.014512	0.196592	-1.375937	1.783143	-1.015963	-0.797512	0.843571	-0.135429	-0.219619	-0.179835
-0.127877	0.123662	-0.630588	0.053961	0.541952	-0.844612	0.784036	-0.854616	-0.073536	-0.148947	-0.730049	0.079612	-0.283771	0.015005	-0.457978	0.570080	-0.084325	-0.255752	0.584714	0.287515	0.110174	2.265100	-1.675864	0.710059	-0.276822	0.528727	0.276765	0.263696	-1.560686	-1.235807	0.747705	-0.075235	-0.462729	-0.159011	-0.363652	-0.173449	0.034553	-0.175055	0.410787	-1.497760	-1.379460	0.557442	0.597101	0.519507	0.416418	-0.964906	0.550016	0.118729	1.073252	-0.360843	0.038430	-0.532164	0.035199	1.120023	-1.834221	0.659235	0.485203	-0.295612	-1.156744	0.403580	0.479275	-0.153758	1.307268	-1.356083
-0.830981	0.451113	-0.286137	-0.324194	-1.004929	2.512971	-0.743357	-0.363358	-0.005455	0.373316	0.235781	0.018612	-0.583792	-0.325371	-0.701943	1.861743	-0.575614	-0.233722	0.541385	-0.723590	1.554731	0.171423	-0.613042	-0.607754	0.222816	0.134389	-0.424251	0.546199	0.224012	-0.367606	-0.222717	0.337655	0.661575	-0.580917	0.884508	-0.286395	-0.814503	0.789912	0.464122	-2.003166	-0.441396	-0.110717	-0.961262	0.818062	0.123809	-0.538653	-0.232307	1.124534	0.020929	-0.836769	0.224179	0.438547	-0.767299	0.790009	-0.219572	0.052297	-0.235493	0.632791	-0.942786	-0.224758	0.152760	-0.616582	-0.952573	0.246214
0.193582	-0.735680	-0.534136	0.513406	0.380646	-0.436413	0.010647	0.378699	-0.477607	1.107463	-0.520667	0.418391	-1.310302	0.992736	0.349820	-0.205091	1.078212	-1.523306	0.509514	-1.321844	1.259976	-1.058508	0.332158	0.023222	-0.558839	0.549524	0.325549	1.021575	-1.784410	0.620700	-0.782083	1.075041	-0.439457	0.422688	0.256521	-1.148300	1.349941	0.109041	0.359776	-0.966547	0.103381	-0.307350	-0.315729	0.700173	-0.567774	-0.012298	0.024858	0.613076	0.020770	1.148600	-0.453103	0.080892	-0.604997	0.479210	-0.536294	-0.494659	-0.163452	-0.812083	0.121008	0.160160	-0.106652	0.114935	-1.474588	1.118847
0.806110	-1.552850	1.095703	-0.368381	0.107710	0.040235	-1.008005	1.577260	-0.270555	0.612724	-1.034252	0.428647	-0.687811	-0.313864	1.188710	-1.182287	-1.066083	-0.315737	-0.428661	0.535661	1.634326	0.646502	-1.246745	0.207087	-0.240073	1.126256	-0.102260	0.760441	-0.896761	-0.250525	0.889859	-0.483705	0.782097	-0.419815	0.307777	-0.424670	-0.488016	-0.417028	-0.934071	-0.213690	-1.054530	0.748421	-0.784156	-0.283384	-0.279655	-0.860189	0.719076	0.446120	0.236443	0.886697	-0.211686	0.331918	0.169526	0.231875	-0.315078	-0.296366	0.324374	0.222618	-0.359770	0.064632	-0.503944	0.782630	-0.133181	-1.006345
1.242963	-0.409334	-0.191839	0.251939	1.203993	-1.117144	0.600485	-0.642281	-1.451071	-0.033937	-0.375825	0.185922	-0.525943	-1.118715	-0.006645	0.774301	0.596570	-0.787013	1.083026	-0.040437	-0.230841	-0.093587	0.147908	-0.440759	0.151403	-0.816316	0.313575	-0.533194	-0.842472	0.017974	0.570936	-1.021262	0.294849	0.363183	-0.872476	1.219146	-0.188903	0.614756	-1.099895	0.978262	0.293303	-0.736988	-0.190889	0.359156	0.362259	-0.843624	-0.293519	0.386387	-0.883283	0.186186	-0.048247	-0.074386	-0.029241	-0.188593	1.239316	-0.531699	-0.162872	0.601467	-0.236398	0.372438	-0.459778	0.697419	-0.703198	-0.286045
-0.610209	-1.053617	1.636877	0.878989	-1.191314	0.949249	-0.965785	0.175523	0.124289	-0.802185	-0.260981	0.821275	-1.500373	1.120346	-0.085179	0.382319	1.907909	0.541734	-0.330767	0.706549	-2.672664	-0.192271	2.278557	0.457893	-1.053385	-0.195468	-1.142193	1.211099	-0.615388	1.090308	0.201358	-2.725732	1.099597	1.321606	-0.772794	-0.362844	-0.161394	-1.703795	0.298775	-1.367123	-1.409213	-0.386837	-1.628709	-2.613062	-0.346054	-0.330160	0.884216	2.268027	-1.348209	0.307436	-0.472762	0.445685	-0.041730	-0.325656	-1.580604	0.131495	-1.531938	1.421265	1.128778	-2.238621	-0.005452	3.194423	-0.561075	-2.208637
-0.284351	0.096631	0.888627	-0.149910	0.459829	-1.283289	-0.042845	-0.093098	-1.079941	0.203750	-0.950645	-0.533649	1.809310	-0.689406	0.668547	-0.347948	0.571722	-0.724645	-0.096803	0.288785	-0.812121	0.585991	-0.350334	-0.686481	-0.382620	0.770845	0.410689	-0.875035	-0.713948	-0.513287	-0.349927	1.857327	-0.912181	-0.932186	-0.280721	0.736495	0.789660	-0.729481	1.889541	-0.745241	-0.566249	1.033019	-0.839508	-0.279545	-1.506809	0.773878	-0.626361	0.491344	-1.025271	1.823041	0.254542	0.038489	0.811884	-0.483557	1.456473	0.048207	-0.397824	-0.393875	-0.710374	0.821386	0.765026	-0.866191	-0.983384	-1.086433
-0.412129	-0.443112	1.745373	-0.415731	-1.106661	0.790003	0.937141	-0.646484	0.193760	0.903644	-0.358563	-0.867125	-0.506595	0.189584	0.092389	-0.106069	-1.233861	-0.135899	-0.751457	-0.926094	0.597768	-0.651985	-0.659248	1.473872	-0.191599	0.868295	-0.110090	1.091229	-1.170422	1.455789	-0.565780	-1.391935	0.722372	-0.048594	-1.449971	1.691827	0.814887	-0.033263	0.430388	-0.045712	-1.304634	0.427618	0.309446	-0.161186	-0.400325	0.190117	-0.795019	0.235651	1.286371	-0.203059	-0.428478	0.930014	-0.690928	1.038861	-1.153401	-0.156429	-0.341419	0.125286	-0.536629	-0.243347	0.478151	-0.960704	1.689291	-0.955260
-1.450294	0.204602	0.264973	-0.812276	-0.360083	-0.655039	0.872878	0.341168	-0.089794	1.434268	-0.002662	0.576709	-0.377242	-0.630140	1.215683	0.733290	0.738976	0.271617	-0.484141	-0.908767	0.548991	0.732037	-1.966404	-0.724914	-0.620321	-1.430492	-0.255689	0.723323	-1.469593	-0.365560	1.817806	0.139631	0.610728	-0.207311	-0.111915	0.881039	0.064954	-0.238897	0.312773	-0.348444	0.204941	-1.807187	-0.045518	-0.783907	-0.078294	0.516559	-0.521011	-0.192824	-0.731627	0.353293	0.460274	0.864808	-0.531538	0.422268	0.462955	0.498644	0.035289	0.079285	-0.821006	1.259764	-1.297049	-0.026178	0.201573	-1.521463
-0.065629	-0.160712	0.939724	-1.262632	0.565127	0.344295	-0.941257	0.626885	-0.363529	-0.208430	0.551857	0.046509	-0.164483	0.299375	-0.803909	0.572191	-0.010701	0.089350	-0.064600	-0.098295	0.995372	-1.150579	1.462329	-0.926264	0.239240	-0.804933	0.386590	-0.246018	-0.699464	-0.079227	0.130800	0.295397	0.704579	-0.107671	-0.030296	-0.117800	0.099400	0.537998	-0.889658	0.259319	-0.549860	0.215166	0.444853	-0.216667	0.623513	-0.653291	0.344024	-0.138949	0.230235	-0.184190	-0.542086	0.622973	-0.965817	0.473646	-0.783888	0.960710	-0.029518	0.253777	0.255863	-0.598802	0.458376	-0.344447	1.152039	-0.703244
-0.078260	-0.114890	0.281243	-0.757832	-1.069220	-0.139162	0.303260	0.032860	1.026655	-1.527066	0.162636	1.085972	-0.591648	0.771540	1.196095	0.030717	-0.233812	0.252894	0.015592	0.095337	-0.102759	-0.659116	-0.034249	-0.896986	-0.423157	0.688385	-0.824151	-0.826435	0.787702	-0.634513	-0.423696	0.331116	-0.420164	0.588112	0.146315	0.337304	-0.944481	-0.424838	-0.584878	0.530252	-0.627671	-0.696472	-0.012911	-0.012448	1.159366	0.489561	-0.422437	0.086881	2.057540	-0.953569	1.290970	-0.297478	-0.893828	0.066959	0.338513	0.098619	-1.304221	-0.081531	-0.827739	-0.358892	0.268849	0.180742	1.928171	-1.828211
0.266874	1.076454	-0.338053	0.653796	-0.698923	-0.506658	0.599039	-0.109959	-0.459850	-0.289864	-0.797566	-0.036795	0.805746	-0.287823	-0.223577	-0.193679	0.418148	-0.492915	0.548828	-0.780056	-0.003078	-0.142734	-0.220008	0.363608	0.432480	0.535235	-1.423637	0.932670	-0.288302	0.952786	0.034270	-0.328732	-1.404212	0.238905	1.232406	-0.698815	1.253818	-0.608223	-0.268051	0.110723	-0.368309	0.190496	-0.619841	-0.307949	-0.407511	0.239322	0.422995	-0.699405	0.171006	-0.575171	-0.034149	0.146024	0.156112	0.743160	0.056502	0.355232	-0.416227	0.426613	0.393135	-0.935690	0.140892	0.181433	-0.286462	-0.020540
0.739626	-0.723326	-0.408023	0.638854	0.363270	0.019453	-0.569080	0.047639	-0.703273	0.235457	-0.212249	-0.299045	-0.567054	0.069178	-0.048598	0.470946	0.318106	-0.587870	0.657827	-0.359059	0.100611	-0.011897	-0.069855	0.085200	0.180205	0.291444	-0.726985	-0.365229	1.179796	-0.448712	0.065801	-0.454984	0.079918	0.096871	-0.260651	0.933040	-0.652028	0.102595	0.404306	0.358114	-1.119325	0.433529	-0.779133	0.655994	-0.448174	0.808811	-0.089524	-0.520140	1.759256	-0.331568	-0.073433	-0.344050	-0.379591	0.158642	-0.083507	0.577539	-0.913691	-0.639776	0.872283	-0.200652	-0.144418	0.381393	-0.708007	-0.269841
