0.003227	0.003227	0.003227	0.003227	0.003227	0.003227	0.003227	0.003227	0.003227	0.003227	0.003227	0.003227	0.003227	0.003227	0.003227	0.003227	0.003227	0.003227	0.003227	0.003227	0.003227	0.003227	0.003227	0.003227	0.003227	0.003227	0.003227	0.003227	0.003227	0.003227	0.003227	0.003227	0.003227	0.003227	0.003227	0.003227	0.003227	0.003227	0.003227	0.003227	0.003227	0.003227	0.003227	0.003227	0.003227	0.003227	0.003227	0.003227	0.003227	0.003227	0.003227	0.003227	0.003227	0.003227	0.003227	0.003227	0.003227	0.003227	0.003227	0.003227	0.003227	0.003227	0.003227	0.003227	0.003227	0.003227	0.003227	0.003227	0.003227	0.003227	0.003227	0.003227	0.003227	0.003227	0.003227	0.003227	0.003227	0.003227	0.003227	0.003227	0.003227	0.003227	0.003227	0.003227	0.003227	0.003227	0.003227	0.003227	0.003227	0.003227	0.003227	0.003227	0.003227	0.003227	0.003227	0.003227	0.003227	0.003227	0.003227	0.003227
-0.011467	-0.011467	-0.011467	-0.011467	-0.011467	-0.011467	-0.011467	-0.011467	-0.011467	-0.011467	-0.011467	-0.011467	-0.011467	-0.011467	-0.011467	-0.011467	-0.011467	-0.011467	-0.011467	-0.011467	-0.011467	-0.011467	-0.011467	-0.011467	-0.011467	-0.011467	-0.011467	-0.011467	-0.011467	-0.011467	-0.011467	-0.011467	-0.011467	-0.011467	-0.011467	-0.011467	-0.011467	-0.011467	-0.011467	-0.011467	-0.011467	-0.011467	-0.011467	-0.011467	-0.011467	-0.011467	-0.011467	-0.011467	-0.011467	-0.011467	-0.011467	-0.011467	-0.011467	-0.011467	-0.011467	-0.011467	-0.011467	-0.011467	-0.011467	-0.011467	-0.011467	-0.011467	-0.011467	-0.011467	-0.011467	-0.011467	-0.011467	-0.011467	-0.011467	-0.011467	-0.011467	-0.011467	-0.011467	-0.011467	-0.011467	-0.011467	-0.011467	-0.011467	-0.011467	-0.011467	-0.011467	-0.011467	-0.011467	-0.011467	-0.011467	-0.011467	-0.011467	-0.011467	-0.011467	-0.011467	-0.011467	-0.011467	-0.011467	-0.011467	-0.011467	-0.011467	-0.011467	-0.011467	-0.011467	-0.011467
-0.003915	-0.003915	-0.003915	-0.003915	-0.003915	-0.003915	-0.003915	-0.003915	-0.003915	-0.003915	-0.003915	-0.003915	-0.003915	-0.003915	-0.003915	-0.003915	-0.003915	-0.003915	-0.003915	-0.003915	-0.003915	-0.003915	-0.003915	-0.003915	-0.003915	-0.003915	-0.003915	-0.003915	-0.003915	-0.003915	-0.003915	-0.003915	-0.003915	-0.003915	-0.003915	-0.003915	-0.003915	-0.003915	-0.003915	-0.003915	-0.003915	-0.003915	-0.003915	-0.003915	-0.003915	-0.003915	-0.003915	-0.003915	-0.003915	-0.003915	-0.003915	-0.003915	-0.003915	-0.003915	-0.003915	-0.003915	-0.003915	-0.003915	-0.003915	-0.003915	-0.003915	-0.003915	-0.003915	-0.003915	-0.003915	-0.003915	-0.003915	-0.003915	-0.003915	-0.003915	-0.003915	-0.003915	-0.003915	-0.003915	-0.003915	-0.003915	-0.003915	-0.003915	-0.003915	-0.003915	-0.003915	-0.003915	-0.003915	-0.003915	-0.003915	-0.003915	-0.003915	-0.003915	-0.003915	-0.003915	-0.003915	-0.003915	-0.003915	-0.003915	-0.003915	-0.003915	-0.003915	-0.003915	-0.003915	-0.003915
0.004093	0.004093	0.004093	0.004093	0.004093	0.004093	0.004093	0.004093	0.004093	0.004093	0.004093	0.004093	0.004093	0.004093	0.004093	0.004093	0.004093	0.004093	0.004093	0.004093	0.004093	0.004093	0.004093	0.004093	0.004093	0.004093	0.004093	0.004093	0.004093	0.004093	0.004093	0.004093	0.004093	0.004093	0.004093	0.004093	0.004093	0.004093	0.004093	0.004093	0.004093	0.004093	0.004093	0.004093	0.004093	0.004093	0.004093	0.004093	0.004093	0.004093	0.004093	0.004093	0.004093	0.004093	0.004093	0.004093	0.004093	0.004093	0.004093	0.004093	0.004093	0.004093	0.004093	0.004093	0.004093	0.004093	0.004093	0.004093	0.004093	0.004093	0.004093	0.004093	0.004093	0.004093	0.004093	0.004093	0.004093	0.004093	0.004093	0.004093	0.004093	0.004093	0.004093	0.004093	0.004093	0.004093	0.004093	0.004093	0.004093	0.004093	0.004093	0.004093	0.004093	0.004093	0.004093	0.004093	0.004093	0.004093	0.004093	0.004093
-0.019439	-0.019439	-0.019439	-0.019439	-0.019439	-0.019439	-0.019439	-0.019439	-0.019439	-0.019439	-0.019439	-0.019439	-0.019439	-0.019439	-0.019439	-0.019439	-0.019439	-0.019439	-0.019439	-0.019439	-0.019439	-0.019439	-0.019439	-0.019439	-0.019439	-0.019439	-0.019439	-0.019439	-0.019439	-0.019439	-0.019439	-0.019439	-0.019439	-0.019439	-0.019439	-0.019439	-0.019439	-0.019439	-0.019439	-0.019439	-0.019439	-0.019439	-0.019439	-0.019439	-0.019439	-0.019439	-0.019439	-0.019439	-0.019439	-0.019439	-0.019439	-0.019439	-0.019439	-0.019439	-0.019439	-0.019439	-0.019439	-0.019439	-0.019439	-0.019439	-0.019439	-0.019439	-0.019439	-0.019439	-0.019439	-0.019439	-0.019439	-0.019439	-0.019439	-0.019439	-0.019439	-0.019439	-0.019439	-0.019439	-0.019439	-0.019439	-0.019439	-0.019439	-0.019439	-0.019439	-0.019439	-0.019439	-0.019439	-0.019439	-0.019439	-0.019439	-0.019439	-0.019439	-0.019439	-0.019439	-0.019439	-0.019439	-0.019439	-0.019439	-0.019439	-0.019439	-0.019439	-0.019439	-0.019439	-0.019439
-0.021645	-0.021645	-0.021645	-0.021645	-0.021645	-0.021645	-0.021645	-0.021645	-0.021645	-0.021645	-0.021645	-0.021645	-0.021645	-0.021645	-0.021645	-0.021645	-0.021645	-0.021645	-0.021645	-0.021645	-0.021645	-0.021645	-0.021645	-0.021645	-0.021645	-0.021645	-0.021645	-0.021645	-0.021645	-0.021645	-0.021645	-0.021645	-0.021645	-0.021645	-0.021645	-0.021645	-0.021645	-0.021645	-0.021645	-0.021645	-0.021645	-0.021645	-0.021645	-0.021645	-0.021645	-0.021645	-0.021645	-0.021645	-0.021645	-0.021645	-0.021645	-0.021645	-0.021645	-0.021645	-0.021645	-0.021645	-0.021645	-0.021645	-0.021645	-0.021645	-0.021645	-0.021645	-0.021645	-0.021645	-0.021645	-0.021645	-0.021645	-0.021645	-0.021645	-0.021645	-0.021645	-0.021645	-0.021645	-0.021645	-0.021645	-0.021645	-0.021645	-0.021645	-0.021645	-0.021645	-0.021645	-0.021645	-0.021645	-0.021645	-0.021645	-0.021645	-0.021645	-0.021645	-0.021645	-0.021645	-0.021645	-0.021645	-0.021645	-0.021645	-0.021645	-0.021645	-0.021645	-0.021645	-0.021645	-0.021645
-0.017196	-0.017196	-0.017196	-0.017196	-0.017196	-0.017196	-0.017196	-0.017196	-0.017196	-0.017196	-0.017196	-0.017196	-0.017196	-0.017196	-0.017196	-0.017196	-0.017196	-0.017196	-0.017196	-0.017196	-0.017196	-0.017196	-0.017196	-0.017196	-0.017196	-0.017196	-0.017196	-0.017196	-0.017196	-0.017196	-0.017196	-0.017196	-0.017196	-0.017196	-0.017196	-0.017196	-0.017196	-0.017196	-0.017196	-0.017196	-0.017196	-0.017196	-0.017196	-0.017196	-0.017196	-0.017196	-0.017196	-0.017196	-0.017196	-0.017196	-0.017196	-0.017196	-0.017196	-0.017196	-0.017196	-0.017196	-0.017196	-0.017196	-0.017196	-0.017196	-0.017196	-0.017196	-0.017196	-0.017196	-0.017196	-0.017196	-0.017196	-0.017196	-0.017196	-0.017196	-0.017196	-0.017196	-0.017196	-0.017196	-0.017196	-0.017196	-0.017196	-0.017196	-0.017196	-0.017196	-0.017196	-0.017196	-0.017196	-0.017196	-0.017196	-0.017196	-0.017196	-0.017196	-0.017196	-0.017196	-0.017196	-0.017196	-0.017196	-0.017196	-0.017196	-0.017196	-0.017196	-0.017196	-0.017196	-0.017196
-0.011040	-0.011040	-0.011040	-0.011040	-0.011040	-0.011040	-0.011040	-0.011040	-0.011040	-0.011040	-0.011040	-0.011040	-0.011040	-0.011040	-0.011040	-0.011040	-0.011040	-0.011040	-0.011040	-0.011040	-0.011040	-0.011040	-0.011040	-0.011040	-0.011040	-0.011040	-0.011040	-0.011040	-0.011040	-0.011040	-0.011040	-0.011040	-0.011040	-0.011040	-0.011040	-0.011040	-0.011040	-0.011040	-0.011040	-0.011040	-0.011040	-0.011040	-0.011040	-0.011040	-0.011040	-0.011040	-0.011040	-0.011040	-0.011040	-0.011040	-0.011040	-0.011040	-0.011040	-0.011040	-0.011040	-0.011040	-0.011040	-0.011040	-0.011040	-0.011040	-0.011040	-0.011040	-0.011040	-0.011040	-0.011040	-0.011040	-0.011040	-0.011040	-0.011040	-0.011040	-0.011040	-0.011040	-0.011040	-0.011040	-0.011040	-0.011040	-0.011040	-0.011040	-0.011040	-0.011040	-0.011040	-0.011040	-0.011040	-0.011040	-0.011040	-0.011040	-0.011040	-0.011040	-0.011040	-0.011040	-0.011040	-0.011040	-0.011040	-0.011040	-0.011040	-0.011040	-0.011040	-0.011040	-0.011040	-0.011040
-0.004166	-0.004166	-0.004166	-0.004166	-0.004166	-0.004166	-0.004166	-0.004166	-0.004166	-0.004166	-0.004166	-0.004166	-0.004166	-0.004166	-0.004166	-0.004166	-0.004166	-0.004166	-0.004166	-0.004166	-0.004166	-0.004166	-0.004166	-0.004166	-0.004166	-0.004166	-0.004166	-0.004166	-0.004166	-0.004166	-0.004166	-0.004166	-0.004166	-0.004166	-0.004166	-0.004166	-0.004166	-0.004166	-0.004166	-0.004166	-0.004166	-0.004166	-0.004166	-0.004166	-0.004166	-0.004166	-0.004166	-0.004166	-0.004166	-0.004166	-0.004166	-0.004166	-0.004166	-0.004166	-0.004166	-0.004166	-0.004166	-0.004166	-0.004166	-0.004166	-0.004166	-0.004166	-0.004166	-0.004166	-0.004166	-0.004166	-0.004166	-0.004166	-0.004166	-0.004166	-0.004166	-0.004166	-0.004166	-0.004166	-0.004166	-0.004166	-0.004166	-0.004166	-0.004166	-0.004166	-0.004166	-0.004166	-0.004166	-0.004166	-0.004166	-0.004166	-0.004166	-0.004166	-0.004166	-0.004166	-0.004166	-0.004166	-0.004166	-0.004166	-0.004166	-0.004166	-0.004166	-0.004166	-0.004166	-0.004166
0.007081	0.007081	0.007081	0.007081	0.007081	0.007081	0.007081	0.007081	0.007081	0.007081	0.007081	0.007081	0.007081	0.007081	0.007081	0.007081	0.007081	0.007081	0.007081	0.007081	0.007081	0.007081	0.007081	0.007081	0.007081	0.007081	0.007081	0.007081	0.007081	0.007081	0.007081	0.007081	0.007081	0.007081	0.007081	0.007081	0.007081	0.007081	0.007081	0.007081	0.007081	0.007081	0.007081	0.007081	0.007081	0.007081	0.007081	0.007081	0.007081	0.007081	0.007081	0.007081	0.007081	0.007081	0.007081	0.007081	0.007081	0.007081	0.007081	0.007081	0.007081	0.007081	0.007081	0.007081	0.007081	0.007081	0.007081	0.007081	0.007081	0.007081	0.007081	0.007081	0.007081	0.007081	0.007081	0.007081	0.007081	0.007081	0.007081	0.007081	0.007081	0.007081	0.007081	0.007081	0.007081	0.007081	0.007081	0.007081	0.007081	0.007081	0.007081	0.007081	0.007081	0.007081	0.007081	0.007081	0.007081	0.007081	0.007081	0.007081
-0.006299	-0.006299	-0.006299	-0.006299	-0.006299	-0.006299	-0.006299	-0.006299	-0.006299	-0.006299	-0.006299	-0.006299	-0.006299	-0.006299	-0.006299	-0.006299	-0.006299	-0.006299	-0.006299	-0.006299	-0.006299	-0.006299	-0.006299	-0.006299	-0.006299	-0.006299	-0.006299	-0.006299	-0.006299	-0.006299	-0.006299	-0.006299	-0.006299	-0.006299	-0.006299	-0.006299	-0.006299	-0.006299	-0.006299	-0.006299	-0.006299	-0.006299	-0.006299	-0.006299	-0.006299	-0.006299	-0.006299	-0.006299	-0.006299	-0.006299	-0.006299	-0.006299	-0.006299	-0.006299	-0.006299	-0.006299	-0.006299	-0.006299	-0.006299	-0.006299	-0.006299	-0.006299	-0.006299	-0.006299	-0.006299	-0.006299	-0.006299	-0.006299	-0.006299	-0.006299	-0.006299	-0.006299	-0.006299	-0.006299	-0.006299	-0.006299	-0.006299	-0.006299	-0.006299	-0.006299	-0.006299	-0.006299	-0.006299	-0.006299	-0.006299	-0.006299	-0.006299	-0.006299	-0.006299	-0.006299	-0.006299	-0.006299	-0.006299	-0.006299	-0.006299	-0.006299	-0.006299	-0.006299	-0.006299	-0.006299
-0.006161	-0.006161	-0.006161	-0.006161	-0.006161	-0.006161	-0.006161	-0.006161	-0.006161	-0.006161	-0.006161	-0.006161	-0.006161	-0.006161	-0.006161	-0.006161	-0.006161	-0.006161	-0.006161	-0.006161	-0.006161	-0.006161	-0.006161	-0.006161	-0.006161	-0.006161	-0.006161	-0.006161	-0.006161	-0.006161	-0.006161	-0.006161	-0.006161	-0.006161	-0.006161	-0.006161	-0.006161	-0.006161	-0.006161	-0.006161	-0.006161	-0.006161	-0.006161	-0.006161	-0.006161	-0.006161	-0.006161	-0.006161	-0.006161	-0.006161	-0.006161	-0.006161	-0.006161	-0.006161	-0.006161	-0.006161	-0.006161	-0.006161	-0.006161	-0.006161	-0.006161	-0.006161	-0.006161	-0.006161	-0.006161	-0.006161	-0.006161	-0.006161	-0.006161	-0.006161	-0.006161	-0.006161	-0.006161	-0.006161	-0.006161	-0.006161	-0.006161	-0.006161	-0.006161	-0.006161	-0.006161	-0.006161	-0.006161	-0.006161	-0.006161	-0.006161	-0.006161	-0.006161	-0.006161	-0.006161	-0.006161	-0.006161	-0.006161	-0.006161	-0.006161	-0.006161	-0.006161	-0.006161	-0.006161	-0.006161
-0.015325	-0.015325	-0.015325	-0.015325	-0.015325	-0.015325	-0.015325	-0.015325	-0.015325	-0.015325	-0.015325	-0.015325	-0.015325	-0.015325	-0.015325	-0.015325	-0.015325	-0.015325	-0.015325	-0.015325	-0.015325	-0.015325	-0.015325	-0.015325	-0.015325	-0.015325	-0.015325	-0.015325	-0.015325	-0.015325	-0.015325	-0.015325	-0.015325	-0.015325	-0.015325	-0.015325	-0.015325	-0.015325	-0.015325	-0.015325	-0.015325	-0.015325	-0.015325	-0.015325	-0.015325	-0.015325	-0.015325	-0.015325	-0.015325	-0.015325	-0.015325	-0.015325	-0.015325	-0.015325	-0.015325	-0.015325	-0.015325	-0.015325	-0.015325	-0.015325	-0.015325	-0.015325	-0.015325	-0.015325	-0.015325	-0.015325	-0.015325	-0.015325	-0.015325	-0.015325	-0.015325	-0.015325	-0.015325	-0.015325	-0.015325	-0.015325	-0.015325	-0.015325	-0.015325	-0.015325	-0.015325	-0.015325	-0.015325	-0.015325	-0.015325	-0.015325	-0.015325	-0.015325	-0.015325	-0.015325	-0.015325	-0.015325	-0.015325	-0.015325	-0.015325	-0.015325	-0.015325	-0.015325	-0.015325	-0.015325
-0.016064	-0.016064	-0.016064	-0.016064	-0.016064	-0.016064	-0.016064	-0.016064	-0.016064	-0.016064	-0.016064	-0.016064	-0.016064	-0.016064	-0.016064	-0.016064	-0.016064	-0.016064	-0.016064	-0.016064	-0.016064	-0.016064	-0.016064	-0.016064	-0.016064	-0.016064	-0.016064	-0.016064	-0.016064	-0.016064	-0.016064	-0.016064	-0.016064	-0.016064	-0.016064	-0.016064	-0.016064	-0.016064	-0.016064	-0.016064	-0.016064	-0.016064	-0.016064	-0.016064	-0.016064	-0.016064	-0.016064	-0.016064	-0.016064	-0.016064	-0.016064	-0.016064	-0.016064	-0.016064	-0.016064	-0.016064	-0.016064	-0.016064	-0.016064	-0.016064	-0.016064	-0.016064	-0.016064	-0.016064	-0.016064	-0.016064	-0.016064	-0.016064	-0.016064	-0.016064	-0.016064	-0.016064	-0.016064	-0.016064	-0.016064	-0.016064	-0.016064	-0.016064	-0.016064	-0.016064	-0.016064	-0.016064	-0.016064	-0.016064	-0.016064	-0.016064	-0.016064	-0.016064	-0.016064	-0.016064	-0.016064	-0.016064	-0.016064	-0.016064	-0.016064	-0.016064	-0.016064	-0.016064	-0.016064	-0.016064
-0.002188	-0.002188	-0.002188	-0.002188	-0.002188	-0.002188	-0.002188	-0.002188	-0.002188	-0.002188	-0.002188	-0.002188	-0.002188	-0.002188	-0.002188	-0.002188	-0.002188	-0.002188	-0.002188	-0.002188	-0.002188	-0.002188	-0.002188	-0.002188	-0.002188	-0.002188	-0.002188	-0.002188	-0.002188	-0.002188	-0.002188	-0.002188	-0.002188	-0.002188	-0.002188	-0.002188	-0.002188	-0.002188	-0.002188	-0.002188	-0.002188	-0.002188	-0.002188	-0.002188	-0.002188	-0.002188	-0.002188	-0.002188	-0.002188	-0.002188	-0.002188	-0.002188	-0.002188	-0.002188	-0.002188	-0.002188	-0.002188	-0.002188	-0.002188	-0.002188	-0.002188	-0.002188	-0.002188	-0.002188	-0.002188	-0.002188	-0.002188	-0.002188	-0.002188	-0.002188	-0.002188	-0.002188	-0.002188	-0.002188	-0.002188	-0.002188	-0.002188	-0.002188	-0.002188	-0.002188	-0.002188	-0.002188	-0.002188	-0.002188	-0.002188	-0.002188	-0.002188	-0.002188	-0.002188	-0.002188	-0.002188	-0.002188	-0.002188	-0.002188	-0.002188	-0.002188	-0.002188	-0.002188	-0.002188	-0.002188
0.002894	0.002894	0.002894	0.002894	0.002894	0.002894	0.002894	0.002894	0.002894	0.002894	0.002894	0.002894	0.002894	0.002894	0.002894	0.002894	0.002894	0.002894	0.002894	0.002894	0.002894	0.002894	0.002894	0.002894	0.002894	0.002894	0.002894	0.002894	0.002894	0.002894	0.002894	0.002894	0.002894	0.002894	0.002894	0.002894	0.002894	0.002894	0.002894	0.002894	0.002894	0.002894	0.002894	0.002894	0.002894	0.002894	0.002894	0.002894	0.002894	0.002894	0.002894	0.002894	0.002894	0.002894	0.002894	0.002894	0.002894	0.002894	0.002894	0.002894	0.002894	0.002894	0.002894	0.002894	0.002894	0.002894	0.002894	0.002894	0.002894	0.002894	0.002894	0.002894	0.002894	0.002894	0.002894	0.002894	0.002894	0.002894	0.002894	0.002894	0.002894	0.002894	0.002894	0.002894	0.002894	0.002894	0.002894	0.002894	0.002894	0.002894	0.002894	0.002894	0.002894	0.002894	0.002894	0.002894	0.002894	0.002894	0.002894	0.002894
-0.006322	-0.006322	-0.006322	-0.006322	-0.006322	-0.006322	-0.006322	-0.006322	-0.006322	-0.006322	-0.006322	-0.006322	-0.006322	-0.006322	-0.006322	-0.006322	-0.006322	-0.006322	-0.006322	-0.006322	-0.006322	-0.006322	-0.006322	-0.006322	-0.006322	-0.006322	-0.006322	-0.006322	-0.006322	-0.006322	-0.006322	-0.006322	-0.006322	-0.006322	-0.006322	-0.006322	-0.006322	-0.006322	-0.006322	-0.006322	-0.006322	-0.006322	-0.006322	-0.006322	-0.006322	-0.006322	-0.006322	-0.006322	-0.006322	-0.006322	-0.006322	-0.006322	-0.006322	-0.006322	-0.006322	-0.006322	-0.006322	-0.006322	-0.006322	-0.006322	-0.006322	-0.006322	-0.006322	-0.006322	-0.006322	-0.006322	-0.006322	-0.006322	-0.006322	-0.006322	-0.006322	-0.006322	-0.006322	-0.006322	-0.006322	-0.006322	-0.006322	-0.006322	-0.006322	-0.006322	-0.006322	-0.006322	-0.006322	-0.006322	-0.006322	-0.006322	-0.006322	-0.006322	-0.006322	-0.006322	-0.006322	-0.006322	-0.006322	-0.006322	-0.006322	-0.006322	-0.006322	-0.006322	-0.006322	-0.006322
0.000842	0.000842	0.000842	0.000842	0.000842	0.000842	0.000842	0.000842	0.000842	0.000842	0.000842	0.000842	0.000842	0.000842	0.000842	0.000842	0.000842	0.000842	0.000842	0.000842	0.000842	0.000842	0.000842	0.000842	0.000842	0.000842	0.000842	0.000842	0.000842	0.000842	0.000842	0.000842	0.000842	0.000842	0.000842	0.000842	0.000842	0.000842	0.000842	0.000842	0.000842	0.000842	0.000842	0.000842	0.000842	0.000842	0.000842	0.000842	0.000842	0.000842	0.000842	0.000842	0.000842	0.000842	0.000842	0.000842	0.000842	0.000842	0.000842	0.000842	0.000842	0.000842	0.000842	0.000842	0.000842	0.000842	0.000842	0.000842	0.000842	0.000842	0.000842	0.000842	0.000842	0.000842	0.000842	0.000842	0.000842	0.000842	0.000842	0.000842	0.000842	0.000842	0.000842	0.000842	0.000842	0.000842	0.000842	0.000842	0.000842	0.000842	0.000842	0.000842	0.000842	0.000842	0.000842	0.000842	0.000842	0.000842	0.000842	0.000842
-0.016502	-0.016502	-0.016502	-0.016502	-0.016502	-0.016502	-0.016502	-0.016502	-0.016502	-0.016502	-0.016502	-0.016502	-0.016502	-0.016502	-0.016502	-0.016502	-0.016502	-0.016502	-0.016502	-0.016502	-0.016502	-0.016502	-0.016502	-0.016502	-0.016502	-0.016502	-0.016502	-0.016502	-0.016502	-0.016502	-0.016502	-0.016502	-0.016502	-0.016502	-0.016502	-0.016502	-0.016502	-0.016502	-0.016502	-0.016502	-0.016502	-0.016502	-0.016502	-0.016502	-0.016502	-0.016502	-0.016502	-0.016502	-0.016502	-0.016502	-0.016502	-0.016502	-0.016502	-0.016502	-0.016502	-0.016502	-0.016502	-0.016502	-0.016502	-0.016502	-0.016502	-0.016502	-0.016502	-0.016502	-0.016502	-0.016502	-0.016502	-0.016502	-0.016502	-0.016502	-0.016502	-0.016502	-0.016502	-0.016502	-0.016502	-0.016502	-0.016502	-0.016502	-0.016502	-0.016502	-0.016502	-0.016502	-0.016502	-0.016502	-0.016502	-0.016502	-0.016502	-0.016502	-0.016502	-0.016502	-0.016502	-0.016502	-0.016502	-0.016502	-0.016502	-0.016502	-0.016502	-0.016502	-0.016502	-0.016502
-0.005261	-0.005261	-0.005261	-0.005261	-0.005261	-0.005261	-0.005261	-0.005261	-0.005261	-0.005261	-0.005261	-0.005261	-0.005261	-0.005261	-0.005261	-0.005261	-0.005261	-0.005261	-0.005261	-0.005261	-0.005261	-0.005261	-0.005261	-0.005261	-0.005261	-0.005261	-0.005261	-0.005261	-0.005261	-0.005261	-0.005261	-0.005261	-0.005261	-0.005261	-0.005261	-0.005261	-0.005261	-0.005261	-0.005261	-0.005261	-0.005261	-0.005261	-0.005261	-0.005261	-0.005261	-0.005261	-0.005261	-0.005261	-0.005261	-0.005261	-0.005261	-0.005261	-0.005261	-0.005261	-0.005261	-0.005261	-0.005261	-0.005261	-0.005261	-0.005261	-0.005261	-0.005261	-0.005261	-0.005261	-0.005261	-0.005261	-0.005261	-0.005261	-0.005261	-0.005261	-0.005261	-0.005261	-0.005261	-0.005261	-0.005261	-0.005261	-0.005261	-0.005261	-0.005261	-0.005261	-0.005261	-0.005261	-0.005261	-0.005261	-0.005261	-0.005261	-0.005261	-0.005261	-0.005261	-0.005261	-0.005261	-0.005261	-0.005261	-0.005261	-0.005261	-0.005261	-0.005261	-0.005261	-0.005261	-0.005261
0.001341	0.001341	0.001341	0.001341	0.001341	0.001341	0.001341	0.001341	0.001341	0.001341	0.001341	0.001341	0.001341	0.001341	0.001341	0.001341	0.001341	0.001341	0.001341	0.001341	0.001341	0.001341	0.001341	0.001341	0.001341	0.001341	0.001341	0.001341	0.001341	0.001341	0.001341	0.001341	0.001341	0.001341	0.001341	0.001341	0.001341	0.001341	0.001341	0.001341	0.001341	0.001341	0.001341	0.001341	0.001341	0.001341	0.001341	0.001341	0.001341	0.001341	0.001341	0.001341	0.001341	0.001341	0.001341	0.001341	0.001341	0.001341	0.001341	0.001341	0.001341	0.001341	0.001341	0.001341	0.001341	0.001341	0.001341	0.001341	0.001341	0.001341	0.001341	0.001341	0.001341	0.001341	0.001341	0.001341	0.001341	0.001341	0.001341	0.001341	0.001341	0.001341	0.001341	0.001341	0.001341	0.001341	0.001341	0.001341	0.001341	0.001341	0.001341	0.001341	0.001341	0.001341	0.001341	0.001341	0.001341	0.001341	0.001341	0.001341
-0.005535	-0.005535	-0.005535	-0.005535	-0.005535	-0.005535	-0.005535	-0.005535	-0.005535	-0.005535	-0.005535	-0.005535	-0.005535	-0.005535	-0.005535	-0.005535	-0.005535	-0.005535	-0.005535	-0.005535	-0.005535	-0.005535	-0.005535	-0.005535	-0.005535	-0.005535	-0.005535	-0.005535	-0.005535	-0.005535	-0.005535	-0.005535	-0.005535	-0.005535	-0.005535	-0.005535	-0.005535	-0.005535	-0.005535	-0.005535	-0.005535	-0.005535	-0.005535	-0.005535	-0.005535	-0.005535	-0.005535	-0.005535	-0.005535	-0.005535	-0.005535	-0.005535	-0.005535	-0.005535	-0.005535	-0.005535	-0.005535	-0.005535	-0.005535	-0.005535	-0.005535	-0.005535	-0.005535	-0.005535	-0.005535	-0.005535	-0.005535	-0.005535	-0.005535	-0.005535	-0.005535	-0.005535	-0.005535	-0.005535	-0.005535	-0.005535	-0.005535	-0.005535	-0.005535	-0.005535	-0.005535	-0.005535	-0.005535	-0.005535	-0.005535	-0.005535	-0.005535	-0.005535	-0.005535	-0.005535	-0.005535	-0.005535	-0.005535	-0.005535	-0.005535	-0.005535	-0.005535	-0.005535	-0.005535	-0.005535
-0.004510	-0.004510	-0.004510	-0.004510	-0.004510	-0.004510	-0.004510	-0.004510	-0.004510	-0.004510	-0.004510	-0.004510	-0.004510	-0.004510	-0.004510	-0.004510	-0.004510	-0.004510	-0.004510	-0.004510	-0.004510	-0.004510	-0.004510	-0.004510	-0.004510	-0.004510	-0.004510	-0.004510	-0.004510	-0.004510	-0.004510	-0.004510	-0.004510	-0.004510	-0.004510	-0.004510	-0.004510	-0.004510	-0.004510	-0.004510	-0.004510	-0.004510	-0.004510	-0.004510	-0.004510	-0.004510	-0.004510	-0.004510	-0.004510	-0.004510	-0.004510	-0.004510	-0.004510	-0.004510	-0.004510	-0.004510	-0.004510	-0.004510	-0.004510	-0.004510	-0.004510	-0.004510	-0.004510	-0.004510	-0.004510	-0.004510	-0.004510	-0.004510	-0.004510	-0.004510	-0.004510	-0.004510	-0.004510	-0.004510	-0.004510	-0.004510	-0.004510	-0.004510	-0.004510	-0.004510	-0.004510	-0.004510	-0.004510	-0.004510	-0.004510	-0.004510	-0.004510	-0.004510	-0.004510	-0.004510	-0.004510	-0.004510	-0.004510	-0.004510	-0.004510	-0.004510	-0.004510	-0.004510	-0.004510	-0.004510
-0.012751	-0.012751	-0.012751	-0.012751	-0.012751	-0.012751	-0.012751	-0.012751	-0.012751	-0.012751	-0.012751	-0.012751	-0.012751	-0.012751	-0.012751	-0.012751	-0.012751	-0.012751	-0.012751	-0.012751	-0.012751	-0.012751	-0.012751	-0.012751	-0.012751	-0.012751	-0.012751	-0.012751	-0.012751	-0.012751	-0.012751	-0.012751	-0.012751	-0.012751	-0.012751	-0.012751	-0.012751	-0.012751	-0.012751	-0.012751	-0.012751	-0.012751	-0.012751	-0.012751	-0.012751	-0.012751	-0.012751	-0.012751	-0.012751	-0.012751	-0.012751	-0.012751	-0.012751	-0.012751	-0.012751	-0.012751	-0.012751	-0.012751	-0.012751	-0.012751	-0.012751	-0.012751	-0.012751	-0.012751	-0.012751	-0.012751	-0.012751	-0.012751	-0.012751	-0.012751	-0.012751	-0.012751	-0.012751	-0.012751	-0.012751	-0.012751	-0.012751	-0.012751	-0.012751	-0.012751	-0.012751	-0.012751	-0.012751	-0.012751	-0.012751	-0.012751	-0.012751	-0.012751	-0.012751	-0.012751	-0.012751	-0.012751	-0.012751	-0.012751	-0.012751	-0.012751	-0.012751	-0.012751	-0.012751	-0.012751
0.007928	0.007928	0.007928	0.007928	0.007928	0.007928	0.007928	0.007928	0.007928	0.007928	0.007928	0.007928	0.007928	0.007928	0.007928	0.007928	0.007928	0.007928	0.007928	0.007928	0.007928	0.007928	0.007928	0.007928	0.007928	0.007928	0.007928	0.007928	0.007928	0.007928	0.007928	0.007928	0.007928	0.007928	0.007928	0.007928	0.007928	0.007928	0.007928	0.007928	0.007928	0.007928	0.007928	0.007928	0.007928	0.007928	0.007928	0.007928	0.007928	0.007928	0.007928	0.007928	0.007928	0.007928	0.007928	0.007928	0.007928	0.007928	0.007928	0.007928	0.007928	0.007928	0.007928	0.007928	0.007928	0.007928	0.007928	0.007928	0.007928	0.007928	0.007928	0.007928	0.007928	0.007928	0.007928	0.007928	0.007928	0.007928	0.007928	0.007928	0.007928	0.007928	0.007928	0.007928	0.007928	0.007928	0.007928	0.007928	0.007928	0.007928	0.007928	0.007928	0.007928	0.007928	0.007928	0.007928	0.007928	0.007928	0.007928	0.007928
-0.025384	-0.025384	-0.025384	-0.025384	-0.025384	-0.025384	-0.025384	-0.025384	-0.025384	-0.025384	-0.025384	-0.025384	-0.025384	-0.025384	-0.025384	-0.025384	-0.025384	-0.025384	-0.025384	-0.025384	-0.025384	-0.025384	-0.025384	-0.025384	-0.025384	-0.025384	-0.025384	-0.025384	-0.025384	-0.025384	-0.025384	-0.025384	-0.025384	-0.025384	-0.025384	-0.025384	-0.025384	-0.025384	-0.025384	-0.025384	-0.025384	-0.025384	-0.025384	-0.025384	-0.025384	-0.025384	-0.025384	-0.025384	-0.025384	-0.025384	-0.025384	-0.025384	-0.025384	-0.025384	-0.025384	-0.025384	-0.025384	-0.025384	-0.025384	-0.025384	-0.025384	-0.025384	-0.025384	-0.025384	-0.025384	-0.025384	-0.025384	-0.025384	-0.025384	-0.025384	-0.025384	-0.025384	-0.025384	-0.025384	-0.025384	-0.025384	-0.025384	-0.025384	-0.025384	-0.025384	-0.025384	-0.025384	-0.025384	-0.025384	-0.025384	-0.025384	-0.025384	-0.025384	-0.025384	-0.025384	-0.025384	-0.025384	-0.025384	-0.025384	-0.025384	-0.025384	-0.025384	-0.025384	-0.025384	-0.025384
-0.006609	-0.006609	-0.006609	-0.006609	-0.006609	-0.006609	-0.006609	-0.006609	-0.006609	-0.006609	-0.006609	-0.006609	-0.006609	-0.006609	-0.006609	-0.006609	-0.006609	-0.006609	-0.006609	-0.006609	-0.006609	-0.006609	-0.006609	-0.006609	-0.006609	-0.006609	-0.006609	-0.006609	-0.006609	-0.006609	-0.006609	-0.006609	-0.006609	-0.006609	-0.006609	-0.006609	-0.006609	-0.006609	-0.006609	-0.006609	-0.006609	-0.006609	-0.006609	-0.006609	-0.006609	-0.006609	-0.006609	-0.006609	-0.006609	-0.006609	-0.006609	-0.006609	-0.006609	-0.006609	-0.006609	-0.006609	-0.006609	-0.006609	-0.006609	-0.006609	-0.006609	-0.006609	-0.006609	-0.006609	-0.006609	-0.006609	-0.006609	-0.006609	-0.006609	-0.006609	-0.006609	-0.006609	-0.006609	-0.006609	-0.006609	-0.006609	-0.006609	-0.006609	-0.006609	-0.006609	-0.006609	-0.006609	-0.006609	-0.006609	-0.006609	-0.006609	-0.006609	-0.006609	-0.006609	-0.006609	-0.006609	-0.006609	-0.006609	-0.006609	-0.006609	-0.006609	-0.006609	-0.006609	-0.006609	-0.006609
0.005298	0.005298	0.005298	0.005298	0.005298	0.005298	0.005298	0.005298	0.005298	0.005298	0.005298	0.005298	0.005298	0.005298	0.005298	0.005298	0.005298	0.005298	0.005298	0.005298	0.005298	0.005298	0.005298	0.005298	0.005298	0.005298	0.005298	0.005298	0.005298	0.005298	0.005298	0.005298	0.005298	0.005298	0.005298	0.005298	0.005298	0.005298	0.005298	0.005298	0.005298	0.005298	0.005298	0.005298	0.005298	0.005298	0.005298	0.005298	0.005298	0.005298	0.005298	0.005298	0.005298	0.005298	0.005298	0.005298	0.005298	0.005298	0.005298	0.005298	0.005298	0.005298	0.005298	0.005298	0.005298	0.005298	0.005298	0.005298	0.005298	0.005298	0.005298	0.005298	0.005298	0.005298	0.005298	0.005298	0.005298	0.005298	0.005298	0.005298	0.005298	0.005298	0.005298	0.005298	0.005298	0.005298	0.005298	0.005298	0.005298	0.005298	0.005298	0.005298	0.005298	0.005298	0.005298	0.005298	0.005298	0.005298	0.005298	0.005298
-0.002114	-0.002114	-0.002114	-0.002114	-0.002114	-0.002114	-0.002114	-0.002114	-0.002114	-0.002114	-0.002114	-0.002114	-0.002114	-0.002114	-0.002114	-0.002114	-0.002114	-0.002114	-0.002114	-0.002114	-0.002114	-0.002114	-0.002114	-0.002114	-0.002114	-0.002114	-0.002114	-0.002114	-0.002114	-0.002114	-0.002114	-0.002114	-0.002114	-0.002114	-0.002114	-0.002114	-0.002114	-0.002114	-0.002114	-0.002114	-0.002114	-0.002114	-0.002114	-0.002114	-0.002114	-0.002114	-0.002114	-0.002114	-0.002114	-0.002114	-0.002114	-0.002114	-0.002114	-0.002114	-0.002114	-0.002114	-0.002114	-0.002114	-0.002114	-0.002114	-0.002114	-0.002114	-0.002114	-0.002114	-0.002114	-0.002114	-0.002114	-0.002114	-0.002114	-0.002114	-0.002114	-0.002114	-0.002114	-0.002114	-0.002114	-0.002114	-0.002114	-0.002114	-0.002114	-0.002114	-0.002114	-0.002114	-0.002114	-0.002114	-0.002114	-0.002114	-0.002114	-0.002114	-0.002114	-0.002114	-0.002114	-0.002114	-0.002114	-0.002114	-0.002114	-0.002114	-0.002114	-0.002114	-0.002114	-0.002114
-0.009507	-0.009507	-0.009507	-0.009507	-0.009507	-0.009507	-0.009507	-0.009507	-0.009507	-0.009507	-0.009507	-0.009507	-0.009507	-0.009507	-0.009507	-0.009507	-0.009507	-0.009507	-0.009507	-0.009507	-0.009507	-0.009507	-0.009507	-0.009507	-0.009507	-0.009507	-0.009507	-0.009507	-0.009507	-0.009507	-0.009507	-0.009507	-0.009507	-0.009507	-0.009507	-0.009507	-0.009507	-0.009507	-0.009507	-0.009507	-0.009507	-0.009507	-0.009507	-0.009507	-0.009507	-0.009507	-0.009507	-0.009507	-0.009507	-0.009507	-0.009507	-0.009507	-0.009507	-0.009507	-0.009507	-0.009507	-0.009507	-0.009507	-0.009507	-0.009507	-0.009507	-0.009507	-0.009507	-0.009507	-0.009507	-0.009507	-0.009507	-0.009507	-0.009507	-0.009507	-0.009507	-0.009507	-0.009507	-0.009507	-0.009507	-0.009507	-0.009507	-0.009507	-0.009507	-0.009507	-0.009507	-0.009507	-0.009507	-0.009507	-0.009507	-0.009507	-0.009507	-0.009507	-0.009507	-0.009507	-0.009507	-0.009507	-0.009507	-0.009507	-0.009507	-0.009507	-0.009507	-0.009507	-0.009507	-0.009507
-0.002957	-0.002957	-0.002957	-0.002957	-0.002957	-0.002957	-0.002957	-0.002957	-0.002957	-0.002957	-0.002957	-0.002957	-0.002957	-0.002957	-0.002957	-0.002957	-0.002957	-0.002957	-0.002957	-0.002957	-0.002957	-0.002957	-0.002957	-0.002957	-0.002957	-0.002957	-0.002957	-0.002957	-0.002957	-0.002957	-0.002957	-0.002957	-0.002957	-0.002957	-0.002957	-0.002957	-0.002957	-0.002957	-0.002957	-0.002957	-0.002957	-0.002957	-0.002957	-0.002957	-0.002957	-0.002957	-0.002957	-0.002957	-0.002957	-0.002957	-0.002957	-0.002957	-0.002957	-0.002957	-0.002957	-0.002957	-0.002957	-0.002957	-0.002957	-0.002957	-0.002957	-0.002957	-0.002957	-0.002957	-0.002957	-0.002957	-0.002957	-0.002957	-0.002957	-0.002957	-0.002957	-0.002957	-0.002957	-0.002957	-0.002957	-0.002957	-0.002957	-0.002957	-0.002957	-0.002957	-0.002957	-0.002957	-0.002957	-0.002957	-0.002957	-0.002957	-0.002957	-0.002957	-0.002957	-0.002957	-0.002957	-0.002957	-0.002957	-0.002957	-0.002957	-0.002957	-0.002957	-0.002957	-0.002957	-0.002957
-0.023796	-0.023796	-0.023796	-0.023796	-0.023796	-0.023796	-0.023796	-0.023796	-0.023796	-0.023796	-0.023796	-0.023796	-0.023796	-0.023796	-0.023796	-0.023796	-0.023796	-0.023796	-0.023796	-0.023796	-0.023796	-0.023796	-0.023796	-0.023796	-0.023796	-0.023796	-0.023796	-0.023796	-0.023796	-0.023796	-0.023796	-0.023796	-0.023796	-0.023796	-0.023796	-0.023796	-0.023796	-0.023796	-0.023796	-0.023796	-0.023796	-0.023796	-0.023796	-0.023796	-0.023796	-0.023796	-0.023796	-0.023796	-0.023796	-0.023796	-0.023796	-0.023796	-0.023796	-0.023796	-0.023796	-0.023796	-0.023796	-0.023796	-0.023796	-0.023796	-0.023796	-0.023796	-0.023796	-0.023796	-0.023796	-0.023796	-0.023796	-0.023796	-0.023796	-0.023796	-0.023796	-0.023796	-0.023796	-0.023796	-0.023796	-0.023796	-0.023796	-0.023796	-0.023796	-0.023796	-0.023796	-0.023796	-0.023796	-0.023796	-0.023796	-0.023796	-0.023796	-0.023796	-0.023796	-0.023796	-0.023796	-0.023796	-0.023796	-0.023796	-0.023796	-0.023796	-0.023796	-0.023796	-0.023796	-0.023796
-0.010551	-0.010551	-0.010551	-0.010551	-0.010551	-0.010551	-0.010551	-0.010551	-0.010551	-0.010551	-0.010551	-0.010551	-0.010551	-0.010551	-0.010551	-0.010551	-0.010551	-0.010551	-0.010551	-0.010551	-0.010551	-0.010551	-0.010551	-0.010551	-0.010551	-0.010551	-0.010551	-0.010551	-0.010551	-0.010551	-0.010551	-0.010551	-0.010551	-0.010551	-0.010551	-0.010551	-0.010551	-0.010551	-0.010551	-0.010551	-0.010551	-0.010551	-0.010551	-0.010551	-0.010551	-0.010551	-0.010551	-0.010551	-0.010551	-0.010551	-0.010551	-0.010551	-0.010551	-0.010551	-0.010551	-0.010551	-0.010551	-0.010551	-0.010551	-0.010551	-0.010551	-0.010551	-0.010551	-0.010551	-0.010551	-0.010551	-0.010551	-0.010551	-0.010551	-0.010551	-0.010551	-0.010551	-0.010551	-0.010551	-0.010551	-0.010551	-0.010551	-0.010551	-0.010551	-0.010551	-0.010551	-0.010551	-0.010551	-0.010551	-0.010551	-0.010551	-0.010551	-0.010551	-0.010551	-0.010551	-0.010551	-0.010551	-0.010551	-0.010551	-0.010551	-0.010551	-0.010551	-0.010551	-0.010551	-0.010551
-0.005208	-0.005208	-0.005208	-0.005208	-0.005208	-0.005208	-0.005208	-0.005208	-0.005208	-0.005208	-0.005208	-0.005208	-0.005208	-0.005208	-0.005208	-0.005208	-0.005208	-0.005208	-0.005208	-0.005208	-0.005208	-0.005208	-0.005208	-0.005208	-0.005208	-0.005208	-0.005208	-0.005208	-0.005208	-0.005208	-0.005208	-0.005208	-0.005208	-0.005208	-0.005208	-0.005208	-0.005208	-0.005208	-0.005208	-0.005208	-0.005208	-0.005208	-0.005208	-0.005208	-0.005208	-0.005208	-0.005208	-0.005208	-0.005208	-0.005208	-0.005208	-0.005208	-0.005208	-0.005208	-0.005208	-0.005208	-0.005208	-0.005208	-0.005208	-0.005208	-0.005208	-0.005208	-0.005208	-0.005208	-0.005208	-0.005208	-0.005208	-0.005208	-0.005208	-0.005208	-0.005208	-0.005208	-0.005208	-0.005208	-0.005208	-0.005208	-0.005208	-0.005208	-0.005208	-0.005208	-0.005208	-0.005208	-0.005208	-0.005208	-0.005208	-0.005208	-0.005208	-0.005208	-0.005208	-0.005208	-0.005208	-0.005208	-0.005208	-0.005208	-0.005208	-0.005208	-0.005208	-0.005208	-0.005208	-0.005208
-0.001687	-0.001687	-0.001687	-0.001687	-0.001687	-0.001687	-0.001687	-0.001687	-0.001687	-0.001687	-0.001687	-0.001687	-0.001687	-0.001687	-0.001687	-0.001687	-0.001687	-0.001687	-0.001687	-0.001687	-0.001687	-0.001687	-0.001687	-0.001687	-0.001687	-0.001687	-0.001687	-0.001687	-0.001687	-0.001687	-0.001687	-0.001687	-0.001687	-0.001687	-0.001687	-0.001687	-0.001687	-0.001687	-0.001687	-0.001687	-0.001687	-0.001687	-0.001687	-0.001687	-0.001687	-0.001687	-0.001687	-0.001687	-0.001687	-0.001687	-0.001687	-0.001687	-0.001687	-0.001687	-0.001687	-0.001687	-0.001687	-0.001687	-0.001687	-0.001687	-0.001687	-0.001687	-0.001687	-0.001687	-0.001687	-0.001687	-0.001687	-0.001687	-0.001687	-0.001687	-0.001687	-0.001687	-0.001687	-0.001687	-0.001687	-0.001687	-0.001687	-0.001687	-0.001687	-0.001687	-0.001687	-0.001687	-0.001687	-0.001687	-0.001687	-0.001687	-0.001687	-0.001687	-0.001687	-0.001687	-0.001687	-0.001687	-0.001687	-0.001687	-0.001687	-0.001687	-0.001687	-0.001687	-0.001687	-0.001687
-0.005101	-0.005101	-0.005101	-0.005101	-0.005101	-0.005101	-0.005101	-0.005101	-0.005101	-0.005101	-0.005101	-0.005101	-0.005101	-0.005101	-0.005101	-0.005101	-0.005101	-0.005101	-0.005101	-0.005101	-0.005101	-0.005101	-0.005101	-0.005101	-0.005101	-0.005101	-0.005101	-0.005101	-0.005101	-0.005101	-0.005101	-0.005101	-0.005101	-0.005101	-0.005101	-0.005101	-0.005101	-0.005101	-0.005101	-0.005101	-0.005101	-0.005101	-0.005101	-0.005101	-0.005101	-0.005101	-0.005101	-0.005101	-0.005101	-0.005101	-0.005101	-0.005101	-0.005101	-0.005101	-0.005101	-0.005101	-0.005101	-0.005101	-0.005101	-0.005101	-0.005101	-0.005101	-0.005101	-0.005101	-0.005101	-0.005101	-0.005101	-0.005101	-0.005101	-0.005101	-0.005101	-0.005101	-0.005101	-0.005101	-0.005101	-0.005101	-0.005101	-0.005101	-0.005101	-0.005101	-0.005101	-0.005101	-0.005101	-0.005101	-0.005101	-0.005101	-0.005101	-0.005101	-0.005101	-0.005101	-0.005101	-0.005101	-0.005101	-0.005101	-0.005101	-0.005101	-0.005101	-0.005101	-0.005101	-0.005101
0.006287	0.006287	0.006287	0.006287	0.006287	0.006287	0.006287	0.006287	0.006287	0.006287	0.006287	0.006287	0.006287	0.006287	0.006287	0.006287	0.006287	0.006287	0.006287	0.006287	0.006287	0.006287	0.006287	0.006287	0.006287	0.006287	0.006287	0.006287	0.006287	0.006287	0.006287	0.006287	0.006287	0.006287	0.006287	0.006287	0.006287	0.006287	0.006287	0.006287	0.006287	0.006287	0.006287	0.006287	0.006287	0.006287	0.006287	0.006287	0.006287	0.006287	0.006287	0.006287	0.006287	0.006287	0.006287	0.006287	0.006287	0.006287	0.006287	0.006287	0.006287	0.006287	0.006287	0.006287	0.006287	0.006287	0.006287	0.006287	0.006287	0.006287	0.006287	0.006287	0.006287	0.006287	0.006287	0.006287	0.006287	0.006287	0.006287	0.006287	0.006287	0.006287	0.006287	0.006287	0.006287	0.006287	0.006287	0.006287	0.006287	0.006287	0.006287	0.006287	0.006287	0.006287	0.006287	0.006287	0.006287	0.006287	0.006287	0.006287
-0.012807	-0.012807	-0.012807	-0.012807	-0.012807	-0.012807	-0.012807	-0.012807	-0.012807	-0.012807	-0.012807	-0.012807	-0.012807	-0.012807	-0.012807	-0.012807	-0.012807	-0.012807	-0.012807	-0.012807	-0.012807	-0.012807	-0.012807	-0.012807	-0.012807	-0.012807	-0.012807	-0.012807	-0.012807	-0.012807	-0.012807	-0.012807	-0.012807	-0.012807	-0.012807	-0.012807	-0.012807	-0.012807	-0.012807	-0.012807	-0.012807	-0.012807	-0.012807	-0.012807	-0.012807	-0.012807	-0.012807	-0.012807	-0.012807	-0.012807	-0.012807	-0.012807	-0.012807	-0.012807	-0.012807	-0.012807	-0.012807	-0.012807	-0.012807	-0.012807	-0.012807	-0.012807	-0.012807	-0.012807	-0.012807	-0.012807	-0.012807	-0.012807	-0.012807	-0.012807	-0.012807	-0.012807	-0.012807	-0.012807	-0.012807	-0.012807	-0.012807	-0.012807	-0.012807	-0.012807	-0.012807	-0.012807	-0.012807	-0.012807	-0.012807	-0.012807	-0.012807	-0.012807	-0.012807	-0.012807	-0.012807	-0.012807	-0.012807	-0.012807	-0.012807	-0.012807	-0.012807	-0.012807	-0.012807	-0.012807
-0.012235	-0.012235	-0.012235	-0.012235	-0.012235	-0.012235	-0.012235	-0.012235	-0.012235	-0.012235	-0.012235	-0.012235	-0.012235	-0.012235	-0.012235	-0.012235	-0.012235	-0.012235	-0.012235	-0.012235	-0.012235	-0.012235	-0.012235	-0.012235	-0.012235	-0.012235	-0.012235	-0.012235	-0.012235	-0.012235	-0.012235	-0.012235	-0.012235	-0.012235	-0.012235	-0.012235	-0.012235	-0.012235	-0.012235	-0.012235	-0.012235	-0.012235	-0.012235	-0.012235	-0.012235	-0.012235	-0.012235	-0.012235	-0.012235	-0.012235	-0.012235	-0.012235	-0.012235	-0.012235	-0.012235	-0.012235	-0.012235	-0.012235	-0.012235	-0.012235	-0.012235	-0.012235	-0.012235	-0.012235	-0.012235	-0.012235	-0.012235	-0.012235	-0.012235	-0.012235	-0.012235	-0.012235	-0.012235	-0.012235	-0.012235	-0.012235	-0.012235	-0.012235	-0.012235	-0.012235	-0.012235	-0.012235	-0.012235	-0.012235	-0.012235	-0.012235	-0.012235	-0.012235	-0.012235	-0.012235	-0.012235	-0.012235	-0.012235	-0.012235	-0.012235	-0.012235	-0.012235	-0.012235	-0.012235	-0.012235
-0.027269	-0.027269	-0.027269	-0.027269	-0.027269	-0.027269	-0.027269	-0.027269	-0.027269	-0.027269	-0.027269	-0.027269	-0.027269	-0.027269	-0.027269	-0.027269	-0.027269	-0.027269	-0.027269	-0.027269	-0.027269	-0.027269	-0.027269	-0.027269	-0.027269	-0.027269	-0.027269	-0.027269	-0.027269	-0.027269	-0.027269	-0.027269	-0.027269	-0.027269	-0.027269	-0.027269	-0.027269	-0.027269	-0.027269	-0.027269	-0.027269	-0.027269	-0.027269	-0.027269	-0.027269	-0.027269	-0.027269	-0.027269	-0.027269	-0.027269	-0.027269	-0.027269	-0.027269	-0.027269	-0.027269	-0.027269	-0.027269	-0.027269	-0.027269	-0.027269	-0.027269	-0.027269	-0.027269	-0.027269	-0.027269	-0.027269	-0.027269	-0.027269	-0.027269	-0.027269	-0.027269	-0.027269	-0.027269	-0.027269	-0.027269	-0.027269	-0.027269	-0.027269	-0.027269	-0.027269	-0.027269	-0.027269	-0.027269	-0.027269	-0.027269	-0.027269	-0.027269	-0.027269	-0.027269	-0.027269	-0.027269	-0.027269	-0.027269	-0.027269	-0.027269	-0.027269	-0.027269	-0.027269	-0.027269	-0.027269
-0.008587	-0.008587	-0.008587	-0.008587	-0.008587	-0.008587	-0.008587	-0.008587	-0.008587	-0.008587	-0.008587	-0.008587	-0.008587	-0.008587	-0.008587	-0.008587	-0.008587	-0.008587	-0.008587	-0.008587	-0.008587	-0.008587	-0.008587	-0.008587	-0.008587	-0.008587	-0.008587	-0.008587	-0.008587	-0.008587	-0.008587	-0.008587	-0.008587	-0.008587	-0.008587	-0.008587	-0.008587	-0.008587	-0.008587	-0.008587	-0.008587	-0.008587	-0.008587	-0.008587	-0.008587	-0.008587	-0.008587	-0.008587	-0.008587	-0.008587	-0.008587	-0.008587	-0.008587	-0.008587	-0.008587	-0.008587	-0.008587	-0.008587	-0.008587	-0.008587	-0.008587	-0.008587	-0.008587	-0.008587	-0.008587	-0.008587	-0.008587	-0.008587	-0.008587	-0.008587	-0.008587	-0.008587	-0.008587	-0.008587	-0.008587	-0.008587	-0.008587	-0.008587	-0.008587	-0.008587	-0.008587	-0.008587	-0.008587	-0.008587	-0.008587	-0.008587	-0.008587	-0.008587	-0.008587	-0.008587	-0.008587	-0.008587	-0.008587	-0.008587	-0.008587	-0.008587	-0.008587	-0.008587	-0.008587	-0.008587
-0.007995	-0.007995	-0.007995	-0.007995	-0.007995	-0.007995	-0.007995	-0.007995	-0.007995	-0.007995	-0.007995	-0.007995	-0.007995	-0.007995	-0.007995	-0.007995	-0.007995	-0.007995	-0.007995	-0.007995	-0.007995	-0.007995	-0.007995	-0.007995	-0.007995	-0.007995	-0.007995	-0.007995	-0.007995	-0.007995	-0.007995	-0.007995	-0.007995	-0.007995	-0.007995	-0.007995	-0.007995	-0.007995	-0.007995	-0.007995	-0.007995	-0.007995	-0.007995	-0.007995	-0.007995	-0.007995	-0.007995	-0.007995	-0.007995	-0.007995	-0.007995	-0.007995	-0.007995	-0.007995	-0.007995	-0.007995	-0.007995	-0.007995	-0.007995	-0.007995	-0.007995	-0.007995	-0.007995	-0.007995	-0.007995	-0.007995	-0.007995	-0.007995	-0.007995	-0.007995	-0.007995	-0.007995	-0.007995	-0.007995	-0.007995	-0.007995	-0.007995	-0.007995	-0.007995	-0.007995	-0.007995	-0.007995	-0.007995	-0.007995	-0.007995	-0.007995	-0.007995	-0.007995	-0.007995	-0.007995	-0.007995	-0.007995	-0.007995	-0.007995	-0.007995	-0.007995	-0.007995	-0.007995	-0.007995	-0.007995
-0.004641	-0.004641	-0.004641	-0.004641	-0.004641	-0.004641	-0.004641	-0.004641	-0.004641	-0.004641	-0.004641	-0.004641	-0.004641	-0.004641	-0.004641	-0.004641	-0.004641	-0.004641	-0.004641	-0.004641	-0.004641	-0.004641	-0.004641	-0.004641	-0.004641	-0.004641	-0.004641	-0.004641	-0.004641	-0.004641	-0.004641	-0.004641	-0.004641	-0.004641	-0.004641	-0.004641	-0.004641	-0.004641	-0.004641	-0.004641	-0.004641	-0.004641	-0.004641	-0.004641	-0.004641	-0.004641	-0.004641	-0.004641	-0.004641	-0.004641	-0.004641	-0.004641	-0.004641	-0.004641	-0.004641	-0.004641	-0.004641	-0.004641	-0.004641	-0.004641	-0.004641	-0.004641	-0.004641	-0.004641	-0.004641	-0.004641	-0.004641	-0.004641	-0.004641	-0.004641	-0.004641	-0.004641	-0.004641	-0.004641	-0.004641	-0.004641	-0.004641	-0.004641	-0.004641	-0.004641	-0.004641	-0.004641	-0.004641	-0.004641	-0.004641	-0.004641	-0.004641	-0.004641	-0.004641	-0.004641	-0.004641	-0.004641	-0.004641	-0.004641	-0.004641	-0.004641	-0.004641	-0.004641	-0.004641	-0.004641
-0.004120	-0.004120	-0.004120	-0.004120	-0.004120	-0.004120	-0.004120	-0.004120	-0.004120	-0.004120	-0.004120	-0.004120	-0.004120	-0.004120	-0.004120	-0.004120	-0.004120	-0.004120	-0.004120	-0.004120	-0.004120	-0.004120	-0.004120	-0.004120	-0.004120	-0.004120	-0.004120	-0.004120	-0.004120	-0.004120	-0.004120	-0.004120	-0.004120	-0.004120	-0.004120	-0.004120	-0.004120	-0.004120	-0.004120	-0.004120	-0.004120	-0.004120	-0.004120	-0.004120	-0.004120	-0.004120	-0.004120	-0.004120	-0.004120	-0.004120	-0.004120	-0.004120	-0.004120	-0.004120	-0.004120	-0.004120	-0.004120	-0.004120	-0.004120	-0.004120	-0.004120	-0.004120	-0.004120	-0.004120	-0.004120	-0.004120	-0.004120	-0.004120	-0.004120	-0.004120	-0.004120	-0.004120	-0.004120	-0.004120	-0.004120	-0.004120	-0.004120	-0.004120	-0.004120	-0.004120	-0.004120	-0.004120	-0.004120	-0.004120	-0.004120	-0.004120	-0.004120	-0.004120	-0.004120	-0.004120	-0.004120	-0.004120	-0.004120	-0.004120	-0.004120	-0.004120	-0.004120	-0.004120	-0.004120	-0.004120
-0.006787	-0.006787	-0.006787	-0.006787	-0.006787	-0.006787	-0.006787	-0.006787	-0.006787	-0.006787	-0.006787	-0.006787	-0.006787	-0.006787	-0.006787	-0.006787	-0.006787	-0.006787	-0.006787	-0.006787	-0.006787	-0.006787	-0.006787	-0.006787	-0.006787	-0.006787	-0.006787	-0.006787	-0.006787	-0.006787	-0.006787	-0.006787	-0.006787	-0.006787	-0.006787	-0.006787	-0.006787	-0.006787	-0.006787	-0.006787	-0.006787	-0.006787	-0.006787	-0.006787	-0.006787	-0.006787	-0.006787	-0.006787	-0.006787	-0.006787	-0.006787	-0.006787	-0.006787	-0.006787	-0.006787	-0.006787	-0.006787	-0.006787	-0.006787	-0.006787	-0.006787	-0.006787	-0.006787	-0.006787	-0.006787	-0.006787	-0.006787	-0.006787	-0.006787	-0.006787	-0.006787	-0.006787	-0.006787	-0.006787	-0.006787	-0.006787	-0.006787	-0.006787	-0.006787	-0.006787	-0.006787	-0.006787	-0.006787	-0.006787	-0.006787	-0.006787	-0.006787	-0.006787	-0.006787	-0.006787	-0.006787	-0.006787	-0.006787	-0.006787	-0.006787	-0.006787	-0.006787	-0.006787	-0.006787	-0.006787
0.002547	0.002547	0.002547	0.002547	0.002547	0.002547	0.002547	0.002547	0.002547	0.002547	0.002547	0.002547	0.002547	0.002547	0.002547	0.002547	0.002547	0.002547	0.002547	0.002547	0.002547	0.002547	0.002547	0.002547	0.002547	0.002547	0.002547	0.002547	0.002547	0.002547	0.002547	0.002547	0.002547	0.002547	0.002547	0.002547	0.002547	0.002547	0.002547	0.002547	0.002547	0.002547	0.002547	0.002547	0.002547	0.002547	0.002547	0.002547	0.002547	0.002547	0.002547	0.002547	0.002547	0.002547	0.002547	0.002547	0.002547	0.002547	0.002547	0.002547	0.002547	0.002547	0.002547	0.002547	0.002547	0.002547	0.002547	0.002547	0.002547	0.002547	0.002547	0.002547	0.002547	0.002547	0.002547	0.002547	0.002547	0.002547	0.002547	0.002547	0.002547	0.002547	0.002547	0.002547	0.002547	0.002547	0.002547	0.002547	0.002547	0.002547	0.002547	0.002547	0.002547	0.002547	0.002547	0.002547	0.002547	0.002547	0.002547	0.002547
-0.016505	-0.016505	-0.016505	-0.016505	-0.016505	-0.016505	-0.016505	-0.016505	-0.016505	-0.016505	-0.016505	-0.016505	-0.016505	-0.016505	-0.016505	-0.016505	-0.016505	-0.016505	-0.016505	-0.016505	-0.016505	-0.016505	-0.016505	-0.016505	-0.016505	-0.016505	-0.016505	-0.016505	-0.016505	-0.016505	-0.016505	-0.016505	-0.016505	-0.016505	-0.016505	-0.016505	-0.016505	-0.016505	-0.016505	-0.016505	-0.016505	-0.016505	-0.016505	-0.016505	-0.016505	-0.016505	-0.016505	-0.016505	-0.016505	-0.016505	-0.016505	-0.016505	-0.016505	-0.016505	-0.016505	-0.016505	-0.016505	-0.016505	-0.016505	-0.016505	-0.016505	-0.016505	-0.016505	-0.016505	-0.016505	-0.016505	-0.016505	-0.016505	-0.016505	-0.016505	-0.016505	-0.016505	-0.016505	-0.016505	-0.016505	-0.016505	-0.016505	-0.016505	-0.016505	-0.016505	-0.016505	-0.016505	-0.016505	-0.016505	-0.016505	-0.016505	-0.016505	-0.016505	-0.016505	-0.016505	-0.016505	-0.016505	-0.016505	-0.016505	-0.016505	-0.016505	-0.016505	-0.016505	-0.016505	-0.016505
-0.005712	-0.005712	-0.005712	-0.005712	-0.005712	-0.005712	-0.005712	-0.005712	-0.005712	-0.005712	-0.005712	-0.005712	-0.005712	-0.005712	-0.005712	-0.005712	-0.005712	-0.005712	-0.005712	-0.005712	-0.005712	-0.005712	-0.005712	-0.005712	-0.005712	-0.005712	-0.005712	-0.005712	-0.005712	-0.005712	-0.005712	-0.005712	-0.005712	-0.005712	-0.005712	-0.005712	-0.005712	-0.005712	-0.005712	-0.005712	-0.005712	-0.005712	-0.005712	-0.005712	-0.005712	-0.005712	-0.005712	-0.005712	-0.005712	-0.005712	-0.005712	-0.005712	-0.005712	-0.005712	-0.005712	-0.005712	-0.005712	-0.005712	-0.005712	-0.005712	-0.005712	-0.005712	-0.005712	-0.005712	-0.005712	-0.005712	-0.005712	-0.005712	-0.005712	-0.005712	-0.005712	-0.005712	-0.005712	-0.005712	-0.005712	-0.005712	-0.005712	-0.005712	-0.005712	-0.005712	-0.005712	-0.005712	-0.005712	-0.005712	-0.005712	-0.005712	-0.005712	-0.005712	-0.005712	-0.005712	-0.005712	-0.005712	-0.005712	-0.005712	-0.005712	-0.005712	-0.005712	-0.005712	-0.005712	-0.005712
-0.015920	-0.015920	-0.015920	-0.015920	-0.015920	-0.015920	-0.015920	-0.015920	-0.015920	-0.015920	-0.015920	-0.015920	-0.015920	-0.015920	-0.015920	-0.015920	-0.015920	-0.015920	-0.015920	-0.015920	-0.015920	-0.015920	-0.015920	-0.015920	-0.015920	-0.015920	-0.015920	-0.015920	-0.015920	-0.015920	-0.015920	-0.015920	-0.015920	-0.015920	-0.015920	-0.015920	-0.015920	-0.015920	-0.015920	-0.015920	-0.015920	-0.015920	-0.015920	-0.015920	-0.015920	-0.015920	-0.015920	-0.015920	-0.015920	-0.015920	-0.015920	-0.015920	-0.015920	-0.015920	-0.015920	-0.015920	-0.015920	-0.015920	-0.015920	-0.015920	-0.015920	-0.015920	-0.015920	-0.015920	-0.015920	-0.015920	-0.015920	-0.015920	-0.015920	-0.015920	-0.015920	-0.015920	-0.015920	-0.015920	-0.015920	-0.015920	-0.015920	-0.015920	-0.015920	-0.015920	-0.015920	-0.015920	-0.015920	-0.015920	-0.015920	-0.015920	-0.015920	-0.015920	-0.015920	-0.015920	-0.015920	-0.015920	-0.015920	-0.015920	-0.015920	-0.015920	-0.015920	-0.015920	-0.015920	-0.015920
-0.001521	-0.001521	-0.001521	-0.001521	-0.001521	-0.001521	-0.001521	-0.001521	-0.001521	-0.001521	-0.001521	-0.001521	-0.001521	-0.001521	-0.001521	-0.001521	-0.001521	-0.001521	-0.001521	-0.001521	-0.001521	-0.001521	-0.001521	-0.001521	-0.001521	-0.001521	-0.001521	-0.001521	-0.001521	-0.001521	-0.001521	-0.001521	-0.001521	-0.001521	-0.001521	-0.001521	-0.001521	-0.001521	-0.001521	-0.001521	-0.001521	-0.001521	-0.001521	-0.001521	-0.001521	-0.001521	-0.001521	-0.001521	-0.001521	-0.001521	-0.001521	-0.001521	-0.001521	-0.001521	-0.001521	-0.001521	-0.001521	-0.001521	-0.001521	-0.001521	-0.001521	-0.001521	-0.001521	-0.001521	-0.001521	-0.001521	-0.001521	-0.001521	-0.001521	-0.001521	-0.001521	-0.001521	-0.001521	-0.001521	-0.001521	-0.001521	-0.001521	-0.001521	-0.001521	-0.001521	-0.001521	-0.001521	-0.001521	-0.001521	-0.001521	-0.001521	-0.001521	-0.001521	-0.001521	-0.001521	-0.001521	-0.001521	-0.001521	-0.001521	-0.001521	-0.001521	-0.001521	-0.001521	-0.001521	-0.001521
0.008889	0.008889	0.008889	0.008889	0.008889	0.008889	0.008889	0.008889	0.008889	0.008889	0.008889	0.008889	0.008889	0.008889	0.008889	0.008889	0.008889	0.008889	0.008889	0.008889	0.008889	0.008889	0.008889	0.008889	0.008889	0.008889	0.008889	0.008889	0.008889	0.008889	0.008889	0.008889	0.008889	0.008889	0.008889	0.008889	0.008889	0.008889	0.008889	0.008889	0.008889	0.008889	0.008889	0.008889	0.008889	0.008889	0.008889	0.008889	0.008889	0.008889	0.008889	0.008889	0.008889	0.008889	0.008889	0.008889	0.008889	0.008889	0.008889	0.008889	0.008889	0.008889	0.008889	0.008889	0.008889	0.008889	0.008889	0.008889	0.008889	0.008889	0.008889	0.008889	0.008889	0.008889	0.008889	0.008889	0.008889	0.008889	0.008889	0.008889	0.008889	0.008889	0.008889	0.008889	0.008889	0.008889	0.008889	0.008889	0.008889	0.008889	0.008889	0.008889	0.008889	0.008889	0.008889	0.008889	0.008889	0.008889	0.008889	0.008889
-0.003456	-0.003456	-0.003456	-0.003456	-0.003456	-0.003456	-0.003456	-0.003456	-0.003456	-0.003456	-0.003456	-0.003456	-0.003456	-0.003456	-0.003456	-0.003456	-0.003456	-0.003456	-0.003456	-0.003456	-0.003456	-0.003456	-0.003456	-0.003456	-0.003456	-0.003456	-0.003456	-0.003456	-0.003456	-0.003456	-0.003456	-0.003456	-0.003456	-0.003456	-0.003456	-0.003456	-0.003456	-0.003456	-0.003456	-0.003456	-0.003456	-0.003456	-0.003456	-0.003456	-0.003456	-0.003456	-0.003456	-0.003456	-0.003456	-0.003456	-0.003456	-0.003456	-0.003456	-0.003456	-0.003456	-0.003456	-0.003456	-0.003456	-0.003456	-0.003456	-0.003456	-0.003456	-0.003456	-0.003456	-0.003456	-0.003456	-0.003456	-0.003456	-0.003456	-0.003456	-0.003456	-0.003456	-0.003456	-0.003456	-0.003456	-0.003456	-0.003456	-0.003456	-0.003456	-0.003456	-0.003456	-0.003456	-0.003456	-0.003456	-0.003456	-0.003456	-0.003456	-0.003456	-0.003456	-0.003456	-0.003456	-0.003456	-0.003456	-0.003456	-0.003456	-0.003456	-0.003456	-0.003456	-0.003456	-0.003456
-0.004021	-0.004021	-0.004021	-0.004021	-0.004021	-0.004021	-0.004021	-0.004021	-0.004021	-0.004021	-0.004021	-0.004021	-0.004021	-0.004021	-0.004021	-0.004021	-0.004021	-0.004021	-0.004021	-0.004021	-0.004021	-0.004021	-0.004021	-0.004021	-0.004021	-0.004021	-0.004021	-0.004021	-0.004021	-0.004021	-0.004021	-0.004021	-0.004021	-0.004021	-0.004021	-0.004021	-0.004021	-0.004021	-0.004021	-0.004021	-0.004021	-0.004021	-0.004021	-0.004021	-0.004021	-0.004021	-0.004021	-0.004021	-0.004021	-0.004021	-0.004021	-0.004021	-0.004021	-0.004021	-0.004021	-0.004021	-0.004021	-0.004021	-0.004021	-0.004021	-0.004021	-0.004021	-0.004021	-0.004021	-0.004021	-0.004021	-0.004021	-0.004021	-0.004021	-0.004021	-0.004021	-0.004021	-0.004021	-0.004021	-0.004021	-0.004021	-0.004021	-0.004021	-0.004021	-0.004021	-0.004021	-0.004021	-0.004021	-0.004021	-0.004021	-0.004021	-0.004021	-0.004021	-0.004021	-0.004021	-0.004021	-0.004021	-0.004021	-0.004021	-0.004021	-0.004021	-0.004021	-0.004021	-0.004021	-0.004021
-0.008595	-0.008595	-0.008595	-0.008595	-0.008595	-0.008595	-0.008595	-0.008595	-0.008595	-0.008595	-0.008595	-0.008595	-0.008595	-0.008595	-0.008595	-0.008595	-0.008595	-0.008595	-0.008595	-0.008595	-0.008595	-0.008595	-0.008595	-0.008595	-0.008595	-0.008595	-0.008595	-0.008595	-0.008595	-0.008595	-0.008595	-0.008595	-0.008595	-0.008595	-0.008595	-0.008595	-0.008595	-0.008595	-0.008595	-0.008595	-0.008595	-0.008595	-0.008595	-0.008595	-0.008595	-0.008595	-0.008595	-0.008595	-0.008595	-0.008595	-0.008595	-0.008595	-0.008595	-0.008595	-0.008595	-0.008595	-0.008595	-0.008595	-0.008595	-0.008595	-0.008595	-0.008595	-0.008595	-0.008595	-0.008595	-0.008595	-0.008595	-0.008595	-0.008595	-0.008595	-0.008595	-0.008595	-0.008595	-0.008595	-0.008595	-0.008595	-0.008595	-0.008595	-0.008595	-0.008595	-0.008595	-0.008595	-0.008595	-0.008595	-0.008595	-0.008595	-0.008595	-0.008595	-0.008595	-0.008595	-0.008595	-0.008595	-0.008595	-0.008595	-0.008595	-0.008595	-0.008595	-0.008595	-0.008595	-0.008595
-0.011884	-0.011884	-0.011884	-0.011884	-0.011884	-0.011884	-0.011884	-0.011884	-0.011884	-0.011884	-0.011884	-0.011884	-0.011884	-0.011884	-0.011884	-0.011884	-0.011884	-0.011884	-0.011884	-0.011884	-0.011884	-0.011884	-0.011884	-0.011884	-0.011884	-0.011884	-0.011884	-0.011884	-0.011884	-0.011884	-0.011884	-0.011884	-0.011884	-0.011884	-0.011884	-0.011884	-0.011884	-0.011884	-0.011884	-0.011884	-0.011884	-0.011884	-0.011884	-0.011884	-0.011884	-0.011884	-0.011884	-0.011884	-0.011884	-0.011884	-0.011884	-0.011884	-0.011884	-0.011884	-0.011884	-0.011884	-0.011884	-0.011884	-0.011884	-0.011884	-0.011884	-0.011884	-0.011884	-0.011884	-0.011884	-0.011884	-0.011884	-0.011884	-0.011884	-0.011884	-0.011884	-0.011884	-0.011884	-0.011884	-0.011884	-0.011884	-0.011884	-0.011884	-0.011884	-0.011884	-0.011884	-0.011884	-0.011884	-0.011884	-0.011884	-0.011884	-0.011884	-0.011884	-0.011884	-0.011884	-0.011884	-0.011884	-0.011884	-0.011884	-0.011884	-0.011884	-0.011884	-0.011884	-0.011884	-0.011884
-0.019907	-0.019907	-0.019907	-0.019907	-0.019907	-0.019907	-0.019907	-0.019907	-0.019907	-0.019907	-0.019907	-0.019907	-0.019907	-0.019907	-0.019907	-0.019907	-0.019907	-0.019907	-0.019907	-0.019907	-0.019907	-0.019907	-0.019907	-0.019907	-0.019907	-0.019907	-0.019907	-0.019907	-0.019907	-0.019907	-0.019907	-0.019907	-0.019907	-0.019907	-0.019907	-0.019907	-0.019907	-0.019907	-0.019907	-0.019907	-0.019907	-0.019907	-0.019907	-0.019907	-0.019907	-0.019907	-0.019907	-0.019907	-0.019907	-0.019907	-0.019907	-0.019907	-0.019907	-0.019907	-0.019907	-0.019907	-0.019907	-0.019907	-0.019907	-0.019907	-0.019907	-0.019907	-0.019907	-0.019907	-0.019907	-0.019907	-0.019907	-0.019907	-0.019907	-0.019907	-0.019907	-0.019907	-0.019907	-0.019907	-0.019907	-0.019907	-0.019907	-0.019907	-0.019907	-0.019907	-0.019907	-0.019907	-0.019907	-0.019907	-0.019907	-0.019907	-0.019907	-0.019907	-0.019907	-0.019907	-0.019907	-0.019907	-0.019907	-0.019907	-0.019907	-0.019907	-0.019907	-0.019907	-0.019907	-0.019907
0.003968	0.003968	0.003968	0.003968	0.003968	0.003968	0.003968	0.003968	0.003968	0.003968	0.003968	0.003968	0.003968	0.003968	0.003968	0.003968	0.003968	0.003968	0.003968	0.003968	0.003968	0.003968	0.003968	0.003968	0.003968	0.003968	0.003968	0.003968	0.003968	0.003968	0.003968	0.003968	0.003968	0.003968	0.003968	0.003968	0.003968	0.003968	0.003968	0.003968	0.003968	0.003968	0.003968	0.003968	0.003968	0.003968	0.003968	0.003968	0.003968	0.003968	0.003968	0.003968	0.003968	0.003968	0.003968	0.003968	0.003968	0.003968	0.003968	0.003968	0.003968	0.003968	0.003968	0.003968	0.003968	0.003968	0.003968	0.003968	0.003968	0.003968	0.003968	0.003968	0.003968	0.003968	0.003968	0.003968	0.003968	0.003968	0.003968	0.003968	0.003968	0.003968	0.003968	0.003968	0.003968	0.003968	0.003968	0.003968	0.003968	0.003968	0.003968	0.003968	0.003968	0.003968	0.003968	0.003968	0.003968	0.003968	0.003968	0.003968
0.001370	0.001370	0.001370	0.001370	0.001370	0.001370	0.001370	0.001370	0.001370	0.001370	0.001370	0.001370	0.001370	0.001370	0.001370	0.001370	0.001370	0.001370	0.001370	0.001370	0.001370	0.001370	0.001370	0.001370	0.001370	0.001370	0.001370	0.001370	0.001370	0.001370	0.001370	0.001370	0.001370	0.001370	0.001370	0.001370	0.001370	0.001370	0.001370	0.001370	0.001370	0.001370	0.001370	0.001370	0.001370	0.001370	0.001370	0.001370	0.001370	0.001370	0.001370	0.001370	0.001370	0.001370	0.001370	0.001370	0.001370	0.001370	0.001370	0.001370	0.001370	0.001370	0.001370	0.001370	0.001370	0.001370	0.001370	0.001370	0.001370	0.001370	0.001370	0.001370	0.001370	0.001370	0.001370	0.001370	0.001370	0.001370	0.001370	0.001370	0.001370	0.001370	0.001370	0.001370	0.001370	0.001370	0.001370	0.001370	0.001370	0.001370	0.001370	0.001370	0.001370	0.001370	0.001370	0.001370	0.001370	0.001370	0.001370	0.001370
0.004799	0.004799	0.004799	0.004799	0.004799	0.004799	0.004799	0.004799	0.004799	0.004799	0.004799	0.004799	0.004799	0.004799	0.004799	0.004799	0.004799	0.004799	0.004799	0.004799	0.004799	0.004799	0.004799	0.004799	0.004799	0.004799	0.004799	0.004799	0.004799	0.004799	0.004799	0.004799	0.004799	0.004799	0.004799	0.004799	0.004799	0.004799	0.004799	0.004799	0.004799	0.004799	0.004799	0.004799	0.004799	0.004799	0.004799	0.004799	0.004799	0.004799	0.004799	0.004799	0.004799	0.004799	0.004799	0.004799	0.004799	0.004799	0.004799	0.004799	0.004799	0.004799	0.004799	0.004799	0.004799	0.004799	0.004799	0.004799	0.004799	0.004799	0.004799	0.004799	0.004799	0.004799	0.004799	0.004799	0.004799	0.004799	0.004799	0.004799	0.004799	0.004799	0.004799	0.004799	0.004799	0.004799	0.004799	0.004799	0.004799	0.004799	0.004799	0.004799	0.004799	0.004799	0.004799	0.004799	0.004799	0.004799	0.004799	0.004799
-0.009896	-0.009896	-0.009896	-0.009896	-0.009896	-0.009896	-0.009896	-0.009896	-0.009896	-0.009896	-0.009896	-0.009896	-0.009896	-0.009896	-0.009896	-0.009896	-0.009896	-0.009896	-0.009896	-0.009896	-0.009896	-0.009896	-0.009896	-0.009896	-0.009896	-0.009896	-0.009896	-0.009896	-0.009896	-0.009896	-0.009896	-0.009896	-0.009896	-0.009896	-0.009896	-0.009896	-0.009896	-0.009896	-0.009896	-0.009896	-0.009896	-0.009896	-0.009896	-0.009896	-0.009896	-0.009896	-0.009896	-0.009896	-0.009896	-0.009896	-0.009896	-0.009896	-0.009896	-0.009896	-0.009896	-0.009896	-0.009896	-0.009896	-0.009896	-0.009896	-0.009896	-0.009896	-0.009896	-0.009896	-0.009896	-0.009896	-0.009896	-0.009896	-0.009896	-0.009896	-0.009896	-0.009896	-0.009896	-0.009896	-0.009896	-0.009896	-0.009896	-0.009896	-0.009896	-0.009896	-0.009896	-0.009896	-0.009896	-0.009896	-0.009896	-0.009896	-0.009896	-0.009896	-0.009896	-0.009896	-0.009896	-0.009896	-0.009896	-0.009896	-0.009896	-0.009896	-0.009896	-0.009896	-0.009896	-0.009896
0.000010	0.000010	0.000010	0.000010	0.000010	0.000010	0.000010	0.000010	0.000010	0.000010	0.000010	0.000010	0.000010	0.000010	0.000010	0.000010	0.000010	0.000010	0.000010	0.000010	0.000010	0.000010	0.000010	0.000010	0.000010	0.000010	0.000010	0.000010	0.000010	0.000010	0.000010	0.000010	0.000010	0.000010	0.000010	0.000010	0.000010	0.000010	0.000010	0.000010	0.000010	0.000010	0.000010	0.000010	0.000010	0.000010	0.000010	0.000010	0.000010	0.000010	0.000010	0.000010	0.000010	0.000010	0.000010	0.000010	0.000010	0.000010	0.000010	0.000010	0.000010	0.000010	0.000010	0.000010	0.000010	0.000010	0.000010	0.000010	0.000010	0.000010	0.000010	0.000010	0.000010	0.000010	0.000010	0.000010	0.000010	0.000010	0.000010	0.000010	0.000010	0.000010	0.000010	0.000010	0.000010	0.000010	0.000010	0.000010	0.000010	0.000010	0.000010	0.000010	0.000010	0.000010	0.000010	0.000010	0.000010	0.000010	0.000010	0.000010
-0.009744	-0.009744	-0.009744	-0.009744	-0.009744	-0.009744	-0.009744	-0.009744	-0.009744	-0.009744	-0.009744	-0.009744	-0.009744	-0.009744	-0.009744	-0.009744	-0.009744	-0.009744	-0.009744	-0.009744	-0.009744	-0.009744	-0.009744	-0.009744	-0.009744	-0.009744	-0.009744	-0.009744	-0.009744	-0.009744	-0.009744	-0.009744	-0.009744	-0.009744	-0.009744	-0.009744	-0.009744	-0.009744	-0.009744	-0.009744	-0.009744	-0.009744	-0.009744	-0.009744	-0.009744	-0.009744	-0.009744	-0.009744	-0.009744	-0.009744	-0.009744	-0.009744	-0.009744	-0.009744	-0.009744	-0.009744	-0.009744	-0.009744	-0.009744	-0.009744	-0.009744	-0.009744	-0.009744	-0.009744	-0.009744	-0.009744	-0.009744	-0.009744	-0.009744	-0.009744	-0.009744	-0.009744	-0.009744	-0.009744	-0.009744	-0.009744	-0.009744	-0.009744	-0.009744	-0.009744	-0.009744	-0.009744	-0.009744	-0.009744	-0.009744	-0.009744	-0.009744	-0.009744	-0.009744	-0.009744	-0.009744	-0.009744	-0.009744	-0.009744	-0.009744	-0.009744	-0.009744	-0.009744	-0.009744	-0.009744
-0.018013	-0.018013	-0.018013	-0.018013	-0.018013	-0.018013	-0.018013	-0.018013	-0.018013	-0.018013	-0.018013	-0.018013	-0.018013	-0.018013	-0.018013	-0.018013	-0.018013	-0.018013	-0.018013	-0.018013	-0.018013	-0.018013	-0.018013	-0.018013	-0.018013	-0.018013	-0.018013	-0.018013	-0.018013	-0.018013	-0.018013	-0.018013	-0.018013	-0.018013	-0.018013	-0.018013	-0.018013	-0.018013	-0.018013	-0.018013	-0.018013	-0.018013	-0.018013	-0.018013	-0.018013	-0.018013	-0.018013	-0.018013	-0.018013	-0.018013	-0.018013	-0.018013	-0.018013	-0.018013	-0.018013	-0.018013	-0.018013	-0.018013	-0.018013	-0.018013	-0.018013	-0.018013	-0.018013	-0.018013	-0.018013	-0.018013	-0.018013	-0.018013	-0.018013	-0.018013	-0.018013	-0.018013	-0.018013	-0.018013	-0.018013	-0.018013	-0.018013	-0.018013	-0.018013	-0.018013	-0.018013	-0.018013	-0.018013	-0.018013	-0.018013	-0.018013	-0.018013	-0.018013	-0.018013	-0.018013	-0.018013	-0.018013	-0.018013	-0.018013	-0.018013	-0.018013	-0.018013	-0.018013	-0.018013	-0.018013
-0.013072	-0.013072	-0.013072	-0.013072	-0.013072	-0.013072	-0.013072	-0.013072	-0.013072	-0.013072	-0.013072	-0.013072	-0.013072	-0.013072	-0.013072	-0.013072	-0.013072	-0.013072	-0.013072	-0.013072	-0.013072	-0.013072	-0.013072	-0.013072	-0.013072	-0.013072	-0.013072	-0.013072	-0.013072	-0.013072	-0.013072	-0.013072	-0.013072	-0.013072	-0.013072	-0.013072	-0.013072	-0.013072	-0.013072	-0.013072	-0.013072	-0.013072	-0.013072	-0.013072	-0.013072	-0.013072	-0.013072	-0.013072	-0.013072	-0.013072	-0.013072	-0.013072	-0.013072	-0.013072	-0.013072	-0.013072	-0.013072	-0.013072	-0.013072	-0.013072	-0.013072	-0.013072	-0.013072	-0.013072	-0.013072	-0.013072	-0.013072	-0.013072	-0.013072	-0.013072	-0.013072	-0.013072	-0.013072	-0.013072	-0.013072	-0.013072	-0.013072	-0.013072	-0.013072	-0.013072	-0.013072	-0.013072	-0.013072	-0.013072	-0.013072	-0.013072	-0.013072	-0.013072	-0.013072	-0.013072	-0.013072	-0.013072	-0.013072	-0.013072	-0.013072	-0.013072	-0.013072	-0.013072	-0.013072	-0.013072
